SVM-light Version V6.02
0 # kernel type
3 # kernel parameter -d 
1 # kernel parameter -g 
1 # kernel parameter -s 
1 # kernel parameter -r 
empty# kernel parameter -u 
24 # highest feature index 
200 # number of training documents 
129 # number of support vectors plus 1 
-1.1573087 # threshold b, each following line is a SV (starting with alpha*y)
-2.8766494531980078303759727911882e-12 1:126497 2:243432 3:173520 4:1534.14 5:4957.6802 6:3.25581 7:100.742 8:32047.4 9:15 10:43 11:25 12:205 13:4719.4902 14:2941.78 15:149.24899 16:165.16 17:0.34375 18:11.8125 19:0.30303001 20:0.72900498 21:0.30944699 22:0.95195502 23:10.8939 24:4.6071401 # Flowers/Shape1/shape1-004.ppm
2.8766494531980078303759727911882e-12 1:78093.398 2:269240 3:187052 4:1721.53 5:2798.6399 6:3.0344801 7:120.661 8:16741.5 9:9 10:29 11:8 12:172 13:4171.9199 14:2692.8799 15:159.75 16:134.875 17:0.44999999 18:33.400002 19:0.44999999 20:0.41749701 21:0.61513197 22:1.4907 23:6.21698 24:2.96591 # Flowers/Shape4/shape4-000.ppm
-2.8766494531980078303759727911882e-12 1:176607 2:738170 3:514165 4:2815.26 5:7474.9702 6:3.4461501 7:112.296 8:38013.301 9:17 10:65 11:16 12:292 13:7331.8101 14:2717.03 15:157.123 16:157.688 17:0.41304299 18:31.444401 19:0.27451 20:0.343483 21:0.37662399 22:0.98084903 23:13.9907 24:4.9330401 # Flowers/Shape5/shape5-017.ppm
2.8766494531980078303759727911882e-12 1:50254.398 2:169993 3:121642 4:1296.08 5:2052.48 6:2.6666701 7:124.314 8:14526.7 9:12 10:30 11:8 12:176 13:4111.02 14:1675.15 15:151.869 16:134.75 17:1 18:15 19:0.30434799 20:0.41313401 21:0.63147098 22:2.00296 23:8.6719103 24:4.5 # Flowers/Shape4/shape4-087.ppm
-2.8766494531980078303759727911882e-12 1:114979 2:157212 3:124180 4:1260.54 5:4434 6:2.60976 7:121.045 8:907.91998 9:3 10:82 11:60 12:281 13:6353.6001 14:1402.1801 15:149.064 16:171.783 17:0.67346901 18:11.7727 19:0.49090901 20:0.92590302 21:0.28428999 22:1.43293 23:0.64750397 24:1.1495301 # Flowers/Shape3/shape3-022.ppm
2.8766494531980078303759727911882e-12 1:457807 2:1259700 3:685335 4:3270.45 5:20743.6 6:4.10638 7:110.284 8:154830 9:28 10:94 11:6 12:325 13:7569.8901 14:4870.29 15:153.97501 16:112.333 17:0.305556 18:22.2143 19:0.146341 20:0.66800398 21:0.15766101 22:0.36492699 23:31.7908 24:6.8186498 # Flowers/Shape4/shape4-073.ppm
-2.8766494531980078303759727911882e-12 1:213126 2:275307 3:219716 4:1674.71 5:9101.5596 6:3.69014 7:113.445 8:13684.8 9:8 10:71 11:76 12:210 13:5399.9399 14:3001.78 15:159.914 16:174.276 17:0.44898 18:34 19:0.24561401 20:0.97000599 21:0.184003 22:0.59329897 23:4.5588899 24:2.1679399 # Flowers/Shape3/shape3-009.ppm
2.8766494531980078303759727911882e-12 1:50901.301 2:171210 3:121616 4:1295.71 5:2160.7 6:2.7272699 7:116.702 8:13684.8 9:10 10:33 11:9 12:175 13:4135.4902 14:1542.46 15:153.314 16:133 17:0.64999998 18:13.5833 19:0.375 20:0.418542 21:0.59967202 22:1.91396 23:8.8720303 24:3.6666701 # Flowers/Shape4/shape4-067.ppm
-2.8766494531980078303759727911882e-12 1:117190 2:159201 3:126290 4:1270.65 5:4062.0701 6:2.3896101 7:125.092 8:706.85797 9:2 10:77 11:58 12:285 13:6386.0698 14:1521.95 15:148.39999 16:171.397 17:0.45282999 18:14.8333 19:0.50980401 20:0.92794001 21:0.31280801 22:1.57212 23:0.464443 24:0.83695698 # Flowers/Shape3/shape3-001.ppm
2.8766494531980078303759727911882e-12 1:455648 2:1255510 3:682728 4:3265.1499 5:20984.4 6:4.1473699 7:111.625 8:173494 9:34 10:95 11:7 12:325 13:7632.5801 14:4796.29 15:155.54201 16:118.714 17:0.283784 18:22.2143 19:0.130952 20:0.66739303 21:0.155599 22:0.363727 23:36.1726 24:8.1979704 # Flowers/Shape4/shape4-093.ppm
-2.8766494531980078303759727911882e-12 1:197356 2:389327 3:272836 4:1946.41 5:7642.9502 6:3.7735801 7:102.279 8:26590.4 9:15 10:53 11:31 12:235 13:5695.04 14:3723.7 15:157.694 16:164.323 17:0.472222 18:17.0769 19:0.20454501 20:0.72334898 21:0.25466701 22:0.74513602 23:7.1408701 24:3.9749999 # Flowers/Shape1/shape1-002.ppm
2.3967465608498925105056135201331e-12 1:49528.699 2:175474 3:122204 4:1296.88 5:2348.3201 6:2.94118 7:111.061 8:14526.7 9:14 10:34 11:11 12:176 13:4114.71 14:1456.73 15:155.44299 16:136.27299 17:1 18:11.5714 19:0.36000001 20:0.405294 21:0.55225903 22:1.75219 23:9.9721603 24:4.7600002 # Flowers/Shape4/shape4-047.ppm
-2.8766494531980078303759727911882e-12 1:213768 2:627072 3:422076 4:2471.3401 5:9398.3604 6:3.7026999 7:109.15 8:6647.6099 9:6 10:74 11:14 12:314 13:7349.3301 14:2888.76 15:154.541 16:145.214 17:0.57446802 18:18.625 19:0.27586201 20:0.50646901 21:0.262954 22:0.78197998 23:2.3011999 24:1.62044 # Flowers/Shape5/shape5-015.ppm
2.8766494531980078303759727911882e-12 1:50183.898 2:175120 3:123828 4:1306.76 5:2152.5701 6:2.7741899 7:120.036 8:16741.5 9:11 10:31 11:8 12:179 13:4129 14:1618.84 15:154.927 16:135.25 17:0.72222197 18:11.7857 19:0.347826 20:0.405269 21:0.607068 22:1.91817 23:10.3417 24:3.9651201 # Flowers/Shape4/shape4-027.ppm
-2.8766494531980078303759727911882e-12 1:134968 2:209466 3:170697 4:1538.84 5:5862.8599 6:3.9473701 7:100.628 8:52279.199 9:18 10:38 11:41 12:171 13:3829.0701 14:3551.8 15:155.117 16:171.244 17:0.51999998 18:23.4286 19:0.225806 20:0.79069 21:0.26247299 22:0.65310597 23:14.7191 24:4.5599999 # Flowers/Shape1/shape1-021.ppm
2.8766494531980078303759727911882e-12 1:456668 2:894688 3:682528 4:3262.3899 5:19787 6:4.0229902 7:113.236 8:174974 9:32 10:87 11:6 12:245 13:7564.2202 14:5249.0498 15:169.14301 16:107.833 17:0.225352 18:80.666702 19:0.12987 20:0.66908199 21:0.164876 22:0.382283 23:33.3344 24:7.9542899 # Flowers/Shape4/shape4-012.ppm
-2.8766494531980078303759727911882e-12 1:312839 2:706875 3:486833 4:2606.47 5:13135.4 6:3.7471299 7:108.95 8:31415.9 9:13 10:87 11:31 12:344 13:8300.5801 14:3595.8501 15:150.50301 16:163.258 17:0.42623001 18:19.2353 19:0.191781 20:0.6426 21:0.198431 22:0.63192302 23:8.7367296 24:3.4693301 # Flowers/Shape5/shape5-013.ppm
2.8766494531980078303759727911882e-12 1:88160.102 2:332304 3:214536 4:1910.3101 5:3653.0701 6:3.1428599 7:117.747 8:26015.5 9:14 10:35 11:15 12:198 13:4761.1899 14:2518.8601 15:155.72701 16:151.33299 17:0.40000001 18:23.75 19:0.346154 20:0.41093299 21:0.52293402 22:1.30334 23:10.3283 24:4.4545498 # Flowers/Shape4/shape4-016.ppm
-2.8766494531980078303759727911882e-12 1:145719 2:208923 3:171480 4:1540.67 5:6066.2998 6:3.6666701 7:107.402 8:53912.898 9:18 10:42 11:38 12:161 13:3801.27 14:3469.5 15:155.845 16:166.605 17:0.40000001 18:31.200001 19:0.235294 20:0.84977502 21:0.25397199 22:0.62661999 23:15.5391 24:4.90909 # Flowers/Shape1/shape1-000.ppm
2.8766494531980078303759727911882e-12 1:455580 2:883948 3:681422 4:3260 5:18930.4 6:4.0749998 7:114.163 8:180956 9:32 10:80 11:10 12:340 13:7701.7998 14:5694.75 15:147.194 16:138.60001 17:0.25 18:11.1429 19:0.142857 20:0.66857201 21:0.17220899 22:0.406847 23:31.7759 24:7.8527598 # Flowers/Shape4/shape4-053.ppm
-2.8766494531980078303759727911882e-12 1:216547 2:332800 3:270836 4:1966.26 5:8453.8398 6:4.1463399 7:103.558 8:62458 9:23 10:41 11:36 12:220 13:4684.9302 14:5281.6299 15:143.923 16:165.778 17:0.32258099 18:17.3333 19:0.17142899 20:0.79954797 21:0.23258799 22:0.554178 23:11.8255 24:5.54706 # Flowers/Shape1/shape1-005.ppm
2.8766494531980078303759727911882e-12 1:63762.199 2:219975 3:158843 4:1602.4 5:2464.5 6:3 7:128.26601 8:9852.0303 9:7 10:32 11:8 12:159 13:3807.3401 14:1992.5699 15:160.899 16:135 17:0.77777803 18:38.75 19:0.45454499 20:0.401416 21:0.65019101 22:1.54487 23:4.9443898 24:2.3333299 # Flowers/Shape4/shape4-082.ppm
-2.8766494531980078303759727911882e-12 1:116256 2:356153 3:197618 4:1891.15 5:4762.7598 6:3.3333299 7:108.884 8:10935.9 9:7 10:48 11:27 12:223 13:4939.98 14:2422 15:145.40401 16:166.222 17:0.33333299 18:13.8667 19:0.297297 20:0.58828503 21:0.39706999 22:1.03721 23:4.5152302 24:2.0999999 # Flowers/Shape5/shape5-019.ppm
2.8766494531980078303759727911882e-12 1:457969 2:893156 3:680970 4:3259.05 5:19585.1 6:3.9333301 7:109.277 8:182467 9:32 10:90 11:6 12:242 13:7553.2598 14:5088.54 15:164.979 16:108 17:0.40625 18:59.5 19:0.139241 20:0.67252499 21:0.16640501 22:0.38566399 23:35.858398 24:8.1355896 # Flowers/Shape4/shape4-033.ppm
-2.8766494531980078303759727911882e-12 1:253081 2:533065 3:395560 4:2365.5601 5:10805.1 6:3.5 7:104.886 8:23235.199 9:13 10:84 11:23 12:242 13:7333.6299 14:3012.8701 15:158.08701 16:160.13 17:0.44827601 18:29.25 19:0.2 20:0.63980502 21:0.218931 22:0.67872202 23:7.7119799 24:3.7142899 # Flowers/Shape5/shape5-007.ppm
2.8766494531980078303759727911882e-12 1:63188.199 2:222070 3:160188 4:1607.3199 5:2541.8501 6:2.9697001 7:125.569 8:8824.7305 9:10 10:33 11:7 12:161 13:3863.4199 14:1914.79 15:157.646 16:121 17:0.83333302 18:39.25 19:0.43478301 20:0.394463 21:0.63234401 22:1.51992 23:4.6087098 24:3.3673501 # Flowers/Shape4/shape4-062.ppm
-2.8766494531980078303759727911882e-12 1:201055 2:290759 3:227203 4:1732.12 5:8645.5303 6:3.7083299 7:106.792 8:96211.297 9:27 10:48 11:42 12:186 13:4271.02 14:4188.6401 15:151.339 16:167.35699 17:0.41176501 18:14.5 19:0.17073201 20:0.88491201 21:0.200349 22:0.49401399 23:22.969601 24:7.2809 # Flowers/Shape1/shape1-009.ppm
2.8766494531980078303759727911882e-12 1:120107 2:315414 3:236344 4:1831.16 5:5826.79 6:3.42308 7:109.722 8:26015.5 9:19 10:52 11:11 12:229 13:5384.2598 14:2309.74 15:156.08701 16:134.545 17:0.33333299 18:37.166698 19:0.30000001 20:0.50818503 21:0.31426501 22:0.92405301 23:11.2634 24:5.55056 # Flowers/Shape4/shape4-046.ppm
-2.8766494531980078303759727911882e-12 1:112018 2:307615 3:204417 4:1737.55 5:4171.6699 6:3.2432401 7:97.216904 8:18145.801 9:12 10:37 11:17 12:198 13:4763.3301 14:3027.52 15:150.263 16:154 17:0.32142901 18:10.6471 19:0.37037 20:0.54798901 21:0.416511 22:1.14183 23:5.9936299 24:3.7 # Flowers/Shape5/shape5-011.ppm
2.8766494531980078303759727911882e-12 1:118897 2:312759 3:235951 4:1825.34 5:5073.8301 6:3.2444401 7:117.406 8:26015.5 9:18 10:45 11:12 12:221 13:5341.0801 14:2642.1499 15:162.28999 16:143.75 17:0.36363599 18:35.833302 19:0.32352901 20:0.503905 21:0.35975501 22:1.05267 23:9.8463497 24:5.5479498 # Flowers/Shape4/shape4-005.ppm
-2.8766494531980078303759727911882e-12 1:196182 2:497718 3:348992 4:2195.0801 5:8346.8604 6:3.6896601 7:108.474 8:43005.301 9:15 10:58 11:22 12:260 13:6303.9702 14:3382.4399 15:149.46201 16:157.27299 17:0.34883699 18:16.3333 19:0.208333 20:0.56213897 21:0.26298299 22:0.75525099 23:12.7143 24:4.0654202 # Flowers/Shape5/shape5-005.ppm
2.8766494531980078303759727911882e-12 1:115305 2:313632 3:235120 4:1827.61 5:4310.75 6:3 7:115.464 8:24328.5 9:13 10:42 11:10 12:223 13:5348.25 14:2745.3601 15:160.489 16:133.7 17:0.68000001 18:36.166698 19:0.3125 20:0.49040899 21:0.423967 22:1.24068 23:8.8616896 24:4.3333302 # Flowers/Shape4/shape4-026.ppm
-2.8766494531980078303759727911882e-12 1:128006 2:243972 3:174852 4:1539.4301 5:4961.3799 6:3.30233 7:101.111 8:32047.4 9:14 10:43 11:27 12:198 13:4741.6099 14:2976.8799 15:152.071 16:165.741 17:0.34375 18:23.75 19:0.30303001 20:0.73207802 21:0.31028301 22:0.95570302 23:10.7654 24:4.23944 # Flowers/Shape1/shape1-025.ppm
2.8766494531980078303759727911882e-12 1:195828 2:729399 3:542164 4:2916.79 5:7860.7002 6:3.3225801 7:117.951 8:53092.898 9:19 10:62 11:6 12:326 13:7692.25 14:3158.52 15:156.939 16:101.833 17:0.37777799 18:20.733299 19:0.265306 20:0.36119699 21:0.37106001 22:0.978571 23:16.809401 24:5.7184501 # Flowers/Shape4/shape4-054.ppm
-2.8766494531980078303759727911882e-12 1:267940 2:684947 3:459176 4:2584.51 5:11169 6:3.575 7:104.184 8:15836.8 9:10 10:80 11:25 12:344 13:8587.3799 14:3349.24 15:153.927 16:163.56 17:0.355932 18:17.105301 19:0.23076899 20:0.58352298 21:0.2314 22:0.76885903 23:4.7284598 24:2.7972 # Flowers/Shape5/shape5-004.ppm
2.8766494531980078303759727911882e-12 1:79249.203 2:265029 3:185342 4:1713.24 5:3349.52 6:3.3513501 7:121.149 8:13684.8 9:10 10:37 11:9 12:169 13:4133.0898 14:2141.8701 15:161.57401 16:127.444 17:0.68181801 18:55.333302 19:0.37037 20:0.42758301 21:0.51148802 22:1.23394 23:6.3891702 24:2.98387 # Flowers/Shape4/shape4-019.ppm
-2.8766494531980078303759727911882e-12 1:146385 2:209952 3:171842 4:1540.86 5:6747.5698 6:3.86957 7:102.386 8:53912.898 9:20 10:46 11:41 12:161 13:3790.6499 14:3182.28 15:154.267 16:170.951 17:0.48387101 18:31.200001 19:0.179487 20:0.85185701 21:0.228357 22:0.56177998 23:16.941601 24:5.16854 # Flowers/Shape1/shape1-020.ppm
2.8766494531980078303759727911882e-12 1:202743 2:689544 3:509400 4:2787.8201 5:8979.8604 6:3.42857 7:122.941 8:54739.102 9:20 10:70 11:8 12:309 13:7376.1899 14:2896.3301 15:163.605 16:134.875 17:0.42857099 18:22.769199 19:0.22807001 20:0.398004 21:0.31045201 22:0.82141602 23:18.8995 24:5.8333302 # Flowers/Shape4/shape4-055.ppm
-2.8766494531980078303759727911882e-12 1:310401 2:718475 3:511627 4:2723.25 5:12523.8 6:3.3599999 7:110.958 8:4300.8398 9:4 10:100 11:27 12:392 13:9404.6396 14:3104.01 15:153.194 16:165.14799 17:0.35135099 18:25.133301 19:0.17647099 20:0.606695 21:0.217445 22:0.75093901 23:1.38557 24:1.19048 # Flowers/Shape2/shape2-021.ppm
2.8766494531980078303759727911882e-12 1:79249.203 2:265029 3:185342 4:1713.24 5:3349.52 6:3.3513501 7:121.149 8:13684.8 9:10 10:37 11:9 12:169 13:4133.0898 14:2141.8701 15:161.57401 16:127.444 17:0.68181801 18:55.333302 19:0.37037 20:0.42758301 21:0.51148802 22:1.23394 23:6.3891702 24:2.98387 # Flowers/Shape4/shape4-021.ppm
-2.8766494531980078303759727911882e-12 1:129191 2:315120 3:228557 4:1796.39 5:5015.1299 6:3.34694 7:106.183 8:20106.199 9:10 10:49 11:18 12:245 13:5973.6099 14:2636.54 15:155.661 16:153.11099 17:0.40000001 18:16.5 19:0.441176 20:0.56524497 21:0.35819301 22:1.19112 23:7.6259599 24:2.9877999 # Flowers/Shape1/shape1-024.ppm
2.8766494531980078303759727911882e-12 1:198245 2:693517 3:507314 4:2783.3101 5:8413.9297 6:3.3698599 7:119.659 8:59828.5 9:17 10:73 11:6 12:343 13:7385.0298 14:2715.6799 15:155.73199 16:103.5 17:0.403846 18:27.5833 19:0.216667 20:0.39077401 21:0.330798 22:0.87771398 23:22.030701 24:5.0447202 # Flowers/Shape4/shape4-014.ppm
-2.8766494531980078303759727911882e-12 1:178752 2:526768 3:362564 4:2271.8899 5:7383.3501 6:3.64516 7:103.463 8:11309.7 9:6 10:62 11:19 12:347 13:7628.9502 14:2883.1001 15:143.896 16:155.211 17:0.51219499 18:12.88 19:0.21568599 20:0.49302399 21:0.307704 22:1.03326 23:3.92276 24:1.6460201 # Flowers/Shape5/shape5-002.ppm
2.8766494531980078303759727911882e-12 1:81103 2:268660 3:187029 4:1719.88 5:3288.3501 6:3.2 7:120.156 8:14526.7 9:10 10:35 11:9 12:168 13:4132.1899 14:2317.23 15:162.70799 16:135.556 17:0.40000001 18:83 19:0.346154 20:0.43363899 21:0.52302003 22:1.25661 23:6.2690001 24:3.125 # Flowers/Shape4/shape4-040.ppm
-2.8766494531980078303759727911882e-12 1:131415 2:313040 3:228154 4:1792.03 5:5121.3999 6:3.28 7:108.623 8:10935.9 9:10 10:50 11:19 12:241 13:5926.79 14:2628.3 15:159.45599 16:155.211 17:0.38888901 18:29.125 19:0.42857099 20:0.575993 21:0.34990999 22:1.1572599 23:4.16081 24:3.04878 # Flowers/Shape1/shape1-003.ppm
2.8766494531980078303759727911882e-12 1:178314 2:529984 3:364695 4:2341.0601 5:7103.2798 6:3.38462 7:117.5 8:53912.898 9:19 10:52 11:8 12:298 13:6129.6699 14:3429.1201 15:136.82201 16:135.125 17:0.30000001 18:10.92 19:0.26829299 20:0.48894101 21:0.329575 22:0.86293399 23:15.7221 24:5.6136398 # Flowers/Shape4/shape4-050.ppm
-2.8766494531980078303759727911882e-12 1:208376 2:508269 3:351212 4:2247.3899 5:8059.7002 6:3.67273 7:102.224 8:33329.199 9:12 10:55 11:23 12:241 13:5874.98 14:3788.6499 15:154.892 16:161.34801 17:0.447368 18:25.7778 19:0.19565199 20:0.59330398 21:0.27884299 22:0.72893298 23:8.7971096 24:3.2673299 # Flowers/Shape5/shape5-003.ppm
2.8766494531980078303759727911882e-12 1:81103 2:268660 3:187029 4:1719.88 5:3288.3501 6:3.2 7:120.156 8:14526.7 9:10 10:35 11:9 12:168 13:4132.1899 14:2317.23 15:162.70799 16:135.556 17:0.40000001 18:83 19:0.346154 20:0.43363899 21:0.52302003 22:1.25661 23:6.2690001 24:3.125 # Flowers/Shape4/shape4-041.ppm
-2.8766494531980078303759727911882e-12 1:135542 2:241605 3:178473 4:1568.61 5:4911.6001 6:3.54286 7:97.292099 8:32685.1 9:15 10:35 11:31 12:183 13:4288.2598 14:3872.6299 15:155.50301 16:163.065 17:0.346154 18:17.299999 19:0.25 20:0.759453 21:0.319368 22:0.873088 23:8.4400396 24:4.23387 # Flowers/Shape1/shape1-006.ppm
2.8766494531980078303759727911882e-12 1:178351 2:539676 3:369122 4:2355.05 5:7402.7598 6:3.3928599 7:113.037 8:55571.602 9:19 10:56 11:6 12:302 13:6125.77 14:3184.8401 15:140.474 16:109.167 17:0.40000001 18:13.381 19:0.217391 20:0.48317599 21:0.318131 22:0.82749897 23:17.448799 24:5.5999999 # Flowers/Shape4/shape4-030.ppm
-2.8766494531980078303759727911882e-12 1:310401 2:718475 3:511627 4:2723.25 5:12523.8 6:3.3599999 7:110.958 8:4300.8398 9:4 10:100 11:27 12:392 13:9404.6396 14:3104.01 15:153.194 16:165.14799 17:0.35135099 18:25.133301 19:0.17647099 20:0.606695 21:0.217445 22:0.75093901 23:1.38557 24:1.19048 # Flowers/Shape2/shape2-019.ppm
2.8766494531980078303759727911882e-12 1:80658 2:261072 3:205357 4:1726.6 5:3055.9099 6:2.63415 7:129.373 8:19113.4 9:12 10:41 11:9 12:214 13:5124.6001 14:1967.27 15:153.537 16:129.88901 17:0.464286 18:15.4615 19:0.413793 20:0.39276901 21:0.56500399 22:1.67695 23:9.7157402 24:4.5555601 # Flowers/Shape4/shape4-029.ppm
-2.8766494531980078303759727911882e-12 1:141290 2:266682 3:208990 4:1695.4 5:4487.75 6:3.5151501 7:105.193 8:33329.199 9:10 10:33 11:33 12:201 13:4885.8599 14:4281.5098 15:145.687 16:164.091 17:0.375 18:10.8235 19:0.222222 20:0.67606002 21:0.377783 22:1.08871 23:7.78444 24:2.84483 # Flowers/Shape1/shape1-019.ppm
2.8766494531980078303759727911882e-12 1:192567 2:728994 3:540136 4:2907.28 5:7409.3701 6:3.25424 7:113.714 8:53092.898 9:18 10:59 11:6 12:353 13:7736.3599 14:3263.8601 15:148.099 16:108 17:0.311111 18:11.1724 19:0.28260899 20:0.356516 21:0.392378 22:1.04413 23:16.266899 24:5.53125 # Flowers/Shape4/shape4-013.ppm
-2.8766494531980078303759727911882e-12 1:207984 2:506160 3:350153 4:2245.26 5:9365.6602 6:3.7910399 7:108.348 8:23778.699 9:12 10:67 11:21 12:241 13:5833.8501 14:3104.25 15:156.444 16:156.619 17:0.48888901 18:47.200001 19:0.196429 20:0.59398198 21:0.239733 22:0.62289798 23:7.6600599 24:3.16535 # Flowers/Shape5/shape5-024.ppm
2.8766494531980078303759727911882e-12 1:79139.5 2:268770 3:186756 4:1718.71 5:3243.3501 6:3.17647 7:124.676 8:12469 9:12 10:34 11:9 12:171 13:4180.2598 14:2327.6299 15:159.339 16:127 17:0.36000001 18:41.75 19:0.41666701 20:0.42376 21:0.529917 22:1.28887 23:5.3569398 24:3.7777801 # Flowers/Shape4/shape4-100.ppm
-2.8766494531980078303759727911882e-12 1:159381 2:412794 3:278041 4:2002.1899 5:7238.25 6:3.5999999 7:107.263 8:13273.2 9:8 10:60 11:24 12:245 13:5858.3901 14:2656.3501 15:154.151 16:162.375 17:0.42857099 18:16.5 19:0.17647099 20:0.57322901 21:0.27661201 22:0.80936497 23:4.9967899 24:2.2222199 # Flowers/Shape5/shape5-006.ppm
2.8766494531980078303759727911882e-12 1:178280 2:539570 3:367998 4:2351.29 5:6938.8599 6:3.2692299 7:117.356 8:56410.398 9:18 10:52 11:7 12:285 13:6067.3799 14:3428.46 15:147.502 16:118.857 17:0.33333299 18:13.25 19:0.238095 20:0.48445901 21:0.33885801 22:0.87440699 23:16.4536 24:5.5058799 # Flowers/Shape4/shape4-009.ppm
-2.8766494531980078303759727911882e-12 1:168412 2:406134 3:289378 4:2043.48 5:7508.2798 6:3.6226399 7:108.489 8:24884.6 9:13 10:53 11:22 12:194 13:5532.4902 14:3177.5901 15:153.144 16:156.5 17:0.35897401 18:16.6364 19:0.17777801 20:0.58197898 21:0.272163 22:0.73685199 23:7.8312702 24:3.5885401 # Flowers/Shape5/shape5-020.ppm
2.8766494531980078303759727911882e-12 1:77892.5 2:265558 3:185406 4:1713.67 5:2757.5901 6:3 7:123.55 8:13273.2 9:8 10:30 11:7 12:167 13:4126.3999 14:2596.4199 15:163.024 16:111.857 17:0.66666698 18:40.75 19:0.36363599 20:0.42011899 21:0.62143803 22:1.49638 23:5.1121302 24:2.6666701 # Flowers/Shape4/shape4-020.ppm
-2.8766494531980078303759727911882e-12 1:169525 2:405573 3:290725 4:2046.8 5:7595.7798 6:3.5185201 7:111.044 8:26590.4 9:14 10:54 11:22 12:239 13:5624.5098 14:3139.3401 15:146.59399 16:157.091 17:0.285714 18:13.9375 19:0.148936 20:0.58310997 21:0.26946601 22:0.74047798 23:8.4700603 24:3.97895 # Flowers/Shape5/shape5-000.ppm
2.8766494531980078303759727911882e-12 1:126623 2:390616 3:298272 4:2047.9399 5:5341.1401 6:3.2156899 7:114.991 8:35298.898 9:17 10:51 11:9 12:292 13:6093.2402 14:2482.8101 15:138.185 16:130.88901 17:0.41666701 18:7.5882401 19:0.342105 20:0.424523 21:0.38342699 22:1.14081 23:14.2173 24:5.2865901 # Flowers/Shape4/shape4-011.ppm
-2.8766494531980078303759727911882e-12 1:147957 2:265727 3:207974 4:1722.62 5:6340.7202 6:3.68627 7:103.409 8:28952.9 9:16 10:51 11:27 12:206 13:4892.5298 14:2901.1299 15:154.786 16:165.963 17:0.41666701 18:17.727301 19:0.27500001 20:0.71142101 21:0.271676 22:0.77160501 23:9.9798899 24:4.3404298 # Flowers/Shape1/shape1-022.ppm
2.8766494531980078303759727911882e-12 1:127527 2:398145 3:301150 4:2057.3101 5:5414.9902 6:3.1923101 7:120.974 8:35298.898 9:18 10:52 11:8 12:285 13:6135.52 14:2452.4299 15:136.42101 16:134.5 17:0.40540501 18:7.6363602 19:0.33333299 20:0.423466 21:0.37992901 22:1.13306 23:14.3934 24:5.6385498 # Flowers/Shape4/shape4-052.ppm
-2.8766494531980078303759727911882e-12 1:160245 2:386100 3:310072 4:2063.8501 5:5845.4199 6:3.4074099 7:102.623 8:11309.7 9:9 10:54 11:26 12:336 13:7713.71 14:2967.5 15:148.51801 16:164.577 17:0.45945901 18:12.44 19:0.384615 20:0.51679802 21:0.35307199 22:1.31962 23:3.8112099 24:2.6413 # Flowers/Shape1/shape1-016.ppm
2.8766494531980078303759727911882e-12 1:117596 2:363424 3:233960 4:1822.3199 5:4804.2002 6:3.2083299 7:111.236 8:24884.6 9:14 10:48 11:11 12:223 13:5373.4399 14:2449.9199 15:154.946 16:136.72701 17:0.33333299 18:13.8667 19:0.33333299 20:0.50263399 21:0.37931699 22:1.11849 23:10.1573 24:4.3636398 # Flowers/Shape4/shape4-086.ppm
-2.8766494531980078303759727911882e-12 1:169568 2:404271 3:289302 4:2043.59 5:6999.6401 6:3.67857 7:101.587 8:9160.8799 9:5 10:56 11:20 12:238 13:5537.7998 14:3028 15:146.32401 16:159.55 17:0.555556 18:13 19:0.217391 20:0.58612698 21:0.29195601 22:0.79115599 23:3.0253899 24:1.35922 # Flowers/Shape5/shape5-021.ppm
2.8766494531980078303759727911882e-12 1:116264 2:361560 3:231876 4:1815.97 5:4459.3999 6:3.0638299 7:112.351 8:24328.5 9:12 10:47 11:12 12:221 13:5342.2402 14:2473.7 15:157.75999 16:143.83299 17:0.27026999 18:35.833302 19:0.27026999 20:0.50140703 21:0.40722299 22:1.19797 23:9.8348503 24:3.9166701 # Flowers/Shape4/shape4-066.ppm
-2.8766494531980078303759727911882e-12 1:151412 2:267344 3:207694 4:1722.55 5:6874.1401 6:3.6981101 7:103.909 8:33329.199 9:18 10:53 11:26 12:209 13:4870.2202 14:2856.8401 15:154.27299 16:165 17:0.35897401 18:18 19:0.26190501 20:0.72901601 21:0.25058401 22:0.70848501 23:11.6665 24:4.8673501 # Flowers/Shape1/shape1-001.ppm
2.8766494531980078303759727911882e-12 1:127394 2:396268 3:301650 4:2060.75 5:5776.7798 6:3.14815 7:117.586 8:38013.301 9:20 10:54 11:6 12:290 13:6097.5498 14:2359.1499 15:137.12801 16:111.167 17:0.34999999 18:9.3571396 19:0.31707299 20:0.42232499 21:0.356729 22:1.05553 23:16.1131 24:6.3529401 # Flowers/Shape4/shape4-032.ppm
-2.8766494531980078303759727911882e-12 1:213389 2:527571 3:362670 4:2274.1499 5:8964.5996 6:3.4473701 7:103.882 8:13684.8 9:9 10:76 11:18 12:244 13:7393.0498 14:2807.75 15:162.217 16:153.61099 17:0.46153799 18:26.111099 19:0.26666701 20:0.58838397 21:0.253681 22:0.82469398 23:4.87393 24:2.6106901 # Flowers/Shape5/shape5-023.ppm
2.8766494531980078303759727911882e-12 1:77892.5 2:265558 3:185406 4:1713.67 5:2757.5901 6:3 7:123.55 8:13273.2 9:8 10:30 11:7 12:167 13:4126.3999 14:2596.4199 15:163.024 16:111.857 17:0.66666698 18:40.75 19:0.36363599 20:0.42011899 21:0.62143803 22:1.49638 23:5.1121302 24:2.6666701 # Flowers/Shape4/shape4-060.ppm
-2.8766494531980078303759727911882e-12 1:148902 2:257335 3:196871 4:1657.04 5:5454.2798 6:3.55 7:104.569 8:22167.1 9:13 10:40 11:30 12:194 13:4685.2598 14:3722.5601 15:153.53101 16:165.467 17:0.29032299 18:15.1667 19:0.25 20:0.75634599 21:0.30380601 22:0.85900801 23:5.9547901 24:3.6619699 # Flowers/Shape1/shape1-017.ppm
2.8766494531980078303759727911882e-12 1:195699 2:698616 3:509034 4:2790.1001 5:8059.5898 6:3.3623199 7:120.945 8:61575.199 9:15 10:69 11:6 12:298 13:7286.6001 14:2836.21 15:165.742 16:111.167 17:0.4375 18:23.8333 19:0.16949201 20:0.384451 21:0.34618399 22:0.90408999 23:21.7104 24:4.4612098 # Flowers/Shape4/shape4-035.ppm
-2.8766494531980078303759727911882e-12 1:218396 2:520492 3:404720 4:2450.51 5:8850.1504 6:3.5692301 7:105.305 8:17203.4 9:7 10:65 11:26 12:287 13:6925.7598 14:3359.9299 15:149.34801 16:165.769 17:0.41304299 18:14.1053 19:0.18181799 20:0.539621 21:0.276889 22:0.78255898 23:5.1201501 24:1.96121 # Flowers/Shape5/shape5-022.ppm
2.8766494531980078303759727911882e-12 1:79480.203 2:261576 3:204552 4:1721.3101 5:3413.5701 6:3.0526299 7:124.577 8:20106.199 9:15 10:38 11:7 12:207 13:5058.6802 14:2091.5801 15:155.93201 16:117.714 17:0.26666701 18:16.25 19:0.40740699 20:0.388558 21:0.50425398 22:1.48193 23:9.6128998 24:4.9137902 # Flowers/Shape4/shape4-049.ppm
-2.8766494531980078303759727911882e-12 1:149468 2:207311 3:157496 4:1434.29 5:5380.3501 6:3.5122001 7:115.883 8:11689.9 9:5 10:41 11:61 12:172 13:4010.1101 14:3645.5701 15:156.62199 16:174.09801 17:0.51851898 18:27.6667 19:0.366667 20:0.949027 21:0.26657999 22:0.74532503 23:3.2065899 24:1.42361 # Flowers/Shape3/shape3-020.ppm
2.8766494531980078303759727911882e-12 1:107932 2:356964 3:256969 4:2051.03 5:4428.8501 6:3.31707 7:120.211 8:21642.4 9:13 10:41 11:5 12:202 13:4825.73 14:2632.49 15:157.32201 16:94.400002 17:0.413793 18:15.8333 19:0.366667 20:0.42002001 21:0.46310699 22:1.08961 23:8.2212696 24:3.9191201 # Flowers/Shape4/shape4-078.ppm
-2.8766494531980078303759727911882e-12 1:217733 2:522759 3:406344 4:2453.8799 5:9248.2002 6:3.68571 7:105.617 8:8824.7305 9:8 10:70 11:29 12:285 13:6887.1201 14:3110.47 15:153.38901 16:166.207 17:0.42857099 18:15.7647 19:0.186441 20:0.53583401 21:0.26533601 22:0.744699 23:2.8371 24:2.1705401 # Flowers/Shape5/shape5-001.ppm
2.8766494531980078303759727911882e-12 1:79926.398 2:262636 3:205508 4:1722.37 5:3901.4099 6:3.2272699 7:115.735 8:21642.4 9:17 10:44 11:9 12:215 13:5072.9902 14:1816.51 15:152.995 16:132.66701 17:0.466667 18:15.5385 19:0.33333299 20:0.38892201 21:0.441475 22:1.3003 23:11.9143 24:5.2676101 # Flowers/Shape4/shape4-008.ppm
-2.8766494531980078303759727911882e-12 1:150764 2:207311 3:157470 4:1434.1 5:6091.2002 6:3.5652201 7:109.703 8:10568.3 9:4 10:46 11:61 12:168 13:4006.47 14:3277.47 15:161.19 16:173.754 17:0.39393899 18:32.599998 19:0.31428599 20:0.95740998 21:0.23543701 22:0.65774697 23:3.22453 24:1.12195 # Flowers/Shape3/shape3-021.ppm
2.8766494531980078303759727911882e-12 1:190902 2:730623 3:543012 4:2912.53 5:7353.54 6:3.30159 7:119.055 8:51471.898 9:17 10:63 11:7 12:351 13:7751.8101 14:3030.2 15:148.48399 16:118.571 17:0.340426 18:17.4737 19:0.25999999 20:0.35156199 21:0.396072 22:1.05416 23:16.9863 24:5.1490402 # Flowers/Shape4/shape4-034.ppm
-2.8766494531980078303759727911882e-12 1:314886 2:716300 3:512145 4:2720.9099 5:13295.2 6:3.4862399 7:106.827 8:2463.01 9:3 10:109 11:28 12:401 13:9329.3701 14:2888.8701 15:152.868 16:161.429 17:0.36250001 18:22.5882 19:0.19780201 20:0.614838 21:0.20465299 22:0.70170802 23:0.85258698 24:0.86052603 # Flowers/Shape2/shape2-000.ppm
2.8766494531980078303759727911882e-12 1:97325 2:397150 3:258216 4:1918.63 5:3533.96 6:2.8205099 7:130.63901 8:21642.4 9:12 10:39 11:9 12:249 13:6013.3501 14:2495.51 15:157.19701 16:129.11099 17:0.625 18:15.6 19:0.30000001 20:0.376912 21:0.54291099 22:1.7015899 23:8.6725397 24:4.25455 # Flowers/Shape4/shape4-056.ppm
-2.8766494531980078303759727911882e-12 1:153022 2:206880 3:157564 4:1433.92 5:6654.96 6:3.7358501 7:111.414 8:12469 9:8 10:53 11:63 12:172 13:4001.4299 14:2887.21 15:156.27901 16:171.714 17:0.432432 18:20.5 19:0.26190501 20:0.97117001 21:0.21546701 22:0.60127002 23:4.3186998 24:2.1414101 # Flowers/Shape3/shape3-000.ppm
2.8766494531980078303759727911882e-12 1:180272 2:617771 3:366530 4:2341.76 5:8287.2598 6:3.60656 7:113.881 8:54739.102 9:22 10:61 11:6 12:198 13:5864.7798 14:2955.29 15:161.101 16:108.667 17:0.418605 18:23.75 19:0.24489801 20:0.491835 21:0.28257301 22:0.70768601 23:18.5224 24:6.0999999 # Flowers/Shape4/shape4-090.ppm
-2.8766494531980078303759727911882e-12 1:228188 2:518752 3:342758 4:2373.9099 5:9469.7598 6:3.4814799 7:109.368 8:28352.9 9:14 10:81 11:30 12:317 13:7459.4302 14:2817.1399 15:155.38499 16:165.60001 17:0.42105299 18:20.133301 19:0.208955 20:0.66574198 21:0.25068301 22:0.78771102 23:10.0644 24:4.0212798 # Flowers/Shape5/shape5-016.ppm
2.8766494531980078303759727911882e-12 1:90291.5 2:327932 3:212664 4:1901.91 5:3775.79 6:3.1428599 7:113.456 8:12469 9:9 10:42 11:15 12:194 13:4705.9199 14:2149.8 15:159.155 16:150.067 17:0.354839 18:20.555599 19:0.40000001 20:0.424575 21:0.503712 22:1.24634 23:5.8000698 24:2.8636401 # Flowers/Shape4/shape4-037.ppm
-2.8766494531980078303759727911882e-12 1:199778 2:390600 3:274610 4:1951.1899 5:7906.52 6:3.7818201 7:98.254898 8:33329.199 9:17 10:55 11:32 12:237 13:5701.6499 14:3632.3301 15:154.882 16:168.875 17:0.61764699 18:13.8125 19:0.19565199 20:0.72749698 21:0.246782 22:0.72113401 23:9.1756897 24:4.4951901 # Flowers/Shape1/shape1-023.ppm
2.8766494531980078303759727911882e-12 1:104518 2:351816 3:254756 4:1912.97 5:4449.9199 6:3.0833299 7:115.89 8:24884.6 9:13 10:48 11:10 12:238 13:5944.0498 14:2177.47 15:161.508 16:138.10001 17:0.371429 18:22.799999 19:0.371429 20:0.41026899 21:0.42988801 22:1.33577 23:11.4282 24:4.2162199 # Flowers/Shape4/shape4-076.ppm
-2.8766494531980078303759727911882e-12 1:303628 2:676378 3:538250 4:2796.4099 5:13701.7 6:3.4761901 7:102.949 8:9852.0303 9:8 10:126 11:22 12:458 13:10798.9 14:2409.75 15:152.063 16:160.27299 17:0.44827601 18:16.6154 19:0.25999999 20:0.56410301 21:0.204092 22:0.78814101 23:4.0884099 24:2.3013699 # Flowers/Shape2/shape2-017.ppm
2.8766494531980078303759727911882e-12 1:86617.102 2:340158 3:231469 4:1887.12 5:3478.9099 6:2.9523799 7:121.232 8:14102.6 9:11 10:42 11:10 12:233 13:5460.2798 14:2062.3101 15:158.584 16:134.7 17:0.555556 18:24.888901 19:0.3125 20:0.37420601 21:0.54244602 22:1.56954 23:6.8382502 24:3.7258101 # Flowers/Shape4/shape4-018.ppm
-2.8766494531980078303759727911882e-12 1:237463 2:539968 3:350296 4:2317.3899 5:10303.7 6:3.8209 7:112.175 8:23235.199 9:11 10:67 11:42 12:292 13:6352.27 14:3544.22 15:144.46899 16:167.76199 17:0.48888901 18:10.68 19:0.196429 20:0.67789102 21:0.22490799 22:0.61650199 23:6.5558 24:2.8789101 # Flowers/Shape5/shape5-012.ppm
2.8766494531980078303759727911882e-12 1:180161 2:627120 3:369610 4:2356.46 5:7680.0098 6:3.47541 7:112.225 8:55571.602 9:18 10:61 11:7 12:275 13:6097.48 14:2953.46 15:147.131 16:119.429 17:0.418605 18:18.6429 19:0.24489801 20:0.48743501 21:0.30682999 22:0.79394102 23:18.8158 24:5.1792498 # Flowers/Shape4/shape4-070.ppm
-2.8766494531980078303759727911882e-12 1:210223 2:325280 3:271244 4:1928.64 5:7917.8999 6:3.9047599 7:105.098 8:76453.797 9:22 10:42 11:37 12:218 13:4889.6099 14:5005.2998 15:152.44501 16:166.946 17:0.555556 18:26.25 19:0.166667 20:0.77503097 21:0.243579 22:0.61753798 23:15.2746 24:5.63415 # Flowers/Shape1/shape1-007.ppm
2.8766494531980078303759727911882e-12 1:100535 2:354510 3:256235 4:2049.75 5:4033.6699 6:3.2432401 7:116.783 8:21642.4 9:15 10:37 11:6 12:194 13:4788.29 14:2717.1499 15:159.577 16:111 17:0.27586201 18:26.7143 19:0.32142901 20:0.392353 21:0.50815898 22:1.18708 23:7.9651098 24:4.625 # Flowers/Shape4/shape4-098.ppm
-2.8766494531980078303759727911882e-12 1:223592 2:470470 3:321530 4:2140.8601 5:8798.5703 6:3.3176501 7:108.274 8:12076.3 9:9 10:85 11:27 12:311 13:7488.6899 14:2630.49 15:151.27 16:165.185 17:0.41666701 18:21.2143 19:0.268657 20:0.69539899 21:0.243319 22:0.85112602 23:4.5908799 24:2.71277 # Flowers/Shape2/shape2-006.ppm
2.8766494531980078303759727911882e-12 1:93097.703 2:328548 3:233696 4:1814.37 5:3342.55 6:2.8 7:119.736 8:24328.5 9:12 10:40 11:10 12:231 13:5580.4902 14:2327.4399 15:151.922 16:134.8 17:0.53846198 18:11.8333 19:0.33333299 20:0.39837 21:0.54281002 22:1.66953 23:10.4529 24:4.2857099 # Flowers/Shape4/shape4-051.ppm
-2.8766494531980078303759727911882e-12 1:161658 2:215175 3:168559 4:1464.48 5:6772.6001 6:3.32353 7:117.329 8:1661.9 9:2 10:68 11:68 12:236 13:5323.3701 14:2377.3301 15:149.843 16:173.897 17:0.38775501 18:25.2222 19:0.33333299 20:0.95906103 21:0.216236 22:0.78601599 23:0.699063 24:0.60176998 # Flowers/Shape3/shape3-023.ppm
2.8766494531980078303759727911882e-12 1:126661 2:466050 3:299416 4:2052.6101 5:5199.7998 6:3.0188701 7:118.308 8:39408.102 9:16 10:53 11:9 12:298 13:6107.0801 14:2389.8201 15:142.05 16:128.11099 17:0.39473701 18:9.6428604 19:0.29268301 20:0.42302501 21:0.39474699 22:1.17448 23:16.49 24:5.3000002 # Flowers/Shape4/shape4-072.ppm
-2.8766494531980078303759727911882e-12 1:240959 2:527175 3:389360 4:2302.3401 5:10994.6 6:3.68293 7:105.914 8:16741.5 9:12 10:82 11:22 12:337 13:7958.6499 14:2938.53 15:153.72099 16:157.409 17:0.38983101 18:29.6364 19:0.17142899 20:0.61886102 21:0.209406 22:0.72386801 23:5.6972499 24:3.25828 # Flowers/Shape5/shape5-008.ppm
2.8766494531980078303759727911882e-12 1:94120.797 2:332928 3:235224 4:1821.3101 5:3822.1101 6:2.9047599 7:126.475 8:24884.6 9:16 10:42 11:8 12:237 13:5539.3701 14:2240.97 15:152.03 16:135.25 17:0.615385 18:9.7727299 19:0.40000001 20:0.400132 21:0.47652 22:1.4493001 23:11.1044 24:5.5082002 # Flowers/Shape4/shape4-091.ppm
-2.8766494531980078303759727911882e-12 1:164731 2:216104 3:170232 4:1471.01 5:6333.8301 6:3.13433 7:118.035 8:1520.53 9:2 10:67 11:77 12:221 13:5265.0898 14:2458.6699 15:157.959 16:173.078 17:0.367347 18:17.4167 19:0.34 20:0.96768099 21:0.232246 22:0.83126497 23:0.61843699 24:0.63809502 # Flowers/Shape3/shape3-002.ppm
2.8766494531980078303759727911882e-12 1:92495.5 2:340442 3:244774 4:1858.33 5:3730.48 6:2.9200001 7:116.219 8:16286 9:10 10:50 11:7 12:239 13:5791 14:1849.91 15:155.439 16:118.714 17:0.66666698 18:20.727301 19:0.470588 20:0.377882 21:0.49814901 22:1.55235 23:8.8036804 24:3.42466 # Flowers/Shape4/shape4-068.ppm
-2.8766494531980078303759727911882e-12 1:177035 2:261040 3:206828 4:1618.28 5:6451.46 6:2.86076 7:125.884 8:15836.8 9:6 10:79 11:64 12:404 13:8091.1602 14:2240.95 15:138.005 16:174.328 17:0.75555599 18:6.9215698 19:0.16176499 20:0.85595399 21:0.25083899 22:1.25416 23:7.0669999 24:2.0973499 # Flowers/Shape3/shape3-010.ppm
2.8766494531980078303759727911882e-12 1:92796.203 2:329904 3:236374 4:1823.77 5:3711.02 6:2.9302299 7:119.036 8:24328.5 9:14 10:43 11:9 12:235 13:5622.1099 14:2158.05 15:151.07201 16:128.33299 17:0.65384603 18:10.75 19:0.387097 20:0.392582 21:0.49144599 22:1.51498 23:11.2734 24:4.7777801 # Flowers/Shape4/shape4-010.ppm
-2.8766494531980078303759727911882e-12 1:238912 2:440914 3:288834 4:2027.28 5:8642.5898 6:3.63077 7:108.994 8:53912.898 9:6 10:65 11:47 12:246 13:6227.6899 14:3675.5701 15:155.51199 16:171.702 17:0.444444 18:17.9231 19:0.160714 20:0.82716101 21:0.234568 22:0.720581 23:14.6679 24:1.65254 # Flowers/Shape1/shape1-015.ppm
2.8766494531980078303759727911882e-12 1:91045.297 2:339864 3:244206 4:1855.0699 5:3310.6799 6:2.9473701 7:116.743 8:16741.5 9:11 10:38 11:10 12:263 13:5749.5498 14:2395.9299 15:148.095 16:136 17:0.72727299 18:15.4375 19:0.58333302 20:0.372821 21:0.56032997 22:1.73667 23:6.9875002 24:3.7321401 # Flowers/Shape4/shape4-088.ppm
-2.8766494531980078303759727911882e-12 1:194985 2:288904 3:224838 4:1741.11 5:9684.9805 6:3.90769 7:106.815 8:34636.102 9:18 10:65 11:44 12:200 13:4600.3799 14:2999.77 15:150.875 16:167.795 17:0.35416701 18:17.181801 19:0.18181799 20:0.86722398 21:0.179774 22:0.47500199 23:11.5462 24:4.6062999 # Flowers/Shape1/shape1-018.ppm
2.8766494531980078303759727911882e-12 1:96194.398 2:351268 3:254390 4:1910.9 5:3608.6399 6:2.92308 7:122.613 8:24328.5 9:11 10:39 11:10 12:256 13:5932.8398 14:2466.52 15:155.51199 16:135.8 17:0.5 18:22.272699 19:0.30000001 20:0.37813699 21:0.52953398 22:1.64406 23:9.8634796 24:3.76316 # Flowers/Shape4/shape4-096.ppm
-2.8766494531980078303759727911882e-12 1:295521 2:664216 3:454700 4:2515.8401 5:12599.2 6:3.30357 7:109.725 8:5541.77 9:4 10:112 11:27 12:407 13:9695.6504 14:2638.5801 15:149.22099 16:166 17:0.41772199 18:13.0345 19:0.244444 20:0.64992499 21:0.199683 22:0.76954597 23:2.1002901 24:1.2108099 # Flowers/Shape2/shape2-023.ppm
2.8766494531980078303759727911882e-12 1:86604.898 2:326656 3:211690 4:1897.91 5:3121.5601 6:3.0285699 7:116.873 8:11689.9 9:6 10:35 11:14 12:190 13:4673.3901 14:2474.4299 15:161.80499 16:153.286 17:0.40000001 18:20.111099 19:0.45833299 20:0.40911099 21:0.60800099 22:1.49713 23:4.7242699 24:1.98113 # Flowers/Shape4/shape4-057.ppm
-2.8766494531980078303759727911882e-12 1:262149 2:551688 3:482727 4:2581.04 5:10564.1 6:3.3494 7:106.944 8:29559.199 9:12 10:83 11:25 12:359 13:8843.3496 14:3158.4299 15:155 16:164.92 17:0.296875 18:28.9167 19:0.18571401 20:0.54305899 21:0.244323 22:0.83711702 23:9.3588495 24:3.5827301 # Flowers/Shape5/shape5-010.ppm
2.8766494531980078303759727911882e-12 1:92587.203 2:333732 3:235674 4:1822.11 5:3767.5701 6:2.9047599 7:125.688 8:24884.6 9:14 10:42 11:7 12:232 13:5581.0698 14:2204.46 15:151.647 16:119.286 17:0.5 18:12.6471 19:0.40000001 20:0.39286101 21:0.48362899 22:1.4813499 23:11.2883 24:4.8196702 # Flowers/Shape4/shape4-071.ppm
-2.8766494531980078303759727911882e-12 1:241320 2:480000 3:342795 4:2238.0601 5:9195.96 6:3.63077 7:111.655 8:16741.5 9:9 10:65 11:46 12:304 13:6834.9102 14:3712.6201 15:146.56599 16:169.478 17:0.47727299 18:20.7143 19:0.203704 20:0.703978 21:0.243375 22:0.74325103 23:4.5093598 24:2.4788101 # Flowers/Shape5/shape5-014.ppm
2.8766494531980078303759727911882e-12 1:89498.703 2:327188 3:233356 4:1813.46 5:3539.52 6:2.9047599 7:118.938 8:22698 9:12 10:42 11:8 12:232 13:5586.23 14:2130.9199 15:150.707 16:135.25 17:0.555556 18:12.6471 19:0.40000001 20:0.38352999 21:0.51234698 22:1.57824 23:10.6517 24:4.1311498 # Flowers/Shape4/shape4-031.ppm
-2.8766494531980078303759727911882e-12 1:264712 2:535896 3:408356 4:2404.3601 5:10742.4 6:3.9166701 7:106.329 8:48305.102 9:15 10:72 11:30 12:257 13:6699.98 14:3676.55 15:150.38499 16:165.533 17:0.53191501 18:31.125 19:0.2 20:0.648238 21:0.223819 22:0.62369502 23:13.1387 24:3.8297901 # Flowers/Shape1/shape1-008.ppm
2.8766494531980078303759727911882e-12 1:89353.703 2:338120 3:232080 4:1886.8 5:3809.51 6:2.9361701 7:120.692 8:14102.6 9:12 10:47 11:11 12:230 13:5471.3599 14:1901.14 15:158.974 16:140 17:0.67857099 18:24.555599 19:0.342857 20:0.38501099 21:0.49528801 22:1.43624 23:7.4179702 24:4.0869598 # Flowers/Shape4/shape4-039.ppm
-2.8766494531980078303759727911882e-12 1:274312 2:563220 3:439215 4:2488.71 5:11296.1 6:3.63415 7:106.56 8:27759.1 9:15 10:82 11:23 12:338 13:8116.0298 14:3345.26 15:145.63 16:160.13 17:0.366667 18:13.6957 19:0.18840601 20:0.62454998 21:0.22031599 22:0.71848297 23:8.2980404 24:4.1275201 # Flowers/Shape5/shape5-009.ppm
2.8766494531980078303759727911882e-12 1:87263 2:336608 3:233004 4:1887.73 5:3370.23 6:2.9268301 7:121.038 8:13684.8 9:9 10:41 11:9 12:234 13:5485.3501 14:2128.3701 15:153.265 16:134.222 17:0.63999999 18:18.5 19:0.32258099 20:0.37451401 21:0.56011999 22:1.6275899 23:6.4297099 24:3.075 # Flowers/Shape4/shape4-059.ppm
-2.8766494531980078303759727911882e-12 1:228915 2:303408 3:236216 4:1734.4301 5:8775.1396 6:3.59322 7:113.766 8:43743.5 9:13 10:59 11:84 12:203 13:5064.3398 14:3879.9099 15:158.867 16:173.85699 17:0.340909 18:12.5333 19:0.204082 20:0.96908802 21:0.197652 22:0.577124 23:11.2744 24:3.6179199 # Flowers/Shape3/shape3-006.ppm
2.8766494531980078303759727911882e-12 1:94138.797 2:366124 3:247496 4:1866.38 5:4119.3999 6:3.05882 7:116.095 8:16286 9:12 10:51 11:10 12:270 13:5919.6499 14:1845.86 15:142.10699 16:139.3 17:0.378378 18:10.25 19:0.45714301 20:0.380366 21:0.45307001 22:1.4370199 23:8.823 24:3.92308 # Flowers/Shape4/shape4-048.ppm
-2.8766494531980078303759727911882e-12 1:285665 2:529230 3:437022 4:2454.52 5:12144.2 6:3.5 7:107.371 8:34636.102 9:13 10:96 11:25 12:382 13:8794.0596 14:2975.6799 15:151.05499 16:164.8 17:0.297297 18:16.3636 19:0.21518999 20:0.65366298 21:0.202114 22:0.72413403 23:11.6397 24:3.7142899 # Flowers/Shape2/shape2-024.ppm
2.8766494531980078303759727911882e-12 1:92998.797 2:359600 3:242416 4:1848.4 5:3794.26 6:2.9787199 7:122.527 8:17671.5 9:12 10:47 11:11 12:253 13:5819.2202 14:1978.7 15:149.08701 16:141.091 17:0.67857099 18:15.8667 19:0.46875 20:0.383634 21:0.487156 22:1.53369 23:8.93085 24:4.0285702 # Flowers/Shape4/shape4-028.ppm
2.8766494531980078303759727911882e-12 1:100718 2:393808 3:252776 4:1906.5 5:3803.3799 6:2.9047599 7:119.914 8:22167.1 9:12 10:42 11:9 12:263 13:5984.7002 14:2398.04 15:153.696 16:128 17:0.615385 18:15.4375 19:0.354839 20:0.39844501 21:0.501266 22:1.5735199 23:9.2438297 24:4.1311498 # Flowers/Shape4/shape4-015.ppm
-2.8766494531980078303759727911882e-12 1:240935 2:318600 3:250408 4:1781.13 5:10203.8 6:3.2792799 7:121.984 8:2290.22 9:3 10:111 11:76 12:339 13:7738.9502 14:2170.5801 15:153.14999 16:174.32899 17:0.405063 18:20.1875 19:0.337349 20:0.96216798 21:0.174556 22:0.758439 23:1.05512 24:0.91483498 # Flowers/Shape3/shape3-007.ppm
2.8766494531980078303759727911882e-12 1:92825.703 2:364868 3:245155 4:1857.73 5:3655.3701 6:2.86957 7:117.5 8:15836.8 9:12 10:46 11:10 12:255 13:5827.8701 14:2017.95 15:154.075 16:138.89999 17:0.58620697 18:18.6154 19:0.4375 20:0.37864101 21:0.50822002 22:1.59433 23:7.84795 24:4.1818199 # Flowers/Shape4/shape4-007.ppm
-2.3967465608499765210365759370064e-12 1:296556 2:592137 3:419961 4:2401.6001 5:12134.2 6:3.3675201 7:104.238 8:5541.77 9:5 10:117 11:33 12:401 13:9396.7305 14:2534.6699 15:151.257 16:164.18201 17:0.5 18:15.04 19:0.32954499 20:0.70615202 21:0.19791999 22:0.7744 23:2.1863899 24:1.4847701 # Flowers/Shape2/shape2-002.ppm
