SVM-light Version V6.02
0 # kernel type
3 # kernel parameter -d 
1 # kernel parameter -g 
1 # kernel parameter -s 
1 # kernel parameter -r 
empty# kernel parameter -u 
24 # highest feature index 
194 # number of training documents 
107 # number of support vectors plus 1 
-2.0877319 # threshold b, each following line is a SV (starting with alpha*y)
-8.533209983528142507335759094772e-09 5:4957.6802 6:3.25581 7:100.742 13:4719.4902 14:2941.78 17:0.34375 18:11.8125 19:0.30303001 20:0.72900498 21:0.30944699 22:0.95195502 23:10.8939 24:4.6071401 # Flowers/Shape1/shape1-004.ppm
8.533209983528142507335759094772e-09 5:3470.6699 6:3 7:127.722 13:4681.46 14:2424.97 17:0.80000001 18:14.5833 19:0.384615 20:0.41207501 21:0.54806501 22:1.34886 23:10.9653 24:5 # Flowers/Shape4/shape4-097.ppm
-8.533209983528142507335759094772e-09 5:4171.6699 6:3.2432401 7:97.216904 13:4763.3301 14:3027.52 17:0.32142901 18:10.6471 19:0.37037 20:0.54798901 21:0.416511 22:1.14183 23:5.9936299 24:3.7 # Flowers/Shape5/shape5-011.ppm
8.533209983528142507335759094772e-09 5:20984.4 6:4.1473699 7:111.625 13:7632.5801 14:4796.29 17:0.283784 18:22.2143 19:0.130952 20:0.66739303 21:0.155599 22:0.363727 23:36.1726 24:8.1979704 # Flowers/Shape4/shape4-093.ppm
-8.533209983528142507335759094772e-09 5:8059.7002 6:3.67273 7:102.224 13:5874.98 14:3788.6499 17:0.447368 18:25.7778 19:0.19565199 20:0.59330398 21:0.27884299 22:0.72893298 23:8.7971096 24:3.2673299 # Flowers/Shape5/shape5-003.ppm
8.533209983528142507335759094772e-09 5:3723 6:3.4210501 7:116.38 13:4078.05 14:2142.0801 17:0.46153799 18:30.6 19:0.31034499 20:0.43588299 21:0.46260601 22:1.0953701 23:5.8209801 24:3.50769 # Flowers/Shape4/shape4-081.ppm
-8.533209983528142507335759094772e-09 5:4062.0701 6:2.3896101 7:125.092 13:6386.0698 14:1521.95 17:0.45282999 18:14.8333 19:0.50980401 20:0.92794001 21:0.31280801 22:1.57212 23:0.464443 24:0.83695698 # Flowers/Shape3/shape3-001.ppm
8.533209983528142507335759094772e-09 5:20743.6 6:4.10638 7:110.284 13:7569.8901 14:4870.29 17:0.305556 18:22.2143 19:0.146341 20:0.66800398 21:0.15766101 22:0.36492699 23:31.7908 24:6.8186498 # Flowers/Shape4/shape4-073.ppm
-8.533209983528142507335759094772e-09 5:8798.5703 6:3.3176501 7:108.274 13:7488.6899 14:2630.49 17:0.41666701 18:21.2143 19:0.268657 20:0.69539899 21:0.243319 22:0.85112602 23:4.5908799 24:2.71277 # Flowers/Shape2/shape2-006.ppm
8.533209983528142507335759094772e-09 5:3803.3799 6:2.9047599 7:119.914 13:5984.7002 14:2398.04 17:0.615385 18:15.4375 19:0.354839 20:0.39844501 21:0.501266 22:1.5735199 23:9.2438297 24:4.1311498 # Flowers/Shape4/shape4-015.ppm
-8.533209983528142507335759094772e-09 5:4487.75 6:3.5151501 7:105.193 13:4885.8599 14:4281.5098 17:0.375 18:10.8235 19:0.222222 20:0.67606002 21:0.377783 22:1.08871 23:7.78444 24:2.84483 # Flowers/Shape1/shape1-019.ppm
8.533209983528142507335759094772e-09 5:19787 6:4.0229902 7:113.236 13:7564.2202 14:5249.0498 17:0.225352 18:80.666702 19:0.12987 20:0.66908199 21:0.164876 22:0.382283 23:33.3344 24:7.9542899 # Flowers/Shape4/shape4-012.ppm
-8.533209983528142507335759094772e-09 5:7917.8999 6:3.9047599 7:105.098 13:4889.6099 14:5005.2998 17:0.555556 18:26.25 19:0.166667 20:0.77503097 21:0.243579 22:0.61753798 23:15.2746 24:5.63415 # Flowers/Shape1/shape1-007.ppm
8.533209983528142507335759094772e-09 5:3721.6499 6:3.05 7:120.573 13:4673.5498 14:2204.6899 17:0.33333299 18:13.8462 19:0.33333299 20:0.41887 21:0.50933802 22:1.25577 23:11.2871 24:4.2623 # Flowers/Shape4/shape4-077.ppm
-8.533209983528142507335759094772e-09 5:4762.7598 6:3.3333299 7:108.884 13:4939.98 14:2422 17:0.33333299 18:13.8667 19:0.297297 20:0.58828503 21:0.39706999 22:1.03721 23:4.5152302 24:2.0999999 # Flowers/Shape5/shape5-019.ppm
8.533209983528142507335759094772e-09 5:19585.1 6:3.9333301 7:109.277 13:7553.2598 14:5088.54 17:0.40625 18:59.5 19:0.139241 20:0.67252499 21:0.16640501 22:0.38566399 23:35.858398 24:8.1355896 # Flowers/Shape4/shape4-033.ppm
-8.533209983528142507335759094772e-09 5:8642.5898 6:3.63077 7:108.994 13:6227.6899 14:3675.5701 17:0.444444 18:17.9231 19:0.160714 20:0.82716101 21:0.234568 22:0.720581 23:14.6679 24:1.65254 # Flowers/Shape1/shape1-015.ppm
8.533209983528142507335759094772e-09 5:3775.79 6:3.1428599 7:113.456 13:4705.9199 14:2149.8 17:0.354839 18:20.555599 19:0.40000001 20:0.424575 21:0.503712 22:1.24634 23:5.8000698 24:2.8636401 # Flowers/Shape4/shape4-037.ppm
-8.533209983528142507335759094772e-09 5:4911.6001 6:3.54286 7:97.292099 13:4288.2598 14:3872.6299 17:0.346154 18:17.299999 19:0.25 20:0.759453 21:0.319368 22:0.873088 23:8.4400396 24:4.23387 # Flowers/Shape1/shape1-006.ppm
8.533209983528142507335759094772e-09 5:18930.4 6:4.0749998 7:114.163 13:7701.7998 14:5694.75 17:0.25 18:11.1429 19:0.142857 20:0.66857201 21:0.17220899 22:0.406847 23:31.7759 24:7.8527598 # Flowers/Shape4/shape4-053.ppm
-8.533209983528142507335759094772e-09 5:9398.3604 6:3.7026999 7:109.15 13:7349.3301 14:2888.76 17:0.57446802 18:18.625 19:0.27586201 20:0.50646901 21:0.262954 22:0.78197998 23:2.3011999 24:1.62044 # Flowers/Shape5/shape5-015.ppm
8.533209983528142507335759094772e-09 5:3809.51 6:2.9361701 7:120.692 13:5471.3599 14:1901.14 17:0.67857099 18:24.555599 19:0.342857 20:0.38501099 21:0.49528801 22:1.43624 23:7.4179702 24:4.0869598 # Flowers/Shape4/shape4-039.ppm
-8.533209983528142507335759094772e-09 5:4434 6:2.60976 7:121.045 13:6353.6001 14:1402.1801 17:0.67346901 18:11.7727 19:0.49090901 20:0.92590302 21:0.28428999 22:1.43293 23:0.64750397 24:1.1495301 # Flowers/Shape3/shape3-022.ppm
8.533209983528142507335759094772e-09 5:8979.8604 6:3.42857 7:122.941 13:7376.1899 14:2896.3301 17:0.42857099 18:22.769199 19:0.22807001 20:0.398004 21:0.31045201 22:0.82141602 23:18.8995 24:5.8333302 # Flowers/Shape4/shape4-055.ppm
-8.533209983528142507335759094772e-09 5:5380.3501 6:3.5122001 7:115.883 13:4010.1101 14:3645.5701 17:0.51851898 18:27.6667 19:0.366667 20:0.949027 21:0.26657999 22:0.74532503 23:3.2065899 24:1.42361 # Flowers/Shape3/shape3-020.ppm
8.533209983528142507335759094772e-09 5:8899.1396 6:3.43662 7:116.636 13:7355.8101 14:2833.52 17:0.39215699 18:18.875 19:0.18333299 20:0.39763901 21:0.312581 22:0.82657599 23:22.990499 24:5.8196702 # Flowers/Shape4/shape4-095.ppm
-8.533209983528142507335759094772e-09 5:5845.4199 6:3.4074099 7:102.623 13:7713.71 14:2967.5 17:0.45945901 18:12.44 19:0.384615 20:0.51679802 21:0.35307199 22:1.31962 23:3.8112099 24:2.6413 # Flowers/Shape1/shape1-016.ppm
8.533209983528142507335759094772e-09 5:8287.2598 6:3.60656 7:113.881 13:5864.7798 14:2955.29 17:0.418605 18:23.75 19:0.24489801 20:0.491835 21:0.28257301 22:0.70768601 23:18.5224 24:6.0999999 # Flowers/Shape4/shape4-090.ppm
-8.533209983528142507335759094772e-09 5:9684.9805 6:3.90769 7:106.815 13:4600.3799 14:2999.77 17:0.35416701 18:17.181801 19:0.18181799 20:0.86722398 21:0.179774 22:0.47500199 23:11.5462 24:4.6062999 # Flowers/Shape1/shape1-018.ppm
8.533209983528142507335759094772e-09 5:3711.02 6:2.9302299 7:119.036 13:5622.1099 14:2158.05 17:0.65384603 18:10.75 19:0.387097 20:0.392582 21:0.49144599 22:1.51498 23:11.2734 24:4.7777801 # Flowers/Shape4/shape4-010.ppm
-8.533209983528142507335759094772e-09 5:5015.1299 6:3.34694 7:106.183 13:5973.6099 14:2636.54 17:0.40000001 18:16.5 19:0.441176 20:0.56524497 21:0.35819301 22:1.19112 23:7.6259599 24:2.9877999 # Flowers/Shape1/shape1-024.ppm
8.533209983528142507335759094772e-09 5:8413.9297 6:3.3698599 7:119.659 13:7385.0298 14:2715.6799 17:0.403846 18:27.5833 19:0.216667 20:0.39077401 21:0.330798 22:0.87771398 23:22.030701 24:5.0447202 # Flowers/Shape4/shape4-014.ppm
-8.533209983528142507335759094772e-09 5:5121.3999 6:3.28 7:108.623 13:5926.79 14:2628.3 17:0.38888901 18:29.125 19:0.42857099 20:0.575993 21:0.34990999 22:1.1572599 23:4.16081 24:3.04878 # Flowers/Shape1/shape1-003.ppm
8.533209983528142507335759094772e-09 5:8293.1201 6:3.2676101 7:120.796 13:7663.4502 14:2767.8501 17:0.365385 18:14.45 19:0.22413801 20:0.363639 21:0.35106701 22:0.92407399 23:19.181999 24:5.8146601 # Flowers/Shape4/shape4-094.ppm
-8.533209983528142507335759094772e-09 5:6451.46 6:2.86076 7:125.884 13:8091.1602 14:2240.95 17:0.75555599 18:6.9215698 19:0.16176499 20:0.85595399 21:0.25083899 22:1.25416 23:7.0669999 24:2.0973499 # Flowers/Shape3/shape3-010.ppm
8.533209983528142507335759094772e-09 5:7680.0098 6:3.47541 7:112.225 13:6097.48 14:2953.46 17:0.418605 18:18.6429 19:0.24489801 20:0.48743501 21:0.30682999 22:0.79394102 23:18.8158 24:5.1792498 # Flowers/Shape4/shape4-070.ppm
-8.533209983528142507335759094772e-09 5:11084 6:3.0780101 7:119.563 13:10352.3 14:2009.76 17:0.43877599 18:34.333302 19:0.58427 20:0.95967299 21:0.174169 22:0.93398201 23:0.976978 24:0.64977002 # Flowers/Shape3/shape3-019.ppm
8.533209983528142507335759094772e-09 5:7103.2798 6:3.38462 7:117.5 13:6129.6699 14:3429.1201 17:0.30000001 18:10.92 19:0.26829299 20:0.48894101 21:0.329575 22:0.86293399 23:15.7221 24:5.6136398 # Flowers/Shape4/shape4-050.ppm
-8.533209983528142507335759094772e-09 5:5862.8599 6:3.9473701 7:100.628 13:3829.0701 14:3551.8 17:0.51999998 18:23.4286 19:0.225806 20:0.79069 21:0.26247299 22:0.65310597 23:14.7191 24:4.5599999 # Flowers/Shape1/shape1-021.ppm
8.533209983528142507335759094772e-09 5:7860.7002 6:3.3225801 7:117.951 13:7692.25 14:3158.52 17:0.37777799 18:20.733299 19:0.265306 20:0.36119699 21:0.37106001 22:0.978571 23:16.809401 24:5.7184501 # Flowers/Shape4/shape4-054.ppm
-8.533209983528142507335759094772e-09 5:5454.2798 6:3.55 7:104.569 13:4685.2598 14:3722.5601 17:0.29032299 18:15.1667 19:0.25 20:0.75634599 21:0.30380601 22:0.85900801 23:5.9547901 24:3.6619699 # Flowers/Shape1/shape1-017.ppm
8.533209983528142507335759094772e-09 5:8059.5898 6:3.3623199 7:120.945 13:7286.6001 14:2836.21 17:0.4375 18:23.8333 19:0.16949201 20:0.384451 21:0.34618399 22:0.90408999 23:21.7104 24:4.4612098 # Flowers/Shape4/shape4-035.ppm
8.533209983528142507335759094772e-09 5:5341.1401 6:3.2156899 7:114.991 13:6093.2402 14:2482.8101 17:0.41666701 18:7.5882401 19:0.342105 20:0.424523 21:0.38342699 22:1.14081 23:14.2173 24:5.2865901 # Flowers/Shape4/shape4-011.ppm
8.533209983528142507335759094772e-09 5:3767.5701 6:2.9047599 7:125.688 13:5581.0698 14:2204.46 17:0.5 18:12.6471 19:0.40000001 20:0.39286101 21:0.48362899 22:1.4813499 23:11.2883 24:4.8196702 # Flowers/Shape4/shape4-071.ppm
-8.533209983528142507335759094772e-09 5:6066.2998 6:3.6666701 7:107.402 13:3801.27 14:3469.5 17:0.40000001 18:31.200001 19:0.235294 20:0.84977502 21:0.25397199 22:0.62661999 23:15.5391 24:4.90909 # Flowers/Shape1/shape1-000.ppm
8.533209983528142507335759094772e-09 5:7893.8198 6:3.375 7:116.743 13:7338.0698 14:3068.3601 17:0.361702 18:32.222198 19:0.185185 20:0.38539401 21:0.35363799 22:0.92959702 23:20.645201 24:4.7407398 # Flowers/Shape4/shape4-075.ppm
-8.533209983528142507335759094772e-09 5:6091.2002 6:3.5652201 7:109.703 13:4006.47 14:3277.47 17:0.39393899 18:32.599998 19:0.31428599 20:0.95740998 21:0.23543701 22:0.65774697 23:3.22453 24:1.12195 # Flowers/Shape3/shape3-021.ppm
8.533209983528142507335759094772e-09 5:7542.2998 6:3.3225801 7:122.208 13:7634.25 14:3119.3301 17:0.409091 18:16.1667 19:0.265306 20:0.35701701 21:0.386812 22:1.01219 23:16.7598 24:5.1164999 # Flowers/Shape4/shape4-074.ppm
-8.533209983528142507335759094772e-09 5:6333.8301 6:3.13433 7:118.035 13:5265.0898 14:2458.6699 17:0.367347 18:17.4167 19:0.34 20:0.96768099 21:0.232246 22:0.83126497 23:0.61843699 24:0.63809502 # Flowers/Shape3/shape3-002.ppm
8.533209983528142507335759094772e-09 5:7402.7598 6:3.3928599 7:113.037 13:6125.77 14:3184.8401 17:0.40000001 18:13.381 19:0.217391 20:0.48317599 21:0.318131 22:0.82749897 23:17.448799 24:5.5999999 # Flowers/Shape4/shape4-030.ppm
-8.533209983528142507335759094772e-09 5:7383.3501 6:3.64516 7:103.463 13:7628.9502 14:2883.1001 17:0.51219499 18:12.88 19:0.21568599 20:0.49302399 21:0.307704 22:1.03326 23:3.92276 24:1.6460201 # Flowers/Shape5/shape5-002.ppm
8.533209983528142507335759094772e-09 5:6938.8599 6:3.2692299 7:117.356 13:6067.3799 14:3428.46 17:0.33333299 18:13.25 19:0.238095 20:0.48445901 21:0.33885801 22:0.87440699 23:16.4536 24:5.5058799 # Flowers/Shape4/shape4-009.ppm
-8.533209983528142507335759094772e-09 5:6340.7202 6:3.68627 7:103.409 13:4892.5298 14:2901.1299 17:0.41666701 18:17.727301 19:0.27500001 20:0.71142101 21:0.271676 22:0.77160501 23:9.9798899 24:4.3404298 # Flowers/Shape1/shape1-022.ppm
8.533209983528142507335759094772e-09 5:7409.3701 6:3.25424 7:113.714 13:7736.3599 14:3263.8601 17:0.311111 18:11.1724 19:0.28260899 20:0.356516 21:0.392378 22:1.04413 23:16.266899 24:5.53125 # Flowers/Shape4/shape4-013.ppm
-8.533209983528142507335759094772e-09 5:7474.9702 6:3.4461501 7:112.296 13:7331.8101 14:2717.03 17:0.41304299 18:31.444401 19:0.27451 20:0.343483 21:0.37662399 22:0.98084903 23:13.9907 24:4.9330401 # Flowers/Shape5/shape5-017.ppm
8.533209983528142507335759094772e-09 5:5826.79 6:3.42308 7:109.722 13:5384.2598 14:2309.74 17:0.33333299 18:37.166698 19:0.30000001 20:0.50818503 21:0.31426501 22:0.92405301 23:11.2634 24:5.55056 # Flowers/Shape4/shape4-046.ppm
-8.533209983528142507335759094772e-09 5:6772.6001 6:3.32353 7:117.329 13:5323.3701 14:2377.3301 17:0.38775501 18:25.2222 19:0.33333299 20:0.95906103 21:0.216236 22:0.78601599 23:0.699063 24:0.60176998 # Flowers/Shape3/shape3-023.ppm
-8.533209983528142507335759094772e-09 5:10551.4 6:3.4705901 7:116.353 13:6854.21 14:2412.72 17:0.47826099 18:53.599998 19:0.32467499 20:0.97915 21:0.169958 22:0.64960402 23:1.02084 24:1.15254 # Flowers/Shape3/shape3-008.ppm
2.09703873187504386892472836839e-09 5:3461.98 6:3.1666701 7:121.833 13:4480.77 14:2252.48 17:0.384615 18:16 19:0.33333299 20:0.38434201 21:0.54239202 22:1.2942801 23:9.3781204 24:4.1052599 # Flowers/Shape4/shape4-023.ppm
-8.533209983528142507335759094772e-09 5:6654.96 6:3.7358501 7:111.414 13:4001.4299 14:2887.21 17:0.432432 18:20.5 19:0.26190501 20:0.97117001 21:0.21546701 22:0.60127002 23:4.3186998 24:2.1414101 # Flowers/Shape3/shape3-000.ppm
8.533209983528142507335759094772e-09 5:7353.54 6:3.30159 7:119.055 13:7751.8101 14:3030.2 17:0.340426 18:17.4737 19:0.25999999 20:0.35156199 21:0.396072 22:1.05416 23:16.9863 24:5.1490402 # Flowers/Shape4/shape4-034.ppm
8.533209983528142507335759094772e-09 5:5776.7798 6:3.14815 7:117.586 13:6097.5498 14:2359.1499 17:0.34999999 18:9.3571396 19:0.31707299 20:0.42232499 21:0.356729 22:1.05553 23:16.1131 24:6.3529401 # Flowers/Shape4/shape4-032.ppm
-8.533209983528142507335759094772e-09 5:6747.5698 6:3.86957 7:102.386 13:3790.6499 14:3182.28 17:0.48387101 18:31.200001 19:0.179487 20:0.85185701 21:0.228357 22:0.56177998 23:16.941601 24:5.16854 # Flowers/Shape1/shape1-020.ppm
-8.533209983528142507335759094772e-09 5:6874.1401 6:3.6981101 7:103.909 13:4870.2202 14:2856.8401 17:0.35897401 18:18 19:0.26190501 20:0.72901601 21:0.25058401 22:0.70848501 23:11.6665 24:4.8673501 # Flowers/Shape1/shape1-001.ppm
8.533209983528142507335759094772e-09 5:5414.9902 6:3.1923101 7:120.974 13:6135.52 14:2452.4299 17:0.40540501 18:7.6363602 19:0.33333299 20:0.423466 21:0.37992901 22:1.13306 23:14.3934 24:5.6385498 # Flowers/Shape4/shape4-052.ppm
-8.533209983528142507335759094772e-09 5:6999.6401 6:3.67857 7:101.587 13:5537.7998 14:3028 17:0.555556 18:13 19:0.217391 20:0.58612698 21:0.29195601 22:0.79115599 23:3.0253899 24:1.35922 # Flowers/Shape5/shape5-021.ppm
-8.533209983528142507335759094772e-09 5:7238.25 6:3.5999999 7:107.263 13:5858.3901 14:2656.3501 17:0.42857099 18:16.5 19:0.17647099 20:0.57322901 21:0.27661201 22:0.80936497 23:4.9967899 24:2.2222199 # Flowers/Shape5/shape5-006.ppm
8.533209983528142507335759094772e-09 5:5073.8301 6:3.2444401 7:117.406 13:5341.0801 14:2642.1499 17:0.36363599 18:35.833302 19:0.32352901 20:0.503905 21:0.35975501 22:1.05267 23:9.8463497 24:5.5479498 # Flowers/Shape4/shape4-005.ppm
-8.533209983528142507335759094772e-09 5:7508.2798 6:3.6226399 7:108.489 13:5532.4902 14:3177.5901 17:0.35897401 18:16.6364 19:0.17777801 20:0.58197898 21:0.272163 22:0.73685199 23:7.8312702 24:3.5885401 # Flowers/Shape5/shape5-020.ppm
8.533209983528142507335759094772e-09 5:5199.7998 6:3.0188701 7:118.308 13:6107.0801 14:2389.8201 17:0.39473701 18:9.6428604 19:0.29268301 20:0.42302501 21:0.39474699 22:1.17448 23:16.49 24:5.3000002 # Flowers/Shape4/shape4-072.ppm
-8.533209983528142507335759094772e-09 5:7595.7798 6:3.5185201 7:111.044 13:5624.5098 14:3139.3401 17:0.285714 18:13.9375 19:0.148936 20:0.58310997 21:0.26946601 22:0.74047798 23:8.4700603 24:3.97895 # Flowers/Shape5/shape5-000.ppm
8.533209983528142507335759094772e-09 5:4804.2002 6:3.2083299 7:111.236 13:5373.4399 14:2449.9199 17:0.33333299 18:13.8667 19:0.33333299 20:0.50263399 21:0.37931699 22:1.11849 23:10.1573 24:4.3636398 # Flowers/Shape4/shape4-086.ppm
-8.533209983528142507335759094772e-09 5:7642.9502 6:3.7735801 7:102.279 13:5695.04 14:3723.7 17:0.472222 18:17.0769 19:0.20454501 20:0.72334898 21:0.25466701 22:0.74513602 23:7.1408701 24:3.9749999 # Flowers/Shape1/shape1-002.ppm
8.533209983528142507335759094772e-09 5:4559.4702 6:3.3181801 7:118.618 13:4868.5498 14:2370.8501 17:0.33333299 18:12.0667 19:0.33333299 20:0.412653 21:0.446886 22:1.06779 23:8.4805899 24:4.2191801 # Flowers/Shape4/shape4-038.ppm
-8.533209983528142507335759094772e-09 5:7906.52 6:3.7818201 7:98.254898 13:5701.6499 14:3632.3301 17:0.61764699 18:13.8125 19:0.19565199 20:0.72749698 21:0.246782 22:0.72113401 23:9.1756897 24:4.4951901 # Flowers/Shape1/shape1-023.ppm
8.533209983528142507335759094772e-09 5:4428.8501 6:3.31707 7:120.211 13:4825.73 14:2632.49 17:0.413793 18:15.8333 19:0.366667 20:0.42002001 21:0.46310699 22:1.08961 23:8.2212696 24:3.9191201 # Flowers/Shape4/shape4-078.ppm
-8.533209983528142507335759094772e-09 5:8775.1396 6:3.59322 7:113.766 13:5064.3398 14:3879.9099 17:0.340909 18:12.5333 19:0.204082 20:0.96908802 21:0.197652 22:0.577124 23:11.2744 24:3.6179199 # Flowers/Shape3/shape3-006.ppm
-8.533209983528142507335759094772e-09 5:10564.1 6:3.3494 7:106.944 13:8843.3496 14:3158.4299 17:0.296875 18:28.9167 19:0.18571401 20:0.54305899 21:0.244323 22:0.83711702 23:9.3588495 24:3.5827301 # Flowers/Shape5/shape5-010.ppm
-8.533209983528142507335759094772e-09 5:10122.2 6:3.1858399 7:119.623 13:8893.1299 14:2298.27 17:0.43037999 18:25.9231 19:0.43037999 20:0.89900798 21:0.19677 22:0.87858099 23:2.2978201 24:1.25556 # Flowers/Shape3/shape3-005.ppm
8.533209983528142507335759094772e-09 5:4033.6699 6:3.2432401 7:116.783 13:4788.29 14:2717.1499 17:0.27586201 18:26.7143 19:0.32142901 20:0.392353 21:0.50815898 22:1.18708 23:7.9651098 24:4.625 # Flowers/Shape4/shape4-098.ppm
-8.533209983528142507335759094772e-09 5:8346.8604 6:3.6896601 7:108.474 13:6303.9702 14:3382.4399 17:0.34883699 18:16.3333 19:0.208333 20:0.56213897 21:0.26298299 22:0.75525099 23:12.7143 24:4.0654202 # Flowers/Shape5/shape5-005.ppm
8.533209983528142507335759094772e-09 5:4595.9102 6:3.4210501 7:117.435 13:6090.9399 14:2719.6001 17:0.46153799 18:9.1666698 19:0.225806 20:0.344607 21:0.44710001 22:1.3253 23:15.0126 24:4.6769199 # Flowers/Shape4/shape4-092.ppm
-8.533209983528142507335759094772e-09 5:8645.5303 6:3.7083299 7:106.792 13:4271.02 14:4188.6401 17:0.41176501 18:14.5 19:0.17073201 20:0.88491201 21:0.200349 22:0.49401399 23:22.969601 24:7.2809 # Flowers/Shape1/shape1-009.ppm
8.533209983528142507335759094772e-09 5:4459.3999 6:3.0638299 7:112.351 13:5342.2402 14:2473.7 17:0.27026999 18:35.833302 19:0.27026999 20:0.50140703 21:0.40722299 22:1.19797 23:9.8348503 24:3.9166701 # Flowers/Shape4/shape4-066.ppm
-8.533209983528142507335759094772e-09 5:8964.5996 6:3.4473701 7:103.882 13:7393.0498 14:2807.75 17:0.46153799 18:26.111099 19:0.26666701 20:0.58838397 21:0.253681 22:0.82469398 23:4.87393 24:2.6106901 # Flowers/Shape5/shape5-023.ppm
8.533209983528142507335759094772e-09 5:4310.75 6:3 7:115.464 13:5348.25 14:2745.3601 17:0.68000001 18:36.166698 19:0.3125 20:0.49040899 21:0.423967 22:1.24068 23:8.8616896 24:4.3333302 # Flowers/Shape4/shape4-026.ppm
-8.533209983528142507335759094772e-09 5:9101.5596 6:3.69014 7:113.445 13:5399.9399 14:3001.78 17:0.44898 18:34 19:0.24561401 20:0.97000599 21:0.184003 22:0.59329897 23:4.5588899 24:2.1679399 # Flowers/Shape3/shape3-009.ppm
8.533209983528142507335759094772e-09 5:4449.9199 6:3.0833299 7:115.89 13:5944.0498 14:2177.47 17:0.371429 18:22.799999 19:0.371429 20:0.41026899 21:0.42988801 22:1.33577 23:11.4282 24:4.2162199 # Flowers/Shape4/shape4-076.ppm
-8.533209983528142507335759094772e-09 5:8850.1504 6:3.5692301 7:105.305 13:6925.7598 14:3359.9299 17:0.41304299 18:14.1053 19:0.18181799 20:0.539621 21:0.276889 22:0.78255898 23:5.1201501 24:1.96121 # Flowers/Shape5/shape5-022.ppm
8.533209983528142507335759094772e-09 5:4190.3301 6:3.1707301 7:119.133 13:4890.5298 14:2510.45 17:0.413793 18:20.3333 19:0.366667 20:0.402394 21:0.48918501 22:1.1671 23:8.0089903 24:3.78462 # Flowers/Shape4/shape4-058.ppm
-8.533209983528142507335759094772e-09 5:9469.7598 6:3.4814799 7:109.368 13:7459.4302 14:2817.1399 17:0.42105299 18:20.133301 19:0.208955 20:0.66574198 21:0.25068301 22:0.78771102 23:10.0644 24:4.0212798 # Flowers/Shape5/shape5-016.ppm
8.533209983528142507335759094772e-09 5:3864.46 6:3.1282101 7:118.361 13:4870.8398 14:2592.27 17:0.39285699 18:18.700001 19:0.39285699 20:0.40059301 21:0.52773702 22:1.26042 23:7.7562199 24:3.5163901 # Flowers/Shape4/shape4-017.ppm
-8.533209983528142507335759094772e-09 5:9248.2002 6:3.68571 7:105.617 13:6887.1201 14:3110.47 17:0.42857099 18:15.7647 19:0.186441 20:0.53583401 21:0.26533601 22:0.744699 23:2.8371 24:2.1705401 # Flowers/Shape5/shape5-001.ppm
8.533209983528142507335759094772e-09 5:3653.0701 6:3.1428599 7:117.747 13:4761.1899 14:2518.8601 17:0.40000001 18:23.75 19:0.346154 20:0.41093299 21:0.52293402 22:1.30334 23:10.3283 24:4.4545498 # Flowers/Shape4/shape4-016.ppm
8.533209983528142507335759094772e-09 5:3984.9099 6:3.2820499 7:116.775 13:5950.5698 14:2413.1001 17:0.30000001 18:17.3846 19:0.34482801 20:0.36379999 21:0.48208499 22:1.4932801 23:9.4061604 24:3.9609399 # Flowers/Shape4/shape4-036.ppm
-8.533209983528142507335759094772e-09 5:9195.96 6:3.63077 7:111.655 13:6834.9102 14:3712.6201 17:0.47727299 18:20.7143 19:0.203704 20:0.703978 21:0.243375 22:0.74325103 23:4.5093598 24:2.4788101 # Flowers/Shape5/shape5-014.ppm
8.533209983528142507335759094772e-09 5:4119.3999 6:3.05882 7:116.095 13:5919.6499 14:1845.86 17:0.378378 18:10.25 19:0.45714301 20:0.380366 21:0.45307001 22:1.4370199 23:8.823 24:3.92308 # Flowers/Shape4/shape4-048.ppm
-8.533209983528142507335759094772e-09 5:8453.8398 6:4.1463399 7:103.558 13:4684.9302 14:5281.6299 17:0.32258099 18:17.3333 19:0.17142899 20:0.79954797 21:0.23258799 22:0.554178 23:11.8255 24:5.54706 # Flowers/Shape1/shape1-005.ppm
-8.533209983528142507335759094772e-09 5:10203.8 6:3.2792799 7:121.984 13:7738.9502 14:2170.5801 17:0.405063 18:20.1875 19:0.337349 20:0.96216798 21:0.174556 22:0.758439 23:1.05512 24:0.91483498 # Flowers/Shape3/shape3-007.ppm
8.533209983528142507335759094772e-09 5:3723 6:3.4210501 7:116.38 13:4078.05 14:2142.0801 17:0.46153799 18:30.6 19:0.31034499 20:0.43588299 21:0.46260601 22:1.0953701 23:5.8209801 24:3.50769 # Flowers/Shape4/shape4-080.ppm
-8.533209983528142507335759094772e-09 5:10438.4 6:3.37255 7:114.091 13:7558.6699 14:2615.54 17:0.5 18:24.4167 19:0.378378 20:0.96189898 21:0.181402 22:0.72412401 23:2.4322801 24:1.48256 # Flowers/Shape3/shape3-004.ppm
8.533209983528142507335759094772e-09 5:3822.1101 6:2.9047599 7:126.475 13:5539.3701 14:2240.97 17:0.615385 18:9.7727299 19:0.40000001 20:0.400132 21:0.47652 22:1.4493001 23:11.1044 24:5.5082002 # Flowers/Shape4/shape4-091.ppm
8.533209983528142507335759094772e-09 5:3901.4099 6:3.2272699 7:115.735 13:5072.9902 14:1816.51 17:0.466667 18:15.5385 19:0.33333299 20:0.38892201 21:0.441475 22:1.3003 23:11.9143 24:5.2676101 # Flowers/Shape4/shape4-008.ppm
8.533209983528142507335759094772e-09 5:3608.6399 6:2.92308 7:122.613 13:5932.8398 14:2466.52 17:0.5 18:22.272699 19:0.30000001 20:0.37813699 21:0.52953398 22:1.64406 23:9.8634796 24:3.76316 # Flowers/Shape4/shape4-096.ppm
-2.0970387318749810031981743382867e-09 5:10718.5 6:3.3396201 7:114.795 13:7335.2598 14:2372.6201 17:0.413333 18:43.200001 19:0.29268301 20:0.96703303 21:0.170073 22:0.68435401 23:0.89509201 24:1.19774 # Flowers/Shape3/shape3-013.ppm
8.533209983528142507335759094772e-09 5:3794.26 6:2.9787199 7:122.527 13:5819.2202 14:1978.7 17:0.67857099 18:15.8667 19:0.46875 20:0.383634 21:0.487156 22:1.53369 23:8.93085 24:4.0285702 # Flowers/Shape4/shape4-028.ppm
