SVM-light Version V6.02
0 # kernel type
3 # kernel parameter -d 
1 # kernel parameter -g 
1 # kernel parameter -s 
1 # kernel parameter -r 
empty# kernel parameter -u 
24 # highest feature index 
200 # number of training documents 
83 # number of support vectors plus 1 
3.6220075 # threshold b, each following line is a SV (starting with alpha*y)
-1.780078604853532351420171985758e-12 1:283377 2:377500 3:295284 4:1930.49 5:11084 6:3.0780101 7:119.563 8:1963.5 9:2 10:141 11:84 12:424 13:10352.3 14:2009.76 15:160.328 16:173.679 17:0.43877599 18:34.333302 19:0.58427 20:0.95967299 21:0.174169 22:0.93398201 23:0.976978 24:0.64977002 # Flowers/Shape3/shape3-019.ppm
8.0514353593529736086154002805415e-13 1:314886 2:716300 3:512145 4:2720.9099 5:13295.2 6:3.4862399 7:106.827 8:2463.01 9:3 10:109 11:28 12:401 13:9329.3701 14:2888.8701 15:152.868 16:161.429 17:0.36250001 18:22.5882 19:0.19780201 20:0.614838 21:0.20465299 22:0.70170802 23:0.85258698 24:0.86052603 # Flowers/Shape2/shape2-000.ppm
-1.780078604853532351420171985758e-12 1:456668 2:894688 3:682528 4:3262.3899 5:19787 6:4.0229902 7:113.236 8:174974 9:32 10:87 11:6 12:245 13:7564.2202 14:5249.0498 15:169.14301 16:107.833 17:0.225352 18:80.666702 19:0.12987 20:0.66908199 21:0.164876 22:0.382283 23:33.3344 24:7.9542899 # Flowers/Shape4/shape4-012.ppm
1.780078604853532351420171985758e-12 1:233749 2:459540 3:325893 4:2153.29 5:9303.71 6:3.28736 7:113.452 8:10207 9:7 10:87 11:29 12:310 13:7388.6201 14:2686.77 15:150.306 16:164.207 17:0.42623001 18:14.5 19:0.208333 20:0.71725601 21:0.231444 22:0.794159 23:3.799 24:2.12937 # Flowers/Shape2/shape2-087.ppm
-1.780078604853532351420171985758e-12 1:213768 2:627072 3:422076 4:2471.3401 5:9398.3604 6:3.7026999 7:109.15 8:6647.6099 9:6 10:74 11:14 12:314 13:7349.3301 14:2888.76 15:154.541 16:145.214 17:0.57446802 18:18.625 19:0.27586201 20:0.50646901 21:0.262954 22:0.78197998 23:2.3011999 24:1.62044 # Flowers/Shape5/shape5-015.ppm
1.780078604853532351420171985758e-12 1:396157 2:643552 3:505748 4:2621.7 5:15904.1 6:3.3896101 7:109.068 8:1809.5601 9:5 10:154 11:31 12:610 13:12620.7 14:2572.45 15:138.952 16:162.903 17:0.43925199 18:10.2963 19:0.40000001 20:0.78330898 21:0.16484401 22:0.79355198 23:0.70343798 24:1.4751 # Flowers/Shape2/shape2-049.ppm
-1.780078604853532351420171985758e-12 1:465851 2:730635 3:545202 4:2840.0601 5:21037 6:4.1782198 7:114.776 8:33979.5 9:16 10:101 11:58 12:298 13:7482.0698 14:4612.3901 15:156.077 16:171.172 17:0.246914 18:28.799999 19:0.134831 20:0.85445601 21:0.135003 22:0.35566199 23:7.3670001 24:3.82938 # Flowers/Shape1/shape1-011.ppm
1.780078604853532351420171985758e-12 1:223592 2:470470 3:321530 4:2140.8601 5:8798.5703 6:3.3176501 7:108.274 8:12076.3 9:9 10:85 11:27 12:311 13:7488.6899 14:2630.49 15:151.27 16:165.185 17:0.41666701 18:21.2143 19:0.268657 20:0.69539899 21:0.243319 22:0.85112602 23:4.5908799 24:2.71277 # Flowers/Shape2/shape2-006.ppm
-1.780078604853532351420171985758e-12 1:207984 2:506160 3:350153 4:2245.26 5:9365.6602 6:3.7910399 7:108.348 8:23778.699 9:12 10:67 11:21 12:241 13:5833.8501 14:3104.25 15:156.444 16:156.619 17:0.48888901 18:47.200001 19:0.196429 20:0.59398198 21:0.239733 22:0.62289798 23:7.6600599 24:3.16535 # Flowers/Shape5/shape5-024.ppm
1.780078604853532351420171985758e-12 1:300710 2:679027 3:540598 4:2798.76 5:12415.1 6:3.44348 7:104.498 8:16741.5 9:8 10:115 11:23 12:449 13:10712 14:2614.8701 15:152.274 16:158.91299 17:0.47435901 18:16.959999 19:0.26373601 20:0.55625403 21:0.22543199 22:0.86282301 23:6.4024301 24:2.32323 # Flowers/Shape2/shape2-058.ppm
-1.780078604853532351420171985758e-12 1:451654 2:739784 3:552714 4:3023.74 5:20618 6:4.1414099 7:109.804 8:32685.1 9:12 10:99 11:74 12:340 13:7893.52 14:4562.1602 15:156.44701 16:174.108 17:0.2375 18:21.6667 19:0.151163 20:0.81715697 21:0.14665499 22:0.382846 23:7.1643901 24:2.8975599 # Flowers/Shape1/shape1-014.ppm
1.780078604853532351420171985758e-12 1:237455 2:460161 3:324859 4:2150.46 5:10086.2 6:3.3260901 7:109.407 8:13684.8 9:6 10:92 11:31 12:309 13:7392.71 14:2581.03 15:150.84801 16:164.452 17:0.41538501 18:13.7143 19:0.210526 20:0.73094797 21:0.213208 22:0.73295099 23:5.3020601 24:1.80392 # Flowers/Shape2/shape2-067.ppm
-1.780078604853532351420171985758e-12 1:360381 2:698301 3:547806 4:2768.3301 5:15135.2 6:3.88889 7:104.912 8:45996.102 9:17 10:90 11:26 12:324 13:7877.6299 14:4004.23 15:155.485 16:165.769 17:0.45161301 18:23.9231 19:0.16883101 20:0.65786201 21:0.182907 22:0.52048498 23:11.4869 24:4.3714299 # Flowers/Shape5/shape5-018.ppm
1.780078604853532351420171985758e-12 1:229325 2:475798 3:322342 4:2142.3401 5:9444.4004 6:3.1860499 7:109.053 8:9852.0303 9:7 10:86 11:31 12:314 13:7480.1099 14:2666.5701 15:153.054 16:164.51601 17:0.283582 18:16.444401 19:0.21126799 20:0.71143502 21:0.22683699 22:0.79201502 23:3.6946399 24:2.1970799 # Flowers/Shape2/shape2-047.ppm
-1.780078604853532351420171985758e-12 1:176607 2:738170 3:514165 4:2815.26 5:7474.9702 6:3.4461501 7:112.296 8:38013.301 9:17 10:65 11:16 12:292 13:7331.8101 14:2717.03 15:157.123 16:157.688 17:0.41304299 18:31.444401 19:0.27451 20:0.343483 21:0.37662399 22:0.98084903 23:13.9907 24:4.9330401 # Flowers/Shape5/shape5-017.ppm
1.780078604853532351420171985758e-12 1:235797 2:475920 3:324701 4:2148.1399 5:9193.5 6:3.23913 7:106.646 8:14102.6 9:8 10:92 11:30 12:317 13:7518.8701 14:2563.01 15:150.63699 16:165.067 17:0.24324299 18:15.6842 19:0.24324299 20:0.72619599 21:0.233658 22:0.81784701 23:5.5023699 24:2.4698 # Flowers/Shape2/shape2-027.ppm
-1.780078604853532351420171985758e-12 1:178280 2:539570 3:367998 4:2351.29 5:6938.8599 6:3.2692299 7:117.356 8:56410.398 9:18 10:52 11:7 12:285 13:6067.3799 14:3428.46 15:147.502 16:118.857 17:0.33333299 18:13.25 19:0.238095 20:0.48445901 21:0.33885801 22:0.87440699 23:16.4536 24:5.5058799 # Flowers/Shape4/shape4-009.ppm
1.780078604853532351420171985758e-12 1:337724 2:670390 3:522166 4:2659.1499 5:14388.3 6:3.3798399 7:108.14 8:5281.02 9:4 10:129 11:23 12:471 13:10995.5 14:2618.01 15:150.47099 16:160.478 17:0.35789499 18:12.4571 19:0.26470599 20:0.64677399 21:0.18481401 22:0.76419902 23:2.01718 24:1.18349 # Flowers/Shape2/shape2-037.ppm
-1.780078604853532351420171985758e-12 1:312839 2:706875 3:486833 4:2606.47 5:13135.4 6:3.7471299 7:108.95 8:31415.9 9:13 10:87 11:31 12:344 13:8300.5801 14:3595.8501 15:150.50301 16:163.258 17:0.42623001 18:19.2353 19:0.191781 20:0.6426 21:0.198431 22:0.63192302 23:8.7367296 24:3.4693301 # Flowers/Shape5/shape5-013.ppm
1.780078604853532351420171985758e-12 1:304009 2:504654 3:399098 4:2327.8301 5:10913.3 6:3.2765999 7:108.682 8:3848.45 9:2 10:94 11:33 12:371 13:8852.1396 14:3234.1299 15:154.27499 16:164.758 17:0.46875 18:18.5263 19:0.27026999 20:0.76173902 21:0.213302 22:0.81113201 23:1.18995 24:0.61039001 # Flowers/Shape2/shape2-005.ppm
-1.780078604853532351420171985758e-12 1:452510 2:646410 3:478850 4:2536.02 5:19426.5 6:3.9344299 7:117.76 8:53092.898 9:17 10:122 11:69 12:291 13:8215.3096 14:3709.1001 15:167.23399 16:174.145 17:0.48780501 18:35.375 19:0.184466 20:0.94499302 21:0.13054401 22:0.422892 23:14.3142 24:4.3208299 # Flowers/Shape3/shape3-015.ppm
1.780078604853532351420171985758e-12 1:310698 2:505421 3:399137 4:2327.3999 5:12998.8 6:3.5478301 7:108.416 8:3848.45 9:1 10:115 11:30 12:371 13:8852.4404 14:2701.72 15:155.925 16:163.5 17:0.575342 18:25.5 19:0.277778 20:0.77842402 21:0.179047 22:0.68101698 23:1.42445 24:0.281863 # Flowers/Shape2/shape2-026.ppm
-1.780078604853532351420171985758e-12 1:192567 2:728994 3:540136 4:2907.28 5:7409.3701 6:3.25424 7:113.714 8:53092.898 9:18 10:59 11:6 12:353 13:7736.3599 14:3263.8601 15:148.099 16:108 17:0.311111 18:11.1724 19:0.28260899 20:0.356516 21:0.392378 22:1.04413 23:16.266899 24:5.53125 # Flowers/Shape4/shape4-013.ppm
1.780078604853532351420171985758e-12 1:309296 2:506160 3:399472 4:2326.6899 5:12756.9 6:3.4054101 7:109.056 8:4071.5 9:1 10:111 11:30 12:364 13:8812.4297 14:2786.45 15:157.28 16:165.033 17:0.405063 18:35.400002 19:0.23333301 20:0.77426201 21:0.18238699 22:0.690799 23:1.46118 24:0.29365101 # Flowers/Shape2/shape2-046.ppm
-1.780078604853532351420171985758e-12 1:455640 2:581994 3:464864 4:2477.76 5:17878.801 6:3.3173699 7:119.062 8:530.92902 9:1 10:167 11:94 12:458 13:11410.5 14:2728.3899 15:159.88 16:174.77699 17:0.43965501 18:29.5333 19:0.274809 20:0.98016 21:0.138586 22:0.63821399 23:0.19459499 24:0.30144399 # Flowers/Shape3/shape3-017.ppm
1.780078604853532351420171985758e-12 1:285665 2:529230 3:437022 4:2454.52 5:12144.2 6:3.5 7:107.371 8:34636.102 9:13 10:96 11:25 12:382 13:8794.0596 14:2975.6799 15:151.05499 16:164.8 17:0.297297 18:16.3636 19:0.21518999 20:0.65366298 21:0.202114 22:0.72413403 23:11.6397 24:3.7142899 # Flowers/Shape2/shape2-024.ppm
-1.780078604853532351420171985758e-12 1:267940 2:684947 3:459176 4:2584.51 5:11169 6:3.575 7:104.184 8:15836.8 9:10 10:80 11:25 12:344 13:8587.3799 14:3349.24 15:153.927 16:163.56 17:0.355932 18:17.105301 19:0.23076899 20:0.58352298 21:0.2314 22:0.76885903 23:4.7284598 24:2.7972 # Flowers/Shape5/shape5-004.ppm
1.780078604853532351420171985758e-12 1:286772 2:529306 3:437619 4:2455.29 5:11490.3 6:3.48454 7:106 8:28352.9 9:13 10:97 11:24 12:385 13:8829.7305 14:2956.4099 15:150.605 16:162.33299 17:0.469697 18:12.75 19:0.29333299 20:0.65530002 21:0.21368399 22:0.76845098 23:9.5903101 24:3.7307701 # Flowers/Shape2/shape2-003.ppm
-1.780078604853532351420171985758e-12 1:370827 2:525280 3:414188 4:2349.3601 5:16309.1 6:3.7164199 7:107.091 8:5808.7998 9:6 10:134 11:36 12:436 13:9115.21 14:2767.3601 15:141.823 16:165.33299 17:0.48888901 18:16.440001 19:0.27619001 20:0.895311 21:0.144052 22:0.55890203 23:2.09904 24:1.61446 # Flowers/Shape3/shape3-011.ppm
1.780078604853532351420171985758e-12 1:282842 2:530688 3:438982 4:2456.1499 5:12784.2 6:3.5999999 7:104.292 8:8824.7305 9:7 10:100 11:25 12:384 13:8786.1797 14:2828.4199 15:151.026 16:163.64 17:0.369863 18:19.210501 19:0.219512 20:0.64431202 21:0.19212399 22:0.68726999 23:3.1200199 24:1.94444 # Flowers/Shape2/shape2-044.ppm
-1.780078604853532351420171985758e-12 1:217733 2:522759 3:406344 4:2453.8799 5:9248.2002 6:3.68571 7:105.617 8:8824.7305 9:8 10:70 11:29 12:285 13:6887.1201 14:3110.47 15:153.38901 16:166.207 17:0.42857099 18:15.7647 19:0.186441 20:0.53583401 21:0.26533601 22:0.744699 23:2.8371 24:2.1705401 # Flowers/Shape5/shape5-001.ppm
1.780078604853532351420171985758e-12 1:302617 2:571769 3:431257 4:2472.8301 5:14127 6:3.6134501 7:104.643 8:4778.3599 9:4 10:119 11:29 12:403 13:9228.1797 14:2543 15:150.481 16:164.414 17:0.48750001 18:15.7917 19:0.265957 20:0.70170999 21:0.175043 22:0.65323001 23:1.87902 24:1.10698 # Flowers/Shape2/shape2-004.ppm
-1.780078604853532351420171985758e-12 1:459975 2:590720 3:466051 4:2488 5:19759.5 6:3.9316199 7:117.245 8:71631.5 9:21 10:117 11:95 12:312 13:7719.9502 14:3931.4099 15:160.532 16:174.43201 17:0.46250001 18:21.2857 19:0.17 20:0.98696202 21:0.12591401 22:0.39069501 23:18.220301 24:5.3413 # Flowers/Shape3/shape3-014.ppm
1.780078604853532351420171985758e-12 1:302478 2:563901 3:396646 4:2319.4199 5:11809.1 6:3.2745099 7:108.069 8:4071.5 9:1 10:102 11:34 12:370 13:8842.0098 14:2965.47 15:155.808 16:167.647 17:0.30769199 18:27.4615 19:0.2 20:0.76258999 21:0.196409 22:0.74874401 23:1.37297 24:0.30538899 # Flowers/Shape2/shape2-086.ppm
-8.0526368627499706215137550132722e-13 1:101098 2:489132 3:252372 4:2039.42 5:3864.46 6:3.1282101 7:118.361 8:20106.199 9:11 10:39 11:4 12:197 13:4870.8398 14:2592.27 15:156.386 16:90 17:0.39285699 18:18.700001 19:0.39285699 20:0.40059301 21:0.52773702 22:1.26042 23:7.7562199 24:3.5163901 # Flowers/Shape4/shape4-017.ppm
1.780078604853532351420171985758e-12 1:403108 2:645894 3:505381 4:2621.53 5:17311.801 6:3.3636401 7:108.971 8:1963.5 9:3 10:176 11:23 12:571 13:12483.7 14:2290.3799 15:140.522 16:160.91299 17:0.41935501 18:10.42 19:0.33333299 20:0.79763103 21:0.15143 22:0.72110701 23:0.85727698 24:0.89189202 # Flowers/Shape2/shape2-029.ppm
-1.780078604853532351420171985758e-12 1:198245 2:693517 3:507314 4:2783.3101 5:8413.9297 6:3.3698599 7:119.659 8:59828.5 9:17 10:73 11:6 12:343 13:7385.0298 14:2715.6799 15:155.73199 16:103.5 17:0.403846 18:27.5833 19:0.216667 20:0.39077401 21:0.330798 22:0.87771398 23:22.030701 24:5.0447202 # Flowers/Shape4/shape4-014.ppm
1.780078604853532351420171985758e-12 1:305695 2:568347 3:397492 4:2325.74 5:11814 6:3.35922 7:102.967 8:3848.45 9:3 10:103 11:38 12:372 13:8840.6104 14:2967.9099 15:155.382 16:167.289 17:0.39189199 18:27.6154 19:0.28749999 20:0.769059 21:0.196863 22:0.74831599 23:1.29669 24:0.89306402 # Flowers/Shape2/shape2-066.ppm
-1.780078604853532351420171985758e-12 1:361641 2:458664 3:369082 4:2163.9299 5:16223.9 6:3.8407099 7:118.629 8:36643.5 9:19 10:113 11:79 12:308 13:7513.5298 14:3200.3601 15:157.435 16:174.633 17:0.50666702 18:21 19:0.22826099 20:0.97983801 21:0.133379 22:0.46311399 23:11.4498 24:4.947 # Flowers/Shape3/shape3-012.ppm
1.780078604853532351420171985758e-12 1:293733 2:588142 3:417684 4:2397.99 5:13401.6 6:3.5873001 7:103.27 8:5281.02 9:7 10:126 11:28 12:413 13:9399.7695 14:2331.21 15:150.89101 16:162.64301 17:0.46511599 18:15.52 19:0.27272701 20:0.703242 21:0.17893299 22:0.70139098 23:2.2653501 24:1.9513299 # Flowers/Shape2/shape2-043.ppm
-1.780078604853532351420171985758e-12 1:274312 2:563220 3:439215 4:2488.71 5:11296.1 6:3.63415 7:106.56 8:27759.1 9:15 10:82 11:23 12:338 13:8116.0298 14:3345.26 15:145.63 16:160.13 17:0.366667 18:13.6957 19:0.18840601 20:0.62454998 21:0.22031599 22:0.71848297 23:8.2980404 24:4.1275201 # Flowers/Shape5/shape5-009.ppm
1.780078604853532351420171985758e-12 1:308141 2:569592 3:429909 4:2469.3501 5:13738.8 6:3.5344801 7:103.837 8:4536.46 9:6 10:116 11:28 12:298 13:9038.9502 14:2656.3899 15:163.64799 16:163 17:0.46835399 18:32.111099 19:0.27472499 20:0.71675903 21:0.179735 22:0.65791202 23:1.70775 24:1.69756 # Flowers/Shape2/shape2-025.ppm
-1.780078604853532351420171985758e-12 1:262149 2:551688 3:482727 4:2581.04 5:10564.1 6:3.3494 7:106.944 8:29559.199 9:12 10:83 11:25 12:359 13:8843.3496 14:3158.4299 15:155 16:164.92 17:0.296875 18:28.9167 19:0.18571401 20:0.54305899 21:0.244323 22:0.83711702 23:9.3588495 24:3.5827301 # Flowers/Shape5/shape5-010.ppm
1.780078604853532351420171985758e-12 1:296556 2:592137 3:419961 4:2401.6001 5:12134.2 6:3.3675201 7:104.238 8:5541.77 9:5 10:117 11:33 12:401 13:9396.7305 14:2534.6699 15:151.257 16:164.18201 17:0.5 18:15.04 19:0.32954499 20:0.70615202 21:0.19791999 22:0.7744 23:2.1863899 24:1.4847701 # Flowers/Shape2/shape2-002.ppm
-1.780078604853532351420171985758e-12 1:253081 2:533065 3:395560 4:2365.5601 5:10805.1 6:3.5 7:104.886 8:23235.199 9:13 10:84 11:23 12:242 13:7333.6299 14:3012.8701 15:158.08701 16:160.13 17:0.44827601 18:29.25 19:0.2 20:0.63980502 21:0.218931 22:0.67872202 23:7.7119799 24:3.7142899 # Flowers/Shape5/shape5-007.ppm
1.780078604853532351420171985758e-12 1:308066 2:571350 3:429340 4:2467.3899 5:14388.9 6:3.5905499 7:102.195 8:4536.46 9:7 10:127 11:31 12:404 13:9220.46 14:2425.72 15:151.28999 16:162.742 17:0.42696601 18:16.565201 19:0.30927801 20:0.71753299 21:0.171479 22:0.64080501 23:1.87015 24:1.94956 # Flowers/Shape2/shape2-045.ppm
-1.780078604853532351420171985758e-12 1:264712 2:535896 3:408356 4:2404.3601 5:10742.4 6:3.9166701 7:106.329 8:48305.102 9:15 10:72 11:30 12:257 13:6699.98 14:3676.55 15:150.38499 16:165.533 17:0.53191501 18:31.125 19:0.2 20:0.648238 21:0.223819 22:0.62369502 23:13.1387 24:3.8297901 # Flowers/Shape1/shape1-008.ppm
1.780078604853532351420171985758e-12 1:299123 2:629408 3:429118 4:2465.8201 5:12923.5 6:3.4955001 7:104.906 8:4071.5 9:4 10:111 11:27 12:387 13:9229.7002 14:2694.8101 15:153.491 16:166.07401 17:0.47999999 18:18.35 19:0.29069799 20:0.697065 21:0.19080099 22:0.71417803 23:1.51087 24:1.14433 # Flowers/Shape2/shape2-085.ppm
-1.780078604853532351420171985758e-12 1:240959 2:527175 3:389360 4:2302.3401 5:10994.6 6:3.68293 7:105.914 8:16741.5 9:12 10:82 11:22 12:337 13:7958.6499 14:2938.53 15:153.72099 16:157.409 17:0.38983101 18:29.6364 19:0.17142899 20:0.61886102 21:0.209406 22:0.72386801 23:5.6972499 24:3.25828 # Flowers/Shape5/shape5-008.ppm
1.780078604853532351420171985758e-12 1:299833 2:633490 3:430296 4:2468.4399 5:12405.7 6:3.51402 7:100.532 8:4778.3599 9:5 10:107 11:31 12:393 13:9203.8799 14:2802.1799 15:152.86501 16:164.355 17:0.407895 18:14.72 19:0.320988 20:0.69680703 21:0.19897699 22:0.74190998 23:1.70523 24:1.42287 # Flowers/Shape2/shape2-065.ppm
-1.780078604853532351420171985758e-12 1:284435 2:493751 3:343364 4:2260.77 5:10095.7 6:3.73913 7:104.492 8:17671.5 9:8 10:69 11:50 12:271 13:6454.3398 14:4122.25 15:152.284 16:172.7 17:0.68292701 18:15.9375 19:0.210526 20:0.82837999 21:0.22393499 22:0.63931799 23:4.28685 24:2.1395299 # Flowers/Shape1/shape1-013.ppm
1.780078604853532351420171985758e-12 1:292064 2:636042 3:455646 4:2515.1201 5:12262.8 6:3.3761499 7:110.375 8:5541.77 9:5 10:109 11:24 12:415 13:9708.3398 14:2679.48 15:148.63901 16:162.83299 17:0.415584 18:14.9615 19:0.26744199 20:0.64098901 21:0.205102 22:0.79169202 23:2.0682199 24:1.48098 # Flowers/Shape2/shape2-083.ppm
-1.780078604853532351420171985758e-12 1:237463 2:539968 3:350296 4:2317.3899 5:10303.7 6:3.8209 7:112.175 8:23235.199 9:11 10:67 11:42 12:292 13:6352.27 14:3544.22 15:144.46899 16:167.76199 17:0.48888901 18:10.68 19:0.196429 20:0.67789102 21:0.22490799 22:0.61650199 23:6.5558 24:2.8789101 # Flowers/Shape5/shape5-012.ppm
1.780078604853532351420171985758e-12 1:299483 2:634366 3:454236 4:2513.5901 5:12626.6 6:3.4107101 7:109.863 8:5281.02 9:6 10:112 11:22 12:400 13:9639.1396 14:2673.96 15:150.993 16:157.045 17:0.365854 18:16.3913 19:0.28735599 20:0.65931302 21:0.199072 22:0.76340199 23:1.97498 24:1.75916 # Flowers/Shape2/shape2-063.ppm
-1.780078604853532351420171985758e-12 1:218396 2:520492 3:404720 4:2450.51 5:8850.1504 6:3.5692301 7:105.305 8:17203.4 9:7 10:65 11:26 12:287 13:6925.7598 14:3359.9299 15:149.34801 16:165.769 17:0.41304299 18:14.1053 19:0.18181799 20:0.539621 21:0.276889 22:0.78255898 23:5.1201501 24:1.96121 # Flowers/Shape5/shape5-022.ppm
1.780078604853532351420171985758e-12 1:290662 2:663784 3:435970 4:2453.49 5:12720.9 6:3.51402 7:106.067 8:3421.1899 9:3 10:107 11:23 12:386 13:8779.0195 14:2716.47 15:147.82899 16:162.043 17:0.48611099 18:16.5455 19:0.244186 20:0.66670102 21:0.192871 22:0.690126 23:1.2594301 24:0.85372299 # Flowers/Shape2/shape2-064.ppm
-1.780078604853532351420171985758e-12 1:213389 2:527571 3:362670 4:2274.1499 5:8964.5996 6:3.4473701 7:103.882 8:13684.8 9:9 10:76 11:18 12:244 13:7393.0498 14:2807.75 15:162.217 16:153.61099 17:0.46153799 18:26.111099 19:0.26666701 20:0.58838397 21:0.253681 22:0.82469398 23:4.87393 24:2.6106901 # Flowers/Shape5/shape5-023.ppm
1.780078604853532351420171985758e-12 1:293370 2:667754 3:440512 4:2462.3401 5:12686.5 6:3.41593 7:105.143 8:3848.45 9:3 10:113 11:22 12:378 13:8853.6299 14:2596.1899 15:150.336 16:157.409 17:0.37804899 18:17 19:0.22826099 20:0.66597599 21:0.19409101 22:0.69787598 23:1.48234 24:0.87823802 # Flowers/Shape2/shape2-084.ppm
-1.780078604853532351420171985758e-12 1:289819 2:488684 3:348356 4:2274.99 5:12900.8 6:4.05479 7:110.466 8:58106.898 9:18 10:73 11:49 12:244 13:6011.6499 14:3970.1201 15:156.791 16:172.367 17:0.25862101 18:16.4286 19:0.17741901 20:0.83196098 21:0.17634501 22:0.46599001 23:14.6361 24:4.4391899 # Flowers/Shape1/shape1-012.ppm
1.780078604853532351420171985758e-12 1:295521 2:664216 3:454700 4:2515.8401 5:12599.2 6:3.30357 7:109.725 8:5541.77 9:4 10:112 11:27 12:407 13:9695.6504 14:2638.5801 15:149.22099 16:166 17:0.41772199 18:13.0345 19:0.244444 20:0.64992499 21:0.199683 22:0.76954597 23:2.1002901 24:1.2108099 # Flowers/Shape2/shape2-023.ppm
-1.780078604853532351420171985758e-12 1:228188 2:518752 3:342758 4:2373.9099 5:9469.7598 6:3.4814799 7:109.368 8:28352.9 9:14 10:81 11:30 12:317 13:7459.4302 14:2817.1399 15:155.38499 16:165.60001 17:0.42105299 18:20.133301 19:0.208955 20:0.66574198 21:0.25068301 22:0.78771102 23:10.0644 24:4.0212798 # Flowers/Shape5/shape5-016.ppm
1.780078604853532351420171985758e-12 1:368366 2:625895 3:503774 4:2591.5901 5:15965.5 6:3.31126 7:109.659 8:706.85797 9:3 10:151 11:33 12:535 13:12375.6 14:2439.51 15:152.42101 16:164.515 17:0.438095 18:19.5769 19:0.26890799 20:0.73121202 21:0.162324 22:0.77514702 23:0.289754 24:0.90600002 # Flowers/Shape2/shape2-050.ppm
-1.780078604853532351420171985758e-12 1:241320 2:480000 3:342795 4:2238.0601 5:9195.96 6:3.63077 7:111.655 8:16741.5 9:9 10:65 11:46 12:304 13:6834.9102 14:3712.6201 15:146.56599 16:169.478 17:0.47727299 18:20.7143 19:0.203704 20:0.703978 21:0.243375 22:0.74325103 23:4.5093598 24:2.4788101 # Flowers/Shape5/shape5-014.ppm
1.780078604853532351420171985758e-12 1:294925 2:677910 3:536452 4:2793.73 5:12645 6:3.44068 7:102.789 8:9503.3203 9:5 10:118 11:25 12:445 13:10765.1 14:2499.3601 15:153.62 16:163.84 17:0.47499999 18:14.8929 19:0.29670301 20:0.54977 21:0.220935 22:0.85132802 23:3.80229 24:1.4532 # Flowers/Shape2/shape2-038.ppm
-1.780078604853532351420171985758e-12 1:178752 2:526768 3:362564 4:2271.8899 5:7383.3501 6:3.64516 7:103.463 8:11309.7 9:6 10:62 11:19 12:347 13:7628.9502 14:2883.1001 15:143.896 16:155.211 17:0.51219499 18:12.88 19:0.21568599 20:0.49302399 21:0.307704 22:1.03326 23:3.92276 24:1.6460201 # Flowers/Shape5/shape5-002.ppm
1.780078604853532351420171985758e-12 1:366503 2:627553 3:503498 4:2591.8301 5:15161.5 6:3.32867 7:108.474 8:907.91998 9:2 10:143 11:33 12:523 13:12412.3 14:2562.96 15:153.937 16:164.03 17:0.401961 18:19.92 19:0.34905699 20:0.72791201 21:0.170948 22:0.81866699 23:0.354247 24:0.60083997 # Flowers/Shape2/shape2-030.ppm
-1.780078604853532351420171985758e-12 1:208376 2:508269 3:351212 4:2247.3899 5:8059.7002 6:3.67273 7:102.224 8:33329.199 9:12 10:55 11:23 12:241 13:5874.98 14:3788.6499 15:154.892 16:161.34801 17:0.447368 18:25.7778 19:0.19565199 20:0.59330398 21:0.27884299 22:0.72893298 23:8.7971096 24:3.2673299 # Flowers/Shape5/shape5-003.ppm
1.780078604853532351420171985758e-12 1:303628 2:676378 3:538250 4:2796.4099 5:13701.7 6:3.4761901 7:102.949 8:9852.0303 9:8 10:126 11:22 12:458 13:10798.9 14:2409.75 15:152.063 16:160.27299 17:0.44827601 18:16.6154 19:0.25999999 20:0.56410301 21:0.204092 22:0.78814101 23:4.0884099 24:2.3013699 # Flowers/Shape2/shape2-017.ppm
-1.780078604853532351420171985758e-12 1:309152 2:396896 3:318670 4:2008.13 5:13047.9 6:3.3475201 7:119.861 8:3631.6799 9:4 10:141 11:79 12:394 13:9593.2695 14:2192.5701 15:156.784 16:174.54401 17:0.5 18:27.1429 19:0.39603999 20:0.97013301 21:0.153905 22:0.735237 23:1.65636 24:1.1949199 # Flowers/Shape3/shape3-003.ppm
1.780078604853532351420171985758e-12 1:372766 2:627328 3:506705 4:2598.49 5:15258.4 6:3.2349 7:107.231 8:804.24799 9:3 10:149 11:35 12:528 13:12451.2 14:2501.79 15:152.08701 16:166.314 17:0.41904801 18:15 19:0.366972 20:0.73566699 21:0.17029899 22:0.816019 23:0.32146901 24:0.92738599 # Flowers/Shape2/shape2-009.ppm
-1.780078604853532351420171985758e-12 1:306997 2:396896 3:318241 4:2007.2 5:12861.9 6:3.3880601 7:119.525 8:4071.5 9:6 10:134 11:83 12:392 13:9588.5303 14:2291.02 15:157.258 16:175.349 17:0.44086 18:19.631599 19:0.42553201 20:0.96466798 21:0.156058 22:0.74550003 23:1.77716 24:1.7709301 # Flowers/Shape3/shape3-024.ppm
1.780078604853532351420171985758e-12 1:338334 2:668610 3:520495 4:2654.9199 5:14515.2 6:3.38462 7:104.389 8:8171.2798 9:6 10:130 11:26 12:476 13:11000.7 14:2602.5701 15:150.67 16:164.5 17:0.32653099 18:14.8667 19:0.22641499 20:0.650024 21:0.182907 22:0.75787598 23:3.1396999 24:1.77273 # Flowers/Shape2/shape2-057.ppm
-1.780078604853532351420171985758e-12 1:196182 2:497718 3:348992 4:2195.0801 5:8346.8604 6:3.6896601 7:108.474 8:43005.301 9:15 10:58 11:22 12:260 13:6303.9702 14:3382.4399 15:149.46201 16:157.27299 17:0.34883699 18:16.3333 19:0.208333 20:0.56213897 21:0.26298299 22:0.75525099 23:12.7143 24:4.0654202 # Flowers/Shape5/shape5-005.ppm
1.780078604853532351420171985758e-12 1:339982 2:668035 3:520352 4:2655.77 5:15803.3 6:3.5539601 7:106.459 8:6082.1201 9:5 10:139 11:25 12:461 13:10955.8 14:2445.9199 15:152.289 16:164.92 17:0.37623799 18:15.4643 19:0.31132099 20:0.65337002 21:0.168052 22:0.69326001 23:2.48664 24:1.40688 # Flowers/Shape2/shape2-016.ppm
-1.780078604853532351420171985758e-12 1:267170 2:370040 3:293970 4:1972.73 5:10925.7 6:3.2181799 7:115.665 8:706.85797 9:2 10:110 11:62 12:383 13:8374.8301 14:2428.8201 15:139.23801 16:171.839 17:0.32530099 18:9.9428596 19:0.25 20:0.90883303 21:0.18055899 22:0.76652902 23:0.29102999 24:0.62146902 # Flowers/Shape3/shape3-018.ppm
1.780078604853532351420171985758e-12 1:310401 2:718475 3:511627 4:2723.25 5:12523.8 6:3.3599999 7:110.958 8:4300.8398 9:4 10:100 11:27 12:392 13:9404.6396 14:3104.01 15:153.194 16:165.14799 17:0.35135099 18:25.133301 19:0.17647099 20:0.606695 21:0.217445 22:0.75093901 23:1.38557 24:1.19048 # Flowers/Shape2/shape2-019.ppm
-1.780078604853532351420171985758e-12 1:238912 2:440914 3:288834 4:2027.28 5:8642.5898 6:3.63077 7:108.994 8:53912.898 9:6 10:65 11:47 12:246 13:6227.6899 14:3675.5701 15:155.51199 16:171.702 17:0.444444 18:17.9231 19:0.160714 20:0.82716101 21:0.234568 22:0.720581 23:14.6679 24:1.65254 # Flowers/Shape1/shape1-015.ppm
1.780078604853532351420171985758e-12 1:395239 2:644122 3:504627 4:2620.26 5:15641.5 6:3.37255 7:111.766 8:2123.72 9:4 10:153 11:28 12:569 13:12523.8 14:2583.26 15:137.13699 16:161.25 17:0.48543701 18:8.1774197 19:0.342105 20:0.78322899 21:0.16752 22:0.800677 23:0.82210702 24:1.1860501 # Flowers/Shape2/shape2-008.ppm
-1.780078604853532351420171985758e-12 1:275417 2:363975 3:284092 4:1898.45 5:11335.1 6:3.45455 7:117.737 8:2463.01 9:4 10:99 11:74 12:310 13:7268.3501 14:2781.99 15:150.09 16:174.189 17:0.47761199 18:17.2353 19:0.2375 20:0.96946597 21:0.167484 22:0.64122403 23:0.88534099 24:1.15789 # Flowers/Shape3/shape3-016.ppm
1.780078604853532351420171985758e-12 1:310401 2:718475 3:511627 4:2723.25 5:12523.8 6:3.3599999 7:110.958 8:4300.8398 9:4 10:100 11:27 12:392 13:9404.6396 14:3104.01 15:153.194 16:165.14799 17:0.35135099 18:25.133301 19:0.17647099 20:0.606695 21:0.217445 22:0.75093901 23:1.38557 24:1.19048 # Flowers/Shape2/shape2-021.ppm
-1.780078604853532351420171985758e-12 1:259705 2:369135 3:288880 4:1991.73 5:10122.2 6:3.1858399 7:119.623 8:5281.02 9:4 10:113 11:57 12:350 13:8893.1299 14:2298.27 15:159.82001 16:172.614 17:0.43037999 18:25.9231 19:0.43037999 20:0.89900798 21:0.19677 22:0.87858099 23:2.2978201 24:1.25556 # Flowers/Shape3/shape3-005.ppm
1.780078604853532351420171985758e-12 1:311402 2:717025 3:511506 4:2721.8301 5:12690.3 6:3.5700901 7:104.04 8:1385.4399 9:3 10:107 11:26 12:398 13:9429.7803 14:2910.3 15:151.897 16:165 17:0.426667 18:22.4118 19:0.229885 20:0.60879397 21:0.214481 22:0.74306899 23:0.47604799 24:0.84031397 # Flowers/Shape2/shape2-100.ppm
