SVM-light Version V6.02
0 # kernel type
3 # kernel parameter -d 
1 # kernel parameter -g 
1 # kernel parameter -s 
1 # kernel parameter -r 
empty# kernel parameter -u 
24 # highest feature index 
192 # number of training documents 
152 # number of support vectors plus 1 
-0.7286569 # threshold b, each following line is a SV (starting with alpha*y)
-6.7095268545400683900234517032055e-09 5:14127 6:3.6134501 7:104.643 13:9228.1797 14:2543 17:0.48750001 18:15.7917 19:0.265957 20:0.70170999 21:0.175043 22:0.65323001 23:1.87902 24:1.10698 # Flowers/Shape2/shape2-004.ppm
6.7095268545400683900234517032055e-09 5:6066.2998 6:3.6666701 7:107.402 13:3801.27 14:3469.5 17:0.40000001 18:31.200001 19:0.235294 20:0.84977502 21:0.25397199 22:0.62661999 23:15.5391 24:4.90909 # Flowers/Shape1/shape1-000.ppm
-6.7095268545400683900234517032055e-09 5:1800.4301 6:2.6400001 7:116.854 13:4182.1201 14:1920.01 17:0.66666698 18:9.1578903 19:0.31578901 20:0.39015999 21:0.72292298 22:2.32284 23:8.2482796 24:3.7878799 # Flowers/Shape4/shape4-006.ppm
-6.7095268545400683900234517032055e-09 5:3655.3701 6:2.86957 7:117.5 13:5827.8701 14:2017.95 17:0.58620697 18:18.6154 19:0.4375 20:0.37864101 21:0.50822002 22:1.59433 23:7.84795 24:4.1818199 # Flowers/Shape4/shape4-007.ppm
-6.7095268545400683900234517032055e-09 5:19787 6:4.0229902 7:113.236 13:7564.2202 14:5249.0498 17:0.225352 18:80.666702 19:0.12987 20:0.66908199 21:0.164876 22:0.382283 23:33.3344 24:7.9542899 # Flowers/Shape4/shape4-012.ppm
6.7095268545400683900234517032055e-09 5:5015.1299 6:3.34694 7:106.183 13:5973.6099 14:2636.54 17:0.40000001 18:16.5 19:0.441176 20:0.56524497 21:0.35819301 22:1.19112 23:7.6259599 24:2.9877999 # Flowers/Shape1/shape1-024.ppm
-6.7095268545400683900234517032055e-09 5:2530.73 6:3.0666699 7:119.016 13:3887.6599 14:2104.9199 17:0.5 18:10.7143 19:0.42857099 20:0.38917899 21:0.63982099 22:1.53618 23:4.3521399 24:2.6087 # Flowers/Shape4/shape4-022.ppm
6.7095268545400683900234517032055e-09 5:18875 6:3.8487401 7:109.72 13:10466.1 14:3874.3899 17:0.45122001 18:23.611099 19:0.17821801 20:0.75334603 21:0.15637299 22:0.55449498 23:3.6399601 24:2.5982499 # Flowers/Shape1/shape1-071.ppm
6.7095268545400683900234517032055e-09 5:7009.21 6:4.0888901 7:101.05 13:3801.45 14:3026.8999 17:0.25 18:21 19:0.153846 20:0.79914802 21:0.219348 22:0.54235101 23:17.8113 24:4.8913002 # Flowers/Shape1/shape1-081.ppm
6.7095268545400683900234517032055e-09 5:4384.6602 6:3.625 7:101.845 13:4866.5298 14:4317.3599 17:0.52381003 18:14.8462 19:0.23076899 20:0.66090298 21:0.38650799 22:1.1099 23:7.71981 24:3.0344801 # Flowers/Shape1/shape1-040.ppm
-6.7095268545400683900234517032055e-09 5:2798.6399 6:3.0344801 7:120.661 13:4171.9199 14:2692.8799 17:0.44999999 18:33.400002 19:0.44999999 20:0.41749701 21:0.61513197 22:1.4907 23:6.21698 24:2.96591 # Flowers/Shape4/shape4-000.ppm
6.7095268545400683900234517032055e-09 5:16785.699 6:3.74545 7:111.52 13:10440.8 14:3804.4199 17:0.392405 18:15.8077 19:0.182796 20:0.68277502 21:0.176098 22:0.62200397 23:8.9315701 24:3.2038801 # Flowers/Shape1/shape1-091.ppm
-6.7095268545400683900234517032055e-09 5:19759.5 6:3.9316199 7:117.245 13:7719.9502 14:3931.4099 17:0.46250001 18:21.2857 19:0.17 20:0.98696202 21:0.12591401 22:0.39069501 23:18.220301 24:5.3413 # Flowers/Shape3/shape3-014.ppm
6.7095268545400683900234517032055e-09 5:4957.6802 6:3.25581 7:100.742 13:4719.4902 14:2941.78 17:0.34375 18:11.8125 19:0.30303001 20:0.72900498 21:0.30944699 22:0.95195502 23:10.8939 24:4.6071401 # Flowers/Shape1/shape1-004.ppm
-6.7095268545400683900234517032055e-09 5:2757.5901 6:3 7:123.55 13:4126.3999 14:2596.4199 17:0.66666698 18:40.75 19:0.36363599 20:0.42011899 21:0.62143803 22:1.49638 23:5.1121302 24:2.6666701 # Flowers/Shape4/shape4-020.ppm
6.7095268545400683900234517032055e-09 5:20618 6:4.1414099 7:109.804 13:7893.52 14:4562.1602 17:0.2375 18:21.6667 19:0.151163 20:0.81715697 21:0.14665499 22:0.382846 23:7.1643901 24:2.8975599 # Flowers/Shape1/shape1-014.ppm
-6.7095268545400683900234517032055e-09 5:19426.5 6:3.9344299 7:117.76 13:8215.3096 14:3709.1001 17:0.48780501 18:35.375 19:0.184466 20:0.94499302 21:0.13054401 22:0.422892 23:14.3142 24:4.3208299 # Flowers/Shape3/shape3-015.ppm
6.7095268545400683900234517032055e-09 5:4961.3799 6:3.30233 7:101.111 13:4741.6099 14:2976.8799 17:0.34375 18:23.75 19:0.30303001 20:0.73207802 21:0.31028301 22:0.95570302 23:10.7654 24:4.23944 # Flowers/Shape1/shape1-025.ppm
-6.7095268545400683900234517032055e-09 5:5380.3501 6:3.5122001 7:115.883 13:4010.1101 14:3645.5701 17:0.51851898 18:27.6667 19:0.366667 20:0.949027 21:0.26657999 22:0.74532503 23:3.2065899 24:1.42361 # Flowers/Shape3/shape3-020.ppm
6.7095268545400683900234517032055e-09 5:7635.0498 6:3.4054101 7:106.989 13:7669.3799 14:2527.74 17:0.45098001 18:18.7059 19:0.32142901 20:0.60284603 21:0.270428 22:1.0045 23:4.62463 24:3.5238099 # Flowers/Shape1/shape1-077.ppm
-6.7095268545400683900234517032055e-09 5:7474.9702 6:3.4461501 7:112.296 13:7331.8101 14:2717.03 17:0.41304299 18:31.444401 19:0.27451 20:0.343483 21:0.37662399 22:0.98084903 23:13.9907 24:4.9330401 # Flowers/Shape5/shape5-017.ppm
6.7095268545400683900234517032055e-09 5:5533.27 6:3.375 7:103.088 13:4736.48 14:2703.55 17:0.33333299 18:12.0667 19:0.26315799 20:0.73932201 21:0.278523 22:0.85599899 23:11.8538 24:4.7407398 # Flowers/Shape1/shape1-045.ppm
-6.7095268545400683900234517032055e-09 5:3000.4199 6:3.0555601 7:121.257 13:3925.8799 14:1792.9301 17:0.384615 18:11.0714 19:0.33333299 20:0.40345901 21:0.53751701 22:1.30845 23:7.8656702 24:4.25455 # Flowers/Shape4/shape4-001.ppm
6.7095268545400683900234517032055e-09 5:8086.9302 6:3.8113201 7:102.691 13:4600.5898 14:3592.1799 17:0.39473701 18:18.0909 19:0.152174 20:0.85131001 21:0.214706 22:0.568892 23:11.1673 24:4.4604001 # Flowers/Shape1/shape1-039.ppm
-4.1445742020863959880925750378644e-09 5:19073.699 6:3.54795 7:109.683 13:11131.8 14:3401.1001 17:0.431373 18:59.166698 19:0.237288 20:0.81743997 21:0.150794 22:0.58362198 23:7.3166199 24:2.2548299 # Flowers/Shape2/shape2-011.ppm
6.7095268545400683900234517032055e-09 5:5922.1699 6:3.3684199 7:103.652 13:7730.02 14:2734.8401 17:0.46153799 18:18 19:0.35714301 20:0.50174099 21:0.34839699 22:1.30527 23:4.2744198 24:2.375 # Flowers/Shape1/shape1-037.ppm
-6.7095268545400683900234517032055e-09 5:3421.4099 6:3.1666701 7:123.628 13:3774.98 14:2084.54 17:0.33333299 18:36.75 19:0.285714 20:0.51669699 21:0.519867 22:1.10334 23:10.3824 24:4.1052599 # Flowers/Shape4/shape4-003.ppm
-2.2559230041469168967765285271909e-09 5:14289.6 6:3.57377 7:107.889 13:9476.04 14:2630.8401 17:0.45238101 18:17.0455 19:0.22 20:0.62487102 21:0.19089501 22:0.66314 23:0.746337 24:1.11927 # Flowers/Shape2/shape2-020.ppm
-6.7095268545400683900234517032055e-09 5:16223.9 6:3.8407099 7:118.629 13:7513.5298 14:3200.3601 17:0.50666702 18:21 19:0.22826099 20:0.97983801 21:0.133379 22:0.46311399 23:11.4498 24:4.947 # Flowers/Shape3/shape3-012.ppm
6.7095268545400683900234517032055e-09 5:5235.6499 6:3.2363601 7:110.089 13:6069.3101 14:2390.98 17:0.375 18:14.0556 19:0.447368 20:0.57317197 21:0.34328699 22:1.15923 23:4.26898 24:2.47191 # Flowers/Shape1/shape1-064.ppm
-6.7095268545400683900234517032055e-09 5:6091.2002 6:3.5652201 7:109.703 13:4006.47 14:3277.47 17:0.39393899 18:32.599998 19:0.31428599 20:0.95740998 21:0.23543701 22:0.65774697 23:3.22453 24:1.12195 # Flowers/Shape3/shape3-021.ppm
6.7095268545400683900234517032055e-09 5:18909.199 6:4.0215101 7:106.783 13:7926.7598 14:4842.5801 17:0.23999999 18:19.8125 19:0.148148 20:0.817321 21:0.159758 22:0.41920099 23:6.6178298 24:2.48663 # Flowers/Shape1/shape1-095.ppm
-6.7095268545400683900234517032055e-09 5:10925.7 6:3.2181799 7:115.665 13:8374.8301 14:2428.8201 17:0.32530099 18:9.9428596 19:0.25 20:0.90883303 21:0.18055899 22:0.76652902 23:0.29102999 24:0.62146902 # Flowers/Shape3/shape3-018.ppm
6.7095268545400683900234517032055e-09 5:5135.0298 6:3.1698101 7:114.339 13:5968.8701 14:2467.99 17:0.32499999 18:26.444401 19:0.472222 20:0.57155299 21:0.34956399 22:1.16238 23:3.99192 24:2.8392899 # Flowers/Shape1/shape1-044.ppm
-6.7095268545400683900234517032055e-09 5:4171.6699 6:3.2432401 7:97.216904 13:4763.3301 14:3027.52 17:0.32142901 18:10.6471 19:0.37037 20:0.54798901 21:0.416511 22:1.14183 23:5.9936299 24:3.7 # Flowers/Shape5/shape5-011.ppm
-6.7095268545400683900234517032055e-09 5:4062.0701 6:2.3896101 7:125.092 13:6386.0698 14:1521.95 17:0.45282999 18:14.8333 19:0.50980401 20:0.92794001 21:0.31280801 22:1.57212 23:0.464443 24:0.83695698 # Flowers/Shape3/shape3-001.ppm
-6.7095268545400683900234517032055e-09 5:7383.3501 6:3.64516 7:103.463 13:7628.9502 14:2883.1001 17:0.51219499 18:12.88 19:0.21568599 20:0.49302399 21:0.307704 22:1.03326 23:3.92276 24:1.6460201 # Flowers/Shape5/shape5-002.ppm
6.7095268545400683900234517032055e-09 5:5121.3999 6:3.28 7:108.623 13:5926.79 14:2628.3 17:0.38888901 18:29.125 19:0.42857099 20:0.575993 21:0.34990999 22:1.1572599 23:4.16081 24:3.04878 # Flowers/Shape1/shape1-003.ppm
-6.7095268545400683900234517032055e-09 5:8775.1396 6:3.59322 7:113.766 13:5064.3398 14:3879.9099 17:0.340909 18:12.5333 19:0.204082 20:0.96908802 21:0.197652 22:0.577124 23:11.2744 24:3.6179199 # Flowers/Shape3/shape3-006.ppm
6.7095268545400683900234517032055e-09 5:7013.98 6:3.38235 7:105.321 13:7619.1299 14:2725.0801 17:0.38775501 18:12.28 19:0.33333299 20:0.598382 21:0.29406199 22:1.08628 23:4.43154 24:3.5478301 # Flowers/Shape1/shape1-097.ppm
-6.7095268545400683900234517032055e-09 5:6654.96 6:3.7358501 7:111.414 13:4001.4299 14:2887.21 17:0.432432 18:20.5 19:0.26190501 20:0.97117001 21:0.21546701 22:0.60127002 23:4.3186998 24:2.1414101 # Flowers/Shape3/shape3-000.ppm
6.7095268545400683900234517032055e-09 5:12324.7 6:3.9000001 7:110.651 13:6754.7798 14:3323.6699 17:0.42857099 18:18.1765 19:0.15942 20:0.652758 21:0.19502801 22:0.54806697 23:17.4828 24:5.1282101 # Flowers/Shape1/shape1-049.ppm
-6.7095268545400683900234517032055e-09 5:15135.2 6:3.88889 7:104.912 13:7877.6299 14:4004.23 17:0.45161301 18:23.9231 19:0.16883101 20:0.65786201 21:0.182907 22:0.52048498 23:11.4869 24:4.3714299 # Flowers/Shape5/shape5-018.ppm
6.7095268545400683900234517032055e-09 5:5745.8301 6:3.3898301 7:104.794 13:6009.9702 14:2257.6699 17:0.37209299 18:14.2778 19:0.404762 20:0.583121 21:0.311887 22:1.04597 23:3.7626801 24:2.95 # Flowers/Shape1/shape1-084.ppm
-6.7095268545400683900234517032055e-09 5:3349.52 6:3.3513501 7:121.149 13:4133.0898 14:2141.8701 17:0.68181801 18:55.333302 19:0.37037 20:0.42758301 21:0.51148802 22:1.23394 23:6.3891702 24:2.98387 # Flowers/Shape4/shape4-021.ppm
6.7095268545400683900234517032055e-09 5:12743.8 6:3.9154899 7:108.435 13:5990.7998 14:4069.1299 17:0.41999999 18:21.727301 19:0.18333299 20:0.830621 21:0.178526 22:0.47009599 23:10.0336 24:4.3417301 # Flowers/Shape1/shape1-053.ppm
-6.7095268545400683900234517032055e-09 5:16471.5 6:3.6347799 7:105.525 13:9686.1504 14:3430.75 17:0.47435901 18:47.857101 19:0.18556701 20:0.61217302 21:0.18482301 22:0.58805299 23:1.8543299 24:1.92584 # Flowers/Shape2/shape2-018.ppm
6.7095268545400683900234517032055e-09 5:5845.4199 6:3.4074099 7:102.623 13:7713.71 14:2967.5 17:0.45945901 18:12.44 19:0.384615 20:0.51679802 21:0.35307199 22:1.31962 23:3.8112099 24:2.6413 # Flowers/Shape1/shape1-016.ppm
-6.7095268545400683900234517032055e-09 5:8059.7002 6:3.67273 7:102.224 13:5874.98 14:3788.6499 17:0.447368 18:25.7778 19:0.19565199 20:0.59330398 21:0.27884299 22:0.72893298 23:8.7971096 24:3.2673299 # Flowers/Shape5/shape5-003.ppm
6.7095268545400683900234517032055e-09 5:11027.4 6:3.65432 7:110.056 13:6213.0898 14:3050.6499 17:0.42105299 18:13.9412 19:0.208955 20:0.84382099 21:0.184844 22:0.56342101 23:5.3385501 24:2.4628401 # Flowers/Shape1/shape1-056.ppm
-6.7095268545400683900234517032055e-09 5:10303.7 6:3.8209 7:112.175 13:6352.27 14:3544.22 17:0.48888901 18:10.68 19:0.196429 20:0.67789102 21:0.22490799 22:0.61650199 23:6.5558 24:2.8789101 # Flowers/Shape5/shape5-012.ppm
6.7095268545400683900234517032055e-09 5:5114.1802 6:3.3636401 7:104.413 13:4697.4702 14:2923.28 17:0.33333299 18:19 19:0.25714299 20:0.73659199 21:0.30093801 22:0.91851801 23:11.181 24:4.7567601 # Flowers/Shape1/shape1-085.ppm
-6.7095268545400683900234517032055e-09 5:3349.52 6:3.3513501 7:121.149 13:4133.0898 14:2141.8701 17:0.68181801 18:55.333302 19:0.37037 20:0.42758301 21:0.51148802 22:1.23394 23:6.3891702 24:2.98387 # Flowers/Shape4/shape4-019.ppm
6.7095268545400683900234517032055e-09 5:17505.199 6:3.95349 7:108.529 13:7620.0601 14:5188.0601 17:0.482759 18:49.599998 19:0.16216201 20:0.813241 21:0.17224 22:0.435303 23:6.4242101 24:1.7705899 # Flowers/Shape1/shape1-055.ppm
-6.7095268545400683900234517032055e-09 5:10913.3 6:3.2765999 7:108.682 13:8852.1396 14:3234.1299 17:0.46875 18:18.5263 19:0.27026999 20:0.76173902 21:0.213302 22:0.81113201 23:1.18995 24:0.61039001 # Flowers/Shape2/shape2-005.ppm
6.7095268545400683900234517032055e-09 5:5629.6201 6:3.46667 7:104.162 13:4716.96 14:2844.95 17:0.285714 18:23.5 19:0.285714 20:0.73004198 21:0.27380201 22:0.837883 23:11.2647 24:5.4807701 # Flowers/Shape1/shape1-065.ppm
-6.7095268545400683900234517032055e-09 5:3653.0701 6:3.1428599 7:117.747 13:4761.1899 14:2518.8601 17:0.40000001 18:23.75 19:0.346154 20:0.41093299 21:0.52293402 22:1.30334 23:10.3283 24:4.4545498 # Flowers/Shape4/shape4-016.ppm
6.7095268545400683900234517032055e-09 5:12593.6 6:3.8139501 7:105.864 13:6483.0898 14:3335.5 17:0.53571397 18:17 19:0.194444 20:0.83551002 21:0.179501 22:0.51479298 23:18.1978 24:5.2438998 # Flowers/Shape1/shape1-054.ppm
-6.7095268545400683900234517032055e-09 5:16309.1 6:3.7164199 7:107.091 13:9115.21 14:2767.3601 17:0.48888901 18:16.440001 19:0.27619001 20:0.895311 21:0.144052 22:0.55890203 23:2.09904 24:1.61446 # Flowers/Shape3/shape3-011.ppm
6.7095268545400683900234517032055e-09 5:6340.7202 6:3.68627 7:103.409 13:4892.5298 14:2901.1299 17:0.41666701 18:17.727301 19:0.27500001 20:0.71142101 21:0.271676 22:0.77160501 23:9.9798899 24:4.3404298 # Flowers/Shape1/shape1-022.ppm
-6.7095268545400683900234517032055e-09 5:3254.72 6:3.1428599 7:119.853 13:4536.23 14:2278.6499 17:0.296296 18:13.0714 19:0.40000001 20:0.378667 21:0.57646799 22:1.3937401 23:7.9634099 24:4.1363602 # Flowers/Shape4/shape4-002.ppm
6.4004972062332434016976491107306e-09 5:17296.4 6:4.1728401 7:114.778 13:7705.5298 14:5523.9102 17:0.285714 18:36.142899 19:0.157143 20:0.812536 21:0.174567 22:0.445499 23:6.0336199 24:2.39645 # Flowers/Shape1/shape1-035.ppm
-6.7095268545400683900234517032055e-09 5:13135.4 6:3.7471299 7:108.95 13:8300.5801 14:3595.8501 17:0.42623001 18:19.2353 19:0.191781 20:0.6426 21:0.198431 22:0.63192302 23:8.7367296 24:3.4693301 # Flowers/Shape5/shape5-013.ppm
6.7095268545400683900234517032055e-09 5:5657.6401 6:3.46667 7:106.324 13:4286.8398 14:3050.52 17:0.285714 18:17.299999 19:0.184211 20:0.768224 21:0.27726099 22:0.75770801 23:10.5056 24:4.32692 # Flowers/Shape1/shape1-047.ppm
-6.7095268545400683900234517032055e-09 5:9101.5596 6:3.69014 7:113.445 13:5399.9399 14:3001.78 17:0.44898 18:34 19:0.24561401 20:0.97000599 21:0.184003 22:0.59329897 23:4.5588899 24:2.1679399 # Flowers/Shape3/shape3-009.ppm
6.7095268545400683900234517032055e-09 5:7072.98 6:3.70909 7:99.5839 13:4837.71 14:2707.02 17:0.341463 18:21.6667 19:0.25 20:0.71806699 21:0.243054 22:0.68397099 23:11.1458 24:4.8529401 # Flowers/Shape1/shape1-082.ppm
-6.7095268545400683900234517032055e-09 5:7508.2798 6:3.6226399 7:108.489 13:5532.4902 14:3177.5901 17:0.35897401 18:16.6364 19:0.17777801 20:0.58197898 21:0.272163 22:0.73685199 23:7.8312702 24:3.5885401 # Flowers/Shape5/shape5-020.ppm
6.7095268545400683900234517032055e-09 5:10887.2 6:3.8205099 7:112.303 13:6228.6099 14:3071.71 17:0.47169799 18:25.299999 19:0.25806499 20:0.82091099 21:0.187004 22:0.57210398 23:9.0370302 24:4.71141 # Flowers/Shape1/shape1-076.ppm
-6.7095268545400683900234517032055e-09 5:9195.96 6:3.63077 7:111.655 13:6834.9102 14:3712.6201 17:0.47727299 18:20.7143 19:0.203704 20:0.703978 21:0.243375 22:0.74325103 23:4.5093598 24:2.4788101 # Flowers/Shape5/shape5-014.ppm
6.7095268545400683900234517032055e-09 5:6701.5 6:3.5849099 7:104.788 13:4808.48 14:2828.8101 17:0.29268301 18:39 19:0.232558 20:0.72595203 21:0.25587699 22:0.71752298 23:11.5544 24:5.02105 # Flowers/Shape1/shape1-042.ppm
-6.7095268545400683900234517032055e-09 5:7595.7798 6:3.5185201 7:111.044 13:5624.5098 14:3139.3401 17:0.285714 18:13.9375 19:0.148936 20:0.58310997 21:0.26946601 22:0.74047798 23:8.4700603 24:3.97895 # Flowers/Shape5/shape5-000.ppm
6.7095268545400683900234517032055e-09 5:10930.2 6:3.8499999 7:108.61 13:6209.0601 14:3068.3 17:0.45454499 18:17.8571 19:0.23076899 20:0.835347 21:0.186638 22:0.56806397 23:8.8555899 24:4.1558399 # Flowers/Shape1/shape1-036.ppm
-6.7095268545400683900234517032055e-09 5:8346.8604 6:3.6896601 7:108.474 13:6303.9702 14:3382.4399 17:0.34883699 18:16.3333 19:0.208333 20:0.56213897 21:0.26298299 22:0.75525099 23:12.7143 24:4.0654202 # Flowers/Shape5/shape5-005.ppm
6.7095268545400683900234517032055e-09 5:6308.1499 6:3.625 7:106.024 13:4893.9902 14:3064.5601 17:0.41176501 18:16.5833 19:0.26315799 20:0.710899 21:0.27250099 22:0.77582097 23:10.0474 24:4.4137902 # Flowers/Shape1/shape1-062.ppm
-6.7095268545400683900234517032055e-09 5:6999.6401 6:3.67857 7:101.587 13:5537.7998 14:3028 17:0.555556 18:13 19:0.217391 20:0.58612698 21:0.29195601 22:0.79115599 23:3.0253899 24:1.35922 # Flowers/Shape5/shape5-021.ppm
6.7095268545400683900234517032055e-09 5:10742.4 6:3.9166701 7:106.329 13:6699.98 14:3676.55 17:0.53191501 18:31.125 19:0.2 20:0.648238 21:0.223819 22:0.62369502 23:13.1387 24:3.8297901 # Flowers/Shape1/shape1-008.ppm
-6.7095268545400683900234517032055e-09 5:11335.1 6:3.45455 7:117.737 13:7268.3501 14:2781.99 17:0.47761199 18:17.2353 19:0.2375 20:0.96946597 21:0.167484 22:0.64122403 23:0.88534099 24:1.15789 # Flowers/Shape3/shape3-016.ppm
6.7095268545400683900234517032055e-09 5:6874.1401 6:3.6981101 7:103.909 13:4870.2202 14:2856.8401 17:0.35897401 18:18 19:0.26190501 20:0.72901601 21:0.25058401 22:0.70848501 23:11.6665 24:4.8673501 # Flowers/Shape1/shape1-001.ppm
-6.7095268545400683900234517032055e-09 5:6938.8599 6:3.2692299 7:117.356 13:6067.3799 14:3428.46 17:0.33333299 18:13.25 19:0.238095 20:0.48445901 21:0.33885801 22:0.87440699 23:16.4536 24:5.5058799 # Flowers/Shape4/shape4-009.ppm
6.7095268545400683900234517032055e-09 5:11455 6:3.8309901 7:106.229 13:6808.6499 14:3718.71 17:0.44898 18:10.9259 19:0.16393401 20:0.64651197 21:0.209958 22:0.594383 23:15.3966 24:5.4816198 # Flowers/Shape1/shape1-069.ppm
-6.7095268545400683900234517032055e-09 5:10805.1 6:3.5 7:104.886 13:7333.6299 14:3012.8701 17:0.44827601 18:29.25 19:0.2 20:0.63980502 21:0.218931 22:0.67872202 23:7.7119799 24:3.7142899 # Flowers/Shape5/shape5-007.ppm
6.7095268545400683900234517032055e-09 5:5671.4902 6:3.5 7:101.764 13:4864.02 14:3553.1799 17:0.375 18:15 19:0.189189 20:0.750992 21:0.29851499 22:0.85762697 23:8.6656904 24:4.2857099 # Flowers/Shape1/shape1-060.ppm
-6.7095268545400683900234517032055e-09 5:3461.98 6:3.1666701 7:121.833 13:4480.77 14:2252.48 17:0.384615 18:16 19:0.33333299 20:0.38434201 21:0.54239202 22:1.2942801 23:9.3781204 24:4.1052599 # Flowers/Shape4/shape4-023.ppm
6.7095268545400683900234517032055e-09 5:8642.5898 6:3.63077 7:108.994 13:6227.6899 14:3675.5701 17:0.444444 18:17.9231 19:0.160714 20:0.82716101 21:0.234568 22:0.720581 23:14.6679 24:1.65254 # Flowers/Shape1/shape1-015.ppm
-6.7095268545400683900234517032055e-09 5:8850.1504 6:3.5692301 7:105.305 13:6925.7598 14:3359.9299 17:0.41304299 18:14.1053 19:0.18181799 20:0.539621 21:0.276889 22:0.78255898 23:5.1201501 24:1.96121 # Flowers/Shape5/shape5-022.ppm
6.7095268545400683900234517032055e-09 5:5969.46 6:3.5999999 7:101.359 13:4861.6899 14:3467.96 17:0.32352901 18:15 19:0.216216 20:0.75055701 21:0.28322101 22:0.81442702 23:9.6106005 24:4.1666698 # Flowers/Shape1/shape1-080.ppm
-6.7095268545400683900234517032055e-09 5:6333.8301 6:3.13433 7:118.035 13:5265.0898 14:2458.6699 17:0.367347 18:17.4167 19:0.34 20:0.96768099 21:0.232246 22:0.83126497 23:0.61843699 24:0.63809502 # Flowers/Shape3/shape3-002.ppm
6.7095268545400683900234517032055e-09 5:7793.98 6:3.65517 7:107.058 13:6216.6401 14:4096.7798 17:0.48717901 18:19.230801 19:0.208333 20:0.81382102 21:0.261168 22:0.79762 23:13.3615 24:1.36792 # Flowers/Shape1/shape1-096.ppm
-6.7095268545400683900234517032055e-09 5:9248.2002 6:3.68571 7:105.617 13:6887.1201 14:3110.47 17:0.42857099 18:15.7647 19:0.186441 20:0.53583401 21:0.26533601 22:0.744699 23:2.8371 24:2.1705401 # Flowers/Shape5/shape5-001.ppm
6.7095268545400683900234517032055e-09 5:7906.52 6:3.7818201 7:98.254898 13:5701.6499 14:3632.3301 17:0.61764699 18:13.8125 19:0.19565199 20:0.72749698 21:0.246782 22:0.72113401 23:9.1756897 24:4.4951901 # Flowers/Shape1/shape1-023.ppm
-6.7095268545400683900234517032055e-09 5:3864.46 6:3.1282101 7:118.361 13:4870.8398 14:2592.27 17:0.39285699 18:18.700001 19:0.39285699 20:0.40059301 21:0.52773702 22:1.26042 23:7.7562199 24:3.5163901 # Flowers/Shape4/shape4-017.ppm
6.7095268545400683900234517032055e-09 5:7642.9502 6:3.7735801 7:102.279 13:5695.04 14:3723.7 17:0.472222 18:17.0769 19:0.20454501 20:0.72334898 21:0.25466701 22:0.74513602 23:7.1408701 24:3.9749999 # Flowers/Shape1/shape1-002.ppm
-6.7095268545400683900234517032055e-09 5:11296.1 6:3.63415 7:106.56 13:8116.0298 14:3345.26 17:0.366667 18:13.6957 19:0.18840601 20:0.62454998 21:0.22031599 22:0.71848297 23:8.2980404 24:4.1275201 # Flowers/Shape5/shape5-009.ppm
6.7095268545400683900234517032055e-09 5:5472.9302 6:3.61905 7:100.245 13:4671.04 14:3531.0601 17:0.40000001 18:20.2222 19:0.235294 20:0.754031 21:0.30250299 22:0.85348099 23:6.27773 24:3.5921099 # Flowers/Shape1/shape1-058.ppm
-6.7095268545400683900234517032055e-09 5:4762.7598 6:3.3333299 7:108.884 13:4939.98 14:2422 17:0.33333299 18:13.8667 19:0.297297 20:0.58828503 21:0.39706999 22:1.03721 23:4.5152302 24:2.0999999 # Flowers/Shape5/shape5-019.ppm
6.7095268545400683900234517032055e-09 5:10880.6 6:3.8787899 7:104.621 13:6664.3799 14:4010.95 17:0.346939 18:19.9167 19:0.157895 20:0.64836001 21:0.221081 22:0.61250198 23:14.7009 24:4.6406202 # Flowers/Shape1/shape1-089.ppm
-6.7095268545400683900234517032055e-09 5:10551.4 6:3.4705901 7:116.353 13:6854.21 14:2412.72 17:0.47826099 18:53.599998 19:0.32467499 20:0.97915 21:0.169958 22:0.64960402 23:1.02084 24:1.15254 # Flowers/Shape3/shape3-008.ppm
6.7095268545400683900234517032055e-09 5:5629.9399 6:3.61905 7:103.745 13:4290.2998 14:3287.1001 17:0.40000001 18:28.3333 19:0.2 20:0.77176499 21:0.27875599 22:0.76204997 23:9.5573301 24:4.4210501 # Flowers/Shape1/shape1-067.ppm
-6.7095268545400683900234517032055e-09 5:6772.6001 6:3.32353 7:117.329 13:5323.3701 14:2377.3301 17:0.38775501 18:25.2222 19:0.33333299 20:0.95906103 21:0.216236 22:0.78601599 23:0.699063 24:0.60176998 # Flowers/Shape3/shape3-023.ppm
6.7095268545400683900234517032055e-09 5:10973 6:3.7260301 7:103.945 13:6444.98 14:3862.45 17:0.48979601 18:22.4545 19:0.196721 20:0.821796 21:0.205843 22:0.58735102 23:15.7151 24:4.0257401 # Flowers/Shape1/shape1-034.ppm
-6.7095268545400683900234517032055e-09 5:7238.25 6:3.5999999 7:107.263 13:5858.3901 14:2656.3501 17:0.42857099 18:16.5 19:0.17647099 20:0.57322901 21:0.27661201 22:0.80936497 23:4.9967899 24:2.2222199 # Flowers/Shape5/shape5-006.ppm
6.7095268545400683900234517032055e-09 5:8821.8896 6:3.8620701 7:106.482 13:5623.6602 14:3462.8 17:0.44999999 18:16.0714 19:0.16 20:0.73377699 21:0.22088499 22:0.63746703 23:8.89186 24:4.9196401 # Flowers/Shape1/shape1-043.ppm
-6.7095268545400683900234517032055e-09 5:10994.6 6:3.68293 7:105.914 13:7958.6499 14:2938.53 17:0.38983101 18:29.6364 19:0.17142899 20:0.61886102 21:0.209406 22:0.72386801 23:5.6972499 24:3.25828 # Flowers/Shape5/shape5-008.ppm
6.7095268545400683900234517032055e-09 5:5454.2798 6:3.55 7:104.569 13:4685.2598 14:3722.5601 17:0.29032299 18:15.1667 19:0.25 20:0.75634599 21:0.30380601 22:0.85900801 23:5.9547901 24:3.6619699 # Flowers/Shape1/shape1-017.ppm
-6.7095268545400683900234517032055e-09 5:5073.8301 6:3.2444401 7:117.406 13:5341.0801 14:2642.1499 17:0.36363599 18:35.833302 19:0.32352901 20:0.503905 21:0.35975501 22:1.05267 23:9.8463497 24:5.5479498 # Flowers/Shape4/shape4-005.ppm
6.7095268545400683900234517032055e-09 5:12136.3 6:3.8181801 7:107.184 13:6474.6001 14:3729.24 17:0.45282999 18:27.299999 19:0.14925399 20:0.82830101 21:0.18655001 22:0.53349 23:3.78163 24:3.1428599 # Flowers/Shape1/shape1-094.ppm
-6.7095268545400683900234517032055e-09 5:11169 6:3.575 7:104.184 13:8587.3799 14:3349.24 17:0.355932 18:17.105301 19:0.23076899 20:0.58352298 21:0.2314 22:0.76885903 23:4.7284598 24:2.7972 # Flowers/Shape5/shape5-004.ppm
6.7095268545400683900234517032055e-09 5:4487.75 6:3.5151501 7:105.193 13:4885.8599 14:4281.5098 17:0.375 18:10.8235 19:0.222222 20:0.67606002 21:0.377783 22:1.08871 23:7.78444 24:2.84483 # Flowers/Shape1/shape1-019.ppm
-6.7095268545400683900234517032055e-09 5:3901.4099 6:3.2272699 7:115.735 13:5072.9902 14:1816.51 17:0.466667 18:15.5385 19:0.33333299 20:0.38892201 21:0.441475 22:1.3003 23:11.9143 24:5.2676101 # Flowers/Shape4/shape4-008.ppm
6.7095268545400683900234517032055e-09 5:9728.04 6:3.7704899 7:106.349 13:6693.0098 14:4339.25 17:0.60526299 18:20.9167 19:0.22 20:0.64723998 21:0.24745101 22:0.688012 23:10.0809 24:4.2434802 # Flowers/Shape1/shape1-029.ppm
-6.7095268545400683900234517032055e-09 5:9398.3604 6:3.7026999 7:109.15 13:7349.3301 14:2888.76 17:0.57446802 18:18.625 19:0.27586201 20:0.50646901 21:0.262954 22:0.78197998 23:2.3011999 24:1.62044 # Flowers/Shape5/shape5-015.ppm
6.7095268545400683900234517032055e-09 5:8204.3203 6:3.7777801 7:110.647 13:5588.8398 14:3653.47 17:0.384615 18:21.2222 19:0.173913 20:0.72584498 21:0.23681299 22:0.681207 23:9.6617603 24:5.0294099 # Flowers/Shape1/shape1-063.ppm
-6.7095268545400683900234517032055e-09 5:9469.7598 6:3.4814799 7:109.368 13:7459.4302 14:2817.1399 17:0.42105299 18:20.133301 19:0.208955 20:0.66574198 21:0.25068301 22:0.78771102 23:10.0644 24:4.0212798 # Flowers/Shape5/shape5-016.ppm
6.7095268545400683900234517032055e-09 5:7625.3501 6:3.68627 7:105.912 13:5551.7798 14:3895.3701 17:0.378378 18:30.6667 19:0.186047 20:0.72611398 21:0.255541 22:0.72807002 23:8.39077 24:4.3404298 # Flowers/Shape1/shape1-083.ppm
-6.7095268545400683900234517032055e-09 5:5341.1401 6:3.2156899 7:114.991 13:6093.2402 14:2482.8101 17:0.41666701 18:7.5882401 19:0.342105 20:0.424523 21:0.38342699 22:1.14081 23:14.2173 24:5.2865901 # Flowers/Shape4/shape4-011.ppm
6.7095268545400683900234517032055e-09 5:10095.7 6:3.73913 7:104.492 13:6454.3398 14:4122.25 17:0.68292701 18:15.9375 19:0.210526 20:0.82837999 21:0.22393499 22:0.63931799 23:4.28685 24:2.1395299 # Flowers/Shape1/shape1-013.ppm
-6.7095268545400683900234517032055e-09 5:10718.5 6:3.3396201 7:114.795 13:7335.2598 14:2372.6201 17:0.413333 18:43.200001 19:0.29268301 20:0.96703303 21:0.170073 22:0.68435401 23:0.89509201 24:1.19774 # Flowers/Shape3/shape3-013.ppm
6.7095268545400683900234517032055e-09 5:5045.27 6:3.52632 7:100.948 13:4286.2798 14:3605.3501 17:0.31034499 18:15.5455 19:0.225806 20:0.76572698 21:0.31116599 22:0.84956402 23:9.0657396 24:4.2537298 # Flowers/Shape1/shape1-027.ppm
-6.7095268545400683900234517032055e-09 5:3478.9099 6:2.9523799 7:121.232 13:5460.2798 14:2062.3101 17:0.555556 18:24.888901 19:0.3125 20:0.37420601 21:0.54244602 22:1.56954 23:6.8382502 24:3.7258101 # Flowers/Shape4/shape4-018.ppm
6.7095268545400683900234517032055e-09 5:10315.9 6:3.87692 7:103.615 13:6490.2598 14:4400.3901 17:0.54761899 18:15.5882 19:0.203704 20:0.82283002 21:0.21990301 22:0.62914997 23:4.2329202 24:2.0634899 # Flowers/Shape1/shape1-074.ppm
-6.7095268545400683900234517032055e-09 5:10438.4 6:3.37255 7:114.091 13:7558.6699 14:2615.54 17:0.5 18:24.4167 19:0.378378 20:0.96189898 21:0.181402 22:0.72412401 23:2.4322801 24:1.48256 # Flowers/Shape3/shape3-004.ppm
6.7095268545400683900234517032055e-09 5:6072.3599 6:3.80952 7:102.424 13:4273.5298 14:3267.55 17:0.40000001 18:28.5 19:0.2 20:0.76833099 21:0.25846499 22:0.70376801 23:10.003 24:5.25 # Flowers/Shape1/shape1-087.ppm
-6.7095268545400683900234517032055e-09 5:8964.5996 6:3.4473701 7:103.882 13:7393.0498 14:2807.75 17:0.46153799 18:26.111099 19:0.26666701 20:0.58838397 21:0.253681 22:0.82469398 23:4.87393 24:2.6106901 # Flowers/Shape5/shape5-023.ppm
6.7095268545400683900234517032055e-09 5:5316.0698 6:3.58974 7:101.861 13:4655.2598 14:3863.6299 17:0.444444 18:20.3333 19:0.25806499 20:0.76771897 21:0.31165099 22:0.87569398 23:6.0138202 24:3.6214299 # Flowers/Shape1/shape1-098.ppm
-6.7095268545400683900234517032055e-09 5:3711.02 6:2.9302299 7:119.036 13:5622.1099 14:2158.05 17:0.65384603 18:10.75 19:0.387097 20:0.392582 21:0.49144599 22:1.51498 23:11.2734 24:4.7777801 # Flowers/Shape4/shape4-010.ppm
6.7095268545400683900234517032055e-09 5:13022.6 6:4.1315799 7:110.059 13:5955.8599 14:3812.0801 17:0.206349 18:23.5 19:0.13432799 20:0.83072299 21:0.175073 22:0.45734701 23:7.5950398 24:3.6305699 # Flowers/Shape1/shape1-093.ppm
-6.7095268545400683900234517032055e-09 5:13295.2 6:3.4862399 7:106.827 13:9329.3701 14:2888.8701 17:0.36250001 18:22.5882 19:0.19780201 20:0.614838 21:0.20465299 22:0.70170802 23:0.85258698 24:0.86052603 # Flowers/Shape2/shape2-000.ppm
6.7095268545400683900234517032055e-09 5:5019.6899 6:3.6216199 7:101.34 13:4670.4302 14:4009.1001 17:0.54166698 18:23.25 19:0.27586201 20:0.75352901 21:0.33006999 22:0.93042201 23:5.5291901 24:3.58955 # Flowers/Shape1/shape1-038.ppm
-6.7095268545400683900234517032055e-09 5:3803.3799 6:2.9047599 7:119.914 13:5984.7002 14:2398.04 17:0.615385 18:15.4375 19:0.354839 20:0.39844501 21:0.501266 22:1.5735199 23:9.2438297 24:4.1311498 # Flowers/Shape4/shape4-015.ppm
6.7095268545400683900234517032055e-09 5:9684.9805 6:3.90769 7:106.815 13:4600.3799 14:2999.77 17:0.35416701 18:17.181801 19:0.18181799 20:0.86722398 21:0.179774 22:0.47500199 23:11.5462 24:4.6062999 # Flowers/Shape1/shape1-018.ppm
-6.7095268545400683900234517032055e-09 5:8413.9297 6:3.3698599 7:119.659 13:7385.0298 14:2715.6799 17:0.403846 18:27.5833 19:0.216667 20:0.39077401 21:0.330798 22:0.87771398 23:22.030701 24:5.0447202 # Flowers/Shape4/shape4-014.ppm
6.7095268545400683900234517032055e-09 5:5102.8101 6:3.7297299 7:102.921 13:4662.8101 14:4032.3201 17:0.54166698 18:20.7778 19:0.32142901 20:0.75875002 21:0.32479 22:0.913773 23:5.36724 24:3.4855101 # Flowers/Shape1/shape1-078.ppm
-6.7095268545400683900234517032055e-09 5:7409.3701 6:3.25424 7:113.714 13:7736.3599 14:3263.8601 17:0.311111 18:11.1724 19:0.28260899 20:0.356516 21:0.392378 22:1.04413 23:16.266899 24:5.53125 # Flowers/Shape4/shape4-013.ppm
6.7095268545400683900234517032055e-09 5:8752.0898 6:3.7377 7:106.617 13:4581.8799 14:3170.8701 17:0.29787201 18:9.1499996 19:0.173077 20:0.86197102 21:0.19865701 22:0.52351803 23:12.6511 24:4.2807002 # Flowers/Shape1/shape1-079.ppm
-6.7095268545400683900234517032055e-09 5:8798.5703 6:3.3176501 7:108.274 13:7488.6899 14:2630.49 17:0.41666701 18:21.2143 19:0.268657 20:0.69539899 21:0.243319 22:0.85112602 23:4.5908799 24:2.71277 # Flowers/Shape2/shape2-006.ppm
6.7095268545400683900234517032055e-09 5:11658.4 6:4.0289898 7:106.545 13:6003.6099 14:4222.2998 17:0.254545 18:17.9231 19:0.18965501 20:0.83573997 21:0.195213 22:0.51495802 23:5.1257501 24:2.4820099 # Flowers/Shape1/shape1-033.ppm
6.7095268545400683900234517032055e-09 5:8262.3496 6:3.9200001 7:98.986298 13:4550.8398 14:3864.76 17:0.470588 18:23.375 19:0.219512 20:0.86148202 21:0.21060701 22:0.55079198 23:14.5961 24:5.3571401 # Flowers/Shape1/shape1-059.ppm
6.7095268545400683900234517032055e-09 5:4911.6001 6:3.54286 7:97.292099 13:4288.2598 14:3872.6299 17:0.346154 18:17.299999 19:0.25 20:0.759453 21:0.319368 22:0.873088 23:8.4400396 24:4.23387 # Flowers/Shape1/shape1-006.ppm
-6.7095268545400683900234517032055e-09 5:12523.8 6:3.3599999 7:110.958 13:9404.6396 14:3104.01 17:0.35135099 18:25.133301 19:0.17647099 20:0.606695 21:0.217445 22:0.75093901 23:1.38557 24:1.19048 # Flowers/Shape2/shape2-021.ppm
6.7095268545400683900234517032055e-09 5:6457.1001 6:4 7:102.209 13:3811.79 14:3215.1799 17:0.482759 18:15.7 19:0.16216201 20:0.80619001 21:0.23850399 22:0.59032601 23:16.7682 24:4.5 # Flowers/Shape1/shape1-041.ppm
6.7095268545400683900234517032055e-09 5:5862.8599 6:3.9473701 7:100.628 13:3829.0701 14:3551.8 17:0.51999998 18:23.4286 19:0.225806 20:0.79069 21:0.26247299 22:0.65310597 23:14.7191 24:4.5599999 # Flowers/Shape1/shape1-021.ppm
-6.7095268545400683900234517032055e-09 5:10203.8 6:3.2792799 7:121.984 13:7738.9502 14:2170.5801 17:0.405063 18:20.1875 19:0.337349 20:0.96216798 21:0.174556 22:0.758439 23:1.05512 24:0.91483498 # Flowers/Shape3/shape3-007.ppm
6.7095268545400683900234517032055e-09 5:12900.8 6:4.05479 7:110.466 13:6011.6499 14:3970.1201 17:0.25862101 18:16.4286 19:0.17741901 20:0.83196098 21:0.17634501 22:0.46599001 23:14.6361 24:4.4391899 # Flowers/Shape1/shape1-012.ppm
-6.7095268545400683900234517032055e-09 5:11490.3 6:3.48454 7:106 13:8829.7305 14:2956.4099 17:0.469697 18:12.75 19:0.29333299 20:0.65530002 21:0.21368399 22:0.76845098 23:9.5903101 24:3.7307701 # Flowers/Shape2/shape2-003.ppm
-6.7095268545400683900234517032055e-09 5:10564.1 6:3.3494 7:106.944 13:8843.3496 14:3158.4299 17:0.296875 18:28.9167 19:0.18571401 20:0.54305899 21:0.244323 22:0.83711702 23:9.3588495 24:3.5827301 # Flowers/Shape5/shape5-010.ppm
6.7095268545400683900234517032055e-09 5:6747.5698 6:3.86957 7:102.386 13:3790.6499 14:3182.28 17:0.48387101 18:31.200001 19:0.179487 20:0.85185701 21:0.228357 22:0.56177998 23:16.941601 24:5.16854 # Flowers/Shape1/shape1-020.ppm
-6.7095268545400683900234517032055e-09 5:12523.8 6:3.3599999 7:110.958 13:9404.6396 14:3104.01 17:0.35135099 18:25.133301 19:0.17647099 20:0.606695 21:0.217445 22:0.75093901 23:1.38557 24:1.19048 # Flowers/Shape2/shape2-019.ppm
6.7095268545400683900234517032055e-09 5:11527.5 6:3.84848 7:107.814 13:5943.3599 14:4412.79 17:0.404255 18:34 19:0.137931 20:0.83048898 21:0.19796 22:0.51558 23:15.1755 24:4.4173198 # Flowers/Shape1/shape1-073.ppm
-6.7095268545400683900234517032055e-09 5:4434 6:2.60976 7:121.045 13:6353.6001 14:1402.1801 17:0.67346901 18:11.7727 19:0.49090901 20:0.92590302 21:0.28428999 22:1.43293 23:0.64750397 24:1.1495301 # Flowers/Shape3/shape3-022.ppm
6.7095268545400683900234517032055e-09 5:15680.4 6:3.8684199 7:109.188 13:7900.27 14:5862.1499 17:0.43396199 18:23.1429 19:0.15151501 20:0.81069601 21:0.19266701 22:0.50383198 23:5.6854801 24:1.55102 # Flowers/Shape1/shape1-075.ppm
6.7095268545400683900234517032055e-09 5:8819.5596 6:4.0377402 7:102.696 13:4895.5601 14:4017.96 17:0.26190501 18:19.9 19:0.12766001 20:0.78393501 21:0.219015 22:0.55508 23:16.8958 24:4.95327 # Flowers/Shape1/shape1-088.ppm
