SVM-light Version V6.02
0 # kernel type
3 # kernel parameter -d 
1 # kernel parameter -g 
1 # kernel parameter -s 
1 # kernel parameter -r 
empty# kernel parameter -u 
24 # highest feature index 
195 # number of training documents 
85 # number of support vectors plus 1 
3.556912 # threshold b, each following line is a SV (starting with alpha*y)
-4.3924781334231168322323880077139e-09 5:10095.7 6:3.73913 7:104.492 13:6454.3398 14:4122.25 17:0.68292701 18:15.9375 19:0.210526 20:0.82837999 21:0.22393499 22:0.63931799 23:4.28685 24:2.1395299 # Flowers/Shape1/shape1-013.ppm
4.3924781334231168322323880077139e-09 5:13295.2 6:3.4862399 7:106.827 13:9329.3701 14:2888.8701 17:0.36250001 18:22.5882 19:0.19780201 20:0.614838 21:0.20465299 22:0.70170802 23:0.85258698 24:0.86052603 # Flowers/Shape2/shape2-000.ppm
-4.3924781334231168322323880077139e-09 5:21037 6:4.1782198 7:114.776 13:7482.0698 14:4612.3901 17:0.246914 18:28.799999 19:0.134831 20:0.85445601 21:0.135003 22:0.35566199 23:7.3670001 24:3.82938 # Flowers/Shape1/shape1-011.ppm
4.3924781334231168322323880077139e-09 5:8798.5703 6:3.3176501 7:108.274 13:7488.6899 14:2630.49 17:0.41666701 18:21.2143 19:0.268657 20:0.69539899 21:0.243319 22:0.85112602 23:4.5908799 24:2.71277 # Flowers/Shape2/shape2-006.ppm
-4.3924781334231168322323880077139e-09 5:8850.1504 6:3.5692301 7:105.305 13:6925.7598 14:3359.9299 17:0.41304299 18:14.1053 19:0.18181799 20:0.539621 21:0.276889 22:0.78255898 23:5.1201501 24:1.96121 # Flowers/Shape5/shape5-022.ppm
4.3924781334231168322323880077139e-09 5:12626.6 6:3.4107101 7:109.863 13:9639.1396 14:2673.96 17:0.365854 18:16.3913 19:0.28735599 20:0.65931302 21:0.199072 22:0.76340199 23:1.97498 24:1.75916 # Flowers/Shape2/shape2-063.ppm
-4.3924781334231168322323880077139e-09 5:20618 6:4.1414099 7:109.804 13:7893.52 14:4562.1602 17:0.2375 18:21.6667 19:0.151163 20:0.81715697 21:0.14665499 22:0.382846 23:7.1643901 24:2.8975599 # Flowers/Shape1/shape1-014.ppm
4.3924781334231168322323880077139e-09 5:9193.5 6:3.23913 7:106.646 13:7518.8701 14:2563.01 17:0.24324299 18:15.6842 19:0.24324299 20:0.72619599 21:0.233658 22:0.81784701 23:5.5023699 24:2.4698 # Flowers/Shape2/shape2-027.ppm
-4.3924781334231168322323880077139e-09 5:17878.801 6:3.3173699 7:119.062 13:11410.5 14:2728.3899 17:0.43965501 18:29.5333 19:0.274809 20:0.98016 21:0.138586 22:0.63821399 23:0.19459499 24:0.30144399 # Flowers/Shape3/shape3-017.ppm
4.3924781334231168322323880077139e-09 5:9303.71 6:3.28736 7:113.452 13:7388.6201 14:2686.77 17:0.42623001 18:14.5 19:0.208333 20:0.71725601 21:0.231444 22:0.794159 23:3.799 24:2.12937 # Flowers/Shape2/shape2-087.ppm
-4.3924781334231168322323880077139e-09 5:5845.4199 6:3.4074099 7:102.623 13:7713.71 14:2967.5 17:0.45945901 18:12.44 19:0.384615 20:0.51679802 21:0.35307199 22:1.31962 23:3.8112099 24:2.6413 # Flowers/Shape1/shape1-016.ppm
4.3924781334231168322323880077139e-09 5:14289.6 6:3.57377 7:107.889 13:9476.04 14:2630.8401 17:0.45238101 18:17.0455 19:0.22 20:0.62487102 21:0.19089501 22:0.66314 23:0.746337 24:1.11927 # Flowers/Shape2/shape2-020.ppm
-4.3924781334231168322323880077139e-09 5:19426.5 6:3.9344299 7:117.76 13:8215.3096 14:3709.1001 17:0.48780501 18:35.375 19:0.184466 20:0.94499302 21:0.13054401 22:0.422892 23:14.3142 24:4.3208299 # Flowers/Shape3/shape3-015.ppm
4.3924781334231168322323880077139e-09 5:9444.4004 6:3.1860499 7:109.053 13:7480.1099 14:2666.5701 17:0.283582 18:16.444401 19:0.21126799 20:0.71143502 21:0.22683699 22:0.79201502 23:3.6946399 24:2.1970799 # Flowers/Shape2/shape2-047.ppm
-4.3924781334231168322323880077139e-09 5:16309.1 6:3.7164199 7:107.091 13:9115.21 14:2767.3601 17:0.48888901 18:16.440001 19:0.27619001 20:0.895311 21:0.144052 22:0.55890203 23:2.09904 24:1.61446 # Flowers/Shape3/shape3-011.ppm
4.3924781334231168322323880077139e-09 5:10086.2 6:3.3260901 7:109.407 13:7392.71 14:2581.03 17:0.41538501 18:13.7143 19:0.210526 20:0.73094797 21:0.213208 22:0.73295099 23:5.3020601 24:1.80392 # Flowers/Shape2/shape2-067.ppm
-4.3924781334231168322323880077139e-09 5:11084 6:3.0780101 7:119.563 13:10352.3 14:2009.76 17:0.43877599 18:34.333302 19:0.58427 20:0.95967299 21:0.174169 22:0.93398201 23:0.976978 24:0.64977002 # Flowers/Shape3/shape3-019.ppm
2.0574880167924181279075066712883e-09 5:16471.5 6:3.6347799 7:105.525 13:9686.1504 14:3430.75 17:0.47435901 18:47.857101 19:0.18556701 20:0.61217302 21:0.18482301 22:0.58805299 23:1.8543299 24:1.92584 # Flowers/Shape2/shape2-018.ppm
-4.3924781334231168322323880077139e-09 5:19759.5 6:3.9316199 7:117.245 13:7719.9502 14:3931.4099 17:0.46250001 18:21.2857 19:0.17 20:0.98696202 21:0.12591401 22:0.39069501 23:18.220301 24:5.3413 # Flowers/Shape3/shape3-014.ppm
4.3924781334231168322323880077139e-09 5:10913.3 6:3.2765999 7:108.682 13:8852.1396 14:3234.1299 17:0.46875 18:18.5263 19:0.27026999 20:0.76173902 21:0.213302 22:0.81113201 23:1.18995 24:0.61039001 # Flowers/Shape2/shape2-005.ppm
-4.3924781334231168322323880077139e-09 5:6451.46 6:2.86076 7:125.884 13:8091.1602 14:2240.95 17:0.75555599 18:6.9215698 19:0.16176499 20:0.85595399 21:0.25083899 22:1.25416 23:7.0669999 24:2.0973499 # Flowers/Shape3/shape3-010.ppm
4.3924781334231168322323880077139e-09 5:14289.6 6:3.57377 7:107.889 13:9476.04 14:2630.8401 17:0.45238101 18:17.0455 19:0.22 20:0.62487102 21:0.19089501 22:0.66314 23:0.746337 24:1.11927 # Flowers/Shape2/shape2-060.ppm
-4.3924781334231168322323880077139e-09 5:19787 6:4.0229902 7:113.236 13:7564.2202 14:5249.0498 17:0.225352 18:80.666702 19:0.12987 20:0.66908199 21:0.164876 22:0.382283 23:33.3344 24:7.9542899 # Flowers/Shape4/shape4-012.ppm
4.3924781334231168322323880077139e-09 5:11490.3 6:3.48454 7:106 13:8829.7305 14:2956.4099 17:0.469697 18:12.75 19:0.29333299 20:0.65530002 21:0.21368399 22:0.76845098 23:9.5903101 24:3.7307701 # Flowers/Shape2/shape2-003.ppm
-4.3924781334231168322323880077139e-09 5:13047.9 6:3.3475201 7:119.861 13:9593.2695 14:2192.5701 17:0.5 18:27.1429 19:0.39603999 20:0.97013301 21:0.153905 22:0.735237 23:1.65636 24:1.1949199 # Flowers/Shape3/shape3-003.ppm
4.3924781334231168322323880077139e-09 5:12144.2 6:3.5 7:107.371 13:8794.0596 14:2975.6799 17:0.297297 18:16.3636 19:0.21518999 20:0.65366298 21:0.202114 22:0.72413403 23:11.6397 24:3.7142899 # Flowers/Shape2/shape2-024.ppm
-4.3924781334231168322323880077139e-09 5:10122.2 6:3.1858399 7:119.623 13:8893.1299 14:2298.27 17:0.43037999 18:25.9231 19:0.43037999 20:0.89900798 21:0.19677 22:0.87858099 23:2.2978201 24:1.25556 # Flowers/Shape3/shape3-005.ppm
4.3924781334231168322323880077139e-09 5:11814 6:3.35922 7:102.967 13:8840.6104 14:2967.9099 17:0.39189199 18:27.6154 19:0.28749999 20:0.769059 21:0.196863 22:0.74831599 23:1.29669 24:0.89306402 # Flowers/Shape2/shape2-066.ppm
-4.3924781334231168322323880077139e-09 5:10564.1 6:3.3494 7:106.944 13:8843.3496 14:3158.4299 17:0.296875 18:28.9167 19:0.18571401 20:0.54305899 21:0.244323 22:0.83711702 23:9.3588495 24:3.5827301 # Flowers/Shape5/shape5-010.ppm
4.3924781334231168322323880077139e-09 5:11809.1 6:3.2745099 7:108.069 13:8842.0098 14:2965.47 17:0.30769199 18:27.4615 19:0.2 20:0.76258999 21:0.196409 22:0.74874401 23:1.37297 24:0.30538899 # Flowers/Shape2/shape2-086.ppm
-4.3924781334231168322323880077139e-09 5:16223.9 6:3.8407099 7:118.629 13:7513.5298 14:3200.3601 17:0.50666702 18:21 19:0.22826099 20:0.97983801 21:0.133379 22:0.46311399 23:11.4498 24:4.947 # Flowers/Shape3/shape3-012.ppm
4.3924781334231168322323880077139e-09 5:12720.9 6:3.51402 7:106.067 13:8779.0195 14:2716.47 17:0.48611099 18:16.5455 19:0.244186 20:0.66670102 21:0.192871 22:0.690126 23:1.2594301 24:0.85372299 # Flowers/Shape2/shape2-064.ppm
-4.3924781334231168322323880077139e-09 5:11169 6:3.575 7:104.184 13:8587.3799 14:3349.24 17:0.355932 18:17.105301 19:0.23076899 20:0.58352298 21:0.2314 22:0.76885903 23:4.7284598 24:2.7972 # Flowers/Shape5/shape5-004.ppm
4.3924781334231168322323880077139e-09 5:12784.2 6:3.5999999 7:104.292 13:8786.1797 14:2828.4199 17:0.369863 18:19.210501 19:0.219512 20:0.64431202 21:0.19212399 22:0.68726999 23:3.1200199 24:1.94444 # Flowers/Shape2/shape2-044.ppm
-4.3924781334231168322323880077139e-09 5:10925.7 6:3.2181799 7:115.665 13:8374.8301 14:2428.8201 17:0.32530099 18:9.9428596 19:0.25 20:0.90883303 21:0.18055899 22:0.76652902 23:0.29102999 24:0.62146902 # Flowers/Shape3/shape3-018.ppm
4.3924781334231168322323880077139e-09 5:12756.9 6:3.4054101 7:109.056 13:8812.4297 14:2786.45 17:0.405063 18:35.400002 19:0.23333301 20:0.77426201 21:0.18238699 22:0.690799 23:1.46118 24:0.29365101 # Flowers/Shape2/shape2-046.ppm
-4.3924781334231168322323880077139e-09 5:13135.4 6:3.7471299 7:108.95 13:8300.5801 14:3595.8501 17:0.42623001 18:19.2353 19:0.191781 20:0.6426 21:0.198431 22:0.63192302 23:8.7367296 24:3.4693301 # Flowers/Shape5/shape5-013.ppm
4.3924781334231168322323880077139e-09 5:12686.5 6:3.41593 7:105.143 13:8853.6299 14:2596.1899 17:0.37804899 18:17 19:0.22826099 20:0.66597599 21:0.19409101 22:0.69787598 23:1.48234 24:0.87823802 # Flowers/Shape2/shape2-084.ppm
-4.3924781334231168322323880077139e-09 5:15135.2 6:3.88889 7:104.912 13:7877.6299 14:4004.23 17:0.45161301 18:23.9231 19:0.16883101 20:0.65786201 21:0.182907 22:0.52048498 23:11.4869 24:4.3714299 # Flowers/Shape5/shape5-018.ppm
4.3924781334231168322323880077139e-09 5:12998.8 6:3.5478301 7:108.416 13:8852.4404 14:2701.72 17:0.575342 18:25.5 19:0.277778 20:0.77842402 21:0.179047 22:0.68101698 23:1.42445 24:0.281863 # Flowers/Shape2/shape2-026.ppm
-4.3924781334231168322323880077139e-09 5:11296.1 6:3.63415 7:106.56 13:8116.0298 14:3345.26 17:0.366667 18:13.6957 19:0.18840601 20:0.62454998 21:0.22031599 22:0.71848297 23:8.2980404 24:4.1275201 # Flowers/Shape5/shape5-009.ppm
4.3924781334231168322323880077139e-09 5:13738.8 6:3.5344801 7:103.837 13:9038.9502 14:2656.3899 17:0.46835399 18:32.111099 19:0.27472499 20:0.71675903 21:0.179735 22:0.65791202 23:1.70775 24:1.69756 # Flowers/Shape2/shape2-025.ppm
-4.3924781334231168322323880077139e-09 5:10994.6 6:3.68293 7:105.914 13:7958.6499 14:2938.53 17:0.38983101 18:29.6364 19:0.17142899 20:0.61886102 21:0.209406 22:0.72386801 23:5.6972499 24:3.25828 # Flowers/Shape5/shape5-008.ppm
4.3924781334231168322323880077139e-09 5:12405.7 6:3.51402 7:100.532 13:9203.8799 14:2802.1799 17:0.407895 18:14.72 19:0.320988 20:0.69680703 21:0.19897699 22:0.74190998 23:1.70523 24:1.42287 # Flowers/Shape2/shape2-065.ppm
-4.3924781334231168322323880077139e-09 5:10203.8 6:3.2792799 7:121.984 13:7738.9502 14:2170.5801 17:0.405063 18:20.1875 19:0.337349 20:0.96216798 21:0.174556 22:0.758439 23:1.05512 24:0.91483498 # Flowers/Shape3/shape3-007.ppm
4.3924781334231168322323880077139e-09 5:11738.4 6:3.32039 7:101.301 13:9518.6602 14:2996.5 17:0.32051301 18:25.799999 19:0.17045499 20:0.60265398 21:0.232189 22:0.81089699 23:1.35875 24:0.90350902 # Flowers/Shape2/shape2-080.ppm
-4.3924781334231168322323880077139e-09 5:10438.4 6:3.37255 7:114.091 13:7558.6699 14:2615.54 17:0.5 18:24.4167 19:0.378378 20:0.96189898 21:0.181402 22:0.72412401 23:2.4322801 24:1.48256 # Flowers/Shape3/shape3-004.ppm
4.3924781334231168322323880077139e-09 5:11738.4 6:3.32039 7:101.301 13:9518.6602 14:2996.5 17:0.32051301 18:25.799999 19:0.17045499 20:0.60265398 21:0.232189 22:0.81089699 23:1.35875 24:0.90350902 # Flowers/Shape2/shape2-081.ppm
-4.3924781334231168322323880077139e-09 5:11335.1 6:3.45455 7:117.737 13:7268.3501 14:2781.99 17:0.47761199 18:17.2353 19:0.2375 20:0.96946597 21:0.167484 22:0.64122403 23:0.88534099 24:1.15789 # Flowers/Shape3/shape3-016.ppm
4.3924781334231168322323880077139e-09 5:12134.2 6:3.3675201 7:104.238 13:9396.7305 14:2534.6699 17:0.5 18:15.04 19:0.32954499 20:0.70615202 21:0.19791999 22:0.7744 23:2.1863899 24:1.4847701 # Flowers/Shape2/shape2-002.ppm
-4.3924781334231168322323880077139e-09 5:10718.5 6:3.3396201 7:114.795 13:7335.2598 14:2372.6201 17:0.413333 18:43.200001 19:0.29268301 20:0.96703303 21:0.170073 22:0.68435401 23:0.89509201 24:1.19774 # Flowers/Shape3/shape3-013.ppm
4.3924781334231168322323880077139e-09 5:12523.8 6:3.3599999 7:110.958 13:9404.6396 14:3104.01 17:0.35135099 18:25.133301 19:0.17647099 20:0.606695 21:0.217445 22:0.75093901 23:1.38557 24:1.19048 # Flowers/Shape2/shape2-019.ppm
-4.3924781334231168322323880077139e-09 5:10805.1 6:3.5 7:104.886 13:7333.6299 14:3012.8701 17:0.44827601 18:29.25 19:0.2 20:0.63980502 21:0.218931 22:0.67872202 23:7.7119799 24:3.7142899 # Flowers/Shape5/shape5-007.ppm
4.3924781334231168322323880077139e-09 5:12523.8 6:3.3599999 7:110.958 13:9404.6396 14:3104.01 17:0.35135099 18:25.133301 19:0.17647099 20:0.606695 21:0.217445 22:0.75093901 23:1.38557 24:1.19048 # Flowers/Shape2/shape2-021.ppm
-4.3924781334231168322323880077139e-09 5:9469.7598 6:3.4814799 7:109.368 13:7459.4302 14:2817.1399 17:0.42105299 18:20.133301 19:0.208955 20:0.66574198 21:0.25068301 22:0.78771102 23:10.0644 24:4.0212798 # Flowers/Shape5/shape5-016.ppm
4.3924781334231168322323880077139e-09 5:12923.5 6:3.4955001 7:104.906 13:9229.7002 14:2694.8101 17:0.47999999 18:18.35 19:0.29069799 20:0.697065 21:0.19080099 22:0.71417803 23:1.51087 24:1.14433 # Flowers/Shape2/shape2-085.ppm
-4.3924781334231168322323880077139e-09 5:12900.8 6:4.05479 7:110.466 13:6011.6499 14:3970.1201 17:0.25862101 18:16.4286 19:0.17741901 20:0.83196098 21:0.17634501 22:0.46599001 23:14.6361 24:4.4391899 # Flowers/Shape1/shape1-012.ppm
4.3924781334231168322323880077139e-09 5:12262.8 6:3.3761499 7:110.375 13:9708.3398 14:2679.48 17:0.415584 18:14.9615 19:0.26744199 20:0.64098901 21:0.205102 22:0.79169202 23:2.0682199 24:1.48098 # Flowers/Shape2/shape2-083.ppm
-4.3924781334231168322323880077139e-09 5:10551.4 6:3.4705901 7:116.353 13:6854.21 14:2412.72 17:0.47826099 18:53.599998 19:0.32467499 20:0.97915 21:0.169958 22:0.64960402 23:1.02084 24:1.15254 # Flowers/Shape3/shape3-008.ppm
4.3924781334231168322323880077139e-09 5:12903.5 6:3.51402 7:106.126 13:9454.7402 14:2949.1799 17:0.44594601 18:27.2143 19:0.188889 20:0.61604899 21:0.211189 22:0.73272401 23:0.613581 24:0.85372299 # Flowers/Shape2/shape2-040.ppm
-4.3924781334231168322323880077139e-09 5:9398.3604 6:3.7026999 7:109.15 13:7349.3301 14:2888.76 17:0.57446802 18:18.625 19:0.27586201 20:0.50646901 21:0.262954 22:0.78197998 23:2.3011999 24:1.62044 # Flowers/Shape5/shape5-015.ppm
4.3924781334231168322323880077139e-09 5:12903.5 6:3.51402 7:106.126 13:9454.7402 14:2949.1799 17:0.44594601 18:27.2143 19:0.188889 20:0.61604899 21:0.211189 22:0.73272401 23:0.613581 24:0.85372299 # Flowers/Shape2/shape2-041.ppm
-4.3924781334231168322323880077139e-09 5:10742.4 6:3.9166701 7:106.329 13:6699.98 14:3676.55 17:0.53191501 18:31.125 19:0.2 20:0.648238 21:0.223819 22:0.62369502 23:13.1387 24:3.8297901 # Flowers/Shape1/shape1-008.ppm
4.3924781334231168322323880077139e-09 5:12599.2 6:3.30357 7:109.725 13:9695.6504 14:2638.5801 17:0.41772199 18:13.0345 19:0.244444 20:0.64992499 21:0.199683 22:0.76954597 23:2.1002901 24:1.2108099 # Flowers/Shape2/shape2-023.ppm
-4.3924781334231168322323880077139e-09 5:8964.5996 6:3.4473701 7:103.882 13:7393.0498 14:2807.75 17:0.46153799 18:26.111099 19:0.26666701 20:0.58838397 21:0.253681 22:0.82469398 23:4.87393 24:2.6106901 # Flowers/Shape5/shape5-023.ppm
4.3924781334231168322323880077139e-09 5:13401.6 6:3.5873001 7:103.27 13:9399.7695 14:2331.21 17:0.46511599 18:15.52 19:0.27272701 20:0.703242 21:0.17893299 22:0.70139098 23:2.2653501 24:1.9513299 # Flowers/Shape2/shape2-043.ppm
-4.3924781334231168322323880077139e-09 5:8413.9297 6:3.3698599 7:119.659 13:7385.0298 14:2715.6799 17:0.403846 18:27.5833 19:0.216667 20:0.39077401 21:0.330798 22:0.87771398 23:22.030701 24:5.0447202 # Flowers/Shape4/shape4-014.ppm
4.3924781334231168322323880077139e-09 5:14127 6:3.6134501 7:104.643 13:9228.1797 14:2543 17:0.48750001 18:15.7917 19:0.265957 20:0.70170999 21:0.175043 22:0.65323001 23:1.87902 24:1.10698 # Flowers/Shape2/shape2-004.ppm
-4.3924781334231168322323880077139e-09 5:9248.2002 6:3.68571 7:105.617 13:6887.1201 14:3110.47 17:0.42857099 18:15.7647 19:0.186441 20:0.53583401 21:0.26533601 22:0.744699 23:2.8371 24:2.1705401 # Flowers/Shape5/shape5-001.ppm
4.3924781334231168322323880077139e-09 5:14388.9 6:3.5905499 7:102.195 13:9220.46 14:2425.72 17:0.42696601 18:16.565201 19:0.30927801 20:0.71753299 21:0.171479 22:0.64080501 23:1.87015 24:1.94956 # Flowers/Shape2/shape2-045.ppm
-4.3924781334231168322323880077139e-09 5:10303.7 6:3.8209 7:112.175 13:6352.27 14:3544.22 17:0.48888901 18:10.68 19:0.196429 20:0.67789102 21:0.22490799 22:0.61650199 23:6.5558 24:2.8789101 # Flowers/Shape5/shape5-012.ppm
4.3924781334231168322323880077139e-09 5:13994 6:3.48276 7:105.427 13:9481.4004 14:2738.47 17:0.36470601 18:17.4091 19:0.195876 20:0.62070799 21:0.194554 22:0.67753202 23:0.83631402 24:0.861386 # Flowers/Shape2/shape2-061.ppm
-4.3924781334231168322323880077139e-09 5:7409.3701 6:3.25424 7:113.714 13:7736.3599 14:3263.8601 17:0.311111 18:11.1724 19:0.28260899 20:0.356516 21:0.392378 22:1.04413 23:16.266899 24:5.53125 # Flowers/Shape4/shape4-013.ppm
4.3924781334231168322323880077139e-09 5:12415.1 6:3.44348 7:104.498 13:10712 14:2614.8701 17:0.47435901 18:16.959999 19:0.26373601 20:0.55625403 21:0.22543199 22:0.86282301 23:6.4024301 24:2.32323 # Flowers/Shape2/shape2-058.ppm
-4.3924781334231168322323880077139e-09 5:7383.3501 6:3.64516 7:103.463 13:7628.9502 14:2883.1001 17:0.51219499 18:12.88 19:0.21568599 20:0.49302399 21:0.307704 22:1.03326 23:3.92276 24:1.6460201 # Flowers/Shape5/shape5-002.ppm
4.3924781334231168322323880077139e-09 5:15266.7 6:3.42857 7:108.366 13:9845.2402 14:3484.9299 17:0.28735599 18:21.3158 19:0.142857 20:0.60424203 21:0.199688 22:0.64488298 23:0.15234999 24:0.58333302 # Flowers/Shape2/shape2-099.ppm
-4.3924781334231168322323880077139e-09 5:9195.96 6:3.63077 7:111.655 13:6834.9102 14:3712.6201 17:0.47727299 18:20.7143 19:0.203704 20:0.703978 21:0.243375 22:0.74325103 23:4.5093598 24:2.4788101 # Flowers/Shape5/shape5-014.ppm
4.3924781334231168322323880077139e-09 5:12645 6:3.44068 7:102.789 13:10765.1 14:2499.3601 17:0.47499999 18:14.8929 19:0.29670301 20:0.54977 21:0.220935 22:0.85132802 23:3.80229 24:1.4532 # Flowers/Shape2/shape2-038.ppm
-4.3924781334231168322323880077139e-09 5:7474.9702 6:3.4461501 7:112.296 13:7331.8101 14:2717.03 17:0.41304299 18:31.444401 19:0.27451 20:0.343483 21:0.37662399 22:0.98084903 23:13.9907 24:4.9330401 # Flowers/Shape5/shape5-017.ppm
4.3924781334231168322323880077139e-09 5:12827.6 6:3.49123 7:100.173 13:10810.9 14:2658.0801 17:0.42500001 18:16.84 19:0.29545501 20:0.56042302 21:0.218374 22:0.84278297 23:2.2881701 24:2.0050299 # Flowers/Shape2/shape2-098.ppm
-4.3924781334231168322323880077139e-09 5:8346.8604 6:3.6896601 7:108.474 13:6303.9702 14:3382.4399 17:0.34883699 18:16.3333 19:0.208333 20:0.56213897 21:0.26298299 22:0.75525099 23:12.7143 24:4.0654202 # Flowers/Shape5/shape5-005.ppm
4.3924781334231168322323880077139e-09 5:13684.8 6:3.4677401 7:104.094 13:10647 14:2430.6101 17:0.47619 18:20.2353 19:0.31914899 20:0.55901098 21:0.204509 22:0.77801502 23:4.1993699 24:2.0186 # Flowers/Shape2/shape2-078.ppm
-2.0594773485428497883202580975848e-09 5:8642.5898 6:3.63077 7:108.994 13:6227.6899 14:3675.5701 17:0.444444 18:17.9231 19:0.160714 20:0.82716101 21:0.234568 22:0.720581 23:14.6679 24:1.65254 # Flowers/Shape1/shape1-015.ppm
4.3924781334231168322323880077139e-09 5:13701.7 6:3.4761901 7:102.949 13:10798.9 14:2409.75 17:0.44827601 18:16.6154 19:0.25999999 20:0.56410301 21:0.204092 22:0.78814101 23:4.0884099 24:2.3013699 # Flowers/Shape2/shape2-017.ppm
