SVM-light Version V6.02
0 # kernel type
3 # kernel parameter -d 
1 # kernel parameter -g 
1 # kernel parameter -s 
1 # kernel parameter -r 
empty# kernel parameter -u 
3 # highest feature index 
10 # number of training documents 
8 # number of support vectors plus 1 
0.99765046 # threshold b, each following line is a SV (starting with alpha*y)
-0.29639899952805004446076964086387 1:0.59039301 2:0.71496898 3:0.70125198 # shape5-001
1.2565328480267570210315852818894 1:0.39291301 2:0.30172101 3:0.51805902 # shape1-000
-0.23167000550541061443254875484854 1:0.46245301 2:0.51153499 3:0.54871601 # shape5-000
1.2565328480267570210315852818894 1:0.43066201 2:0.36544099 3:0.50952202 # shape1-001
-0.034239037081293943742821284104139 1:0.139328 2:0.281488 3:0.148112 # shape4-001
-1.2565328480267570210315852818894 1:0.438122 2:0.277237 3:0.52829802 # shape3-000
-0.69422480591200397270768007729203 1:0.341438 2:0.22221 3:0.36610001 # shape3-001
