SVM-light Version V6.02
0 # kernel type
3 # kernel parameter -d 
1 # kernel parameter -g 
1 # kernel parameter -s 
1 # kernel parameter -r 
empty# kernel parameter -u 
11 # highest feature index 
36 # number of training documents 
32 # number of support vectors plus 1 
0.99116123 # threshold b, each following line is a SV (starting with alpha*y)
-0.30419145854959012131857321037387 1:0.25474501 2:0.27208599 3:0.25422999 4:0.47025099 5:0.23566499 6:0.77923501 7:0.76183701 8:0.183155 9:0.46875 10:0.229947 11:0.26315799 # shape1-004
0.30419145854959012131857321037387 1:0.308164 2:0.231231 3:0.230854 4:0.43953201 5:0.31634501 6:0.89412498 7:0.842538 8:0.071261898 9:0.25 10:0.28342199 11:0.663158 # shape3-000
-0.30419145854959012131857321037387 1:0.60942698 2:0.63907099 3:0.63185197 4:0.75798202 5:0.67153102 6:0.864829 7:0.791336 8:0.027309 9:0.125 10:0.63636398 11:0.30526301 # shape2-004
0.30419145854959012131857321037387 1:0.74678999 2:0.58710998 3:0.60684299 4:0.72013497 5:0.77525902 6:0.88947397 7:0.80984497 8:0.0331981 9:0.1875 10:0.71657801 11:0.37894699 # shape3-011
-0.30419145854959012131857321037387 1:0.59722102 2:0.66183603 3:0.61530203 4:0.736148 5:0.57680303 6:0.80597103 7:0.788275 8:0.0316719 9:0.15625 10:0.62566799 11:0.347368 # shape2-002
0.30419145854959012131857321037387 1:0.236003 2:0.17794 3:0.18503299 4:0.389483 5:0.193092 6:0.57192099 7:0.94597399 8:0.00403979 9:0.0625 10:0.41176501 11:0.61052603 # shape3-001
-0.30419145854959012131857321037387 1:0.29345599 2:0.23351499 3:0.25124201 4:0.47225201 5:0.28836301 6:0.87756699 7:0.81219798 8:0.308119 9:0.5625 10:0.224599 11:0.40000001 # shape1-000
0.30419145854959012131857321037387 1:0.91128802 2:0.722498 3:0.70158201 4:0.777349 5:0.92344397 6:0.941652 7:0.89052802 8:0.303433 9:0.53125 10:0.65240598 11:0.72631598 # shape3-015
-0.30419145854959012131857321037387 1:0.72967303 2:0.78444999 3:0.83269602 4:0.86475599 5:0.65469199 6:0.74658698 7:0.81152999 8:0.0112216 9:0.09375 10:0.71657801 11:0.24210501 # shape2-001
0.30419145854959012131857321037387 1:0.35652199 2:0.291767 3:0.303031 4:0.49603999 5:0.30667201 6:0.68468398 7:0.95196801 8:0.090509199 9:0.1875 10:0.42245999 11:0.673684 # shape3-010
-0.30419145854959012131857321037387 1:0.30492201 2:0.29881299 3:0.30430099 4:0.52800202 5:0.32676399 6:0.88509297 7:0.78578502 8:0.19047999 9:0.5625 10:0.28342199 11:0.273684 # shape1-001
0.30419145854959012131857321037387 1:0.52300799 2:0.41258499 3:0.42324901 4:0.61051297 5:0.481159 6:0.76248801 7:0.90462101 8:0.0301817 9:0.125 10:0.60427803 11:0.60000002 # shape3-005
-0.30419145854959012131857321037387 1:0.63413501 2:0.800614 3:0.75036401 4:0.83402199 5:0.631993 6:0.83438402 7:0.80784798 8:0.0140764 9:0.09375 10:0.58288801 11:0.29473701 # shape2-000
0.30419145854959012131857321037387 1:0.50647998 2:0.369542 3:0.381042 4:0.55877101 5:0.50950801 6:0.79929399 7:0.86810899 8:0.0121373 9:0.125 10:0.566845 11:0.61052603 # shape3-013
-0.30419145854959012131857321037387 1:0.264651 2:0.34988701 3:0.33427799 4:0.549299 5:0.24344701 6:0.78502399 7:0.82143199 8:0.0625 9:0.3125 10:0.26738 11:0.2 # shape1-003
0.30419145854959012131857321037387 1:0.72829199 2:0.51265198 3:0.54075801 4:0.66329497 5:0.771209 6:0.919222 7:0.89710301 8:0.20942301 9:0.59375 10:0.60427803 11:0.83157903 # shape3-012
-0.30419145854959012131857321037387 1:0.39744601 2:0.43515399 3:0.399744 4:0.59661901 5:0.36331001 6:0.903157 7:0.773458 8:0.151968 9:0.46875 10:0.28342199 11:0.326316 # shape1-002
0.30419145854959012131857321037387 1:0.429205 2:0.307713 3:0.321915 4:0.51333898 5:0.43264499 6:0.88318503 7:0.857898 8:0.078210302 9:0.25 10:0.37967899 11:0.80000001 # shape3-009
-0.30419145854959012131857321037387 1:0.438483 2:0.58429199 3:0.59535199 4:0.75217098 5:0.43961599 6:0.88212597 7:0.79870099 8:0.0504345 9:0.25 10:0.37433201 11:0.30526301 # shape5-001
0.30419145854959012131857321037387 1:0.461 2:0.339122 3:0.34608999 4:0.53164297 5:0.41712901 6:0.85998899 7:0.86032802 8:0.25 9:0.40625 10:0.31550801 11:0.884211 # shape3-006
-0.30419145854959012131857321037387 1:0.57751602 2:0.59161001 3:0.64117301 4:0.75260502 5:0.54619402 6:0.83397698 7:0.801597 8:0.16204 9:0.40625 10:0.51871699 11:0.25263199 # shape2-003
0.30419145854959012131857321037387 1:0.537265 2:0.39780101 3:0.40636 4:0.580414 5:0.49619001 6:0.80717403 7:0.86278301 8:0.036358099 9:0.15625 10:0.54545498 11:0.81052601 # shape3-004
-0.30419145854959012131857321037387 1:0.341398 2:0.45331201 3:0.425953 4:0.62739402 5:0.361067 6:0.84210998 7:0.839742 8:0.151968 9:0.4375 10:0.28876999 11:0.23157901 # shape5-000
0.30419145854959012131857321037387 1:0.495603 2:0.34825701 3:0.36824501 4:0.54968601 5:0.501562 6:0.83063799 7:0.87989098 8:0.0140764 9:0.125 10:0.54545498 11:0.81052601 # shape3-008
-0.30419145854959012131857321037387 1:0.41963801 2:0.56809598 3:0.514575 4:0.68887901 5:0.38312 6:0.87901801 7:0.77304602 8:0.19047999 9:0.375 10:0.29411799 11:0.24210501 # shape5-003
0.30419145854959012131857321037387 1:0.33174399 2:0.241541 3:0.249414 4:0.45089799 5:0.30107999 6:0.75015903 7:0.892609 8:0.0086900303 9:0.0625 10:0.358289 11:0.81052601 # shape3-002
-0.30419145854959012131857321037387 1:0.359981 2:0.58877301 3:0.53120601 4:0.69638801 5:0.35097 6:0.87242001 7:0.78241497 8:0.064636603 9:0.1875 10:0.33155099 11:0.2 # shape5-002
0.28697939943774430915368611749727 1:0.92632103 2:0.66025299 3:0.68282998 4:0.76262897 5:0.93927401 6:0.94098097 7:0.88663399 8:0.409383 9:0.65625 10:0.62566799 11:1 # shape3-014
-0.30419145854959012131857321037387 1:0.53959101 2:0.765571 3:0.67275703 4:0.79221398 5:0.530922 6:0.85562801 7:0.78786802 8:0.090509199 9:0.3125 10:0.427807 11:0.26315799 # shape5-004
0.30419145854959012131857321037387 1:0.48520699 2:0.35610199 3:0.36688301 4:0.545959 5:0.48504001 6:0.78485101 7:0.92247403 8:0.0130889 9:0.09375 10:0.59358299 11:0.80000001 # shape3-007
0.017212059111845423586828474071808 1:0.62258703 2:0.44361401 3:0.466896 4:0.61553901 5:0.62023401 6:0.80118299 7:0.90641803 8:0.0207555 9:0.125 10:0.75401098 11:0.83157903 # shape3-003
