SVM-light Version V6.02
0 # kernel type
3 # kernel parameter -d 
1 # kernel parameter -g 
1 # kernel parameter -s 
1 # kernel parameter -r 
empty# kernel parameter -u 
24 # highest feature index 
194 # number of training documents 
177 # number of support vectors plus 1 
0.8694667 # threshold b, each following line is a SV (starting with alpha*y)
-5.8446507579764107330882745138662e-09 5:4957.6802 6:3.25581 7:100.742 13:4719.4902 14:2941.78 17:0.34375 18:11.8125 19:0.30303001 20:0.72900498 21:0.30944699 22:0.95195502 23:10.8939 24:4.6071401 # Flowers/Shape1/shape1-004.ppm
5.8446507579764107330882745138662e-09 5:6654.96 6:3.7358501 7:111.414 13:4001.4299 14:2887.21 17:0.432432 18:20.5 19:0.26190501 20:0.97117001 21:0.21546701 22:0.60127002 23:4.3186998 24:2.1414101 # Flowers/Shape3/shape3-000.ppm
-5.8446507579764107330882745138662e-09 5:21037 6:4.1782198 7:114.776 13:7482.0698 14:4612.3901 17:0.246914 18:28.799999 19:0.134831 20:0.85445601 21:0.135003 22:0.35566199 23:7.3670001 24:3.82938 # Flowers/Shape1/shape1-011.ppm
5.8446507579764107330882745138662e-09 5:3917.1399 6:2.4266701 7:124.62 13:6332.8301 14:1559.97 17:0.59574503 18:12.35 19:0.470588 20:0.92659801 21:0.32455099 22:1.61669 23:0.39471999 24:1.2362601 # Flowers/Shape3/shape3-062.ppm
-5.8446507579764107330882745138662e-09 5:5015.1299 6:3.34694 7:106.183 13:5973.6099 14:2636.54 17:0.40000001 18:16.5 19:0.441176 20:0.56524497 21:0.35819301 22:1.19112 23:7.6259599 24:2.9877999 # Flowers/Shape1/shape1-024.ppm
5.8446507579764107330882745138662e-09 5:11208 6:3.5051501 7:112.453 13:7227.8799 14:2850.6001 17:0.405797 18:48.166698 19:0.24359 20:0.969441 21:0.16977599 22:0.64488602 23:0.92685199 24:1.14118 # Flowers/Shape3/shape3-037.ppm
-5.8446507579764107330882745138662e-09 5:20191.199 6:3.5326099 7:109.303 13:13252.9 14:2695.98 17:0.41538501 18:18 19:0.251701 20:0.84005499 21:0.14175899 22:0.65636897 23:3.39798 24:1.69846 # Flowers/Shape2/shape2-012.ppm
5.8446507579764107330882745138662e-09 5:5380.3501 6:3.5122001 7:115.883 13:4010.1101 14:3645.5701 17:0.51851898 18:27.6667 19:0.366667 20:0.949027 21:0.26657999 22:0.74532503 23:3.2065899 24:1.42361 # Flowers/Shape3/shape3-020.ppm
5.8446507579764107330882745138662e-09 5:16456.801 6:3.6417899 7:106.808 13:9080.04 14:2779.99 17:0.50561798 18:17.4167 19:0.229358 20:0.897084 21:0.14288101 22:0.55175197 23:2.2883999 24:1.37295 # Flowers/Shape3/shape3-052.ppm
5.8446507579764107330882745138662e-09 5:11335.1 6:3.45455 7:117.737 13:7268.3501 14:2781.99 17:0.47761199 18:17.2353 19:0.2375 20:0.96946597 21:0.167484 22:0.64122403 23:0.88534099 24:1.15789 # Flowers/Shape3/shape3-016.ppm
-5.8446507579764107330882745138662e-09 5:20618 6:4.1414099 7:109.804 13:7893.52 14:4562.1602 17:0.2375 18:21.6667 19:0.151163 20:0.81715697 21:0.14665499 22:0.382846 23:7.1643901 24:2.8975599 # Flowers/Shape1/shape1-014.ppm
5.8446507579764107330882745138662e-09 5:4062.0701 6:2.3896101 7:125.092 13:6386.0698 14:1521.95 17:0.45282999 18:14.8333 19:0.50980401 20:0.92794001 21:0.31280801 22:1.57212 23:0.464443 24:0.83695698 # Flowers/Shape3/shape3-001.ppm
-5.8446507579764107330882745138662e-09 5:5454.2798 6:3.55 7:104.569 13:4685.2598 14:3722.5601 17:0.29032299 18:15.1667 19:0.25 20:0.75634599 21:0.30380601 22:0.85900801 23:5.9547901 24:3.6619699 # Flowers/Shape1/shape1-017.ppm
5.8446507579764107330882745138662e-09 5:11073.1 6:3.39048 7:116.315 13:7497.98 14:2573.74 17:0.40000001 18:48 19:0.296296 20:0.96942198 21:0.17142101 22:0.67713201 23:3.8279099 24:2.65449 # Flowers/Shape3/shape3-085.ppm
-5.8446507579764107330882745138662e-09 5:18262.5 6:3.2888899 7:109.85 13:14855.8 14:2447.79 17:0.44 18:13.7674 19:0.30434799 20:0.72898299 21:0.156552 22:0.81346101 23:2.48474 24:1.21622 # Flowers/Shape2/shape2-015.ppm
5.8446507579764107330882745138662e-09 5:6091.52 6:3.6521699 7:113.164 13:4018.6101 14:3311.8601 17:0.39393899 18:83.5 19:0.277778 20:0.95981598 21:0.236114 22:0.659706 23:4.2582102 24:2.7381001 # Flowers/Shape3/shape3-041.ppm
-5.8446507579764107330882745138662e-09 5:3000.4199 6:3.0555601 7:121.257 13:3925.8799 14:1792.9301 17:0.384615 18:11.0714 19:0.33333299 20:0.40345901 21:0.53751701 22:1.30845 23:7.8656702 24:4.25455 # Flowers/Shape4/shape4-001.ppm
5.8446507579764107330882745138662e-09 5:14417.5 6:3.7281599 7:118.452 13:7502.2002 14:3506.3301 17:0.560606 18:20.2857 19:0.240964 20:0.974195 21:0.150389 22:0.52035499 23:10.8413 24:3.21875 # Flowers/Shape3/shape3-073.ppm
-5.8446507579764107330882745138662e-09 5:19787 6:4.0229902 7:113.236 13:7564.2202 14:5249.0498 17:0.225352 18:80.666702 19:0.12987 20:0.66908199 21:0.164876 22:0.382283 23:33.3344 24:7.9542899 # Flowers/Shape4/shape4-012.ppm
5.8446507579764107330882745138662e-09 5:4434 6:2.60976 7:121.045 13:6353.6001 14:1402.1801 17:0.67346901 18:11.7727 19:0.49090901 20:0.92590302 21:0.28428999 22:1.43293 23:0.64750397 24:1.1495301 # Flowers/Shape3/shape3-022.ppm
-5.8446507579764107330882745138662e-09 5:3650.78 6:2.7451 7:132.23599 13:6616.1401 14:1783.59 17:0.59375 18:10.7826 19:0.30769199 20:0.304176 21:0.56413901 22:1.81225 23:8.8791304 24:4.0071402 # Flowers/Shape4/shape4-004.ppm
5.8446507579764107330882745138662e-09 5:12861.9 6:3.3880601 7:119.525 13:9588.5303 14:2291.02 17:0.44086 18:19.631599 19:0.42553201 20:0.96466798 21:0.156058 22:0.74550003 23:1.77716 24:1.7709301 # Flowers/Shape3/shape3-024.ppm
-5.8446507579764107330882745138662e-09 5:18578.699 6:3.47191 7:106.173 13:12714.1 14:2289.0801 17:0.412698 18:14.6857 19:0.28057599 20:0.70517701 21:0.149969 22:0.68433398 23:0.79051697 24:0.28802601 # Flowers/Shape2/shape2-007.ppm
5.8446507579764107330882745138662e-09 5:4568.6201 6:2.61905 7:122.132 13:6359.5898 14:1391.33 17:0.527273 18:12.1818 19:0.47368401 20:0.93686301 21:0.27658299 22:1.39202 23:0.50804502 24:0.76363599 # Flowers/Shape3/shape3-042.ppm
-5.8446507579764107330882745138662e-09 5:3421.4099 6:3.1666701 7:123.628 13:3774.98 14:2084.54 17:0.33333299 18:36.75 19:0.285714 20:0.51669699 21:0.519867 22:1.10334 23:10.3824 24:4.1052599 # Flowers/Shape4/shape4-003.ppm
5.8446507579764107330882745138662e-09 5:15368.2 6:3.7757001 7:114 13:7521.8599 14:3354.2 17:0.407895 18:27.272699 19:0.229885 20:0.97533298 21:0.1406 22:0.489443 23:8.1007795 24:2.9133699 # Flowers/Shape3/shape3-053.ppm
-5.8446507579764107330882745138662e-09 5:19073.699 6:3.54795 7:109.683 13:11131.8 14:3401.1001 17:0.431373 18:59.166698 19:0.237288 20:0.81743997 21:0.150794 22:0.58362198 23:7.3166199 24:2.2548299 # Flowers/Shape2/shape2-011.ppm
5.8446507579764107330882745138662e-09 5:6091.2002 6:3.5652201 7:109.703 13:4006.47 14:3277.47 17:0.39393899 18:32.599998 19:0.31428599 20:0.95740998 21:0.23543701 22:0.65774697 23:3.22453 24:1.12195 # Flowers/Shape3/shape3-021.ppm
-5.8446507579764107330882745138662e-09 5:3349.52 6:3.3513501 7:121.149 13:4133.0898 14:2141.8701 17:0.68181801 18:55.333302 19:0.37037 20:0.42758301 21:0.51148802 22:1.23394 23:6.3891702 24:2.98387 # Flowers/Shape4/shape4-021.ppm
9.3862439962244909247072187678199e-10 5:17878.801 6:3.3173699 7:119.062 13:11410.5 14:2728.3899 17:0.43965501 18:29.5333 19:0.274809 20:0.98016 21:0.138586 22:0.63821399 23:0.19459499 24:0.30144399 # Flowers/Shape3/shape3-017.ppm
-5.8446507579764107330882745138662e-09 5:17434.9 6:3.19786 7:109.633 13:14334.1 14:2259.3401 17:0.41666701 18:16.5429 19:0.395522 20:0.781003 21:0.155572 22:0.82215202 23:0.67299902 24:0.93812698 # Flowers/Shape2/shape2-014.ppm
5.8446507579764107330882745138662e-09 5:6276.1802 6:3.73913 7:109.81 13:4001.5801 14:3309.8999 17:0.39393899 18:22.7143 19:0.31428599 20:0.96639103 21:0.22868299 22:0.63758302 23:3.64853 24:1.3372101 # Flowers/Shape3/shape3-061.ppm
-5.8446507579764107330882745138662e-09 5:6747.5698 6:3.86957 7:102.386 13:3790.6499 14:3182.28 17:0.48387101 18:31.200001 19:0.179487 20:0.85185701 21:0.228357 22:0.56177998 23:16.941601 24:5.16854 # Flowers/Shape1/shape1-020.ppm
5.8446507579764107330882745138662e-09 5:11084 6:3.0780101 7:119.563 13:10352.3 14:2009.76 17:0.43877599 18:34.333302 19:0.58427 20:0.95967299 21:0.174169 22:0.93398201 23:0.976978 24:0.64977002 # Flowers/Shape3/shape3-019.ppm
-5.8446507579764107330882745138662e-09 5:18501.199 6:3.47826 7:113.915 13:11287.5 14:2651.8899 17:0.38793099 18:23 19:0.28799999 20:0.797629 21:0.149854 22:0.61009598 23:3.4544799 24:1.725 # Flowers/Shape2/shape2-013.ppm
5.8446507579764107330882745138662e-09 5:5175.5601 6:2.8571401 7:121.527 13:6325.25 14:1295.01 17:0.78431398 18:14.6471 19:0.444444 20:0.94906902 21:0.24369401 22:1.22214 23:0.475481 24:0.69999999 # Flowers/Shape3/shape3-082.ppm
-5.8446507579764107330882745138662e-09 5:3349.52 6:3.3513501 7:121.149 13:4133.0898 14:2141.8701 17:0.68181801 18:55.333302 19:0.37037 20:0.42758301 21:0.51148802 22:1.23394 23:6.3891702 24:2.98387 # Flowers/Shape4/shape4-019.ppm
5.8446507579764107330882745138662e-09 5:13047.9 6:3.3475201 7:119.861 13:9593.2695 14:2192.5701 17:0.5 18:27.1429 19:0.39603999 20:0.97013301 21:0.153905 22:0.735237 23:1.65636 24:1.1949199 # Flowers/Shape3/shape3-003.ppm
-5.8446507579764107330882745138662e-09 5:17832.1 6:3.3333299 7:110.19 13:12867.3 14:2641.51 17:0.34482801 18:18.2414 19:0.238095 20:0.69833302 21:0.16062699 22:0.72157699 23:0.93242401 24:1.2 # Flowers/Shape2/shape2-010.ppm
5.8446507579764107330882745138662e-09 5:6072.3301 6:3.26667 7:121.213 13:5272.2202 14:2629.8301 17:0.463415 18:26 19:0.30434799 20:0.933267 21:0.24147899 22:0.86823702 23:0.63194299 24:0.306122 # Flowers/Shape3/shape3-063.ppm
-9.3862439962245033324164070632351e-10 5:3254.72 6:3.1428599 7:119.853 13:4536.23 14:2278.6499 17:0.296296 18:13.0714 19:0.40000001 20:0.378667 21:0.57646799 22:1.3937401 23:7.9634099 24:4.1363602 # Flowers/Shape4/shape4-002.ppm
5.8446507579764107330882745138662e-09 5:18130.1 6:3.8596499 7:117.491 13:8679.3799 14:3922.1599 17:0.44303799 18:22.0667 19:0.2 20:0.842897 21:0.152294 22:0.478728 23:8.8308601 24:3.1090901 # Flowers/Shape3/shape3-036.ppm
-5.8446507579764107330882745138662e-09 5:16471.5 6:3.6347799 7:105.525 13:9686.1504 14:3430.75 17:0.47435901 18:47.857101 19:0.18556701 20:0.61217302 21:0.18482301 22:0.58805299 23:1.8543299 24:1.92584 # Flowers/Shape2/shape2-018.ppm
5.8446507579764107330882745138662e-09 5:6451.46 6:2.86076 7:125.884 13:8091.1602 14:2240.95 17:0.75555599 18:6.9215698 19:0.16176499 20:0.85595399 21:0.25083899 22:1.25416 23:7.0669999 24:2.0973499 # Flowers/Shape3/shape3-010.ppm
-5.8446507579764107330882745138662e-09 5:6066.2998 6:3.6666701 7:107.402 13:3801.27 14:3469.5 17:0.40000001 18:31.200001 19:0.235294 20:0.84977502 21:0.25397199 22:0.62661999 23:15.5391 24:4.90909 # Flowers/Shape1/shape1-000.ppm
5.8446507579764107330882745138662e-09 5:11094.1 6:3.1079099 7:117.116 13:10342.3 14:2019.29 17:0.49462399 18:28.8571 19:0.57954502 20:0.95609999 21:0.173502 22:0.93223202 23:0.82301497 24:0.64351898 # Flowers/Shape3/shape3-080.ppm
-5.8446507579764107330882745138662e-09 5:15641.5 6:3.37255 7:111.766 13:12523.8 14:2583.26 17:0.48543701 18:8.1774197 19:0.342105 20:0.78322899 21:0.16752 22:0.800677 23:0.82210702 24:1.1860501 # Flowers/Shape2/shape2-008.ppm
5.8446507579764107330882745138662e-09 5:6451.7598 6:3.7142899 7:112.519 13:3999.97 14:3087.05 17:0.441176 18:17.6667 19:0.28947401 20:0.96086103 21:0.222389 22:0.61998099 23:3.7867401 24:1.07692 # Flowers/Shape3/shape3-081.ppm
-5.8446507579764107330882745138662e-09 5:3461.98 6:3.1666701 7:121.833 13:4480.77 14:2252.48 17:0.384615 18:16 19:0.33333299 20:0.38434201 21:0.54239202 22:1.2942801 23:9.3781204 24:4.1052599 # Flowers/Shape4/shape4-023.ppm
5.8446507579764107330882745138662e-09 5:16223.9 6:3.8407099 7:118.629 13:7513.5298 14:3200.3601 17:0.50666702 18:21 19:0.22826099 20:0.97983801 21:0.133379 22:0.46311399 23:11.4498 24:4.947 # Flowers/Shape3/shape3-012.ppm
-5.8446507579764107330882745138662e-09 5:15135.2 6:3.88889 7:104.912 13:7877.6299 14:4004.23 17:0.45161301 18:23.9231 19:0.16883101 20:0.65786201 21:0.182907 22:0.52048498 23:11.4869 24:4.3714299 # Flowers/Shape5/shape5-018.ppm
5.8446507579764107330882745138662e-09 5:6333.8301 6:3.13433 7:118.035 13:5265.0898 14:2458.6699 17:0.367347 18:17.4167 19:0.34 20:0.96768099 21:0.232246 22:0.83126497 23:0.61843699 24:0.63809502 # Flowers/Shape3/shape3-002.ppm
-5.8446507579764107330882745138662e-09 5:9684.9805 6:3.90769 7:106.815 13:4600.3799 14:2999.77 17:0.35416701 18:17.181801 19:0.18181799 20:0.86722398 21:0.179774 22:0.47500199 23:11.5462 24:4.6062999 # Flowers/Shape1/shape1-018.ppm
5.8446507579764107330882745138662e-09 5:10719 6:3.06569 7:117.922 13:10318.5 14:2049.29 17:0.37 18:37.727299 19:0.53932601 20:0.95563298 21:0.179682 22:0.962641 23:0.883017 24:0.978571 # Flowers/Shape3/shape3-060.ppm
-5.8446507579764107330882745138662e-09 5:15803.3 6:3.5539601 7:106.459 13:10955.8 14:2445.9199 17:0.37623799 18:15.4643 19:0.31132099 20:0.65337002 21:0.168052 22:0.69326001 23:2.48664 24:1.40688 # Flowers/Shape2/shape2-016.ppm
5.8446507579764107330882745138662e-09 5:6466.1099 6:3.2647099 7:117.247 13:5296.27 14:2335.72 17:0.38775501 18:22.1 19:0.33333299 20:0.93988597 21:0.226805 22:0.81908202 23:0.71151602 24:0.61261302 # Flowers/Shape3/shape3-043.ppm
-5.8446507579764107330882745138662e-09 5:3653.0701 6:3.1428599 7:117.747 13:4761.1899 14:2518.8601 17:0.40000001 18:23.75 19:0.346154 20:0.41093299 21:0.52293402 22:1.30334 23:10.3283 24:4.4545498 # Flowers/Shape4/shape4-016.ppm
5.8446507579764107330882745138662e-09 5:16309.1 6:3.7164199 7:107.091 13:9115.21 14:2767.3601 17:0.48888901 18:16.440001 19:0.27619001 20:0.895311 21:0.144052 22:0.55890203 23:2.09904 24:1.61446 # Flowers/Shape3/shape3-011.ppm
-5.8446507579764107330882745138662e-09 5:14289.6 6:3.57377 7:107.889 13:9476.04 14:2630.8401 17:0.45238101 18:17.0455 19:0.22 20:0.62487102 21:0.19089501 22:0.66314 23:0.746337 24:1.11927 # Flowers/Shape2/shape2-020.ppm
5.8446507579764107330882745138662e-09 5:7499.8398 6:2.6990299 7:122.92 13:8049.4102 14:1857.6801 17:0.430556 18:7.3260899 19:0.183908 20:0.92403698 21:0.216002 22:1.07328 23:8.5250397 24:3.70504 # Flowers/Shape3/shape3-091.ppm
-5.8446507579764107330882745138662e-09 5:12900.8 6:4.05479 7:110.466 13:6011.6499 14:3970.1201 17:0.25862101 18:16.4286 19:0.17741901 20:0.83196098 21:0.17634501 22:0.46599001 23:14.6361 24:4.4391899 # Flowers/Shape1/shape1-012.ppm
5.8446507579764107330882745138662e-09 5:11197.4 6:3.1048999 7:117.844 13:10331.2 14:1974.29 17:0.47422701 18:45.666698 19:0.53763402 20:0.96025401 21:0.17204399 22:0.92264003 23:0.91655999 24:0.644144 # Flowers/Shape3/shape3-040.ppm
-5.8446507579764107330882745138662e-09 5:15258.4 6:3.2349 7:107.231 13:12451.2 14:2501.79 17:0.41904801 18:15 19:0.366972 20:0.73566699 21:0.17029899 22:0.816019 23:0.32146901 24:0.92738599 # Flowers/Shape2/shape2-009.ppm
5.8446507579764107330882745138662e-09 5:8775.1396 6:3.59322 7:113.766 13:5064.3398 14:3879.9099 17:0.340909 18:12.5333 19:0.204082 20:0.96908802 21:0.197652 22:0.577124 23:11.2744 24:3.6179199 # Flowers/Shape3/shape3-006.ppm
-5.8446507579764107330882745138662e-09 5:3901.4099 6:3.2272699 7:115.735 13:5072.9902 14:1816.51 17:0.466667 18:15.5385 19:0.33333299 20:0.38892201 21:0.441475 22:1.3003 23:11.9143 24:5.2676101 # Flowers/Shape4/shape4-008.ppm
5.8446507579764107330882745138662e-09 5:16761.801 6:3.7142899 7:107.665 13:8831.7803 14:2813.75 17:0.47777799 18:141.5 19:0.25471699 20:0.90687901 21:0.139836 22:0.52689898 23:2.1615701 24:1.61538 # Flowers/Shape3/shape3-032.ppm
-5.8446507579764107330882745138662e-09 5:14127 6:3.6134501 7:104.643 13:9228.1797 14:2543 17:0.48750001 18:15.7917 19:0.265957 20:0.70170999 21:0.175043 22:0.65323001 23:1.87902 24:1.10698 # Flowers/Shape2/shape2-004.ppm
5.8446507579764107330882745138662e-09 5:7496.2798 6:2.6486499 7:125.348 13:8076.6401 14:1730.76 17:0.56338 18:7.0816302 19:0.168421 20:0.92934698 21:0.21581601 22:1.07742 23:9.4097404 24:2.26531 # Flowers/Shape3/shape3-031.ppm
-5.8446507579764107330882745138662e-09 5:8645.5303 6:3.7083299 7:106.792 13:4271.02 14:4188.6401 17:0.41176501 18:14.5 19:0.17073201 20:0.88491201 21:0.200349 22:0.49401399 23:22.969601 24:7.2809 # Flowers/Shape1/shape1-009.ppm
5.8446507579764107330882745138662e-09 5:9776.4697 6:3.14783 7:117.68 13:8925.9297 14:2265.5 17:0.41975299 18:22.5333 19:0.4375 20:0.89415801 21:0.20422199 22:0.91300201 23:1.60304 24:1.5884 # Flowers/Shape3/shape3-066.ppm
-5.8446507579764107330882745138662e-09 5:14940.4 6:3.36765 7:107.637 13:12181.9 14:2671 17:0.402062 18:25.947399 19:0.23636401 20:0.64065498 21:0.188421 22:0.815368 23:0.56927299 24:1.18777 # Flowers/Shape2/shape2-022.ppm
5.8446507579764107330882745138662e-09 5:6772.6001 6:3.32353 7:117.329 13:5323.3701 14:2377.3301 17:0.38775501 18:25.2222 19:0.33333299 20:0.95906103 21:0.216236 22:0.78601599 23:0.699063 24:0.60176998 # Flowers/Shape3/shape3-023.ppm
-5.8446507579764107330882745138662e-09 5:3864.46 6:3.1282101 7:118.361 13:4870.8398 14:2592.27 17:0.39285699 18:18.700001 19:0.39285699 20:0.40059301 21:0.52773702 22:1.26042 23:7.7562199 24:3.5163901 # Flowers/Shape4/shape4-017.ppm
5.8446507579764107330882745138662e-09 5:17502.801 6:3.85586 7:114.432 13:8264.4199 14:4026.29 17:0.441558 18:46 19:0.206522 20:0.91698402 21:0.14621399 22:0.47217801 23:8.7671204 24:3.11215 # Flowers/Shape3/shape3-076.ppm
-5.8446507579764107330882745138662e-09 5:13135.4 6:3.7471299 7:108.95 13:8300.5801 14:3595.8501 17:0.42623001 18:19.2353 19:0.191781 20:0.6426 21:0.198431 22:0.63192302 23:8.7367296 24:3.4693301 # Flowers/Shape5/shape5-013.ppm
5.8446507579764107330882745138662e-09 5:7500.2598 6:2.56881 7:127 13:8015.6201 14:1798.1801 17:0.34567899 18:11.3226 19:0.172043 20:0.94796097 21:0.215817 22:1.06871 23:8.8071203 24:3.11429 # Flowers/Shape3/shape3-051.ppm
-5.8446507579764107330882745138662e-09 5:10303.7 6:3.8209 7:112.175 13:6352.27 14:3544.22 17:0.48888901 18:10.68 19:0.196429 20:0.67789102 21:0.22490799 22:0.61650199 23:6.5558 24:2.8789101 # Flowers/Shape5/shape5-012.ppm
-5.8446507579764107330882745138662e-09 5:10742.4 6:3.9166701 7:106.329 13:6699.98 14:3676.55 17:0.53191501 18:31.125 19:0.2 20:0.648238 21:0.223819 22:0.62369502 23:13.1387 24:3.8297901 # Flowers/Shape1/shape1-008.ppm
5.8446507579764107330882745138662e-09 5:7708.1602 6:2.8118801 7:123.973 13:7986.5298 14:1876.46 17:0.50746298 18:8.6097603 19:0.16091999 20:0.917256 21:0.20983601 22:1.03611 23:8.9218998 24:3.2007 # Flowers/Shape3/shape3-071.ppm
5.8446507579764107330882745138662e-09 5:8484.1699 6:3.0537601 7:123.74 13:7732.1401 14:2553.54 17:0.38806 18:16.368401 19:0.38806 20:0.951446 21:0.209564 22:0.91136199 23:1.03467 24:0.98239398 # Flowers/Shape3/shape3-028.ppm
-5.8446507579764107330882745138662e-09 5:3478.9099 6:2.9523799 7:121.232 13:5460.2798 14:2062.3101 17:0.555556 18:24.888901 19:0.3125 20:0.37420601 21:0.54244602 22:1.56954 23:6.8382502 24:3.7258101 # Flowers/Shape4/shape4-018.ppm
5.8446507579764107330882745138662e-09 5:17603.4 6:3.8811901 7:117.43 13:7699.5498 14:4489.46 17:0.422535 18:23.153799 19:0.202381 20:0.97193801 21:0.14144 22:0.43739 23:18.820999 24:5.15306 # Flowers/Shape3/shape3-035.ppm
-5.8446507579764107330882745138662e-09 5:13701.7 6:3.4761901 7:102.949 13:10798.9 14:2409.75 17:0.44827601 18:16.6154 19:0.25999999 20:0.56410301 21:0.204092 22:0.78814101 23:4.0884099 24:2.3013699 # Flowers/Shape2/shape2-017.ppm
5.8446507579764107330882745138662e-09 5:7201.4902 6:3.3421099 7:114.792 13:5263.29 14:2148.1599 17:0.40740699 18:25.75 19:0.28813601 20:0.977593 21:0.202393 22:0.73085999 23:0.84237701 24:0.89763802 # Flowers/Shape3/shape3-083.ppm
-5.8446507579764107330882745138662e-09 5:13295.2 6:3.4862399 7:106.827 13:9329.3701 14:2888.8701 17:0.36250001 18:22.5882 19:0.19780201 20:0.614838 21:0.20465299 22:0.70170802 23:0.85258698 24:0.86052603 # Flowers/Shape2/shape2-000.ppm
5.8446507579764107330882745138662e-09 5:10122.2 6:3.1858399 7:119.623 13:8893.1299 14:2298.27 17:0.43037999 18:25.9231 19:0.43037999 20:0.89900798 21:0.19677 22:0.87858099 23:2.2978201 24:1.25556 # Flowers/Shape3/shape3-005.ppm
-5.8446507579764107330882745138662e-09 5:6874.1401 6:3.6981101 7:103.909 13:4870.2202 14:2856.8401 17:0.35897401 18:18 19:0.26190501 20:0.72901601 21:0.25058401 22:0.70848501 23:11.6665 24:4.8673501 # Flowers/Shape1/shape1-001.ppm
5.8446507579764107330882745138662e-09 5:10380.5 6:3.17241 7:120.687 13:8876.9404 14:2256.8601 17:0.380952 18:33.400002 19:0.41463399 20:0.90450603 21:0.191927 22:0.85515797 23:2.3399899 24:0.63043499 # Flowers/Shape3/shape3-046.ppm
-5.8446507579764107330882745138662e-09 5:13772.8 6:3.1194 7:107.313 13:12308 14:2703.9299 17:0.32673299 18:18.9231 19:0.26415101 20:0.637519 21:0.20483699 22:0.89365101 23:0.72616303 24:0.96172202 # Flowers/Shape2/shape2-001.ppm
5.8446507579764107330882745138662e-09 5:8148.4102 6:3.61905 7:114.788 13:5415.3501 14:3353.3999 17:0.43181801 18:14.6429 19:0.235294 20:0.96546203 21:0.205175 22:0.66459 23:3.3726201 24:1.38158 # Flowers/Shape3/shape3-070.ppm
-5.8446507579764107330882745138662e-09 5:5862.8599 6:3.9473701 7:100.628 13:3829.0701 14:3551.8 17:0.51999998 18:23.4286 19:0.225806 20:0.79069 21:0.26247299 22:0.65310597 23:14.7191 24:4.5599999 # Flowers/Shape1/shape1-021.ppm
5.8446507579764107330882745138662e-09 5:12000.6 6:3.2824399 7:116.365 13:9541.1299 14:2339.1001 17:0.48863599 18:20.7778 19:0.423913 20:0.96408802 21:0.16719 22:0.79505301 23:1.46261 24:1.52326 # Flowers/Shape3/shape3-044.ppm
-5.8446507579764107330882745138662e-09 5:12599.2 6:3.30357 7:109.725 13:9695.6504 14:2638.5801 17:0.41772199 18:13.0345 19:0.244444 20:0.64992499 21:0.199683 22:0.76954597 23:2.1002901 24:1.2108099 # Flowers/Shape2/shape2-023.ppm
5.8446507579764107330882745138662e-09 5:8054.5498 6:3.4769199 7:110.571 13:5413.4302 14:3234.8601 17:0.444444 18:22.7778 19:0.32653099 20:0.96840698 21:0.2068 22:0.672095 23:4.2304101 24:1.72566 # Flowers/Shape3/shape3-090.ppm
-5.8446507579764107330882745138662e-09 5:6340.7202 6:3.68627 7:103.409 13:4892.5298 14:2901.1299 17:0.41666701 18:17.727301 19:0.27500001 20:0.71142101 21:0.271676 22:0.77160501 23:9.9798899 24:4.3404298 # Flowers/Shape1/shape1-022.ppm
5.8446507579764107330882745138662e-09 5:12161.5 6:3.30233 7:119.758 13:9506.0195 14:2354.74 17:0.482759 18:31.4167 19:0.44943801 20:0.96078402 21:0.164556 22:0.78164703 23:1.63434 24:1.8169 # Flowers/Shape3/shape3-084.ppm
-5.8446507579764107330882745138662e-09 5:12134.2 6:3.3675201 7:104.238 13:9396.7305 14:2534.6699 17:0.5 18:15.04 19:0.32954499 20:0.70615202 21:0.19791999 22:0.7744 23:2.1863899 24:1.4847701 # Flowers/Shape2/shape2-002.ppm
5.8446507579764107330882745138662e-09 5:8451.0996 6:3.53125 7:116.105 13:5045.8999 14:3550.55 17:0.33333299 18:28.5714 19:0.20754699 20:0.968656 21:0.204577 22:0.59707099 23:10.7063 24:4.2477899 # Flowers/Shape3/shape3-087.ppm
-5.8446507579764107330882745138662e-09 5:10805.1 6:3.5 7:104.886 13:7333.6299 14:3012.8701 17:0.44827601 18:29.25 19:0.2 20:0.63980502 21:0.218931 22:0.67872202 23:7.7119799 24:3.7142899 # Flowers/Shape5/shape5-007.ppm
5.8446507579764107330882745138662e-09 5:10084.4 6:3.12621 7:119.577 13:8386.1396 14:2567.8301 17:0.41095901 18:12.6552 19:0.256098 20:0.90073103 21:0.195481 22:0.831599 23:0.31320101 24:0.31987599 # Flowers/Shape3/shape3-099.ppm
-5.8446507579764107330882745138662e-09 5:7508.2798 6:3.6226399 7:108.489 13:5532.4902 14:3177.5901 17:0.35897401 18:16.6364 19:0.17777801 20:0.58197898 21:0.272163 22:0.73685199 23:7.8312702 24:3.5885401 # Flowers/Shape5/shape5-020.ppm
5.8446507579764107330882745138662e-09 5:10627.2 6:3.22034 7:118.42 13:8906.79 14:2215.04 17:0.42168701 18:15.1364 19:0.404762 20:0.90244401 21:0.187667 22:0.83810902 23:2.26928 24:2.1736801 # Flowers/Shape3/shape3-026.ppm
-5.8446507579764107330882745138662e-09 5:12523.8 6:3.3599999 7:110.958 13:9404.6396 14:3104.01 17:0.35135099 18:25.133301 19:0.17647099 20:0.606695 21:0.217445 22:0.75093901 23:1.38557 24:1.19048 # Flowers/Shape2/shape2-021.ppm
5.8446507579764107330882745138662e-09 5:8982.3096 6:3.3734901 7:113.066 13:6896.1602 14:2881.4199 17:0.56603801 18:22.5 19:0.40678 20:0.95236999 21:0.19956499 22:0.76775002 23:0.981264 24:1.18571 # Flowers/Shape3/shape3-049.ppm
-5.8446507579764107330882745138662e-09 5:7238.25 6:3.5999999 7:107.263 13:5858.3901 14:2656.3501 17:0.42857099 18:16.5 19:0.17647099 20:0.57322901 21:0.27661201 22:0.80936497 23:4.9967899 24:2.2222199 # Flowers/Shape5/shape5-006.ppm
5.8446507579764107330882745138662e-09 5:9228.9102 6:3.1800001 7:121.187 13:7751 14:2399.47 17:0.40845099 18:50.5 19:0.369863 20:0.96196198 21:0.192587 22:0.83986098 23:1.25823 24:1.2578599 # Flowers/Shape3/shape3-088.ppm
-5.8446507579764107330882745138662e-09 5:12523.8 6:3.3599999 7:110.958 13:9404.6396 14:3104.01 17:0.35135099 18:25.133301 19:0.17647099 20:0.606695 21:0.217445 22:0.75093901 23:1.38557 24:1.19048 # Flowers/Shape2/shape2-019.ppm
5.8446507579764107330882745138662e-09 5:9383.2598 6:3.1800001 7:120.836 13:7785.6899 14:2416.47 17:0.40845099 18:21.7857 19:0.35135099 20:0.95994598 21:0.190309 22:0.82974201 23:1.1700701 24:1.2578599 # Flowers/Shape3/shape3-068.ppm
-5.8446507579764107330882745138662e-09 5:4762.7598 6:3.3333299 7:108.884 13:4939.98 14:2422 17:0.33333299 18:13.8667 19:0.297297 20:0.58828503 21:0.39706999 22:1.03721 23:4.5152302 24:2.0999999 # Flowers/Shape5/shape5-019.ppm
5.8446507579764107330882745138662e-09 5:12337.3 6:3.2781999 7:115.208 13:9530.46 14:2293.78 17:0.47777799 18:38.599998 19:0.40000001 20:0.959732 21:0.162614 22:0.77249098 23:1.58327 24:1.22018 # Flowers/Shape3/shape3-064.ppm
-5.8446507579764107330882745138662e-09 5:11490.3 6:3.48454 7:106 13:8829.7305 14:2956.4099 17:0.469697 18:12.75 19:0.29333299 20:0.65530002 21:0.21368399 22:0.76845098 23:9.5903101 24:3.7307701 # Flowers/Shape2/shape2-003.ppm
5.8446507579764107330882745138662e-09 5:8810.0098 6:3.5833299 7:114.473 13:5403.9902 14:2948 17:0.46938801 18:25.5 19:0.285714 20:0.97045499 21:0.18972901 22:0.613392 23:2.9934599 24:1.67442 # Flowers/Shape3/shape3-030.ppm
-5.8446507579764107330882745138662e-09 5:10994.6 6:3.68293 7:105.914 13:7958.6499 14:2938.53 17:0.38983101 18:29.6364 19:0.17142899 20:0.61886102 21:0.209406 22:0.72386801 23:5.6972499 24:3.25828 # Flowers/Shape5/shape5-008.ppm
5.8446507579764107330882745138662e-09 5:9587.3604 6:3.1752601 7:120.212 13:7438.1201 14:2589.97 17:0.405797 18:24.700001 19:0.25974 20:0.964876 21:0.190321 22:0.77582598 23:0.81997699 24:1.25974 # Flowers/Shape3/shape3-054.ppm
-5.8446507579764107330882745138662e-09 5:11296.1 6:3.63415 7:106.56 13:8116.0298 14:3345.26 17:0.366667 18:13.6957 19:0.18840601 20:0.62454998 21:0.22031599 22:0.71848297 23:8.2980404 24:4.1275201 # Flowers/Shape5/shape5-009.ppm
5.8446507579764107330882745138662e-09 5:9883.6797 6:3.3195901 7:113.524 13:7524.7998 14:2740.05 17:0.447761 18:48.333302 19:0.36619699 20:0.95889097 21:0.191576 22:0.76133698 23:2.5327201 24:1.8074501 # Flowers/Shape3/shape3-065.ppm
-5.8446507579764107330882745138662e-09 5:9469.7598 6:3.4814799 7:109.368 13:7459.4302 14:2817.1399 17:0.42105299 18:20.133301 19:0.208955 20:0.66574198 21:0.25068301 22:0.78771102 23:10.0644 24:4.0212798 # Flowers/Shape5/shape5-016.ppm
5.8446507579764107330882745138662e-09 5:9455.8203 6:3.40909 7:113.783 13:6861.1099 14:2725.48 17:0.517241 18:20.307699 19:0.35384601 20:0.96374601 21:0.188765 22:0.72559601 23:1.03741 24:1.1733299 # Flowers/Shape3/shape3-089.ppm
-5.8446507579764107330882745138662e-09 5:9248.2002 6:3.68571 7:105.617 13:6887.1201 14:3110.47 17:0.42857099 18:15.7647 19:0.186441 20:0.53583401 21:0.26533601 22:0.744699 23:2.8371 24:2.1705401 # Flowers/Shape5/shape5-001.ppm
5.8446507579764107330882745138662e-09 5:10825.2 6:3.2096801 7:122.682 13:8893.7002 14:2119.6599 17:0.44185999 18:26.3846 19:0.37777799 20:0.91185498 21:0.183768 22:0.82157201 23:2.3713901 24:1.24623 # Flowers/Shape3/shape3-086.ppm
-5.8446507579764107330882745138662e-09 5:11169 6:3.575 7:104.184 13:8587.3799 14:3349.24 17:0.355932 18:17.105301 19:0.23076899 20:0.58352298 21:0.2314 22:0.76885903 23:4.7284598 24:2.7972 # Flowers/Shape5/shape5-004.ppm
5.8446507579764107330882745138662e-09 5:9101.5596 6:3.69014 7:113.445 13:5399.9399 14:3001.78 17:0.44898 18:34 19:0.24561401 20:0.97000599 21:0.184003 22:0.59329897 23:4.5588899 24:2.1679399 # Flowers/Shape3/shape3-009.ppm
-5.8446507579764107330882745138662e-09 5:7595.7798 6:3.5185201 7:111.044 13:5624.5098 14:3139.3401 17:0.285714 18:13.9375 19:0.148936 20:0.58310997 21:0.26946601 22:0.74047798 23:8.4700603 24:3.97895 # Flowers/Shape5/shape5-000.ppm
5.8446507579764107330882745138662e-09 5:10925.7 6:3.2181799 7:115.665 13:8374.8301 14:2428.8201 17:0.32530099 18:9.9428596 19:0.25 20:0.90883303 21:0.18055899 22:0.76652902 23:0.29102999 24:0.62146902 # Flowers/Shape3/shape3-018.ppm
-5.8446507579764107330882745138662e-09 5:10913.3 6:3.2765999 7:108.682 13:8852.1396 14:3234.1299 17:0.46875 18:18.5263 19:0.27026999 20:0.76173902 21:0.213302 22:0.81113201 23:1.18995 24:0.61039001 # Flowers/Shape2/shape2-005.ppm
5.8446507579764107330882745138662e-09 5:9832.7695 6:3.75758 7:118.907 13:5046.9302 14:3515.9299 17:0.43478301 18:19.1 19:0.2 20:0.97832799 21:0.17676499 22:0.51327598 23:10.4221 24:3.99194 # Flowers/Shape3/shape3-027.ppm
-5.8446507579764107330882745138662e-09 5:9398.3604 6:3.7026999 7:109.15 13:7349.3301 14:2888.76 17:0.57446802 18:18.625 19:0.27586201 20:0.50646901 21:0.262954 22:0.78197998 23:2.3011999 24:1.62044 # Flowers/Shape5/shape5-015.ppm
5.8446507579764107330882745138662e-09 5:9750.8301 6:3.19626 7:119.017 13:7705.5098 14:2268.1799 17:0.33750001 18:20.4 19:0.320988 20:0.97054398 21:0.18253601 22:0.79024202 23:1.00972 24:0.93859601 # Flowers/Shape3/shape3-048.ppm
-5.8446507579764107330882745138662e-09 5:8798.5703 6:3.3176501 7:108.274 13:7488.6899 14:2630.49 17:0.41666701 18:21.2143 19:0.268657 20:0.69539899 21:0.243319 22:0.85112602 23:4.5908799 24:2.71277 # Flowers/Shape2/shape2-006.ppm
5.8446507579764107330882745138662e-09 5:10593.4 6:3.42222 7:114.408 13:7254.23 14:3027.73 17:0.40625 18:25.0833 19:0.25 20:0.95761102 21:0.179361 22:0.68478501 23:0.45758501 24:0.58441597 # Flowers/Shape3/shape3-097.ppm
-5.8446507579764107330882745138662e-09 5:10095.7 6:3.73913 7:104.492 13:6454.3398 14:4122.25 17:0.68292701 18:15.9375 19:0.210526 20:0.82837999 21:0.22393499 22:0.63931799 23:4.28685 24:2.1395299 # Flowers/Shape1/shape1-013.ppm
5.8446507579764107330882745138662e-09 5:10247.3 6:3.3333299 7:119.349 13:7620.04 14:2449.5801 17:0.45714301 18:9.6000004 19:0.29113901 20:0.95660001 21:0.178324 22:0.743617 23:0.80156302 24:1.2 # Flowers/Shape3/shape3-094.ppm
-5.8446507579764107330882745138662e-09 5:8964.5996 6:3.4473701 7:103.882 13:7393.0498 14:2807.75 17:0.46153799 18:26.111099 19:0.26666701 20:0.58838397 21:0.253681 22:0.82469398 23:4.87393 24:2.6106901 # Flowers/Shape5/shape5-023.ppm
5.8446507579764107330882745138662e-09 5:10438.4 6:3.37255 7:114.091 13:7558.6699 14:2615.54 17:0.5 18:24.4167 19:0.378378 20:0.96189898 21:0.181402 22:0.72412401 23:2.4322801 24:1.48256 # Flowers/Shape3/shape3-004.ppm
-5.8446507579764107330882745138662e-09 5:10564.1 6:3.3494 7:106.944 13:8843.3496 14:3158.4299 17:0.296875 18:28.9167 19:0.18571401 20:0.54305899 21:0.244323 22:0.83711702 23:9.3588495 24:3.5827301 # Flowers/Shape5/shape5-010.ppm
5.8446507579764107330882745138662e-09 5:9850.0898 6:3.4105301 7:112.895 13:6907.0498 14:2543.48 17:0.50793701 18:22.1667 19:0.33802801 20:0.97101301 21:0.18120299 22:0.701217 23:0.96836102 24:1.17284 # Flowers/Shape3/shape3-069.ppm
-5.8446507579764107330882745138662e-09 5:8413.9297 6:3.3698599 7:119.659 13:7385.0298 14:2715.6799 17:0.403846 18:27.5833 19:0.216667 20:0.39077401 21:0.330798 22:0.87771398 23:22.030701 24:5.0447202 # Flowers/Shape4/shape4-014.ppm
5.8446507579764107330882745138662e-09 5:10803.5 6:3.1965799 7:112.677 13:8375.9004 14:2293.21 17:0.32954499 18:12.3103 19:0.23157901 20:0.91356802 21:0.18249901 22:0.77529597 23:0.197274 24:0.62566799 # Flowers/Shape3/shape3-039.ppm
-5.8446507579764107330882745138662e-09 5:8850.1504 6:3.5692301 7:105.305 13:6925.7598 14:3359.9299 17:0.41304299 18:14.1053 19:0.18181799 20:0.539621 21:0.276889 22:0.78255898 23:5.1201501 24:1.96121 # Flowers/Shape5/shape5-022.ppm
5.8446507579764107330882745138662e-09 5:9992.8799 6:3.47368 7:111.357 13:6887.8101 14:2548.4099 17:0.484375 18:24.4545 19:0.35714301 20:0.96251798 21:0.17949399 22:0.68927199 23:1.10949 24:1.15152 # Flowers/Shape3/shape3-029.ppm
-5.8446507579764107330882745138662e-09 5:9195.96 6:3.63077 7:111.655 13:6834.9102 14:3712.6201 17:0.47727299 18:20.7143 19:0.203704 20:0.703978 21:0.243375 22:0.74325103 23:4.5093598 24:2.4788101 # Flowers/Shape5/shape5-014.ppm
5.8446507579764107330882745138662e-09 5:9826.3096 6:3.7941201 7:118.942 13:5044.2798 14:3342.9199 17:0.51111102 18:24.625 19:0.192982 20:0.97009498 21:0.17587399 22:0.51334399 23:9.77742 24:3.95349 # Flowers/Shape3/shape3-067.ppm
-5.8446507579764107330882745138662e-09 5:8642.5898 6:3.63077 7:108.994 13:6227.6899 14:3675.5701 17:0.444444 18:17.9231 19:0.160714 20:0.82716101 21:0.234568 22:0.720581 23:14.6679 24:1.65254 # Flowers/Shape1/shape1-015.ppm
5.8446507579764107330882745138662e-09 5:10352 6:3.3076899 7:121.249 13:7637.1001 14:2418.8999 17:0.38666701 18:11.3 19:0.28395101 20:0.96463001 21:0.17635199 22:0.73774302 23:0.57275802 24:0.906977 # Flowers/Shape3/shape3-074.ppm
-5.8446507579764107330882745138662e-09 5:8346.8604 6:3.6896601 7:108.474 13:6303.9702 14:3382.4399 17:0.34883699 18:16.3333 19:0.208333 20:0.56213897 21:0.26298299 22:0.75525099 23:12.7143 24:4.0654202 # Flowers/Shape5/shape5-005.ppm
5.8446507579764107330882745138662e-09 5:10203.8 6:3.2792799 7:121.984 13:7738.9502 14:2170.5801 17:0.405063 18:20.1875 19:0.337349 20:0.96216798 21:0.174556 22:0.758439 23:1.05512 24:0.91483498 # Flowers/Shape3/shape3-007.ppm
-5.8446507579764107330882745138662e-09 5:7906.52 6:3.7818201 7:98.254898 13:5701.6499 14:3632.3301 17:0.61764699 18:13.8125 19:0.19565199 20:0.72749698 21:0.246782 22:0.72113401 23:9.1756897 24:4.4951901 # Flowers/Shape1/shape1-023.ppm
5.8446507579764107330882745138662e-09 5:9997.6797 6:3.8550701 7:114.442 13:5038.1401 14:3300.3601 17:0.5 18:18 19:0.16949201 20:0.96695799 21:0.17329501 22:0.50393099 23:10.8982 24:4.1503801 # Flowers/Shape3/shape3-047.ppm
-5.8446507579764107330882745138662e-09 5:8059.7002 6:3.67273 7:102.224 13:5874.98 14:3788.6499 17:0.447368 18:25.7778 19:0.19565199 20:0.59330398 21:0.27884299 22:0.72893298 23:8.7971096 24:3.2673299 # Flowers/Shape5/shape5-003.ppm
5.8446507579764107330882745138662e-09 5:9624.0098 6:3.6961999 7:112.512 13:5390.48 14:2724.8799 17:0.410714 18:29.2857 19:0.234375 20:0.98186702 21:0.17389201 22:0.56010801 23:2.8823199 24:2.1643801 # Flowers/Shape3/shape3-050.ppm
-5.8446507579764107330882745138662e-09 5:7474.9702 6:3.4461501 7:112.296 13:7331.8101 14:2717.03 17:0.41304299 18:31.444401 19:0.27451 20:0.343483 21:0.37662399 22:0.98084903 23:13.9907 24:4.9330401 # Flowers/Shape5/shape5-017.ppm
5.8446507579764107330882745138662e-09 5:10470.8 6:3.32692 7:119.712 13:7443.4199 14:2425.51 17:0.52941197 18:17.1875 19:0.253012 20:0.96982199 21:0.17406701 22:0.71087402 23:1.01546 24:1.20231 # Flowers/Shape3/shape3-034.ppm
-5.8446507579764107330882745138662e-09 5:7642.9502 6:3.7735801 7:102.279 13:5695.04 14:3723.7 17:0.472222 18:17.0769 19:0.20454501 20:0.72334898 21:0.25466701 22:0.74513602 23:7.1408701 24:3.9749999 # Flowers/Shape1/shape1-002.ppm
5.8446507579764107330882745138662e-09 5:10958.7 6:3.47368 7:116.443 13:7230.71 14:2889.97 17:0.37681201 18:23.5 19:0.26666701 20:0.96348602 21:0.173511 22:0.65981299 23:0.91422498 24:0.86363602 # Flowers/Shape3/shape3-077.ppm
-5.8446507579764107330882745138662e-09 5:7383.3501 6:3.64516 7:103.463 13:7628.9502 14:2883.1001 17:0.51219499 18:12.88 19:0.21568599 20:0.49302399 21:0.307704 22:1.03326 23:3.92276 24:1.6460201 # Flowers/Shape5/shape5-002.ppm
5.8446507579764107330882745138662e-09 5:10551.4 6:3.4705901 7:116.353 13:6854.21 14:2412.72 17:0.47826099 18:53.599998 19:0.32467499 20:0.97915 21:0.169958 22:0.64960402 23:1.02084 24:1.15254 # Flowers/Shape3/shape3-008.ppm
-5.8446507579764107330882745138662e-09 5:8453.8398 6:4.1463399 7:103.558 13:4684.9302 14:5281.6299 17:0.32258099 18:17.3333 19:0.17142899 20:0.79954797 21:0.23258799 22:0.554178 23:11.8255 24:5.54706 # Flowers/Shape1/shape1-005.ppm
5.8446507579764107330882745138662e-09 5:10718.5 6:3.3396201 7:114.795 13:7335.2598 14:2372.6201 17:0.413333 18:43.200001 19:0.29268301 20:0.96703303 21:0.170073 22:0.68435401 23:0.89509201 24:1.19774 # Flowers/Shape3/shape3-013.ppm
-5.8446507579764107330882745138662e-09 5:6999.6401 6:3.67857 7:101.587 13:5537.7998 14:3028 17:0.555556 18:13 19:0.217391 20:0.58612698 21:0.29195601 22:0.79115599 23:3.0253899 24:1.35922 # Flowers/Shape5/shape5-021.ppm
5.8446507579764107330882745138662e-09 5:10978.5 6:3.46154 7:116.535 13:7525.6099 14:2598.02 17:0.52941197 18:36.625 19:0.30000001 20:0.96693498 21:0.173081 22:0.68548602 23:3.5260999 24:2.0222199 # Flowers/Shape3/shape3-045.ppm
-5.8446507579764107330882745138662e-09 5:7409.3701 6:3.25424 7:113.714 13:7736.3599 14:3263.8601 17:0.311111 18:11.1724 19:0.28260899 20:0.356516 21:0.392378 22:1.04413 23:16.266899 24:5.53125 # Flowers/Shape4/shape4-013.ppm
5.8446507579764107330882745138662e-09 5:11139.7 6:3.4705901 7:114.901 13:7275.2798 14:2706.3701 17:0.47826099 18:29.5 19:0.27500001 20:0.96840203 21:0.17072301 22:0.65309399 23:0.51191902 24:0.864407 # Flowers/Shape3/shape3-057.ppm
-5.8446507579764107330882745138662e-09 5:6938.8599 6:3.2692299 7:117.356 13:6067.3799 14:3428.46 17:0.33333299 18:13.25 19:0.238095 20:0.48445901 21:0.33885801 22:0.87440699 23:16.4536 24:5.5058799 # Flowers/Shape4/shape4-009.ppm
5.8446507579764107330882745138662e-09 5:11260.8 6:3.4717 7:114.573 13:7519.0698 14:2549 17:0.472222 18:24.1667 19:0.32499999 20:0.97077501 21:0.168457 22:0.66772097 23:3.0811999 24:2.3043499 # Flowers/Shape3/shape3-025.ppm
-5.8446507579764107330882745138662e-09 5:5341.1401 6:3.2156899 7:114.991 13:6093.2402 14:2482.8101 17:0.41666701 18:7.5882401 19:0.342105 20:0.424523 21:0.38342699 22:1.14081 23:14.2173 24:5.2865901 # Flowers/Shape4/shape4-011.ppm
5.8446507579764107330882745138662e-09 5:11170.7 6:3.2241399 7:117.529 13:8427.1797 14:2300.1599 17:0.380952 18:19.105301 19:0.221053 20:0.90731198 21:0.176587 22:0.75439799 23:0.196678 24:0.31016001 # Flowers/Shape3/shape3-059.ppm
-5.8446507579764107330882745138662e-09 5:7917.8999 6:3.9047599 7:105.098 13:4889.6099 14:5005.2998 17:0.555556 18:26.25 19:0.166667 20:0.77503097 21:0.243579 22:0.61753798 23:15.2746 24:5.63415 # Flowers/Shape1/shape1-007.ppm
5.8446507579764107330882745138662e-09 5:14299.5 6:3.72 7:117.893 13:7543.2202 14:3594.0901 17:0.42857099 18:20.6 19:0.25 20:0.971201 21:0.151531 22:0.52751702 23:7.5600801 24:2.68817 # Flowers/Shape3/shape3-093.ppm
-5.8446507579764107330882745138662e-09 5:5845.4199 6:3.4074099 7:102.623 13:7713.71 14:2967.5 17:0.45945901 18:12.44 19:0.384615 20:0.51679802 21:0.35307199 22:1.31962 23:3.8112099 24:2.6413 # Flowers/Shape1/shape1-016.ppm
5.8446507579764107330882745138662e-09 5:15123 6:3.71963 7:114.247 13:7563.1299 14:3371.6899 17:0.426667 18:20.0667 19:0.229885 20:0.976632 21:0.14318199 22:0.50010699 23:9.3175602 24:4.03266 # Flowers/Shape3/shape3-033.ppm
-5.8446507579764107330882745138662e-09 5:5073.8301 6:3.2444401 7:117.406 13:5341.0801 14:2642.1499 17:0.36363599 18:35.833302 19:0.32352901 20:0.503905 21:0.35975501 22:1.05267 23:9.8463497 24:5.5479498 # Flowers/Shape4/shape4-005.ppm
5.8446507579764107330882745138662e-09 5:15253.5 6:3.5609801 7:112.044 13:9076.21 14:3032.1001 17:0.44705901 18:14.4444 19:0.25510201 20:0.89903098 21:0.15416101 22:0.59502298 23:2.0059099 24:1.40411 # Flowers/Shape3/shape3-072.ppm
-5.8446507579764107330882745138662e-09 5:5121.3999 6:3.28 7:108.623 13:5926.79 14:2628.3 17:0.38888901 18:29.125 19:0.42857099 20:0.575993 21:0.34990999 22:1.1572599 23:4.16081 24:3.04878 # Flowers/Shape1/shape1-003.ppm
5.8446507579764107330882745138662e-09 5:15980.7 6:3.6666701 7:111.018 13:9040.79 14:2939.9399 17:0.482353 18:10.3784 19:0.285714 20:0.89584798 21:0.146844 22:0.565732 23:2.06879 24:2.45455 # Flowers/Shape3/shape3-092.ppm
-5.8446507579764107330882745138662e-09 5:3655.3701 6:2.86957 7:117.5 13:5827.8701 14:2017.95 17:0.58620697 18:18.6154 19:0.4375 20:0.37864101 21:0.50822002 22:1.59433 23:7.84795 24:4.1818199 # Flowers/Shape4/shape4-007.ppm
-5.8446507579764107330882745138662e-09 5:3711.02 6:2.9302299 7:119.036 13:5622.1099 14:2158.05 17:0.65384603 18:10.75 19:0.387097 20:0.392582 21:0.49144599 22:1.51498 23:11.2734 24:4.7777801 # Flowers/Shape4/shape4-010.ppm
