SVM-light Version V6.02
0 # kernel type
3 # kernel parameter -d 
1 # kernel parameter -g 
1 # kernel parameter -s 
1 # kernel parameter -r 
empty# kernel parameter -u 
4 # highest feature index 
91 # number of training documents 
41 # number of support vectors plus 1 
1.0003354 # threshold b, each following line is a SV (starting with alpha*y)
-5.5814196363048743186049781043636e-12 1:302617 2:431257 3:14127 4:3.6134501 # shape2-004
5.5814196363048743186049781043636e-12 1:145719 2:171480 3:6066.2998 4:3.6666701 # shape1-000
-5.5814196363048743186049781043636e-12 1:48000.199 2:123027 3:1800.4301 4:2.6400001 # shape4-006
5.5814196363048743186049781043636e-12 1:465851 2:545202 3:21037 4:4.1782198 # shape1-011
-4.4610922992872712579571330691105e-12 1:228915 2:236216 3:8775.1396 4:3.59322 # shape3-006
5.5814196363048743186049781043636e-12 1:126497 2:173520 3:4957.6802 4:3.25581 # shape1-004
-5.5814196363048743186049781043636e-12 1:117190 2:126290 3:4062.0701 4:2.3896101 # shape3-001
5.5814196363048743186049781043636e-12 1:451654 2:552714 3:20618 4:4.1414099 # shape1-014
-5.5814196363048743186049781043636e-12 1:496561 2:607458 3:19073.699 4:3.54795 # shape2-011
5.5814196363048743186049781043636e-12 1:135542 2:178473 3:4911.6001 4:3.54286 # shape1-006
-5.5814196363048743186049781043636e-12 1:75043.297 2:145236 3:3421.4099 4:3.1666701 # shape4-003
5.5814196363048743186049781043636e-12 1:264712 2:408356 3:10742.4 4:3.9166701 # shape1-008
-5.5814196363048743186049781043636e-12 1:459975 2:466051 3:19759.5 4:3.9316199 # shape3-014
5.5814196363048743186049781043636e-12 1:160245 2:310072 3:5845.4199 4:3.4074099 # shape1-016
-5.5814196363048743186049781043636e-12 1:64545.602 2:159980 3:3000.4199 4:3.0555601 # shape4-001
5.5814196363048743186049781043636e-12 1:289819 2:348356 3:12900.8 4:4.05479 # shape1-012
-5.5814196363048743186049781043636e-12 1:153022 2:157564 3:6654.96 4:3.7358501 # shape3-000
5.5814196363048743186049781043636e-12 1:284435 2:343364 3:10095.7 4:3.73913 # shape1-013
-5.5814196363048743186049781043636e-12 1:496061 2:590510 3:20191.199 4:3.5326099 # shape2-012
5.5814196363048743186049781043636e-12 1:148902 2:196871 3:5454.2798 4:3.55 # shape1-017
-5.5814196363048743186049781043636e-12 1:78093.398 2:187052 3:2798.6399 4:3.0344801 # shape4-000
5.5814196363048743186049781043636e-12 1:238912 2:288834 3:8642.5898 4:3.63077 # shape1-015
-5.5814196363048743186049781043636e-12 1:164731 2:170232 3:6333.8301 4:3.13433 # shape3-002
5.5814196363048743186049781043636e-12 1:216547 2:270836 3:8453.8398 4:4.1463399 # shape1-005
-5.5814196363048743186049781043636e-12 1:177035 2:206828 3:6451.46 4:2.86076 # shape3-010
5.5814196363048743186049781043636e-12 1:197356 2:272836 3:7642.9502 4:3.7735801 # shape1-002
-4.8790198011469342158585901482676e-12 1:440603 2:604408 3:18262.5 4:3.2888899 # shape2-015
5.5814196363048743186049781043636e-12 1:131415 2:228154 3:5121.3999 4:3.28 # shape1-003
-5.5814196363048743186049781043636e-12 1:79926.398 2:205508 3:3901.4099 4:3.2272699 # shape4-008
5.5814196363048743186049781043636e-12 1:210223 2:271244 3:7917.8999 4:3.9047599 # shape1-007
-7.2725406892332370379786645389207e-13 1:79752.797 2:210614 3:3254.72 4:3.1428599 # shape4-002
5.5814196363048743186049781043636e-12 1:201055 2:227203 3:8645.5303 4:3.7083299 # shape1-009
-5.5814196363048743186049781043636e-12 1:116256 2:197618 3:4762.7598 4:3.3333299 # shape5-019
5.5814196363048743186049781043636e-12 1:194985 2:224838 3:9684.9805 4:3.90769 # shape1-018
-5.5814196363048743186049781043636e-12 1:213126 2:219716 3:9101.5596 4:3.69014 # shape3-009
-5.5814196363048743186049781043636e-12 1:112018 2:204417 3:4171.6699 4:3.2432401 # shape5-011
5.5814196363048743186049781043636e-12 1:141290 2:208990 3:4487.75 4:3.5151501 # shape1-019
5.5814196363048743186049781043636e-12 1:151412 2:207694 3:6874.1401 4:3.6981101 # shape1-001
-1.8194260318528817685904105846397e-12 1:88160.102 2:214536 3:3653.0701 4:3.1428599 # shape4-016
-4.857466707704332370852409058278e-12 1:452510 2:478850 3:19426.5 4:3.9344299 # shape3-015
