SVM-light Version V6.02
0 # kernel type
3 # kernel parameter -d 
1 # kernel parameter -g 
1 # kernel parameter -s 
1 # kernel parameter -r 
empty# kernel parameter -u 
11 # highest feature index 
33 # number of training documents 
21 # number of support vectors plus 1 
1.8800159 # threshold b, each following line is a SV (starting with alpha*y)
-0.26828664200310609055932786759513 1:0.30492201 2:0.29881299 3:0.30430099 4:0.52800202 5:0.32676399 6:0.88509297 7:0.78578502 8:0.19047999 9:0.5625 10:0.28342199 11:0.273684 # shape1-001
0.26828664200310609055932786759513 1:0.63413501 2:0.800614 3:0.75036401 4:0.83402199 5:0.631993 6:0.83438402 7:0.80784798 8:0.0140764 9:0.09375 10:0.58288801 11:0.29473701 # shape2-000
-0.26828664200310609055932786759513 1:0.438483 2:0.58429199 3:0.59535199 4:0.75217098 5:0.43961599 6:0.88212597 7:0.79870099 8:0.0504345 9:0.25 10:0.37433201 11:0.30526301 # shape5-001
0.26828664200310609055932786759513 1:0.45028099 2:0.52584797 3:0.47108701 4:0.65622503 5:0.41824201 6:0.794034 7:0.81879503 8:0.0690175 9:0.28125 10:0.45454499 11:0.28421101 # shape2-006
-0.26828664200310609055932786759513 1:0.359981 2:0.58877301 3:0.53120601 4:0.69638801 5:0.35097 6:0.87242001 7:0.78241497 8:0.064636603 9:0.1875 10:0.33155099 11:0.2 # shape5-002
0.26828664200310609055932786759513 1:0.61222899 2:0.56405598 3:0.58473498 4:0.71353501 5:0.51876801 6:0.78420901 7:0.821881 8:0.021994401 9:0.0625 10:0.50267398 11:0.347368 # shape2-005
-0.26828664200310609055932786759513 1:0.62258703 2:0.44361401 3:0.466896 4:0.61553901 5:0.62023401 6:0.80118299 7:0.90641803 8:0.0207555 9:0.125 10:0.75401098 11:0.83157903 # shape3-003
0.26828664200310609055932786759513 1:0.57751602 2:0.59161001 3:0.64117301 4:0.75260502 5:0.54619402 6:0.83397698 7:0.801597 8:0.16204 9:0.40625 10:0.51871699 11:0.25263199 # shape2-003
-0.26828664200310609055932786759513 1:0.41963801 2:0.56809598 3:0.514575 4:0.68887901 5:0.38312 6:0.87901801 7:0.77304602 8:0.19047999 9:0.375 10:0.29411799 11:0.24210501 # shape5-003
0.26828664200310609055932786759513 1:0.59722102 2:0.66183603 3:0.61530203 4:0.736148 5:0.57680303 6:0.80597103 7:0.788275 8:0.0316719 9:0.15625 10:0.62566799 11:0.347368 # shape2-002
-0.26828664200310609055932786759513 1:0.341398 2:0.45331201 3:0.425953 4:0.62739402 5:0.361067 6:0.84210998 7:0.839742 8:0.151968 9:0.4375 10:0.28876999 11:0.23157901 # shape5-000
0.26828664200310609055932786759513 1:0.60942698 2:0.63907099 3:0.63185197 4:0.75798202 5:0.67153102 6:0.864829 7:0.791336 8:0.027309 9:0.125 10:0.63636398 11:0.30526301 # shape2-004
-0.26828664200310609055932786759513 1:0.39744601 2:0.43515399 3:0.399744 4:0.59661901 5:0.36331001 6:0.903157 7:0.773458 8:0.151968 9:0.46875 10:0.28342199 11:0.326316 # shape1-002
0.26828664200310609055932786759513 1:0.68467498 2:0.74666798 3:0.762389 4:0.81405503 5:0.75121403 6:0.85059202 7:0.80506998 8:0.034760099 9:0.15625 10:0.74331599 11:0.26315799 # shape2-016
-0.26828664200310609055932786759513 1:0.18318699 2:0.47659099 3:0.43814799 4:0.63129997 5:0.17354099 6:0.65700197 7:1 8:0.090509199 9:0.34375 10:0.27272701 11:0.0842105 # shape4-004
0.26828664200310609055932786759513 1:0.750696 2:0.70117003 3:0.74239397 4:0.79649901 5:0.72531402 6:0.77422899 7:0.81090802 8:0.0045963801 9:0.09375 10:0.79679102 11:0.36842099 # shape2-009
-0.26828664200310609055932786759513 1:0.33174399 2:0.241541 3:0.249414 4:0.45089799 5:0.30107999 6:0.75015903 7:0.892609 8:0.0086900303 9:0.0625 10:0.358289 11:0.81052601 # shape3-002
0.26828664200310609055932786759513 1:0.72967303 2:0.78444999 3:0.83269602 4:0.86475599 5:0.65469199 6:0.74658698 7:0.81152999 8:0.0112216 9:0.09375 10:0.71657801 11:0.24210501 # shape2-001
-0.26828664200310609055932786759513 1:0.264651 2:0.34988701 3:0.33427799 4:0.549299 5:0.24344701 6:0.78502399 7:0.82143199 8:0.0625 9:0.3125 10:0.26738 11:0.2 # shape1-003
0.26828664200310609055932786759513 1:0.79595202 2:0.71994001 3:0.73934901 4:0.80317199 5:0.74352401 6:0.80717403 7:0.8452 8:0.0121373 9:0.125 10:0.81818199 11:0.29473701 # shape2-008
