SVM-light Version V6.02
0 # kernel type
3 # kernel parameter -d 
1 # kernel parameter -g 
1 # kernel parameter -s 
1 # kernel parameter -r 
empty# kernel parameter -u 
24 # highest feature index 
194 # number of training documents 
143 # number of support vectors plus 1 
-1.9569611 # threshold b, each following line is a SV (starting with alpha*y)
-2.4525842640795531523346348767333e-12 1:230073 2:578485 3:342490 4:2376.3601 5:9397.2197 6:3.3333299 7:108.968 8:18145.801 9:9 10:81 11:31 12:321 13:7479.8101 14:2840.4099 15:153.991 16:163.48399 17:0.327869 18:28.181801 19:0.265625 20:0.67176598 21:0.25287899 22:0.795959 23:6.3884702 24:2.7 # Flowers/Shape5/shape5-077.ppm
2.4525842640795531523346348767333e-12 1:216547 2:332800 3:270836 4:1966.26 5:8453.8398 6:4.1463399 7:103.558 8:62458 9:23 10:41 11:36 12:220 13:4684.9302 14:5281.6299 15:143.923 16:165.778 17:0.32258099 18:17.3333 19:0.17142899 20:0.79954797 21:0.23258799 22:0.554178 23:11.8255 24:5.54706 # Flowers/Shape1/shape1-005.ppm
-2.4525842640795531523346348767333e-12 1:112018 2:307615 3:204417 4:1737.55 5:4171.6699 6:3.2432401 7:97.216904 8:18145.801 9:12 10:37 11:17 12:198 13:4763.3301 14:3027.52 15:150.263 16:154 17:0.32142901 18:10.6471 19:0.37037 20:0.54798901 21:0.416511 22:1.14183 23:5.9936299 24:3.7 # Flowers/Shape5/shape5-011.ppm
2.4525842640795531523346348767333e-12 1:461052 2:991935 3:612006 4:2951.54 5:18875 6:3.8487401 7:109.72 8:14102.6 9:10 10:119 11:45 12:443 13:10466.1 14:3874.3899 15:155.16499 16:171.244 17:0.45122001 18:23.611099 19:0.17821801 20:0.75334603 21:0.15637299 22:0.55449498 23:3.6399601 24:2.5982499 # Flowers/Shape1/shape1-071.ppm
-2.4525842640795531523346348767333e-12 1:213389 2:527571 3:362670 4:2274.1499 5:8964.5996 6:3.4473701 7:103.882 8:13684.8 9:9 10:76 11:18 12:244 13:7393.0498 14:2807.75 15:162.217 16:153.61099 17:0.46153799 18:26.111099 19:0.26666701 20:0.58838397 21:0.253681 22:0.82469398 23:4.87393 24:2.6106901 # Flowers/Shape5/shape5-023.ppm
-2.4525842640795531523346348767333e-12 1:256014 2:549582 3:479666 4:2571.98 5:10020.5 6:3.48718 7:103.572 8:28952.9 9:11 10:78 11:24 12:356 13:8766.3896 14:3282.22 15:155.65401 16:162.41701 17:0.36842099 18:22.733299 19:0.164179 20:0.53373301 21:0.25667301 22:0.87484801 23:8.8211298 24:3.1544099 # Flowers/Shape5/shape5-031.ppm
-2.4525842640795531523346348767333e-12 1:114852 2:309246 3:204880 4:1737.84 5:4840.8101 6:3.26087 7:104.269 8:17203.4 9:10 10:46 11:17 12:194 13:4741.1401 14:2496.78 15:148.851 16:154.118 17:0.31428599 18:13.9231 19:0.210526 20:0.56058103 21:0.358998 22:0.97941202 23:6.8902102 24:3.0666699 # Flowers/Shape5/shape5-032.ppm
2.4525842640795531523346348767333e-12 1:418487 2:995883 3:612920 4:2955.9199 5:16785.699 6:3.74545 7:111.52 8:33979.5 9:12 10:110 11:40 12:437 13:10440.8 14:3804.4199 15:153.771 16:169.375 17:0.392405 18:15.8077 19:0.182796 20:0.68277502 21:0.176098 22:0.62200397 23:8.9315701 24:3.2038801 # Flowers/Shape1/shape1-091.ppm
-2.4525842640795531523346348767333e-12 1:250939 2:540872 3:399313 4:2378.1201 5:11610.4 6:3.825 7:106.496 8:24328.5 9:16 10:80 11:22 12:305 13:7418.3101 14:3136.74 15:149.603 16:156.545 17:0.45454499 18:13.5238 19:0.17647099 20:0.62842703 21:0.204827 22:0.63893902 23:7.75598 24:4.1830101 # Flowers/Shape5/shape5-028.ppm
2.4525842640795531523346348767333e-12 1:210225 2:326808 3:271607 4:1929.0601 5:8541.7002 6:4.0454502 7:104.44 8:77437.102 9:24 10:44 11:36 12:217 13:4887.9102 14:4777.8398 15:151.25301 16:166.41701 17:0.222222 18:30 19:0.157895 20:0.77400398 21:0.22584 22:0.57224101 23:16.2076 24:5.93258 # Flowers/Shape1/shape1-028.ppm
-2.4525842640795531523346348767333e-12 1:114225 2:310960 3:206048 4:1739.59 5:5094.8301 6:3.4166701 7:107.172 8:17671.5 9:8 10:48 11:17 12:200 13:4808.8999 14:2379.6899 15:153.785 16:154.70599 17:0.33333299 18:21.2222 19:0.26315799 20:0.55436099 21:0.341443 22:0.94387901 23:7.42594 24:2.34146 # Flowers/Shape5/shape5-052.ppm
2.4525842640795531523346348767333e-12 1:450360 2:1027850 3:551020 4:3020.8899 5:18909.199 6:4.0215101 7:106.783 8:32047.4 9:10 10:93 11:74 12:333 13:7926.7598 14:4842.5801 15:158.09599 16:174.054 17:0.23999999 18:19.8125 19:0.148148 20:0.817321 21:0.159758 22:0.41920099 23:6.6178298 24:2.48663 # Flowers/Shape1/shape1-095.ppm
-2.4525842640795531523346348767333e-12 1:366501 2:703703 3:550872 4:2776.29 5:16622.301 6:4.0425501 7:106.171 8:45996.102 9:18 10:94 11:26 12:326 13:7897.6001 14:3898.95 15:156.08299 16:165.269 17:0.253333 18:24.0769 19:0.160494 20:0.66531098 21:0.167022 22:0.47512099 23:11.797 24:4.45263 # Flowers/Shape5/shape5-039.ppm
2.4525842640795531523346348767333e-12 1:192935 2:332346 3:224522 4:1740.13 5:7891.27 6:3.9565201 7:101.779 8:57255.5 9:21 10:46 11:39 12:191 13:4581.5498 14:4194.23 15:154.717 16:169.436 17:0.48387101 18:18.1 19:0.24324299 20:0.85931098 21:0.220513 22:0.580585 23:13.651 24:5.3076901 # Flowers/Shape1/shape1-099.ppm
-2.4525842640795531523346348767333e-12 1:115333 2:328454 3:199948 4:1889.53 5:4068.6599 6:3.2432401 7:112.434 8:8171.2798 9:7 10:37 11:28 12:183 13:4832.6499 14:3117.1101 15:155.55701 16:163.10699 17:0.42307699 18:21.875 19:0.37037 20:0.576814 21:0.46441001 22:1.18777 23:2.6214299 24:2.15833 # Flowers/Shape5/shape5-080.ppm
2.4525842640795531523346348767333e-12 1:445523 2:1027180 3:549556 4:3021.0901 5:15680.4 6:3.8684199 7:109.188 8:33329.199 9:6 10:76 11:69 12:338 13:7900.27 14:5862.1499 15:157.683 16:174.522 17:0.43396199 18:23.1429 19:0.15151501 20:0.81069601 21:0.19266701 22:0.50383198 23:5.6854801 24:1.55102 # Flowers/Shape1/shape1-075.ppm
2.4525842640795531523346348767333e-12 1:210223 2:325280 3:271244 4:1928.64 5:7917.8999 6:3.9047599 7:105.098 8:76453.797 9:22 10:42 11:37 12:218 13:4889.6099 14:5005.2998 15:152.44501 16:166.946 17:0.555556 18:26.25 19:0.166667 20:0.77503097 21:0.243579 22:0.61753798 23:15.2746 24:5.63415 # Flowers/Shape1/shape1-007.ppm
2.4525842640795531523346348767333e-12 1:141290 2:266682 3:208990 4:1695.4 5:4487.75 6:3.5151501 7:105.193 8:33329.199 9:10 10:33 11:33 12:201 13:4885.8599 14:4281.5098 15:145.687 16:164.091 17:0.375 18:10.8235 19:0.222222 20:0.67606002 21:0.377783 22:1.08871 23:7.78444 24:2.84483 # Flowers/Shape1/shape1-019.ppm
-2.4525842640795531523346348767333e-12 1:230562 2:578124 3:342510 4:2375.5 5:9050.0303 6:3.4210501 7:108.147 8:10935.9 9:8 10:76 11:33 12:316 13:7460.5698 14:3033.71 15:156.74699 16:166.21201 17:0.40740699 18:25.3333 19:0.225806 20:0.673154 21:0.262485 22:0.82436901 23:3.60479 24:2.33846 # Flowers/Shape5/shape5-097.ppm
2.4525842640795531523346348767333e-12 1:155886 2:385392 3:310690 4:2063.26 5:5922.1699 6:3.3684199 7:103.652 8:11689.9 9:8 10:57 11:27 12:342 13:7730.02 14:2734.8401 15:148.444 16:166.33299 17:0.46153799 18:18 19:0.35714301 20:0.50174099 21:0.34839699 22:1.30527 23:4.2744198 24:2.375 # Flowers/Shape1/shape1-037.ppm
-2.4525842640795531523346348767333e-12 1:116256 2:356153 3:197618 4:1891.15 5:4762.7598 6:3.3333299 7:108.884 8:10935.9 9:7 10:48 11:27 12:223 13:4939.98 14:2422 15:145.40401 16:166.222 17:0.33333299 18:13.8667 19:0.297297 20:0.58828503 21:0.39706999 22:1.03721 23:4.5152302 24:2.0999999 # Flowers/Shape5/shape5-019.ppm
2.4525842640795531523346348767333e-12 1:464180 2:856278 3:546210 4:2842.73 5:18586.6 6:4.0227299 7:113.628 8:30171.9 9:13 10:88 11:55 12:293 13:7472.4502 14:5274.77 15:157.703 16:172.127 17:0.239437 18:19.9286 19:0.128205 20:0.84982002 21:0.152945 22:0.40203401 23:5.7200298 24:3.2316401 # Flowers/Shape1/shape1-072.ppm
-1.0972992101789418330240643341964e-12 1:360381 2:698301 3:547806 4:2768.3301 5:15135.2 6:3.88889 7:104.912 8:45996.102 9:17 10:90 11:26 12:324 13:7877.6299 14:4004.23 15:155.485 16:165.769 17:0.45161301 18:23.9231 19:0.16883101 20:0.65786201 21:0.182907 22:0.52048498 23:11.4869 24:4.3714299 # Flowers/Shape5/shape5-018.ppm
2.4525842640795531523346348767333e-12 1:151412 2:267344 3:207694 4:1722.55 5:6874.1401 6:3.6981101 7:103.909 8:33329.199 9:18 10:53 11:26 12:209 13:4870.2202 14:2856.8401 15:154.27299 16:165 17:0.35897401 18:18 19:0.26190501 20:0.72901601 21:0.25058401 22:0.70848501 23:11.6665 24:4.8673501 # Flowers/Shape1/shape1-001.ppm
-2.4525842640795531523346348767333e-12 1:116941 2:353701 3:199828 4:1892.5601 5:5200.3901 6:3.5833299 7:104.192 8:9503.3203 9:8 10:48 11:30 12:213 13:4919.4702 14:2436.28 15:150.638 16:166.16701 17:0.54838699 18:12.3125 19:0.26315799 20:0.585208 21:0.36392701 22:0.94598001 23:3.9007499 24:2.2325599 # Flowers/Shape5/shape5-060.ppm
2.4525842640795531523346348767333e-12 1:465724 2:852546 3:545288 4:2840.0801 5:19244.801 6:4.1276598 7:109.065 8:56410.398 9:19 10:94 11:59 12:293 13:7451.3999 14:4954.5098 15:157.737 16:173.47501 17:0.27026999 18:23.4167 19:0.146341 20:0.85408998 21:0.147577 22:0.38719001 23:11.3857 24:4.6030898 # Flowers/Shape1/shape1-092.ppm
-2.4525842640795531523346348767333e-12 1:249190 2:629475 3:399998 4:2376.3501 5:11150.8 6:3.7249999 7:103.266 8:24884.6 9:13 10:80 11:22 12:321 13:7425.1099 14:3114.8701 15:147.01601 16:156.81799 17:0.53846198 18:15.05 19:0.15942 20:0.62297702 21:0.213111 22:0.665883 23:7.9889498 24:3.4899299 # Flowers/Shape5/shape5-068.ppm
1.0972992101784765439295032561293e-12 1:148902 2:257335 3:196871 4:1657.04 5:5454.2798 6:3.55 7:104.569 8:22167.1 9:13 10:40 11:30 12:194 13:4685.2598 14:3722.5601 15:153.53101 16:165.467 17:0.29032299 18:15.1667 19:0.25 20:0.75634599 21:0.30380601 22:0.85900801 23:5.9547901 24:3.6619699 # Flowers/Shape1/shape1-017.ppm
-2.4525842640795531523346348767333e-12 1:117680 2:358605 3:200012 4:1891.1 5:4882.9502 6:3.4347799 7:102.571 8:9852.0303 9:7 10:46 11:27 12:215 13:4931 14:2558.26 15:149.55299 16:163.66701 17:0.48387101 18:15.5385 19:0.24324299 20:0.58836502 21:0.38728601 22:1.00984 23:3.8510799 24:2.0379701 # Flowers/Shape5/shape5-040.ppm
2.4525842640795531523346348767333e-12 1:264029 2:629532 3:408390 4:2405.0701 5:11455 6:3.8309901 7:106.229 8:57255.5 9:21 10:71 11:32 12:322 13:6808.6499 14:3718.71 15:139.30701 16:168.688 17:0.44898 18:10.9259 19:0.16393401 20:0.64651197 21:0.209958 22:0.594383 23:15.3966 24:5.4816198 # Flowers/Shape1/shape1-069.ppm
2.4525842640795531523346348767333e-12 1:150682 2:283023 3:196272 4:1656.76 5:5316.0698 6:3.58974 7:101.861 8:23235.199 9:13 10:39 11:36 12:192 13:4655.2598 14:3863.6299 15:155.422 16:166.08299 17:0.444444 18:20.3333 19:0.25806499 20:0.76771897 21:0.31165099 22:0.87569398 23:6.0138202 24:3.6214299 # Flowers/Shape1/shape1-098.ppm
2.4525842640795531523346348767333e-12 1:130804 2:314514 3:228856 4:1795.02 5:5135.0298 6:3.1698101 7:114.339 8:9852.0303 9:9 10:53 11:19 12:247 13:5968.8701 14:2467.99 15:157.77699 16:155.68401 17:0.32499999 18:26.444401 19:0.472222 20:0.57155299 21:0.34956399 22:1.16238 23:3.99192 24:2.8392899 # Flowers/Shape1/shape1-044.ppm
-2.4525842640795531523346348767333e-12 1:169525 2:405573 3:290725 4:2046.8 5:7595.7798 6:3.5185201 7:111.044 8:26590.4 9:14 10:54 11:22 12:239 13:5624.5098 14:3139.3401 15:146.59399 16:157.091 17:0.285714 18:13.9375 19:0.148936 20:0.58310997 21:0.26946601 22:0.74047798 23:8.4700603 24:3.97895 # Flowers/Shape5/shape5-000.ppm
2.4525842640795531523346348767333e-12 1:451654 2:739784 3:552714 4:3023.74 5:20618 6:4.1414099 7:109.804 8:32685.1 9:12 10:99 11:74 12:340 13:7893.52 14:4562.1602 15:156.44701 16:174.108 17:0.2375 18:21.6667 19:0.151163 20:0.81715697 21:0.14665499 22:0.382846 23:7.1643901 24:2.8975599 # Flowers/Shape1/shape1-014.ppm
-2.4525842640795531523346348767333e-12 1:216950 2:522415 3:403149 4:2448.74 5:7705.0601 6:3.3 7:106.659 8:17203.4 9:5 10:60 11:27 12:290 13:6874.9302 14:3615.8301 15:150.414 16:164 17:0.36363599 18:11.6087 19:0.17647099 20:0.53813702 21:0.31780899 22:0.89226198 23:4.7578001 24:1.51515 # Flowers/Shape5/shape5-042.ppm
2.4525842640795531523346348767333e-12 1:129191 2:315120 3:228557 4:1796.39 5:5015.1299 6:3.34694 7:106.183 8:20106.199 9:10 10:49 11:18 12:245 13:5973.6099 14:2636.54 15:155.661 16:153.11099 17:0.40000001 18:16.5 19:0.441176 20:0.56524497 21:0.35819301 22:1.19112 23:7.6259599 24:2.9877999 # Flowers/Shape1/shape1-024.ppm
-2.4525842640795531523346348767333e-12 1:168412 2:406134 3:289378 4:2043.48 5:7508.2798 6:3.6226399 7:108.489 8:24884.6 9:13 10:53 11:22 12:194 13:5532.4902 14:3177.5901 15:153.144 16:156.5 17:0.35897401 18:16.6364 19:0.17777801 20:0.58197898 21:0.272163 22:0.73685199 23:7.8312702 24:3.5885401 # Flowers/Shape5/shape5-020.ppm
2.4525842640795531523346348767333e-12 1:446173 2:736725 3:548636 4:3015.0901 5:17505.199 6:3.95349 7:108.529 8:33329.199 9:7 10:86 11:66 12:253 13:7620.0601 14:5188.0601 15:169.545 16:172.061 17:0.482759 18:49.599998 19:0.16216201 20:0.813241 21:0.17224 22:0.435303 23:6.4242101 24:1.7705899 # Flowers/Shape1/shape1-055.ppm
-2.4525842640795531523346348767333e-12 1:312372 2:666824 3:489482 4:2615.0901 5:13086.3 6:3.7931001 7:105.379 8:33329.199 9:12 10:87 11:30 12:350 13:8290.9805 14:3590.48 15:153.937 16:166.267 17:0.52631599 18:34 19:0.208333 20:0.63816899 21:0.19983301 22:0.63356 23:9.28265 24:3.16364 # Flowers/Shape5/shape5-074.ppm
2.4525842640795531523346348767333e-12 1:131415 2:313040 3:228154 4:1792.03 5:5121.3999 6:3.28 7:108.623 8:10935.9 9:10 10:50 11:19 12:241 13:5926.79 14:2628.3 15:159.45599 16:155.211 17:0.38888901 18:29.125 19:0.42857099 20:0.575993 21:0.34990999 22:1.1572599 23:4.16081 24:3.04878 # Flowers/Shape1/shape1-003.ppm
-2.4525842640795531523346348767333e-12 1:173152 2:406224 3:290844 4:2045.4301 5:8000.48 6:3.8387101 7:106.227 8:9852.0303 9:6 10:62 11:22 12:232 13:5534.98 14:2792.78 15:148.211 16:157.31799 17:0.67567599 18:16.846201 19:0.21568599 20:0.59534502 21:0.25566301 22:0.69183099 23:3.5276799 24:1.56303 # Flowers/Shape5/shape5-041.ppm
2.4525842640795531523346348767333e-12 1:264723 2:631120 3:408296 4:2405.49 5:10880.6 6:3.8787899 7:104.621 8:58964.602 9:18 10:66 11:29 12:251 13:6664.3799 14:4010.95 15:154.912 16:164.207 17:0.346939 18:19.9167 19:0.157895 20:0.64836001 21:0.221081 22:0.61250198 23:14.7009 24:4.6406202 # Flowers/Shape1/shape1-089.ppm
-2.4525842640795531523346348767333e-12 1:241320 2:480000 3:342795 4:2238.0601 5:9195.96 6:3.63077 7:111.655 8:16741.5 9:9 10:65 11:46 12:304 13:6834.9102 14:3712.6201 15:146.56599 16:169.478 17:0.47727299 18:20.7143 19:0.203704 20:0.703978 21:0.243375 22:0.74325103 23:4.5093598 24:2.4788101 # Flowers/Shape5/shape5-014.ppm
2.4525842640795531523346348767333e-12 1:160245 2:386100 3:310072 4:2063.8501 5:5845.4199 6:3.4074099 7:102.623 8:11309.7 9:9 10:54 11:26 12:336 13:7713.71 14:2967.5 15:148.51801 16:164.577 17:0.45945901 18:12.44 19:0.384615 20:0.51679802 21:0.35307199 22:1.31962 23:3.8112099 24:2.6413 # Flowers/Shape1/shape1-016.ppm
-2.4525842640795531523346348767333e-12 1:242629 2:479598 3:342210 4:2237.23 5:11121.8 6:3.58025 7:111.507 8:8171.2798 9:8 10:81 11:46 12:303 13:6809.1699 14:2995.4199 15:147.155 16:169.696 17:0.372881 18:14.9474 19:0.191176 20:0.70900398 21:0.20115601 22:0.612234 23:2.7279301 24:2.2344799 # Flowers/Shape5/shape5-035.ppm
2.4525842640795531523346348767333e-12 1:264694 2:537192 3:408958 4:2407.22 5:9728.04 6:3.7704899 7:106.349 8:43743.5 9:16 10:61 11:33 12:263 13:6693.0098 14:4339.25 15:151.65401 16:164.364 17:0.60526299 18:20.9167 19:0.22 20:0.64723998 21:0.24745101 22:0.688012 23:10.0809 24:4.2434802 # Flowers/Shape1/shape1-029.ppm
-2.4525842640795531523346348767333e-12 1:239554 2:477600 3:343571 4:2238.72 5:9721.6797 6:3.7611899 7:110.627 8:16741.5 9:7 10:67 11:44 12:311 13:6872.6899 14:3575.4299 15:144.804 16:168.114 17:0.55813998 18:22.9231 19:0.240741 20:0.69724602 21:0.230281 22:0.70694399 23:4.6823902 24:1.86111 # Flowers/Shape5/shape5-055.ppm
2.4525842640795531523346348767333e-12 1:185305 2:455060 3:309677 4:2062.55 5:7013.98 6:3.38235 7:105.321 8:12076.3 9:12 10:68 11:24 12:332 13:7619.1299 14:2725.0801 15:151.52699 16:162.33299 17:0.38775501 18:12.28 19:0.33333299 20:0.598382 21:0.29406199 22:1.08628 23:4.43154 24:3.5478301 # Flowers/Shape1/shape1-097.ppm
-2.4525842640795531523346348767333e-12 1:243703 2:502052 3:343401 4:2240.95 5:10229.3 6:3.8181801 7:109.731 8:16741.5 9:11 10:66 11:51 12:295 13:6762.8901 14:3692.47 15:149.492 16:171.49001 17:0.375 18:16.3529 19:0.222222 20:0.70967603 21:0.219073 22:0.66113299 23:4.5339599 24:2.88095 # Flowers/Shape5/shape5-075.ppm
2.4525842640795531523346348767333e-12 1:187053 2:455806 3:310283 4:2064.73 5:7635.0498 6:3.4054101 7:106.989 8:11689.9 9:12 10:74 11:25 12:335 13:7669.3799 14:2527.74 15:150.875 16:163.52 17:0.45098001 18:18.7059 19:0.32142901 20:0.60284603 21:0.270428 22:1.0045 23:4.62463 24:3.5238099 # Flowers/Shape1/shape1-077.ppm
-2.4525842640795531523346348767333e-12 1:169568 2:404271 3:289302 4:2043.59 5:6999.6401 6:3.67857 7:101.587 8:9160.8799 9:5 10:56 11:20 12:238 13:5537.7998 14:3028 15:146.32401 16:159.55 17:0.555556 18:13 19:0.217391 20:0.58612698 21:0.29195601 22:0.79115599 23:3.0253899 24:1.35922 # Flowers/Shape5/shape5-021.ppm
2.4525842640795531523346348767333e-12 1:447436 2:735000 3:550666 4:3019.3899 5:17296.4 6:4.1728401 7:114.778 8:33329.199 9:10 10:81 11:65 12:260 13:7705.5298 14:5523.9102 15:167.173 16:174.38499 17:0.285714 18:36.142899 19:0.157143 20:0.812536 21:0.174567 22:0.445499 23:6.0336199 24:2.39645 # Flowers/Shape1/shape1-035.ppm
-2.4525842640795531523346348767333e-12 1:309459 2:661850 3:485869 4:2606.8601 5:13489.1 6:3.8461499 7:105.421 8:38013.301 9:15 10:91 11:29 12:355 13:8345.9697 14:3400.6499 15:150.668 16:164.586 17:0.421875 18:22.6667 19:0.213333 20:0.63691902 21:0.193257 22:0.61872202 23:11.1782 24:3.9000001 # Flowers/Shape5/shape5-094.ppm
2.4525842640795531523346348767333e-12 1:156340 2:264132 3:208178 4:1693.03 5:5671.4902 6:3.5 7:101.764 8:30790.699 9:15 10:44 11:33 12:208 13:4864.02 14:3553.1799 15:148.726 16:165.121 17:0.375 18:15 19:0.189189 20:0.750992 21:0.29851499 22:0.85762697 23:8.6656904 24:4.2857099 # Flowers/Shape1/shape1-060.ppm
-2.4525842640795531523346348767333e-12 1:161358 2:413253 3:279144 4:2004.77 5:7789.6899 6:3.6774199 7:105.247 8:13273.2 9:11 10:62 11:24 12:258 13:5919.6499 14:2602.55 15:152.18201 16:163.58299 17:0.31914899 18:17.4286 19:0.169811 20:0.57804698 21:0.25736201 22:0.75993299 23:5.10008 24:2.99123 # Flowers/Shape5/shape5-067.ppm
2.4525842640795531523346348767333e-12 1:264712 2:535896 3:408356 4:2404.3601 5:10742.4 6:3.9166701 7:106.329 8:48305.102 9:15 10:72 11:30 12:257 13:6699.98 14:3676.55 15:150.38499 16:165.533 17:0.53191501 18:31.125 19:0.2 20:0.648238 21:0.223819 22:0.62369502 23:13.1387 24:3.8297901 # Flowers/Shape1/shape1-008.ppm
-2.4525842640795531523346348767333e-12 1:240281 2:503480 3:350346 4:2315.9199 5:11325.6 6:3.8684199 7:108.495 8:23778.699 9:12 10:76 11:45 12:301 13:6348.3599 14:3161.5901 15:145.688 16:171.644 17:0.40740699 18:14.05 19:0.15151501 20:0.68583697 21:0.204485 22:0.56053102 23:7.5211401 24:3.1020401 # Flowers/Shape5/shape5-073.ppm
2.4525842640795531523346348767333e-12 1:131504 2:345897 3:229432 4:1797.33 5:5235.6499 6:3.2363601 7:110.089 8:10207 9:8 10:55 11:19 12:271 13:6069.3101 14:2390.98 15:150.40601 16:154.158 17:0.375 18:14.0556 19:0.447368 20:0.57317197 21:0.34328699 22:1.15923 23:4.26898 24:2.47191 # Flowers/Shape1/shape1-064.ppm
-2.4525842640795531523346348767333e-12 1:159381 2:412794 3:278041 4:2002.1899 5:7238.25 6:3.5999999 7:107.263 8:13273.2 9:8 10:60 11:24 12:245 13:5858.3901 14:2656.3501 15:154.151 16:162.375 17:0.42857099 18:16.5 19:0.17647099 20:0.57322901 21:0.27661201 22:0.80936497 23:4.9967899 24:2.2222199 # Flowers/Shape5/shape5-006.ppm
2.4525842640795531523346348767333e-12 1:465018 2:730635 3:545810 4:2841.29 5:19531.5 6:4.1052599 7:111.42 8:36643.5 9:15 10:95 11:60 12:298 13:7472.0298 14:4894.9302 15:156.42599 16:172.883 17:0.25 18:20.2857 19:0.130952 20:0.851978 21:0.14547201 22:0.38256299 23:7.4860301 24:3.6538501 # Flowers/Shape1/shape1-052.ppm
-2.4525842640795531523346348767333e-12 1:277162 2:565468 3:440682 4:2491.6201 5:11882 6:3.5824201 7:103.115 8:27759.1 9:10 10:91 11:28 12:346 13:8140.2002 14:3045.73 15:144.74899 16:161.25 17:0.31884101 18:14.7273 19:0.166667 20:0.62893701 21:0.20969801 22:0.68509001 23:9.1141005 24:2.79141 # Flowers/Shape5/shape5-030.ppm
2.4525842640795531523346348767333e-12 1:133202 2:342171 3:228430 4:1792.05 5:5745.8301 6:3.3898301 7:104.794 8:8494.8701 9:10 10:59 11:16 12:275 13:6009.9702 14:2257.6699 15:145.89101 16:157.562 17:0.37209299 18:14.2778 19:0.404762 20:0.583121 21:0.311887 22:1.04597 23:3.7626801 24:2.95 # Flowers/Shape1/shape1-084.ppm
-2.4525842640795531523346348767333e-12 1:239103 2:504708 3:349672 4:2317.6399 5:11445.8 6:3.91892 7:108.602 8:23778.699 9:11 10:74 11:43 12:286 13:6290.2598 14:3231.1201 15:147.416 16:169.093 17:0.42307699 18:13.3 19:0.174603 20:0.683792 21:0.20248801 22:0.549568 23:7.3592901 24:2.8069 # Flowers/Shape5/shape5-093.ppm
2.4525842640795531523346348767333e-12 1:265894 2:535716 3:407338 4:2403.6599 5:12324.7 6:3.9000001 7:110.651 8:58106.898 9:20 10:80 11:30 12:326 13:6754.7798 14:3323.6699 15:143.98199 16:165.33299 17:0.42857099 18:18.1765 19:0.15942 20:0.652758 21:0.19502801 22:0.54806697 23:17.4828 24:5.1282101 # Flowers/Shape1/shape1-049.ppm
-2.4525842640795531523346348767333e-12 1:240210 2:502052 3:343699 4:2241.24 5:10056.3 6:3.71014 7:108.77 8:8171.2798 9:7 10:69 11:51 12:294 13:6782.8799 14:3481.3101 15:150.452 16:171.52901 17:0.5 18:21.6154 19:0.210526 20:0.698897 21:0.222868 22:0.67448699 23:2.3471899 24:1.8867199 # Flowers/Shape5/shape5-095.ppm
2.4525842640795531523346348767333e-12 1:147099 2:327025 3:206920 4:1718.98 5:6308.1499 6:3.625 7:106.024 8:30790.699 9:16 10:48 11:28 12:211 13:4893.9902 14:3064.5601 15:152.23199 16:162.60699 17:0.41176501 18:16.5833 19:0.26315799 20:0.710899 21:0.27250099 22:0.77582097 23:10.0474 24:4.4137902 # Flowers/Shape1/shape1-062.ppm
-2.4525842640795531523346348767333e-12 1:158049 2:412776 3:279229 4:2003.37 5:6490.2598 6:3.46154 7:103.25 8:13273.2 9:9 10:52 11:26 12:247 13:5849.0601 14:3039.3999 15:154.336 16:164.577 17:0.30000001 18:23.700001 19:0.18181799 20:0.56601799 21:0.30867299 22:0.90120697 23:4.3670602 24:2.5999999 # Flowers/Shape5/shape5-047.ppm
2.4525842640795531523346348767333e-12 1:465851 2:730635 3:545202 4:2840.0601 5:21037 6:4.1782198 7:114.776 8:33979.5 9:16 10:101 11:58 12:298 13:7482.0698 14:4612.3901 15:156.077 16:171.172 17:0.246914 18:28.799999 19:0.134831 20:0.85445601 21:0.135003 22:0.35566199 23:7.3670001 24:3.82938 # Flowers/Shape1/shape1-011.ppm
-2.4525842640795531523346348767333e-12 1:274312 2:563220 3:439215 4:2488.71 5:11296.1 6:3.63415 7:106.56 8:27759.1 9:15 10:82 11:23 12:338 13:8116.0298 14:3345.26 15:145.63 16:160.13 17:0.366667 18:13.6957 19:0.18840601 20:0.62454998 21:0.22031599 22:0.71848297 23:8.2980404 24:4.1275201 # Flowers/Shape5/shape5-009.ppm
2.4525842640795531523346348767333e-12 1:149927 2:262728 3:206524 4:1714.76 5:6701.5 6:3.5849099 7:104.788 8:32685.1 9:18 10:53 11:27 12:200 13:4808.48 14:2828.8101 15:157.64 16:164.741 17:0.29268301 18:39 19:0.232558 20:0.72595203 21:0.25587699 22:0.71752298 23:11.5544 24:5.02105 # Flowers/Shape1/shape1-042.ppm
-2.4525842640795531523346348767333e-12 1:157244 2:413253 3:278415 4:2003.41 5:6049.4502 6:3.3461499 7:108.811 8:12076.3 9:9 10:52 11:22 12:250 13:5899.3101 14:3023.9199 15:151.588 16:157.68201 17:0.30000001 18:14.625 19:0.20930199 20:0.56478298 21:0.331173 22:0.97518098 23:3.9935801 24:2.6896601 # Flowers/Shape5/shape5-087.ppm
2.4525842640795531523346348767333e-12 1:289718 2:559770 3:348754 4:2279.9099 5:13022.6 6:4.1315799 7:110.059 8:28952.9 9:15 10:76 11:50 12:245 13:5955.8599 14:3812.0801 15:158.147 16:172.32001 17:0.206349 18:23.5 19:0.13432799 20:0.83072299 21:0.175073 22:0.45734701 23:7.5950398 24:3.6305699 # Flowers/Shape1/shape1-093.ppm
-2.4525842640795531523346348767333e-12 1:228188 2:518752 3:342758 4:2373.9099 5:9469.7598 6:3.4814799 7:109.368 8:28352.9 9:14 10:81 11:30 12:317 13:7459.4302 14:2817.1399 15:155.38499 16:165.60001 17:0.42105299 18:20.133301 19:0.208955 20:0.66574198 21:0.25068301 22:0.78771102 23:10.0644 24:4.0212798 # Flowers/Shape5/shape5-016.ppm
2.4525842640795531523346348767333e-12 1:148886 2:326510 3:207343 4:1719.12 5:7072.98 6:3.70909 7:99.5839 8:30171.9 9:18 10:55 11:28 12:204 13:4837.71 14:2707.02 15:155.662 16:163.821 17:0.341463 18:21.6667 19:0.25 20:0.71806699 21:0.243054 22:0.68397099 23:11.1458 24:4.8529401 # Flowers/Shape1/shape1-082.ppm
-2.4525842640795531523346348767333e-12 1:155965 2:410234 3:277728 4:2000.23 5:5837.4199 6:3.24 7:100.955 8:6647.6099 9:5 10:50 11:24 12:250 13:5901.6602 14:3119.3 15:151.692 16:162.45799 17:0.35135099 18:18.230801 19:0.282051 20:0.56157303 21:0.342657 22:1.011 23:2.13113 24:1.54321 # Flowers/Shape5/shape5-027.ppm
2.4525842640795531523346348767333e-12 1:468917 2:737300 3:549580 4:2850.6399 5:20164.9 6:4.2083302 7:113.062 8:58964.602 9:20 10:96 11:61 12:302 13:7517.8301 14:4884.5498 15:155.646 16:174 17:0.23076899 18:22.230801 19:0.116279 20:0.85322797 21:0.141366 22:0.37281701 23:12.0717 24:4.75248 # Flowers/Shape1/shape1-032.ppm
-2.4525842640795531523346348767333e-12 1:274639 2:566214 3:440574 4:2491.3401 5:12277.8 6:3.55814 7:104.159 8:27759.1 9:13 10:86 11:22 12:354 13:8155.9902 14:3193.47 15:142.528 16:156.909 17:0.34375 18:10.8 19:0.16216201 20:0.623366 21:0.202914 22:0.664285 23:8.6924496 24:3.65359 # Flowers/Shape5/shape5-050.ppm
2.4525842640795531523346348767333e-12 1:138155 2:266700 3:209040 4:1694.71 5:4384.6602 6:3.625 7:101.845 8:33329.199 9:11 10:32 11:34 12:206 13:4866.5298 14:4317.3599 15:151.655 16:166.17599 17:0.52381003 18:14.8462 19:0.23076899 20:0.66090298 21:0.38650799 22:1.1099 23:7.71981 24:3.0344801 # Flowers/Shape1/shape1-040.ppm
-2.4525842640795531523346348767333e-12 1:237230 2:539679 3:349362 4:2315.72 5:11117.1 6:3.8055601 7:110.228 8:22698 9:11 10:72 11:46 12:299 13:6350.8799 14:3294.8601 15:142.94299 16:168.739 17:0.384615 18:14.7368 19:0.180328 20:0.67903697 21:0.20830201 22:0.57126898 23:6.8889098 24:2.8905101 # Flowers/Shape5/shape5-053.ppm
2.4525842640795531523346348767333e-12 1:197356 2:389327 3:272836 4:1946.41 5:7642.9502 6:3.7735801 7:102.279 8:26590.4 9:15 10:53 11:31 12:235 13:5695.04 14:3723.7 15:157.694 16:164.323 17:0.472222 18:17.0769 19:0.20454501 20:0.72334898 21:0.25466701 22:0.74513602 23:7.1408701 24:3.9749999 # Flowers/Shape1/shape1-002.ppm
-2.4525842640795531523346348767333e-12 1:227910 2:515040 3:342518 4:2373.78 5:9940.3096 6:3.4186001 7:107.736 8:14102.6 9:11 10:86 11:29 12:318 13:7449.3999 14:2650.1101 15:155.651 16:166.448 17:0.34375 18:21.7143 19:0.228571 20:0.66539502 21:0.238804 22:0.74941403 23:5.3215199 24:3.21769 # Flowers/Shape5/shape5-037.ppm
2.4525842640795531523346348767333e-12 1:286026 2:525352 3:347612 4:2268.5 5:10315.9 6:3.87692 7:103.615 8:18626.5 9:8 10:65 11:52 12:282 13:6490.2598 14:4400.3901 15:153.47501 16:173.03799 17:0.54761899 18:15.5882 19:0.203704 20:0.82283002 21:0.21990301 22:0.62914997 23:4.2329202 24:2.0634899 # Flowers/Shape1/shape1-074.ppm
-2.4525842640795531523346348767333e-12 1:229397 2:519311 3:343542 4:2375.73 5:10158.6 6:3.54545 7:105.357 8:10568.3 9:7 10:88 11:34 12:309 13:7461.2798 14:2606.79 15:157.69901 16:165.882 17:0.44262299 18:24.75 19:0.25714299 20:0.66774303 21:0.233863 22:0.73447698 23:4.0541501 24:1.97436 # Flowers/Shape5/shape5-057.ppm
2.4525842640795531523346348767333e-12 1:287152 2:523416 3:346676 4:2264.02 5:12136.3 6:3.8181801 7:107.184 8:14102.6 9:12 10:77 11:49 12:283 13:6474.6001 14:3729.24 15:152.912 16:171 17:0.45282999 18:27.299999 19:0.14925399 20:0.82830101 21:0.18655001 22:0.53349 23:3.78163 24:3.1428599 # Flowers/Shape1/shape1-094.ppm
-2.4525842640795531523346348767333e-12 1:237463 2:539968 3:350296 4:2317.3899 5:10303.7 6:3.8209 7:112.175 8:23235.199 9:11 10:67 11:42 12:292 13:6352.27 14:3544.22 15:144.46899 16:167.76199 17:0.48888901 18:10.68 19:0.196429 20:0.67789102 21:0.22490799 22:0.61650199 23:6.5558 24:2.8789101 # Flowers/Shape5/shape5-012.ppm
2.4525842640795531523346348767333e-12 1:291244 2:561358 3:350690 4:2281.98 5:11527.5 6:3.84848 7:107.814 8:66966.203 9:17 10:66 11:48 12:245 13:5943.3599 14:4412.79 15:159.188 16:170.875 17:0.404255 18:34 19:0.137931 20:0.83048898 21:0.19796 22:0.51558 23:15.1755 24:4.4173198 # Flowers/Shape1/shape1-073.ppm
-2.4525842640795531523346348767333e-12 1:253081 2:533065 3:395560 4:2365.5601 5:10805.1 6:3.5 7:104.886 8:23235.199 9:13 10:84 11:23 12:242 13:7333.6299 14:3012.8701 15:158.08701 16:160.13 17:0.44827601 18:29.25 19:0.2 20:0.63980502 21:0.218931 22:0.67872202 23:7.7119799 24:3.7142899 # Flowers/Shape5/shape5-007.ppm
2.4525842640795531523346348767333e-12 1:199778 2:390600 3:274610 4:1951.1899 5:7906.52 6:3.7818201 7:98.254898 8:33329.199 9:17 10:55 11:32 12:237 13:5701.6499 14:3632.3301 15:154.882 16:168.875 17:0.61764699 18:13.8125 19:0.19565199 20:0.72749698 21:0.246782 22:0.72113401 23:9.1756897 24:4.4951901 # Flowers/Shape1/shape1-023.ppm
-2.4525842640795531523346348767333e-12 1:167611 2:459672 3:290960 4:2051.8101 5:6756.8501 6:3.32075 7:109.951 8:25446.9 9:13 10:53 11:19 12:235 13:5560.1499 14:3162.48 15:146.855 16:157.05299 17:0.20454501 18:15.7857 19:0.152174 20:0.57606298 21:0.30366299 22:0.822891 23:8.0465002 24:3.9147699 # Flowers/Shape5/shape5-081.ppm
2.4525842640795531523346348767333e-12 1:284435 2:493751 3:343364 4:2260.77 5:10095.7 6:3.73913 7:104.492 8:17671.5 9:8 10:69 11:50 12:271 13:6454.3398 14:4122.25 15:152.284 16:172.7 17:0.68292701 18:15.9375 19:0.210526 20:0.82837999 21:0.22393499 22:0.63931799 23:4.28685 24:2.1395299 # Flowers/Shape1/shape1-013.ppm
-2.4525842640795531523346348767333e-12 1:238142 2:541812 3:350940 4:2317.1001 5:9920.8203 6:3.8550701 7:106.046 8:11309.7 9:9 10:69 11:43 12:300 13:6381.2998 14:3451.3401 15:141.89 16:169.535 17:0.5 18:24 19:0.232143 20:0.67858398 21:0.233559 22:0.64322299 23:3.2769101 24:2.33459 # Flowers/Shape5/shape5-033.ppm
2.4525842640795531523346348767333e-12 1:200843 2:389958 3:273710 4:1948.63 5:8821.8896 6:3.8620701 7:106.482 8:30790.699 9:19 10:58 11:31 12:239 13:5623.6602 14:3462.8 15:156.946 16:163.323 17:0.44999999 18:16.0714 19:0.16 20:0.73377699 21:0.22088499 22:0.63746703 23:8.89186 24:4.9196401 # Flowers/Shape1/shape1-043.ppm
-2.4525842640795531523346348767333e-12 1:164648 2:459885 3:290570 4:2051.22 5:4801.7998 6:3.3513501 7:100.356 8:10207 9:6 10:37 11:20 12:235 13:5518.5601 14:4449.9399 15:148.66 16:160.25 17:0.76190501 18:12.8235 19:0.42307699 20:0.56663698 21:0.42717701 22:1.1492701 23:2.29374 24:1.79032 # Flowers/Shape5/shape5-061.ppm
2.4525842640795531523346348767333e-12 1:291338 2:487816 3:348600 4:2275.8799 5:11658.4 6:4.0289898 7:106.545 8:21642.4 9:10 10:69 11:45 12:246 13:6003.6099 14:4222.2998 15:155.83701 16:170.711 17:0.254545 18:17.9231 19:0.18965501 20:0.83573997 21:0.195213 22:0.51495802 23:5.1257501 24:2.4820099 # Flowers/Shape1/shape1-033.ppm
-2.4525842640795531523346348767333e-12 1:198372 2:489585 3:350188 4:2196.53 5:9009.1797 6:3.64516 7:103.036 8:43743.5 9:15 10:62 11:23 12:281 13:6387.5098 14:3199.54 15:140.164 16:162 17:0.31914899 18:10.24 19:0.19230799 20:0.56647301 21:0.24381 22:0.70899999 23:13.6718 24:4.1150398 # Flowers/Shape5/shape5-066.ppm
2.4525842640795531523346348767333e-12 1:215062 2:433202 3:270736 4:1964.71 5:8038.6001 6:4 7:102.38 8:53092.898 9:19 10:43 11:39 12:215 13:4684.2598 14:5001.4399 15:149.89799 16:168.46201 17:0.43333301 18:15.5385 19:0.131579 20:0.79436201 21:0.24440999 22:0.58272099 23:10.6155 24:4.75 # Flowers/Shape1/shape1-086.ppm
-2.4525842640795531523346348767333e-12 1:199682 2:489309 3:350578 4:2198.6499 5:8846.1602 6:3.5941999 7:103.648 8:33979.5 9:15 10:69 11:22 12:271 13:6375.3799 14:2893.95 15:145.01801 16:158.364 17:0.38 18:14.0556 19:0.18965501 20:0.56958199 21:0.24854299 22:0.72069502 23:11.7416 24:4.1733899 # Flowers/Shape5/shape5-086.ppm
-2.4525842640795531523346348767333e-12 1:243150 2:524675 3:387816 4:2296.8101 5:10643.5 6:3.46067 7:103.352 8:17671.5 9:9 10:89 11:23 12:336 13:7948.9399 14:2732.02 15:153.735 16:161 17:0.390625 18:21.4 19:0.155844 20:0.62697202 21:0.215795 22:0.74683601 23:6.4682698 24:2.6006501 # Flowers/Shape5/shape5-029.ppm
-2.4525842640795531523346348767333e-12 1:201220 2:500544 3:351230 4:2201.75 5:9329.0098 6:3.5211301 7:107.983 8:43005.301 9:17 10:71 11:23 12:263 13:6415.7202 14:2834.0901 15:148.688 16:161.043 17:0.31481501 18:16.5333 19:0.16393401 20:0.57290202 21:0.236011 22:0.68771702 23:15.1743 24:4.8280001 # Flowers/Shape5/shape5-026.ppm
2.4525842640795531523346348767333e-12 1:281959 2:493751 3:343101 4:2258.7 5:10973 6:3.7260301 7:103.945 8:60698.699 9:15 10:73 11:49 12:258 13:6444.98 14:3862.45 15:153.87199 16:171.89799 17:0.48979601 18:22.4545 19:0.196721 20:0.821796 21:0.205843 22:0.58735102 23:15.7151 24:4.0257401 # Flowers/Shape1/shape1-034.ppm
2.4525842640795531523346348767333e-12 1:288908 2:488684 3:347822 4:2275.0901 5:12743.8 6:3.9154899 7:108.435 8:40828.102 9:17 10:71 11:42 12:250 13:5990.7998 14:4069.1299 15:157.14799 16:167.881 17:0.41999999 18:21.727301 19:0.18333299 20:0.830621 21:0.178526 22:0.47009599 23:10.0336 24:4.3417301 # Flowers/Shape1/shape1-053.ppm
2.4525842640795531523346348767333e-12 1:247102 2:444310 3:292838 4:2038.36 5:11027.4 6:3.65432 7:110.056 8:16286 9:9 10:81 11:54 12:254 13:6213.0898 14:3050.6499 15:153.69701 16:171.519 17:0.42105299 18:13.9412 19:0.208955 20:0.84382099 21:0.184844 22:0.56342101 23:5.3385501 24:2.4628401 # Flowers/Shape1/shape1-056.ppm
-2.4525842640795531523346348767333e-12 1:209370 2:508200 3:350950 4:2252.7 5:8692.5098 6:3.76667 7:101.916 8:32047.4 9:14 10:60 11:20 12:243 13:5884.02 14:3489.5 15:150.543 16:160.2 17:0.395349 18:23.299999 19:0.22449 20:0.59658098 21:0.25915399 22:0.676907 23:9.18396 24:3.71681 # Flowers/Shape5/shape5-064.ppm
2.4525842640795531523346348767333e-12 1:214888 2:436437 3:270925 4:1965.83 5:7487.71 6:3.9473701 7:106.527 8:64242.398 9:20 10:38 11:36 12:219 13:4688.4302 14:5654.9302 15:147.959 16:165.806 17:0.46153799 18:11.8824 19:0.15151501 20:0.79316199 21:0.262541 22:0.62615001 23:11.3604 24:5.0666699 # Flowers/Shape1/shape1-066.ppm
-2.4525842640795531523346348767333e-12 1:210412 2:508269 3:353921 4:2255.78 5:8595.2197 6:3.62712 7:103.8 8:32685.1 9:14 10:59 11:23 12:250 13:5920.3999 14:3566.3101 15:151.808 16:161.34801 17:0.439024 18:21.727301 19:0.229167 20:0.59451801 21:0.262445 22:0.688802 23:9.1649704 24:3.8598101 # Flowers/Shape5/shape5-044.ppm
2.4525842640795531523346348767333e-12 1:286853 2:494064 3:343327 4:2260.55 5:12593.6 6:3.8139501 7:105.864 8:60698.699 9:20 10:86 11:50 12:270 13:6483.0898 14:3335.5 15:152.181 16:172.75999 17:0.53571397 18:17 19:0.194444 20:0.83551002 21:0.179501 22:0.51479298 23:18.1978 24:5.2438998 # Flowers/Shape1/shape1-054.ppm
-2.4525842640795531523346348767333e-12 1:208376 2:508269 3:351212 4:2247.3899 5:8059.7002 6:3.67273 7:102.224 8:33329.199 9:12 10:55 11:23 12:241 13:5874.98 14:3788.6499 15:154.892 16:161.34801 17:0.447368 18:25.7778 19:0.19565199 20:0.59330398 21:0.27884299 22:0.72893298 23:8.7971096 24:3.2673299 # Flowers/Shape5/shape5-003.ppm
2.4525842640795531523346348767333e-12 1:289819 2:488684 3:348356 4:2274.99 5:12900.8 6:4.05479 7:110.466 8:58106.898 9:18 10:73 11:49 12:244 13:6011.6499 14:3970.1201 15:156.791 16:172.367 17:0.25862101 18:16.4286 19:0.17741901 20:0.83196098 21:0.17634501 22:0.46599001 23:14.6361 24:4.4391899 # Flowers/Shape1/shape1-012.ppm
-2.4525842640795531523346348767333e-12 1:202178 2:502665 3:351865 4:2204.5 5:9052.3701 6:3.6716399 7:102.38 8:41547.602 9:16 10:67 11:20 12:261 13:6378.73 14:3017.5801 15:149.36 16:160.8 17:0.42553201 18:16.4 19:0.175439 20:0.57459003 21:0.243527 22:0.70464802 23:13.7685 24:4.3577199 # Flowers/Shape5/shape5-046.ppm
2.4525842640795531523346348767333e-12 1:245464 2:445095 3:293847 4:2039.99 5:10930.2 6:3.8499999 7:108.61 8:27171.6 9:16 10:80 11:51 12:264 13:6209.0601 14:3068.3 15:152.25 16:171.431 17:0.45454499 18:17.8571 19:0.23076899 20:0.835347 21:0.186638 22:0.56806397 23:8.8555899 24:4.1558399 # Flowers/Shape1/shape1-036.ppm
-2.4525842640795531523346348767333e-12 1:196182 2:497718 3:348992 4:2195.0801 5:8346.8604 6:3.6896601 7:108.474 8:43005.301 9:15 10:58 11:22 12:260 13:6303.9702 14:3382.4399 15:149.46201 16:157.27299 17:0.34883699 18:16.3333 19:0.208333 20:0.56213897 21:0.26298299 22:0.75525099 23:12.7143 24:4.0654202 # Flowers/Shape5/shape5-005.ppm
2.4525842640795531523346348767333e-12 1:198664 2:382277 3:273598 4:1948.59 5:7625.3501 6:3.68627 7:105.912 8:32685.1 9:16 10:51 11:30 12:190 13:5551.7798 14:3895.3701 15:164.847 16:164.567 17:0.378378 18:30.6667 19:0.186047 20:0.72611398 21:0.255541 22:0.72807002 23:8.39077 24:4.3404298 # Flowers/Shape1/shape1-083.ppm
-2.4525842640795531523346348767333e-12 1:207984 2:506160 3:350153 4:2245.26 5:9365.6602 6:3.7910399 7:108.348 8:23778.699 9:12 10:67 11:21 12:241 13:5833.8501 14:3104.25 15:156.444 16:156.619 17:0.48888901 18:47.200001 19:0.196429 20:0.59398198 21:0.239733 22:0.62289798 23:7.6600599 24:3.16535 # Flowers/Shape5/shape5-024.ppm
2.4525842640795531523346348767333e-12 1:238912 2:440914 3:288834 4:2027.28 5:8642.5898 6:3.63077 7:108.994 8:53912.898 9:6 10:65 11:47 12:246 13:6227.6899 14:3675.5701 15:155.51199 16:171.702 17:0.444444 18:17.9231 19:0.160714 20:0.82716101 21:0.234568 22:0.720581 23:14.6679 24:1.65254 # Flowers/Shape1/shape1-015.ppm
-2.4525842640795531523346348767333e-12 1:207375 2:504135 3:349980 4:2244.52 5:9457.9404 6:3.90909 7:104.396 8:17203.4 9:11 10:66 11:23 12:233 13:5850.7798 14:3142.05 15:149.32201 16:160.478 17:0.466667 18:22.299999 19:0.137931 20:0.59253401 21:0.237315 22:0.61861002 23:5.4752102 24:2.8139501 # Flowers/Shape5/shape5-084.ppm
2.4525842640795531523346348767333e-12 1:212952 2:420090 3:271645 4:1931.61 5:8819.5596 6:4.0377402 7:102.696 8:67886.703 9:20 10:53 11:36 12:209 13:4895.5601 14:4017.96 15:153.70799 16:165.75 17:0.26190501 18:19.9 19:0.12766001 20:0.78393501 21:0.219015 22:0.55508 23:16.8958 24:4.95327 # Flowers/Shape1/shape1-088.ppm
-2.4525842640795531523346348767333e-12 1:244645 2:526029 3:387818 4:2299.3601 5:10296.6 6:3.50649 7:104.492 8:5281.02 9:5 10:77 11:22 12:340 13:7973.27 14:3177.21 15:153.912 16:156.364 17:0.375 18:21.6667 19:0.203125 20:0.63082498 21:0.223314 22:0.77436101 23:1.66216 24:1.42593 # Flowers/Shape5/shape5-049.ppm
2.4525842640795531523346348767333e-12 1:197287 2:380474 3:271804 4:1942.89 5:8204.3203 6:3.7777801 7:110.647 8:35298.898 9:19 10:54 11:30 12:200 13:5588.8398 14:3653.47 15:160.78 16:165.10001 17:0.384615 18:21.2222 19:0.173913 20:0.72584498 21:0.23681299 22:0.681207 23:9.6617603 24:5.0294099 # Flowers/Shape1/shape1-063.ppm
-2.4525842640795531523346348767333e-12 1:240959 2:527175 3:389360 4:2302.3401 5:10994.6 6:3.68293 7:105.914 8:16741.5 9:12 10:82 11:22 12:337 13:7958.6499 14:2938.53 15:153.72099 16:157.409 17:0.38983101 18:29.6364 19:0.17142899 20:0.61886102 21:0.209406 22:0.72386801 23:5.6972499 24:3.25828 # Flowers/Shape5/shape5-008.ppm
2.4525842640795531523346348767333e-12 1:210724 2:418836 3:271231 4:1928.91 5:8456.1299 6:3.95455 7:101.723 8:75476.797 9:24 10:44 11:36 12:209 13:4879.4102 14:4789.1802 15:154.325 16:166.36099 17:0.41935501 18:22.2222 19:0.157895 20:0.77691698 21:0.228108 22:0.57702601 23:15.7598 24:6.0689702 # Flowers/Shape1/shape1-068.ppm
-2.4525842640795531523346348767333e-12 1:245827 2:539320 3:397810 4:2372.78 5:10336.5 6:3.6315801 7:104.159 8:24328.5 9:10 10:76 11:21 12:308 13:7425.77 14:3234.5601 15:148.084 16:156.095 17:0.51999998 18:10 19:0.169231 20:0.61795002 21:0.229554 22:0.71840298 23:7.52141 24:2.7536199 # Flowers/Shape5/shape5-048.ppm
2.4525842640795531523346348767333e-12 1:239593 2:378012 3:291862 4:2035.95 5:10887.2 6:3.8205099 7:112.303 8:27759.1 9:18 10:78 11:45 12:263 13:6228.6099 14:3071.71 15:155.008 16:171.267 17:0.47169799 18:25.299999 19:0.25806499 20:0.82091099 21:0.187004 22:0.57210398 23:9.0370302 24:4.71141 # Flowers/Shape1/shape1-076.ppm
-2.4525842640795531523346348767333e-12 1:213862 2:524426 3:362516 4:2268.3201 5:8875.9404 6:3.30233 7:111.734 8:9852.0303 9:8 10:86 11:21 12:282 13:7490.48 14:2486.77 15:154.84399 16:156.19 17:0.34375 18:17.799999 19:0.194444 20:0.589939 21:0.25555801 22:0.84390903 23:3.9617801 24:2.4225399 # Flowers/Shape5/shape5-043.ppm
2.4525842640795531523346348767333e-12 1:237613 2:378740 3:291972 4:2035.54 5:7793.98 6:3.65517 7:107.058 8:54739.102 9:5 10:58 11:49 12:263 13:6216.6401 14:4096.7798 15:154.065 16:171.082 17:0.48717901 18:19.230801 19:0.208333 20:0.81382102 21:0.261168 22:0.79762 23:13.3615 24:1.36792 # Flowers/Shape1/shape1-096.ppm
-2.4525842640795531523346348767333e-12 1:213766 2:525481 3:365338 4:2279.3999 5:8615.9297 6:3.3513501 7:108.354 8:11689.9 9:11 10:74 11:21 12:316 13:7557.1899 14:2888.73 15:153.155 16:157 17:0.27586201 18:14.8 19:0.23333301 20:0.585118 21:0.26455599 22:0.87711698 23:4.04671 24:3.2822599 # Flowers/Shape5/shape5-083.ppm
2.4525842640795531523346348767333e-12 1:156058 2:313560 3:207923 4:1690.6801 5:5969.46 6:3.5999999 7:101.359 8:33329.199 9:15 10:45 11:31 12:208 13:4861.6899 14:3467.96 15:150.88901 16:163.452 17:0.32352901 18:15 19:0.216216 20:0.75055701 21:0.28322101 22:0.81442702 23:9.6106005 24:4.1666698 # Flowers/Shape1/shape1-080.ppm
-2.4525842640795531523346348767333e-12 1:208426 2:524076 3:363646 4:2273.47 5:8505.79 6:3.5820899 7:104.26 8:10568.3 9:8 10:67 11:19 12:316 13:7523.9302 14:3110.8401 15:153.5 16:153.842 17:0.39583299 18:14.0476 19:0.26415101 20:0.573156 21:0.26728499 22:0.884565 23:3.39726 24:2.23333 # Flowers/Shape5/shape5-063.ppm
2.4525842640795531523346348767333e-12 1:216943 2:332800 3:272118 4:1966.58 5:7362.6099 6:3.94872 7:104.852 8:54739.102 9:19 10:39 11:38 12:231 13:4728.54 14:5562.6299 15:142.381 16:166.31599 17:0.444444 18:18.25 19:0.14705899 20:0.79723901 21:0.267104 22:0.64223701 23:9.8405104 24:4.8116899 # Flowers/Shape1/shape1-046.ppm
-2.4525842640795531523346348767333e-12 1:246131 2:557424 3:388907 4:2300.3101 5:10485.8 6:3.3793099 7:104.647 8:17671.5 9:10 10:87 11:22 12:349 13:8089.1499 14:2829.1001 15:149.842 16:158.591 17:0.380952 18:18.388901 19:0.16 20:0.63287997 21:0.219374 22:0.771438 23:6.2463298 24:2.9591801 # Flowers/Shape5/shape5-089.ppm
2.4525842640795531523346348767333e-12 1:216485 2:331911 3:271630 4:1967.21 5:6806.2402 6:3.94118 7:100.62 8:54739.102 9:17 10:34 11:42 12:224 13:4730.8301 14:6367.2002 15:144.759 16:167.619 17:0.47826099 18:17.6667 19:0.172414 20:0.796983 21:0.28902999 22:0.69507301 23:8.5970402 24:4.3134298 # Flowers/Shape1/shape1-026.ppm
-2.4525842640795531523346348767333e-12 1:238323 2:554125 3:387308 4:2294.77 5:9923.8799 6:3.5733299 7:102.176 8:17671.5 9:12 10:75 11:25 12:340 13:8021.2202 14:3177.6399 15:152.271 16:164.56 17:0.44230801 18:17.888901 19:0.190476 20:0.61533302 21:0.23123699 22:0.80827397 23:5.5611901 24:3.3582101 # Flowers/Shape5/shape5-069.ppm
2.4525842640795531523346348767333e-12 1:193423 2:331194 3:224396 4:1738.66 5:8752.0898 6:3.7377 7:106.617 8:40115 9:16 10:61 11:45 12:203 13:4581.8799 14:3170.8701 15:143.714 16:171.04401 17:0.29787201 18:9.1499996 19:0.173077 20:0.86197102 21:0.19865701 22:0.52351803 23:12.6511 24:4.2807002 # Flowers/Shape1/shape1-079.ppm
-2.4525842640795531523346348767333e-12 1:218396 2:520492 3:404720 4:2450.51 5:8850.1504 6:3.5692301 7:105.305 8:17203.4 9:7 10:65 11:26 12:287 13:6925.7598 14:3359.9299 15:149.34801 16:165.769 17:0.41304299 18:14.1053 19:0.18181799 20:0.539621 21:0.276889 22:0.78255898 23:5.1201501 24:1.96121 # Flowers/Shape5/shape5-022.ppm
2.4525842640795531523346348767333e-12 1:149196 2:283550 3:196634 4:1657.34 5:5102.8101 6:3.7297299 7:102.921 8:21642.4 9:13 10:37 11:30 12:196 13:4662.8101 14:4032.3201 15:155.041 16:164.733 17:0.54166698 18:20.7778 19:0.32142901 20:0.75875002 21:0.32479 22:0.913773 23:5.36724 24:3.4855101 # Flowers/Shape1/shape1-078.ppm
-2.4525842640795531523346348767333e-12 1:217733 2:522759 3:406344 4:2453.8799 5:9248.2002 6:3.68571 7:105.617 8:8824.7305 9:8 10:70 11:29 12:285 13:6887.1201 14:3110.47 15:153.38901 16:166.207 17:0.42857099 18:15.7647 19:0.186441 20:0.53583401 21:0.26533601 22:0.744699 23:2.8371 24:2.1705401 # Flowers/Shape5/shape5-001.ppm
2.4525842640795531523346348767333e-12 1:208922 2:326350 3:271396 4:1929.4301 5:7148.5601 6:3.9047599 7:96.237701 8:69746.5 9:18 10:42 11:36 12:216 13:4872.3198 14:4974.3198 15:155.685 16:165.41701 17:0.555556 18:35 19:0.166667 20:0.76980501 21:0.269905 22:0.68158001 23:14.0213 24:4.6097598 # Flowers/Shape1/shape1-048.ppm
-2.4525842640795531523346348767333e-12 1:260072 2:548100 3:478320 4:2571.1399 5:11100.6 6:3.5529399 7:103.055 8:27759.1 9:14 10:85 11:24 12:360 13:8763.4697 14:3059.6699 15:154.192 16:162.5 17:0.41666701 18:20.1765 19:0.180556 20:0.54371899 21:0.231621 22:0.78945798 23:9.0726004 24:3.9403999 # Flowers/Shape5/shape5-051.ppm
-2.4525842640795531523346348767333e-12 1:178752 2:526768 3:362564 4:2271.8899 5:7383.3501 6:3.64516 7:103.463 8:11309.7 9:6 10:62 11:19 12:347 13:7628.9502 14:2883.1001 15:143.896 16:155.211 17:0.51219499 18:12.88 19:0.21568599 20:0.49302399 21:0.307704 22:1.03326 23:3.92276 24:1.6460201 # Flowers/Shape5/shape5-002.ppm
-2.4525842640795531523346348767333e-12 1:262149 2:551688 3:482727 4:2581.04 5:10564.1 6:3.3494 7:106.944 8:29559.199 9:12 10:83 11:25 12:359 13:8843.3496 14:3158.4299 15:155 16:164.92 17:0.296875 18:28.9167 19:0.18571401 20:0.54305899 21:0.244323 22:0.83711702 23:9.3588495 24:3.5827301 # Flowers/Shape5/shape5-010.ppm
2.4525842640795531523346348767333e-12 1:147957 2:265727 3:207974 4:1722.62 5:6340.7202 6:3.68627 7:103.409 8:28952.9 9:16 10:51 11:27 12:206 13:4892.5298 14:2901.1299 15:154.786 16:165.963 17:0.41666701 18:17.727301 19:0.27500001 20:0.71142101 21:0.271676 22:0.77160501 23:9.9798899 24:4.3404298 # Flowers/Shape1/shape1-022.ppm
-2.4525842640795531523346348767333e-12 1:243799 2:626240 3:397030 4:2368.5601 5:10189.8 6:3.5999999 7:112.426 8:23778.699 9:11 10:75 11:23 12:244 13:7228.8701 14:3250.6499 15:157.467 16:159.217 17:0.36363599 18:23.4 19:0.171875 20:0.614057 21:0.232444 22:0.70942098 23:7.3150702 24:3.0555601 # Flowers/Shape5/shape5-088.ppm
2.4525842640795531523346348767333e-12 1:148337 2:256800 3:196856 4:1656.85 5:5019.6899 6:3.6216199 7:101.34 8:22167.1 9:13 10:37 11:30 12:194 13:4670.4302 14:4009.1001 15:153.407 16:165.433 17:0.54166698 18:23.25 19:0.27586201 20:0.75352901 21:0.33006999 22:0.93042201 23:5.5291901 24:3.58955 # Flowers/Shape1/shape1-038.ppm
