SVM-light Version V6.02
0 # kernel type
3 # kernel parameter -d 
1 # kernel parameter -g 
1 # kernel parameter -s 
1 # kernel parameter -r 
empty# kernel parameter -u 
11 # highest feature index 
39 # number of training documents 
39 # number of support vectors plus 1 
1.0482713 # threshold b, each following line is a SV (starting with alpha*y)
-0.31714993403766389423736882235971 1:0.60942698 2:0.63907099 3:0.63185197 4:0.75798202 5:0.67153102 6:0.864829 7:0.791336 8:0.027309 9:0.125 10:0.63636398 11:0.30526301 # shape2-004
0.31714993403766389423736882235971 1:0.29345599 2:0.23351499 3:0.25124201 4:0.47225201 5:0.28836301 6:0.87756699 7:0.81219798 8:0.308119 9:0.5625 10:0.224599 11:0.40000001 # shape1-000
-0.31714993403766389423736882235971 1:0.129985 2:0.340698 3:0.234394 4:0.494353 5:0.142626 6:0.73130602 7:0.91697299 8:0.080598198 9:0.40625 10:0.192513 11:0.073684201 # shape4-001
0.31714993403766389423736882235971 1:0.90956497 2:0.82686299 3:0.80980402 4:0.92684901 5:0.98008299 6:0.99119198 7:0.83036798 8:0.1868 9:0.375 10:0.52941197 11:0.778947 # shape1-014
-0.31714993403766389423736882235971 1:0.62258703 2:0.44361401 3:0.466896 4:0.61553901 5:0.62023401 6:0.80118299 7:0.90641803 8:0.0207555 9:0.125 10:0.75401098 11:0.83157903 # shape3-003
0.31714993403766389423736882235971 1:0.264651 2:0.34988701 3:0.33427799 4:0.549299 5:0.24344701 6:0.78502399 7:0.82143199 8:0.0625 9:0.3125 10:0.26738 11:0.2 # shape1-003
-0.31714993403766389423736882235971 1:0.41963801 2:0.56809598 3:0.514575 4:0.68887901 5:0.38312 6:0.87901801 7:0.77304602 8:0.19047999 9:0.375 10:0.29411799 11:0.24210501 # shape5-003
0.31714993403766389423736882235971 1:0.32270899 2:0.43154699 3:0.45429999 4:0.63261998 5:0.27786401 6:0.81551701 7:0.77605999 8:0.064636603 9:0.28125 10:0.28876999 11:0.273684 # shape1-016
-0.31714993403766389423736882235971 1:0.308164 2:0.231231 3:0.230854 4:0.43953201 5:0.31634501 6:0.89412498 7:0.842538 8:0.071261898 9:0.25 10:0.28342199 11:0.663158 # shape3-000
0.31714993403766389423736882235971 1:0.57281101 2:0.55186898 3:0.50307602 4:0.69297898 5:0.4799 6:0.89490998 7:0.79019397 8:0.100995 9:0.25 10:0.36898401 11:0.52631599 # shape1-013
-0.31714993403766389423736882235971 1:0.53959101 2:0.765571 3:0.67275703 4:0.79221398 5:0.530922 6:0.85562801 7:0.78786802 8:0.090509199 9:0.3125 10:0.427807 11:0.26315799 # shape5-004
0.31714993403766389423736882235971 1:0.28453699 2:0.29807299 3:0.3062 4:0.51968002 5:0.21332701 6:0.841304 7:0.79549301 8:0.19047999 9:0.3125 10:0.17647099 11:0.347368 # shape1-019
-0.31714993403766389423736882235971 1:0.151126 2:0.32622501 3:0.21279199 4:0.54520601 5:0.16263799 6:0.75789899 7:0.93490601 8:0.123689 9:0.40625 10:0.192513 11:0.0842105 # shape4-003
0.31714993403766389423736882235971 1:0.938155 2:0.81663698 3:0.79879701 4:0.87054402 5:1 6:1 7:0.86796099 8:0.194197 9:0.5 10:0.54010701 11:0.61052603 # shape1-011
-0.31714993403766389423736882235971 1:0.57751602 2:0.59161001 3:0.64117301 4:0.75260502 5:0.54619402 6:0.83397698 7:0.801597 8:0.16204 9:0.40625 10:0.51871699 11:0.25263199 # shape2-003
0.31714993403766389423736882235971 1:0.25474501 2:0.27208599 3:0.25422999 4:0.47025099 5:0.23566499 6:0.77923501 7:0.76183701 8:0.183155 9:0.46875 10:0.229947 11:0.26315799 # shape1-004
-0.31714993403766389423736882235971 1:0.537265 2:0.39780101 3:0.40636 4:0.580414 5:0.49619001 6:0.80717403 7:0.86278301 8:0.036358099 9:0.15625 10:0.54545498 11:0.81052601 # shape3-004
0.31714993403766389423736882235971 1:0.29986799 2:0.28762501 3:0.28844401 4:0.50792301 5:0.259271 6:0.84964502 7:0.79077297 8:0.126688 9:0.40625 10:0.21390399 11:0.31578901 # shape1-017
-0.31714993403766389423736882235971 1:0.341398 2:0.45331201 3:0.425953 4:0.62739402 5:0.361067 6:0.84210998 7:0.839742 8:0.151968 9:0.4375 10:0.28876999 11:0.23157901 # shape5-000
0.31714993403766389423736882235971 1:0.481134 2:0.49281299 3:0.42318201 4:0.621409 5:0.41082799 6:0.868976 7:0.82424003 8:0.308119 9:0.1875 10:0.34759399 11:0.494737 # shape1-015
-0.31714993403766389423736882235971 1:0.33174399 2:0.241541 3:0.249414 4:0.45089799 5:0.30107999 6:0.75015903 7:0.892609 8:0.0086900303 9:0.0625 10:0.358289 11:0.81052601 # shape3-002
0.31714993403766389423736882235971 1:0.39744601 2:0.43515399 3:0.399744 4:0.59661901 5:0.36331001 6:0.903157 7:0.773458 8:0.151968 9:0.46875 10:0.28342199 11:0.326316 # shape1-002
-0.31714993403766389423736882235971 1:0.16061001 2:0.45078501 3:0.30858001 4:0.575113 5:0.154714 6:0.75220001 7:0.90635997 8:0.103706 9:0.40625 10:0.18716601 11:0.052631602 # shape4-002
0.31714993403766389423736882235971 1:0.27296099 2:0.270044 3:0.26148799 4:0.48081499 5:0.233474 6:0.84793502 7:0.73574603 8:0.1868 9:0.46875 10:0.18716601 11:0.326316 # shape1-006
-0.31714993403766389423736882235971 1:0.438483 2:0.58429199 3:0.59535199 4:0.75217098 5:0.43961599 6:0.88212597 7:0.79870099 8:0.0504345 9:0.25 10:0.37433201 11:0.30526301 # shape5-001
0.31714993403766389423736882235971 1:0.30492201 2:0.29881299 3:0.30430099 4:0.52800202 5:0.32676399 6:0.88509297 7:0.78578502 8:0.19047999 9:0.5625 10:0.28342199 11:0.273684 # shape1-001
-0.31714993403766389423736882235971 1:0.157269 2:0.30093199 3:0.274057 4:0.52768999 5:0.13303401 6:0.72626197 7:0.91246802 8:0.095680103 9:0.28125 10:0.15508001 11:0.0842105 # shape4-000
0.31714993403766389423736882235971 1:0.53309101 2:0.598975 3:0.59829903 4:0.736992 5:0.51064199 6:0.937401 7:0.80408198 8:0.27607 9:0.46875 10:0.38502699 11:0.31578901 # shape1-008
-0.31714993403766389423736882235971 1:0.359981 2:0.58877301 3:0.53120601 4:0.69638801 5:0.35097 6:0.87242001 7:0.78241497 8:0.064636603 9:0.1875 10:0.33155099 11:0.2 # shape5-002
0.31714993403766389423736882235971 1:0.39267099 2:0.32291001 3:0.32941899 4:0.53368998 5:0.46037799 6:0.93525302 7:0.80775899 8:0.19795001 9:0.5625 10:0.34759399 11:0.46315801 # shape1-018
-0.31714993403766389423736882235971 1:0.59722102 2:0.66183603 3:0.61530203 4:0.736148 5:0.57680303 6:0.80597103 7:0.788275 8:0.0316719 9:0.15625 10:0.62566799 11:0.347368 # shape2-002
0.31714993403766389423736882235971 1:0.58365202 2:0.546206 3:0.51038998 4:0.69733799 5:0.613244 6:0.97046 7:0.83537298 8:0.33208799 9:0.5625 10:0.390374 11:0.51578897 # shape1-012
-0.31714993403766389423736882235971 1:0.18318699 2:0.47659099 3:0.43814799 4:0.63129997 5:0.17354099 6:0.65700197 7:1 8:0.090509199 9:0.34375 10:0.27272701 11:0.0842105 # shape4-004
0.31714993403766389423736882235971 1:0.42335701 2:0.36356801 3:0.39741099 4:0.59117299 5:0.37638 6:0.93455201 7:0.794779 8:0.43694299 9:0.6875 10:0.224599 11:0.389474 # shape1-007
-0.31714993403766389423736882235971 1:0.63413501 2:0.800614 3:0.75036401 4:0.83402199 5:0.631993 6:0.83438402 7:0.80784798 8:0.0140764 9:0.09375 10:0.58288801 11:0.29473701 # shape2-000
0.31714993403766389423736882235971 1:0.436093 2:0.37197301 3:0.39681301 4:0.602705 5:0.40185601 6:0.99237102 7:0.783131 8:0.35695601 9:0.71875 10:0.21925101 11:0.37894699 # shape1-005
-0.31714993403766389423736882235971 1:0.236003 2:0.17794 3:0.18503299 4:0.389483 5:0.193092 6:0.57192099 7:0.94597399 8:0.00403979 9:0.0625 10:0.41176501 11:0.61052603 # shape3-001
0.31714993403766389423736882235971 1:0.40489501 2:0.32498401 3:0.33288401 4:0.530936 5:0.41096801 6:0.88753903 7:0.80758899 8:0.54986 9:0.84375 10:0.25668401 11:0.442105 # shape1-009
