SVM-light Version V6.02
0 # kernel type
3 # kernel parameter -d 
1 # kernel parameter -g 
1 # kernel parameter -s 
1 # kernel parameter -r 
empty# kernel parameter -u 
24 # highest feature index 
192 # number of training documents 
91 # number of support vectors plus 1 
-2.9975772 # threshold b, each following line is a SV (starting with alpha*y)
-1.7853441821896603479170307436516e-12 1:302617 2:571769 3:431257 4:2472.8301 5:14127 6:3.6134501 7:104.643 8:4778.3599 9:4 10:119 11:29 12:403 13:9228.1797 14:2543 15:150.481 16:164.414 17:0.48750001 18:15.7917 19:0.265957 20:0.70170999 21:0.175043 22:0.65323001 23:1.87902 24:1.10698 # Flowers/Shape2/shape2-004.ppm
1.7853441821896603479170307436516e-12 1:200843 2:389958 3:273710 4:1948.63 5:8821.8896 6:3.8620701 7:106.482 8:30790.699 9:19 10:58 11:31 12:239 13:5623.6602 14:3462.8 15:156.946 16:163.323 17:0.44999999 18:16.0714 19:0.16 20:0.73377699 21:0.22088499 22:0.63746703 23:8.89186 24:4.9196401 # Flowers/Shape1/shape1-043.ppm
-1.7853441821896603479170307436516e-12 1:402665 2:1.00667e-06 3:644912 4:3046.01 5:18188.1 6:3.6378 7:108.973 8:18626.5 9:12 10:127 11:24 12:451 13:9968.5801 14:3170.5901 15:148.931 16:163.58299 17:0.38043499 18:17.040001 19:0.16513801 20:0.62437099 21:0.167472 22:0.54808098 23:5.8747802 24:3.2987001 # Flowers/Shape2/shape2-079.ppm
1.7853441821896603479170307436516e-12 1:461052 2:991935 3:612006 4:2951.54 5:18875 6:3.8487401 7:109.72 8:14102.6 9:10 10:119 11:45 12:443 13:10466.1 14:3874.3899 15:155.16499 16:171.244 17:0.45122001 18:23.611099 19:0.17821801 20:0.75334603 21:0.15637299 22:0.55449498 23:3.6399601 24:2.5982499 # Flowers/Shape1/shape1-071.ppm
-1.7853441821896603479170307436516e-12 1:372766 2:627328 3:506705 4:2598.49 5:15258.4 6:3.2349 7:107.231 8:804.24799 9:3 10:149 11:35 12:528 13:12451.2 14:2501.79 15:152.08701 16:166.314 17:0.41904801 18:15 19:0.366972 20:0.73566699 21:0.17029899 22:0.816019 23:0.32146901 24:0.92738599 # Flowers/Shape2/shape2-009.ppm
-1.7853441821896603479170307436516e-12 1:368366 2:625895 3:503774 4:2591.5901 5:15965.5 6:3.31126 7:109.659 8:706.85797 9:3 10:151 11:33 12:535 13:12375.6 14:2439.51 15:152.42101 16:164.515 17:0.438095 18:19.5769 19:0.26890799 20:0.73121202 21:0.162324 22:0.77514702 23:0.289754 24:0.90600002 # Flowers/Shape2/shape2-050.ppm
-1.7853441821896603479170307436516e-12 1:223592 2:470470 3:321530 4:2140.8601 5:8798.5703 6:3.3176501 7:108.274 8:12076.3 9:9 10:85 11:27 12:311 13:7488.6899 14:2630.49 15:151.27 16:165.185 17:0.41666701 18:21.2143 19:0.268657 20:0.69539899 21:0.243319 22:0.85112602 23:4.5908799 24:2.71277 # Flowers/Shape2/shape2-006.ppm
1.7853441821896603479170307436516e-12 1:418487 2:995883 3:612920 4:2955.9199 5:16785.699 6:3.74545 7:111.52 8:33979.5 9:12 10:110 11:40 12:437 13:10440.8 14:3804.4199 15:153.771 16:169.375 17:0.392405 18:15.8077 19:0.182796 20:0.68277502 21:0.176098 22:0.62200397 23:8.9315701 24:3.2038801 # Flowers/Shape1/shape1-091.ppm
1.7853441821896603479170307436516e-12 1:212952 2:420090 3:271645 4:1931.61 5:8819.5596 6:4.0377402 7:102.696 8:67886.703 9:20 10:53 11:36 12:209 13:4895.5601 14:4017.96 15:153.70799 16:165.75 17:0.26190501 18:19.9 19:0.12766001 20:0.78393501 21:0.219015 22:0.55508 23:16.8958 24:4.95327 # Flowers/Shape1/shape1-088.ppm
1.7853441821896603479170307436516e-12 1:465851 2:730635 3:545202 4:2840.0601 5:21037 6:4.1782198 7:114.776 8:33979.5 9:16 10:101 11:58 12:298 13:7482.0698 14:4612.3901 15:156.077 16:171.172 17:0.246914 18:28.799999 19:0.134831 20:0.85445601 21:0.135003 22:0.35566199 23:7.3670001 24:3.82938 # Flowers/Shape1/shape1-011.ppm
-1.7853441821896603479170307436516e-12 1:338334 2:668610 3:520495 4:2654.9199 5:14515.2 6:3.38462 7:104.389 8:8171.2798 9:6 10:130 11:26 12:476 13:11000.7 14:2602.5701 15:150.67 16:164.5 17:0.32653099 18:14.8667 19:0.22641499 20:0.650024 21:0.182907 22:0.75787598 23:3.1396999 24:1.77273 # Flowers/Shape2/shape2-057.ppm
1.7853441821896603479170307436516e-12 1:465018 2:730635 3:545810 4:2841.29 5:19531.5 6:4.1052599 7:111.42 8:36643.5 9:15 10:95 11:60 12:298 13:7472.0298 14:4894.9302 15:156.42599 16:172.883 17:0.25 18:20.2857 19:0.130952 20:0.851978 21:0.14547201 22:0.38256299 23:7.4860301 24:3.6538501 # Flowers/Shape1/shape1-052.ppm
-1.7853441821896603479170307436516e-12 1:229325 2:475798 3:322342 4:2142.3401 5:9444.4004 6:3.1860499 7:109.053 8:9852.0303 9:7 10:86 11:31 12:314 13:7480.1099 14:2666.5701 15:153.054 16:164.51601 17:0.283582 18:16.444401 19:0.21126799 20:0.71143502 21:0.22683699 22:0.79201502 23:3.6946399 24:2.1970799 # Flowers/Shape2/shape2-047.ppm
1.7853441821896603479170307436516e-12 1:451654 2:739784 3:552714 4:3023.74 5:20618 6:4.1414099 7:109.804 8:32685.1 9:12 10:99 11:74 12:340 13:7893.52 14:4562.1602 15:156.44701 16:174.108 17:0.2375 18:21.6667 19:0.151163 20:0.81715697 21:0.14665499 22:0.382846 23:7.1643901 24:2.8975599 # Flowers/Shape1/shape1-014.ppm
4.1407049787345673491804370387618e-13 1:210724 2:418836 3:271231 4:1928.91 5:8456.1299 6:3.95455 7:101.723 8:75476.797 9:24 10:44 11:36 12:209 13:4879.4102 14:4789.1802 15:154.325 16:166.36099 17:0.41935501 18:22.2222 19:0.157895 20:0.77691698 21:0.228108 22:0.57702601 23:15.7598 24:6.0689702 # Flowers/Shape1/shape1-068.ppm
1.7853441821896603479170307436516e-12 1:245464 2:445095 3:293847 4:2039.99 5:10930.2 6:3.8499999 7:108.61 8:27171.6 9:16 10:80 11:51 12:264 13:6209.0601 14:3068.3 15:152.25 16:171.431 17:0.45454499 18:17.8571 19:0.23076899 20:0.835347 21:0.186638 22:0.56806397 23:8.8555899 24:4.1558399 # Flowers/Shape1/shape1-036.ppm
-1.7853441821896603479170307436516e-12 1:237455 2:460161 3:324859 4:2150.46 5:10086.2 6:3.3260901 7:109.407 8:13684.8 9:6 10:92 11:31 12:309 13:7392.71 14:2581.03 15:150.84801 16:164.452 17:0.41538501 18:13.7143 19:0.210526 20:0.73094797 21:0.213208 22:0.73295099 23:5.3020601 24:1.80392 # Flowers/Shape2/shape2-067.ppm
1.7853441821896603479170307436516e-12 1:450360 2:1027850 3:551020 4:3020.8899 5:18909.199 6:4.0215101 7:106.783 8:32047.4 9:10 10:93 11:74 12:333 13:7926.7598 14:4842.5801 15:158.09599 16:174.054 17:0.23999999 18:19.8125 19:0.148148 20:0.817321 21:0.159758 22:0.41920099 23:6.6178298 24:2.48663 # Flowers/Shape1/shape1-095.ppm
1.7853441821896603479170307436516e-12 1:197287 2:380474 3:271804 4:1942.89 5:8204.3203 6:3.7777801 7:110.647 8:35298.898 9:19 10:54 11:30 12:200 13:5588.8398 14:3653.47 15:160.78 16:165.10001 17:0.384615 18:21.2222 19:0.173913 20:0.72584498 21:0.23681299 22:0.681207 23:9.6617603 24:5.0294099 # Flowers/Shape1/shape1-063.ppm
1.7853441821896603479170307436516e-12 1:155886 2:385392 3:310690 4:2063.26 5:5922.1699 6:3.3684199 7:103.652 8:11689.9 9:8 10:57 11:27 12:342 13:7730.02 14:2734.8401 15:148.444 16:166.33299 17:0.46153799 18:18 19:0.35714301 20:0.50174099 21:0.34839699 22:1.30527 23:4.2744198 24:2.375 # Flowers/Shape1/shape1-037.ppm
-1.7853441821896603479170307436516e-12 1:233749 2:459540 3:325893 4:2153.29 5:9303.71 6:3.28736 7:113.452 8:10207 9:7 10:87 11:29 12:310 13:7388.6201 14:2686.77 15:150.306 16:164.207 17:0.42623001 18:14.5 19:0.208333 20:0.71725601 21:0.231444 22:0.794159 23:3.799 24:2.12937 # Flowers/Shape2/shape2-087.ppm
1.7853441821896603479170307436516e-12 1:445523 2:1027180 3:549556 4:3021.0901 5:15680.4 6:3.8684199 7:109.188 8:33329.199 9:6 10:76 11:69 12:338 13:7900.27 14:5862.1499 15:157.683 16:174.522 17:0.43396199 18:23.1429 19:0.15151501 20:0.81069601 21:0.19266701 22:0.50383198 23:5.6854801 24:1.55102 # Flowers/Shape1/shape1-075.ppm
-1.7853441821896603479170307436516e-12 1:396157 2:643552 3:505748 4:2621.7 5:15904.1 6:3.3896101 7:109.068 8:1809.5601 9:5 10:154 11:31 12:610 13:12620.7 14:2572.45 15:138.952 16:162.903 17:0.43925199 18:10.2963 19:0.40000001 20:0.78330898 21:0.16484401 22:0.79355198 23:0.70343798 24:1.4751 # Flowers/Shape2/shape2-049.ppm
1.7853441821896603479170307436516e-12 1:237613 2:378740 3:291972 4:2035.54 5:7793.98 6:3.65517 7:107.058 8:54739.102 9:5 10:58 11:49 12:263 13:6216.6401 14:4096.7798 15:154.065 16:171.082 17:0.48717901 18:19.230801 19:0.208333 20:0.81382102 21:0.261168 22:0.79762 23:13.3615 24:1.36792 # Flowers/Shape1/shape1-096.ppm
-1.7853441821896603479170307436516e-12 1:235797 2:475920 3:324701 4:2148.1399 5:9193.5 6:3.23913 7:106.646 8:14102.6 9:8 10:92 11:30 12:317 13:7518.8701 14:2563.01 15:150.63699 16:165.067 17:0.24324299 18:15.6842 19:0.24324299 20:0.72619599 21:0.233658 22:0.81784701 23:5.5023699 24:2.4698 # Flowers/Shape2/shape2-027.ppm
1.7853441821896603479170307436516e-12 1:464180 2:856278 3:546210 4:2842.73 5:18586.6 6:4.0227299 7:113.628 8:30171.9 9:13 10:88 11:55 12:293 13:7472.4502 14:5274.77 15:157.703 16:172.127 17:0.239437 18:19.9286 19:0.128205 20:0.84982002 21:0.152945 22:0.40203401 23:5.7200298 24:3.2316401 # Flowers/Shape1/shape1-072.ppm
-1.7853441821896603479170307436516e-12 1:302478 2:563901 3:396646 4:2319.4199 5:11809.1 6:3.2745099 7:108.069 8:4071.5 9:1 10:102 11:34 12:370 13:8842.0098 14:2965.47 15:155.808 16:167.647 17:0.30769199 18:27.4615 19:0.2 20:0.76258999 21:0.196409 22:0.74874401 23:1.37297 24:0.30538899 # Flowers/Shape2/shape2-086.ppm
1.7853441821896603479170307436516e-12 1:447436 2:735000 3:550666 4:3019.3899 5:17296.4 6:4.1728401 7:114.778 8:33329.199 9:10 10:81 11:65 12:260 13:7705.5298 14:5523.9102 15:167.173 16:174.38499 17:0.285714 18:36.142899 19:0.157143 20:0.812536 21:0.174567 22:0.445499 23:6.0336199 24:2.39645 # Flowers/Shape1/shape1-035.ppm
1.7853441821896603479170307436516e-12 1:197356 2:389327 3:272836 4:1946.41 5:7642.9502 6:3.7735801 7:102.279 8:26590.4 9:15 10:53 11:31 12:235 13:5695.04 14:3723.7 15:157.694 16:164.323 17:0.472222 18:17.0769 19:0.20454501 20:0.72334898 21:0.25466701 22:0.74513602 23:7.1408701 24:3.9749999 # Flowers/Shape1/shape1-002.ppm
1.7853441821896603479170307436516e-12 1:160245 2:386100 3:310072 4:2063.8501 5:5845.4199 6:3.4074099 7:102.623 8:11309.7 9:9 10:54 11:26 12:336 13:7713.71 14:2967.5 15:148.51801 16:164.577 17:0.45945901 18:12.44 19:0.384615 20:0.51679802 21:0.35307199 22:1.31962 23:3.8112099 24:2.6413 # Flowers/Shape1/shape1-016.ppm
-1.7853441821896603479170307436516e-12 1:304009 2:504654 3:399098 4:2327.8301 5:10913.3 6:3.2765999 7:108.682 8:3848.45 9:2 10:94 11:33 12:371 13:8852.1396 14:3234.1299 15:154.27499 16:164.758 17:0.46875 18:18.5263 19:0.27026999 20:0.76173902 21:0.213302 22:0.81113201 23:1.18995 24:0.61039001 # Flowers/Shape2/shape2-005.ppm
1.7853441821896603479170307436516e-12 1:465724 2:852546 3:545288 4:2840.0801 5:19244.801 6:4.1276598 7:109.065 8:56410.398 9:19 10:94 11:59 12:293 13:7451.3999 14:4954.5098 15:157.737 16:173.47501 17:0.27026999 18:23.4167 19:0.146341 20:0.85408998 21:0.147577 22:0.38719001 23:11.3857 24:4.6030898 # Flowers/Shape1/shape1-092.ppm
-1.7853441821896603479170307436516e-12 1:305695 2:568347 3:397492 4:2325.74 5:11814 6:3.35922 7:102.967 8:3848.45 9:3 10:103 11:38 12:372 13:8840.6104 14:2967.9099 15:155.382 16:167.289 17:0.39189199 18:27.6154 19:0.28749999 20:0.769059 21:0.196863 22:0.74831599 23:1.29669 24:0.89306402 # Flowers/Shape2/shape2-066.ppm
1.7853441821896603479170307436516e-12 1:446173 2:736725 3:548636 4:3015.0901 5:17505.199 6:3.95349 7:108.529 8:33329.199 9:7 10:86 11:66 12:253 13:7620.0601 14:5188.0601 15:169.545 16:172.061 17:0.482759 18:49.599998 19:0.16216201 20:0.813241 21:0.17224 22:0.435303 23:6.4242101 24:1.7705899 # Flowers/Shape1/shape1-055.ppm
-1.7853441821896603479170307436516e-12 1:366503 2:627553 3:503498 4:2591.8301 5:15161.5 6:3.32867 7:108.474 8:907.91998 9:2 10:143 11:33 12:523 13:12412.3 14:2562.96 15:153.937 16:164.03 17:0.401961 18:19.92 19:0.34905699 20:0.72791201 21:0.170948 22:0.81866699 23:0.354247 24:0.60083997 # Flowers/Shape2/shape2-030.ppm
1.7853441821896603479170307436516e-12 1:214888 2:436437 3:270925 4:1965.83 5:7487.71 6:3.9473701 7:106.527 8:64242.398 9:20 10:38 11:36 12:219 13:4688.4302 14:5654.9302 15:147.959 16:165.806 17:0.46153799 18:11.8824 19:0.15151501 20:0.79316199 21:0.262541 22:0.62615001 23:11.3604 24:5.0666699 # Flowers/Shape1/shape1-066.ppm
-1.7853441821896603479170307436516e-12 1:310698 2:505421 3:399137 4:2327.3999 5:12998.8 6:3.5478301 7:108.416 8:3848.45 9:1 10:115 11:30 12:371 13:8852.4404 14:2701.72 15:155.925 16:163.5 17:0.575342 18:25.5 19:0.277778 20:0.77842402 21:0.179047 22:0.68101698 23:1.42445 24:0.281863 # Flowers/Shape2/shape2-026.ppm
1.7853441821896603479170307436516e-12 1:468917 2:737300 3:549580 4:2850.6399 5:20164.9 6:4.2083302 7:113.062 8:58964.602 9:20 10:96 11:61 12:302 13:7517.8301 14:4884.5498 15:155.646 16:174 17:0.23076899 18:22.230801 19:0.116279 20:0.85322797 21:0.141366 22:0.37281701 23:12.0717 24:4.75248 # Flowers/Shape1/shape1-032.ppm
-1.7853441821896603479170307436516e-12 1:309296 2:506160 3:399472 4:2326.6899 5:12756.9 6:3.4054101 7:109.056 8:4071.5 9:1 10:111 11:30 12:364 13:8812.4297 14:2786.45 15:157.28 16:165.033 17:0.405063 18:35.400002 19:0.23333301 20:0.77426201 21:0.18238699 22:0.690799 23:1.46118 24:0.29365101 # Flowers/Shape2/shape2-046.ppm
1.7853441821896603479170307436516e-12 1:264029 2:629532 3:408390 4:2405.0701 5:11455 6:3.8309901 7:106.229 8:57255.5 9:21 10:71 11:32 12:322 13:6808.6499 14:3718.71 15:139.30701 16:168.688 17:0.44898 18:10.9259 19:0.16393401 20:0.64651197 21:0.209958 22:0.594383 23:15.3966 24:5.4816198 # Flowers/Shape1/shape1-069.ppm
-1.7853441821896603479170307436516e-12 1:293733 2:588142 3:417684 4:2397.99 5:13401.6 6:3.5873001 7:103.27 8:5281.02 9:7 10:126 11:28 12:413 13:9399.7695 14:2331.21 15:150.89101 16:162.64301 17:0.46511599 18:15.52 19:0.27272701 20:0.703242 21:0.17893299 22:0.70139098 23:2.2653501 24:1.9513299 # Flowers/Shape2/shape2-043.ppm
1.7853441821896603479170307436516e-12 1:264694 2:537192 3:408958 4:2407.22 5:9728.04 6:3.7704899 7:106.349 8:43743.5 9:16 10:61 11:33 12:263 13:6693.0098 14:4339.25 15:151.65401 16:164.364 17:0.60526299 18:20.9167 19:0.22 20:0.64723998 21:0.24745101 22:0.688012 23:10.0809 24:4.2434802 # Flowers/Shape1/shape1-029.ppm
-1.7853441821896603479170307436516e-12 1:285665 2:529230 3:437022 4:2454.52 5:12144.2 6:3.5 7:107.371 8:34636.102 9:13 10:96 11:25 12:382 13:8794.0596 14:2975.6799 15:151.05499 16:164.8 17:0.297297 18:16.3636 19:0.21518999 20:0.65366298 21:0.202114 22:0.72413403 23:11.6397 24:3.7142899 # Flowers/Shape2/shape2-024.ppm
1.7853441821896603479170307436516e-12 1:264712 2:535896 3:408356 4:2404.3601 5:10742.4 6:3.9166701 7:106.329 8:48305.102 9:15 10:72 11:30 12:257 13:6699.98 14:3676.55 15:150.38499 16:165.533 17:0.53191501 18:31.125 19:0.2 20:0.648238 21:0.223819 22:0.62369502 23:13.1387 24:3.8297901 # Flowers/Shape1/shape1-008.ppm
-1.7853441821896603479170307436516e-12 1:286772 2:529306 3:437619 4:2455.29 5:11490.3 6:3.48454 7:106 8:28352.9 9:13 10:97 11:24 12:385 13:8829.7305 14:2956.4099 15:150.605 16:162.33299 17:0.469697 18:12.75 19:0.29333299 20:0.65530002 21:0.21368399 22:0.76845098 23:9.5903101 24:3.7307701 # Flowers/Shape2/shape2-003.ppm
1.7853441821896603479170307436516e-12 1:265894 2:535716 3:407338 4:2403.6599 5:12324.7 6:3.9000001 7:110.651 8:58106.898 9:20 10:80 11:30 12:326 13:6754.7798 14:3323.6699 15:143.98199 16:165.33299 17:0.42857099 18:18.1765 19:0.15942 20:0.652758 21:0.19502801 22:0.54806697 23:17.4828 24:5.1282101 # Flowers/Shape1/shape1-049.ppm
-1.7853441821896603479170307436516e-12 1:296556 2:592137 3:419961 4:2401.6001 5:12134.2 6:3.3675201 7:104.238 8:5541.77 9:5 10:117 11:33 12:401 13:9396.7305 14:2534.6699 15:151.257 16:164.18201 17:0.5 18:15.04 19:0.32954499 20:0.70615202 21:0.19791999 22:0.7744 23:2.1863899 24:1.4847701 # Flowers/Shape2/shape2-002.ppm
1.7853441821896603479170307436516e-12 1:264723 2:631120 3:408296 4:2405.49 5:10880.6 6:3.8787899 7:104.621 8:58964.602 9:18 10:66 11:29 12:251 13:6664.3799 14:4010.95 15:154.912 16:164.207 17:0.346939 18:19.9167 19:0.157895 20:0.64836001 21:0.221081 22:0.61250198 23:14.7009 24:4.6406202 # Flowers/Shape1/shape1-089.ppm
-1.7853441821896603479170307436516e-12 1:299123 2:629408 3:429118 4:2465.8201 5:12923.5 6:3.4955001 7:104.906 8:4071.5 9:4 10:111 11:27 12:387 13:9229.7002 14:2694.8101 15:153.491 16:166.07401 17:0.47999999 18:18.35 19:0.29069799 20:0.697065 21:0.19080099 22:0.71417803 23:1.51087 24:1.14433 # Flowers/Shape2/shape2-085.ppm
1.7853441821896603479170307436516e-12 1:287152 2:523416 3:346676 4:2264.02 5:12136.3 6:3.8181801 7:107.184 8:14102.6 9:12 10:77 11:49 12:283 13:6474.6001 14:3729.24 15:152.912 16:171 17:0.45282999 18:27.299999 19:0.14925399 20:0.82830101 21:0.18655001 22:0.53349 23:3.78163 24:3.1428599 # Flowers/Shape1/shape1-094.ppm
-1.7853441821896603479170307436516e-12 1:282842 2:530688 3:438982 4:2456.1499 5:12784.2 6:3.5999999 7:104.292 8:8824.7305 9:7 10:100 11:25 12:384 13:8786.1797 14:2828.4199 15:151.026 16:163.64 17:0.369863 18:19.210501 19:0.219512 20:0.64431202 21:0.19212399 22:0.68726999 23:3.1200199 24:1.94444 # Flowers/Shape2/shape2-044.ppm
1.7853441821896603479170307436516e-12 1:286026 2:525352 3:347612 4:2268.5 5:10315.9 6:3.87692 7:103.615 8:18626.5 9:8 10:65 11:52 12:282 13:6490.2598 14:4400.3901 15:153.47501 16:173.03799 17:0.54761899 18:15.5882 19:0.203704 20:0.82283002 21:0.21990301 22:0.62914997 23:4.2329202 24:2.0634899 # Flowers/Shape1/shape1-074.ppm
-1.7853441821896603479170307436516e-12 1:308066 2:571350 3:429340 4:2467.3899 5:14388.9 6:3.5905499 7:102.195 8:4536.46 9:7 10:127 11:31 12:404 13:9220.46 14:2425.72 15:151.28999 16:162.742 17:0.42696601 18:16.565201 19:0.30927801 20:0.71753299 21:0.171479 22:0.64080501 23:1.87015 24:1.94956 # Flowers/Shape2/shape2-045.ppm
1.7853441821896603479170307436516e-12 1:291338 2:487816 3:348600 4:2275.8799 5:11658.4 6:4.0289898 7:106.545 8:21642.4 9:10 10:69 11:45 12:246 13:6003.6099 14:4222.2998 15:155.83701 16:170.711 17:0.254545 18:17.9231 19:0.18965501 20:0.83573997 21:0.195213 22:0.51495802 23:5.1257501 24:2.4820099 # Flowers/Shape1/shape1-033.ppm
-1.7853441821896603479170307436516e-12 1:308141 2:569592 3:429909 4:2469.3501 5:13738.8 6:3.5344801 7:103.837 8:4536.46 9:6 10:116 11:28 12:298 13:9038.9502 14:2656.3899 15:163.64799 16:163 17:0.46835399 18:32.111099 19:0.27472499 20:0.71675903 21:0.179735 22:0.65791202 23:1.70775 24:1.69756 # Flowers/Shape2/shape2-025.ppm
1.7853441821896603479170307436516e-12 1:289718 2:559770 3:348754 4:2279.9099 5:13022.6 6:4.1315799 7:110.059 8:28952.9 9:15 10:76 11:50 12:245 13:5955.8599 14:3812.0801 15:158.147 16:172.32001 17:0.206349 18:23.5 19:0.13432799 20:0.83072299 21:0.175073 22:0.45734701 23:7.5950398 24:3.6305699 # Flowers/Shape1/shape1-093.ppm
-1.7853441821896603479170307436516e-12 1:299833 2:633490 3:430296 4:2468.4399 5:12405.7 6:3.51402 7:100.532 8:4778.3599 9:5 10:107 11:31 12:393 13:9203.8799 14:2802.1799 15:152.86501 16:164.355 17:0.407895 18:14.72 19:0.320988 20:0.69680703 21:0.19897699 22:0.74190998 23:1.70523 24:1.42287 # Flowers/Shape2/shape2-065.ppm
1.7853441821896603479170307436516e-12 1:284435 2:493751 3:343364 4:2260.77 5:10095.7 6:3.73913 7:104.492 8:17671.5 9:8 10:69 11:50 12:271 13:6454.3398 14:4122.25 15:152.284 16:172.7 17:0.68292701 18:15.9375 19:0.210526 20:0.82837999 21:0.22393499 22:0.63931799 23:4.28685 24:2.1395299 # Flowers/Shape1/shape1-013.ppm
-1.7853441821896603479170307436516e-12 1:290662 2:663784 3:435970 4:2453.49 5:12720.9 6:3.51402 7:106.067 8:3421.1899 9:3 10:107 11:23 12:386 13:8779.0195 14:2716.47 15:147.82899 16:162.043 17:0.48611099 18:16.5455 19:0.244186 20:0.66670102 21:0.192871 22:0.690126 23:1.2594301 24:0.85372299 # Flowers/Shape2/shape2-064.ppm
1.7853441821896603479170307436516e-12 1:291244 2:561358 3:350690 4:2281.98 5:11527.5 6:3.84848 7:107.814 8:66966.203 9:17 10:66 11:48 12:245 13:5943.3599 14:4412.79 15:159.188 16:170.875 17:0.404255 18:34 19:0.137931 20:0.83048898 21:0.19796 22:0.51558 23:15.1755 24:4.4173198 # Flowers/Shape1/shape1-073.ppm
-1.7853441821896603479170307436516e-12 1:293370 2:667754 3:440512 4:2462.3401 5:12686.5 6:3.41593 7:105.143 8:3848.45 9:3 10:113 11:22 12:378 13:8853.6299 14:2596.1899 15:150.336 16:157.409 17:0.37804899 18:17 19:0.22826099 20:0.66597599 21:0.19409101 22:0.69787598 23:1.48234 24:0.87823802 # Flowers/Shape2/shape2-084.ppm
1.7853441821896603479170307436516e-12 1:288908 2:488684 3:347822 4:2275.0901 5:12743.8 6:3.9154899 7:108.435 8:40828.102 9:17 10:71 11:42 12:250 13:5990.7998 14:4069.1299 15:157.14799 16:167.881 17:0.41999999 18:21.727301 19:0.18333299 20:0.830621 21:0.178526 22:0.47009599 23:10.0336 24:4.3417301 # Flowers/Shape1/shape1-053.ppm
-1.7853441821896603479170307436516e-12 1:315562 2:719200 3:512234 4:2725.0801 5:12903.5 6:3.51402 7:106.126 8:1809.5601 9:3 10:107 11:27 12:395 13:9454.7402 14:2949.1799 15:153.658 16:165.778 17:0.44594601 18:27.2143 19:0.188889 20:0.61604899 21:0.211189 22:0.73272401 23:0.613581 24:0.85372299 # Flowers/Shape2/shape2-040.ppm
1.7853441821896603479170307436516e-12 1:289819 2:488684 3:348356 4:2274.99 5:12900.8 6:4.05479 7:110.466 8:58106.898 9:18 10:73 11:49 12:244 13:6011.6499 14:3970.1201 15:156.791 16:172.367 17:0.25862101 18:16.4286 19:0.17741901 20:0.83196098 21:0.17634501 22:0.46599001 23:14.6361 24:4.4391899 # Flowers/Shape1/shape1-012.ppm
-1.7853441821896603479170307436516e-12 1:292064 2:636042 3:455646 4:2515.1201 5:12262.8 6:3.3761499 7:110.375 8:5541.77 9:5 10:109 11:24 12:415 13:9708.3398 14:2679.48 15:148.63901 16:162.83299 17:0.415584 18:14.9615 19:0.26744199 20:0.64098901 21:0.205102 22:0.79169202 23:2.0682199 24:1.48098 # Flowers/Shape2/shape2-083.ppm
1.7853441821896603479170307436516e-12 1:286853 2:494064 3:343327 4:2260.55 5:12593.6 6:3.8139501 7:105.864 8:60698.699 9:20 10:86 11:50 12:270 13:6483.0898 14:3335.5 15:152.181 16:172.75999 17:0.53571397 18:17 19:0.194444 20:0.83551002 21:0.179501 22:0.51479298 23:18.1978 24:5.2438998 # Flowers/Shape1/shape1-054.ppm
-1.7853441821896603479170307436516e-12 1:299483 2:634366 3:454236 4:2513.5901 5:12626.6 6:3.4107101 7:109.863 8:5281.02 9:6 10:112 11:22 12:400 13:9639.1396 14:2673.96 15:150.993 16:157.045 17:0.365854 18:16.3913 19:0.28735599 20:0.65931302 21:0.199072 22:0.76340199 23:1.97498 24:1.75916 # Flowers/Shape2/shape2-063.ppm
1.7853441821896603479170307436516e-12 1:281959 2:493751 3:343101 4:2258.7 5:10973 6:3.7260301 7:103.945 8:60698.699 9:15 10:73 11:49 12:258 13:6444.98 14:3862.45 15:153.87199 16:171.89799 17:0.48979601 18:22.4545 19:0.196721 20:0.821796 21:0.205843 22:0.58735102 23:15.7151 24:4.0257401 # Flowers/Shape1/shape1-034.ppm
-1.7853441821896603479170307436516e-12 1:295521 2:664216 3:454700 4:2515.8401 5:12599.2 6:3.30357 7:109.725 8:5541.77 9:4 10:112 11:27 12:407 13:9695.6504 14:2638.5801 15:149.22099 16:166 17:0.41772199 18:13.0345 19:0.244444 20:0.64992499 21:0.199683 22:0.76954597 23:2.1002901 24:1.2108099 # Flowers/Shape2/shape2-023.ppm
1.7853441821896603479170307436516e-12 1:187053 2:455806 3:310283 4:2064.73 5:7635.0498 6:3.4054101 7:106.989 8:11689.9 9:12 10:74 11:25 12:335 13:7669.3799 14:2527.74 15:150.875 16:163.52 17:0.45098001 18:18.7059 19:0.32142901 20:0.60284603 21:0.270428 22:1.0045 23:4.62463 24:3.5238099 # Flowers/Shape1/shape1-077.ppm
-1.7853441821896603479170307436516e-12 1:395239 2:644122 3:504627 4:2620.26 5:15641.5 6:3.37255 7:111.766 8:2123.72 9:4 10:153 11:28 12:569 13:12523.8 14:2583.26 15:137.13699 16:161.25 17:0.48543701 18:8.1774197 19:0.342105 20:0.78322899 21:0.16752 22:0.800677 23:0.82210702 24:1.1860501 # Flowers/Shape2/shape2-008.ppm
1.7853441821896603479170307436516e-12 1:185305 2:455060 3:309677 4:2062.55 5:7013.98 6:3.38235 7:105.321 8:12076.3 9:12 10:68 11:24 12:332 13:7619.1299 14:2725.0801 15:151.52699 16:162.33299 17:0.38775501 18:12.28 19:0.33333299 20:0.598382 21:0.29406199 22:1.08628 23:4.43154 24:3.5478301 # Flowers/Shape1/shape1-097.ppm
-1.7853441821896603479170307436516e-12 1:310401 2:718475 3:511627 4:2723.25 5:12523.8 6:3.3599999 7:110.958 8:4300.8398 9:4 10:100 11:27 12:392 13:9404.6396 14:3104.01 15:153.194 16:165.14799 17:0.35135099 18:25.133301 19:0.17647099 20:0.606695 21:0.217445 22:0.75093901 23:1.38557 24:1.19048 # Flowers/Shape2/shape2-021.ppm
1.7853441821896603479170307436516e-12 1:247102 2:444310 3:292838 4:2038.36 5:11027.4 6:3.65432 7:110.056 8:16286 9:9 10:81 11:54 12:254 13:6213.0898 14:3050.6499 15:153.69701 16:171.519 17:0.42105299 18:13.9412 19:0.208955 20:0.84382099 21:0.184844 22:0.56342101 23:5.3385501 24:2.4628401 # Flowers/Shape1/shape1-056.ppm
-1.5428545981626140219275801051526e-12 1:294925 2:677910 3:536452 4:2793.73 5:12645 6:3.44068 7:102.789 8:9503.3203 9:5 10:118 11:25 12:445 13:10765.1 14:2499.3601 15:153.62 16:163.84 17:0.47499999 18:14.8929 19:0.29670301 20:0.54977 21:0.220935 22:0.85132802 23:3.80229 24:1.4532 # Flowers/Shape2/shape2-038.ppm
1.7853441821896603479170307436516e-12 1:239593 2:378012 3:291862 4:2035.95 5:10887.2 6:3.8205099 7:112.303 8:27759.1 9:18 10:78 11:45 12:263 13:6228.6099 14:3071.71 15:155.008 16:171.267 17:0.47169799 18:25.299999 19:0.25806499 20:0.82091099 21:0.187004 22:0.57210398 23:9.0370302 24:4.71141 # Flowers/Shape1/shape1-076.ppm
-1.7853441821896603479170307436516e-12 1:337724 2:670390 3:522166 4:2659.1499 5:14388.3 6:3.3798399 7:108.14 8:5281.02 9:4 10:129 11:23 12:471 13:10995.5 14:2618.01 15:150.47099 16:160.478 17:0.35789499 18:12.4571 19:0.26470599 20:0.64677399 21:0.18481401 22:0.76419902 23:2.01718 24:1.18349 # Flowers/Shape2/shape2-037.ppm
1.7853441821896603479170307436516e-12 1:238912 2:440914 3:288834 4:2027.28 5:8642.5898 6:3.63077 7:108.994 8:53912.898 9:6 10:65 11:47 12:246 13:6227.6899 14:3675.5701 15:155.51199 16:171.702 17:0.444444 18:17.9231 19:0.160714 20:0.82716101 21:0.234568 22:0.720581 23:14.6679 24:1.65254 # Flowers/Shape1/shape1-015.ppm
-1.7853441821896603479170307436516e-12 1:310401 2:718475 3:511627 4:2723.25 5:12523.8 6:3.3599999 7:110.958 8:4300.8398 9:4 10:100 11:27 12:392 13:9404.6396 14:3104.01 15:153.194 16:165.14799 17:0.35135099 18:25.133301 19:0.17647099 20:0.606695 21:0.217445 22:0.75093901 23:1.38557 24:1.19048 # Flowers/Shape2/shape2-019.ppm
1.7853441821896603479170307436516e-12 1:199778 2:390600 3:274610 4:1951.1899 5:7906.52 6:3.7818201 7:98.254898 8:33329.199 9:17 10:55 11:32 12:237 13:5701.6499 14:3632.3301 15:154.882 16:168.875 17:0.61764699 18:13.8125 19:0.19565199 20:0.72749698 21:0.246782 22:0.72113401 23:9.1756897 24:4.4951901 # Flowers/Shape1/shape1-023.ppm
-1.7853441821896603479170307436516e-12 1:314886 2:716300 3:512145 4:2720.9099 5:13295.2 6:3.4862399 7:106.827 8:2463.01 9:3 10:109 11:28 12:401 13:9329.3701 14:2888.8701 15:152.868 16:161.429 17:0.36250001 18:22.5882 19:0.19780201 20:0.614838 21:0.20465299 22:0.70170802 23:0.85258698 24:0.86052603 # Flowers/Shape2/shape2-000.ppm
1.7853441821896603479170307436516e-12 1:215062 2:433202 3:270736 4:1964.71 5:8038.6001 6:4 7:102.38 8:53092.898 9:19 10:43 11:39 12:215 13:4684.2598 14:5001.4399 15:149.89799 16:168.46201 17:0.43333301 18:15.5385 19:0.131579 20:0.79436201 21:0.24440999 22:0.58272099 23:10.6155 24:4.75 # Flowers/Shape1/shape1-086.ppm
-1.7853441821896603479170307436516e-12 1:403108 2:645894 3:505381 4:2621.53 5:17311.801 6:3.3636401 7:108.971 8:1963.5 9:3 10:176 11:23 12:571 13:12483.7 14:2290.3799 15:140.522 16:160.91299 17:0.41935501 18:10.42 19:0.33333299 20:0.79763103 21:0.15143 22:0.72110701 23:0.85727698 24:0.89189202 # Flowers/Shape2/shape2-029.ppm
1.7853441821896603479170307436516e-12 1:198664 2:382277 3:273598 4:1948.59 5:7625.3501 6:3.68627 7:105.912 8:32685.1 9:16 10:51 11:30 12:190 13:5551.7798 14:3895.3701 15:164.847 16:164.567 17:0.378378 18:30.6667 19:0.186047 20:0.72611398 21:0.255541 22:0.72807002 23:8.39077 24:4.3404298 # Flowers/Shape1/shape1-083.ppm
-1.7853441821896603479170307436516e-12 1:320963 2:722370 3:513646 4:2727.8301 5:14289.6 6:3.57377 7:107.889 8:1963.5 9:4 10:122 11:27 12:397 13:9476.04 14:2630.8401 15:151.23199 16:165.556 17:0.45238101 18:17.0455 19:0.22 20:0.62487102 21:0.19089501 22:0.66314 23:0.746337 24:1.11927 # Flowers/Shape2/shape2-060.ppm
-1.7853441821896603479170307436516e-12 1:315562 2:719200 3:512234 4:2725.0801 5:12903.5 6:3.51402 7:106.126 8:1809.5601 9:3 10:107 11:27 12:395 13:9454.7402 14:2949.1799 15:153.658 16:165.778 17:0.44594601 18:27.2143 19:0.188889 20:0.61604899 21:0.211189 22:0.73272401 23:0.613581 24:0.85372299 # Flowers/Shape2/shape2-041.ppm
-9.4251737316546608033964627336934e-13 1:369636 2:749088 3:503226 4:2591.6799 5:15677.1 6:3.2077899 7:108.929 8:1134.11 9:3 10:154 11:35 12:547 13:12520 14:2400.23 15:148.203 16:166.51401 17:0.36283201 18:10.6383 19:0.26229501 20:0.73453403 21:0.165316 22:0.79861599 23:0.47250199 24:0.93522298 # Flowers/Shape2/shape2-090.ppm
-1.4993868909246985401752292321316e-12 1:436376 2:1.05473e-06 3:637327 4:3015.0601 5:18155.301 6:3.26316 7:112.34 8:3848.45 9:6 10:190 11:27 12:630 13:15088.7 14:2296.72 15:152.97099 16:166.14799 17:0.37681201 18:16.027 19:0.35714301 20:0.68469697 21:0.166071 22:0.83108801 23:1.67563 24:1.83871 # Flowers/Shape2/shape2-096.ppm
-1.7853441821896603479170307436516e-12 1:320963 2:722370 3:513646 4:2727.8301 5:14289.6 6:3.57377 7:107.889 8:1963.5 9:4 10:122 11:27 12:397 13:9476.04 14:2630.8401 15:151.23199 16:165.556 17:0.45238101 18:17.0455 19:0.22 20:0.62487102 21:0.19089501 22:0.66314 23:0.746337 24:1.11927 # Flowers/Shape2/shape2-020.ppm
-1.7853441821896603479170307436516e-12 1:339982 2:668035 3:520352 4:2655.77 5:15803.3 6:3.5539601 7:106.459 8:6082.1201 9:5 10:139 11:25 12:461 13:10955.8 14:2445.9199 15:152.289 16:164.92 17:0.37623799 18:15.4643 19:0.31132099 20:0.65337002 21:0.168052 22:0.69326001 23:2.48664 24:1.40688 # Flowers/Shape2/shape2-016.ppm
