SVM-light Version V6.02
0 # kernel type
3 # kernel parameter -d 
1 # kernel parameter -g 
1 # kernel parameter -s 
1 # kernel parameter -r 
empty# kernel parameter -u 
24 # highest feature index 
200 # number of training documents 
138 # number of support vectors plus 1 
-1.0882692 # threshold b, each following line is a SV (starting with alpha*y)
-2.833538446046554052308180599465e-12 1:126497 2:243432 3:173520 4:1534.14 5:4957.6802 6:3.25581 7:100.742 8:32047.4 9:15 10:43 11:25 12:205 13:4719.4902 14:2941.78 15:149.24899 16:165.16 17:0.34375 18:11.8125 19:0.30303001 20:0.72900498 21:0.30944699 22:0.95195502 23:10.8939 24:4.6071401 # Flowers/Shape1/shape1-004.ppm
1.6949239238437510014815572567844e-12 1:153022 2:206880 3:157564 4:1433.92 5:6654.96 6:3.7358501 7:111.414 8:12469 9:8 10:53 11:63 12:172 13:4001.4299 14:2887.21 15:156.27901 16:171.714 17:0.432432 18:20.5 19:0.26190501 20:0.97117001 21:0.21546701 22:0.60127002 23:4.3186998 24:2.1414101 # Flowers/Shape3/shape3-000.ppm
-2.833538446046554052308180599465e-12 1:48000.199 2:175824 3:123027 4:1301.58 5:1800.4301 6:2.6400001 7:116.854 8:15836.8 9:10 10:25 11:9 12:193 13:4182.1201 14:1920.01 15:143.565 16:130.556 17:0.66666698 18:9.1578903 19:0.31578901 20:0.39015999 21:0.72292298 22:2.32284 23:8.2482796 24:3.7878799 # Flowers/Shape4/shape4-006.ppm
2.833538446046554052308180599465e-12 1:450415 2:783156 3:555406 4:2812.54 5:19002.801 6:3.9322 7:115.049 8:32047.4 9:14 10:118 11:47 12:349 13:8933.4102 14:3817.0701 15:155.65601 16:172.80901 17:0.439024 18:15.619 19:0.21649501 20:0.810965 21:0.14800601 22:0.47010899 23:8.3957996 24:3.5603399 # Flowers/Shape3/shape3-096.ppm
-2.833538446046554052308180599465e-12 1:64545.602 2:304818 3:159980 4:1612.77 5:3000.4199 6:3.0555601 7:121.257 8:14102.6 9:13 10:36 11:7 12:169 13:3925.8799 14:1792.9301 15:149.24899 16:121 17:0.384615 18:11.0714 19:0.33333299 20:0.40345901 21:0.53751701 22:1.30845 23:7.8656702 24:4.25455 # Flowers/Shape4/shape4-001.ppm
2.833538446046554052308180599465e-12 1:270194 2:357643 3:279434 4:1900.17 5:10978.5 6:3.46154 7:116.535 8:9160.8799 9:7 10:104 11:81 12:301 13:7525.6099 14:2598.02 15:159.767 16:174.864 17:0.52941197 18:36.625 19:0.30000001 20:0.96693498 21:0.173081 22:0.68548602 23:3.5260999 24:2.0222199 # Flowers/Shape3/shape3-045.ppm
-2.833538446046554052308180599465e-12 1:145719 2:208923 3:171480 4:1540.67 5:6066.2998 6:3.6666701 7:107.402 8:53912.898 9:18 10:42 11:38 12:161 13:3801.27 14:3469.5 15:155.845 16:166.605 17:0.40000001 18:31.200001 19:0.235294 20:0.84977502 21:0.25397199 22:0.62661999 23:15.5391 24:4.90909 # Flowers/Shape1/shape1-000.ppm
2.833538446046554052308180599465e-12 1:447126 2:756175 3:530464 4:2761.1001 5:18130.1 6:3.8596499 7:117.491 8:34636.102 9:12 10:114 11:54 12:346 13:8679.3799 14:3922.1599 15:160.72 16:172.66701 17:0.44303799 18:22.0667 19:0.2 20:0.842897 21:0.152294 22:0.478728 23:8.8308601 24:3.1090901 # Flowers/Shape3/shape3-036.ppm
-2.833538446046554052308180599465e-12 1:496561 2:785955 3:607458 4:2876.2 5:19073.699 6:3.54795 7:109.683 8:24884.6 9:8 10:146 11:34 12:361 13:11131.8 14:3401.1001 15:168.089 16:167.32401 17:0.431373 18:59.166698 19:0.237288 20:0.81743997 21:0.150794 22:0.58362198 23:7.3166199 24:2.2548299 # Flowers/Shape2/shape2-011.ppm
2.833538446046554052308180599465e-12 1:237480 2:316932 3:249598 4:1777.98 5:8484.1699 6:3.0537601 7:123.74 8:2642.0801 9:3 10:93 11:77 12:330 13:7732.1401 14:2553.54 15:154.976 16:173.22099 17:0.38806 18:16.368401 19:0.38806 20:0.951446 21:0.209564 22:0.91136199 23:1.03467 24:0.98239398 # Flowers/Shape3/shape3-028.ppm
-2.833538446046554052308180599465e-12 1:134968 2:209466 3:170697 4:1538.84 5:5862.8599 6:3.9473701 7:100.628 8:52279.199 9:18 10:38 11:41 12:171 13:3829.0701 14:3551.8 15:155.117 16:171.244 17:0.51999998 18:23.4286 19:0.225806 20:0.79069 21:0.26247299 22:0.65310597 23:14.7191 24:4.5599999 # Flowers/Shape1/shape1-021.ppm
2.833538446046554052308180599465e-12 1:451327 2:755430 3:531294 4:2760.9199 5:19882.1 6:3.9677401 7:113.633 8:35298.898 9:16 10:124 11:55 12:347 13:8729.9297 14:3639.73 15:155.752 16:171.582 17:0.45882401 18:18.2778 19:0.20388301 20:0.84948701 21:0.138864 22:0.43908501 23:9.6982203 24:4.0325198 # Flowers/Shape3/shape3-056.ppm
-2.833538446046554052308180599465e-12 1:207984 2:506160 3:350153 4:2245.26 5:9365.6602 6:3.7910399 7:108.348 8:23778.699 9:12 10:67 11:21 12:241 13:5833.8501 14:3104.25 15:156.444 16:156.619 17:0.48888901 18:47.200001 19:0.196429 20:0.59398198 21:0.239733 22:0.62289798 23:7.6600599 24:3.16535 # Flowers/Shape5/shape5-024.ppm
2.833538446046554052308180599465e-12 1:282324 2:376226 3:294010 4:1926.45 5:11197.4 6:3.1048999 7:117.844 8:1809.5601 9:2 10:143 11:81 12:420 13:10331.2 14:1974.29 15:161.686 16:174.75301 17:0.47422701 18:45.666698 19:0.53763402 20:0.96025401 21:0.17204399 22:0.92264003 23:0.91655999 24:0.644144 # Flowers/Shape3/shape3-040.ppm
-2.833538446046554052308180599465e-12 1:146385 2:209952 3:171842 4:1540.86 5:6747.5698 6:3.86957 7:102.386 8:53912.898 9:20 10:46 11:41 12:161 13:3790.6499 14:3182.28 15:154.267 16:170.951 17:0.48387101 18:31.200001 19:0.179487 20:0.85185701 21:0.228357 22:0.56177998 23:16.941601 24:5.16854 # Flowers/Shape1/shape1-020.ppm
2.833538446046554052308180599465e-12 1:458309 2:655234 3:466885 4:2490.45 5:19039.801 6:3.9439299 7:116.848 8:107521 9:23 10:107 11:81 12:322 13:7741.7598 14:4283.2598 15:154.39799 16:174.383 17:0.46575299 18:17.9412 19:0.16304301 20:0.98163199 21:0.13080201 22:0.40660799 23:25.1026 24:5.8317499 # Flowers/Shape3/shape3-095.ppm
-2.833538446046554052308180599465e-12 1:496061 2:713456 3:590510 4:2862.29 5:20191.199 6:3.5326099 7:109.303 8:9160.8799 9:6 10:184 11:40 12:551 13:13252.9 14:2695.98 15:156.278 16:167.64999 17:0.41538501 18:18 19:0.251701 20:0.84005499 21:0.14175899 22:0.65636897 23:3.39798 24:1.69846 # Flowers/Shape2/shape2-012.ppm
2.833538446046554052308180599465e-12 1:116998 2:170771 3:126266 4:1271.3101 5:3917.1399 6:2.4266701 7:124.62 8:615.75201 9:3 10:75 11:67 12:267 13:6332.8301 14:1559.97 15:155.854 16:173.269 17:0.59574503 18:12.35 19:0.470588 20:0.92659801 21:0.32455099 22:1.61669 23:0.39471999 24:1.2362601 # Flowers/Shape3/shape3-062.ppm
-2.833538446046554052308180599465e-12 1:128006 2:243972 3:174852 4:1539.4301 5:4961.3799 6:3.30233 7:101.111 8:32047.4 9:14 10:43 11:27 12:198 13:4741.6099 14:2976.8799 15:152.071 16:165.741 17:0.34375 18:23.75 19:0.30303001 20:0.73207802 21:0.31028301 22:0.95570302 23:10.7654 24:4.23944 # Flowers/Shape1/shape1-025.ppm
2.833538446046554052308180599465e-12 1:455428 2:655234 3:466346 4:2489.1101 5:18494.801 6:3.8947401 7:114.488 8:90792 9:18 10:114 11:87 12:320 13:7757.8999 14:3994.98 15:157.769 16:174.25301 17:0.40740699 18:16.7778 19:0.175258 20:0.97658598 21:0.13458499 22:0.41946501 23:22.7265 24:4.6216202 # Flowers/Shape3/shape3-075.ppm
-2.833538446046554052308180599465e-12 1:194985 2:288904 3:224838 4:1741.11 5:9684.9805 6:3.90769 7:106.815 8:34636.102 9:18 10:65 11:44 12:200 13:4600.3799 14:2999.77 15:150.875 16:167.795 17:0.35416701 18:17.181801 19:0.18181799 20:0.86722398 21:0.179774 22:0.47500199 23:11.5462 24:4.6062999 # Flowers/Shape1/shape1-018.ppm
2.833538446046554052308180599465e-12 1:446918 2:643914 3:487378 4:2559.1499 5:17502.801 6:3.85586 7:114.432 8:35298.898 9:12 10:111 11:67 12:282 13:8264.4199 14:4026.29 15:165.468 16:173.537 17:0.441558 18:46 19:0.206522 20:0.91698402 21:0.14621399 22:0.47217801 23:8.7671204 24:3.11215 # Flowers/Shape3/shape3-076.ppm
-2.833538446046554052308180599465e-12 1:465851 2:730635 3:545202 4:2840.0601 5:21037 6:4.1782198 7:114.776 8:33979.5 9:16 10:101 11:58 12:298 13:7482.0698 14:4612.3901 15:156.077 16:171.172 17:0.246914 18:28.799999 19:0.134831 20:0.85445601 21:0.135003 22:0.35566199 23:7.3670001 24:3.82938 # Flowers/Shape1/shape1-011.ppm
2.833538446046554052308180599465e-12 1:241647 2:326959 3:251730 4:1785.72 5:9383.2598 6:3.1800001 7:120.836 8:2827.4299 9:4 10:100 11:80 12:319 13:7785.6899 14:2416.47 15:157.276 16:173.86301 17:0.40845099 18:21.7857 19:0.35135099 20:0.95994598 21:0.190309 22:0.82974201 23:1.1700701 24:1.2578599 # Flowers/Shape3/shape3-068.ppm
-2.833538446046554052308180599465e-12 1:135542 2:241605 3:178473 4:1568.61 5:4911.6001 6:3.54286 7:97.292099 8:32685.1 9:15 10:35 11:31 12:183 13:4288.2598 14:3872.6299 15:155.50301 16:163.065 17:0.346154 18:17.299999 19:0.25 20:0.759453 21:0.319368 22:0.873088 23:8.4400396 24:4.23387 # Flowers/Shape1/shape1-006.ppm
2.833538446046554052308180599465e-12 1:452510 2:646410 3:478850 4:2536.02 5:19426.5 6:3.9344299 7:117.76 8:53092.898 9:17 10:122 11:69 12:291 13:8215.3096 14:3709.1001 15:167.23399 16:174.145 17:0.48780501 18:35.375 19:0.184466 20:0.94499302 21:0.13054401 22:0.422892 23:14.3142 24:4.3208299 # Flowers/Shape3/shape3-015.ppm
-2.833538446046554052308180599465e-12 1:451654 2:739784 3:552714 4:3023.74 5:20618 6:4.1414099 7:109.804 8:32685.1 9:12 10:99 11:74 12:340 13:7893.52 14:4562.1602 15:156.44701 16:174.108 17:0.2375 18:21.6667 19:0.151163 20:0.81715697 21:0.14665499 22:0.382846 23:7.1643901 24:2.8975599 # Flowers/Shape1/shape1-014.ppm
2.833538446046554052308180599465e-12 1:117846 2:168296 3:124170 4:1261.25 5:5175.5601 6:2.8571401 7:121.527 8:615.75201 9:2 10:91 11:58 12:266 13:6325.25 14:1295.01 15:156.383 16:171.534 17:0.78431398 18:14.6471 19:0.444444 20:0.94906902 21:0.24369401 22:1.22214 23:0.475481 24:0.69999999 # Flowers/Shape3/shape3-082.ppm
-2.833538446046554052308180599465e-12 1:75043.297 2:291870 3:145236 4:1778.6801 5:3421.4099 6:3.1666701 7:123.628 8:21642.4 9:13 10:36 11:8 12:151 13:3774.98 14:2084.54 15:163.146 16:134.875 17:0.33333299 18:36.75 19:0.285714 20:0.51669699 21:0.519867 22:1.10334 23:10.3824 24:4.1052599 # Flowers/Shape4/shape4-003.ppm
2.833538446046554052308180599465e-12 1:450036 2:645260 3:463478 4:2473.7 5:18894.5 6:3.4103999 7:115.74 8:530.92902 9:1 10:173 11:85 12:494 13:11514.1 14:2601.3701 15:155.53999 16:174.63499 17:0.418033 18:18 19:0.25362301 20:0.970999 21:0.130922 22:0.60938901 23:0.204096 24:0.29322001 # Flowers/Shape3/shape3-078.ppm
-2.833538446046554052308180599465e-12 1:426953 2:646050 3:535278 4:2772.48 5:18501.199 6:3.47826 7:113.915 8:9160.8799 9:6 10:161 11:27 12:480 13:11287.5 14:2651.8899 15:155.765 16:163.66701 17:0.38793099 18:23 19:0.28799999 20:0.797629 21:0.149854 22:0.61009598 23:3.4544799 24:1.725 # Flowers/Shape2/shape2-013.ppm
2.833538446046554052308180599465e-12 1:177035 2:261040 3:206828 4:1618.28 5:6451.46 6:2.86076 7:125.884 8:15836.8 9:6 10:79 11:64 12:404 13:8091.1602 14:2240.95 15:138.005 16:174.328 17:0.75555599 18:6.9215698 19:0.16176499 20:0.85595399 21:0.25083899 22:1.25416 23:7.0669999 24:2.0973499 # Flowers/Shape3/shape3-010.ppm
-2.833538446046554052308180599465e-12 1:148902 2:257335 3:196871 4:1657.04 5:5454.2798 6:3.55 7:104.569 8:22167.1 9:13 10:40 11:30 12:194 13:4685.2598 14:3722.5601 15:153.53101 16:165.467 17:0.29032299 18:15.1667 19:0.25 20:0.75634599 21:0.30380601 22:0.85900801 23:5.9547901 24:3.6619699 # Flowers/Shape1/shape1-017.ppm
2.833538446046554052308180599465e-12 1:456000 2:589440 3:466509 4:2488.8999 5:19095 6:3.9428599 7:116.405 8:104062 9:25 10:105 11:87 12:316 13:7726.3101 14:4342.8599 15:159.576 16:173.95399 17:0.52173901 18:23.307699 19:0.166667 20:0.97747302 21:0.13034301 22:0.404625 23:23.9617 24:6.34058 # Flowers/Shape3/shape3-055.ppm
-2.833538446046554052308180599465e-12 1:201055 2:290759 3:227203 4:1732.12 5:8645.5303 6:3.7083299 7:106.792 8:96211.297 9:27 10:48 11:42 12:186 13:4271.02 14:4188.6401 15:151.339 16:167.35699 17:0.41176501 18:14.5 19:0.17073201 20:0.88491201 21:0.200349 22:0.49401399 23:22.969601 24:7.2809 # Flowers/Shape1/shape1-009.ppm
2.833538446046554052308180599465e-12 1:260533 2:428203 3:291372 4:1996.5699 5:9776.4697 6:3.14783 7:117.68 8:3631.6799 9:5 10:115 11:64 12:353 13:8925.9297 14:2265.5 15:158.83 16:174.688 17:0.41975299 18:22.5333 19:0.4375 20:0.89415801 21:0.20422199 22:0.91300201 23:1.60304 24:1.5884 # Flowers/Shape3/shape3-066.ppm
-2.833538446046554052308180599465e-12 1:422496 2:701043 3:540966 4:2712.3799 5:17434.9 6:3.19786 7:109.633 8:1520.53 9:3 10:187 11:36 12:614 13:14334.1 14:2259.3401 15:153.62199 16:165.33299 17:0.41666701 18:16.5429 19:0.395522 20:0.781003 21:0.155572 22:0.82215202 23:0.67299902 24:0.93812698 # Flowers/Shape2/shape2-014.ppm
2.833538446046554052308180599465e-12 1:149468 2:207311 3:157496 4:1434.29 5:5380.3501 6:3.5122001 7:115.883 8:11689.9 9:5 10:41 11:61 12:172 13:4010.1101 14:3645.5701 15:156.62199 16:174.09801 17:0.51851898 18:27.6667 19:0.366667 20:0.949027 21:0.26657999 22:0.74532503 23:3.2065899 24:1.42361 # Flowers/Shape3/shape3-020.ppm
-2.833538446046554052308180599465e-12 1:147957 2:265727 3:207974 4:1722.62 5:6340.7202 6:3.68627 7:103.409 8:28952.9 9:16 10:51 11:27 12:206 13:4892.5298 14:2901.1299 15:154.786 16:165.963 17:0.41666701 18:17.727301 19:0.27500001 20:0.71142101 21:0.271676 22:0.77160501 23:9.9798899 24:4.3404298 # Flowers/Shape1/shape1-022.ppm
2.833538446046554052308180599465e-12 1:453436 2:591360 3:466527 4:2489.8201 5:17603.4 6:3.8811901 7:117.43 8:84496.297 9:20 10:101 11:86 12:314 13:7699.5498 14:4489.46 15:161.08299 16:174.453 17:0.422535 18:23.153799 19:0.202381 20:0.97193801 21:0.14144 22:0.43739 23:18.820999 24:5.15306 # Flowers/Shape3/shape3-035.ppm
-2.833538446046554052308180599465e-12 1:216547 2:332800 3:270836 4:1966.26 5:8453.8398 6:4.1463399 7:103.558 8:62458 9:23 10:41 11:36 12:220 13:4684.9302 14:5281.6299 15:143.923 16:165.778 17:0.32258099 18:17.3333 19:0.17142899 20:0.79954797 21:0.23258799 22:0.554178 23:11.8255 24:5.54706 # Flowers/Shape1/shape1-005.ppm
2.833538446046554052308180599465e-12 1:370432 2:593514 3:413499 4:2346.6799 5:15980.7 6:3.6666701 7:111.018 8:6082.1201 9:9 10:126 11:38 12:421 13:9040.79 14:2939.9399 15:142.86 16:165.868 17:0.482353 18:10.3784 19:0.285714 20:0.89584798 21:0.146844 22:0.565732 23:2.06879 24:2.45455 # Flowers/Shape3/shape3-092.ppm
-2.833538446046554052308180599465e-12 1:440603 2:743512 3:604408 4:2859.01 5:18262.5 6:3.2888899 7:109.85 8:6082.1201 9:4 10:180 11:31 12:635 13:14855.8 14:2447.79 15:150.373 16:163.38699 17:0.44 18:13.7674 19:0.30434799 20:0.72898299 21:0.156552 22:0.81346101 23:2.48474 24:1.21622 # Flowers/Shape2/shape2-015.ppm
2.833538446046554052308180599465e-12 1:150764 2:207311 3:157470 4:1434.1 5:6091.2002 6:3.5652201 7:109.703 8:10568.3 9:4 10:46 11:61 12:168 13:4006.47 14:3277.47 15:161.19 16:173.754 17:0.39393899 18:32.599998 19:0.31428599 20:0.95740998 21:0.23543701 22:0.65774697 23:3.22453 24:1.12195 # Flowers/Shape3/shape3-021.ppm
-2.833538446046554052308180599465e-12 1:151412 2:267344 3:207694 4:1722.55 5:6874.1401 6:3.6981101 7:103.909 8:33329.199 9:18 10:53 11:26 12:209 13:4870.2202 14:2856.8401 15:154.27299 16:165 17:0.35897401 18:18 19:0.26190501 20:0.72901601 21:0.25058401 22:0.70848501 23:11.6665 24:4.8673501 # Flowers/Shape1/shape1-001.ppm
2.833538446046554052308180599465e-12 1:372948 2:595030 3:414834 4:2351.5 5:15253.5 6:3.5609801 7:112.044 8:6082.1201 9:5 10:123 11:30 12:417 13:9076.21 14:3032.1001 15:147.22501 16:165.33299 17:0.44705901 18:14.4444 19:0.25510201 20:0.89903098 21:0.15416101 22:0.59502298 23:2.0059099 24:1.40411 # Flowers/Shape3/shape3-072.ppm
-2.833538446046554052308180599465e-12 1:284435 2:493751 3:343364 4:2260.77 5:10095.7 6:3.73913 7:104.492 8:17671.5 9:8 10:69 11:50 12:271 13:6454.3398 14:4122.25 15:152.284 16:172.7 17:0.68292701 18:15.9375 19:0.210526 20:0.82837999 21:0.22393499 22:0.63931799 23:4.28685 24:2.1395299 # Flowers/Shape1/shape1-013.ppm
2.833538446046554052308180599465e-12 1:189522 2:270351 3:206618 4:1617.45 5:7708.1602 6:2.8118801 7:123.973 8:16741.5 9:9 10:101 11:60 12:394 13:7986.5298 14:1876.46 15:140.437 16:171.91701 17:0.50746298 18:8.6097603 19:0.16091999 20:0.917256 21:0.20983601 22:1.03611 23:8.9218998 24:3.2007 # Flowers/Shape3/shape3-071.ppm
-2.833538446046554052308180599465e-12 1:141290 2:266682 3:208990 4:1695.4 5:4487.75 6:3.5151501 7:105.193 8:33329.199 9:10 10:33 11:33 12:201 13:4885.8599 14:4281.5098 15:145.687 16:164.091 17:0.375 18:10.8235 19:0.222222 20:0.67606002 21:0.377783 22:1.08871 23:7.78444 24:2.84483 # Flowers/Shape1/shape1-019.ppm
2.833538446046554052308180599465e-12 1:266785 2:355908 3:277352 4:1893.54 5:10438.4 6:3.37255 7:114.091 8:6361.73 9:5 10:102 11:77 12:305 13:7558.6699 14:2615.54 15:158.80701 16:173.052 17:0.5 18:24.4167 19:0.378378 20:0.96189898 21:0.181402 22:0.72412401 23:2.4322801 24:1.48256 # Flowers/Shape3/shape3-004.ppm
-2.833538446046554052308180599465e-12 1:395239 2:644122 3:504627 4:2620.26 5:15641.5 6:3.37255 7:111.766 8:2123.72 9:4 10:153 11:28 12:569 13:12523.8 14:2583.26 15:137.13699 16:161.25 17:0.48543701 18:8.1774197 19:0.342105 20:0.78322899 21:0.16752 22:0.800677 23:0.82210702 24:1.1860501 # Flowers/Shape2/shape2-008.ppm
2.833538446046554052308180599465e-12 1:151265 2:215604 3:157427 4:1434.8 5:6451.7598 6:3.7142899 7:112.519 8:11689.9 9:4 10:49 11:54 12:168 13:3999.97 14:3087.05 15:157.036 16:171.185 17:0.441176 18:17.6667 19:0.28947401 20:0.96086103 21:0.222389 22:0.61998099 23:3.7867401 24:1.07692 # Flowers/Shape3/shape3-081.ppm
-2.833538446046554052308180599465e-12 1:73685.797 2:291078 3:146193 4:1778.62 5:2561.46 6:2.8965499 7:125.164 8:21124.1 9:8 10:29 11:6 12:155 13:3772.97 14:2540.8899 15:161.297 16:119.333 17:0.61111099 18:24.8333 19:0.380952 20:0.504031 21:0.69437599 22:1.47298 23:8.3136501 24:2.7618999 # Flowers/Shape4/shape4-024.ppm
2.833538446046554052308180599465e-12 1:232051 2:304513 3:237192 4:1738.09 5:9832.7695 6:3.75758 7:118.907 8:36643.5 9:15 10:66 11:77 12:201 13:5046.9302 14:3515.9299 15:161.229 16:173.286 17:0.43478301 18:19.1 19:0.2 20:0.97832799 21:0.17676499 22:0.51327598 23:10.4221 24:3.99194 # Flowers/Shape3/shape3-027.ppm
-2.833538446046554052308180599465e-12 1:372766 2:627328 3:506705 4:2598.49 5:15258.4 6:3.2349 7:107.231 8:804.24799 9:3 10:149 11:35 12:528 13:12451.2 14:2501.79 15:152.08701 16:166.314 17:0.41904801 18:15 19:0.366972 20:0.73566699 21:0.17029899 22:0.816019 23:0.32146901 24:0.92738599 # Flowers/Shape2/shape2-009.ppm
2.833538446046554052308180599465e-12 1:152255 2:217012 3:157550 4:1435.25 5:6276.1802 6:3.73913 7:109.81 8:12076.3 9:5 10:46 11:56 12:166 13:4001.5801 14:3309.8999 15:158.01801 16:172.35699 17:0.39393899 18:22.7143 19:0.31428599 20:0.96639103 21:0.22868299 22:0.63758302 23:3.64853 24:1.3372101 # Flowers/Shape3/shape3-061.ppm
-2.833538446046554052308180599465e-12 1:210223 2:325280 3:271244 4:1928.64 5:7917.8999 6:3.9047599 7:105.098 8:76453.797 9:22 10:42 11:37 12:218 13:4889.6099 14:5005.2998 15:152.44501 16:166.946 17:0.555556 18:26.25 19:0.166667 20:0.77503097 21:0.243579 22:0.61753798 23:15.2746 24:5.63415 # Flowers/Shape1/shape1-007.ppm
2.833538446046554052308180599465e-12 1:370827 2:525280 3:414188 4:2349.3601 5:16309.1 6:3.7164199 7:107.091 8:5808.7998 9:6 10:134 11:36 12:436 13:9115.21 14:2767.3601 15:141.823 16:165.33299 17:0.48888901 18:16.440001 19:0.27619001 20:0.895311 21:0.144052 22:0.55890203 23:2.09904 24:1.61446 # Flowers/Shape3/shape3-011.ppm
-2.833538446046554052308180599465e-12 1:289819 2:488684 3:348356 4:2274.99 5:12900.8 6:4.05479 7:110.466 8:58106.898 9:18 10:73 11:49 12:244 13:6011.6499 14:3970.1201 15:156.791 16:172.367 17:0.25862101 18:16.4286 19:0.17741901 20:0.83196098 21:0.17634501 22:0.46599001 23:14.6361 24:4.4391899 # Flowers/Shape1/shape1-012.ppm
2.833538446046554052308180599465e-12 1:262838 2:427336 3:288246 4:1989.33 5:10825.2 6:3.2096801 7:122.682 8:5026.5498 9:4 10:124 11:59 12:356 13:8893.7002 14:2119.6599 15:159.744 16:173.508 17:0.44185999 18:26.3846 19:0.37777799 20:0.91185498 21:0.183768 22:0.82157201 23:2.3713901 24:1.24623 # Flowers/Shape3/shape3-086.ppm
-2.833538446046554052308180599465e-12 1:238912 2:440914 3:288834 4:2027.28 5:8642.5898 6:3.63077 7:108.994 8:53912.898 9:6 10:65 11:47 12:246 13:6227.6899 14:3675.5701 15:155.51199 16:171.702 17:0.444444 18:17.9231 19:0.160714 20:0.82716101 21:0.234568 22:0.720581 23:14.6679 24:1.65254 # Flowers/Shape1/shape1-015.ppm
2.833538446046554052308180599465e-12 1:372519 2:525165 3:415255 4:2351.3601 5:16456.801 6:3.6417899 7:106.808 8:6361.73 9:5 10:134 11:36 12:442 13:9080.04 14:2779.99 15:145.56599 16:165.806 17:0.50561798 18:17.4167 19:0.229358 20:0.897084 21:0.14288101 22:0.55175197 23:2.2883999 24:1.37295 # Flowers/Shape3/shape3-052.ppm
-2.833538446046554052308180599465e-12 1:304009 2:504654 3:399098 4:2327.8301 5:10913.3 6:3.2765999 7:108.682 8:3848.45 9:2 10:94 11:33 12:371 13:8852.1396 14:3234.1299 15:154.27499 16:164.758 17:0.46875 18:18.5263 19:0.27026999 20:0.76173902 21:0.213302 22:0.81113201 23:1.18995 24:0.61039001 # Flowers/Shape2/shape2-005.ppm
2.833538446046554052308180599465e-12 1:264487 2:412661 3:293636 4:1971.3 5:10084.4 6:3.12621 7:119.577 8:804.24799 9:1 10:103 11:66 12:396 13:8386.1396 14:2567.8301 15:143.591 16:171.742 17:0.41095901 18:12.6552 19:0.256098 20:0.90073103 21:0.195481 22:0.831599 23:0.31320101 24:0.31987599 # Flowers/Shape3/shape3-099.ppm
-2.833538446046554052308180599465e-12 1:197356 2:389327 3:272836 4:1946.41 5:7642.9502 6:3.7735801 7:102.279 8:26590.4 9:15 10:53 11:31 12:235 13:5695.04 14:3723.7 15:157.694 16:164.323 17:0.472222 18:17.0769 19:0.20454501 20:0.72334898 21:0.25466701 22:0.74513602 23:7.1408701 24:3.9749999 # Flowers/Shape1/shape1-002.ppm
2.833538446046554052308180599465e-12 1:374229 2:516360 3:412656 4:2343.8999 5:16761.801 6:3.7142899 7:107.665 8:6082.1201 9:6 10:133 11:40 12:285 13:8831.7803 14:2813.75 15:164.347 16:168.675 17:0.47777799 18:141.5 19:0.25471699 20:0.90687901 21:0.139836 22:0.52689898 23:2.1615701 24:1.61538 # Flowers/Shape3/shape3-032.ppm
-2.833538446046554052308180599465e-12 1:407456 2:747630 3:577808 4:2786.23 5:18578.699 6:3.47191 7:106.173 8:1809.5601 9:1 10:178 11:28 12:549 13:12714.1 14:2289.0801 15:148.16901 16:162.071 17:0.412698 18:14.6857 19:0.28057599 20:0.70517701 21:0.149969 22:0.68433398 23:0.79051697 24:0.28802601 # Flowers/Shape2/shape2-007.ppm
2.833538446046554052308180599465e-12 1:152346 2:207840 3:158724 4:1438.29 5:6091.52 6:3.6521699 7:113.164 8:14102.6 9:10 10:46 11:61 12:169 13:4018.6101 14:3311.8601 15:158.479 16:173.88499 17:0.39393899 18:83.5 19:0.277778 20:0.95981598 21:0.236114 22:0.659706 23:4.2582102 24:2.7381001 # Flowers/Shape3/shape3-041.ppm
-2.833538446046554052308180599465e-12 1:79249.203 2:265029 3:185342 4:1713.24 5:3349.52 6:3.3513501 7:121.149 8:13684.8 9:10 10:37 11:9 12:169 13:4133.0898 14:2141.8701 15:161.57401 16:127.444 17:0.68181801 18:55.333302 19:0.37037 20:0.42758301 21:0.51148802 22:1.23394 23:6.3891702 24:2.98387 # Flowers/Shape4/shape4-021.ppm
2.833538446046554052308180599465e-12 1:283377 2:377500 3:295284 4:1930.49 5:11084 6:3.0780101 7:119.563 8:1963.5 9:2 10:141 11:84 12:424 13:10352.3 14:2009.76 15:160.328 16:173.679 17:0.43877599 18:34.333302 19:0.58427 20:0.95967299 21:0.174169 22:0.93398201 23:0.976978 24:0.64977002 # Flowers/Shape3/shape3-019.ppm
-2.833538446046554052308180599465e-12 1:199778 2:390600 3:274610 4:1951.1899 5:7906.52 6:3.7818201 7:98.254898 8:33329.199 9:17 10:55 11:32 12:237 13:5701.6499 14:3632.3301 15:154.882 16:168.875 17:0.61764699 18:13.8125 19:0.19565199 20:0.72749698 21:0.246782 22:0.72113401 23:9.1756897 24:4.4951901 # Flowers/Shape1/shape1-023.ppm
-2.833538446046554052308180599465e-12 1:131415 2:313040 3:228154 4:1792.03 5:5121.3999 6:3.28 7:108.623 8:10935.9 9:10 10:50 11:19 12:241 13:5926.79 14:2628.3 15:159.45599 16:155.211 17:0.38888901 18:29.125 19:0.42857099 20:0.575993 21:0.34990999 22:1.1572599 23:4.16081 24:3.04878 # Flowers/Shape1/shape1-003.ppm
-2.833538446046554052308180599465e-12 1:241320 2:480000 3:342795 4:2238.0601 5:9195.96 6:3.63077 7:111.655 8:16741.5 9:9 10:65 11:46 12:304 13:6834.9102 14:3712.6201 15:146.56599 16:169.478 17:0.47727299 18:20.7143 19:0.203704 20:0.703978 21:0.243375 22:0.74325103 23:4.5093598 24:2.4788101 # Flowers/Shape5/shape5-014.ppm
2.833538446046554052308180599465e-12 1:191341 2:272420 3:207070 4:1619.98 5:7499.8398 6:2.6990299 7:122.92 8:15836.8 9:10 10:103 11:55 12:383 13:8049.4102 14:1857.6801 15:139.20599 16:171.836 17:0.430556 18:7.3260899 19:0.183908 20:0.92403698 21:0.216002 22:1.07328 23:8.5250397 24:3.70504 # Flowers/Shape3/shape3-091.ppm
2.833538446046554052308180599465e-12 1:259705 2:369135 3:288880 4:1991.73 5:10122.2 6:3.1858399 7:119.623 8:5281.02 9:4 10:113 11:57 12:350 13:8893.1299 14:2298.27 15:159.82001 16:172.614 17:0.43037999 18:25.9231 19:0.43037999 20:0.89900798 21:0.19677 22:0.87858099 23:2.2978201 24:1.25556 # Flowers/Shape3/shape3-005.ppm
2.833538446046554052308180599465e-12 1:261375 2:370352 3:289630 4:1994.38 5:10627.2 6:3.22034 7:118.42 8:5026.5498 9:7 10:118 11:59 12:355 13:8906.79 14:2215.04 15:157.806 16:173.08501 17:0.42168701 18:15.1364 19:0.404762 20:0.90244401 21:0.187667 22:0.83810902 23:2.26928 24:2.1736801 # Flowers/Shape3/shape3-026.ppm
-2.833538446046554052308180599465e-12 1:129191 2:315120 3:228557 4:1796.39 5:5015.1299 6:3.34694 7:106.183 8:20106.199 9:10 10:49 11:18 12:245 13:5973.6099 14:2636.54 15:155.661 16:153.11099 17:0.40000001 18:16.5 19:0.441176 20:0.56524497 21:0.35819301 22:1.19112 23:7.6259599 24:2.9877999 # Flowers/Shape1/shape1-024.ppm
2.833538446046554052308180599465e-12 1:261796 2:370938 3:289435 4:1992.3 5:10380.5 6:3.17241 7:120.687 8:5281.02 9:2 10:116 11:63 12:344 13:8876.9404 14:2256.8601 15:160.73 16:171.397 17:0.380952 18:33.400002 19:0.41463399 20:0.90450603 21:0.191927 22:0.85515797 23:2.3399899 24:0.63043499 # Flowers/Shape3/shape3-046.ppm
-2.833538446046554052308180599465e-12 1:302617 2:571769 3:431257 4:2472.8301 5:14127 6:3.6134501 7:104.643 8:4778.3599 9:4 10:119 11:29 12:403 13:9228.1797 14:2543 15:150.481 16:164.414 17:0.48750001 18:15.7917 19:0.265957 20:0.70170999 21:0.175043 22:0.65323001 23:1.87902 24:1.10698 # Flowers/Shape2/shape2-004.ppm
2.833538446046554052308180599465e-12 1:157790 2:222159 3:169072 4:1466.34 5:6072.3301 6:3.26667 7:121.213 8:1661.9 9:1 10:60 11:74 12:216 13:5272.2202 14:2629.8301 15:157.759 16:174.041 17:0.463415 18:26 19:0.30434799 20:0.933267 21:0.24147899 22:0.86823702 23:0.63194299 24:0.306122 # Flowers/Shape3/shape3-063.ppm
-2.833538446046554052308180599465e-12 1:79249.203 2:265029 3:185342 4:1713.24 5:3349.52 6:3.3513501 7:121.149 8:13684.8 9:10 10:37 11:9 12:169 13:4133.0898 14:2141.8701 15:161.57401 16:127.444 17:0.68181801 18:55.333302 19:0.37037 20:0.42758301 21:0.51148802 22:1.23394 23:6.3891702 24:2.98387 # Flowers/Shape4/shape4-019.ppm
2.833538446046554052308180599465e-12 1:274547 2:370242 3:284952 4:1901.46 5:10958.7 6:3.47368 7:116.443 8:2642.0801 9:3 10:95 11:77 12:294 13:7230.71 14:2889.97 15:157.752 16:173.27299 17:0.37681201 18:23.5 19:0.26666701 20:0.96348602 21:0.173511 22:0.65981299 23:0.91422498 24:0.86363602 # Flowers/Shape3/shape3-077.ppm
-2.833538446046554052308180599465e-12 1:412076 2:750696 3:590085 4:2864.3301 5:17832.1 6:3.3333299 7:110.19 8:2463.01 9:4 10:156 11:29 12:558 13:12867.3 14:2641.51 15:150.799 16:165.448 17:0.34482801 18:18.2414 19:0.238095 20:0.69833302 21:0.16062699 22:0.72157699 23:0.93242401 24:1.2 # Flowers/Shape2/shape2-010.ppm
2.833538446046554052308180599465e-12 1:153066 2:207311 3:157476 4:1434.02 5:6281.4702 6:3.6078401 7:113.361 8:18145.801 9:9 10:51 11:60 12:170 13:4009.8999 14:3001.29 15:159.14101 16:172.3 17:0.41666701 18:20.25 19:0.243902 20:0.97199303 21:0.228294 22:0.63836998 23:6.04602 24:2.49457 # Flowers/Shape3/shape3-100.ppm
-2.833538446046554052308180599465e-12 1:77892.5 2:265558 3:185406 4:1713.67 5:2757.5901 6:3 7:123.55 8:13273.2 9:8 10:30 11:7 12:167 13:4126.3999 14:2596.4199 15:163.024 16:111.857 17:0.66666698 18:40.75 19:0.36363599 20:0.42011899 21:0.62143803 22:1.49638 23:5.1121302 24:2.6666701 # Flowers/Shape4/shape4-020.ppm
-2.833538446046554052308180599465e-12 1:286772 2:529306 3:437619 4:2455.29 5:11490.3 6:3.48454 7:106 8:28352.9 9:13 10:97 11:24 12:385 13:8829.7305 14:2956.4099 15:150.605 16:162.33299 17:0.469697 18:12.75 19:0.29333299 20:0.65530002 21:0.21368399 22:0.76845098 23:9.5903101 24:3.7307701 # Flowers/Shape2/shape2-003.ppm
2.833538446046554052308180599465e-12 1:158829 2:215650 3:168988 4:1466.54 5:6466.1099 6:3.2647099 7:117.247 8:1661.9 9:2 10:68 11:69 12:231 13:5296.27 14:2335.72 15:154.935 16:174.39101 17:0.38775501 18:22.1 19:0.33333299 20:0.93988597 21:0.226805 22:0.81908202 23:0.71151602 24:0.61261302 # Flowers/Shape3/shape3-043.ppm
-2.833538446046554052308180599465e-12 1:112018 2:307615 3:204417 4:1737.55 5:4171.6699 6:3.2432401 7:97.216904 8:18145.801 9:12 10:37 11:17 12:198 13:4763.3301 14:3027.52 15:150.263 16:154 17:0.32142901 18:10.6471 19:0.37037 20:0.54798901 21:0.416511 22:1.14183 23:5.9936299 24:3.7 # Flowers/Shape5/shape5-011.ppm
2.833538446046554052308180599465e-12 1:361152 2:489424 3:370718 4:2168.23 5:14417.5 6:3.7281599 7:118.452 8:38013.301 9:12 10:103 11:88 12:298 13:7502.2002 14:3506.3301 15:160.916 16:174.94299 17:0.560606 18:20.2857 19:0.240964 20:0.974195 21:0.150389 22:0.52035499 23:10.8413 24:3.21875 # Flowers/Shape3/shape3-073.ppm
-2.833538446046554052308180599465e-12 1:223592 2:470470 3:321530 4:2140.8601 5:8798.5703 6:3.3176501 7:108.274 8:12076.3 9:9 10:85 11:27 12:311 13:7488.6899 14:2630.49 15:151.27 16:165.185 17:0.41666701 18:21.2143 19:0.268657 20:0.69539899 21:0.243319 22:0.85112602 23:4.5908799 24:2.71277 # Flowers/Shape2/shape2-006.ppm
2.833538446046554052308180599465e-12 1:192115 2:261542 3:206720 4:1617.8199 5:7496.2798 6:2.6486499 7:125.348 8:16286 9:6 10:111 11:58 12:396 13:8076.6401 14:1730.76 15:139.10899 16:171.569 17:0.56338 18:7.0816302 19:0.168421 20:0.92934698 21:0.21581601 22:1.07742 23:9.4097404 24:2.26531 # Flowers/Shape3/shape3-031.ppm
2.833538446046554052308180599465e-12 1:267170 2:370040 3:293970 4:1972.73 5:10925.7 6:3.2181799 7:115.665 8:706.85797 9:2 10:110 11:62 12:383 13:8374.8301 14:2428.8201 15:139.23801 16:171.839 17:0.32530099 18:9.9428596 19:0.25 20:0.90883303 21:0.18055899 22:0.76652902 23:0.29102999 24:0.62146902 # Flowers/Shape3/shape3-018.ppm
-2.833538446046554052308180599465e-12 1:118897 2:312759 3:235951 4:1825.34 5:5073.8301 6:3.2444401 7:117.406 8:26015.5 9:18 10:45 11:12 12:221 13:5341.0801 14:2642.1499 15:162.28999 16:143.75 17:0.36363599 18:35.833302 19:0.32352901 20:0.503905 21:0.35975501 22:1.05267 23:9.8463497 24:5.5479498 # Flowers/Shape4/shape4-005.ppm
-2.833538446046554052308180599465e-12 1:285665 2:529230 3:437022 4:2454.52 5:12144.2 6:3.5 7:107.371 8:34636.102 9:13 10:96 11:25 12:382 13:8794.0596 14:2975.6799 15:151.05499 16:164.8 17:0.297297 18:16.3636 19:0.21518999 20:0.65366298 21:0.202114 22:0.72413403 23:11.6397 24:3.7142899 # Flowers/Shape2/shape2-024.ppm
2.833538446046554052308180599465e-12 1:266818 2:368126 3:294076 4:1972.61 5:11170.7 6:3.2241399 7:117.529 8:452.38901 9:1 10:116 11:59 12:382 13:8427.1797 14:2300.1599 15:148.49699 16:173.373 17:0.380952 18:19.105301 19:0.221053 20:0.90731198 21:0.176587 22:0.75439799 23:0.196678 24:0.31016001 # Flowers/Shape3/shape3-059.ppm
-2.833538446046554052308180599465e-12 1:78093.398 2:269240 3:187052 4:1721.53 5:2798.6399 6:3.0344801 7:120.661 8:16741.5 9:9 10:29 11:8 12:172 13:4171.9199 14:2692.8799 15:159.75 16:134.875 17:0.44999999 18:33.400002 19:0.44999999 20:0.41749701 21:0.61513197 22:1.4907 23:6.21698 24:2.96591 # Flowers/Shape4/shape4-000.ppm
2.833538446046554052308180599465e-12 1:359409 2:487976 3:370067 4:2166.8201 5:14299.5 6:3.72 7:117.893 8:27171.6 9:10 10:100 11:86 12:324 13:7543.2202 14:3594.0901 15:154.593 16:174.314 17:0.42857099 18:20.6 19:0.25 20:0.971201 21:0.151531 22:0.52751702 23:7.5600801 24:2.68817 # Flowers/Shape3/shape3-093.ppm
-2.833538446046554052308180599465e-12 1:296556 2:592137 3:419961 4:2401.6001 5:12134.2 6:3.3675201 7:104.238 8:5541.77 9:5 10:117 11:33 12:401 13:9396.7305 14:2534.6699 15:151.257 16:164.18201 17:0.5 18:15.04 19:0.32954499 20:0.70615202 21:0.19791999 22:0.7744 23:2.1863899 24:1.4847701 # Flowers/Shape2/shape2-002.ppm
2.833538446046554052308180599465e-12 1:280752 2:376250 3:293787 4:1926 5:10719 6:3.06569 7:117.922 8:1809.5601 9:3 10:137 11:82 12:426 13:10318.5 14:2049.29 15:161.735 16:175.524 17:0.37 18:37.727299 19:0.53932601 20:0.95563298 21:0.179682 22:0.962641 23:0.883017 24:0.978571 # Flowers/Shape3/shape3-060.ppm
-2.833538446046554052308180599465e-12 1:79926.398 2:262636 3:205508 4:1722.37 5:3901.4099 6:3.2272699 7:115.735 8:21642.4 9:17 10:44 11:9 12:215 13:5072.9902 14:1816.51 15:152.995 16:132.66701 17:0.466667 18:15.5385 19:0.33333299 20:0.38892201 21:0.441475 22:1.3003 23:11.9143 24:5.2676101 # Flowers/Shape4/shape4-008.ppm
2.833538446046554052308180599465e-12 1:303762 2:420552 3:316160 4:2001.25 5:12161.5 6:3.30233 7:119.758 8:3848.45 9:6 10:129 11:75 12:389 13:9506.0195 14:2354.74 15:160.339 16:174.2 17:0.482759 18:31.4167 19:0.44943801 20:0.96078402 21:0.164556 22:0.78164703 23:1.63434 24:1.8169 # Flowers/Shape3/shape3-084.ppm
-2.833538446046554052308180599465e-12 1:169568 2:404271 3:289302 4:2043.59 5:6999.6401 6:3.67857 7:101.587 8:9160.8799 9:5 10:56 11:20 12:238 13:5537.7998 14:3028 15:146.32401 16:159.55 17:0.555556 18:13 19:0.217391 20:0.58612698 21:0.29195601 22:0.79115599 23:3.0253899 24:1.35922 # Flowers/Shape5/shape5-021.ppm
2.833538446046554052308180599465e-12 1:239842 2:340695 3:248864 4:1784.92 5:9455.8203 6:3.40909 7:113.783 8:2827.4299 9:4 10:88 11:65 12:277 13:6861.1099 14:2725.48 15:159.26401 16:174.369 17:0.517241 18:20.307699 19:0.35384601 20:0.96374601 21:0.188765 22:0.72559601 23:1.03741 24:1.1733299 # Flowers/Shape3/shape3-089.ppm
-2.833538446046554052308180599465e-12 1:116256 2:356153 3:197618 4:1891.15 5:4762.7598 6:3.3333299 7:108.884 8:10935.9 9:7 10:48 11:27 12:223 13:4939.98 14:2422 15:145.40401 16:166.222 17:0.33333299 18:13.8667 19:0.297297 20:0.58828503 21:0.39706999 22:1.03721 23:4.5152302 24:2.0999999 # Flowers/Shape5/shape5-019.ppm
2.833538446046554052308180599465e-12 1:268305 2:368126 3:293690 4:1971.62 5:10803.5 6:3.1965799 7:112.677 8:452.38901 9:2 10:117 11:55 12:386 13:8375.9004 14:2293.21 15:146.49699 16:171.30901 17:0.32954499 18:12.3103 19:0.23157901 20:0.91356802 21:0.18249901 22:0.77529597 23:0.197274 24:0.62566799 # Flowers/Shape3/shape3-039.ppm
-2.833538446046554052308180599465e-12 1:264712 2:535896 3:408356 4:2404.3601 5:10742.4 6:3.9166701 7:106.329 8:48305.102 9:15 10:72 11:30 12:257 13:6699.98 14:3676.55 15:150.38499 16:165.533 17:0.53191501 18:31.125 19:0.2 20:0.648238 21:0.223819 22:0.62369502 23:13.1387 24:3.8297901 # Flowers/Shape1/shape1-008.ppm
2.833538446046554052308180599465e-12 1:239947 2:325260 3:249434 4:1777.36 5:9228.9102 6:3.1800001 7:121.187 8:3019.0701 9:4 10:100 11:71 12:309 13:7751 14:2399.47 15:160.89 16:172.563 17:0.40845099 18:50.5 19:0.369863 20:0.96196198 21:0.192587 22:0.83986098 23:1.25823 24:1.2578599 # Flowers/Shape3/shape3-088.ppm
-2.833538446046554052308180599465e-12 1:169525 2:405573 3:290725 4:2046.8 5:7595.7798 6:3.5185201 7:111.044 8:26590.4 9:14 10:54 11:22 12:239 13:5624.5098 14:3139.3401 15:146.59399 16:157.091 17:0.285714 18:13.9375 19:0.148936 20:0.58310997 21:0.26946601 22:0.74047798 23:8.4700603 24:3.97895 # Flowers/Shape5/shape5-000.ppm
2.833538446046554052308180599465e-12 1:305073 2:421200 3:317874 4:2006.22 5:12337.3 6:3.2781999 7:115.208 8:3631.6799 9:4 10:133 11:73 12:396 13:9530.46 14:2293.78 15:157.31599 16:173.63 17:0.47777799 18:38.599998 19:0.40000001 20:0.959732 21:0.162614 22:0.77249098 23:1.58327 24:1.22018 # Flowers/Shape3/shape3-064.ppm
-2.833538446046554052308180599465e-12 1:168412 2:406134 3:289378 4:2043.48 5:7508.2798 6:3.6226399 7:108.489 8:24884.6 9:13 10:53 11:22 12:194 13:5532.4902 14:3177.5901 15:153.144 16:156.5 17:0.35897401 18:16.6364 19:0.17777801 20:0.58197898 21:0.272163 22:0.73685199 23:7.8312702 24:3.5885401 # Flowers/Shape5/shape5-020.ppm
2.833538446046554052308180599465e-12 1:241631 2:341260 3:248844 4:1784.87 5:9850.0898 6:3.4105301 7:112.895 8:2463.01 9:4 10:95 11:70 12:278 13:6907.0498 14:2543.48 15:158.21201 16:173.914 17:0.50793701 18:22.1667 19:0.33802801 20:0.97101301 21:0.18120299 22:0.701217 23:0.96836102 24:1.17284 # Flowers/Shape3/shape3-069.ppm
-2.833538446046554052308180599465e-12 1:160245 2:386100 3:310072 4:2063.8501 5:5845.4199 6:3.4074099 7:102.623 8:11309.7 9:9 10:54 11:26 12:336 13:7713.71 14:2967.5 15:148.51801 16:164.577 17:0.45945901 18:12.44 19:0.384615 20:0.51679802 21:0.35307199 22:1.31962 23:3.8112099 24:2.6413 # Flowers/Shape1/shape1-016.ppm
2.833538446046554052308180599465e-12 1:265785 2:368433 3:277180 4:1893.48 5:9883.6797 6:3.3195901 7:113.524 8:6939.7798 9:6 10:97 11:78 12:296 13:7524.7998 14:2740.05 15:163.24699 16:173.897 17:0.447761 18:48.333302 19:0.36619699 20:0.95889097 21:0.191576 22:0.76133698 23:2.5327201 24:1.8074501 # Flowers/Shape3/shape3-065.ppm
-2.833538446046554052308180599465e-12 1:159381 2:412794 3:278041 4:2002.1899 5:7238.25 6:3.5999999 7:107.263 8:13273.2 9:8 10:60 11:24 12:245 13:5858.3901 14:2656.3501 15:154.151 16:162.375 17:0.42857099 18:16.5 19:0.17647099 20:0.57322901 21:0.27661201 22:0.80936497 23:4.9967899 24:2.2222199 # Flowers/Shape5/shape5-006.ppm
2.833538446046554052308180599465e-12 1:227235 2:308000 3:234588 4:1728.9 5:8451.0996 6:3.53125 7:116.105 8:38013.301 9:15 10:64 11:71 12:207 13:5045.8999 14:3550.55 15:156.821 16:172.64799 17:0.33333299 18:28.5714 19:0.20754699 20:0.968656 21:0.204577 22:0.59707099 23:10.7063 24:4.2477899 # Flowers/Shape3/shape3-087.ppm
2.833538446046554052308180599465e-12 1:227725 2:303408 3:235506 4:1732.55 5:9997.6797 6:3.8550701 7:114.442 8:35968.102 9:16 10:69 11:76 12:209 13:5038.1401 14:3300.3601 15:159.12399 16:174.237 17:0.5 18:18 19:0.16949201 20:0.96695799 21:0.17329501 22:0.50393099 23:10.8982 24:4.1503801 # Flowers/Shape3/shape3-047.ppm
-2.833538446046554052308180599465e-12 1:253081 2:533065 3:395560 4:2365.5601 5:10805.1 6:3.5 7:104.886 8:23235.199 9:13 10:84 11:23 12:242 13:7333.6299 14:3012.8701 15:158.08701 16:160.13 17:0.44827601 18:29.25 19:0.2 20:0.63980502 21:0.218931 22:0.67872202 23:7.7119799 24:3.7142899 # Flowers/Shape5/shape5-007.ppm
2.833538446046554052308180599465e-12 1:210266 2:291040 3:217126 4:1665.6801 5:8054.5498 6:3.4769199 7:110.571 8:13684.8 9:6 10:65 11:70 12:214 13:5413.4302 14:3234.8601 15:157.855 16:173.7 17:0.444444 18:22.7778 19:0.32653099 20:0.96840698 21:0.2068 22:0.672095 23:4.2304101 24:1.72566 # Flowers/Shape3/shape3-090.ppm
-2.833538446046554052308180599465e-12 1:63147.5 2:307848 3:162258 4:1619.22 5:2530.73 6:3.0666699 7:119.016 8:9160.8799 9:8 10:30 11:9 12:164 13:3887.6599 14:2104.9199 15:151.76801 16:132.778 17:0.5 18:10.7143 19:0.42857099 20:0.38917899 21:0.63982099 22:1.53618 23:4.3521399 24:2.6087 # Flowers/Shape4/shape4-022.ppm
2.833538446046554052308180599465e-12 1:280681 2:383161 3:293568 4:1924.85 5:11094.1 6:3.1079099 7:117.116 8:1661.9 9:2 10:139 11:78 12:418 13:10342.3 14:2019.29 15:160.297 16:173.744 17:0.49462399 18:28.8571 19:0.57954502 20:0.95609999 21:0.173502 22:0.93223202 23:0.82301497 24:0.64351898 # Flowers/Shape3/shape3-080.ppm
-2.833538446046554052308180599465e-12 1:228188 2:518752 3:342758 4:2373.9099 5:9469.7598 6:3.4814799 7:109.368 8:28352.9 9:14 10:81 11:30 12:317 13:7459.4302 14:2817.1399 15:155.38499 16:165.60001 17:0.42105299 18:20.133301 19:0.208955 20:0.66574198 21:0.25068301 22:0.78771102 23:10.0644 24:4.0212798 # Flowers/Shape5/shape5-016.ppm
2.833538446046554052308180599465e-12 1:211264 2:292656 3:218822 4:1671.85 5:8148.4102 6:3.61905 7:114.788 8:11309.7 9:5 10:63 11:68 12:219 13:5415.3501 14:3353.3999 15:156.01801 16:174.147 17:0.43181801 18:14.6429 19:0.235294 20:0.96546203 21:0.205175 22:0.66459 23:3.3726201 24:1.38158 # Flowers/Shape3/shape3-070.ppm
-2.833538446046554052308180599465e-12 1:88160.102 2:332304 3:214536 4:1910.3101 5:3653.0701 6:3.1428599 7:117.747 8:26015.5 9:14 10:35 11:15 12:198 13:4761.1899 14:2518.8601 15:155.72701 16:151.33299 17:0.40000001 18:23.75 19:0.346154 20:0.41093299 21:0.52293402 22:1.30334 23:10.3283 24:4.4545498 # Flowers/Shape4/shape4-016.ppm
2.833538446046554052308180599465e-12 1:249858 2:345344 3:261194 4:1827.33 5:10247.3 6:3.3333299 7:119.349 8:1963.5 9:4 10:102 11:63 12:371 13:7620.04 14:2449.5801 15:138.03 16:171.571 17:0.45714301 18:9.6000004 19:0.29113901 20:0.95660001 21:0.178324 22:0.743617 23:0.80156302 24:1.2 # Flowers/Shape3/shape3-094.ppm
-2.833538446046554052308180599465e-12 1:237463 2:539968 3:350296 4:2317.3899 5:10303.7 6:3.8209 7:112.175 8:23235.199 9:11 10:67 11:42 12:292 13:6352.27 14:3544.22 15:144.46899 16:167.76199 17:0.48888901 18:10.68 19:0.196429 20:0.67789102 21:0.22490799 22:0.61650199 23:6.5558 24:2.8789101 # Flowers/Shape5/shape5-012.ppm
2.833538446046554052308180599465e-12 1:227319 2:308000 3:234326 4:1728.1899 5:9826.3096 6:3.7941201 7:118.942 8:32685.1 9:15 10:68 11:74 12:205 13:5044.2798 14:3342.9199 15:160.254 16:174.257 17:0.51111102 18:24.625 19:0.192982 20:0.97009498 21:0.17587399 22:0.51334399 23:9.77742 24:3.95349 # Flowers/Shape3/shape3-067.ppm
-2.833538446046554052308180599465e-12 1:92796.203 2:329904 3:236374 4:1823.77 5:3711.02 6:2.9302299 7:119.036 8:24328.5 9:14 10:43 11:9 12:235 13:5622.1099 14:2158.05 15:151.07201 16:128.33299 17:0.65384603 18:10.75 19:0.387097 20:0.392582 21:0.49144599 22:1.51498 23:11.2734 24:4.7777801 # Flowers/Shape4/shape4-010.ppm
2.833538446046554052308180599465e-12 1:270242 2:370260 3:278766 4:1898.17 5:11073.1 6:3.39048 7:116.315 8:9852.0303 9:9 10:105 11:76 12:294 13:7497.98 14:2573.74 15:162.929 16:174.31599 17:0.40000001 18:48 19:0.296296 20:0.96942198 21:0.17142101 22:0.67713201 23:3.8279099 24:2.65449 # Flowers/Shape3/shape3-085.ppm
-2.833538446046554052308180599465e-12 1:240959 2:527175 3:389360 4:2302.3401 5:10994.6 6:3.68293 7:105.914 8:16741.5 9:12 10:82 11:22 12:337 13:7958.6499 14:2938.53 15:153.72099 16:157.409 17:0.38983101 18:29.6364 19:0.17142899 20:0.61886102 21:0.209406 22:0.72386801 23:5.6972499 24:3.25828 # Flowers/Shape5/shape5-008.ppm
2.833538446046554052308180599465e-12 1:272495 2:369600 3:284558 4:1900.05 5:10593.4 6:3.42222 7:114.408 8:1385.4399 9:2 10:90 11:76 12:313 13:7254.23 14:3027.73 15:153.399 16:174.132 17:0.40625 18:25.0833 19:0.25 20:0.95761102 21:0.179361 22:0.68478501 23:0.45758501 24:0.58441597 # Flowers/Shape3/shape3-097.ppm
-2.833538446046554052308180599465e-12 1:86617.102 2:340158 3:231469 4:1887.12 5:3478.9099 6:2.9523799 7:121.232 8:14102.6 9:11 10:42 11:10 12:233 13:5460.2798 14:2062.3101 15:158.584 16:134.7 17:0.555556 18:24.888901 19:0.3125 20:0.37420601 21:0.54244602 22:1.56954 23:6.8382502 24:3.7258101 # Flowers/Shape4/shape4-018.ppm
-2.833538446046554052308180599465e-12 1:274312 2:563220 3:439215 4:2488.71 5:11296.1 6:3.63415 7:106.56 8:27759.1 9:15 10:82 11:23 12:338 13:8116.0298 14:3345.26 15:145.63 16:160.13 17:0.366667 18:13.6957 19:0.18840601 20:0.62454998 21:0.22031599 22:0.71848297 23:8.2980404 24:4.1275201 # Flowers/Shape5/shape5-009.ppm
2.833538446046554052308180599465e-12 1:228915 2:303408 3:236216 4:1734.4301 5:8775.1396 6:3.59322 7:113.766 8:43743.5 9:13 10:59 11:84 12:203 13:5064.3398 14:3879.9099 15:158.867 16:173.85699 17:0.340909 18:12.5333 19:0.204082 20:0.96908802 21:0.197652 22:0.577124 23:11.2744 24:3.6179199 # Flowers/Shape3/shape3-006.ppm
2.833538446046554052308180599465e-12 1:251565 2:343562 3:260790 4:1825.59 5:10352 6:3.3076899 7:121.249 8:1385.4399 9:3 10:104 11:65 12:369 13:7637.1001 14:2418.8999 15:138.74001 16:174.26199 17:0.38666701 18:11.3 19:0.28395101 20:0.96463001 21:0.17635199 22:0.73774302 23:0.57275802 24:0.906977 # Flowers/Shape3/shape3-074.ppm
2.833538446046554052308180599465e-12 1:196001 2:262044 3:206761 4:1618.6899 5:7500.2598 6:2.56881 7:127 8:15836.8 9:8 10:109 11:57 12:382 13:8015.6201 14:1798.1801 15:145.23801 16:172.386 17:0.34567899 18:11.3226 19:0.172043 20:0.94796097 21:0.215817 22:1.06871 23:8.8071203 24:3.11429 # Flowers/Shape3/shape3-051.ppm
-1.8615979797062082558586571490145e-12 1:208376 2:508269 3:351212 4:2247.3899 5:8059.7002 6:3.67273 7:102.224 8:33329.199 9:12 10:55 11:23 12:241 13:5874.98 14:3788.6499 15:154.892 16:161.34801 17:0.447368 18:25.7778 19:0.19565199 20:0.59330398 21:0.27884299 22:0.72893298 23:8.7971096 24:3.2673299 # Flowers/Shape5/shape5-003.ppm
1.6667405586337490786915090730698e-13 1:459975 2:590720 3:466051 4:2488 5:19759.5 6:3.9316199 7:117.245 8:71631.5 9:21 10:117 11:95 12:312 13:7719.9502 14:3931.4099 15:160.532 16:174.43201 17:0.46250001 18:21.2857 19:0.17 20:0.98696202 21:0.12591401 22:0.39069501 23:18.220301 24:5.3413 # Flowers/Shape3/shape3-014.ppm
