SVM-light Version V6.02
0 # kernel type
3 # kernel parameter -d 
1 # kernel parameter -g 
1 # kernel parameter -s 
1 # kernel parameter -r 
empty# kernel parameter -u 
24 # highest feature index 
194 # number of training documents 
194 # number of support vectors plus 1 
-0.79595082 # threshold b, each following line is a SV (starting with alpha*y)
-6.4101468816715963548900092676582e-09 5:4957.6802 6:3.25581 7:100.742 13:4719.4902 14:2941.78 17:0.34375 18:11.8125 19:0.30303001 20:0.72900498 21:0.30944699 22:0.95195502 23:10.8939 24:4.6071401 # Flowers/Shape1/shape1-004.ppm
6.4101468816715963548900092676582e-09 5:7595.7798 6:3.5185201 7:111.044 13:5624.5098 14:3139.3401 17:0.285714 18:13.9375 19:0.148936 20:0.58310997 21:0.26946601 22:0.74047798 23:8.4700603 24:3.97895 # Flowers/Shape5/shape5-000.ppm
-6.4101468816715963548900092676582e-09 5:20191.199 6:3.5326099 7:109.303 13:13252.9 14:2695.98 17:0.41538501 18:18 19:0.251701 20:0.84005499 21:0.14175899 22:0.65636897 23:3.39798 24:1.69846 # Flowers/Shape2/shape2-012.ppm
6.4101468816715963548900092676582e-09 5:4068.6599 6:3.2432401 7:112.434 13:4832.6499 14:3117.1101 17:0.42307699 18:21.875 19:0.37037 20:0.576814 21:0.46441001 22:1.18777 23:2.6214299 24:2.15833 # Flowers/Shape5/shape5-080.ppm
-6.4101468816715963548900092676582e-09 5:1800.4301 6:2.6400001 7:116.854 13:4182.1201 14:1920.01 17:0.66666698 18:9.1578903 19:0.31578901 20:0.39015999 21:0.72292298 22:2.32284 23:8.2482796 24:3.7878799 # Flowers/Shape4/shape4-006.ppm
6.4101468816715963548900092676582e-09 5:16622.301 6:4.0425501 7:106.171 13:7897.6001 14:3898.95 17:0.253333 18:24.0769 19:0.160494 20:0.66531098 21:0.167022 22:0.47512099 23:11.797 24:4.45263 # Flowers/Shape5/shape5-039.ppm
-6.4101468816715963548900092676582e-09 5:21037 6:4.1782198 7:114.776 13:7482.0698 14:4612.3901 17:0.246914 18:28.799999 19:0.134831 20:0.85445601 21:0.135003 22:0.35566199 23:7.3670001 24:3.82938 # Flowers/Shape1/shape1-011.ppm
6.4101468816715963548900092676582e-09 5:7383.3501 6:3.64516 7:103.463 13:7628.9502 14:2883.1001 17:0.51219499 18:12.88 19:0.21568599 20:0.49302399 21:0.307704 22:1.03326 23:3.92276 24:1.6460201 # Flowers/Shape5/shape5-002.ppm
-6.4101468816715963548900092676582e-09 5:2530.73 6:3.0666699 7:119.016 13:3887.6599 14:2104.9199 17:0.5 18:10.7143 19:0.42857099 20:0.38917899 21:0.63982099 22:1.53618 23:4.3521399 24:2.6087 # Flowers/Shape4/shape4-022.ppm
6.4101468816715963548900092676582e-09 5:15784.5 6:3.9130399 7:110.146 13:7916.7202 14:3987.5901 17:0.35294101 18:21.266701 19:0.179487 20:0.66444898 21:0.176027 22:0.50155002 23:11.5348 24:4.34444 # Flowers/Shape5/shape5-099.ppm
-6.4101468816715963548900092676582e-09 5:19787 6:4.0229902 7:113.236 13:7564.2202 14:5249.0498 17:0.225352 18:80.666702 19:0.12987 20:0.66908199 21:0.164876 22:0.382283 23:33.3344 24:7.9542899 # Flowers/Shape4/shape4-012.ppm
6.4101468816715963548900092676582e-09 5:4762.7598 6:3.3333299 7:108.884 13:4939.98 14:2422 17:0.33333299 18:13.8667 19:0.297297 20:0.58828503 21:0.39706999 22:1.03721 23:4.5152302 24:2.0999999 # Flowers/Shape5/shape5-019.ppm
-6.4101468816715963548900092676582e-09 5:2757.5901 6:3 7:123.55 13:4126.3999 14:2596.4199 17:0.66666698 18:40.75 19:0.36363599 20:0.42011899 21:0.62143803 22:1.49638 23:5.1121302 24:2.6666701 # Flowers/Shape4/shape4-020.ppm
6.4101468816715963548900092676582e-09 5:15135.2 6:3.88889 7:104.912 13:7877.6299 14:4004.23 17:0.45161301 18:23.9231 19:0.16883101 20:0.65786201 21:0.182907 22:0.52048498 23:11.4869 24:4.3714299 # Flowers/Shape5/shape5-018.ppm
-6.4101468816715963548900092676582e-09 5:3650.78 6:2.7451 7:132.23599 13:6616.1401 14:1783.59 17:0.59375 18:10.7826 19:0.30769199 20:0.304176 21:0.56413901 22:1.81225 23:8.8791304 24:4.0071402 # Flowers/Shape4/shape4-004.ppm
6.4101468816715963548900092676582e-09 5:14858.6 6:3.88764 7:106.747 13:7895.2598 14:4110.75 17:0.36923099 18:28.4545 19:0.186667 20:0.66313702 21:0.18708199 22:0.53135902 23:11.1892 24:4.1156101 # Flowers/Shape5/shape5-059.ppm
-6.4101468816715963548900092676582e-09 5:20618 6:4.1414099 7:109.804 13:7893.52 14:4562.1602 17:0.2375 18:21.6667 19:0.151163 20:0.81715697 21:0.14665499 22:0.382846 23:7.1643901 24:2.8975599 # Flowers/Shape1/shape1-014.ppm
6.4101468816715963548900092676582e-09 5:4171.6699 6:3.2432401 7:97.216904 13:4763.3301 14:3027.52 17:0.32142901 18:10.6471 19:0.37037 20:0.54798901 21:0.416511 22:1.14183 23:5.9936299 24:3.7 # Flowers/Shape5/shape5-011.ppm
-6.4101468816715963548900092676582e-09 5:2798.6399 6:3.0344801 7:120.661 13:4171.9199 14:2692.8799 17:0.44999999 18:33.400002 19:0.44999999 20:0.41749701 21:0.61513197 22:1.4907 23:6.21698 24:2.96591 # Flowers/Shape4/shape4-000.ppm
3.5122241198647744223786722889136e-09 5:14968.4 6:3.90361 7:108.336 13:7853.2598 14:4328.77 17:0.383333 18:34.555599 19:0.18571401 20:0.65247899 21:0.185305 22:0.52465397 23:10.6257 24:4.3549399 # Flowers/Shape5/shape5-079.ppm
-6.4101468816715963548900092676582e-09 5:18262.5 6:3.2888899 7:109.85 13:14855.8 14:2447.79 17:0.44 18:13.7674 19:0.30434799 20:0.72898299 21:0.156552 22:0.81346101 23:2.48474 24:1.21622 # Flowers/Shape2/shape2-015.ppm
6.4101468816715963548900092676582e-09 5:4840.8101 6:3.26087 7:104.269 13:4741.1401 14:2496.78 17:0.31428599 18:13.9231 19:0.210526 20:0.56058103 21:0.358998 22:0.97941202 23:6.8902102 24:3.0666699 # Flowers/Shape5/shape5-032.ppm
-6.4101468816715963548900092676582e-09 5:3000.4199 6:3.0555601 7:121.257 13:3925.8799 14:1792.9301 17:0.384615 18:11.0714 19:0.33333299 20:0.40345901 21:0.53751701 22:1.30845 23:7.8656702 24:4.25455 # Flowers/Shape4/shape4-001.ppm
6.4101468816715963548900092676582e-09 5:13489.1 6:3.8461499 7:105.421 13:8345.9697 14:3400.6499 17:0.421875 18:22.6667 19:0.213333 20:0.63691902 21:0.193257 22:0.61872202 23:11.1782 24:3.9000001 # Flowers/Shape5/shape5-094.ppm
-6.4101468816715963548900092676582e-09 5:19759.5 6:3.9316199 7:117.245 13:7719.9502 14:3931.4099 17:0.46250001 18:21.2857 19:0.17 20:0.98696202 21:0.12591401 22:0.39069501 23:18.220301 24:5.3413 # Flowers/Shape3/shape3-014.ppm
6.4101468816715963548900092676582e-09 5:5094.8301 6:3.4166701 7:107.172 13:4808.8999 14:2379.6899 17:0.33333299 18:21.2222 19:0.26315799 20:0.55436099 21:0.341443 22:0.94387901 23:7.42594 24:2.34146 # Flowers/Shape5/shape5-052.ppm
-6.4101468816715963548900092676582e-09 5:3421.4099 6:3.1666701 7:123.628 13:3774.98 14:2084.54 17:0.33333299 18:36.75 19:0.285714 20:0.51669699 21:0.519867 22:1.10334 23:10.3824 24:4.1052599 # Flowers/Shape4/shape4-003.ppm
6.4101468816715963548900092676582e-09 5:12993.5 6:3.66292 7:104.312 13:8641.4805 14:3061.98 17:0.36923099 18:13.9583 19:0.236111 20:0.59100902 21:0.199132 22:0.66505998 23:5.31879 24:2.7300601 # Flowers/Shape5/shape5-085.ppm
-6.4101468816715963548900092676582e-09 5:4487.75 6:3.5151501 7:105.193 13:4885.8599 14:4281.5098 17:0.375 18:10.8235 19:0.222222 20:0.67606002 21:0.377783 22:1.08871 23:7.78444 24:2.84483 # Flowers/Shape1/shape1-019.ppm
6.4101468816715963548900092676582e-09 5:12219.1 6:3.5824201 7:107.983 13:8668.0195 14:2891.3999 17:0.40000001 18:59.200001 19:0.166667 20:0.55108398 21:0.210264 22:0.70938402 23:10.0135 24:3.07055 # Flowers/Shape5/shape5-071.ppm
-6.4101468816715963548900092676582e-09 5:19073.699 6:3.54795 7:109.683 13:11131.8 14:3401.1001 17:0.431373 18:59.166698 19:0.237288 20:0.81743997 21:0.150794 22:0.58362198 23:7.3166199 24:2.2548299 # Flowers/Shape2/shape2-011.ppm
6.4101468816715963548900092676582e-09 5:4882.9502 6:3.4347799 7:102.571 13:4931 14:2558.26 17:0.48387101 18:15.5385 19:0.24324299 20:0.58836502 21:0.38728601 22:1.00984 23:3.8510799 24:2.0379701 # Flowers/Shape5/shape5-040.ppm
-6.4101468816715963548900092676582e-09 5:3254.72 6:3.1428599 7:119.853 13:4536.23 14:2278.6499 17:0.296296 18:13.0714 19:0.40000001 20:0.378667 21:0.57646799 22:1.3937401 23:7.9634099 24:4.1363602 # Flowers/Shape4/shape4-002.ppm
6.4101468816715963548900092676582e-09 5:13135.4 6:3.7471299 7:108.95 13:8300.5801 14:3595.8501 17:0.42623001 18:19.2353 19:0.191781 20:0.6426 21:0.198431 22:0.63192302 23:8.7367296 24:3.4693301 # Flowers/Shape5/shape5-013.ppm
-6.4101468816715963548900092676582e-09 5:19426.5 6:3.9344299 7:117.76 13:8215.3096 14:3709.1001 17:0.48780501 18:35.375 19:0.184466 20:0.94499302 21:0.13054401 22:0.422892 23:14.3142 24:4.3208299 # Flowers/Shape3/shape3-015.ppm
6.4101468816715963548900092676582e-09 5:5200.3901 6:3.5833299 7:104.192 13:4919.4702 14:2436.28 17:0.54838699 18:12.3125 19:0.26315799 20:0.585208 21:0.36392701 22:0.94598001 23:3.9007499 24:2.2325599 # Flowers/Shape5/shape5-060.ppm
-6.4101468816715963548900092676582e-09 5:3349.52 6:3.3513501 7:121.149 13:4133.0898 14:2141.8701 17:0.68181801 18:55.333302 19:0.37037 20:0.42758301 21:0.51148802 22:1.23394 23:6.3891702 24:2.98387 # Flowers/Shape4/shape4-021.ppm
6.4101468816715963548900092676582e-09 5:13086.3 6:3.7931001 7:105.379 13:8290.9805 14:3590.48 17:0.52631599 18:34 19:0.208333 20:0.63816899 21:0.19983301 22:0.63356 23:9.28265 24:3.16364 # Flowers/Shape5/shape5-074.ppm
-6.4101468816715963548900092676582e-09 5:3803.3799 6:2.9047599 7:119.914 13:5984.7002 14:2398.04 17:0.615385 18:15.4375 19:0.354839 20:0.39844501 21:0.501266 22:1.5735199 23:9.2438297 24:4.1311498 # Flowers/Shape4/shape4-015.ppm
6.4101468816715963548900092676582e-09 5:13019.7 6:3.6631601 7:100.657 13:8289.3799 14:3352.6799 17:0.39705899 18:16.799999 19:0.1875 20:0.65198398 21:0.200541 22:0.63667703 23:12.1778 24:3.0028701 # Flowers/Shape5/shape5-034.ppm
-6.4101468816715963548900092676582e-09 5:17434.9 6:3.19786 7:109.633 13:14334.1 14:2259.3401 17:0.41666701 18:16.5429 19:0.395522 20:0.781003 21:0.155572 22:0.82215202 23:0.67299902 24:0.93812698 # Flowers/Shape2/shape2-014.ppm
6.4101468816715963548900092676582e-09 5:9195.96 6:3.63077 7:111.655 13:6834.9102 14:3712.6201 17:0.47727299 18:20.7143 19:0.203704 20:0.703978 21:0.243375 22:0.74325103 23:4.5093598 24:2.4788101 # Flowers/Shape5/shape5-014.ppm
-6.4101468816715963548900092676582e-09 5:4911.6001 6:3.54286 7:97.292099 13:4288.2598 14:3872.6299 17:0.346154 18:17.299999 19:0.25 20:0.759453 21:0.319368 22:0.873088 23:8.4400396 24:4.23387 # Flowers/Shape1/shape1-006.ppm
6.4101468816715963548900092676582e-09 5:11917.8 6:3.5824201 7:105.004 13:8845.29 14:2861.03 17:0.444444 18:18.3158 19:0.166667 20:0.539406 21:0.216535 22:0.74219197 23:9.9100304 24:5.0245399 # Flowers/Shape5/shape5-091.ppm
-6.4101468816715963548900092676582e-09 5:8453.8398 6:4.1463399 7:103.558 13:4684.9302 14:5281.6299 17:0.32258099 18:17.3333 19:0.17142899 20:0.79954797 21:0.23258799 22:0.554178 23:11.8255 24:5.54706 # Flowers/Shape1/shape1-005.ppm
6.4101468816715963548900092676582e-09 5:8875.9404 6:3.30233 7:111.734 13:7490.48 14:2486.77 17:0.34375 18:17.799999 19:0.194444 20:0.589939 21:0.25555801 22:0.84390903 23:3.9617801 24:2.4225399 # Flowers/Shape5/shape5-043.ppm
-6.4101468816715963548900092676582e-09 5:17832.1 6:3.3333299 7:110.19 13:12867.3 14:2641.51 17:0.34482801 18:18.2414 19:0.238095 20:0.69833302 21:0.16062699 22:0.72157699 23:0.93242401 24:1.2 # Flowers/Shape2/shape2-010.ppm
6.4101468816715963548900092676582e-09 5:8000.48 6:3.8387101 7:106.227 13:5534.98 14:2792.78 17:0.67567599 18:16.846201 19:0.21568599 20:0.59534502 21:0.25566301 22:0.69183099 23:3.5276799 24:1.56303 # Flowers/Shape5/shape5-041.ppm
-6.4101468816715963548900092676582e-09 5:3349.52 6:3.3513501 7:121.149 13:4133.0898 14:2141.8701 17:0.68181801 18:55.333302 19:0.37037 20:0.42758301 21:0.51148802 22:1.23394 23:6.3891702 24:2.98387 # Flowers/Shape4/shape4-019.ppm
6.4101468816715963548900092676582e-09 5:12969.6 6:3.62222 7:106.034 13:8030.9399 14:3519.72 17:0.36363599 18:29.888901 19:0.16883101 20:0.64886802 21:0.201336 22:0.61921299 23:11.1964 24:4.1410999 # Flowers/Shape5/shape5-054.ppm
-6.4101468816715963548900092676582e-09 5:7917.8999 6:3.9047599 7:105.098 13:4889.6099 14:5005.2998 17:0.555556 18:26.25 19:0.166667 20:0.77503097 21:0.243579 22:0.61753798 23:15.2746 24:5.63415 # Flowers/Shape1/shape1-007.ppm
6.4101468816715963548900092676582e-09 5:8180.5498 6:3.5211301 7:109.441 13:7272.5601 14:2513.23 17:0.39215699 18:28.1 19:0.26785699 20:0.348418 21:0.343896 22:0.88900697 23:16.2453 24:5.112 # Flowers/Shape5/shape5-098.ppm
-6.4101468816715963548900092676582e-09 5:18578.699 6:3.47191 7:106.173 13:12714.1 14:2289.0801 17:0.412698 18:14.6857 19:0.28057599 20:0.70517701 21:0.149969 22:0.68433398 23:0.79051697 24:0.28802601 # Flowers/Shape2/shape2-007.ppm
6.4101468816715963548900092676582e-09 5:7238.25 6:3.5999999 7:107.263 13:5858.3901 14:2656.3501 17:0.42857099 18:16.5 19:0.17647099 20:0.57322901 21:0.27661201 22:0.80936497 23:4.9967899 24:2.2222199 # Flowers/Shape5/shape5-006.ppm
-6.4101468816715963548900092676582e-09 5:3461.98 6:3.1666701 7:121.833 13:4480.77 14:2252.48 17:0.384615 18:16 19:0.33333299 20:0.38434201 21:0.54239202 22:1.2942801 23:9.3781204 24:4.1052599 # Flowers/Shape4/shape4-023.ppm
6.4101468816715963548900092676582e-09 5:12277.8 6:3.55814 7:104.159 13:8155.9902 14:3193.47 17:0.34375 18:10.8 19:0.16216201 20:0.623366 21:0.202914 22:0.664285 23:8.6924496 24:3.65359 # Flowers/Shape5/shape5-050.ppm
-6.4101468816715963548900092676582e-09 5:5380.3501 6:3.5122001 7:115.883 13:4010.1101 14:3645.5701 17:0.51851898 18:27.6667 19:0.366667 20:0.949027 21:0.26657999 22:0.74532503 23:3.2065899 24:1.42361 # Flowers/Shape3/shape3-020.ppm
6.4101468816715963548900092676582e-09 5:11667.3 6:3.5 7:103.87 13:8595.5898 14:2927.49 17:0.4375 18:21.866699 19:0.210526 20:0.58647901 21:0.22163101 22:0.73672497 23:5.71875 24:2 # Flowers/Shape5/shape5-045.ppm
-6.4101468816715963548900092676582e-09 5:18501.199 6:3.47826 7:113.915 13:11287.5 14:2651.8899 17:0.38793099 18:23 19:0.28799999 20:0.797629 21:0.149854 22:0.61009598 23:3.4544799 24:1.725 # Flowers/Shape2/shape2-013.ppm
6.4101468816715963548900092676582e-09 5:5837.4199 6:3.24 7:100.955 13:5901.6602 14:3119.3 17:0.35135099 18:18.230801 19:0.282051 20:0.56157303 21:0.342657 22:1.011 23:2.13113 24:1.54321 # Flowers/Shape5/shape5-027.ppm
-6.4101468816715963548900092676582e-09 5:3653.0701 6:3.1428599 7:117.747 13:4761.1899 14:2518.8601 17:0.40000001 18:23.75 19:0.346154 20:0.41093299 21:0.52293402 22:1.30334 23:10.3283 24:4.4545498 # Flowers/Shape4/shape4-016.ppm
6.4101468816715963548900092676582e-09 5:11882 6:3.5824201 7:103.115 13:8140.2002 14:3045.73 17:0.31884101 18:14.7273 19:0.166667 20:0.62893701 21:0.20969801 22:0.68509001 23:9.1141005 24:2.79141 # Flowers/Shape5/shape5-030.ppm
-6.4101468816715963548900092676582e-09 5:10095.7 6:3.73913 7:104.492 13:6454.3398 14:4122.25 17:0.68292701 18:15.9375 19:0.210526 20:0.82837999 21:0.22393499 22:0.63931799 23:4.28685 24:2.1395299 # Flowers/Shape1/shape1-013.ppm
6.4101468816715963548900092676582e-09 5:7789.6899 6:3.6774199 7:105.247 13:5919.6499 14:2602.55 17:0.31914899 18:17.4286 19:0.169811 20:0.57804698 21:0.25736201 22:0.75993299 23:5.10008 24:2.99123 # Flowers/Shape5/shape5-067.ppm
-6.4101468816715963548900092676582e-09 5:3864.46 6:3.1282101 7:118.361 13:4870.8398 14:2592.27 17:0.39285699 18:18.700001 19:0.39285699 20:0.40059301 21:0.52773702 22:1.26042 23:7.7562199 24:3.5163901 # Flowers/Shape4/shape4-017.ppm
6.4101468816715963548900092676582e-09 5:11610.4 6:3.825 7:106.496 13:7418.3101 14:3136.74 17:0.45454499 18:13.5238 19:0.17647099 20:0.62842703 21:0.204827 22:0.63893902 23:7.75598 24:4.1830101 # Flowers/Shape5/shape5-028.ppm
-6.4101468816715963548900092676582e-09 5:17878.801 6:3.3173699 7:119.062 13:11410.5 14:2728.3899 17:0.43965501 18:29.5333 19:0.274809 20:0.98016 21:0.138586 22:0.63821399 23:0.19459499 24:0.30144399 # Flowers/Shape3/shape3-017.ppm
6.4101468816715963548900092676582e-09 5:6049.4502 6:3.3461499 7:108.811 13:5899.3101 14:3023.9199 17:0.30000001 18:14.625 19:0.20930199 20:0.56478298 21:0.331173 22:0.97518098 23:3.9935801 24:2.6896601 # Flowers/Shape5/shape5-087.ppm
-6.4101468816715963548900092676582e-09 5:3478.9099 6:2.9523799 7:121.232 13:5460.2798 14:2062.3101 17:0.555556 18:24.888901 19:0.3125 20:0.37420601 21:0.54244602 22:1.56954 23:6.8382502 24:3.7258101 # Flowers/Shape4/shape4-018.ppm
6.4101468816715963548900092676582e-09 5:11702.8 6:3.54217 7:106.66 13:8111.8901 14:3301.8799 17:0.33871001 18:11.7778 19:0.16901401 20:0.624304 21:0.21259899 22:0.69315797 23:8.5868902 24:3.6700699 # Flowers/Shape5/shape5-090.ppm
-6.4101468816715963548900092676582e-09 5:16471.5 6:3.6347799 7:105.525 13:9686.1504 14:3430.75 17:0.47435901 18:47.857101 19:0.18556701 20:0.61217302 21:0.18482301 22:0.58805299 23:1.8543299 24:1.92584 # Flowers/Shape2/shape2-018.ppm
6.4101468816715963548900092676582e-09 5:6737.8398 6:3.2786901 7:107.532 13:7272.2998 14:2834.04 17:0.29787201 18:21 19:0.29787201 20:0.33867699 21:0.41643399 22:1.07932 23:14.1547 24:4.5749998 # Flowers/Shape5/shape5-078.ppm
-6.4101468816715963548900092676582e-09 5:3711.02 6:2.9302299 7:119.036 13:5622.1099 14:2158.05 17:0.65384603 18:10.75 19:0.387097 20:0.392582 21:0.49144599 22:1.51498 23:11.2734 24:4.7777801 # Flowers/Shape4/shape4-010.ppm
6.4101468816715963548900092676582e-09 5:11100.6 6:3.5529399 7:103.055 13:8763.4697 14:3059.6699 17:0.41666701 18:20.1765 19:0.180556 20:0.54371899 21:0.231621 22:0.78945798 23:9.0726004 24:3.9403999 # Flowers/Shape5/shape5-051.ppm
-6.4101468816715963548900092676582e-09 5:5454.2798 6:3.55 7:104.569 13:4685.2598 14:3722.5601 17:0.29032299 18:15.1667 19:0.25 20:0.75634599 21:0.30380601 22:0.85900801 23:5.9547901 24:3.6619699 # Flowers/Shape1/shape1-017.ppm
6.4101468816715963548900092676582e-09 5:10158.6 6:3.54545 7:105.357 13:7461.2798 14:2606.79 17:0.44262299 18:24.75 19:0.25714299 20:0.66774303 21:0.233863 22:0.73447698 23:4.0541501 24:1.97436 # Flowers/Shape5/shape5-057.ppm
-6.4101468816715963548900092676582e-09 5:15641.5 6:3.37255 7:111.766 13:12523.8 14:2583.26 17:0.48543701 18:8.1774197 19:0.342105 20:0.78322899 21:0.16752 22:0.800677 23:0.82210702 24:1.1860501 # Flowers/Shape2/shape2-008.ppm
6.4101468816715963548900092676582e-09 5:6490.2598 6:3.46154 7:103.25 13:5849.0601 14:3039.3999 17:0.30000001 18:23.700001 19:0.18181799 20:0.56601799 21:0.30867299 22:0.90120697 23:4.3670602 24:2.5999999 # Flowers/Shape5/shape5-047.ppm
-6.4101468816715963548900092676582e-09 5:5862.8599 6:3.9473701 7:100.628 13:3829.0701 14:3551.8 17:0.51999998 18:23.4286 19:0.225806 20:0.79069 21:0.26247299 22:0.65310597 23:14.7191 24:4.5599999 # Flowers/Shape1/shape1-021.ppm
6.4101468816715963548900092676582e-09 5:11355 6:3.6470599 7:100.111 13:8178.6699 14:3265.3799 17:0.51785702 18:20.625 19:0.197183 20:0.62772799 21:0.219778 22:0.72027099 23:7.6207199 24:3.5645199 # Flowers/Shape5/shape5-070.ppm
-6.4101468816715963548900092676582e-09 5:13772.8 6:3.1194 7:107.313 13:12308 14:2703.9299 17:0.32673299 18:18.9231 19:0.26415101 20:0.637519 21:0.20483699 22:0.89365101 23:0.72616303 24:0.96172202 # Flowers/Shape2/shape2-001.ppm
6.4101468816715963548900092676582e-09 5:6999.6401 6:3.67857 7:101.587 13:5537.7998 14:3028 17:0.555556 18:13 19:0.217391 20:0.58612698 21:0.29195601 22:0.79115599 23:3.0253899 24:1.35922 # Flowers/Shape5/shape5-021.ppm
-6.4101468816715963548900092676582e-09 5:3901.4099 6:3.2272699 7:115.735 13:5072.9902 14:1816.51 17:0.466667 18:15.5385 19:0.33333299 20:0.38892201 21:0.441475 22:1.3003 23:11.9143 24:5.2676101 # Flowers/Shape4/shape4-008.ppm
6.4101468816715963548900092676582e-09 5:11169 6:3.575 7:104.184 13:8587.3799 14:3349.24 17:0.355932 18:17.105301 19:0.23076899 20:0.58352298 21:0.2314 22:0.76885903 23:4.7284598 24:2.7972 # Flowers/Shape5/shape5-004.ppm
-6.4101468816715963548900092676582e-09 5:8645.5303 6:3.7083299 7:106.792 13:4271.02 14:4188.6401 17:0.41176501 18:14.5 19:0.17073201 20:0.88491201 21:0.200349 22:0.49401399 23:22.969601 24:7.2809 # Flowers/Shape1/shape1-009.ppm
6.4101468816715963548900092676582e-09 5:7474.9702 6:3.4461501 7:112.296 13:7331.8101 14:2717.03 17:0.41304299 18:31.444401 19:0.27451 20:0.343483 21:0.37662399 22:0.98084903 23:13.9907 24:4.9330401 # Flowers/Shape5/shape5-017.ppm
-6.4101468816715963548900092676582e-09 5:7409.3701 6:3.25424 7:113.714 13:7736.3599 14:3263.8601 17:0.311111 18:11.1724 19:0.28260899 20:0.356516 21:0.392378 22:1.04413 23:16.266899 24:5.53125 # Flowers/Shape4/shape4-013.ppm
6.4101468816715963548900092676582e-09 5:9940.3096 6:3.4186001 7:107.736 13:7449.3999 14:2650.1101 17:0.34375 18:21.7143 19:0.228571 20:0.66539502 21:0.238804 22:0.74941403 23:5.3215199 24:3.21769 # Flowers/Shape5/shape5-037.ppm
-6.4101468816715963548900092676582e-09 5:16223.9 6:3.8407099 7:118.629 13:7513.5298 14:3200.3601 17:0.50666702 18:21 19:0.22826099 20:0.97983801 21:0.133379 22:0.46311399 23:11.4498 24:4.947 # Flowers/Shape3/shape3-012.ppm
6.4101468816715963548900092676582e-09 5:6756.8501 6:3.32075 7:109.951 13:5560.1499 14:3162.48 17:0.20454501 18:15.7857 19:0.152174 20:0.57606298 21:0.30366299 22:0.822891 23:8.0465002 24:3.9147699 # Flowers/Shape5/shape5-081.ppm
-6.4101468816715963548900092676582e-09 5:3655.3701 6:2.86957 7:117.5 13:5827.8701 14:2017.95 17:0.58620697 18:18.6154 19:0.4375 20:0.37864101 21:0.50822002 22:1.59433 23:7.84795 24:4.1818199 # Flowers/Shape4/shape4-007.ppm
6.4101468816715963548900092676582e-09 5:11296.1 6:3.63415 7:106.56 13:8116.0298 14:3345.26 17:0.366667 18:13.6957 19:0.18840601 20:0.62454998 21:0.22031599 22:0.71848297 23:8.2980404 24:4.1275201 # Flowers/Shape5/shape5-009.ppm
-6.4101468816715963548900092676582e-09 5:14940.4 6:3.36765 7:107.637 13:12181.9 14:2671 17:0.402062 18:25.947399 19:0.23636401 20:0.64065498 21:0.188421 22:0.815368 23:0.56927299 24:1.18777 # Flowers/Shape2/shape2-022.ppm
6.4101468816715963548900092676582e-09 5:9329.0098 6:3.5211301 7:107.983 13:6415.7202 14:2834.0901 17:0.31481501 18:16.5333 19:0.16393401 20:0.57290202 21:0.236011 22:0.68771702 23:15.1743 24:4.8280001 # Flowers/Shape5/shape5-026.ppm
-6.4101468816715963548900092676582e-09 5:6066.2998 6:3.6666701 7:107.402 13:3801.27 14:3469.5 17:0.40000001 18:31.200001 19:0.235294 20:0.84977502 21:0.25397199 22:0.62661999 23:15.5391 24:4.90909 # Flowers/Shape1/shape1-000.ppm
6.4101468816715963548900092676582e-09 5:11064.5 6:3.4877999 7:101.848 13:8483.3701 14:3258.4099 17:0.344262 18:17.888901 19:0.242424 20:0.58273298 21:0.23333099 22:0.76671702 23:5.1379499 24:2.29371 # Flowers/Shape5/shape5-025.ppm
-6.4101468816715963548900092676582e-09 5:8775.1396 6:3.59322 7:113.766 13:5064.3398 14:3879.9099 17:0.340909 18:12.5333 19:0.204082 20:0.96908802 21:0.197652 22:0.577124 23:11.2744 24:3.6179199 # Flowers/Shape3/shape3-006.ppm
6.4101468816715963548900092676582e-09 5:10643.5 6:3.46067 7:103.352 13:7948.9399 14:2732.02 17:0.390625 18:21.4 19:0.155844 20:0.62697202 21:0.215795 22:0.74683601 23:6.4682698 24:2.6006501 # Flowers/Shape5/shape5-029.ppm
-6.4101468816715963548900092676582e-09 5:15258.4 6:3.2349 7:107.231 13:12451.2 14:2501.79 17:0.41904801 18:15 19:0.366972 20:0.73566699 21:0.17029899 22:0.816019 23:0.32146901 24:0.92738599 # Flowers/Shape2/shape2-009.ppm
6.4101468816715963548900092676582e-09 5:7508.2798 6:3.6226399 7:108.489 13:5532.4902 14:3177.5901 17:0.35897401 18:16.6364 19:0.17777801 20:0.58197898 21:0.272163 22:0.73685199 23:7.8312702 24:3.5885401 # Flowers/Shape5/shape5-020.ppm
-6.4101468816715963548900092676582e-09 5:6091.2002 6:3.5652201 7:109.703 13:4006.47 14:3277.47 17:0.39393899 18:32.599998 19:0.31428599 20:0.95740998 21:0.23543701 22:0.65774697 23:3.22453 24:1.12195 # Flowers/Shape3/shape3-021.ppm
6.4101468816715963548900092676582e-09 5:11190.8 6:3.6623399 7:103.361 13:8601.1699 14:3506.04 17:0.425926 18:21.5 19:0.241935 20:0.58803201 21:0.23109899 22:0.76859403 23:4.9067798 24:3.0035501 # Flowers/Shape5/shape5-065.ppm
-6.4101468816715963548900092676582e-09 5:5845.4199 6:3.4074099 7:102.623 13:7713.71 14:2967.5 17:0.45945901 18:12.44 19:0.384615 20:0.51679802 21:0.35307199 22:1.31962 23:3.8112099 24:2.6413 # Flowers/Shape1/shape1-016.ppm
6.4101468816715963548900092676582e-09 5:11121.8 6:3.58025 7:111.507 13:6809.1699 14:2995.4199 17:0.372881 18:14.9474 19:0.191176 20:0.70900398 21:0.20115601 22:0.612234 23:2.7279301 24:2.2344799 # Flowers/Shape5/shape5-035.ppm
-6.4101468816715963548900092676582e-09 5:16309.1 6:3.7164199 7:107.091 13:9115.21 14:2767.3601 17:0.48888901 18:16.440001 19:0.27619001 20:0.895311 21:0.144052 22:0.55890203 23:2.09904 24:1.61446 # Flowers/Shape3/shape3-011.ppm
6.4101468816715963548900092676582e-09 5:7305.3901 6:3.38462 7:109.916 13:7345.7202 14:2755.4299 17:0.32653099 18:21.4615 19:0.25 20:0.34773999 21:0.385337 22:1.00552 23:14.8173 24:4.4318199 # Flowers/Shape5/shape5-038.ppm
-6.4101468816715963548900092676582e-09 5:5073.8301 6:3.2444401 7:117.406 13:5341.0801 14:2642.1499 17:0.36363599 18:35.833302 19:0.32352901 20:0.503905 21:0.35975501 22:1.05267 23:9.8463497 24:5.5479498 # Flowers/Shape4/shape4-005.ppm
6.4101468816715963548900092676582e-09 5:10994.6 6:3.68293 7:105.914 13:7958.6499 14:2938.53 17:0.38983101 18:29.6364 19:0.17142899 20:0.61886102 21:0.209406 22:0.72386801 23:5.6972499 24:3.25828 # Flowers/Shape5/shape5-008.ppm
-6.4101468816715963548900092676582e-09 5:12900.8 6:4.05479 7:110.466 13:6011.6499 14:3970.1201 17:0.25862101 18:16.4286 19:0.17741901 20:0.83196098 21:0.17634501 22:0.46599001 23:14.6361 24:4.4391899 # Flowers/Shape1/shape1-012.ppm
6.4101468816715963548900092676582e-09 5:8012.7998 6:3.5522399 7:112.421 13:7336.2402 14:2676.28 17:0.45652199 18:23.75 19:0.240741 20:0.34926999 21:0.350703 22:0.91556501 23:14.725 24:5.3487401 # Flowers/Shape5/shape5-058.ppm
-6.4101468816715963548900092676582e-09 5:4062.0701 6:2.3896101 7:125.092 13:6386.0698 14:1521.95 17:0.45282999 18:14.8333 19:0.50980401 20:0.92794001 21:0.31280801 22:1.57212 23:0.464443 24:0.83695698 # Flowers/Shape3/shape3-001.ppm
6.4101468816715963548900092676582e-09 5:11445.8 6:3.91892 7:108.602 13:6290.2598 14:3231.1201 17:0.42307699 18:13.3 19:0.174603 20:0.683792 21:0.20248801 22:0.549568 23:7.3592901 24:2.8069 # Flowers/Shape5/shape5-093.ppm
-6.4101468816715963548900092676582e-09 5:15803.3 6:3.5539601 7:106.459 13:10955.8 14:2445.9199 17:0.37623799 18:15.4643 19:0.31132099 20:0.65337002 21:0.168052 22:0.69326001 23:2.48664 24:1.40688 # Flowers/Shape2/shape2-016.ppm
6.4101468816715963548900092676582e-09 5:8846.1602 6:3.5941999 7:103.648 13:6375.3799 14:2893.95 17:0.38 18:14.0556 19:0.18965501 20:0.56958199 21:0.24854299 22:0.72069502 23:11.7416 24:4.1733899 # Flowers/Shape5/shape5-086.ppm
-6.4101468816715963548900092676582e-09 5:6747.5698 6:3.86957 7:102.386 13:3790.6499 14:3182.28 17:0.48387101 18:31.200001 19:0.179487 20:0.85185701 21:0.228357 22:0.56177998 23:16.941601 24:5.16854 # Flowers/Shape1/shape1-020.ppm
6.4101468816715963548900092676582e-09 5:10564.1 6:3.3494 7:106.944 13:8843.3496 14:3158.4299 17:0.296875 18:28.9167 19:0.18571401 20:0.54305899 21:0.244323 22:0.83711702 23:9.3588495 24:3.5827301 # Flowers/Shape5/shape5-010.ppm
-6.4101468816715963548900092676582e-09 5:12523.8 6:3.3599999 7:110.958 13:9404.6396 14:3104.01 17:0.35135099 18:25.133301 19:0.17647099 20:0.606695 21:0.217445 22:0.75093901 23:1.38557 24:1.19048 # Flowers/Shape2/shape2-021.ppm
6.4101468816715963548900092676582e-09 5:9365.6602 6:3.7910399 7:108.348 13:5833.8501 14:3104.25 17:0.48888901 18:47.200001 19:0.196429 20:0.59398198 21:0.239733 22:0.62289798 23:7.6600599 24:3.16535 # Flowers/Shape5/shape5-024.ppm
-6.4101468816715963548900092676582e-09 5:5015.1299 6:3.34694 7:106.183 13:5973.6099 14:2636.54 17:0.40000001 18:16.5 19:0.441176 20:0.56524497 21:0.35819301 22:1.19112 23:7.6259599 24:2.9877999 # Flowers/Shape1/shape1-024.ppm
6.4101468816715963548900092676582e-09 5:10485.8 6:3.3793099 7:104.647 13:8089.1499 14:2829.1001 17:0.380952 18:18.388901 19:0.16 20:0.63287997 21:0.219374 22:0.771438 23:6.2463298 24:2.9591801 # Flowers/Shape5/shape5-089.ppm
-6.4101468816715963548900092676582e-09 5:14289.6 6:3.57377 7:107.889 13:9476.04 14:2630.8401 17:0.45238101 18:17.0455 19:0.22 20:0.62487102 21:0.19089501 22:0.66314 23:0.746337 24:1.11927 # Flowers/Shape2/shape2-020.ppm
6.4101468816715963548900092676582e-09 5:8615.9297 6:3.3513501 7:108.354 13:7557.1899 14:2888.73 17:0.27586201 18:14.8 19:0.23333301 20:0.585118 21:0.26455599 22:0.87711698 23:4.04671 24:3.2822599 # Flowers/Shape5/shape5-083.ppm
-6.4101468816715963548900092676582e-09 5:5121.3999 6:3.28 7:108.623 13:5926.79 14:2628.3 17:0.38888901 18:29.125 19:0.42857099 20:0.575993 21:0.34990999 22:1.1572599 23:4.16081 24:3.04878 # Flowers/Shape1/shape1-003.ppm
6.4101468816715963548900092676582e-09 5:11150.8 6:3.7249999 7:103.266 13:7425.1099 14:3114.8701 17:0.53846198 18:15.05 19:0.15942 20:0.62297702 21:0.213111 22:0.665883 23:7.9889498 24:3.4899299 # Flowers/Shape5/shape5-068.ppm
-6.4101468816715963548900092676582e-09 5:14127 6:3.6134501 7:104.643 13:9228.1797 14:2543 17:0.48750001 18:15.7917 19:0.265957 20:0.70170999 21:0.175043 22:0.65323001 23:1.87902 24:1.10698 # Flowers/Shape2/shape2-004.ppm
6.4101468816715963548900092676582e-09 5:8964.5996 6:3.4473701 7:103.882 13:7393.0498 14:2807.75 17:0.46153799 18:26.111099 19:0.26666701 20:0.58838397 21:0.253681 22:0.82469398 23:4.87393 24:2.6106901 # Flowers/Shape5/shape5-023.ppm
-6.4101468816715963548900092676582e-09 5:7642.9502 6:3.7735801 7:102.279 13:5695.04 14:3723.7 17:0.472222 18:17.0769 19:0.20454501 20:0.72334898 21:0.25466701 22:0.74513602 23:7.1408701 24:3.9749999 # Flowers/Shape1/shape1-002.ppm
6.4101468816715963548900092676582e-09 5:10805.1 6:3.5 7:104.886 13:7333.6299 14:3012.8701 17:0.44827601 18:29.25 19:0.2 20:0.63980502 21:0.218931 22:0.67872202 23:7.7119799 24:3.7142899 # Flowers/Shape5/shape5-007.ppm
-6.4101468816715963548900092676582e-09 5:10742.4 6:3.9166701 7:106.329 13:6699.98 14:3676.55 17:0.53191501 18:31.125 19:0.2 20:0.648238 21:0.223819 22:0.62369502 23:13.1387 24:3.8297901 # Flowers/Shape1/shape1-008.ppm
6.4101468816715963548900092676582e-09 5:9843.5996 6:3.5 7:102.465 13:7314.8101 14:2709.1499 17:0.29032299 18:26.727301 19:0.17647099 20:0.51620299 21:0.25075901 22:0.74310303 23:5.2055402 24:2.8571401 # Flowers/Shape5/shape5-096.ppm
-6.4101468816715963548900092676582e-09 5:8642.5898 6:3.63077 7:108.994 13:6227.6899 14:3675.5701 17:0.444444 18:17.9231 19:0.160714 20:0.82716101 21:0.234568 22:0.720581 23:14.6679 24:1.65254 # Flowers/Shape1/shape1-015.ppm
6.4101468816715963548900092676582e-09 5:9469.7598 6:3.4814799 7:109.368 13:7459.4302 14:2817.1399 17:0.42105299 18:20.133301 19:0.208955 20:0.66574198 21:0.25068301 22:0.78771102 23:10.0644 24:4.0212798 # Flowers/Shape5/shape5-016.ppm
-6.4101468816715963548900092676582e-09 5:13701.7 6:3.4761901 7:102.949 13:10798.9 14:2409.75 17:0.44827601 18:16.6154 19:0.25999999 20:0.56410301 21:0.204092 22:0.78814101 23:4.0884099 24:2.3013699 # Flowers/Shape2/shape2-017.ppm
6.4101468816715963548900092676582e-09 5:9457.9404 6:3.90909 7:104.396 13:5850.7798 14:3142.05 17:0.466667 18:22.299999 19:0.137931 20:0.59253401 21:0.237315 22:0.61861002 23:5.4752102 24:2.8139501 # Flowers/Shape5/shape5-084.ppm
-6.4101468816715963548900092676582e-09 5:6654.96 6:3.7358501 7:111.414 13:4001.4299 14:2887.21 17:0.432432 18:20.5 19:0.26190501 20:0.97117001 21:0.21546701 22:0.60127002 23:4.3186998 24:2.1414101 # Flowers/Shape3/shape3-000.ppm
6.4101468816715963548900092676582e-09 5:10020.5 6:3.48718 7:103.572 13:8766.3896 14:3282.22 17:0.36842099 18:22.733299 19:0.164179 20:0.53373301 21:0.25667301 22:0.87484801 23:8.8211298 24:3.1544099 # Flowers/Shape5/shape5-031.ppm
-6.4101468816715963548900092676582e-09 5:12523.8 6:3.3599999 7:110.958 13:9404.6396 14:3104.01 17:0.35135099 18:25.133301 19:0.17647099 20:0.606695 21:0.217445 22:0.75093901 23:1.38557 24:1.19048 # Flowers/Shape2/shape2-019.ppm
6.4101468816715963548900092676582e-09 5:9052.3701 6:3.6716399 7:102.38 13:6378.73 14:3017.5801 17:0.42553201 18:16.4 19:0.175439 20:0.57459003 21:0.243527 22:0.70464802 23:13.7685 24:4.3577199 # Flowers/Shape5/shape5-046.ppm
-6.4101468816715963548900092676582e-09 5:6340.7202 6:3.68627 7:103.409 13:4892.5298 14:2901.1299 17:0.41666701 18:17.727301 19:0.27500001 20:0.71142101 21:0.271676 22:0.77160501 23:9.9798899 24:4.3404298 # Flowers/Shape1/shape1-022.ppm
6.4101468816715963548900092676582e-09 5:11325.6 6:3.8684199 7:108.495 13:6348.3599 14:3161.5901 17:0.40740699 18:14.05 19:0.15151501 20:0.68583697 21:0.204485 22:0.56053102 23:7.5211401 24:3.1020401 # Flowers/Shape5/shape5-073.ppm
-6.4101468816715963548900092676582e-09 5:13295.2 6:3.4862399 7:106.827 13:9329.3701 14:2888.8701 17:0.36250001 18:22.5882 19:0.19780201 20:0.614838 21:0.20465299 22:0.70170802 23:0.85258698 24:0.86052603 # Flowers/Shape2/shape2-000.ppm
6.4101468816715963548900092676582e-09 5:8754.1201 6:3.5211301 7:106.788 13:7330.0601 14:2986.4099 17:0.510638 18:23.153799 19:0.22413801 20:0.50480402 21:0.28177199 22:0.837327 23:1.94508 24:1.704 # Flowers/Shape5/shape5-076.ppm
-6.4101468816715963548900092676582e-09 5:6938.8599 6:3.2692299 7:117.356 13:6067.3799 14:3428.46 17:0.33333299 18:13.25 19:0.238095 20:0.48445901 21:0.33885801 22:0.87440699 23:16.4536 24:5.5058799 # Flowers/Shape4/shape4-009.ppm
6.4101468816715963548900092676582e-09 5:10296.6 6:3.50649 7:104.492 13:7973.27 14:3177.21 17:0.375 18:21.6667 19:0.203125 20:0.63082498 21:0.223314 22:0.77436101 23:1.66216 24:1.42593 # Flowers/Shape5/shape5-049.ppm
-6.4101468816715963548900092676582e-09 5:7906.52 6:3.7818201 7:98.254898 13:5701.6499 14:3632.3301 17:0.61764699 18:13.8125 19:0.19565199 20:0.72749698 21:0.246782 22:0.72113401 23:9.1756897 24:4.4951901 # Flowers/Shape1/shape1-023.ppm
6.4101468816715963548900092676582e-09 5:9397.2197 6:3.3333299 7:108.968 13:7479.8101 14:2840.4099 17:0.327869 18:28.181801 19:0.265625 20:0.67176598 21:0.25287899 22:0.795959 23:6.3884702 24:2.7 # Flowers/Shape5/shape5-077.ppm
-6.4101468816715963548900092676582e-09 5:12599.2 6:3.30357 7:109.725 13:9695.6504 14:2638.5801 17:0.41772199 18:13.0345 19:0.244444 20:0.64992499 21:0.199683 22:0.76954597 23:2.1002901 24:1.2108099 # Flowers/Shape2/shape2-023.ppm
6.4101468816715963548900092676582e-09 5:8346.8604 6:3.6896601 7:108.474 13:6303.9702 14:3382.4399 17:0.34883699 18:16.3333 19:0.208333 20:0.56213897 21:0.26298299 22:0.75525099 23:12.7143 24:4.0654202 # Flowers/Shape5/shape5-005.ppm
-6.4101468816715963548900092676582e-09 5:6874.1401 6:3.6981101 7:103.909 13:4870.2202 14:2856.8401 17:0.35897401 18:18 19:0.26190501 20:0.72901601 21:0.25058401 22:0.70848501 23:11.6665 24:4.8673501 # Flowers/Shape1/shape1-001.ppm
6.4101468816715963548900092676582e-09 5:9729.4502 6:3.8133299 7:106.052 13:7322.29 14:2856.78 17:0.470588 18:21.8571 19:0.25 20:0.51130903 21:0.25304699 22:0.75259 23:2.9735799 24:2.0978999 # Flowers/Shape5/shape5-056.ppm
-6.4101468816715963548900092676582e-09 5:10913.3 6:3.2765999 7:108.682 13:8852.1396 14:3234.1299 17:0.46875 18:18.5263 19:0.27026999 20:0.76173902 21:0.213302 22:0.81113201 23:1.18995 24:0.61039001 # Flowers/Shape2/shape2-005.ppm
6.4101468816715963548900092676582e-09 5:9398.3604 6:3.7026999 7:109.15 13:7349.3301 14:2888.76 17:0.57446802 18:18.625 19:0.27586201 20:0.50646901 21:0.262954 22:0.78197998 23:2.3011999 24:1.62044 # Flowers/Shape5/shape5-015.ppm
-6.4101468816715963548900092676582e-09 5:5341.1401 6:3.2156899 7:114.991 13:6093.2402 14:2482.8101 17:0.41666701 18:7.5882401 19:0.342105 20:0.424523 21:0.38342699 22:1.14081 23:14.2173 24:5.2865901 # Flowers/Shape4/shape4-011.ppm
6.4101468816715963548900092676582e-09 5:11117.1 6:3.8055601 7:110.228 13:6350.8799 14:3294.8601 17:0.384615 18:14.7368 19:0.180328 20:0.67903697 21:0.20830201 22:0.57126898 23:6.8889098 24:2.8905101 # Flowers/Shape5/shape5-053.ppm
-6.4101468816715963548900092676582e-09 5:13047.9 6:3.3475201 7:119.861 13:9593.2695 14:2192.5701 17:0.5 18:27.1429 19:0.39603999 20:0.97013301 21:0.153905 22:0.735237 23:1.65636 24:1.1949199 # Flowers/Shape3/shape3-003.ppm
6.4101468816715963548900092676582e-09 5:7705.0601 6:3.3 7:106.659 13:6874.9302 14:3615.8301 17:0.36363599 18:11.6087 19:0.17647099 20:0.53813702 21:0.31780899 22:0.89226198 23:4.7578001 24:1.51515 # Flowers/Shape5/shape5-042.ppm
-6.4101468816715963548900092676582e-09 5:9684.9805 6:3.90769 7:106.815 13:4600.3799 14:2999.77 17:0.35416701 18:17.181801 19:0.18181799 20:0.86722398 21:0.179774 22:0.47500199 23:11.5462 24:4.6062999 # Flowers/Shape1/shape1-018.ppm
6.4101468816715963548900092676582e-09 5:9923.8799 6:3.5733299 7:102.176 13:8021.2202 14:3177.6399 17:0.44230801 18:17.888901 19:0.190476 20:0.61533302 21:0.23123699 22:0.80827397 23:5.5611901 24:3.3582101 # Flowers/Shape5/shape5-069.ppm
-6.4101468816715963548900092676582e-09 5:11490.3 6:3.48454 7:106 13:8829.7305 14:2956.4099 17:0.469697 18:12.75 19:0.29333299 20:0.65530002 21:0.21368399 22:0.76845098 23:9.5903101 24:3.7307701 # Flowers/Shape2/shape2-003.ppm
6.4101468816715963548900092676582e-09 5:9050.0303 6:3.4210501 7:108.147 13:7460.5698 14:3033.71 17:0.40740699 18:25.3333 19:0.225806 20:0.673154 21:0.262485 22:0.82436901 23:3.60479 24:2.33846 # Flowers/Shape5/shape5-097.ppm
-6.4101468816715963548900092676582e-09 5:6333.8301 6:3.13433 7:118.035 13:5265.0898 14:2458.6699 17:0.367347 18:17.4167 19:0.34 20:0.96768099 21:0.232246 22:0.83126497 23:0.61843699 24:0.63809502 # Flowers/Shape3/shape3-002.ppm
6.4101468816715963548900092676582e-09 5:10336.5 6:3.6315801 7:104.159 13:7425.77 14:3234.5601 17:0.51999998 18:10 19:0.169231 20:0.61795002 21:0.229554 22:0.71840298 23:7.52141 24:2.7536199 # Flowers/Shape5/shape5-048.ppm
-6.4101468816715963548900092676582e-09 5:12134.2 6:3.3675201 7:104.238 13:9396.7305 14:2534.6699 17:0.5 18:15.04 19:0.32954499 20:0.70615202 21:0.19791999 22:0.7744 23:2.1863899 24:1.4847701 # Flowers/Shape2/shape2-002.ppm
6.4101468816715963548900092676582e-09 5:9009.1797 6:3.64516 7:103.036 13:6387.5098 14:3199.54 17:0.31914899 18:10.24 19:0.19230799 20:0.56647301 21:0.24381 22:0.70899999 23:13.6718 24:4.1150398 # Flowers/Shape5/shape5-066.ppm
-6.4101468816715963548900092676582e-09 5:9101.5596 6:3.69014 7:113.445 13:5399.9399 14:3001.78 17:0.44898 18:34 19:0.24561401 20:0.97000599 21:0.184003 22:0.59329897 23:4.5588899 24:2.1679399 # Flowers/Shape3/shape3-009.ppm
6.4101468816715963548900092676582e-09 5:10189.8 6:3.5999999 7:112.426 13:7228.8701 14:3250.6499 17:0.36363599 18:23.4 19:0.171875 20:0.614057 21:0.232444 22:0.70942098 23:7.3150702 24:3.0555601 # Flowers/Shape5/shape5-088.ppm
-6.4101468816715963548900092676582e-09 5:8413.9297 6:3.3698599 7:119.659 13:7385.0298 14:2715.6799 17:0.403846 18:27.5833 19:0.216667 20:0.39077401 21:0.330798 22:0.87771398 23:22.030701 24:5.0447202 # Flowers/Shape4/shape4-014.ppm
6.4101468816715963548900092676582e-09 5:10023.1 6:3.5999999 7:102.203 13:6895.3301 14:3169.3201 17:0.45833299 18:14.5 19:0.186441 20:0.547158 21:0.244574 22:0.68794698 23:5.4280901 24:2.5 # Flowers/Shape5/shape5-062.ppm
-6.4101468816715963548900092676582e-09 5:11335.1 6:3.45455 7:117.737 13:7268.3501 14:2781.99 17:0.47761199 18:17.2353 19:0.2375 20:0.96946597 21:0.167484 22:0.64122403 23:0.88534099 24:1.15789 # Flowers/Shape3/shape3-016.ppm
6.4101468816715963548900092676582e-09 5:8505.79 6:3.5820899 7:104.26 13:7523.9302 14:3110.8401 17:0.39583299 18:14.0476 19:0.26415101 20:0.573156 21:0.26728499 22:0.884565 23:3.39726 24:2.23333 # Flowers/Shape5/shape5-063.ppm
-6.4101468816715963548900092676582e-09 5:6772.6001 6:3.32353 7:117.329 13:5323.3701 14:2377.3301 17:0.38775501 18:25.2222 19:0.33333299 20:0.95906103 21:0.216236 22:0.78601599 23:0.699063 24:0.60176998 # Flowers/Shape3/shape3-023.ppm
6.4101468816715963548900092676582e-09 5:9248.2002 6:3.68571 7:105.617 13:6887.1201 14:3110.47 17:0.42857099 18:15.7647 19:0.186441 20:0.53583401 21:0.26533601 22:0.744699 23:2.8371 24:2.1705401 # Flowers/Shape5/shape5-001.ppm
-6.4101468816715963548900092676582e-09 5:10438.4 6:3.37255 7:114.091 13:7558.6699 14:2615.54 17:0.5 18:24.4167 19:0.378378 20:0.96189898 21:0.181402 22:0.72412401 23:2.4322801 24:1.48256 # Flowers/Shape3/shape3-004.ppm
6.4101468816715963548900092676582e-09 5:9063.6602 6:3.82353 7:104.562 13:7318.9399 14:3162.25 17:0.78947401 18:23.3846 19:0.23636401 20:0.51180899 21:0.27203801 22:0.807504 23:2.1945701 24:2.09231 # Flowers/Shape5/shape5-036.ppm
-6.4101468816715963548900092676582e-09 5:8798.5703 6:3.3176501 7:108.274 13:7488.6899 14:2630.49 17:0.41666701 18:21.2143 19:0.268657 20:0.69539899 21:0.243319 22:0.85112602 23:4.5908799 24:2.71277 # Flowers/Shape2/shape2-006.ppm
-6.4101468816715963548900092676582e-09 5:6451.46 6:2.86076 7:125.884 13:8091.1602 14:2240.95 17:0.75555599 18:6.9215698 19:0.16176499 20:0.85595399 21:0.25083899 22:1.25416 23:7.0669999 24:2.0973499 # Flowers/Shape3/shape3-010.ppm
6.4101468816715963548900092676582e-09 5:9920.8203 6:3.8550701 7:106.046 13:6381.2998 14:3451.3401 17:0.5 18:24 19:0.232143 20:0.67858398 21:0.233559 22:0.64322299 23:3.2769101 24:2.33459 # Flowers/Shape5/shape5-033.ppm
6.4101468816715963548900092676582e-09 5:10303.7 6:3.8209 7:112.175 13:6352.27 14:3544.22 17:0.48888901 18:10.68 19:0.196429 20:0.67789102 21:0.22490799 22:0.61650199 23:6.5558 24:2.8789101 # Flowers/Shape5/shape5-012.ppm
-6.4101468816715963548900092676582e-09 5:10551.4 6:3.4705901 7:116.353 13:6854.21 14:2412.72 17:0.47826099 18:53.599998 19:0.32467499 20:0.97915 21:0.169958 22:0.64960402 23:1.02084 24:1.15254 # Flowers/Shape3/shape3-008.ppm
6.4101468816715963548900092676582e-09 5:8850.1504 6:3.5692301 7:105.305 13:6925.7598 14:3359.9299 17:0.41304299 18:14.1053 19:0.18181799 20:0.539621 21:0.276889 22:0.78255898 23:5.1201501 24:1.96121 # Flowers/Shape5/shape5-022.ppm
-6.4101468816715963548900092676582e-09 5:10718.5 6:3.3396201 7:114.795 13:7335.2598 14:2372.6201 17:0.413333 18:43.200001 19:0.29268301 20:0.96703303 21:0.170073 22:0.68435401 23:0.89509201 24:1.19774 # Flowers/Shape3/shape3-013.ppm
6.4101468816715963548900092676582e-09 5:8692.5098 6:3.76667 7:101.916 13:5884.02 14:3489.5 17:0.395349 18:23.299999 19:0.22449 20:0.59658098 21:0.25915399 22:0.676907 23:9.18396 24:3.71681 # Flowers/Shape5/shape5-064.ppm
-6.4101468816715963548900092676582e-09 5:10925.7 6:3.2181799 7:115.665 13:8374.8301 14:2428.8201 17:0.32530099 18:9.9428596 19:0.25 20:0.90883303 21:0.18055899 22:0.76652902 23:0.29102999 24:0.62146902 # Flowers/Shape3/shape3-018.ppm
6.4101468816715963548900092676582e-09 5:10056.3 6:3.71014 7:108.77 13:6782.8799 14:3481.3101 17:0.5 18:21.6154 19:0.210526 20:0.698897 21:0.222868 22:0.67448699 23:2.3471899 24:1.8867199 # Flowers/Shape5/shape5-095.ppm
-6.4101468816715963548900092676582e-09 5:10203.8 6:3.2792799 7:121.984 13:7738.9502 14:2170.5801 17:0.405063 18:20.1875 19:0.337349 20:0.96216798 21:0.174556 22:0.758439 23:1.05512 24:0.91483498 # Flowers/Shape3/shape3-007.ppm
6.4101468816715963548900092676582e-09 5:9721.6797 6:3.7611899 7:110.627 13:6872.6899 14:3575.4299 17:0.55813998 18:22.9231 19:0.240741 20:0.69724602 21:0.230281 22:0.70694399 23:4.6823902 24:1.86111 # Flowers/Shape5/shape5-055.ppm
-6.4101468816715963548900092676582e-09 5:4434 6:2.60976 7:121.045 13:6353.6001 14:1402.1801 17:0.67346901 18:11.7727 19:0.49090901 20:0.92590302 21:0.28428999 22:1.43293 23:0.64750397 24:1.1495301 # Flowers/Shape3/shape3-022.ppm
6.4101468816715963548900092676582e-09 5:10229.3 6:3.8181801 7:109.731 13:6762.8901 14:3692.47 17:0.375 18:16.3529 19:0.222222 20:0.70967603 21:0.219073 22:0.66113299 23:4.5339599 24:2.88095 # Flowers/Shape5/shape5-075.ppm
-6.4101468816715963548900092676582e-09 5:10122.2 6:3.1858399 7:119.623 13:8893.1299 14:2298.27 17:0.43037999 18:25.9231 19:0.43037999 20:0.89900798 21:0.19677 22:0.87858099 23:2.2978201 24:1.25556 # Flowers/Shape3/shape3-005.ppm
6.4101468816715963548900092676582e-09 5:8103.02 6:3.6140399 7:100.262 13:6921.0498 14:3772.5901 17:0.5 18:9.4814796 19:0.1875 20:0.53167599 21:0.30262899 22:0.85413301 23:4.5600901 24:1.66019 # Flowers/Shape5/shape5-082.ppm
-6.4101468816715963548900092676582e-09 5:11084 6:3.0780101 7:119.563 13:10352.3 14:2009.76 17:0.43877599 18:34.333302 19:0.58427 20:0.95967299 21:0.174169 22:0.93398201 23:0.976978 24:0.64977002 # Flowers/Shape3/shape3-019.ppm
6.4101468816715963548900092676582e-09 5:8595.2197 6:3.62712 7:103.8 13:5920.3999 14:3566.3101 17:0.439024 18:21.727301 19:0.229167 20:0.59451801 21:0.262445 22:0.688802 23:9.1649704 24:3.8598101 # Flowers/Shape5/shape5-044.ppm
2.8979227618068070432603110242464e-09 5:8059.7002 6:3.67273 7:102.224 13:5874.98 14:3788.6499 17:0.447368 18:25.7778 19:0.19565199 20:0.59330398 21:0.27884299 22:0.72893298 23:8.7971096 24:3.2673299 # Flowers/Shape5/shape5-003.ppm
