SVM-light Version V6.02
0 # kernel type
3 # kernel parameter -d 
1 # kernel parameter -g 
1 # kernel parameter -s 
1 # kernel parameter -r 
empty# kernel parameter -u 
11 # highest feature index 
40 # number of training documents 
39 # number of support vectors plus 1 
1.4762843 # threshold b, each following line is a SV (starting with alpha*y)
-0.31832097013035542953929279974545 1:0.25474501 2:0.27208599 3:0.25422999 4:0.47025099 5:0.23566499 6:0.77923501 7:0.76183701 8:0.183155 9:0.46875 10:0.229947 11:0.26315799 # shape1-004
0.31832097013035542953929279974545 1:0.341398 2:0.45331201 3:0.425953 4:0.62739402 5:0.361067 6:0.84210998 7:0.839742 8:0.151968 9:0.4375 10:0.28876999 11:0.23157901 # shape5-000
-0.31832097013035542953929279974545 1:0.72967303 2:0.78444999 3:0.83269602 4:0.86475599 5:0.65469199 6:0.74658698 7:0.81152999 8:0.0112216 9:0.09375 10:0.71657801 11:0.24210501 # shape2-001
0.31832097013035542953929279974545 1:0.22558799 2:0.343824 3:0.29949999 4:0.53259897 5:0.198302 6:0.77622598 7:0.73517698 8:0.103706 9:0.375 10:0.197861 11:0.178947 # shape5-011
-0.31832097013035542953929279974545 1:0.129985 2:0.340698 3:0.234394 4:0.494353 5:0.142626 6:0.73130602 7:0.91697299 8:0.080598198 9:0.40625 10:0.192513 11:0.073684201 # shape4-001
0.31832097013035542953929279974545 1:0.35565999 2:0.825059 3:0.75332397 4:0.86294198 5:0.35532501 6:0.82479 7:0.84920597 8:0.217251 9:0.53125 10:0.34759399 11:0.168421 # shape5-017
-0.31832097013035542953929279974545 1:0.57751602 2:0.59161001 3:0.64117301 4:0.75260502 5:0.54619402 6:0.83397698 7:0.801597 8:0.16204 9:0.40625 10:0.51871699 11:0.25263199 # shape2-003
0.31832097013035542953929279974545 1:0.23412199 2:0.39807501 3:0.28953901 4:0.57968098 5:0.226399 6:0.79778802 7:0.82340598 8:0.0625 9:0.21875 10:0.25668401 11:0.28421101 # shape5-019
-0.31832097013035542953929279974545 1:0.29345599 2:0.23351499 3:0.25124201 4:0.47225201 5:0.28836301 6:0.87756699 7:0.81219798 8:0.308119 9:0.5625 10:0.224599 11:0.40000001 # shape1-000
0.31832097013035542953929279974545 1:0.53959101 2:0.765571 3:0.67275703 4:0.79221398 5:0.530922 6:0.85562801 7:0.78786802 8:0.090509199 9:0.3125 10:0.427807 11:0.26315799 # shape5-004
-0.31832097013035542953929279974545 1:0.63413501 2:0.800614 3:0.75036401 4:0.83402199 5:0.631993 6:0.83438402 7:0.80784798 8:0.0140764 9:0.09375 10:0.58288801 11:0.29473701 # shape2-000
0.31832097013035542953929279974545 1:0.32097 2:0.46138299 3:0.40736899 4:0.61371797 5:0.34407201 6:0.86161101 7:0.81114697 8:0.075858198 9:0.25 10:0.320856 11:0.25263199 # shape5-006
-0.31832097013035542953929279974545 1:0.16061001 2:0.45078501 3:0.30858001 4:0.575113 5:0.154714 6:0.75220001 7:0.90635997 8:0.103706 9:0.40625 10:0.18716601 11:0.052631602 # shape4-002
0.31832097013035542953929279974545 1:0.52793002 2:0.61662602 3:0.70726299 4:0.79114902 5:0.50216502 6:0.801633 7:0.80873299 8:0.168935 9:0.375 10:0.44385001 11:0.26315799 # shape5-010
-0.31832097013035542953929279974545 1:0.60942698 2:0.63907099 3:0.63185197 4:0.75798202 5:0.67153102 6:0.864829 7:0.791336 8:0.027309 9:0.125 10:0.63636398 11:0.30526301 # shape2-004
0.31832097013035542953929279974545 1:0.359981 2:0.58877301 3:0.53120601 4:0.69638801 5:0.35097 6:0.87242001 7:0.78241497 8:0.064636603 9:0.1875 10:0.33155099 11:0.2 # shape5-002
-0.31832097013035542953929279974545 1:0.39744601 2:0.43515399 3:0.399744 4:0.59661901 5:0.36331001 6:0.903157 7:0.773458 8:0.151968 9:0.46875 10:0.28342199 11:0.326316 # shape1-002
0.31832097013035542953929279974545 1:0.50966901 2:0.59581101 3:0.57955199 4:0.72509998 5:0.51362199 6:0.83767802 7:0.79317498 8:0.132792 9:0.40625 10:0.44919801 11:0.24210501 # shape5-007
-0.31832097013035542953929279974545 1:0.59722102 2:0.66183603 3:0.61530203 4:0.736148 5:0.57680303 6:0.80597103 7:0.788275 8:0.0316719 9:0.15625 10:0.62566799 11:0.347368 # shape2-002
0.31832097013035542953929279974545 1:0.48598301 2:0.53649998 3:0.50224298 4:0.686019 5:0.43713301 6:0.868976 7:0.84436202 8:0.095680103 9:0.28125 10:0.34759399 11:0.484211 # shape5-014
-0.31832097013035542953929279974545 1:0.30492201 2:0.29881299 3:0.30430099 4:0.52800202 5:0.32676399 6:0.88509297 7:0.78578502 8:0.19047999 9:0.5625 10:0.28342199 11:0.273684 # shape1-001
0.31832097013035542953929279974545 1:0.485257 2:0.58922797 3:0.57046598 4:0.70572102 5:0.522632 6:0.881459 7:0.80094397 8:0.095680103 9:0.375 10:0.438503 11:0.23157901 # shape5-008
-0.31832097013035542953929279974545 1:0.18318699 2:0.47659099 3:0.43814799 4:0.63129997 5:0.17354099 6:0.65700197 7:1 8:0.090509199 9:0.34375 10:0.27272701 11:0.0842105 # shape4-004
0.31832097013035542953929279974545 1:0.459537 2:0.579813 3:0.50218803 4:0.72766 5:0.45014799 6:0.83324599 7:0.82706797 8:0.16204 9:0.4375 10:0.433155 11:0.31578901 # shape5-016
-0.31832097013035542953929279974545 1:0.62258703 2:0.44361401 3:0.466896 4:0.61553901 5:0.62023401 6:0.80118299 7:0.90641803 8:0.0207555 9:0.125 10:0.75401098 11:0.83157903 # shape3-003
0.31832097013035542953929279974545 1:0.39508101 2:0.55630302 3:0.51132202 4:0.67284298 5:0.39677 6:0.88306898 7:0.82030898 8:0.245781 9:0.46875 10:0.31016001 11:0.23157901 # shape5-005
-0.31832097013035542953929279974545 1:0.264651 2:0.34988701 3:0.33427799 4:0.549299 5:0.24344701 6:0.78502399 7:0.82143199 8:0.0625 9:0.3125 10:0.26738 11:0.2 # shape1-003
0.31832097013035542953929279974545 1:0.47821501 2:0.60352701 3:0.51323402 4:0.71033502 5:0.48979101 6:0.91447997 7:0.84829098 8:0.132792 9:0.34375 10:0.358289 11:0.442105 # shape5-012
-0.31832097013035542953929279974545 1:0.537265 2:0.39780101 3:0.40636 4:0.580414 5:0.49619001 6:0.80717403 7:0.86278301 8:0.036358099 9:0.15625 10:0.54545498 11:0.81052601 # shape3-004
0.31832097013035542953929279974545 1:0.438483 2:0.58429199 3:0.59535199 4:0.75217098 5:0.43961599 6:0.88212597 7:0.79870099 8:0.0504345 9:0.25 10:0.37433201 11:0.30526301 # shape5-001
-0.31832097013035542953929279974545 1:0.151126 2:0.32622501 3:0.21279199 4:0.54520601 5:0.16263799 6:0.75789899 7:0.93490601 8:0.123689 9:0.40625 10:0.192513 11:0.0842105 # shape4-003
0.31832097013035542953929279974545 1:0.41963801 2:0.56809598 3:0.514575 4:0.68887901 5:0.38312 6:0.87901801 7:0.77304602 8:0.19047999 9:0.375 10:0.29411799 11:0.24210501 # shape5-003
-0.31832097013035542953929279974545 1:0.157269 2:0.30093199 3:0.274057 4:0.52768999 5:0.13303401 6:0.72626197 7:0.91246802 8:0.095680103 9:0.28125 10:0.15508001 11:0.0842105 # shape4-000
0.31832097013035542953929279974545 1:0.430498 2:0.70088297 3:0.61840099 4:0.75752401 5:0.44675401 6:0.88619202 7:0.825418 8:0.037992001 9:0.1875 10:0.395722 11:0.147368 # shape5-015
-0.31832097013035542953929279974545 1:0.308164 2:0.231231 3:0.230854 4:0.43953201 5:0.31634501 6:0.89412498 7:0.842538 8:0.071261898 9:0.25 10:0.28342199 11:0.663158 # shape3-000
0.31832097013035542953929279974545 1:0.552423 2:0.62951601 3:0.64351201 4:0.76284701 5:0.53696102 6:0.869784 7:0.805834 8:0.158647 9:0.46875 10:0.438503 11:0.24210501 # shape5-009
-0.31832097013035542953929279974545 1:0.33174399 2:0.241541 3:0.249414 4:0.45089799 5:0.30107999 6:0.75015903 7:0.892609 8:0.0086900303 9:0.0625 10:0.358289 11:0.81052601 # shape3-002
0.31832097013035542953929279974545 1:0.63001102 2:0.79008001 3:0.71327901 4:0.79894501 5:0.62439603 6:0.896824 7:0.823906 8:0.179546 9:0.40625 10:0.46524099 11:0.326316 # shape5-013
