SVM-light Version V6.02
0 # kernel type
3 # kernel parameter -d 
1 # kernel parameter -g 
1 # kernel parameter -s 
1 # kernel parameter -r 
empty# kernel parameter -u 
24 # highest feature index 
194 # number of training documents 
146 # number of support vectors plus 1 
0.59829731 # threshold b, each following line is a SV (starting with alpha*y)
-3.4339772532352305049520984101515e-12 1:87263 2:336608 3:233004 4:1887.73 5:3370.23 6:2.9268301 7:121.038 8:13684.8 9:9 10:41 11:9 12:234 13:5485.3501 14:2128.3701 15:153.265 16:134.222 17:0.63999999 18:18.5 19:0.32258099 20:0.37451401 21:0.56011999 22:1.6275899 23:6.4297099 24:3.075 # Flowers/Shape4/shape4-059.ppm
3.4339772532352305049520984101515e-12 1:145719 2:208923 3:171480 4:1540.67 5:6066.2998 6:3.6666701 7:107.402 8:53912.898 9:18 10:42 11:38 12:161 13:3801.27 14:3469.5 15:155.845 16:166.605 17:0.40000001 18:31.200001 19:0.235294 20:0.84977502 21:0.25397199 22:0.62661999 23:15.5391 24:4.90909 # Flowers/Shape1/shape1-000.ppm
-3.4339772532352305049520984101515e-12 1:50254.398 2:169993 3:121642 4:1296.08 5:2052.48 6:2.6666701 7:124.314 8:14526.7 9:12 10:30 11:8 12:176 13:4111.02 14:1675.15 15:151.869 16:134.75 17:1 18:15 19:0.30434799 20:0.41313401 21:0.63147098 22:2.00296 23:8.6719103 24:4.5 # Flowers/Shape4/shape4-087.ppm
3.3870220402842392587435256214512e-12 1:418487 2:995883 3:612920 4:2955.9199 5:16785.699 6:3.74545 7:111.52 8:33979.5 9:12 10:110 11:40 12:437 13:10440.8 14:3804.4199 15:153.771 16:169.375 17:0.392405 18:15.8077 19:0.182796 20:0.68277502 21:0.176098 22:0.62200397 23:8.9315701 24:3.2038801 # Flowers/Shape1/shape1-091.ppm
-3.4339772532352305049520984101515e-12 1:456668 2:894688 3:682528 4:3262.3899 5:19787 6:4.0229902 7:113.236 8:174974 9:32 10:87 11:6 12:245 13:7564.2202 14:5249.0498 15:169.14301 16:107.833 17:0.225352 18:80.666702 19:0.12987 20:0.66908199 21:0.164876 22:0.382283 23:33.3344 24:7.9542899 # Flowers/Shape4/shape4-012.ppm
3.4339772532352305049520984101515e-12 1:134968 2:209466 3:170697 4:1538.84 5:5862.8599 6:3.9473701 7:100.628 8:52279.199 9:18 10:38 11:41 12:171 13:3829.0701 14:3551.8 15:155.117 16:171.244 17:0.51999998 18:23.4286 19:0.225806 20:0.79069 21:0.26247299 22:0.65310597 23:14.7191 24:4.5599999 # Flowers/Shape1/shape1-021.ppm
-3.4339772532352305049520984101515e-12 1:50901.301 2:171210 3:121616 4:1295.71 5:2160.7 6:2.7272699 7:116.702 8:13684.8 9:10 10:33 11:9 12:175 13:4135.4902 14:1542.46 15:153.314 16:133 17:0.64999998 18:13.5833 19:0.375 20:0.418542 21:0.59967202 22:1.91396 23:8.8720303 24:3.6666701 # Flowers/Shape4/shape4-067.ppm
3.4339772532352305049520984101515e-12 1:200357 2:322812 3:227240 4:1732.67 5:9480.79 6:3.9574499 7:106.086 8:96211.297 9:32 10:47 11:40 12:176 13:4234.3799 14:4262.9102 15:155.91499 16:169.325 17:0.62068999 18:24.1429 19:0.175 20:0.881697 21:0.18275601 22:0.446628 23:22.569401 24:8.0860205 # Flowers/Shape1/shape1-090.ppm
-3.4339772532352305049520984101515e-12 1:457969 2:893156 3:680970 4:3259.05 5:19585.1 6:3.9333301 7:109.277 8:182467 9:32 10:90 11:6 12:242 13:7553.2598 14:5088.54 15:164.979 16:108 17:0.40625 18:59.5 19:0.139241 20:0.67252499 21:0.16640501 22:0.38566399 23:35.858398 24:8.1355896 # Flowers/Shape4/shape4-033.ppm
3.4339772532352305049520984101515e-12 1:138253 2:209088 3:171489 4:1540.04 5:6457.1001 6:4 7:102.209 8:53912.898 9:18 10:43 11:40 12:167 13:3811.79 14:3215.1799 15:153.07201 16:168.45 17:0.482759 18:15.7 19:0.16216201 20:0.80619001 21:0.23850399 22:0.59032601 23:16.7682 24:4.5 # Flowers/Shape1/shape1-041.ppm
-3.4339772532352305049520984101515e-12 1:73210.5 2:354530 3:143771 4:1770.8 5:3028.8301 6:3.09677 7:128.431 8:21642.4 9:12 10:31 11:7 12:152 13:3763.95 14:2361.6299 15:160.961 16:127.714 17:0.347826 18:24.3333 19:0.347826 20:0.50921601 21:0.584647 22:1.24271 23:9.1641998 24:3.875 # Flowers/Shape4/shape4-064.ppm
3.4339772532352305049520984101515e-12 1:155886 2:385392 3:310690 4:2063.26 5:5922.1699 6:3.3684199 7:103.652 8:11689.9 9:8 10:57 11:27 12:342 13:7730.02 14:2734.8401 15:148.444 16:166.33299 17:0.46153799 18:18 19:0.35714301 20:0.50174099 21:0.34839699 22:1.30527 23:4.2744198 24:2.375 # Flowers/Shape1/shape1-037.ppm
-3.4339772532352305049520984101515e-12 1:455580 2:883948 3:681422 4:3260 5:18930.4 6:4.0749998 7:114.163 8:180956 9:32 10:80 11:10 12:340 13:7701.7998 14:5694.75 15:147.194 16:138.60001 17:0.25 18:11.1429 19:0.142857 20:0.66857201 21:0.17220899 22:0.406847 23:31.7759 24:7.8527598 # Flowers/Shape4/shape4-053.ppm
3.4339772532352305049520984101515e-12 1:146385 2:209952 3:171842 4:1540.86 5:6747.5698 6:3.86957 7:102.386 8:53912.898 9:20 10:46 11:41 12:161 13:3790.6499 14:3182.28 15:154.267 16:170.951 17:0.48387101 18:31.200001 19:0.179487 20:0.85185701 21:0.228357 22:0.56177998 23:16.941601 24:5.16854 # Flowers/Shape1/shape1-020.ppm
-3.4339772532352305049520984101515e-12 1:49528.699 2:175474 3:122204 4:1296.88 5:2348.3201 6:2.94118 7:111.061 8:14526.7 9:14 10:34 11:11 12:176 13:4114.71 14:1456.73 15:155.44299 16:136.27299 17:1 18:11.5714 19:0.36000001 20:0.405294 21:0.55225903 22:1.75219 23:9.9721603 24:4.7600002 # Flowers/Shape4/shape4-047.ppm
-3.4339772532352305049520984101515e-12 1:80096.102 2:329329 3:204152 4:1714.9399 5:3484.1899 6:2.95 7:121.756 8:21642.4 9:16 10:40 11:8 12:227 13:5060.7202 14:2002.4 15:147.233 16:135.125 17:0.90476203 18:17.9167 19:0.42857099 20:0.39233601 21:0.49220699 22:1.45248 23:10.8082 24:5.4237299 # Flowers/Shape4/shape4-089.ppm
-3.4339772532352305049520984101515e-12 1:92495.5 2:340442 3:244774 4:1858.33 5:3730.48 6:2.9200001 7:116.219 8:16286 9:10 10:50 11:7 12:239 13:5791 14:1849.91 15:155.439 16:118.714 17:0.66666698 18:20.727301 19:0.470588 20:0.377882 21:0.49814901 22:1.55235 23:8.8036804 24:3.42466 # Flowers/Shape4/shape4-068.ppm
3.4339772532352305049520984101515e-12 1:128624 2:227493 3:174621 4:1539.05 5:5114.1802 6:3.3636401 7:104.413 8:32685.1 9:16 10:44 11:26 12:200 13:4697.4702 14:2923.28 15:154.13499 16:164.65401 17:0.33333299 18:19 19:0.25714299 20:0.73659199 21:0.30093801 22:0.91851801 23:11.181 24:4.7567601 # Flowers/Shape1/shape1-085.ppm
-3.4339772532352305049520984101515e-12 1:50183.898 2:175120 3:123828 4:1306.76 5:2152.5701 6:2.7741899 7:120.036 8:16741.5 9:11 10:31 11:8 12:179 13:4129 14:1618.84 15:154.927 16:135.25 17:0.72222197 18:11.7857 19:0.347826 20:0.405269 21:0.607068 22:1.91817 23:10.3417 24:3.9651201 # Flowers/Shape4/shape4-027.ppm
3.4339772532352305049520984101515e-12 1:216943 2:332800 3:272118 4:1966.58 5:7362.6099 6:3.94872 7:104.852 8:54739.102 9:19 10:39 11:38 12:231 13:4728.54 14:5562.6299 15:142.381 16:166.31599 17:0.444444 18:18.25 19:0.14705899 20:0.79723901 21:0.267104 22:0.64223701 23:9.8405104 24:4.8116899 # Flowers/Shape1/shape1-046.ppm
-3.4339772532352305049520984101515e-12 1:89353.703 2:338120 3:232080 4:1886.8 5:3809.51 6:2.9361701 7:120.692 8:14102.6 9:12 10:47 11:11 12:230 13:5471.3599 14:1901.14 15:158.974 16:140 17:0.67857099 18:24.555599 19:0.342857 20:0.38501099 21:0.49528801 22:1.43624 23:7.4179702 24:4.0869598 # Flowers/Shape4/shape4-039.ppm
3.4339772532352305049520984101515e-12 1:128023 2:228435 3:175364 4:1541.4 5:5629.6201 6:3.46667 7:104.162 8:32047.4 9:19 10:45 11:25 12:196 13:4716.96 14:2844.95 15:156.505 16:165.03999 17:0.285714 18:23.5 19:0.285714 20:0.73004198 21:0.27380201 22:0.837883 23:11.2647 24:5.4807701 # Flowers/Shape1/shape1-065.ppm
-3.4339772532352305049520984101515e-12 1:457807 2:1.2597e-06 3:685335 4:3270.45 5:20743.6 6:4.10638 7:110.284 8:154830 9:28 10:94 11:6 12:325 13:7569.8901 14:4870.29 15:153.97501 16:112.333 17:0.305556 18:22.2143 19:0.146341 20:0.66800398 21:0.15766101 22:0.36492699 23:31.7908 24:6.8186498 # Flowers/Shape4/shape4-073.ppm
3.4339772532352305049520984101515e-12 1:215062 2:433202 3:270736 4:1964.71 5:8038.6001 6:4 7:102.38 8:53092.898 9:19 10:43 11:39 12:215 13:4684.2598 14:5001.4399 15:149.89799 16:168.46201 17:0.43333301 18:15.5385 19:0.131579 20:0.79436201 21:0.24440999 22:0.58272099 23:10.6155 24:4.75 # Flowers/Shape1/shape1-086.ppm
3.4339772532352305049520984101515e-12 1:197717 2:290700 3:226219 4:1727.62 5:9497.7695 6:4.0851102 7:101.841 8:91863.297 9:32 10:47 11:41 12:193 13:4300.2202 14:4206.75 15:147.181 16:170.12199 17:0.342857 18:15.0833 19:0.175 20:0.87400901 21:0.181897 22:0.45276201 23:21.837099 24:7.8333302 # Flowers/Shape1/shape1-050.ppm
3.4339772532352305049520984101515e-12 1:138155 2:266700 3:209040 4:1694.71 5:4384.6602 6:3.625 7:101.845 8:33329.199 9:11 10:32 11:34 12:206 13:4866.5298 14:4317.3599 15:151.655 16:166.17599 17:0.52381003 18:14.8462 19:0.23076899 20:0.66090298 21:0.38650799 22:1.1099 23:7.71981 24:3.0344801 # Flowers/Shape1/shape1-040.ppm
-3.4339772532352305049520984101515e-12 1:48000.199 2:175824 3:123027 4:1301.58 5:1800.4301 6:2.6400001 7:116.854 8:15836.8 9:10 10:25 11:9 12:193 13:4182.1201 14:1920.01 15:143.565 16:130.556 17:0.66666698 18:9.1578903 19:0.31578901 20:0.39015999 21:0.72292298 22:2.32284 23:8.2482796 24:3.7878799 # Flowers/Shape4/shape4-006.ppm
3.4339772532352305049520984101515e-12 1:216547 2:332800 3:270836 4:1966.26 5:8453.8398 6:4.1463399 7:103.558 8:62458 9:23 10:41 11:36 12:220 13:4684.9302 14:5281.6299 15:143.923 16:165.778 17:0.32258099 18:17.3333 19:0.17142899 20:0.79954797 21:0.23258799 22:0.554178 23:11.8255 24:5.54706 # Flowers/Shape1/shape1-005.ppm
3.4339772532352305049520984101515e-12 1:198121 2:321750 3:226426 4:1730.58 5:9113.1299 6:4.0784302 7:105.102 8:77437.102 9:25 10:51 11:39 12:177 13:4225.0801 14:3884.72 15:150.44099 16:169.026 17:0.342105 18:28.5 19:0.186047 20:0.87498897 21:0.1899 22:0.463626 23:19.9338 24:6.1298099 # Flowers/Shape1/shape1-070.ppm
3.4339772532352305049520984101515e-12 1:126497 2:243432 3:173520 4:1534.14 5:4957.6802 6:3.25581 7:100.742 8:32047.4 9:15 10:43 11:25 12:205 13:4719.4902 14:2941.78 15:149.24899 16:165.16 17:0.34375 18:11.8125 19:0.30303001 20:0.72900498 21:0.30944699 22:0.95195502 23:10.8939 24:4.6071401 # Flowers/Shape1/shape1-004.ppm
-3.4339772532352305049520984101515e-12 1:75043.297 2:291870 3:145236 4:1778.6801 5:3421.4099 6:3.1666701 7:123.628 8:21642.4 9:13 10:36 11:8 12:151 13:3774.98 14:2084.54 15:163.146 16:134.875 17:0.33333299 18:36.75 19:0.285714 20:0.51669699 21:0.519867 22:1.10334 23:10.3824 24:4.1052599 # Flowers/Shape4/shape4-003.ppm
3.4339772532352305049520984101515e-12 1:264723 2:631120 3:408296 4:2405.49 5:10880.6 6:3.8787899 7:104.621 8:58964.602 9:18 10:66 11:29 12:251 13:6664.3799 14:4010.95 15:154.912 16:164.207 17:0.346939 18:19.9167 19:0.157895 20:0.64836001 21:0.221081 22:0.61250198 23:14.7009 24:4.6406202 # Flowers/Shape1/shape1-089.ppm
-3.4339772532352305049520984101515e-12 1:180272 2:617771 3:366530 4:2341.76 5:8287.2598 6:3.60656 7:113.881 8:54739.102 9:22 10:61 11:6 12:198 13:5864.7798 14:2955.29 15:161.101 16:108.667 17:0.418605 18:23.75 19:0.24489801 20:0.491835 21:0.28257301 22:0.70768601 23:18.5224 24:6.0999999 # Flowers/Shape4/shape4-090.ppm
3.4339772532352305049520984101515e-12 1:129191 2:315120 3:228557 4:1796.39 5:5015.1299 6:3.34694 7:106.183 8:20106.199 9:10 10:49 11:18 12:245 13:5973.6099 14:2636.54 15:155.661 16:153.11099 17:0.40000001 18:16.5 19:0.441176 20:0.56524497 21:0.35819301 22:1.19112 23:7.6259599 24:2.9877999 # Flowers/Shape1/shape1-024.ppm
-3.4339772532352305049520984101515e-12 1:455648 2:1.25551e-06 3:682728 4:3265.1499 5:20984.4 6:4.1473699 7:111.625 8:173494 9:34 10:95 11:7 12:325 13:7632.5801 14:4796.29 15:155.54201 16:118.714 17:0.283784 18:22.2143 19:0.130952 20:0.66739303 21:0.155599 22:0.363727 23:36.1726 24:8.1979704 # Flowers/Shape4/shape4-093.ppm
3.4339772532352305049520984101515e-12 1:160245 2:386100 3:310072 4:2063.8501 5:5845.4199 6:3.4074099 7:102.623 8:11309.7 9:9 10:54 11:26 12:336 13:7713.71 14:2967.5 15:148.51801 16:164.577 17:0.45945901 18:12.44 19:0.384615 20:0.51679802 21:0.35307199 22:1.31962 23:3.8112099 24:2.6413 # Flowers/Shape1/shape1-016.ppm
-3.4339772532352305049520984101515e-12 1:71496.203 2:361165 3:144930 4:1784.6899 5:2680.22 6:3 7:130.214 8:21642.4 9:10 10:28 11:6 12:156 13:3799.73 14:2553.4399 15:154.16 16:108.333 17:0.64705902 18:11 19:0.33333299 20:0.493314 21:0.66587299 22:1.41769 23:8.4758101 24:3.3333299 # Flowers/Shape4/shape4-084.ppm
3.4339772532352305049520984101515e-12 1:265894 2:535716 3:407338 4:2403.6599 5:12324.7 6:3.9000001 7:110.651 8:58106.898 9:20 10:80 11:30 12:326 13:6754.7798 14:3323.6699 15:143.98199 16:165.33299 17:0.42857099 18:18.1765 19:0.15942 20:0.652758 21:0.19502801 22:0.54806697 23:17.4828 24:5.1282101 # Flowers/Shape1/shape1-049.ppm
-3.4339772532352305049520984101515e-12 1:180161 2:627120 3:369610 4:2356.46 5:7680.0098 6:3.47541 7:112.225 8:55571.602 9:18 10:61 11:7 12:275 13:6097.48 14:2953.46 15:147.131 16:119.429 17:0.418605 18:18.6429 19:0.24489801 20:0.48743501 21:0.30682999 22:0.79394102 23:18.8158 24:5.1792498 # Flowers/Shape4/shape4-070.ppm
3.4339772532352305049520984101515e-12 1:141290 2:266682 3:208990 4:1695.4 5:4487.75 6:3.5151501 7:105.193 8:33329.199 9:10 10:33 11:33 12:201 13:4885.8599 14:4281.5098 15:145.687 16:164.091 17:0.375 18:10.8235 19:0.222222 20:0.67606002 21:0.377783 22:1.08871 23:7.78444 24:2.84483 # Flowers/Shape1/shape1-019.ppm
-3.4339772532352305049520984101515e-12 1:73685.797 2:291078 3:146193 4:1778.62 5:2561.46 6:2.8965499 7:125.164 8:21124.1 9:8 10:29 11:6 12:155 13:3772.97 14:2540.8899 15:161.297 16:119.333 17:0.61111099 18:24.8333 19:0.380952 20:0.504031 21:0.69437599 22:1.47298 23:8.3136501 24:2.7618999 # Flowers/Shape4/shape4-024.ppm
3.4339772532352305049520984101515e-12 1:264712 2:535896 3:408356 4:2404.3601 5:10742.4 6:3.9166701 7:106.329 8:48305.102 9:15 10:72 11:30 12:257 13:6699.98 14:3676.55 15:150.38499 16:165.533 17:0.53191501 18:31.125 19:0.2 20:0.648238 21:0.223819 22:0.62369502 23:13.1387 24:3.8297901 # Flowers/Shape1/shape1-008.ppm
-3.4339772532352305049520984101515e-12 1:178314 2:529984 3:364695 4:2341.0601 5:7103.2798 6:3.38462 7:117.5 8:53912.898 9:19 10:52 11:8 12:298 13:6129.6699 14:3429.1201 15:136.82201 16:135.125 17:0.30000001 18:10.92 19:0.26829299 20:0.48894101 21:0.329575 22:0.86293399 23:15.7221 24:5.6136398 # Flowers/Shape4/shape4-050.ppm
3.4339772532352305049520984101515e-12 1:128006 2:243972 3:174852 4:1539.4301 5:4961.3799 6:3.30233 7:101.111 8:32047.4 9:14 10:43 11:27 12:198 13:4741.6099 14:2976.8799 15:152.071 16:165.741 17:0.34375 18:23.75 19:0.30303001 20:0.73207802 21:0.31028301 22:0.95570302 23:10.7654 24:4.23944 # Flowers/Shape1/shape1-025.ppm
-3.4339772532352305049520984101515e-12 1:71503.398 2:292340 3:145202 4:1784.03 5:2541.53 6:3.07692 7:117.611 8:21124.1 9:9 10:26 11:6 12:152 13:3761.5901 14:2750.1299 15:163.737 16:109 17:0.444444 18:37 19:0.36842099 20:0.492443 21:0.70195001 22:1.48005 23:7.6811099 24:2.925 # Flowers/Shape4/shape4-044.ppm
3.4339772532352305049520984101515e-12 1:264029 2:629532 3:408390 4:2405.0701 5:11455 6:3.8309901 7:106.229 8:57255.5 9:21 10:71 11:32 12:322 13:6808.6499 14:3718.71 15:139.30701 16:168.688 17:0.44898 18:10.9259 19:0.16393401 20:0.64651197 21:0.209958 22:0.594383 23:15.3966 24:5.4816198 # Flowers/Shape1/shape1-069.ppm
-3.4339772532352305049520984101515e-12 1:202743 2:689544 3:509400 4:2787.8201 5:8979.8604 6:3.42857 7:122.941 8:54739.102 9:20 10:70 11:8 12:309 13:7376.1899 14:2896.3301 15:163.605 16:134.875 17:0.42857099 18:22.769199 19:0.22807001 20:0.398004 21:0.31045201 22:0.82141602 23:18.8995 24:5.8333302 # Flowers/Shape4/shape4-055.ppm
3.4339772532352305049520984101515e-12 1:129771 2:244961 3:175526 4:1541.15 5:5533.27 6:3.375 7:103.088 8:32047.4 9:16 10:48 11:24 12:196 13:4736.48 14:2703.55 15:152.08701 16:162.875 17:0.33333299 18:12.0667 19:0.26315799 20:0.73932201 21:0.278523 22:0.85599899 23:11.8538 24:4.7407398 # Flowers/Shape1/shape1-045.ppm
-3.4339772532352305049520984101515e-12 1:63762.199 2:219975 3:158843 4:1602.4 5:2464.5 6:3 7:128.26601 8:9852.0303 9:7 10:32 11:8 12:159 13:3807.3401 14:1992.5699 15:160.899 16:135 17:0.77777803 18:38.75 19:0.45454499 20:0.401416 21:0.65019101 22:1.54487 23:4.9443898 24:2.3333299 # Flowers/Shape4/shape4-082.ppm
3.4339772532352305049520984101515e-12 1:264694 2:537192 3:408958 4:2407.22 5:9728.04 6:3.7704899 7:106.349 8:43743.5 9:16 10:61 11:33 12:263 13:6693.0098 14:4339.25 15:151.65401 16:164.364 17:0.60526299 18:20.9167 19:0.22 20:0.64723998 21:0.24745101 22:0.688012 23:10.0809 24:4.2434802 # Flowers/Shape1/shape1-029.ppm
-3.4339772532352305049520984101515e-12 1:178280 2:539570 3:367998 4:2351.29 5:6938.8599 6:3.2692299 7:117.356 8:56410.398 9:18 10:52 11:7 12:285 13:6067.3799 14:3428.46 15:147.502 16:118.857 17:0.33333299 18:13.25 19:0.238095 20:0.48445901 21:0.33885801 22:0.87440699 23:16.4536 24:5.5058799 # Flowers/Shape4/shape4-009.ppm
3.4339772532352305049520984101515e-12 1:130804 2:314514 3:228856 4:1795.02 5:5135.0298 6:3.1698101 7:114.339 8:9852.0303 9:9 10:53 11:19 12:247 13:5968.8701 14:2467.99 15:157.77699 16:155.68401 17:0.32499999 18:26.444401 19:0.472222 20:0.57155299 21:0.34956399 22:1.16238 23:3.99192 24:2.8392899 # Flowers/Shape1/shape1-044.ppm
-3.4339772532352305049520984101515e-12 1:116264 2:361560 3:231876 4:1815.97 5:4459.3999 6:3.0638299 7:112.351 8:24328.5 9:12 10:47 11:12 12:221 13:5342.2402 14:2473.7 15:157.75999 16:143.83299 17:0.27026999 18:35.833302 19:0.27026999 20:0.50140703 21:0.40722299 22:1.19797 23:9.8348503 24:3.9166701 # Flowers/Shape4/shape4-066.ppm
3.4339772532352305049520984101515e-12 1:131415 2:313040 3:228154 4:1792.03 5:5121.3999 6:3.28 7:108.623 8:10935.9 9:10 10:50 11:19 12:241 13:5926.79 14:2628.3 15:159.45599 16:155.211 17:0.38888901 18:29.125 19:0.42857099 20:0.575993 21:0.34990999 22:1.1572599 23:4.16081 24:3.04878 # Flowers/Shape1/shape1-003.ppm
-3.4339772532352305049520984101515e-12 1:120107 2:315414 3:236344 4:1831.16 5:5826.79 6:3.42308 7:109.722 8:26015.5 9:19 10:52 11:11 12:229 13:5384.2598 14:2309.74 15:156.08701 16:134.545 17:0.33333299 18:37.166698 19:0.30000001 20:0.50818503 21:0.31426501 22:0.92405301 23:11.2634 24:5.55056 # Flowers/Shape4/shape4-046.ppm
3.4339772532352305049520984101515e-12 1:131504 2:345897 3:229432 4:1797.33 5:5235.6499 6:3.2363601 7:110.089 8:10207 9:8 10:55 11:19 12:271 13:6069.3101 14:2390.98 15:150.40601 16:154.158 17:0.375 18:14.0556 19:0.447368 20:0.57317197 21:0.34328699 22:1.15923 23:4.26898 24:2.47191 # Flowers/Shape1/shape1-064.ppm
-3.4339772532352305049520984101515e-12 1:117596 2:363424 3:233960 4:1822.3199 5:4804.2002 6:3.2083299 7:111.236 8:24884.6 9:14 10:48 11:11 12:223 13:5373.4399 14:2449.9199 15:154.946 16:136.72701 17:0.33333299 18:13.8667 19:0.33333299 20:0.50263399 21:0.37931699 22:1.11849 23:10.1573 24:4.3636398 # Flowers/Shape4/shape4-086.ppm
3.4339772532352305049520984101515e-12 1:133202 2:342171 3:228430 4:1792.05 5:5745.8301 6:3.3898301 7:104.794 8:8494.8701 9:10 10:59 11:16 12:275 13:6009.9702 14:2257.6699 15:145.89101 16:157.562 17:0.37209299 18:14.2778 19:0.404762 20:0.583121 21:0.311887 22:1.04597 23:3.7626801 24:2.95 # Flowers/Shape1/shape1-084.ppm
-3.4339772532352305049520984101515e-12 1:118897 2:312759 3:235951 4:1825.34 5:5073.8301 6:3.2444401 7:117.406 8:26015.5 9:18 10:45 11:12 12:221 13:5341.0801 14:2642.1499 15:162.28999 16:143.75 17:0.36363599 18:35.833302 19:0.32352901 20:0.503905 21:0.35975501 22:1.05267 23:9.8463497 24:5.5479498 # Flowers/Shape4/shape4-005.ppm
3.4339772532352305049520984101515e-12 1:185305 2:455060 3:309677 4:2062.55 5:7013.98 6:3.38235 7:105.321 8:12076.3 9:12 10:68 11:24 12:332 13:7619.1299 14:2725.0801 15:151.52699 16:162.33299 17:0.38775501 18:12.28 19:0.33333299 20:0.598382 21:0.29406199 22:1.08628 23:4.43154 24:3.5478301 # Flowers/Shape1/shape1-097.ppm
-3.4339772532352305049520984101515e-12 1:178351 2:539676 3:369122 4:2355.05 5:7402.7598 6:3.3928599 7:113.037 8:55571.602 9:19 10:56 11:6 12:302 13:6125.77 14:3184.8401 15:140.474 16:109.167 17:0.40000001 18:13.381 19:0.217391 20:0.48317599 21:0.318131 22:0.82749897 23:17.448799 24:5.5999999 # Flowers/Shape4/shape4-030.ppm
3.4339772532352305049520984101515e-12 1:135057 2:266256 3:170500 4:1539.23 5:5695.1401 6:3.88571 7:105.861 8:54739.102 9:18 10:35 11:38 12:163 13:3801.4299 14:3858.76 15:152.73599 16:167.211 17:0.45833299 18:22.2857 19:0.25 20:0.79212099 21:0.27026999 22:0.66748798 23:14.1857 24:4.63235 # Flowers/Shape1/shape1-061.ppm
-3.4339772532352305049520984101515e-12 1:63188.199 2:222070 3:160188 4:1607.3199 5:2541.8501 6:2.9697001 7:125.569 8:8824.7305 9:10 10:33 11:7 12:161 13:3863.4199 14:1914.79 15:157.646 16:121 17:0.83333302 18:39.25 19:0.43478301 20:0.394463 21:0.63234401 22:1.51992 23:4.6087098 24:3.3673501 # Flowers/Shape4/shape4-062.ppm
3.4339772532352305049520984101515e-12 1:187053 2:455806 3:310283 4:2064.73 5:7635.0498 6:3.4054101 7:106.989 8:11689.9 9:12 10:74 11:25 12:335 13:7669.3799 14:2527.74 15:150.875 16:163.52 17:0.45098001 18:18.7059 19:0.32142901 20:0.60284603 21:0.270428 22:1.0045 23:4.62463 24:3.5238099 # Flowers/Shape1/shape1-077.ppm
-3.4339772532352305049520984101515e-12 1:115305 2:313632 3:235120 4:1827.61 5:4310.75 6:3 7:115.464 8:24328.5 9:13 10:42 11:10 12:223 13:5348.25 14:2745.3601 15:160.489 16:133.7 17:0.68000001 18:36.166698 19:0.3125 20:0.49040899 21:0.423967 22:1.24068 23:8.8616896 24:4.3333302 # Flowers/Shape4/shape4-026.ppm
3.4339772532352305049520984101515e-12 1:136210 2:265216 3:170444 4:1537.45 5:7009.21 6:4.0888901 7:101.05 8:53912.898 9:20 10:45 11:33 12:154 13:3801.45 14:3026.8999 15:156.16901 16:165.21201 17:0.25 18:21 19:0.153846 20:0.79914802 21:0.219348 22:0.54235101 23:17.8113 24:4.8913002 # Flowers/Shape1/shape1-081.ppm
-3.4339772532352305049520984101515e-12 1:81398.898 2:350594 3:186745 4:1722.28 5:3723 6:3.4210501 7:116.38 8:12469 9:12 10:38 11:9 12:158 13:4078.05 14:2142.0801 15:160.911 16:129.88901 17:0.46153799 18:30.6 19:0.31034499 20:0.43588299 21:0.46260601 22:1.0953701 23:5.8209801 24:3.50769 # Flowers/Shape4/shape4-081.ppm
3.4339772532352305049520984101515e-12 1:147957 2:265727 3:207974 4:1722.62 5:6340.7202 6:3.68627 7:103.409 8:28952.9 9:16 10:51 11:27 12:206 13:4892.5298 14:2901.1299 15:154.786 16:165.963 17:0.41666701 18:17.727301 19:0.27500001 20:0.71142101 21:0.271676 22:0.77160501 23:9.9798899 24:4.3404298 # Flowers/Shape1/shape1-022.ppm
-3.4339772532352305049520984101515e-12 1:81103 2:268660 3:187029 4:1719.88 5:3288.3501 6:3.2 7:120.156 8:14526.7 9:10 10:35 11:9 12:168 13:4132.1899 14:2317.23 15:162.70799 16:135.556 17:0.40000001 18:83 19:0.346154 20:0.43363899 21:0.52302003 22:1.25661 23:6.2690001 24:3.125 # Flowers/Shape4/shape4-041.ppm
3.4339772532352305049520984101515e-12 1:147099 2:327025 3:206920 4:1718.98 5:6308.1499 6:3.625 7:106.024 8:30790.699 9:16 10:48 11:28 12:211 13:4893.9902 14:3064.5601 15:152.23199 16:162.60699 17:0.41176501 18:16.5833 19:0.26315799 20:0.710899 21:0.27250099 22:0.77582097 23:10.0474 24:4.4137902 # Flowers/Shape1/shape1-062.ppm
-3.4339772532352305049520984101515e-12 1:81398.898 2:350594 3:186745 4:1722.28 5:3723 6:3.4210501 7:116.38 8:12469 9:12 10:38 11:9 12:158 13:4078.05 14:2142.0801 15:160.911 16:129.88901 17:0.46153799 18:30.6 19:0.31034499 20:0.43588299 21:0.46260601 22:1.0953701 23:5.8209801 24:3.50769 # Flowers/Shape4/shape4-080.ppm
3.4339772532352305049520984101515e-12 1:135542 2:241605 3:178473 4:1568.61 5:4911.6001 6:3.54286 7:97.292099 8:32685.1 9:15 10:35 11:31 12:183 13:4288.2598 14:3872.6299 15:155.50301 16:163.065 17:0.346154 18:17.299999 19:0.25 20:0.759453 21:0.319368 22:0.873088 23:8.4400396 24:4.23387 # Flowers/Shape1/shape1-006.ppm
-3.4339772532352305049520984101515e-12 1:81103 2:268660 3:187029 4:1719.88 5:3288.3501 6:3.2 7:120.156 8:14526.7 9:10 10:35 11:9 12:168 13:4132.1899 14:2317.23 15:162.70799 16:135.556 17:0.40000001 18:83 19:0.346154 20:0.43363899 21:0.52302003 22:1.25661 23:6.2690001 24:3.125 # Flowers/Shape4/shape4-040.ppm
3.4339772532352305049520984101515e-12 1:148886 2:326510 3:207343 4:1719.12 5:7072.98 6:3.70909 7:99.5839 8:30171.9 9:18 10:55 11:28 12:204 13:4837.71 14:2707.02 15:155.662 16:163.821 17:0.341463 18:21.6667 19:0.25 20:0.71806699 21:0.243054 22:0.68397099 23:11.1458 24:4.8529401 # Flowers/Shape1/shape1-082.ppm
-3.4339772532352305049520984101515e-12 1:79249.203 2:265029 3:185342 4:1713.24 5:3349.52 6:3.3513501 7:121.149 8:13684.8 9:10 10:37 11:9 12:169 13:4133.0898 14:2141.8701 15:161.57401 16:127.444 17:0.68181801 18:55.333302 19:0.37037 20:0.42758301 21:0.51148802 22:1.23394 23:6.3891702 24:2.98387 # Flowers/Shape4/shape4-021.ppm
3.4339772532352305049520984101515e-12 1:137003 2:242136 3:178919 4:1569.92 5:5045.27 6:3.52632 7:100.948 8:32685.1 9:15 10:38 11:30 12:182 13:4286.2798 14:3605.3501 15:152.533 16:166.267 17:0.31034499 18:15.5455 19:0.225806 20:0.76572698 21:0.31116599 22:0.84956402 23:9.0657396 24:4.2537298 # Flowers/Shape1/shape1-027.ppm
-3.4339772532352305049520984101515e-12 1:79249.203 2:265029 3:185342 4:1713.24 5:3349.52 6:3.3513501 7:121.149 8:13684.8 9:10 10:37 11:9 12:169 13:4133.0898 14:2141.8701 15:161.57401 16:127.444 17:0.68181801 18:55.333302 19:0.37037 20:0.42758301 21:0.51148802 22:1.23394 23:6.3891702 24:2.98387 # Flowers/Shape4/shape4-019.ppm
3.4339772532352305049520984101515e-12 1:137237 2:249216 3:178617 4:1569.49 5:6072.3599 6:3.80952 7:102.424 8:32685.1 9:20 10:42 11:30 12:177 13:4273.5298 14:3267.55 15:159.492 16:165.3 17:0.40000001 18:28.5 19:0.2 20:0.76833099 21:0.25846499 22:0.70376801 23:10.003 24:5.25 # Flowers/Shape1/shape1-087.ppm
-3.4339772532352305049520984101515e-12 1:77892.5 2:265558 3:185406 4:1713.67 5:2757.5901 6:3 7:123.55 8:13273.2 9:8 10:30 11:7 12:167 13:4126.3999 14:2596.4199 15:163.024 16:111.857 17:0.66666698 18:40.75 19:0.36363599 20:0.42011899 21:0.62143803 22:1.49638 23:5.1121302 24:2.6666701 # Flowers/Shape4/shape4-060.ppm
3.4339772532352305049520984101515e-12 1:137273 2:240620 3:178689 4:1568.64 5:5657.6401 6:3.46667 7:106.324 8:32047.4 9:15 10:45 11:30 12:183 13:4286.8398 14:3050.52 15:154.82001 16:166.267 17:0.285714 18:17.299999 19:0.184211 20:0.768224 21:0.27726099 22:0.75770801 23:10.5056 24:4.32692 # Flowers/Shape1/shape1-047.ppm
-3.4339772532352305049520984101515e-12 1:77892.5 2:265558 3:185406 4:1713.67 5:2757.5901 6:3 7:123.55 8:13273.2 9:8 10:30 11:7 12:167 13:4126.3999 14:2596.4199 15:163.024 16:111.857 17:0.66666698 18:40.75 19:0.36363599 20:0.42011899 21:0.62143803 22:1.49638 23:5.1121302 24:2.6666701 # Flowers/Shape4/shape4-020.ppm
3.4339772532352305049520984101515e-12 1:149927 2:262728 3:206524 4:1714.76 5:6701.5 6:3.5849099 7:104.788 8:32685.1 9:18 10:53 11:27 12:200 13:4808.48 14:2828.8101 15:157.64 16:164.741 17:0.29268301 18:39 19:0.232558 20:0.72595203 21:0.25587699 22:0.71752298 23:11.5544 24:5.02105 # Flowers/Shape1/shape1-042.ppm
-3.4339772532352305049520984101515e-12 1:90291.5 2:327932 3:212664 4:1901.91 5:3775.79 6:3.1428599 7:113.456 8:12469 9:9 10:42 11:15 12:194 13:4705.9199 14:2149.8 15:159.155 16:150.067 17:0.354839 18:20.555599 19:0.40000001 20:0.424575 21:0.503712 22:1.24634 23:5.8000698 24:2.8636401 # Flowers/Shape4/shape4-037.ppm
3.4339772532352305049520984101515e-12 1:138058 2:249216 3:178886 4:1569.38 5:5629.9399 6:3.61905 7:103.745 8:31415.9 9:16 10:42 11:30 12:176 13:4290.2998 14:3287.1001 15:157.517 16:165.39999 17:0.40000001 18:28.3333 19:0.2 20:0.77176499 21:0.27875599 22:0.76204997 23:9.5573301 24:4.4210501 # Flowers/Shape1/shape1-067.ppm
-3.4339772532352305049520984101515e-12 1:78093.398 2:269240 3:187052 4:1721.53 5:2798.6399 6:3.0344801 7:120.661 8:16741.5 9:9 10:29 11:8 12:172 13:4171.9199 14:2692.8799 15:159.75 16:134.875 17:0.44999999 18:33.400002 19:0.44999999 20:0.41749701 21:0.61513197 22:1.4907 23:6.21698 24:2.96591 # Flowers/Shape4/shape4-000.ppm
3.4339772532352305049520984101515e-12 1:151412 2:267344 3:207694 4:1722.55 5:6874.1401 6:3.6981101 7:103.909 8:33329.199 9:18 10:53 11:26 12:209 13:4870.2202 14:2856.8401 15:154.27299 16:165 17:0.35897401 18:18 19:0.26190501 20:0.72901601 21:0.25058401 22:0.70848501 23:11.6665 24:4.8673501 # Flowers/Shape1/shape1-001.ppm
-3.4339772532352305049520984101515e-12 1:107932 2:356964 3:256969 4:2051.03 5:4428.8501 6:3.31707 7:120.211 8:21642.4 9:13 10:41 11:5 12:202 13:4825.73 14:2632.49 15:157.32201 16:94.400002 17:0.413793 18:15.8333 19:0.366667 20:0.42002001 21:0.46310699 22:1.08961 23:8.2212696 24:3.9191201 # Flowers/Shape4/shape4-078.ppm
3.4339772532352305049520984101515e-12 1:156058 2:313560 3:207923 4:1690.6801 5:5969.46 6:3.5999999 7:101.359 8:33329.199 9:15 10:45 11:31 12:208 13:4861.6899 14:3467.96 15:150.88901 16:163.452 17:0.32352901 18:15 19:0.216216 20:0.75055701 21:0.28322101 22:0.81442702 23:9.6106005 24:4.1666698 # Flowers/Shape1/shape1-080.ppm
-3.4339772532352305049520984101515e-12 1:80658 2:261072 3:205357 4:1726.6 5:3055.9099 6:2.63415 7:129.373 8:19113.4 9:12 10:41 11:9 12:214 13:5124.6001 14:1967.27 15:153.537 16:129.88901 17:0.464286 18:15.4615 19:0.413793 20:0.39276901 21:0.56500399 22:1.67695 23:9.7157402 24:4.5555601 # Flowers/Shape4/shape4-029.ppm
3.4339772532352305049520984101515e-12 1:149196 2:283550 3:196634 4:1657.34 5:5102.8101 6:3.7297299 7:102.921 8:21642.4 9:13 10:37 11:30 12:196 13:4662.8101 14:4032.3201 15:155.041 16:164.733 17:0.54166698 18:20.7778 19:0.32142901 20:0.75875002 21:0.32479 22:0.913773 23:5.36724 24:3.4855101 # Flowers/Shape1/shape1-078.ppm
-3.4339772532352305049520984101515e-12 1:86604.898 2:326656 3:211690 4:1897.91 5:3121.5601 6:3.0285699 7:116.873 8:11689.9 9:6 10:35 11:14 12:190 13:4673.3901 14:2474.4299 15:161.80499 16:153.286 17:0.40000001 18:20.111099 19:0.45833299 20:0.40911099 21:0.60800099 22:1.49713 23:4.7242699 24:1.98113 # Flowers/Shape4/shape4-057.ppm
3.4339772532352305049520984101515e-12 1:148337 2:256800 3:196856 4:1656.85 5:5019.6899 6:3.6216199 7:101.34 8:22167.1 9:13 10:37 11:30 12:194 13:4670.4302 14:4009.1001 15:153.407 16:165.433 17:0.54166698 18:23.25 19:0.27586201 20:0.75352901 21:0.33006999 22:0.93042201 23:5.5291901 24:3.58955 # Flowers/Shape1/shape1-038.ppm
-3.4339772532352305049520984101515e-12 1:79480.203 2:261576 3:204552 4:1721.3101 5:3413.5701 6:3.0526299 7:124.577 8:20106.199 9:15 10:38 11:7 12:207 13:5058.6802 14:2091.5801 15:155.93201 16:117.714 17:0.26666701 18:16.25 19:0.40740699 20:0.388558 21:0.50425398 22:1.48193 23:9.6128998 24:4.9137902 # Flowers/Shape4/shape4-049.ppm
3.4339772532352305049520984101515e-12 1:150682 2:283023 3:196272 4:1656.76 5:5316.0698 6:3.58974 7:101.861 8:23235.199 9:13 10:39 11:36 12:192 13:4655.2598 14:3863.6299 15:155.422 16:166.08299 17:0.444444 18:20.3333 19:0.25806499 20:0.76771897 21:0.31165099 22:0.87569398 23:6.0138202 24:3.6214299 # Flowers/Shape1/shape1-098.ppm
-3.4339772532352305049520984101515e-12 1:79926.398 2:262636 3:205508 4:1722.37 5:3901.4099 6:3.2272699 7:115.735 8:21642.4 9:17 10:44 11:9 12:215 13:5072.9902 14:1816.51 15:152.995 16:132.66701 17:0.466667 18:15.5385 19:0.33333299 20:0.38892201 21:0.441475 22:1.3003 23:11.9143 24:5.2676101 # Flowers/Shape4/shape4-008.ppm
3.4339772532352305049520984101515e-12 1:148305 2:256265 3:196682 4:1655.58 5:5472.9302 6:3.61905 7:100.245 8:22167.1 9:13 10:42 11:30 12:191 13:4671.04 14:3531.0601 15:154.267 16:165.633 17:0.40000001 18:20.2222 19:0.235294 20:0.754031 21:0.30250299 22:0.85348099 23:6.27773 24:3.5921099 # Flowers/Shape1/shape1-058.ppm
-3.4339772532352305049520984101515e-12 1:126623 2:390616 3:298272 4:2047.9399 5:5341.1401 6:3.2156899 7:114.991 8:35298.898 9:17 10:51 11:9 12:292 13:6093.2402 14:2482.8101 15:138.185 16:130.88901 17:0.41666701 18:7.5882401 19:0.342105 20:0.424523 21:0.38342699 22:1.14081 23:14.2173 24:5.2865901 # Flowers/Shape4/shape4-011.ppm
-3.4339772532352305049520984101515e-12 1:66214.203 2:306936 3:161744 4:1619.6 5:3056.6399 6:3.11111 7:114.408 8:15393.8 9:13 10:36 11:9 12:166 13:3857.54 14:1839.28 15:151.675 16:128.33299 17:0.384615 18:10.8571 19:0.384615 20:0.409376 21:0.52986199 22:1.26202 23:8.3694601 24:4.1785698 # Flowers/Shape4/shape4-042.ppm
-3.4339772532352305049520984101515e-12 1:79331.297 2:349366 3:186842 4:1721.09 5:3054.5 6:3.2121201 7:107.959 8:17203.4 9:9 10:33 11:11 12:170 13:4126.1001 14:2403.98 15:157.241 16:138.455 17:0.5 18:23.2857 19:0.43478301 20:0.42458999 21:0.56345999 22:1.3508199 23:7.1561999 24:2.8018899 # Flowers/Shape4/shape4-061.ppm
3.4339772532352305049520984101515e-12 1:148902 2:257335 3:196871 4:1657.04 5:5454.2798 6:3.55 7:104.569 8:22167.1 9:13 10:40 11:30 12:194 13:4685.2598 14:3722.5601 15:153.53101 16:165.467 17:0.29032299 18:15.1667 19:0.25 20:0.75634599 21:0.30380601 22:0.85900801 23:5.9547901 24:3.6619699 # Flowers/Shape1/shape1-017.ppm
3.4339772532352305049520984101515e-12 1:156340 2:264132 3:208178 4:1693.03 5:5671.4902 6:3.5 7:101.764 8:30790.699 9:15 10:44 11:33 12:208 13:4864.02 14:3553.1799 15:148.726 16:165.121 17:0.375 18:15 19:0.189189 20:0.750992 21:0.29851499 22:0.85762697 23:8.6656904 24:4.2857099 # Flowers/Shape1/shape1-060.ppm
3.4339772532352305049520984101515e-12 1:197287 2:380474 3:271804 4:1942.89 5:8204.3203 6:3.7777801 7:110.647 8:35298.898 9:19 10:54 11:30 12:200 13:5588.8398 14:3653.47 15:160.78 16:165.10001 17:0.384615 18:21.2222 19:0.173913 20:0.72584498 21:0.23681299 22:0.681207 23:9.6617603 24:5.0294099 # Flowers/Shape1/shape1-063.ppm
-3.4339772532352305049520984101515e-12 1:127527 2:398145 3:301150 4:2057.3101 5:5414.9902 6:3.1923101 7:120.974 8:35298.898 9:18 10:52 11:8 12:285 13:6135.52 14:2452.4299 15:136.42101 16:134.5 17:0.40540501 18:7.6363602 19:0.33333299 20:0.423466 21:0.37992901 22:1.13306 23:14.3934 24:5.6385498 # Flowers/Shape4/shape4-052.ppm
3.4339772532352305049520984101515e-12 1:197356 2:389327 3:272836 4:1946.41 5:7642.9502 6:3.7735801 7:102.279 8:26590.4 9:15 10:53 11:31 12:235 13:5695.04 14:3723.7 15:157.694 16:164.323 17:0.472222 18:17.0769 19:0.20454501 20:0.72334898 21:0.25466701 22:0.74513602 23:7.1408701 24:3.9749999 # Flowers/Shape1/shape1-002.ppm
-3.4339772532352305049520984101515e-12 1:104518 2:351816 3:254756 4:1912.97 5:4449.9199 6:3.0833299 7:115.89 8:24884.6 9:13 10:48 11:10 12:238 13:5944.0498 14:2177.47 15:161.508 16:138.10001 17:0.371429 18:22.799999 19:0.371429 20:0.41026899 21:0.42988801 22:1.33577 23:11.4282 24:4.2162199 # Flowers/Shape4/shape4-076.ppm
3.4339772532352305049520984101515e-12 1:199778 2:390600 3:274610 4:1951.1899 5:7906.52 6:3.7818201 7:98.254898 8:33329.199 9:17 10:55 11:32 12:237 13:5701.6499 14:3632.3301 15:154.882 16:168.875 17:0.61764699 18:13.8125 19:0.19565199 20:0.72749698 21:0.246782 22:0.72113401 23:9.1756897 24:4.4951901 # Flowers/Shape1/shape1-023.ppm
-3.4339772532352305049520984101515e-12 1:127394 2:396268 3:301650 4:2060.75 5:5776.7798 6:3.14815 7:117.586 8:38013.301 9:20 10:54 11:6 12:290 13:6097.5498 14:2359.1499 15:137.12801 16:111.167 17:0.34999999 18:9.3571396 19:0.31707299 20:0.42232499 21:0.356729 22:1.05553 23:16.1131 24:6.3529401 # Flowers/Shape4/shape4-032.ppm
3.4339772532352305049520984101515e-12 1:198664 2:382277 3:273598 4:1948.59 5:7625.3501 6:3.68627 7:105.912 8:32685.1 9:16 10:51 11:30 12:190 13:5551.7798 14:3895.3701 15:164.847 16:164.567 17:0.378378 18:30.6667 19:0.186047 20:0.72611398 21:0.255541 22:0.72807002 23:8.39077 24:4.3404298 # Flowers/Shape1/shape1-083.ppm
-3.4339772532352305049520984101515e-12 1:88160.102 2:332304 3:214536 4:1910.3101 5:3653.0701 6:3.1428599 7:117.747 8:26015.5 9:14 10:35 11:15 12:198 13:4761.1899 14:2518.8601 15:155.72701 16:151.33299 17:0.40000001 18:23.75 19:0.346154 20:0.41093299 21:0.52293402 22:1.30334 23:10.3283 24:4.4545498 # Flowers/Shape4/shape4-016.ppm
3.4339772532352305049520984101515e-12 1:200843 2:389958 3:273710 4:1948.63 5:8821.8896 6:3.8620701 7:106.482 8:30790.699 9:19 10:58 11:31 12:239 13:5623.6602 14:3462.8 15:156.946 16:163.323 17:0.44999999 18:16.0714 19:0.16 20:0.73377699 21:0.22088499 22:0.63746703 23:8.89186 24:4.9196401 # Flowers/Shape1/shape1-043.ppm
-3.4339772532352305049520984101515e-12 1:94120.797 2:332928 3:235224 4:1821.3101 5:3822.1101 6:2.9047599 7:126.475 8:24884.6 9:16 10:42 11:8 12:237 13:5539.3701 14:2240.97 15:152.03 16:135.25 17:0.615385 18:9.7727299 19:0.40000001 20:0.400132 21:0.47652 22:1.4493001 23:11.1044 24:5.5082002 # Flowers/Shape4/shape4-091.ppm
3.4339772532352305049520984101515e-12 1:210724 2:418836 3:271231 4:1928.91 5:8456.1299 6:3.95455 7:101.723 8:75476.797 9:24 10:44 11:36 12:209 13:4879.4102 14:4789.1802 15:154.325 16:166.36099 17:0.41935501 18:22.2222 19:0.157895 20:0.77691698 21:0.228108 22:0.57702601 23:15.7598 24:6.0689702 # Flowers/Shape1/shape1-068.ppm
-3.4339772532352305049520984101515e-12 1:126661 2:466050 3:299416 4:2052.6101 5:5199.7998 6:3.0188701 7:118.308 8:39408.102 9:16 10:53 11:9 12:298 13:6107.0801 14:2389.8201 15:142.05 16:128.11099 17:0.39473701 18:9.6428604 19:0.29268301 20:0.42302501 21:0.39474699 22:1.17448 23:16.49 24:5.3000002 # Flowers/Shape4/shape4-072.ppm
3.4339772532352305049520984101515e-12 1:192935 2:332346 3:224522 4:1740.13 5:7891.27 6:3.9565201 7:101.779 8:57255.5 9:21 10:46 11:39 12:191 13:4581.5498 14:4194.23 15:154.717 16:169.436 17:0.48387101 18:18.1 19:0.24324299 20:0.85931098 21:0.220513 22:0.580585 23:13.651 24:5.3076901 # Flowers/Shape1/shape1-099.ppm
-3.4339772532352305049520984101515e-12 1:93097.703 2:328548 3:233696 4:1814.37 5:3342.55 6:2.8 7:119.736 8:24328.5 9:12 10:40 11:10 12:231 13:5580.4902 14:2327.4399 15:151.922 16:134.8 17:0.53846198 18:11.8333 19:0.33333299 20:0.39837 21:0.54281002 22:1.66953 23:10.4529 24:4.2857099 # Flowers/Shape4/shape4-051.ppm
3.4339772532352305049520984101515e-12 1:212952 2:420090 3:271645 4:1931.61 5:8819.5596 6:4.0377402 7:102.696 8:67886.703 9:20 10:53 11:36 12:209 13:4895.5601 14:4017.96 15:153.70799 16:165.75 17:0.26190501 18:19.9 19:0.12766001 20:0.78393501 21:0.219015 22:0.55508 23:16.8958 24:4.95327 # Flowers/Shape1/shape1-088.ppm
-3.4339772532352305049520984101515e-12 1:100535 2:354510 3:256235 4:2049.75 5:4033.6699 6:3.2432401 7:116.783 8:21642.4 9:15 10:37 11:6 12:194 13:4788.29 14:2717.1499 15:159.577 16:111 17:0.27586201 18:26.7143 19:0.32142901 20:0.392353 21:0.50815898 22:1.18708 23:7.9651098 24:4.625 # Flowers/Shape4/shape4-098.ppm
3.4339772532352305049520984101515e-12 1:214888 2:436437 3:270925 4:1965.83 5:7487.71 6:3.9473701 7:106.527 8:64242.398 9:20 10:38 11:36 12:219 13:4688.4302 14:5654.9302 15:147.959 16:165.806 17:0.46153799 18:11.8824 19:0.15151501 20:0.79316199 21:0.262541 22:0.62615001 23:11.3604 24:5.0666699 # Flowers/Shape1/shape1-066.ppm
-3.4339772532352305049520984101515e-12 1:100718 2:393808 3:252776 4:1906.5 5:3803.3799 6:2.9047599 7:119.914 8:22167.1 9:12 10:42 11:9 12:263 13:5984.7002 14:2398.04 15:153.696 16:128 17:0.615385 18:15.4375 19:0.354839 20:0.39844501 21:0.501266 22:1.5735199 23:9.2438297 24:4.1311498 # Flowers/Shape4/shape4-015.ppm
3.4339772532352305049520984101515e-12 1:193238 2:287832 3:224309 4:1740.11 5:8262.3496 6:3.9200001 7:98.986298 8:56410.398 9:21 10:50 11:47 12:195 13:4550.8398 14:3864.76 15:154.595 16:171.40401 17:0.470588 18:23.375 19:0.219512 20:0.86148202 21:0.21060701 22:0.55079198 23:14.5961 24:5.3571401 # Flowers/Shape1/shape1-059.ppm
-3.4339772532352305049520984101515e-12 1:92796.203 2:329904 3:236374 4:1823.77 5:3711.02 6:2.9302299 7:119.036 8:24328.5 9:14 10:43 11:9 12:235 13:5622.1099 14:2158.05 15:151.07201 16:128.33299 17:0.65384603 18:10.75 19:0.387097 20:0.392582 21:0.49144599 22:1.51498 23:11.2734 24:4.7777801 # Flowers/Shape4/shape4-010.ppm
3.4339772532352305049520984101515e-12 1:190386 2:287830 3:223638 4:1736.3199 5:8086.9302 6:3.8113201 7:102.691 8:40115 9:17 10:53 11:35 12:210 13:4600.5898 14:3592.1799 15:148.87601 16:167.086 17:0.39473701 18:18.0909 19:0.152174 20:0.85131001 21:0.214706 22:0.568892 23:11.1673 24:4.4604001 # Flowers/Shape1/shape1-039.ppm
-3.4339772532352305049520984101515e-12 1:64545.602 2:304818 3:159980 4:1612.77 5:3000.4199 6:3.0555601 7:121.257 8:14102.6 9:13 10:36 11:7 12:169 13:3925.8799 14:1792.9301 15:149.24899 16:121 17:0.384615 18:11.0714 19:0.33333299 20:0.40345901 21:0.53751701 22:1.30845 23:7.8656702 24:4.25455 # Flowers/Shape4/shape4-001.ppm
3.4339772532352305049520984101515e-12 1:208922 2:326350 3:271396 4:1929.4301 5:7148.5601 6:3.9047599 7:96.237701 8:69746.5 9:18 10:42 11:36 12:216 13:4872.3198 14:4974.3198 15:155.685 16:165.41701 17:0.555556 18:35 19:0.166667 20:0.76980501 21:0.269905 22:0.68158001 23:14.0213 24:4.6097598 # Flowers/Shape1/shape1-048.ppm
3.4339772532352305049520984101515e-12 1:193423 2:331194 3:224396 4:1738.66 5:8752.0898 6:3.7377 7:106.617 8:40115 9:16 10:61 11:45 12:203 13:4581.8799 14:3170.8701 15:143.714 16:171.04401 17:0.29787201 18:9.1499996 19:0.173077 20:0.86197102 21:0.19865701 22:0.52351803 23:12.6511 24:4.2807002 # Flowers/Shape1/shape1-079.ppm
-3.4339772532352305049520984101515e-12 1:63147.5 2:307848 3:162258 4:1619.22 5:2530.73 6:3.0666699 7:119.016 8:9160.8799 9:8 10:30 11:9 12:164 13:3887.6599 14:2104.9199 15:151.76801 16:132.778 17:0.5 18:10.7143 19:0.42857099 20:0.38917899 21:0.63982099 22:1.53618 23:4.3521399 24:2.6087 # Flowers/Shape4/shape4-022.ppm
3.4339772532352305049520984101515e-12 1:210225 2:326808 3:271607 4:1929.0601 5:8541.7002 6:4.0454502 7:104.44 8:77437.102 9:24 10:44 11:36 12:217 13:4887.9102 14:4777.8398 15:151.25301 16:166.41701 17:0.222222 18:30 19:0.157895 20:0.77400398 21:0.22584 22:0.57224101 23:16.2076 24:5.93258 # Flowers/Shape1/shape1-028.ppm
-3.4339772532352305049520984101515e-12 1:92587.203 2:333732 3:235674 4:1822.11 5:3767.5701 6:2.9047599 7:125.688 8:24884.6 9:14 10:42 11:7 12:232 13:5581.0698 14:2204.46 15:151.647 16:119.286 17:0.5 18:12.6471 19:0.40000001 20:0.39286101 21:0.48362899 22:1.4813499 23:11.2883 24:4.8196702 # Flowers/Shape4/shape4-071.ppm
3.4339772532352305049520984101515e-12 1:210223 2:325280 3:271244 4:1928.64 5:7917.8999 6:3.9047599 7:105.098 8:76453.797 9:22 10:42 11:37 12:218 13:4889.6099 14:5005.2998 15:152.44501 16:166.946 17:0.555556 18:26.25 19:0.166667 20:0.77503097 21:0.243579 22:0.61753798 23:15.2746 24:5.63415 # Flowers/Shape1/shape1-007.ppm
-3.4339772532352305049520984101515e-12 1:89498.703 2:327188 3:233356 4:1813.46 5:3539.52 6:2.9047599 7:118.938 8:22698 9:12 10:42 11:8 12:232 13:5586.23 14:2130.9199 15:150.707 16:135.25 17:0.555556 18:12.6471 19:0.40000001 20:0.38352999 21:0.51234698 22:1.57824 23:10.6517 24:4.1311498 # Flowers/Shape4/shape4-031.ppm
-3.4339772532352305049520984101515e-12 1:96194.398 2:351268 3:254390 4:1910.9 5:3608.6399 6:2.92308 7:122.613 8:24328.5 9:11 10:39 11:10 12:256 13:5932.8398 14:2466.52 15:155.51199 16:135.8 17:0.5 18:22.272699 19:0.30000001 20:0.37813699 21:0.52953398 22:1.64406 23:9.8634796 24:3.76316 # Flowers/Shape4/shape4-096.ppm
-3.4339772532352305049520984101515e-12 1:91045.297 2:339864 3:244206 4:1855.0699 5:3310.6799 6:2.9473701 7:116.743 8:16741.5 9:11 10:38 11:10 12:263 13:5749.5498 14:2395.9299 15:148.095 16:136 17:0.72727299 18:15.4375 19:0.58333302 20:0.372821 21:0.56032997 22:1.73667 23:6.9875002 24:3.7321401 # Flowers/Shape4/shape4-088.ppm
3.4339772532352305049520984101515e-12 1:238912 2:440914 3:288834 4:2027.28 5:8642.5898 6:3.63077 7:108.994 8:53912.898 9:6 10:65 11:47 12:246 13:6227.6899 14:3675.5701 15:155.51199 16:171.702 17:0.444444 18:17.9231 19:0.160714 20:0.82716101 21:0.234568 22:0.720581 23:14.6679 24:1.65254 # Flowers/Shape1/shape1-015.ppm
-3.4339772532352305049520984101515e-12 1:79116.102 2:333074 3:206236 4:1725.4399 5:3208.8799 6:2.7618999 7:130.095 8:21124.1 9:12 10:42 11:8 12:215 13:5124.7798 14:1883.72 15:150.605 16:135.125 17:0.68000001 18:12.4375 19:0.354839 20:0.383618 21:0.53770602 22:1.59706 23:11.214 24:4.34483 # Flowers/Shape4/shape4-069.ppm
-3.4339772532352305049520984101515e-12 1:92998.797 2:359600 3:242416 4:1848.4 5:3794.26 6:2.9787199 7:122.527 8:17671.5 9:12 10:47 11:11 12:253 13:5819.2202 14:1978.7 15:149.08701 16:141.091 17:0.67857099 18:15.8667 19:0.46875 20:0.383634 21:0.487156 22:1.53369 23:8.93085 24:4.0285702 # Flowers/Shape4/shape4-028.ppm
2.9424683995823076849727896480867e-12 1:198303 2:291328 3:227124 4:1732.11 5:8953.79 6:3.7959199 7:106.036 8:92940.898 9:27 10:49 11:44 12:190 13:4276.71 14:4047 15:150.12601 16:168.341 17:0.36111099 18:22.75 19:0.166667 20:0.87310702 21:0.19345 22:0.477642 23:22.965401 24:7.1128998 # Flowers/Shape1/shape1-030.ppm
-6.3943453337146808052022075100074e-13 1:198245 2:693517 3:507314 4:2783.3101 5:8413.9297 6:3.3698599 7:119.659 8:59828.5 9:17 10:73 11:6 12:343 13:7385.0298 14:2715.6799 15:155.73199 16:103.5 17:0.403846 18:27.5833 19:0.216667 20:0.39077401 21:0.330798 22:0.87771398 23:22.030701 24:5.0447202 # Flowers/Shape4/shape4-014.ppm
3.4339772532352305049520984101515e-12 1:247102 2:444310 3:292838 4:2038.36 5:11027.4 6:3.65432 7:110.056 8:16286 9:9 10:81 11:54 12:254 13:6213.0898 14:3050.6499 15:153.69701 16:171.519 17:0.42105299 18:13.9412 19:0.208955 20:0.84382099 21:0.184844 22:0.56342101 23:5.3385501 24:2.4628401 # Flowers/Shape1/shape1-056.ppm
-3.4339772532352305049520984101515e-12 1:86617.102 2:340158 3:231469 4:1887.12 5:3478.9099 6:2.9523799 7:121.232 8:14102.6 9:11 10:42 11:10 12:233 13:5460.2798 14:2062.3101 15:158.584 16:134.7 17:0.555556 18:24.888901 19:0.3125 20:0.37420601 21:0.54244602 22:1.56954 23:6.8382502 24:3.7258101 # Flowers/Shape4/shape4-018.ppm
-3.4339772532352305049520984101515e-12 1:94138.797 2:366124 3:247496 4:1866.38 5:4119.3999 6:3.05882 7:116.095 8:16286 9:12 10:51 11:10 12:270 13:5919.6499 14:1845.86 15:142.10699 16:139.3 17:0.378378 18:10.25 19:0.45714301 20:0.380366 21:0.45307001 22:1.4370199 23:8.823 24:3.92308 # Flowers/Shape4/shape4-048.ppm
3.4339772532352305049520984101515e-12 1:194985 2:288904 3:224838 4:1741.11 5:9684.9805 6:3.90769 7:106.815 8:34636.102 9:18 10:65 11:44 12:200 13:4600.3799 14:2999.77 15:150.875 16:167.795 17:0.35416701 18:17.181801 19:0.18181799 20:0.86722398 21:0.179774 22:0.47500199 23:11.5462 24:4.6062999 # Flowers/Shape1/shape1-018.ppm
-3.4339772532352305049520984101515e-12 1:92825.703 2:364868 3:245155 4:1857.73 5:3655.3701 6:2.86957 7:117.5 8:15836.8 9:12 10:46 11:10 12:255 13:5827.8701 14:2017.95 15:154.075 16:138.89999 17:0.58620697 18:18.6154 19:0.4375 20:0.37864101 21:0.50822002 22:1.59433 23:7.84795 24:4.1818199 # Flowers/Shape4/shape4-007.ppm
3.4339772532352305049520984101515e-12 1:245464 2:445095 3:293847 4:2039.99 5:10930.2 6:3.8499999 7:108.61 8:27171.6 9:16 10:80 11:51 12:264 13:6209.0601 14:3068.3 15:152.25 16:171.431 17:0.45454499 18:17.8571 19:0.23076899 20:0.835347 21:0.186638 22:0.56806397 23:8.8555899 24:4.1558399 # Flowers/Shape1/shape1-036.ppm
3.4339772532352305049520984101515e-12 1:216485 2:331911 3:271630 4:1967.21 5:6806.2402 6:3.94118 7:100.62 8:54739.102 9:17 10:34 11:42 12:224 13:4730.8301 14:6367.2002 15:144.759 16:167.619 17:0.47826099 18:17.6667 19:0.172414 20:0.796983 21:0.28902999 22:0.69507301 23:8.5970402 24:4.3134298 # Flowers/Shape1/shape1-026.ppm
-2.2560786532598641102185515615493e-12 1:97325 2:397150 3:258216 4:1918.63 5:3533.96 6:2.8205099 7:130.63901 8:21642.4 9:12 10:39 11:9 12:249 13:6013.3501 14:2495.51 15:157.19701 16:129.11099 17:0.625 18:15.6 19:0.30000001 20:0.376912 21:0.54291099 22:1.7015899 23:8.6725397 24:4.25455 # Flowers/Shape4/shape4-056.ppm
