SVM-light Version V6.02
0 # kernel type
3 # kernel parameter -d 
1 # kernel parameter -g 
1 # kernel parameter -s 
1 # kernel parameter -r 
empty# kernel parameter -u 
24 # highest feature index 
200 # number of training documents 
165 # number of support vectors plus 1 
1.8591671 # threshold b, each following line is a SV (starting with alpha*y)
-2.3158525867030845362138140024182e-12 1:126497 2:243432 3:173520 4:1534.14 5:4957.6802 6:3.25581 7:100.742 8:32047.4 9:15 10:43 11:25 12:205 13:4719.4902 14:2941.78 15:149.24899 16:165.16 17:0.34375 18:11.8125 19:0.30303001 20:0.72900498 21:0.30944699 22:0.95195502 23:10.8939 24:4.6071401 # Flowers/Shape1/shape1-004.ppm
2.3158525867030845362138140024182e-12 1:169525 2:405573 3:290725 4:2046.8 5:7595.7798 6:3.5185201 7:111.044 8:26590.4 9:14 10:54 11:22 12:239 13:5624.5098 14:3139.3401 15:146.59399 16:157.091 17:0.285714 18:13.9375 19:0.148936 20:0.58310997 21:0.26946601 22:0.74047798 23:8.4700603 24:3.97895 # Flowers/Shape5/shape5-000.ppm
-2.3158525867030845362138140024182e-12 1:456668 2:894688 3:682528 4:3262.3899 5:19787 6:4.0229902 7:113.236 8:174974 9:32 10:87 11:6 12:245 13:7564.2202 14:5249.0498 15:169.14301 16:107.833 17:0.225352 18:80.666702 19:0.12987 20:0.66908199 21:0.164876 22:0.382283 23:33.3344 24:7.9542899 # Flowers/Shape4/shape4-012.ppm
2.3158525867030845362138140024182e-12 1:112018 2:307615 3:204417 4:1737.55 5:4171.6699 6:3.2432401 7:97.216904 8:18145.801 9:12 10:37 11:17 12:198 13:4763.3301 14:3027.52 15:150.263 16:154 17:0.32142901 18:10.6471 19:0.37037 20:0.54798901 21:0.416511 22:1.14183 23:5.9936299 24:3.7 # Flowers/Shape5/shape5-011.ppm
-1.4043142132266750472109288676932e-12 1:48000.199 2:175824 3:123027 4:1301.58 5:1800.4301 6:2.6400001 7:116.854 8:15836.8 9:10 10:25 11:9 12:193 13:4182.1201 14:1920.01 15:143.565 16:130.556 17:0.66666698 18:9.1578903 19:0.31578901 20:0.39015999 21:0.72292298 22:2.32284 23:8.2482796 24:3.7878799 # Flowers/Shape4/shape4-006.ppm
2.3158525867030845362138140024182e-12 1:216732 2:618526 3:419858 4:2468.3701 5:9843.5996 6:3.5 7:102.465 8:14102.6 9:10 10:80 11:12 12:305 13:7314.8101 14:2709.1499 15:155.216 16:139 17:0.29032299 18:26.727301 19:0.17647099 20:0.51620299 21:0.25075901 22:0.74310303 23:5.2055402 24:2.8571401 # Flowers/Shape5/shape5-096.ppm
-2.3158525867030845362138140024182e-12 1:394536 2:834000 3:644484 4:3044.3101 5:16471.5 6:3.6347799 7:105.525 8:6361.73 9:7 10:115 11:25 12:342 13:9686.1504 14:3430.75 15:164.582 16:165.24001 17:0.47435901 18:47.857101 19:0.18556701 20:0.61217302 21:0.18482301 22:0.58805299 23:1.8543299 24:1.92584 # Flowers/Shape2/shape2-018.ppm
2.3158525867030845362138140024182e-12 1:114852 2:309246 3:204880 4:1737.84 5:4840.8101 6:3.26087 7:104.269 8:17203.4 9:10 10:46 11:17 12:194 13:4741.1401 14:2496.78 15:148.851 16:154.118 17:0.31428599 18:13.9231 19:0.210526 20:0.56058103 21:0.358998 22:0.97941202 23:6.8902102 24:3.0666699 # Flowers/Shape5/shape5-032.ppm
-2.3158525867030845362138140024182e-12 1:275417 2:363975 3:284092 4:1898.45 5:11335.1 6:3.45455 7:117.737 8:2463.01 9:4 10:99 11:74 12:310 13:7268.3501 14:2781.99 15:150.09 16:174.189 17:0.47761199 18:17.2353 19:0.2375 20:0.96946597 21:0.167484 22:0.64122403 23:0.88534099 24:1.15789 # Flowers/Shape3/shape3-016.ppm
2.3158525867030845362138140024182e-12 1:238323 2:554125 3:387308 4:2294.77 5:9923.8799 6:3.5733299 7:102.176 8:17671.5 9:12 10:75 11:25 12:340 13:8021.2202 14:3177.6399 15:152.271 16:164.56 17:0.44230801 18:17.888901 19:0.190476 20:0.61533302 21:0.23123699 22:0.80827397 23:5.5611901 24:3.3582101 # Flowers/Shape5/shape5-069.ppm
-2.3158525867030845362138140024182e-12 1:496561 2:785955 3:607458 4:2876.2 5:19073.699 6:3.54795 7:109.683 8:24884.6 9:8 10:146 11:34 12:361 13:11131.8 14:3401.1001 15:168.089 16:167.32401 17:0.431373 18:59.166698 19:0.237288 20:0.81743997 21:0.150794 22:0.58362198 23:7.3166199 24:2.2548299 # Flowers/Shape2/shape2-011.ppm
2.3158525867030845362138140024182e-12 1:114225 2:310960 3:206048 4:1739.59 5:5094.8301 6:3.4166701 7:107.172 8:17671.5 9:8 10:48 11:17 12:200 13:4808.8999 14:2379.6899 15:153.785 16:154.70599 17:0.33333299 18:21.2222 19:0.26315799 20:0.55436099 21:0.341443 22:0.94387901 23:7.42594 24:2.34146 # Flowers/Shape5/shape5-052.ppm
-2.3158525867030845362138140024182e-12 1:128006 2:243972 3:174852 4:1539.4301 5:4961.3799 6:3.30233 7:101.111 8:32047.4 9:14 10:43 11:27 12:198 13:4741.6099 14:2976.8799 15:152.071 16:165.741 17:0.34375 18:23.75 19:0.30303001 20:0.73207802 21:0.31028301 22:0.95570302 23:10.7654 24:4.23944 # Flowers/Shape1/shape1-025.ppm
2.3158525867030845362138140024182e-12 1:365857 2:703804 3:551706 4:2779.78 5:14858.6 6:3.88764 7:106.747 8:45996.102 9:16 10:89 11:20 12:324 13:7895.2598 14:4110.75 15:156.448 16:161.05 17:0.36923099 18:28.4545 19:0.186667 20:0.66313702 21:0.18708199 22:0.53135902 23:11.1892 24:4.1156101 # Flowers/Shape5/shape5-059.ppm
-2.3158525867030845362138140024182e-12 1:192567 2:728994 3:540136 4:2907.28 5:7409.3701 6:3.25424 7:113.714 8:53092.898 9:18 10:59 11:6 12:353 13:7736.3599 14:3263.8601 15:148.099 16:108 17:0.311111 18:11.1724 19:0.28260899 20:0.356516 21:0.392378 22:1.04413 23:16.266899 24:5.53125 # Flowers/Shape4/shape4-013.ppm
2.3158525867030845362138140024182e-12 1:115333 2:328454 3:199948 4:1889.53 5:4068.6599 6:3.2432401 7:112.434 8:8171.2798 9:7 10:37 11:28 12:183 13:4832.6499 14:3117.1101 15:155.55701 16:163.10699 17:0.42307699 18:21.875 19:0.37037 20:0.576814 21:0.46441001 22:1.18777 23:2.6214299 24:2.15833 # Flowers/Shape5/shape5-080.ppm
-2.3158525867030845362138140024182e-12 1:73685.797 2:291078 3:146193 4:1778.62 5:2561.46 6:2.8965499 7:125.164 8:21124.1 9:8 10:29 11:6 12:155 13:3772.97 14:2540.8899 15:161.297 16:119.333 17:0.61111099 18:24.8333 19:0.380952 20:0.504031 21:0.69437599 22:1.47298 23:8.3136501 24:2.7618999 # Flowers/Shape4/shape4-024.ppm
2.3158525867030845362138140024182e-12 1:366501 2:703703 3:550872 4:2776.29 5:16622.301 6:4.0425501 7:106.171 8:45996.102 9:18 10:94 11:26 12:326 13:7897.6001 14:3898.95 15:156.08299 16:165.269 17:0.253333 18:24.0769 19:0.160494 20:0.66531098 21:0.167022 22:0.47512099 23:11.797 24:4.45263 # Flowers/Shape5/shape5-039.ppm
-2.3158525867030845362138140024182e-12 1:440603 2:743512 3:604408 4:2859.01 5:18262.5 6:3.2888899 7:109.85 8:6082.1201 9:4 10:180 11:31 12:635 13:14855.8 14:2447.79 15:150.373 16:163.38699 17:0.44 18:13.7674 19:0.30434799 20:0.72898299 21:0.156552 22:0.81346101 23:2.48474 24:1.21622 # Flowers/Shape2/shape2-015.ppm
2.3158525867030845362138140024182e-12 1:116941 2:353701 3:199828 4:1892.5601 5:5200.3901 6:3.5833299 7:104.192 8:9503.3203 9:8 10:48 11:30 12:213 13:4919.4702 14:2436.28 15:150.638 16:166.16701 17:0.54838699 18:12.3125 19:0.26315799 20:0.585208 21:0.36392701 22:0.94598001 23:3.9007499 24:2.2325599 # Flowers/Shape5/shape5-060.ppm
-2.3158525867030845362138140024182e-12 1:63147.5 2:307848 3:162258 4:1619.22 5:2530.73 6:3.0666699 7:119.016 8:9160.8799 9:8 10:30 11:9 12:164 13:3887.6599 14:2104.9199 15:151.76801 16:132.778 17:0.5 18:10.7143 19:0.42857099 20:0.38917899 21:0.63982099 22:1.53618 23:4.3521399 24:2.6087 # Flowers/Shape4/shape4-022.ppm
2.3158525867030845362138140024182e-12 1:360381 2:698301 3:547806 4:2768.3301 5:15135.2 6:3.88889 7:104.912 8:45996.102 9:17 10:90 11:26 12:324 13:7877.6299 14:4004.23 15:155.485 16:165.769 17:0.45161301 18:23.9231 19:0.16883101 20:0.65786201 21:0.182907 22:0.52048498 23:11.4869 24:4.3714299 # Flowers/Shape5/shape5-018.ppm
-2.3158525867030845362138140024182e-12 1:412076 2:750696 3:590085 4:2864.3301 5:17832.1 6:3.3333299 7:110.19 8:2463.01 9:4 10:156 11:29 12:558 13:12867.3 14:2641.51 15:150.799 16:165.448 17:0.34482801 18:18.2414 19:0.238095 20:0.69833302 21:0.16062699 22:0.72157699 23:0.93242401 24:1.2 # Flowers/Shape2/shape2-010.ppm
2.3158525867030845362138140024182e-12 1:116256 2:356153 3:197618 4:1891.15 5:4762.7598 6:3.3333299 7:108.884 8:10935.9 9:7 10:48 11:27 12:223 13:4939.98 14:2422 15:145.40401 16:166.222 17:0.33333299 18:13.8667 19:0.297297 20:0.58828503 21:0.39706999 22:1.03721 23:4.5152302 24:2.0999999 # Flowers/Shape5/shape5-019.ppm
-2.3158525867030845362138140024182e-12 1:75043.297 2:291870 3:145236 4:1778.6801 5:3421.4099 6:3.1666701 7:123.628 8:21642.4 9:13 10:36 11:8 12:151 13:3774.98 14:2084.54 15:163.146 16:134.875 17:0.33333299 18:36.75 19:0.285714 20:0.51669699 21:0.519867 22:1.10334 23:10.3824 24:4.1052599 # Flowers/Shape4/shape4-003.ppm
2.3158525867030845362138140024182e-12 1:312372 2:666824 3:489482 4:2615.0901 5:13086.3 6:3.7931001 7:105.379 8:33329.199 9:12 10:87 11:30 12:350 13:8290.9805 14:3590.48 15:153.937 16:166.267 17:0.52631599 18:34 19:0.208333 20:0.63816899 21:0.19983301 22:0.63356 23:9.28265 24:3.16364 # Flowers/Shape5/shape5-074.ppm
-2.3158525867030845362138140024182e-12 1:407456 2:747630 3:577808 4:2786.23 5:18578.699 6:3.47191 7:106.173 8:1809.5601 9:1 10:178 11:28 12:549 13:12714.1 14:2289.0801 15:148.16901 16:162.071 17:0.412698 18:14.6857 19:0.28057599 20:0.70517701 21:0.149969 22:0.68433398 23:0.79051697 24:0.28802601 # Flowers/Shape2/shape2-007.ppm
2.3158525867030845362138140024182e-12 1:117680 2:358605 3:200012 4:1891.1 5:4882.9502 6:3.4347799 7:102.571 8:9852.0303 9:7 10:46 11:27 12:215 13:4931 14:2558.26 15:149.55299 16:163.66701 17:0.48387101 18:15.5385 19:0.24324299 20:0.58836502 21:0.38728601 22:1.00984 23:3.8510799 24:2.0379701 # Flowers/Shape5/shape5-040.ppm
-2.3158525867030845362138140024182e-12 1:64545.602 2:304818 3:159980 4:1612.77 5:3000.4199 6:3.0555601 7:121.257 8:14102.6 9:13 10:36 11:7 12:169 13:3925.8799 14:1792.9301 15:149.24899 16:121 17:0.384615 18:11.0714 19:0.33333299 20:0.40345901 21:0.53751701 22:1.30845 23:7.8656702 24:4.25455 # Flowers/Shape4/shape4-001.ppm
2.3158525867030845362138140024182e-12 1:318505 2:704925 3:488516 4:2610.99 5:13019.7 6:3.6631601 7:100.657 8:40828.102 9:11 10:95 11:32 12:356 13:8289.3799 14:3352.6799 15:149.427 16:168.84399 17:0.39705899 18:16.799999 19:0.1875 20:0.65198398 21:0.200541 22:0.63667703 23:12.1778 24:3.0028701 # Flowers/Shape5/shape5-034.ppm
-2.3158525867030845362138140024182e-12 1:451654 2:739784 3:552714 4:3023.74 5:20618 6:4.1414099 7:109.804 8:32685.1 9:12 10:99 11:74 12:340 13:7893.52 14:4562.1602 15:156.44701 16:174.108 17:0.2375 18:21.6667 19:0.151163 20:0.81715697 21:0.14665499 22:0.382846 23:7.1643901 24:2.8975599 # Flowers/Shape1/shape1-014.ppm
2.3158525867030845362138140024182e-12 1:169568 2:404271 3:289302 4:2043.59 5:6999.6401 6:3.67857 7:101.587 8:9160.8799 9:5 10:56 11:20 12:238 13:5537.7998 14:3028 15:146.32401 16:159.55 17:0.555556 18:13 19:0.217391 20:0.58612698 21:0.29195601 22:0.79115599 23:3.0253899 24:1.35922 # Flowers/Shape5/shape5-021.ppm
-2.3158525867030845362138140024182e-12 1:79752.797 2:403312 3:210614 4:1876.24 5:3254.72 6:3.1428599 7:119.853 8:18145.801 9:13 10:35 11:5 12:197 13:4536.23 14:2278.6499 15:150.274 16:95 17:0.296296 18:13.0714 19:0.40000001 20:0.378667 21:0.57646799 22:1.3937401 23:7.9634099 24:4.1363602 # Flowers/Shape4/shape4-002.ppm
2.3158525867030845362138140024182e-12 1:309459 2:661850 3:485869 4:2606.8601 5:13489.1 6:3.8461499 7:105.421 8:38013.301 9:15 10:91 11:29 12:355 13:8345.9697 14:3400.6499 15:150.668 16:164.586 17:0.421875 18:22.6667 19:0.213333 20:0.63691902 21:0.193257 22:0.61872202 23:11.1782 24:3.9000001 # Flowers/Shape5/shape5-094.ppm
-2.3158525867030845362138140024182e-12 1:198245 2:693517 3:507314 4:2783.3101 5:8413.9297 6:3.3698599 7:119.659 8:59828.5 9:17 10:73 11:6 12:343 13:7385.0298 14:2715.6799 15:155.73199 16:103.5 17:0.403846 18:27.5833 19:0.216667 20:0.39077401 21:0.330798 22:0.87771398 23:22.030701 24:5.0447202 # Flowers/Shape4/shape4-014.ppm
2.3158525867030845362138140024182e-12 1:173152 2:406224 3:290844 4:2045.4301 5:8000.48 6:3.8387101 7:106.227 8:9852.0303 9:6 10:62 11:22 12:232 13:5534.98 14:2792.78 15:148.211 16:157.31799 17:0.67567599 18:16.846201 19:0.21568599 20:0.59534502 21:0.25566301 22:0.69183099 23:3.5276799 24:1.56303 # Flowers/Shape5/shape5-041.ppm
-2.3158525867030845362138140024182e-12 1:81089.398 2:403866 3:210982 4:1877.75 5:3461.98 6:3.1666701 7:121.833 8:21124.1 9:13 10:36 11:6 12:187 13:4480.77 14:2252.48 15:154.52901 16:113.5 17:0.384615 18:16 19:0.33333299 20:0.38434201 21:0.54239202 22:1.2942801 23:9.3781204 24:4.1052599 # Flowers/Shape4/shape4-023.ppm
2.3158525867030845362138140024182e-12 1:262149 2:551688 3:482727 4:2581.04 5:10564.1 6:3.3494 7:106.944 8:29559.199 9:12 10:83 11:25 12:359 13:8843.3496 14:3158.4299 15:155 16:164.92 17:0.296875 18:28.9167 19:0.18571401 20:0.54305899 21:0.244323 22:0.83711702 23:9.3588495 24:3.5827301 # Flowers/Shape5/shape5-010.ppm
-2.3158525867030845362138140024182e-12 1:496061 2:713456 3:590510 4:2862.29 5:20191.199 6:3.5326099 7:109.303 8:9160.8799 9:6 10:184 11:40 12:551 13:13252.9 14:2695.98 15:156.278 16:167.64999 17:0.41538501 18:18 19:0.251701 20:0.84005499 21:0.14175899 22:0.65636897 23:3.39798 24:1.69846 # Flowers/Shape2/shape2-012.ppm
2.3158525867030845362138140024182e-12 1:155965 2:410234 3:277728 4:2000.23 5:5837.4199 6:3.24 7:100.955 8:6647.6099 9:5 10:50 11:24 12:250 13:5901.6602 14:3119.3 15:151.692 16:162.45799 17:0.35135099 18:18.230801 19:0.282051 20:0.56157303 21:0.342657 22:1.011 23:2.13113 24:1.54321 # Flowers/Shape5/shape5-027.ppm
-2.3158525867030845362138140024182e-12 1:77892.5 2:265558 3:185406 4:1713.67 5:2757.5901 6:3 7:123.55 8:13273.2 9:8 10:30 11:7 12:167 13:4126.3999 14:2596.4199 15:163.024 16:111.857 17:0.66666698 18:40.75 19:0.36363599 20:0.42011899 21:0.62143803 22:1.49638 23:5.1121302 24:2.6666701 # Flowers/Shape4/shape4-020.ppm
6.156512106451589520517204181518e-13 1:316774 2:707817 3:488196 4:2611.24 5:12969.6 6:3.62222 7:106.034 8:39408.102 9:15 10:90 11:28 12:278 13:8030.9399 14:3519.72 15:155.41 16:161 17:0.36363599 18:29.888901 19:0.16883101 20:0.64886802 21:0.201336 22:0.61921299 23:11.1964 24:4.1410999 # Flowers/Shape5/shape5-054.ppm
-2.3158525867030845362138140024182e-12 1:320963 2:722370 3:513646 4:2727.8301 5:14289.6 6:3.57377 7:107.889 8:1963.5 9:4 10:122 11:27 12:397 13:9476.04 14:2630.8401 15:151.23199 16:165.556 17:0.45238101 18:17.0455 19:0.22 20:0.62487102 21:0.19089501 22:0.66314 23:0.746337 24:1.11927 # Flowers/Shape2/shape2-020.ppm
2.3158525867030845362138140024182e-12 1:168412 2:406134 3:289378 4:2043.48 5:7508.2798 6:3.6226399 7:108.489 8:24884.6 9:13 10:53 11:22 12:194 13:5532.4902 14:3177.5901 15:153.144 16:156.5 17:0.35897401 18:16.6364 19:0.17777801 20:0.58197898 21:0.272163 22:0.73685199 23:7.8312702 24:3.5885401 # Flowers/Shape5/shape5-020.ppm
-2.3158525867030845362138140024182e-12 1:78093.398 2:269240 3:187052 4:1721.53 5:2798.6399 6:3.0344801 7:120.661 8:16741.5 9:9 10:29 11:8 12:172 13:4171.9199 14:2692.8799 15:159.75 16:134.875 17:0.44999999 18:33.400002 19:0.44999999 20:0.41749701 21:0.61513197 22:1.4907 23:6.21698 24:2.96591 # Flowers/Shape4/shape4-000.ppm
2.3158525867030845362138140024182e-12 1:214258 2:627187 3:419039 4:2462.01 5:9729.4502 6:3.8133299 7:106.052 8:8494.8701 9:8 10:75 11:16 12:320 13:7322.29 14:2856.78 15:151.48801 16:157.312 17:0.470588 18:21.8571 19:0.25 20:0.51130903 21:0.25304699 22:0.75259 23:2.9735799 24:2.0978999 # Flowers/Shape5/shape5-056.ppm
-2.3158525867030845362138140024182e-12 1:465851 2:730635 3:545202 4:2840.0601 5:21037 6:4.1782198 7:114.776 8:33979.5 9:16 10:101 11:58 12:298 13:7482.0698 14:4612.3901 15:156.077 16:171.172 17:0.246914 18:28.799999 19:0.134831 20:0.85445601 21:0.135003 22:0.35566199 23:7.3670001 24:3.82938 # Flowers/Shape1/shape1-011.ppm
2.3158525867030845362138140024182e-12 1:159381 2:412794 3:278041 4:2002.1899 5:7238.25 6:3.5999999 7:107.263 8:13273.2 9:8 10:60 11:24 12:245 13:5858.3901 14:2656.3501 15:154.151 16:162.375 17:0.42857099 18:16.5 19:0.17647099 20:0.57322901 21:0.27661201 22:0.80936497 23:4.9967899 24:2.2222199 # Flowers/Shape5/shape5-006.ppm
-2.3158525867030845362138140024182e-12 1:101098 2:489132 3:252372 4:2039.42 5:3864.46 6:3.1282101 7:118.361 8:20106.199 9:11 10:39 11:4 12:197 13:4870.8398 14:2592.27 15:156.386 16:90 17:0.39285699 18:18.700001 19:0.39285699 20:0.40059301 21:0.52773702 22:1.26042 23:7.7562199 24:3.5163901 # Flowers/Shape4/shape4-017.ppm
2.3158525867030845362138140024182e-12 1:260072 2:548100 3:478320 4:2571.1399 5:11100.6 6:3.5529399 7:103.055 8:27759.1 9:14 10:85 11:24 12:360 13:8763.4697 14:3059.6699 15:154.192 16:162.5 17:0.41666701 18:20.1765 19:0.180556 20:0.54371899 21:0.231621 22:0.78945798 23:9.0726004 24:3.9403999 # Flowers/Shape5/shape5-051.ppm
-2.3158525867030845362138140024182e-12 1:310401 2:718475 3:511627 4:2723.25 5:12523.8 6:3.3599999 7:110.958 8:4300.8398 9:4 10:100 11:27 12:392 13:9404.6396 14:3104.01 15:153.194 16:165.14799 17:0.35135099 18:25.133301 19:0.17647099 20:0.606695 21:0.217445 22:0.75093901 23:1.38557 24:1.19048 # Flowers/Shape2/shape2-021.ppm
2.3158525867030845362138140024182e-12 1:170852 2:406848 3:289628 4:2046.6 5:8139.7402 6:3.5625 7:104.787 8:28952.9 9:14 10:64 11:22 12:233 13:5605.4102 14:2669.5601 15:148.42101 16:157.27299 17:0.42222199 18:14.5333 19:0.185185 20:0.58990198 21:0.25143301 22:0.68864697 23:10.8456 24:3.9298201 # Flowers/Shape5/shape5-100.ppm
-2.3158525867030845362138140024182e-12 1:79249.203 2:265029 3:185342 4:1713.24 5:3349.52 6:3.3513501 7:121.149 8:13684.8 9:10 10:37 11:9 12:169 13:4133.0898 14:2141.8701 15:161.57401 16:127.444 17:0.68181801 18:55.333302 19:0.37037 20:0.42758301 21:0.51148802 22:1.23394 23:6.3891702 24:2.98387 # Flowers/Shape4/shape4-021.ppm
2.3158525867030845362138140024182e-12 1:246131 2:557424 3:388907 4:2300.3101 5:10485.8 6:3.3793099 7:104.647 8:17671.5 9:10 10:87 11:22 12:349 13:8089.1499 14:2829.1001 15:149.842 16:158.591 17:0.380952 18:18.388901 19:0.16 20:0.63287997 21:0.219374 22:0.771438 23:6.2463298 24:2.9591801 # Flowers/Shape5/shape5-089.ppm
-2.3158525867030845362138140024182e-12 1:362327 2:701838 3:568338 4:2821.1699 5:13772.8 6:3.1194 7:107.313 8:1963.5 9:3 10:134 11:23 12:518 13:12308 14:2703.9299 15:154.77 16:159.739 17:0.32673299 18:18.9231 19:0.26415101 20:0.637519 21:0.20483699 22:0.89365101 23:0.72616303 24:0.96172202 # Flowers/Shape2/shape2-001.ppm
2.3158525867030845362138140024182e-12 1:161358 2:413253 3:279144 4:2004.77 5:7789.6899 6:3.6774199 7:105.247 8:13273.2 9:11 10:62 11:24 12:258 13:5919.6499 14:2602.55 15:152.18201 16:163.58299 17:0.31914899 18:17.4286 19:0.169811 20:0.57804698 21:0.25736201 22:0.75993299 23:5.10008 24:2.99123 # Flowers/Shape5/shape5-067.ppm
-2.3158525867030845362138140024182e-12 1:90963.297 2:426400 3:299048 4:2059.55 5:3650.78 6:2.7451 7:132.23599 8:15836.8 9:11 10:51 11:8 12:271 13:6616.1401 14:1783.59 15:150.756 16:134.875 17:0.59375 18:10.7826 19:0.30769199 20:0.304176 21:0.56413901 22:1.81225 23:8.8791304 24:4.0071402 # Flowers/Shape4/shape4-004.ppm
2.3158525867030845362138140024182e-12 1:277162 2:565468 3:440682 4:2491.6201 5:11882 6:3.5824201 7:103.115 8:27759.1 9:10 10:91 11:28 12:346 13:8140.2002 14:3045.73 15:144.74899 16:161.25 17:0.31884101 18:14.7273 19:0.166667 20:0.62893701 21:0.20969801 22:0.68509001 23:9.1141005 24:2.79141 # Flowers/Shape5/shape5-030.ppm
-2.3158525867030845362138140024182e-12 1:310401 2:718475 3:511627 4:2723.25 5:12523.8 6:3.3599999 7:110.958 8:4300.8398 9:4 10:100 11:27 12:392 13:9404.6396 14:3104.01 15:153.194 16:165.14799 17:0.35135099 18:25.133301 19:0.17647099 20:0.606695 21:0.217445 22:0.75093901 23:1.38557 24:1.19048 # Flowers/Shape2/shape2-019.ppm
2.3158525867030845362138140024182e-12 1:158049 2:412776 3:279229 4:2003.37 5:6490.2598 6:3.46154 7:103.25 8:13273.2 9:9 10:52 11:26 12:247 13:5849.0601 14:3039.3999 15:154.336 16:164.577 17:0.30000001 18:23.700001 19:0.18181799 20:0.56601799 21:0.30867299 22:0.90120697 23:4.3670602 24:2.5999999 # Flowers/Shape5/shape5-047.ppm
-2.3158525867030845362138140024182e-12 1:79249.203 2:265029 3:185342 4:1713.24 5:3349.52 6:3.3513501 7:121.149 8:13684.8 9:10 10:37 11:9 12:169 13:4133.0898 14:2141.8701 15:161.57401 16:127.444 17:0.68181801 18:55.333302 19:0.37037 20:0.42758301 21:0.51148802 22:1.23394 23:6.3891702 24:2.98387 # Flowers/Shape4/shape4-019.ppm
2.3158525867030845362138140024182e-12 1:230562 2:578124 3:342510 4:2375.5 5:9050.0303 6:3.4210501 7:108.147 8:10935.9 9:8 10:76 11:33 12:316 13:7460.5698 14:3033.71 15:156.74699 16:166.21201 17:0.40740699 18:25.3333 19:0.225806 20:0.673154 21:0.262485 22:0.82436901 23:3.60479 24:2.33846 # Flowers/Shape5/shape5-097.ppm
-2.3158525867030845362138140024182e-12 1:314886 2:716300 3:512145 4:2720.9099 5:13295.2 6:3.4862399 7:106.827 8:2463.01 9:3 10:109 11:28 12:401 13:9329.3701 14:2888.8701 15:152.868 16:161.429 17:0.36250001 18:22.5882 19:0.19780201 20:0.614838 21:0.20465299 22:0.70170802 23:0.85258698 24:0.86052603 # Flowers/Shape2/shape2-000.ppm
2.3158525867030845362138140024182e-12 1:157244 2:413253 3:278415 4:2003.41 5:6049.4502 6:3.3461499 7:108.811 8:12076.3 9:9 10:52 11:22 12:250 13:5899.3101 14:3023.9199 15:151.588 16:157.68201 17:0.30000001 18:14.625 19:0.20930199 20:0.56478298 21:0.331173 22:0.97518098 23:3.9935801 24:2.6896601 # Flowers/Shape5/shape5-087.ppm
-2.3158525867030845362138140024182e-12 1:88160.102 2:332304 3:214536 4:1910.3101 5:3653.0701 6:3.1428599 7:117.747 8:26015.5 9:14 10:35 11:15 12:198 13:4761.1899 14:2518.8601 15:155.72701 16:151.33299 17:0.40000001 18:23.75 19:0.346154 20:0.41093299 21:0.52293402 22:1.30334 23:10.3283 24:4.4545498 # Flowers/Shape4/shape4-016.ppm
2.3158525867030845362138140024182e-12 1:256014 2:549582 3:479666 4:2571.98 5:10020.5 6:3.48718 7:103.572 8:28952.9 9:11 10:78 11:24 12:356 13:8766.3896 14:3282.22 15:155.65401 16:162.41701 17:0.36842099 18:22.733299 19:0.164179 20:0.53373301 21:0.25667301 22:0.87484801 23:8.8211298 24:3.1544099 # Flowers/Shape5/shape5-031.ppm
-2.3158525867030845362138140024182e-12 1:363257 2:700040 3:567008 4:2815.0901 5:14940.4 6:3.36765 7:107.637 8:1520.53 9:4 10:136 11:24 12:512 13:12181.9 14:2671 15:156.61099 16:162.16701 17:0.402062 18:25.947399 19:0.23636401 20:0.64065498 21:0.188421 22:0.815368 23:0.56927299 24:1.18777 # Flowers/Shape2/shape2-022.ppm
2.3158525867030845362138140024182e-12 1:164648 2:459885 3:290570 4:2051.22 5:4801.7998 6:3.3513501 7:100.356 8:10207 9:6 10:37 11:20 12:235 13:5518.5601 14:4449.9399 15:148.66 16:160.25 17:0.76190501 18:12.8235 19:0.42307699 20:0.56663698 21:0.42717701 22:1.1492701 23:2.29374 24:1.79032 # Flowers/Shape5/shape5-061.ppm
-2.3158525867030845362138140024182e-12 1:100718 2:393808 3:252776 4:1906.5 5:3803.3799 6:2.9047599 7:119.914 8:22167.1 9:12 10:42 11:9 12:263 13:5984.7002 14:2398.04 15:153.696 16:128 17:0.615385 18:15.4375 19:0.354839 20:0.39844501 21:0.501266 22:1.5735199 23:9.2438297 24:4.1311498 # Flowers/Shape4/shape4-015.ppm
2.3158525867030845362138140024182e-12 1:274312 2:563220 3:439215 4:2488.71 5:11296.1 6:3.63415 7:106.56 8:27759.1 9:15 10:82 11:23 12:338 13:8116.0298 14:3345.26 15:145.63 16:160.13 17:0.366667 18:13.6957 19:0.18840601 20:0.62454998 21:0.22031599 22:0.71848297 23:8.2980404 24:4.1275201 # Flowers/Shape5/shape5-009.ppm
-2.3158525867030845362138140024182e-12 1:303628 2:676378 3:538250 4:2796.4099 5:13701.7 6:3.4761901 7:102.949 8:9852.0303 9:8 10:126 11:22 12:458 13:10798.9 14:2409.75 15:152.063 16:160.27299 17:0.44827601 18:16.6154 19:0.25999999 20:0.56410301 21:0.204092 22:0.78814101 23:4.0884099 24:2.3013699 # Flowers/Shape2/shape2-017.ppm
2.3158525867030845362138140024182e-12 1:242629 2:479598 3:342210 4:2237.23 5:11121.8 6:3.58025 7:111.507 8:8171.2798 9:8 10:81 11:46 12:303 13:6809.1699 14:2995.4199 15:147.155 16:169.696 17:0.372881 18:14.9474 19:0.191176 20:0.70900398 21:0.20115601 22:0.612234 23:2.7279301 24:2.2344799 # Flowers/Shape5/shape5-035.ppm
-2.3158525867030845362138140024182e-12 1:86617.102 2:340158 3:231469 4:1887.12 5:3478.9099 6:2.9523799 7:121.232 8:14102.6 9:11 10:42 11:10 12:233 13:5460.2798 14:2062.3101 15:158.584 16:134.7 17:0.555556 18:24.888901 19:0.3125 20:0.37420601 21:0.54244602 22:1.56954 23:6.8382502 24:3.7258101 # Flowers/Shape4/shape4-018.ppm
2.3158525867030845362138140024182e-12 1:274639 2:566214 3:440574 4:2491.3401 5:12277.8 6:3.55814 7:104.159 8:27759.1 9:13 10:86 11:22 12:354 13:8155.9902 14:3193.47 15:142.528 16:156.909 17:0.34375 18:10.8 19:0.16216201 20:0.623366 21:0.202914 22:0.664285 23:8.6924496 24:3.65359 # Flowers/Shape5/shape5-050.ppm
-2.3158525867030845362138140024182e-12 1:422496 2:701043 3:540966 4:2712.3799 5:17434.9 6:3.19786 7:109.633 8:1520.53 9:3 10:187 11:36 12:614 13:14334.1 14:2259.3401 15:153.62199 16:165.33299 17:0.41666701 18:16.5429 19:0.395522 20:0.781003 21:0.155572 22:0.82215202 23:0.67299902 24:0.93812698 # Flowers/Shape2/shape2-014.ppm
2.3158525867030845362138140024182e-12 1:167611 2:459672 3:290960 4:2051.8101 5:6756.8501 6:3.32075 7:109.951 8:25446.9 9:13 10:53 11:19 12:235 13:5560.1499 14:3162.48 15:146.855 16:157.05299 17:0.20454501 18:15.7857 19:0.152174 20:0.57606298 21:0.30366299 22:0.822891 23:8.0465002 24:3.9147699 # Flowers/Shape5/shape5-081.ppm
-2.3158525867030845362138140024182e-12 1:79926.398 2:262636 3:205508 4:1722.37 5:3901.4099 6:3.2272699 7:115.735 8:21642.4 9:17 10:44 11:9 12:215 13:5072.9902 14:1816.51 15:152.995 16:132.66701 17:0.466667 18:15.5385 19:0.33333299 20:0.38892201 21:0.441475 22:1.3003 23:11.9143 24:5.2676101 # Flowers/Shape4/shape4-008.ppm
2.3158525867030845362138140024182e-12 1:272516 2:666272 3:461103 4:2587.4299 5:12993.5 6:3.66292 7:104.312 8:16286 9:10 10:89 11:29 12:359 13:8641.4805 14:3061.98 15:152.39301 16:166.172 17:0.36923099 18:13.9583 19:0.236111 20:0.59100902 21:0.199132 22:0.66505998 23:5.31879 24:2.7300601 # Flowers/Shape5/shape5-085.ppm
-2.3158525867030845362138140024182e-12 1:339982 2:668035 3:520352 4:2655.77 5:15803.3 6:3.5539601 7:106.459 8:6082.1201 9:5 10:139 11:25 12:461 13:10955.8 14:2445.9199 15:152.289 16:164.92 17:0.37623799 18:15.4643 19:0.31132099 20:0.65337002 21:0.168052 22:0.69326001 23:2.48664 24:1.40688 # Flowers/Shape2/shape2-016.ppm
2.3158525867030845362138140024182e-12 1:239554 2:477600 3:343571 4:2238.72 5:9721.6797 6:3.7611899 7:110.627 8:16741.5 9:7 10:67 11:44 12:311 13:6872.6899 14:3575.4299 15:144.804 16:168.114 17:0.55813998 18:22.9231 19:0.240741 20:0.69724602 21:0.230281 22:0.70694399 23:4.6823902 24:1.86111 # Flowers/Shape5/shape5-055.ppm
-2.3158525867030845362138140024182e-12 1:295521 2:664216 3:454700 4:2515.8401 5:12599.2 6:3.30357 7:109.725 8:5541.77 9:4 10:112 11:27 12:407 13:9695.6504 14:2638.5801 15:149.22099 16:166 17:0.41772199 18:13.0345 19:0.244444 20:0.64992499 21:0.199683 22:0.76954597 23:2.1002901 24:1.2108099 # Flowers/Shape2/shape2-023.ppm
2.3158525867030845362138140024182e-12 1:241320 2:480000 3:342795 4:2238.0601 5:9195.96 6:3.63077 7:111.655 8:16741.5 9:9 10:65 11:46 12:304 13:6834.9102 14:3712.6201 15:146.56599 16:169.478 17:0.47727299 18:20.7143 19:0.203704 20:0.703978 21:0.243375 22:0.74325103 23:4.5093598 24:2.4788101 # Flowers/Shape5/shape5-014.ppm
-2.3158525867030845362138140024182e-12 1:266785 2:355908 3:277352 4:1893.54 5:10438.4 6:3.37255 7:114.091 8:6361.73 9:5 10:102 11:77 12:305 13:7558.6699 14:2615.54 15:158.80701 16:173.052 17:0.5 18:24.4167 19:0.378378 20:0.96189898 21:0.181402 22:0.72412401 23:2.4322801 24:1.48256 # Flowers/Shape3/shape3-004.ppm
2.3158525867030845362138140024182e-12 1:269965 2:665250 3:459100 4:2586.1799 5:11190.8 6:3.6623399 7:103.361 8:17203.4 9:11 10:77 11:27 12:360 13:8601.1699 14:3506.04 15:157.017 16:166.259 17:0.425926 18:21.5 19:0.241935 20:0.58803201 21:0.23109899 22:0.76859403 23:4.9067798 24:3.0035501 # Flowers/Shape5/shape5-065.ppm
-2.3158525867030845362138140024182e-12 1:452510 2:646410 3:478850 4:2536.02 5:19426.5 6:3.9344299 7:117.76 8:53092.898 9:17 10:122 11:69 12:291 13:8215.3096 14:3709.1001 15:167.23399 16:174.145 17:0.48780501 18:35.375 19:0.184466 20:0.94499302 21:0.13054401 22:0.422892 23:14.3142 24:4.3208299 # Flowers/Shape3/shape3-015.ppm
2.3158525867030845362138140024182e-12 1:199682 2:489309 3:350578 4:2198.6499 5:8846.1602 6:3.5941999 7:103.648 8:33979.5 9:15 10:69 11:22 12:271 13:6375.3799 14:2893.95 15:145.01801 16:158.364 17:0.38 18:14.0556 19:0.18965501 20:0.56958199 21:0.24854299 22:0.72069502 23:11.7416 24:4.1733899 # Flowers/Shape5/shape5-086.ppm
-2.3158525867030845362138140024182e-12 1:178280 2:539570 3:367998 4:2351.29 5:6938.8599 6:3.2692299 7:117.356 8:56410.398 9:18 10:52 11:7 12:285 13:6067.3799 14:3428.46 15:147.502 16:118.857 17:0.33333299 18:13.25 19:0.238095 20:0.48445901 21:0.33885801 22:0.87440699 23:16.4536 24:5.5058799 # Flowers/Shape4/shape4-009.ppm
2.3158525867030845362138140024182e-12 1:240210 2:502052 3:343699 4:2241.24 5:10056.3 6:3.71014 7:108.77 8:8171.2798 9:7 10:69 11:51 12:294 13:6782.8799 14:3481.3101 15:150.452 16:171.52901 17:0.5 18:21.6154 19:0.210526 20:0.698897 21:0.222868 22:0.67448699 23:2.3471899 24:1.8867199 # Flowers/Shape5/shape5-095.ppm
-2.3158525867030845362138140024182e-12 1:296556 2:592137 3:419961 4:2401.6001 5:12134.2 6:3.3675201 7:104.238 8:5541.77 9:5 10:117 11:33 12:401 13:9396.7305 14:2534.6699 15:151.257 16:164.18201 17:0.5 18:15.04 19:0.32954499 20:0.70615202 21:0.19791999 22:0.7744 23:2.1863899 24:1.4847701 # Flowers/Shape2/shape2-002.ppm
2.3158525867030845362138140024182e-12 1:243703 2:502052 3:343401 4:2240.95 5:10229.3 6:3.8181801 7:109.731 8:16741.5 9:11 10:66 11:51 12:295 13:6762.8901 14:3692.47 15:149.492 16:171.49001 17:0.375 18:16.3529 19:0.222222 20:0.70967603 21:0.219073 22:0.66113299 23:4.5339599 24:2.88095 # Flowers/Shape5/shape5-075.ppm
-2.3158525867030845362138140024182e-12 1:92825.703 2:364868 3:245155 4:1857.73 5:3655.3701 6:2.86957 7:117.5 8:15836.8 9:12 10:46 11:10 12:255 13:5827.8701 14:2017.95 15:154.075 16:138.89999 17:0.58620697 18:18.6154 19:0.4375 20:0.37864101 21:0.50822002 22:1.59433 23:7.84795 24:4.1818199 # Flowers/Shape4/shape4-007.ppm
2.3158525867030845362138140024182e-12 1:244645 2:526029 3:387818 4:2299.3601 5:10296.6 6:3.50649 7:104.492 8:5281.02 9:5 10:77 11:22 12:340 13:7973.27 14:3177.21 15:153.912 16:156.364 17:0.375 18:21.6667 19:0.203125 20:0.63082498 21:0.223314 22:0.77436101 23:1.66216 24:1.42593 # Flowers/Shape5/shape5-049.ppm
-2.3158525867030845362138140024182e-12 1:395239 2:644122 3:504627 4:2620.26 5:15641.5 6:3.37255 7:111.766 8:2123.72 9:4 10:153 11:28 12:569 13:12523.8 14:2583.26 15:137.13699 16:161.25 17:0.48543701 18:8.1774197 19:0.342105 20:0.78322899 21:0.16752 22:0.800677 23:0.82210702 24:1.1860501 # Flowers/Shape2/shape2-008.ppm
2.3158525867030845362138140024182e-12 1:240281 2:503480 3:350346 4:2315.9199 5:11325.6 6:3.8684199 7:108.495 8:23778.699 9:12 10:76 11:45 12:301 13:6348.3599 14:3161.5901 15:145.688 16:171.644 17:0.40740699 18:14.05 19:0.15151501 20:0.68583697 21:0.204485 22:0.56053102 23:7.5211401 24:3.1020401 # Flowers/Shape5/shape5-073.ppm
-2.3158525867030845362138140024182e-12 1:92796.203 2:329904 3:236374 4:1823.77 5:3711.02 6:2.9302299 7:119.036 8:24328.5 9:14 10:43 11:9 12:235 13:5622.1099 14:2158.05 15:151.07201 16:128.33299 17:0.65384603 18:10.75 19:0.387097 20:0.392582 21:0.49144599 22:1.51498 23:11.2734 24:4.7777801 # Flowers/Shape4/shape4-010.ppm
2.3158525867030845362138140024182e-12 1:253081 2:533065 3:395560 4:2365.5601 5:10805.1 6:3.5 7:104.886 8:23235.199 9:13 10:84 11:23 12:242 13:7333.6299 14:3012.8701 15:158.08701 16:160.13 17:0.44827601 18:29.25 19:0.2 20:0.63980502 21:0.218931 22:0.67872202 23:7.7119799 24:3.7142899 # Flowers/Shape5/shape5-007.ppm
-2.3158525867030845362138140024182e-12 1:426953 2:646050 3:535278 4:2772.48 5:18501.199 6:3.47826 7:113.915 8:9160.8799 9:6 10:161 11:27 12:480 13:11287.5 14:2651.8899 15:155.765 16:163.66701 17:0.38793099 18:23 19:0.28799999 20:0.797629 21:0.149854 22:0.61009598 23:3.4544799 24:1.725 # Flowers/Shape2/shape2-013.ppm
2.3158525867030845362138140024182e-12 1:198372 2:489585 3:350188 4:2196.53 5:9009.1797 6:3.64516 7:103.036 8:43743.5 9:15 10:62 11:23 12:281 13:6387.5098 14:3199.54 15:140.164 16:162 17:0.31914899 18:10.24 19:0.19230799 20:0.56647301 21:0.24381 22:0.70899999 23:13.6718 24:4.1150398 # Flowers/Shape5/shape5-066.ppm
-2.3158525867030845362138140024182e-12 1:126623 2:390616 3:298272 4:2047.9399 5:5341.1401 6:3.2156899 7:114.991 8:35298.898 9:17 10:51 11:9 12:292 13:6093.2402 14:2482.8101 15:138.185 16:130.88901 17:0.41666701 18:7.5882401 19:0.342105 20:0.424523 21:0.38342699 22:1.14081 23:14.2173 24:5.2865901 # Flowers/Shape4/shape4-011.ppm
2.3158525867030845362138140024182e-12 1:243150 2:524675 3:387816 4:2296.8101 5:10643.5 6:3.46067 7:103.352 8:17671.5 9:9 10:89 11:23 12:336 13:7948.9399 14:2732.02 15:153.735 16:161 17:0.390625 18:21.4 19:0.155844 20:0.62697202 21:0.215795 22:0.74683601 23:6.4682698 24:2.6006501 # Flowers/Shape5/shape5-029.ppm
-2.3158525867030845362138140024182e-12 1:264712 2:535896 3:408356 4:2404.3601 5:10742.4 6:3.9166701 7:106.329 8:48305.102 9:15 10:72 11:30 12:257 13:6699.98 14:3676.55 15:150.38499 16:165.533 17:0.53191501 18:31.125 19:0.2 20:0.648238 21:0.223819 22:0.62369502 23:13.1387 24:3.8297901 # Flowers/Shape1/shape1-008.ppm
2.3158525867030845362138140024182e-12 1:239103 2:504708 3:349672 4:2317.6399 5:11445.8 6:3.91892 7:108.602 8:23778.699 9:11 10:74 11:43 12:286 13:6290.2598 14:3231.1201 15:147.416 16:169.093 17:0.42307699 18:13.3 19:0.174603 20:0.683792 21:0.20248801 22:0.549568 23:7.3592901 24:2.8069 # Flowers/Shape5/shape5-093.ppm
-2.3158525867030845362138140024182e-12 1:302617 2:571769 3:431257 4:2472.8301 5:14127 6:3.6134501 7:104.643 8:4778.3599 9:4 10:119 11:29 12:403 13:9228.1797 14:2543 15:150.481 16:164.414 17:0.48750001 18:15.7917 19:0.265957 20:0.70170999 21:0.175043 22:0.65323001 23:1.87902 24:1.10698 # Flowers/Shape2/shape2-004.ppm
2.3158525867030845362138140024182e-12 1:219192 2:515673 3:404900 4:2451.97 5:9091.4502 6:3.50769 7:110.84 8:9503.3203 9:7 10:65 11:26 12:226 13:6810.8198 14:3372.1799 15:154.39799 16:165.423 17:0.30000001 18:21.6 19:0.203704 20:0.54134798 21:0.26969999 22:0.74914598 23:2.81815 24:1.99561 # Flowers/Shape5/shape5-101.ppm
-2.3158525867030845362138140024182e-12 1:223592 2:470470 3:321530 4:2140.8601 5:8798.5703 6:3.3176501 7:108.274 8:12076.3 9:9 10:85 11:27 12:311 13:7488.6899 14:2630.49 15:151.27 16:165.185 17:0.41666701 18:21.2143 19:0.268657 20:0.69539899 21:0.243319 22:0.85112602 23:4.5908799 24:2.71277 # Flowers/Shape2/shape2-006.ppm
2.3158525867030845362138140024182e-12 1:240959 2:527175 3:389360 4:2302.3401 5:10994.6 6:3.68293 7:105.914 8:16741.5 9:12 10:82 11:22 12:337 13:7958.6499 14:2938.53 15:153.72099 16:157.409 17:0.38983101 18:29.6364 19:0.17142899 20:0.61886102 21:0.209406 22:0.72386801 23:5.6972499 24:3.25828 # Flowers/Shape5/shape5-008.ppm
-2.3158525867030845362138140024182e-12 1:372766 2:627328 3:506705 4:2598.49 5:15258.4 6:3.2349 7:107.231 8:804.24799 9:3 10:149 11:35 12:528 13:12451.2 14:2501.79 15:152.08701 16:166.314 17:0.41904801 18:15 19:0.366972 20:0.73566699 21:0.17029899 22:0.816019 23:0.32146901 24:0.92738599 # Flowers/Shape2/shape2-009.ppm
2.3158525867030845362138140024182e-12 1:217733 2:522759 3:406344 4:2453.8799 5:9248.2002 6:3.68571 7:105.617 8:8824.7305 9:8 10:70 11:29 12:285 13:6887.1201 14:3110.47 15:153.38901 16:166.207 17:0.42857099 18:15.7647 19:0.186441 20:0.53583401 21:0.26533601 22:0.744699 23:2.8371 24:2.1705401 # Flowers/Shape5/shape5-001.ppm
-2.3158525867030845362138140024182e-12 1:118897 2:312759 3:235951 4:1825.34 5:5073.8301 6:3.2444401 7:117.406 8:26015.5 9:18 10:45 11:12 12:221 13:5341.0801 14:2642.1499 15:162.28999 16:143.75 17:0.36363599 18:35.833302 19:0.32352901 20:0.503905 21:0.35975501 22:1.05267 23:9.8463497 24:5.5479498 # Flowers/Shape4/shape4-005.ppm
2.3158525867030845362138140024182e-12 1:250939 2:540872 3:399313 4:2378.1201 5:11610.4 6:3.825 7:106.496 8:24328.5 9:16 10:80 11:22 12:305 13:7418.3101 14:3136.74 15:149.603 16:156.545 17:0.45454499 18:13.5238 19:0.17647099 20:0.62842703 21:0.204827 22:0.63893902 23:7.75598 24:4.1830101 # Flowers/Shape5/shape5-028.ppm
-2.3158525867030845362138140024182e-12 1:285665 2:529230 3:437022 4:2454.52 5:12144.2 6:3.5 7:107.371 8:34636.102 9:13 10:96 11:25 12:382 13:8794.0596 14:2975.6799 15:151.05499 16:164.8 17:0.297297 18:16.3636 19:0.21518999 20:0.65366298 21:0.202114 22:0.72413403 23:11.6397 24:3.7142899 # Flowers/Shape2/shape2-024.ppm
2.3158525867030845362138140024182e-12 1:227910 2:515040 3:342518 4:2373.78 5:9940.3096 6:3.4186001 7:107.736 8:14102.6 9:11 10:86 11:29 12:318 13:7449.3999 14:2650.1101 15:155.651 16:166.448 17:0.34375 18:21.7143 19:0.228571 20:0.66539502 21:0.238804 22:0.74941403 23:5.3215199 24:3.21769 # Flowers/Shape5/shape5-037.ppm
-2.3158525867030845362138140024182e-12 1:286772 2:529306 3:437619 4:2455.29 5:11490.3 6:3.48454 7:106 8:28352.9 9:13 10:97 11:24 12:385 13:8829.7305 14:2956.4099 15:150.605 16:162.33299 17:0.469697 18:12.75 19:0.29333299 20:0.65530002 21:0.21368399 22:0.76845098 23:9.5903101 24:3.7307701 # Flowers/Shape2/shape2-003.ppm
2.3158525867030845362138140024182e-12 1:218396 2:520492 3:404720 4:2450.51 5:8850.1504 6:3.5692301 7:105.305 8:17203.4 9:7 10:65 11:26 12:287 13:6925.7598 14:3359.9299 15:149.34801 16:165.769 17:0.41304299 18:14.1053 19:0.18181799 20:0.539621 21:0.276889 22:0.78255898 23:5.1201501 24:1.96121 # Flowers/Shape5/shape5-022.ppm
-2.3158525867030845362138140024182e-12 1:238912 2:440914 3:288834 4:2027.28 5:8642.5898 6:3.63077 7:108.994 8:53912.898 9:6 10:65 11:47 12:246 13:6227.6899 14:3675.5701 15:155.51199 16:171.702 17:0.444444 18:17.9231 19:0.160714 20:0.82716101 21:0.234568 22:0.720581 23:14.6679 24:1.65254 # Flowers/Shape1/shape1-015.ppm
2.3158525867030845362138140024182e-12 1:245827 2:539320 3:397810 4:2372.78 5:10336.5 6:3.6315801 7:104.159 8:24328.5 9:10 10:76 11:21 12:308 13:7425.77 14:3234.5601 15:148.084 16:156.095 17:0.51999998 18:10 19:0.169231 20:0.61795002 21:0.229554 22:0.71840298 23:7.52141 24:2.7536199 # Flowers/Shape5/shape5-048.ppm
-2.3158525867030845362138140024182e-12 1:284435 2:493751 3:343364 4:2260.77 5:10095.7 6:3.73913 7:104.492 8:17671.5 9:8 10:69 11:50 12:271 13:6454.3398 14:4122.25 15:152.284 16:172.7 17:0.68292701 18:15.9375 19:0.210526 20:0.82837999 21:0.22393499 22:0.63931799 23:4.28685 24:2.1395299 # Flowers/Shape1/shape1-013.ppm
2.3158525867030845362138140024182e-12 1:229397 2:519311 3:343542 4:2375.73 5:10158.6 6:3.54545 7:105.357 8:10568.3 9:7 10:88 11:34 12:309 13:7461.2798 14:2606.79 15:157.69901 16:165.882 17:0.44262299 18:24.75 19:0.25714299 20:0.66774303 21:0.233863 22:0.73447698 23:4.0541501 24:1.97436 # Flowers/Shape5/shape5-057.ppm
-2.3158525867030845362138140024182e-12 1:289819 2:488684 3:348356 4:2274.99 5:12900.8 6:4.05479 7:110.466 8:58106.898 9:18 10:73 11:49 12:244 13:6011.6499 14:3970.1201 15:156.791 16:172.367 17:0.25862101 18:16.4286 19:0.17741901 20:0.83196098 21:0.17634501 22:0.46599001 23:14.6361 24:4.4391899 # Flowers/Shape1/shape1-012.ppm
2.3158525867030845362138140024182e-12 1:207375 2:504135 3:349980 4:2244.52 5:9457.9404 6:3.90909 7:104.396 8:17203.4 9:11 10:66 11:23 12:233 13:5850.7798 14:3142.05 15:149.32201 16:160.478 17:0.466667 18:22.299999 19:0.137931 20:0.59253401 21:0.237315 22:0.61861002 23:5.4752102 24:2.8139501 # Flowers/Shape5/shape5-084.ppm
-2.3158525867030845362138140024182e-12 1:160245 2:386100 3:310072 4:2063.8501 5:5845.4199 6:3.4074099 7:102.623 8:11309.7 9:9 10:54 11:26 12:336 13:7713.71 14:2967.5 15:148.51801 16:164.577 17:0.45945901 18:12.44 19:0.384615 20:0.51679802 21:0.35307199 22:1.31962 23:3.8112099 24:2.6413 # Flowers/Shape1/shape1-016.ppm
2.3158525867030845362138140024182e-12 1:228188 2:518752 3:342758 4:2373.9099 5:9469.7598 6:3.4814799 7:109.368 8:28352.9 9:14 10:81 11:30 12:317 13:7459.4302 14:2817.1399 15:155.38499 16:165.60001 17:0.42105299 18:20.133301 19:0.208955 20:0.66574198 21:0.25068301 22:0.78771102 23:10.0644 24:4.0212798 # Flowers/Shape5/shape5-016.ppm
-2.3158525867030845362138140024182e-12 1:304009 2:504654 3:399098 4:2327.8301 5:10913.3 6:3.2765999 7:108.682 8:3848.45 9:2 10:94 11:33 12:371 13:8852.1396 14:3234.1299 15:154.27499 16:164.758 17:0.46875 18:18.5263 19:0.27026999 20:0.76173902 21:0.213302 22:0.81113201 23:1.18995 24:0.61039001 # Flowers/Shape2/shape2-005.ppm
2.3158525867030845362138140024182e-12 1:201220 2:500544 3:351230 4:2201.75 5:9329.0098 6:3.5211301 7:107.983 8:43005.301 9:17 10:71 11:23 12:263 13:6415.7202 14:2834.0901 15:148.688 16:161.043 17:0.31481501 18:16.5333 19:0.16393401 20:0.57290202 21:0.236011 22:0.68771702 23:15.1743 24:4.8280001 # Flowers/Shape5/shape5-026.ppm
-2.3158525867030845362138140024182e-12 1:197356 2:389327 3:272836 4:1946.41 5:7642.9502 6:3.7735801 7:102.279 8:26590.4 9:15 10:53 11:31 12:235 13:5695.04 14:3723.7 15:157.694 16:164.323 17:0.472222 18:17.0769 19:0.20454501 20:0.72334898 21:0.25466701 22:0.74513602 23:7.1408701 24:3.9749999 # Flowers/Shape1/shape1-002.ppm
2.3158525867030845362138140024182e-12 1:207984 2:506160 3:350153 4:2245.26 5:9365.6602 6:3.7910399 7:108.348 8:23778.699 9:12 10:67 11:21 12:241 13:5833.8501 14:3104.25 15:156.444 16:156.619 17:0.48888901 18:47.200001 19:0.196429 20:0.59398198 21:0.239733 22:0.62289798 23:7.6600599 24:3.16535 # Flowers/Shape5/shape5-024.ppm
-2.3158525867030845362138140024182e-12 1:459975 2:590720 3:466051 4:2488 5:19759.5 6:3.9316199 7:117.245 8:71631.5 9:21 10:117 11:95 12:312 13:7719.9502 14:3931.4099 15:160.532 16:174.43201 17:0.46250001 18:21.2857 19:0.17 20:0.98696202 21:0.12591401 22:0.39069501 23:18.220301 24:5.3413 # Flowers/Shape3/shape3-014.ppm
2.3158525867030845362138140024182e-12 1:210412 2:508269 3:353921 4:2255.78 5:8595.2197 6:3.62712 7:103.8 8:32685.1 9:14 10:59 11:23 12:250 13:5920.3999 14:3566.3101 15:151.808 16:161.34801 17:0.439024 18:21.727301 19:0.229167 20:0.59451801 21:0.262445 22:0.688802 23:9.1649704 24:3.8598101 # Flowers/Shape5/shape5-044.ppm
-2.3158525867030845362138140024182e-12 1:129191 2:315120 3:228557 4:1796.39 5:5015.1299 6:3.34694 7:106.183 8:20106.199 9:10 10:49 11:18 12:245 13:5973.6099 14:2636.54 15:155.661 16:153.11099 17:0.40000001 18:16.5 19:0.441176 20:0.56524497 21:0.35819301 22:1.19112 23:7.6259599 24:2.9877999 # Flowers/Shape1/shape1-024.ppm
2.3158525867030845362138140024182e-12 1:216950 2:522415 3:403149 4:2448.74 5:7705.0601 6:3.3 7:106.659 8:17203.4 9:5 10:60 11:27 12:290 13:6874.9302 14:3615.8301 15:150.414 16:164 17:0.36363599 18:11.6087 19:0.17647099 20:0.53813702 21:0.31780899 22:0.89226198 23:4.7578001 24:1.51515 # Flowers/Shape5/shape5-042.ppm
-2.3158525867030845362138140024182e-12 1:370827 2:525280 3:414188 4:2349.3601 5:16309.1 6:3.7164199 7:107.091 8:5808.7998 9:6 10:134 11:36 12:436 13:9115.21 14:2767.3601 15:141.823 16:165.33299 17:0.48888901 18:16.440001 19:0.27619001 20:0.895311 21:0.144052 22:0.55890203 23:2.09904 24:1.61446 # Flowers/Shape3/shape3-011.ppm
2.3158525867030845362138140024182e-12 1:196182 2:497718 3:348992 4:2195.0801 5:8346.8604 6:3.6896601 7:108.474 8:43005.301 9:15 10:58 11:22 12:260 13:6303.9702 14:3382.4399 15:149.46201 16:157.27299 17:0.34883699 18:16.3333 19:0.208333 20:0.56213897 21:0.26298299 22:0.75525099 23:12.7143 24:4.0654202 # Flowers/Shape5/shape5-005.ppm
-2.3158525867030845362138140024182e-12 1:199778 2:390600 3:274610 4:1951.1899 5:7906.52 6:3.7818201 7:98.254898 8:33329.199 9:17 10:55 11:32 12:237 13:5701.6499 14:3632.3301 15:154.882 16:168.875 17:0.61764699 18:13.8125 19:0.19565199 20:0.72749698 21:0.246782 22:0.72113401 23:9.1756897 24:4.4951901 # Flowers/Shape1/shape1-023.ppm
2.3158525867030845362138140024182e-12 1:209370 2:508200 3:350950 4:2252.7 5:8692.5098 6:3.76667 7:101.916 8:32047.4 9:14 10:60 11:20 12:243 13:5884.02 14:3489.5 15:150.543 16:160.2 17:0.395349 18:23.299999 19:0.22449 20:0.59658098 21:0.25915399 22:0.676907 23:9.18396 24:3.71681 # Flowers/Shape5/shape5-064.ppm
-2.3158525867030845362138140024182e-12 1:455640 2:581994 3:464864 4:2477.76 5:17878.801 6:3.3173699 7:119.062 8:530.92902 9:1 10:167 11:94 12:458 13:11410.5 14:2728.3899 15:159.88 16:174.77699 17:0.43965501 18:29.5333 19:0.274809 20:0.98016 21:0.138586 22:0.63821399 23:0.19459499 24:0.30144399 # Flowers/Shape3/shape3-017.ppm
2.3158525867030845362138140024182e-12 1:208376 2:508269 3:351212 4:2247.3899 5:8059.7002 6:3.67273 7:102.224 8:33329.199 9:12 10:55 11:23 12:241 13:5874.98 14:3788.6499 15:154.892 16:161.34801 17:0.447368 18:25.7778 19:0.19565199 20:0.59330398 21:0.27884299 22:0.72893298 23:8.7971096 24:3.2673299 # Flowers/Shape5/shape5-003.ppm
-2.3158525867030845362138140024182e-12 1:131415 2:313040 3:228154 4:1792.03 5:5121.3999 6:3.28 7:108.623 8:10935.9 9:10 10:50 11:19 12:241 13:5926.79 14:2628.3 15:159.45599 16:155.211 17:0.38888901 18:29.125 19:0.42857099 20:0.575993 21:0.34990999 22:1.1572599 23:4.16081 24:3.04878 # Flowers/Shape1/shape1-003.ppm
2.3158525867030845362138140024182e-12 1:238142 2:541812 3:350940 4:2317.1001 5:9920.8203 6:3.8550701 7:106.046 8:11309.7 9:9 10:69 11:43 12:300 13:6381.2998 14:3451.3401 15:141.89 16:169.535 17:0.5 18:24 19:0.232143 20:0.67858398 21:0.233559 22:0.64322299 23:3.2769101 24:2.33459 # Flowers/Shape5/shape5-033.ppm
-2.3158525867030845362138140024182e-12 1:361641 2:458664 3:369082 4:2163.9299 5:16223.9 6:3.8407099 7:118.629 8:36643.5 9:19 10:113 11:79 12:308 13:7513.5298 14:3200.3601 15:157.435 16:174.633 17:0.50666702 18:21 19:0.22826099 20:0.97983801 21:0.133379 22:0.46311399 23:11.4498 24:4.947 # Flowers/Shape3/shape3-012.ppm
2.3158525867030845362138140024182e-12 1:202178 2:502665 3:351865 4:2204.5 5:9052.3701 6:3.6716399 7:102.38 8:41547.602 9:16 10:67 11:20 12:261 13:6378.73 14:3017.5801 15:149.36 16:160.8 17:0.42553201 18:16.4 19:0.175439 20:0.57459003 21:0.243527 22:0.70464802 23:13.7685 24:4.3577199 # Flowers/Shape5/shape5-046.ppm
-2.3158525867030845362138140024182e-12 1:141290 2:266682 3:208990 4:1695.4 5:4487.75 6:3.5151501 7:105.193 8:33329.199 9:10 10:33 11:33 12:201 13:4885.8599 14:4281.5098 15:145.687 16:164.091 17:0.375 18:10.8235 19:0.222222 20:0.67606002 21:0.377783 22:1.08871 23:7.78444 24:2.84483 # Flowers/Shape1/shape1-019.ppm
2.3158525867030845362138140024182e-12 1:237230 2:539679 3:349362 4:2315.72 5:11117.1 6:3.8055601 7:110.228 8:22698 9:11 10:72 11:46 12:299 13:6350.8799 14:3294.8601 15:142.94299 16:168.739 17:0.384615 18:14.7368 19:0.180328 20:0.67903697 21:0.20830201 22:0.57126898 23:6.8889098 24:2.8905101 # Flowers/Shape5/shape5-053.ppm
-2.3158525867030845362138140024182e-12 1:259705 2:369135 3:288880 4:1991.73 5:10122.2 6:3.1858399 7:119.623 8:5281.02 9:4 10:113 11:57 12:350 13:8893.1299 14:2298.27 15:159.82001 16:172.614 17:0.43037999 18:25.9231 19:0.43037999 20:0.89900798 21:0.19677 22:0.87858099 23:2.2978201 24:1.25556 # Flowers/Shape3/shape3-005.ppm
2.3158525867030845362138140024182e-12 1:237463 2:539968 3:350296 4:2317.3899 5:10303.7 6:3.8209 7:112.175 8:23235.199 9:11 10:67 11:42 12:292 13:6352.27 14:3544.22 15:144.46899 16:167.76199 17:0.48888901 18:10.68 19:0.196429 20:0.67789102 21:0.22490799 22:0.61650199 23:6.5558 24:2.8789101 # Flowers/Shape5/shape5-012.ppm
-2.3158525867030845362138140024182e-12 1:306997 2:396896 3:318241 4:2007.2 5:12861.9 6:3.3880601 7:119.525 8:4071.5 9:6 10:134 11:83 12:392 13:9588.5303 14:2291.02 15:157.258 16:175.349 17:0.44086 18:19.631599 19:0.42553201 20:0.96466798 21:0.156058 22:0.74550003 23:1.77716 24:1.7709301 # Flowers/Shape3/shape3-024.ppm
2.3158525867030845362138140024182e-12 1:213862 2:524426 3:362516 4:2268.3201 5:8875.9404 6:3.30233 7:111.734 8:9852.0303 9:8 10:86 11:21 12:282 13:7490.48 14:2486.77 15:154.84399 16:156.19 17:0.34375 18:17.799999 19:0.194444 20:0.589939 21:0.25555801 22:0.84390903 23:3.9617801 24:2.4225399 # Flowers/Shape5/shape5-043.ppm
-2.3158525867030845362138140024182e-12 1:309152 2:396896 3:318670 4:2008.13 5:13047.9 6:3.3475201 7:119.861 8:3631.6799 9:4 10:141 11:79 12:394 13:9593.2695 14:2192.5701 15:156.784 16:174.54401 17:0.5 18:27.1429 19:0.39603999 20:0.97013301 21:0.153905 22:0.735237 23:1.65636 24:1.1949199 # Flowers/Shape3/shape3-003.ppm
2.3158525867030845362138140024182e-12 1:213766 2:525481 3:365338 4:2279.3999 5:8615.9297 6:3.3513501 7:108.354 8:11689.9 9:11 10:74 11:21 12:316 13:7557.1899 14:2888.73 15:153.155 16:157 17:0.27586201 18:14.8 19:0.23333301 20:0.585118 21:0.26455599 22:0.87711698 23:4.04671 24:3.2822599 # Flowers/Shape5/shape5-083.ppm
-2.3158525867030845362138140024182e-12 1:267170 2:370040 3:293970 4:1972.73 5:10925.7 6:3.2181799 7:115.665 8:706.85797 9:2 10:110 11:62 12:383 13:8374.8301 14:2428.8201 15:139.23801 16:171.839 17:0.32530099 18:9.9428596 19:0.25 20:0.90883303 21:0.18055899 22:0.76652902 23:0.29102999 24:0.62146902 # Flowers/Shape3/shape3-018.ppm
2.3158525867030845362138140024182e-12 1:208426 2:524076 3:363646 4:2273.47 5:8505.79 6:3.5820899 7:104.26 8:10568.3 9:8 10:67 11:19 12:316 13:7523.9302 14:3110.8401 15:153.5 16:153.842 17:0.39583299 18:14.0476 19:0.26415101 20:0.573156 21:0.26728499 22:0.884565 23:3.39726 24:2.23333 # Flowers/Shape5/shape5-063.ppm
-2.3158525867030845362138140024182e-12 1:283377 2:377500 3:295284 4:1930.49 5:11084 6:3.0780101 7:119.563 8:1963.5 9:2 10:141 11:84 12:424 13:10352.3 14:2009.76 15:160.328 16:173.679 17:0.43877599 18:34.333302 19:0.58427 20:0.95967299 21:0.174169 22:0.93398201 23:0.976978 24:0.64977002 # Flowers/Shape3/shape3-019.ppm
2.3158525867030845362138140024182e-12 1:213389 2:527571 3:362670 4:2274.1499 5:8964.5996 6:3.4473701 7:103.882 8:13684.8 9:9 10:76 11:18 12:244 13:7393.0498 14:2807.75 15:162.217 16:153.61099 17:0.46153799 18:26.111099 19:0.26666701 20:0.58838397 21:0.253681 22:0.82469398 23:4.87393 24:2.6106901 # Flowers/Shape5/shape5-023.ppm
-2.3158525867030845362138140024182e-12 1:216547 2:332800 3:270836 4:1966.26 5:8453.8398 6:4.1463399 7:103.558 8:62458 9:23 10:41 11:36 12:220 13:4684.9302 14:5281.6299 15:143.923 16:165.778 17:0.32258099 18:17.3333 19:0.17142899 20:0.79954797 21:0.23258799 22:0.554178 23:11.8255 24:5.54706 # Flowers/Shape1/shape1-005.ppm
2.3158525867030845362138140024182e-12 1:178752 2:526768 3:362564 4:2271.8899 5:7383.3501 6:3.64516 7:103.463 8:11309.7 9:6 10:62 11:19 12:347 13:7628.9502 14:2883.1001 15:143.896 16:155.211 17:0.51219499 18:12.88 19:0.21568599 20:0.49302399 21:0.307704 22:1.03326 23:3.92276 24:1.6460201 # Flowers/Shape5/shape5-002.ppm
-2.3158525867030845362138140024182e-12 1:210223 2:325280 3:271244 4:1928.64 5:7917.8999 6:3.9047599 7:105.098 8:76453.797 9:22 10:42 11:37 12:218 13:4889.6099 14:5005.2998 15:152.44501 16:166.946 17:0.555556 18:26.25 19:0.166667 20:0.77503097 21:0.243579 22:0.61753798 23:15.2746 24:5.63415 # Flowers/Shape1/shape1-007.ppm
2.3158525867030845362138140024182e-12 1:230073 2:578485 3:342490 4:2376.3601 5:9397.2197 6:3.3333299 7:108.968 8:18145.801 9:9 10:81 11:31 12:321 13:7479.8101 14:2840.4099 15:153.991 16:163.48399 17:0.327869 18:28.181801 19:0.265625 20:0.67176598 21:0.25287899 22:0.795959 23:6.3884702 24:2.7 # Flowers/Shape5/shape5-077.ppm
-2.3158525867030845362138140024182e-12 1:147957 2:265727 3:207974 4:1722.62 5:6340.7202 6:3.68627 7:103.409 8:28952.9 9:16 10:51 11:27 12:206 13:4892.5298 14:2901.1299 15:154.786 16:165.963 17:0.41666701 18:17.727301 19:0.27500001 20:0.71142101 21:0.271676 22:0.77160501 23:9.9798899 24:4.3404298 # Flowers/Shape1/shape1-022.ppm
2.3158525867030845362138140024182e-12 1:249190 2:629475 3:399998 4:2376.3501 5:11150.8 6:3.7249999 7:103.266 8:24884.6 9:13 10:80 11:22 12:321 13:7425.1099 14:3114.8701 15:147.01601 16:156.81799 17:0.53846198 18:15.05 19:0.15942 20:0.62297702 21:0.213111 22:0.665883 23:7.9889498 24:3.4899299 # Flowers/Shape5/shape5-068.ppm
-2.3158525867030845362138140024182e-12 1:151412 2:267344 3:207694 4:1722.55 5:6874.1401 6:3.6981101 7:103.909 8:33329.199 9:18 10:53 11:26 12:209 13:4870.2202 14:2856.8401 15:154.27299 16:165 17:0.35897401 18:18 19:0.26190501 20:0.72901601 21:0.25058401 22:0.70848501 23:11.6665 24:4.8673501 # Flowers/Shape1/shape1-001.ppm
2.3158525867030845362138140024182e-12 1:243799 2:626240 3:397030 4:2368.5601 5:10189.8 6:3.5999999 7:112.426 8:23778.699 9:11 10:75 11:23 12:244 13:7228.8701 14:3250.6499 15:157.467 16:159.217 17:0.36363599 18:23.4 19:0.171875 20:0.614057 21:0.232444 22:0.70942098 23:7.3150702 24:3.0555601 # Flowers/Shape5/shape5-088.ppm
-2.3158525867030845362138140024182e-12 1:148902 2:257335 3:196871 4:1657.04 5:5454.2798 6:3.55 7:104.569 8:22167.1 9:13 10:40 11:30 12:194 13:4685.2598 14:3722.5601 15:153.53101 16:165.467 17:0.29032299 18:15.1667 19:0.25 20:0.75634599 21:0.30380601 22:0.85900801 23:5.9547901 24:3.6619699 # Flowers/Shape1/shape1-017.ppm
2.3158525867030845362138140024182e-12 1:212035 2:617732 3:420034 4:2466.6599 5:8754.1201 6:3.5211301 7:106.788 8:5808.7998 9:6 10:71 11:15 12:314 13:7330.0601 14:2986.4099 15:153.258 16:150.533 17:0.510638 18:23.153799 19:0.22413801 20:0.50480402 21:0.28177199 22:0.837327 23:1.94508 24:1.704 # Flowers/Shape5/shape5-076.ppm
-1.5271895841216217554300240097386e-12 1:194985 2:288904 3:224838 4:1741.11 5:9684.9805 6:3.90769 7:106.815 8:34636.102 9:18 10:65 11:44 12:200 13:4600.3799 14:2999.77 15:150.875 16:167.795 17:0.35416701 18:17.181801 19:0.18181799 20:0.86722398 21:0.179774 22:0.47500199 23:11.5462 24:4.6062999 # Flowers/Shape1/shape1-018.ppm
2.3158525867030845362138140024182e-12 1:215033 2:624864 3:420144 4:2465.6599 5:9063.6602 6:3.82353 7:104.562 8:6939.7798 9:8 10:68 11:16 12:317 13:7318.9399 14:3162.25 15:155.35001 16:157.5 17:0.78947401 18:23.3846 19:0.23636401 20:0.51180899 21:0.27203801 22:0.807504 23:2.1945701 24:2.09231 # Flowers/Shape5/shape5-036.ppm
