SVM-light Version V6.02
0 # kernel type
3 # kernel parameter -d 
1 # kernel parameter -g 
1 # kernel parameter -s 
1 # kernel parameter -r 
empty# kernel parameter -u 
24 # highest feature index 
193 # number of training documents 
193 # number of support vectors plus 1 
-3.0895602 # threshold b, each following line is a SV (starting with alpha*y)
-1.5301287404387430311552761863503e-05 6:3.37255 7:114.091 15:158.80701 16:173.052 17:0.5 19:0.378378 20:0.96189898 21:0.181402 22:0.72412401 # Flowers/Shape3/shape3-004.ppm
1.5301287404387430311552761863503e-05 6:3.6666701 7:107.402 15:155.845 16:166.605 17:0.40000001 19:0.235294 20:0.84977502 21:0.25397199 22:0.62661999 24:4.90909 # Flowers/Shape1/shape1-000.ppm
-1.5301287404387430311552761863503e-05 6:3.7164199 7:107.091 15:141.823 16:165.33299 17:0.48888901 19:0.27619001 20:0.895311 21:0.144052 22:0.55890203 # Flowers/Shape3/shape3-011.ppm
1.5301287404387430311552761863503e-05 6:4.1728401 7:114.778 15:167.173 16:174.38499 17:0.285714 19:0.157143 20:0.812536 21:0.174567 22:0.445499 24:2.39645 # Flowers/Shape1/shape1-035.ppm
-1.5301287404387430311552761863503e-05 6:3.9344299 7:117.76 15:167.23399 16:174.145 17:0.48780501 19:0.184466 20:0.94499302 21:0.13054401 22:0.422892 # Flowers/Shape3/shape3-015.ppm
1.5301287404387430311552761863503e-05 6:3.8309901 7:106.229 15:139.30701 16:168.688 17:0.44898 19:0.16393401 20:0.64651197 21:0.209958 22:0.594383 24:5.4816198 # Flowers/Shape1/shape1-069.ppm
-1.5301287404387430311552761863503e-05 6:3.6417899 7:106.808 15:145.56599 16:165.806 17:0.50561798 19:0.229358 20:0.897084 21:0.14288101 22:0.55175197 # Flowers/Shape3/shape3-052.ppm
1.5301287404387430311552761863503e-05 6:3.95349 7:108.529 15:169.545 16:172.061 17:0.482759 19:0.16216201 20:0.813241 21:0.17224 22:0.435303 24:1.7705899 # Flowers/Shape1/shape1-055.ppm
-1.5301287404387430311552761863503e-05 6:3.7142899 7:107.665 15:164.347 16:168.675 17:0.47777799 19:0.25471699 20:0.90687901 21:0.139836 22:0.52689898 # Flowers/Shape3/shape3-032.ppm
1.5301287404387430311552761863503e-05 6:3.9000001 7:110.651 15:143.98199 16:165.33299 17:0.42857099 19:0.15942 20:0.652758 21:0.19502801 22:0.54806697 24:5.1282101 # Flowers/Shape1/shape1-049.ppm
-1.5301287404387430311552761863503e-05 6:3.6666701 7:111.018 15:142.86 16:165.868 17:0.482353 19:0.285714 20:0.89584798 21:0.146844 22:0.565732 # Flowers/Shape3/shape3-092.ppm
1.5301287404387430311552761863503e-05 6:3.1698101 7:114.339 15:157.77699 16:155.68401 17:0.32499999 19:0.472222 20:0.57155299 21:0.34956399 22:1.16238 24:2.8392899 # Flowers/Shape1/shape1-044.ppm
-1.5301287404387430311552761863503e-05 6:3.3396201 7:114.795 15:164.923 16:171.414 17:0.413333 19:0.29268301 20:0.96703303 21:0.170073 22:0.68435401 # Flowers/Shape3/shape3-013.ppm
1.5301287404387430311552761863503e-05 6:3.7377 7:106.617 15:143.714 16:171.04401 17:0.29787201 19:0.173077 20:0.86197102 21:0.19865701 22:0.52351803 24:4.2807002 # Flowers/Shape1/shape1-079.ppm
-1.5301287404387430311552761863503e-05 6:3.5609801 7:112.044 15:147.22501 16:165.33299 17:0.44705901 19:0.25510201 20:0.89903098 21:0.15416101 22:0.59502298 # Flowers/Shape3/shape3-072.ppm
1.5301287404387430311552761863503e-05 6:3.8684199 7:109.188 15:157.683 16:174.522 17:0.43396199 19:0.15151501 20:0.81069601 21:0.19266701 22:0.50383198 24:1.55102 # Flowers/Shape1/shape1-075.ppm
-1.5301287404387430311552761863503e-05 6:3.5652201 7:109.703 15:161.19 16:173.754 17:0.39393899 19:0.31428599 20:0.95740998 21:0.23543701 22:0.65774697 # Flowers/Shape3/shape3-021.ppm
1.5301287404387430311552761863503e-05 6:4.1782198 7:114.776 15:156.077 16:171.172 17:0.246914 19:0.134831 20:0.85445601 21:0.135003 22:0.35566199 24:3.82938 # Flowers/Shape1/shape1-011.ppm
-1.5301287404387430311552761863503e-05 6:3.1965799 7:112.677 15:146.49699 16:171.30901 17:0.32954499 19:0.23157901 20:0.91356802 21:0.18249901 22:0.77529597 # Flowers/Shape3/shape3-039.ppm
1.5301287404387430311552761863503e-05 6:3.63077 7:108.994 15:155.51199 16:171.702 17:0.444444 19:0.160714 20:0.82716101 21:0.234568 22:0.720581 24:1.65254 # Flowers/Shape1/shape1-015.ppm
-1.5301287404387430311552761863503e-05 6:3.73913 7:109.81 15:158.01801 16:172.35699 17:0.39393899 19:0.31428599 20:0.96639103 21:0.22868299 22:0.63758302 # Flowers/Shape3/shape3-061.ppm
1.5301287404387430311552761863503e-05 6:3.65432 7:110.056 15:153.69701 16:171.519 17:0.42105299 19:0.208955 20:0.84382099 21:0.184844 22:0.56342101 24:2.4628401 # Flowers/Shape1/shape1-056.ppm
-1.5301287404387430311552761863503e-05 6:3.4769199 7:110.571 15:157.855 16:173.7 17:0.444444 19:0.32653099 20:0.96840698 21:0.2068 22:0.672095 # Flowers/Shape3/shape3-090.ppm
1.5301287404387430311552761863503e-05 6:4.0227299 7:113.628 15:157.703 16:172.127 17:0.239437 19:0.128205 20:0.84982002 21:0.152945 22:0.40203401 24:3.2316401 # Flowers/Shape1/shape1-072.ppm
-1.5301287404387430311552761863503e-05 6:3.7358501 7:111.414 15:156.27901 16:171.714 17:0.432432 19:0.26190501 20:0.97117001 21:0.21546701 22:0.60127002 # Flowers/Shape3/shape3-000.ppm
1.5301287404387430311552761863503e-05 6:3.65517 7:107.058 15:154.065 16:171.082 17:0.48717901 19:0.208333 20:0.81382102 21:0.261168 22:0.79762 24:1.36792 # Flowers/Shape1/shape1-096.ppm
-1.5301287404387430311552761863503e-05 6:3.7142899 7:112.519 15:157.036 16:171.185 17:0.441176 19:0.28947401 20:0.96086103 21:0.222389 22:0.61998099 # Flowers/Shape3/shape3-081.ppm
1.5301287404387430311552761863503e-05 6:4.1414099 7:109.804 15:156.44701 16:174.108 17:0.2375 19:0.151163 20:0.81715697 21:0.14665499 22:0.382846 24:2.8975599 # Flowers/Shape1/shape1-014.ppm
-1.5301287404387430311552761863503e-05 6:3.47368 7:111.357 15:159.48199 16:173.25999 17:0.484375 19:0.35714301 20:0.96251798 21:0.17949399 22:0.68927199 # Flowers/Shape3/shape3-029.ppm
1.5301287404387430311552761863503e-05 6:3.8487401 7:109.72 15:155.16499 16:171.244 17:0.45122001 19:0.17821801 20:0.75334603 21:0.15637299 22:0.55449498 24:2.5982499 # Flowers/Shape1/shape1-071.ppm
-1.5301287404387430311552761863503e-05 6:3.2181799 7:115.665 15:139.23801 16:171.839 17:0.32530099 19:0.25 20:0.90883303 21:0.18055899 22:0.76652902 # Flowers/Shape3/shape3-018.ppm
1.5301287404387430311552761863503e-05 6:4.1052599 7:111.42 15:156.42599 16:172.883 17:0.25 19:0.130952 20:0.851978 21:0.14547201 22:0.38256299 24:3.6538501 # Flowers/Shape1/shape1-052.ppm
-1.5301287404387430311552761863503e-05 6:3.6961999 7:112.512 15:162.29201 16:174.14301 17:0.410714 19:0.234375 20:0.98186702 21:0.17389201 22:0.56010801 # Flowers/Shape3/shape3-050.ppm
1.5301287404387430311552761863503e-05 6:3.74545 7:111.52 15:153.771 16:169.375 17:0.392405 19:0.182796 20:0.68277502 21:0.176098 22:0.62200397 24:3.2038801 # Flowers/Shape1/shape1-091.ppm
-1.5301287404387430311552761863503e-05 6:3.5051501 7:112.453 15:158.681 16:173.76401 17:0.405797 19:0.24359 20:0.969441 21:0.16977599 22:0.64488602 # Flowers/Shape3/shape3-037.ppm
1.5301287404387430311552761863503e-05 6:4.2083302 7:113.062 15:155.646 16:174 17:0.23076899 19:0.116279 20:0.85322797 21:0.141366 22:0.37281701 24:4.75248 # Flowers/Shape1/shape1-032.ppm
-1.5301287404387430311552761863503e-05 6:3.9677401 7:113.633 15:155.752 16:171.582 17:0.45882401 19:0.20388301 20:0.84948701 21:0.138864 22:0.43908501 # Flowers/Shape3/shape3-056.ppm
1.5301287404387430311552761863503e-05 6:4.0215101 7:106.783 15:158.09599 16:174.054 17:0.23999999 19:0.148148 20:0.817321 21:0.159758 22:0.41920099 24:2.48663 # Flowers/Shape1/shape1-095.ppm
-1.5301287404387430311552761863503e-05 6:3.4105301 7:112.895 15:158.21201 16:173.914 17:0.50793701 19:0.33802801 20:0.97101301 21:0.18120299 22:0.701217 # Flowers/Shape3/shape3-069.ppm
1.5301287404387430311552761863503e-05 6:3.8205099 7:112.303 15:155.008 16:171.267 17:0.47169799 19:0.25806499 20:0.82091099 21:0.187004 22:0.57210398 24:4.71141 # Flowers/Shape1/shape1-076.ppm
-1.5301287404387430311552761863503e-05 6:3.6521699 7:113.164 15:158.479 16:173.88499 17:0.39393899 19:0.277778 20:0.95981598 21:0.236114 22:0.659706 # Flowers/Shape3/shape3-041.ppm
1.5301287404387430311552761863503e-05 6:4.1315799 7:110.059 15:158.147 16:172.32001 17:0.206349 19:0.13432799 20:0.83072299 21:0.175073 22:0.45734701 24:3.6305699 # Flowers/Shape1/shape1-093.ppm
-1.5301287404387430311552761863503e-05 6:3.3734901 7:113.066 15:160.06 16:174.395 17:0.56603801 19:0.40678 20:0.95236999 21:0.19956499 22:0.76775002 # Flowers/Shape3/shape3-049.ppm
1.5301287404387430311552761863503e-05 6:4.05479 7:110.466 15:156.791 16:172.367 17:0.25862101 19:0.17741901 20:0.83196098 21:0.17634501 22:0.46599001 24:4.4391899 # Flowers/Shape1/shape1-012.ppm
-1.5301287404387430311552761863503e-05 6:3.69014 7:113.445 15:159.914 16:174.276 17:0.44898 19:0.24561401 20:0.97000599 21:0.184003 22:0.59329897 # Flowers/Shape3/shape3-009.ppm
1.5301287404387430311552761863503e-05 6:4.0289898 7:106.545 15:155.83701 16:170.711 17:0.254545 19:0.18965501 20:0.83573997 21:0.195213 22:0.51495802 24:2.4820099 # Flowers/Shape1/shape1-033.ppm
-1.5301287404387430311552761863503e-05 6:3.42222 7:114.408 15:153.399 16:174.132 17:0.40625 19:0.25 20:0.95761102 21:0.179361 22:0.68478501 # Flowers/Shape3/shape3-097.ppm
1.5301287404387430311552761863503e-05 6:4.1276598 7:109.065 15:157.737 16:173.47501 17:0.27026999 19:0.146341 20:0.85408998 21:0.147577 22:0.38719001 24:4.6030898 # Flowers/Shape1/shape1-092.ppm
-1.5301287404387430311552761863503e-05 6:3.59322 7:113.766 15:158.867 16:173.85699 17:0.340909 19:0.204082 20:0.96908802 21:0.197652 22:0.577124 # Flowers/Shape3/shape3-006.ppm
1.5301287404387430311552761863503e-05 6:3.8181801 7:107.184 15:152.912 16:171 17:0.45282999 19:0.14925399 20:0.82830101 21:0.18655001 22:0.53349 24:3.1428599 # Flowers/Shape1/shape1-094.ppm
-1.5301287404387430311552761863503e-05 6:3.4705901 7:114.901 15:152.203 16:173.806 17:0.47826099 19:0.27500001 20:0.96840203 21:0.17072301 22:0.65309399 # Flowers/Shape3/shape3-057.ppm
1.5301287404387430311552761863503e-05 6:3.8499999 7:108.61 15:152.25 16:171.431 17:0.45454499 19:0.23076899 20:0.835347 21:0.186638 22:0.56806397 24:4.1558399 # Flowers/Shape1/shape1-036.ppm
-1.5301287404387430311552761863503e-05 6:3.7757001 7:114 15:157.103 16:174.69099 17:0.407895 19:0.229885 20:0.97533298 21:0.1406 22:0.489443 # Flowers/Shape3/shape3-053.ppm
1.5301287404387430311552761863503e-05 6:3.7777801 7:110.647 15:160.78 16:165.10001 17:0.384615 19:0.173913 20:0.72584498 21:0.23681299 22:0.681207 24:5.0294099 # Flowers/Shape1/shape1-063.ppm
-1.5301287404387430311552761863503e-05 6:3.5833299 7:114.473 15:159.368 16:172.662 17:0.46938801 19:0.285714 20:0.97045499 21:0.18972901 22:0.613392 # Flowers/Shape3/shape3-030.ppm
1.5301287404387430311552761863503e-05 6:3.73913 7:104.492 15:152.284 16:172.7 17:0.68292701 19:0.210526 20:0.82837999 21:0.22393499 22:0.63931799 24:2.1395299 # Flowers/Shape1/shape1-013.ppm
-1.5301287404387430311552761863503e-05 6:3.9322 7:115.049 15:155.65601 16:172.80901 17:0.439024 19:0.21649501 20:0.810965 21:0.14800601 22:0.47010899 # Flowers/Shape3/shape3-096.ppm
1.5301287404387430311552761863503e-05 6:3.84848 7:107.814 15:159.188 16:170.875 17:0.404255 19:0.137931 20:0.83048898 21:0.19796 22:0.51558 24:4.4173198 # Flowers/Shape1/shape1-073.ppm
-1.5301287404387430311552761863503e-05 6:3.40909 7:113.783 15:159.26401 16:174.369 17:0.517241 19:0.35384601 20:0.96374601 21:0.188765 22:0.72559601 # Flowers/Shape3/shape3-089.ppm
1.5301287404387430311552761863503e-05 6:3.9154899 7:108.435 15:157.14799 16:167.881 17:0.41999999 19:0.18333299 20:0.830621 21:0.178526 22:0.47009599 24:4.3417301 # Flowers/Shape1/shape1-053.ppm
-1.5301287404387430311552761863503e-05 6:3.3195901 7:113.524 15:163.24699 16:173.897 17:0.447761 19:0.36619699 20:0.95889097 21:0.191576 22:0.76133698 # Flowers/Shape3/shape3-065.ppm
1.5301287404387430311552761863503e-05 6:3.87692 7:103.615 15:153.47501 16:173.03799 17:0.54761899 19:0.203704 20:0.82283002 21:0.21990301 22:0.62914997 24:2.0634899 # Flowers/Shape1/shape1-074.ppm
-1.5301287404387430311552761863503e-05 6:3.3333299 7:119.349 15:138.03 16:171.571 17:0.45714301 19:0.29113901 20:0.95660001 21:0.178324 22:0.743617 # Flowers/Shape3/shape3-094.ppm
1.5301287404387430311552761863503e-05 6:3.68627 7:105.912 15:164.847 16:164.567 17:0.378378 19:0.186047 20:0.72611398 21:0.255541 22:0.72807002 24:4.3404298 # Flowers/Shape1/shape1-083.ppm
-1.5301287404387430311552761863503e-05 6:3.85586 7:114.432 15:165.468 16:173.537 17:0.441558 19:0.206522 20:0.91698402 21:0.14621399 22:0.47217801 # Flowers/Shape3/shape3-076.ppm
1.5301287404387430311552761863503e-05 6:3.8139501 7:105.864 15:152.181 16:172.75999 17:0.53571397 19:0.194444 20:0.83551002 21:0.179501 22:0.51479298 24:5.2438998 # Flowers/Shape1/shape1-054.ppm
-1.5301287404387430311552761863503e-05 6:3.8947401 7:114.488 15:157.769 16:174.25301 17:0.40740699 19:0.175258 20:0.97658598 21:0.13458499 22:0.41946501 # Flowers/Shape3/shape3-075.ppm
1.5301287404387430311552761863503e-05 6:3.90769 7:106.815 15:150.875 16:167.795 17:0.35416701 19:0.18181799 20:0.86722398 21:0.179774 22:0.47500199 24:4.6062999 # Flowers/Shape1/shape1-018.ppm
-1.5301287404387430311552761863503e-05 6:3.71963 7:114.247 15:153.899 16:175.59801 17:0.426667 19:0.229885 20:0.976632 21:0.14318199 22:0.50010699 # Flowers/Shape3/shape3-033.ppm
1.5301287404387430311552761863503e-05 6:3.7260301 7:103.945 15:153.87199 16:171.89799 17:0.48979601 19:0.196721 20:0.821796 21:0.205843 22:0.58735102 24:4.0257401 # Flowers/Shape1/shape1-034.ppm
-1.5301287404387430311552761863503e-05 6:3.61905 7:114.788 15:156.01801 16:174.147 17:0.43181801 19:0.235294 20:0.96546203 21:0.205175 22:0.66459 # Flowers/Shape3/shape3-070.ppm
1.5301287404387430311552761863503e-05 6:3.46667 7:106.324 15:154.82001 16:166.267 17:0.285714 19:0.184211 20:0.768224 21:0.27726099 22:0.75770801 24:4.32692 # Flowers/Shape1/shape1-047.ppm
-1.5301287404387430311552761863503e-05 6:3.8550701 7:114.442 15:159.12399 16:174.237 17:0.5 19:0.16949201 20:0.96695799 21:0.17329501 22:0.50393099 # Flowers/Shape3/shape3-047.ppm
1.5301287404387430311552761863503e-05 6:3.4054101 7:106.989 15:150.875 16:163.52 17:0.45098001 19:0.32142901 20:0.60284603 21:0.270428 22:1.0045 24:3.5238099 # Flowers/Shape1/shape1-077.ppm
-1.5301287404387430311552761863503e-05 6:3.4717 7:114.573 15:159.424 16:174.077 17:0.472222 19:0.32499999 20:0.97077501 21:0.168457 22:0.66772097 # Flowers/Shape3/shape3-025.ppm
1.5301287404387430311552761863503e-05 6:3.88571 7:105.861 15:152.73599 16:167.211 17:0.45833299 19:0.25 20:0.79212099 21:0.27026999 22:0.66748798 24:4.63235 # Flowers/Shape1/shape1-061.ppm
-1.5301287404387430311552761863503e-05 6:3.3421099 7:114.792 15:157.729 16:174.25 17:0.40740699 19:0.28813601 20:0.977593 21:0.202393 22:0.73085999 # Flowers/Shape3/shape3-083.ppm
1.5301287404387430311552761863503e-05 6:3.9166701 7:106.329 15:150.38499 16:165.533 17:0.53191501 19:0.2 20:0.648238 21:0.223819 22:0.62369502 24:3.8297901 # Flowers/Shape1/shape1-008.ppm
-1.5301287404387430311552761863503e-05 6:3.2781999 7:115.208 15:157.31599 16:173.63 17:0.47777799 19:0.40000001 20:0.959732 21:0.162614 22:0.77249098 # Flowers/Shape3/shape3-064.ppm
1.5301287404387430311552761863503e-05 6:3.9574499 7:106.086 15:155.91499 16:169.325 17:0.62068999 19:0.175 20:0.881697 21:0.18275601 22:0.446628 24:8.0860205 # Flowers/Shape1/shape1-090.ppm
-1.5301287404387430311552761863503e-05 6:3.2241399 7:117.529 15:148.49699 16:173.373 17:0.380952 19:0.221053 20:0.90731198 21:0.176587 22:0.75439799 # Flowers/Shape3/shape3-059.ppm
1.5301287404387430311552761863503e-05 6:3.8620701 7:106.482 15:156.946 16:163.323 17:0.44999999 19:0.16 20:0.73377699 21:0.22088499 22:0.63746703 24:4.9196401 # Flowers/Shape1/shape1-043.ppm
-1.5301287404387430311552761863503e-05 6:3.53125 7:116.105 15:156.821 16:172.64799 17:0.33333299 19:0.20754699 20:0.968656 21:0.204577 22:0.59707099 # Flowers/Shape3/shape3-087.ppm
1.5301287404387430311552761863503e-05 6:3.7704899 7:106.349 15:151.65401 16:164.364 17:0.60526299 19:0.22 20:0.64723998 21:0.24745101 22:0.688012 24:4.2434802 # Flowers/Shape1/shape1-029.ppm
-1.5301287404387430311552761863503e-05 6:3.4103999 7:115.74 15:155.53999 16:174.63499 17:0.418033 19:0.25362301 20:0.970999 21:0.130922 22:0.60938901 # Flowers/Shape3/shape3-078.ppm
1.5301287404387430311552761863503e-05 6:4.0784302 7:105.102 15:150.44099 16:169.026 17:0.342105 19:0.186047 20:0.87498897 21:0.1899 22:0.463626 24:6.1298099 # Flowers/Shape1/shape1-070.ppm
-1.5301287404387430311552761863503e-05 6:3.32353 7:117.329 15:149.843 16:173.897 17:0.38775501 19:0.33333299 20:0.95906103 21:0.216236 22:0.78601599 # Flowers/Shape3/shape3-023.ppm
1.5301287404387430311552761863503e-05 6:3.7083299 7:106.792 15:151.339 16:167.35699 17:0.41176501 19:0.17073201 20:0.88491201 21:0.200349 22:0.49401399 24:7.2809 # Flowers/Shape1/shape1-009.ppm
-1.5301287404387430311552761863503e-05 6:3.5122001 7:115.883 15:156.62199 16:174.09801 17:0.51851898 19:0.366667 20:0.949027 21:0.26657999 22:0.74532503 # Flowers/Shape3/shape3-020.ppm
1.5301287404387430311552761863503e-05 6:3.9473701 7:106.527 15:147.959 16:165.806 17:0.46153799 19:0.15151501 20:0.79316199 21:0.262541 22:0.62615001 24:5.0666699 # Flowers/Shape1/shape1-066.ppm
-1.5301287404387430311552761863503e-05 6:3.47368 7:116.443 15:157.752 16:173.27299 17:0.37681201 19:0.26666701 20:0.96348602 21:0.173511 22:0.65981299 # Flowers/Shape3/shape3-077.ppm
1.5301287404387430311552761863503e-05 6:3.86957 7:102.386 15:154.267 16:170.951 17:0.48387101 19:0.179487 20:0.85185701 21:0.228357 22:0.56177998 24:5.16854 # Flowers/Shape1/shape1-020.ppm
-1.5301287404387430311552761863503e-05 6:3.45455 7:117.737 15:150.09 16:174.189 17:0.47761199 19:0.2375 20:0.96946597 21:0.167484 22:0.64122403 # Flowers/Shape3/shape3-016.ppm
1.5301287404387430311552761863503e-05 6:3.55 7:104.569 15:153.53101 16:165.467 17:0.29032299 19:0.25 20:0.75634599 21:0.30380601 22:0.85900801 24:3.6619699 # Flowers/Shape1/shape1-017.ppm
-1.5301287404387430311552761863503e-05 6:3.9439299 7:116.848 15:154.39799 16:174.383 17:0.46575299 19:0.16304301 20:0.98163199 21:0.13080201 22:0.40660799 # Flowers/Shape3/shape3-095.ppm
1.5301287404387430311552761863503e-05 6:3.7959199 7:106.036 15:150.12601 16:168.341 17:0.36111099 19:0.166667 20:0.87310702 21:0.19345 22:0.477642 24:7.1128998 # Flowers/Shape1/shape1-030.ppm
-1.5301287404387430311552761863503e-05 6:3.36145 7:115.71 15:159.30499 16:174.707 17:0.40678 19:0.25757599 20:0.96608901 21:0.13567699 22:0.62437201 # Flowers/Shape3/shape3-038.ppm
1.5301287404387430311552761863503e-05 6:3.28 7:108.623 15:159.45599 16:155.211 17:0.38888901 19:0.42857099 20:0.575993 21:0.34990999 22:1.1572599 24:3.04878 # Flowers/Shape1/shape1-003.ppm
-1.5301287404387430311552761863503e-05 6:3.9428599 7:116.405 15:159.576 16:173.95399 17:0.52173901 19:0.166667 20:0.97747302 21:0.13034301 22:0.404625 # Flowers/Shape3/shape3-055.ppm
1.5301287404387430311552761863503e-05 6:3.9047599 7:105.098 15:152.44501 16:166.946 17:0.555556 19:0.166667 20:0.77503097 21:0.243579 22:0.61753798 24:5.63415 # Flowers/Shape1/shape1-007.ppm
-1.5301287404387430311552761863503e-05 6:3.2647099 7:117.247 15:154.935 16:174.39101 17:0.38775501 19:0.33333299 20:0.93988597 21:0.226805 22:0.81908202 # Flowers/Shape3/shape3-043.ppm
1.5301287404387430311552761863503e-05 6:3.5849099 7:104.788 15:157.64 16:164.741 17:0.29268301 19:0.232558 20:0.72595203 21:0.25587699 22:0.71752298 24:5.02105 # Flowers/Shape1/shape1-042.ppm
-1.5301287404387430311552761863503e-05 6:3.4705901 7:116.353 15:163.601 16:173.16901 17:0.47826099 19:0.32467499 20:0.97915 21:0.169958 22:0.64960402 # Flowers/Shape3/shape3-008.ppm
1.5301287404387430311552761863503e-05 6:3.3684199 7:103.652 15:148.444 16:166.33299 17:0.46153799 19:0.35714301 20:0.50174099 21:0.34839699 22:1.30527 24:2.375 # Flowers/Shape1/shape1-037.ppm
-1.5301287404387430311552761863503e-05 6:3.3076899 7:121.249 15:138.74001 16:174.26199 17:0.38666701 19:0.28395101 20:0.96463001 21:0.17635199 22:0.73774302 # Flowers/Shape3/shape3-074.ppm
1.5301287404387430311552761863503e-05 6:3.61905 7:103.745 15:157.517 16:165.39999 17:0.40000001 19:0.2 20:0.77176499 21:0.27875599 22:0.76204997 24:4.4210501 # Flowers/Shape1/shape1-067.ppm
-1.5301287404387430311552761863503e-05 6:3.4321001 7:116.272 15:160.34599 16:174.379 17:0.43362799 19:0.265625 20:0.96145803 21:0.136912 22:0.62951201 # Flowers/Shape3/shape3-058.ppm
1.5301287404387430311552761863503e-05 6:3.9473701 7:100.628 15:155.117 16:171.244 17:0.51999998 19:0.225806 20:0.79069 21:0.26247299 22:0.65310597 24:4.5599999 # Flowers/Shape1/shape1-021.ppm
-1.5301287404387430311552761863503e-05 6:3.8596499 7:117.491 15:160.72 16:172.66701 17:0.44303799 19:0.2 20:0.842897 21:0.152294 22:0.478728 # Flowers/Shape3/shape3-036.ppm
1.5301287404387430311552761863503e-05 6:3.625 7:106.024 15:152.23199 16:162.60699 17:0.41176501 19:0.26315799 20:0.710899 21:0.27250099 22:0.77582097 24:4.4137902 # Flowers/Shape1/shape1-062.ppm
-1.5301287404387430311552761863503e-05 6:3.32692 7:119.712 15:151.57401 16:172 17:0.52941197 19:0.253012 20:0.96982199 21:0.17406701 22:0.71087402 # Flowers/Shape3/shape3-034.ppm
1.5301287404387430311552761863503e-05 6:3.68627 7:103.409 15:154.786 16:165.963 17:0.41666701 19:0.27500001 20:0.71142101 21:0.271676 22:0.77160501 24:4.3404298 # Flowers/Shape1/shape1-022.ppm
-1.5301287404387430311552761863503e-05 6:3.39048 7:116.315 15:162.929 16:174.31599 17:0.40000001 19:0.296296 20:0.96942198 21:0.17142101 22:0.67713201 # Flowers/Shape3/shape3-085.ppm
1.5301287404387430311552761863503e-05 6:3.5151501 7:105.193 15:145.687 16:164.091 17:0.375 19:0.222222 20:0.67606002 21:0.377783 22:1.08871 24:2.84483 # Flowers/Shape1/shape1-019.ppm
-1.5301287404387430311552761863503e-05 6:3.72 7:117.893 15:154.593 16:174.314 17:0.42857099 19:0.25 20:0.971201 21:0.151531 22:0.52751702 # Flowers/Shape3/shape3-093.ppm
1.5301287404387430311552761863503e-05 6:3.8787899 7:104.621 15:154.912 16:164.207 17:0.346939 19:0.157895 20:0.64836001 21:0.221081 22:0.61250198 24:4.6406202 # Flowers/Shape1/shape1-089.ppm
-1.5301287404387430311552761863503e-05 6:3.46154 7:116.535 15:159.767 16:174.864 17:0.52941197 19:0.30000001 20:0.96693498 21:0.173081 22:0.68548602 # Flowers/Shape3/shape3-045.ppm
1.5301287404387430311552761863503e-05 6:3.9565201 7:101.779 15:154.717 16:169.436 17:0.48387101 19:0.24324299 20:0.85931098 21:0.220513 22:0.580585 24:5.3076901 # Flowers/Shape1/shape1-099.ppm
-1.5301287404387430311552761863503e-05 6:3.2824399 7:116.365 15:158.543 16:175.573 17:0.48863599 19:0.423913 20:0.96408802 21:0.16719 22:0.79505301 # Flowers/Shape3/shape3-044.ppm
1.5301287404387430311552761863503e-05 6:3.46667 7:104.162 15:156.505 16:165.03999 17:0.285714 19:0.285714 20:0.73004198 21:0.27380201 22:0.837883 24:5.4807701 # Flowers/Shape1/shape1-065.ppm
-1.5301287404387430311552761863503e-05 6:3.1079099 7:117.116 15:160.297 16:173.744 17:0.49462399 19:0.57954502 20:0.95609999 21:0.173502 22:0.93223202 # Flowers/Shape3/shape3-080.ppm
1.5301287404387430311552761863503e-05 6:4 7:102.209 15:153.07201 16:168.45 17:0.482759 19:0.16216201 20:0.80619001 21:0.23850399 22:0.59032601 24:4.5 # Flowers/Shape1/shape1-041.ppm
-1.5301287404387430311552761863503e-05 6:3.13433 7:118.035 15:157.959 16:173.078 17:0.367347 19:0.34 20:0.96768099 21:0.232246 22:0.83126497 # Flowers/Shape3/shape3-002.ppm
1.5301287404387430311552761863503e-05 6:3.3636401 7:104.413 15:154.13499 16:164.65401 17:0.33333299 19:0.25714299 20:0.73659199 21:0.30093801 22:0.91851801 24:4.7567601 # Flowers/Shape1/shape1-085.ppm
-1.5301287404387430311552761863503e-05 6:2.6990299 7:122.92 15:139.20599 16:171.836 17:0.430556 19:0.183908 20:0.92403698 21:0.216002 22:1.07328 # Flowers/Shape3/shape3-091.ppm
1.5301287404387430311552761863503e-05 6:4.0454502 7:104.44 15:151.25301 16:166.41701 17:0.222222 19:0.157895 20:0.77400398 21:0.22584 22:0.57224101 24:5.93258 # Flowers/Shape1/shape1-028.ppm
-1.5301287404387430311552761863503e-05 6:3.22034 7:118.42 15:157.806 16:173.08501 17:0.42168701 19:0.404762 20:0.90244401 21:0.187667 22:0.83810902 # Flowers/Shape3/shape3-026.ppm
1.5301287404387430311552761863503e-05 6:3.2363601 7:110.089 15:150.40601 16:154.158 17:0.375 19:0.447368 20:0.57317197 21:0.34328699 22:1.15923 24:2.47191 # Flowers/Shape1/shape1-064.ppm
-1.5301287404387430311552761863503e-05 6:2.60976 7:121.045 15:149.064 16:171.783 17:0.67346901 19:0.49090901 20:0.92590302 21:0.28428999 22:1.43293 # Flowers/Shape3/shape3-022.ppm
1.5301287404387430311552761863503e-05 6:3.6981101 7:103.909 15:154.27299 16:165 17:0.35897401 19:0.26190501 20:0.72901601 21:0.25058401 22:0.70848501 24:4.8673501 # Flowers/Shape1/shape1-001.ppm
-1.5301287404387430311552761863503e-05 6:3.9316199 7:117.245 15:160.532 16:174.43201 17:0.46250001 19:0.17 20:0.98696202 21:0.12591401 22:0.39069501 # Flowers/Shape3/shape3-014.ppm
1.5301287404387430311552761863503e-05 6:3.38235 7:105.321 15:151.52699 16:162.33299 17:0.38775501 19:0.33333299 20:0.598382 21:0.29406199 22:1.08628 24:3.5478301 # Flowers/Shape1/shape1-097.ppm
-1.5301287404387430311552761863503e-05 6:3.14783 7:117.68 15:158.83 16:174.688 17:0.41975299 19:0.4375 20:0.89415801 21:0.20422199 22:0.91300201 # Flowers/Shape3/shape3-066.ppm
1.5301287404387430311552761863503e-05 6:4 7:102.38 15:149.89799 16:168.46201 17:0.43333301 19:0.131579 20:0.79436201 21:0.24440999 22:0.58272099 24:4.75 # Flowers/Shape1/shape1-086.ppm
-1.5301287404387430311552761863503e-05 6:3.8811901 7:117.43 15:161.08299 16:174.453 17:0.422535 19:0.202381 20:0.97193801 21:0.14144 22:0.43739 # Flowers/Shape3/shape3-035.ppm
1.5301287404387430311552761863503e-05 6:3.7297299 7:102.921 15:155.041 16:164.733 17:0.54166698 19:0.32142901 20:0.75875002 21:0.32479 22:0.913773 24:3.4855101 # Flowers/Shape1/shape1-078.ppm
-1.5301287404387430311552761863503e-05 6:3.8407099 7:118.629 15:157.435 16:174.633 17:0.50666702 19:0.22826099 20:0.97983801 21:0.133379 22:0.46311399 # Flowers/Shape3/shape3-012.ppm
1.5301287404387430311552761863503e-05 6:3.80952 7:102.424 15:159.492 16:165.3 17:0.40000001 19:0.2 20:0.76833099 21:0.25846499 22:0.70376801 24:5.25 # Flowers/Shape1/shape1-087.ppm
-1.5301287404387430311552761863503e-05 6:3.19626 7:119.017 15:157.355 16:174 17:0.33750001 19:0.320988 20:0.97054398 21:0.18253601 22:0.79024202 # Flowers/Shape3/shape3-048.ppm
1.5301287404387430311552761863503e-05 6:3.58974 7:101.861 15:155.422 16:166.08299 17:0.444444 19:0.25806499 20:0.76771897 21:0.31165099 22:0.87569398 24:3.6214299 # Flowers/Shape1/shape1-098.ppm
-1.5301287404387430311552761863503e-05 6:3.1048999 7:117.844 15:161.686 16:174.75301 17:0.47422701 19:0.53763402 20:0.96025401 21:0.17204399 22:0.92264003 # Flowers/Shape3/shape3-040.ppm
1.5301287404387430311552761863503e-05 6:3.94872 7:104.852 15:142.381 16:166.31599 17:0.444444 19:0.14705899 20:0.79723901 21:0.267104 22:0.64223701 24:4.8116899 # Flowers/Shape1/shape1-046.ppm
-1.5301287404387430311552761863503e-05 6:2.8118801 7:123.973 15:140.437 16:171.91701 17:0.50746298 19:0.16091999 20:0.917256 21:0.20983601 22:1.03611 # Flowers/Shape3/shape3-071.ppm
1.5301287404387430311552761863503e-05 6:3.7735801 7:102.279 15:157.694 16:164.323 17:0.472222 19:0.20454501 20:0.72334898 21:0.25466701 22:0.74513602 24:3.9749999 # Flowers/Shape1/shape1-002.ppm
-1.5301287404387430311552761863503e-05 6:3.75758 7:118.907 15:161.229 16:173.286 17:0.43478301 19:0.2 20:0.97832799 21:0.17676499 22:0.51327598 # Flowers/Shape3/shape3-027.ppm
1.5301287404387430311552761863503e-05 6:3.8113201 7:102.691 15:148.87601 16:167.086 17:0.39473701 19:0.152174 20:0.85131001 21:0.214706 22:0.568892 24:4.4604001 # Flowers/Shape1/shape1-039.ppm
-1.5301287404387430311552761863503e-05 6:3.1858399 7:119.623 15:159.82001 16:172.614 17:0.43037999 19:0.43037999 20:0.89900798 21:0.19677 22:0.87858099 # Flowers/Shape3/shape3-005.ppm
1.5301287404387430311552761863503e-05 6:4.0377402 7:102.696 15:153.70799 16:165.75 17:0.26190501 19:0.12766001 20:0.78393501 21:0.219015 22:0.55508 24:4.95327 # Flowers/Shape1/shape1-088.ppm
-1.5301287404387430311552761863503e-05 6:3.1752601 7:120.212 15:160.29601 16:171.69 17:0.405797 19:0.25974 20:0.964876 21:0.190321 22:0.77582598 # Flowers/Shape3/shape3-054.ppm
1.5301287404387430311552761863503e-05 6:3.625 7:101.845 15:151.655 16:166.17599 17:0.52381003 19:0.23076899 20:0.66090298 21:0.38650799 22:1.1099 24:3.0344801 # Flowers/Shape1/shape1-040.ppm
-1.5301287404387430311552761863503e-05 6:3.7941201 7:118.942 15:160.254 16:174.257 17:0.51111102 19:0.192982 20:0.97009498 21:0.17587399 22:0.51334399 # Flowers/Shape3/shape3-067.ppm
1.5301287404387430311552761863503e-05 6:3.9200001 7:98.986298 15:154.595 16:171.40401 17:0.470588 19:0.219512 20:0.86148202 21:0.21060701 22:0.55079198 24:5.3571401 # Flowers/Shape1/shape1-059.ppm
-1.5301287404387430311552761863503e-05 6:3.7281599 7:118.452 15:160.916 16:174.94299 17:0.560606 19:0.240964 20:0.974195 21:0.150389 22:0.52035499 # Flowers/Shape3/shape3-073.ppm
1.5301287404387430311552761863503e-05 6:3.4074099 7:102.623 15:148.51801 16:164.577 17:0.45945901 19:0.384615 20:0.51679802 21:0.35307199 22:1.31962 24:2.6413 # Flowers/Shape1/shape1-016.ppm
-1.5301287404387430311552761863503e-05 6:2.6486499 7:125.348 15:139.10899 16:171.569 17:0.56338 19:0.168421 20:0.92934698 21:0.21581601 22:1.07742 # Flowers/Shape3/shape3-031.ppm
1.5301287404387430311552761863503e-05 6:3.6216199 7:101.34 15:153.407 16:165.433 17:0.54166698 19:0.27586201 20:0.75352901 21:0.33006999 22:0.93042201 24:3.58955 # Flowers/Shape1/shape1-038.ppm
-1.5301287404387430311552761863503e-05 6:3.06569 7:117.922 15:161.735 16:175.524 17:0.37 19:0.53932601 20:0.95563298 21:0.179682 22:0.962641 # Flowers/Shape3/shape3-060.ppm
1.5301287404387430311552761863503e-05 6:3.95455 7:101.723 15:154.325 16:166.36099 17:0.41935501 19:0.157895 20:0.77691698 21:0.228108 22:0.57702601 24:6.0689702 # Flowers/Shape1/shape1-068.ppm
-1.5301287404387430311552761863503e-05 6:3.17241 7:120.687 15:160.73 16:171.397 17:0.380952 19:0.41463399 20:0.90450603 21:0.191927 22:0.85515797 # Flowers/Shape3/shape3-046.ppm
1.5301287404387430311552761863503e-05 6:4.0851102 7:101.841 15:147.181 16:170.12199 17:0.342857 19:0.175 20:0.87400901 21:0.181897 22:0.45276201 24:7.8333302 # Flowers/Shape1/shape1-050.ppm
-1.5301287404387430311552761863503e-05 6:2.8571401 7:121.527 15:156.383 16:171.534 17:0.78431398 19:0.444444 20:0.94906902 21:0.24369401 22:1.22214 # Flowers/Shape3/shape3-082.ppm
1.5301287404387430311552761863503e-05 6:4.0888901 7:101.05 15:156.16901 16:165.21201 17:0.25 19:0.153846 20:0.79914802 21:0.219348 22:0.54235101 24:4.8913002 # Flowers/Shape1/shape1-081.ppm
-1.5301287404387430311552761863503e-05 6:3.3173699 7:119.062 15:159.88 16:174.77699 17:0.43965501 19:0.274809 20:0.98016 21:0.138586 22:0.63821399 # Flowers/Shape3/shape3-017.ppm
1.5301287404387430311552761863503e-05 6:3.52632 7:100.948 15:152.533 16:166.267 17:0.31034499 19:0.225806 20:0.76572698 21:0.31116599 22:0.84956402 24:4.2537298 # Flowers/Shape1/shape1-027.ppm
-1.5301287404387430311552761863503e-05 6:3.3475201 7:119.861 15:156.784 16:174.54401 17:0.5 19:0.39603999 20:0.97013301 21:0.153905 22:0.735237 # Flowers/Shape3/shape3-003.ppm
1.5301287404387430311552761863503e-05 6:3.375 7:103.088 15:152.08701 16:162.875 17:0.33333299 19:0.26315799 20:0.73932201 21:0.278523 22:0.85599899 24:4.7407398 # Flowers/Shape1/shape1-045.ppm
-1.5301287404387430311552761863503e-05 6:3.0780101 7:119.563 15:160.328 16:173.679 17:0.43877599 19:0.58427 20:0.95967299 21:0.174169 22:0.93398201 # Flowers/Shape3/shape3-019.ppm
1.5301287404387430311552761863503e-05 6:4.1463399 7:103.558 15:143.923 16:165.778 17:0.32258099 19:0.17142899 20:0.79954797 21:0.23258799 22:0.554178 24:5.54706 # Flowers/Shape1/shape1-005.ppm
-1.5301287404387430311552761863503e-05 6:3.3880601 7:119.525 15:157.258 16:175.349 17:0.44086 19:0.42553201 20:0.96466798 21:0.156058 22:0.74550003 # Flowers/Shape3/shape3-024.ppm
1.5301287404387430311552761863503e-05 6:3.30233 7:101.111 15:152.071 16:165.741 17:0.34375 19:0.30303001 20:0.73207802 21:0.31028301 22:0.95570302 24:4.23944 # Flowers/Shape1/shape1-025.ppm
-1.5301287404387430311552761863503e-05 6:2.61905 7:122.132 15:149.55901 16:173.918 17:0.527273 19:0.47368401 20:0.93686301 21:0.27658299 22:1.39202 # Flowers/Shape3/shape3-042.ppm
1.5301287404387430311552761863503e-05 6:3.61905 7:100.245 15:154.267 16:165.633 17:0.40000001 19:0.235294 20:0.754031 21:0.30250299 22:0.85348099 24:3.5921099 # Flowers/Shape1/shape1-058.ppm
-1.5301287404387430311552761863503e-05 6:3.30233 7:119.758 15:160.339 16:174.2 17:0.482759 19:0.44943801 20:0.96078402 21:0.164556 22:0.78164703 # Flowers/Shape3/shape3-084.ppm
1.5301287404387430311552761863503e-05 6:3.34694 7:106.183 15:155.661 16:153.11099 17:0.40000001 19:0.441176 20:0.56524497 21:0.35819301 22:1.19112 24:2.9877999 # Flowers/Shape1/shape1-024.ppm
-1.5301287404387430311552761863503e-05 6:3.1800001 7:120.836 15:157.276 16:173.86301 17:0.40845099 19:0.35135099 20:0.95994598 21:0.190309 22:0.82974201 # Flowers/Shape3/shape3-068.ppm
1.5301287404387430311552761863503e-05 6:3.5 7:101.764 15:148.726 16:165.121 17:0.375 19:0.189189 20:0.750992 21:0.29851499 22:0.85762697 24:4.2857099 # Flowers/Shape1/shape1-060.ppm
-1.5301287404387430311552761863503e-05 6:3.2792799 7:121.984 15:153.14999 16:174.32899 17:0.405063 19:0.337349 20:0.96216798 21:0.174556 22:0.758439 # Flowers/Shape3/shape3-007.ppm
1.5301287404387430311552761863503e-05 6:3.7818201 7:98.254898 15:154.882 16:168.875 17:0.61764699 19:0.19565199 20:0.72749698 21:0.246782 22:0.72113401 24:4.4951901 # Flowers/Shape1/shape1-023.ppm
-1.5301287404387430311552761863503e-05 6:3.1800001 7:121.187 15:160.89 16:172.563 17:0.40845099 19:0.369863 20:0.96196198 21:0.192587 22:0.83986098 # Flowers/Shape3/shape3-088.ppm
1.5301287404387430311552761863503e-05 6:3.94118 7:100.62 15:144.759 16:167.619 17:0.47826099 19:0.172414 20:0.796983 21:0.28902999 22:0.69507301 24:4.3134298 # Flowers/Shape1/shape1-026.ppm
-1.5301287404387430311552761863503e-05 6:3.26667 7:121.213 15:157.759 16:174.041 17:0.463415 19:0.30434799 20:0.933267 21:0.24147899 22:0.86823702 # Flowers/Shape3/shape3-063.ppm
1.5301287404387430311552761863503e-05 6:3.5999999 7:101.359 15:150.88901 16:163.452 17:0.32352901 19:0.216216 20:0.75055701 21:0.28322101 22:0.81442702 24:4.1666698 # Flowers/Shape1/shape1-080.ppm
-1.5301287404387430311552761863503e-05 6:2.86076 7:125.884 15:138.005 16:174.328 17:0.75555599 19:0.16176499 20:0.85595399 21:0.25083899 22:1.25416 # Flowers/Shape3/shape3-010.ppm
1.5301287404387430311552761863503e-05 6:3.25581 7:100.742 15:149.24899 16:165.16 17:0.34375 19:0.30303001 20:0.72900498 21:0.30944699 22:0.95195502 24:4.6071401 # Flowers/Shape1/shape1-004.ppm
-1.5301287404387430311552761863503e-05 6:2.3896101 7:125.092 15:148.39999 16:171.397 17:0.45282999 19:0.50980401 20:0.92794001 21:0.31280801 22:1.57212 # Flowers/Shape3/shape3-001.ppm
1.5301287404387430311552761863503e-05 6:3.3898301 7:104.794 15:145.89101 16:157.562 17:0.37209299 19:0.404762 20:0.583121 21:0.311887 22:1.04597 24:2.95 # Flowers/Shape1/shape1-084.ppm
-1.5301287404387430311552761863503e-05 6:3.0537601 7:123.74 15:154.976 16:173.22099 17:0.38806 19:0.38806 20:0.951446 21:0.209564 22:0.91136199 # Flowers/Shape3/shape3-028.ppm
1.5301287404387430311552761863503e-05 6:3.70909 7:99.5839 15:155.662 16:163.821 17:0.341463 19:0.25 20:0.71806699 21:0.243054 22:0.68397099 24:4.8529401 # Flowers/Shape1/shape1-082.ppm
-1.5301287404387430311552761863503e-05 6:3.2096801 7:122.682 15:159.744 16:173.508 17:0.44185999 19:0.37777799 20:0.91185498 21:0.183768 22:0.82157201 # Flowers/Shape3/shape3-086.ppm
1.5301287404387430311552761863503e-05 6:3.9047599 7:96.237701 15:155.685 16:165.41701 17:0.555556 19:0.166667 20:0.76980501 21:0.269905 22:0.68158001 24:4.6097598 # Flowers/Shape1/shape1-048.ppm
-1.5301287404387430311552761863503e-05 6:2.56881 7:127 15:145.23801 16:172.386 17:0.34567899 19:0.172043 20:0.94796097 21:0.215817 22:1.06871 # Flowers/Shape3/shape3-051.ppm
1.5301287404387430311552761863503e-05 6:3.54286 7:97.292099 15:155.50301 16:163.065 17:0.346154 19:0.25 20:0.759453 21:0.319368 22:0.873088 24:4.23387 # Flowers/Shape1/shape1-006.ppm
