SVM-light Version V6.02
0 # kernel type
3 # kernel parameter -d 
1 # kernel parameter -g 
1 # kernel parameter -s 
1 # kernel parameter -r 
empty# kernel parameter -u 
24 # highest feature index 
196 # number of training documents 
195 # number of support vectors plus 1 
-5.1059868 # threshold b, each following line is a SV (starting with alpha*y)
-1.5394002632893579666627931201717e-05 6:3.37255 7:114.091 15:158.80701 16:173.052 17:0.5 19:0.378378 20:0.96189898 21:0.181402 22:0.72412401 # Flowers/Shape3/shape3-004.ppm
1.5394002632893579666627931201717e-05 6:3.4862399 7:106.827 15:152.868 16:161.429 17:0.36250001 19:0.19780201 20:0.614838 21:0.20465299 22:0.70170802 24:0.86052603 # Flowers/Shape2/shape2-000.ppm
-1.5394002632893579666627931201717e-05 6:3.7164199 7:107.091 15:141.823 16:165.33299 17:0.48888901 19:0.27619001 20:0.895311 21:0.144052 22:0.55890203 # Flowers/Shape3/shape3-011.ppm
1.5394002632893579666627931201717e-05 6:3.54795 7:109.683 15:168.089 16:167.32401 17:0.431373 19:0.237288 20:0.81743997 21:0.150794 22:0.58362198 24:2.2548299 # Flowers/Shape2/shape2-011.ppm
-1.5394002632893579666627931201717e-05 6:3.7142899 7:107.665 15:164.347 16:168.675 17:0.47777799 19:0.25471699 20:0.90687901 21:0.139836 22:0.52689898 # Flowers/Shape3/shape3-032.ppm
1.5394002632893579666627931201717e-05 6:3.37255 7:111.766 15:137.13699 16:161.25 17:0.48543701 19:0.342105 20:0.78322899 21:0.16752 22:0.800677 24:1.1860501 # Flowers/Shape2/shape2-008.ppm
-1.5394002632893579666627931201717e-05 6:3.6666701 7:111.018 15:142.86 16:165.868 17:0.482353 19:0.285714 20:0.89584798 21:0.146844 22:0.565732 # Flowers/Shape3/shape3-092.ppm
1.5394002632893579666627931201717e-05 6:3.2973001 7:110.118 15:158.75999 16:168.71899 17:0.39622599 19:0.32142901 20:0.73955798 21:0.168954 22:0.80278599 24:0.60655701 # Flowers/Shape2/shape2-070.ppm
-1.5394002632893579666627931201717e-05 6:3.3396201 7:114.795 15:164.923 16:171.414 17:0.413333 19:0.29268301 20:0.96703303 21:0.170073 22:0.68435401 # Flowers/Shape3/shape3-013.ppm
1.5394002632893579666627931201717e-05 6:3.28916 7:106.674 15:139.254 16:163.774 17:0.45614001 19:0.267176 20:0.79848999 21:0.15955301 22:0.77013803 24:1.21612 # Flowers/Shape2/shape2-089.ppm
-1.5394002632893579666627931201717e-05 6:3.6417899 7:106.808 15:145.56599 16:165.806 17:0.50561798 19:0.229358 20:0.897084 21:0.14288101 22:0.55175197 # Flowers/Shape3/shape3-052.ppm
1.5394002632893579666627931201717e-05 6:3.74843 7:111.519 15:159.114 16:168.59399 17:0.51428598 19:0.223077 20:0.80924499 21:0.135712 22:0.53652102 24:3.4681201 # Flowers/Shape2/shape2-072.ppm
-1.5394002632893579666627931201717e-05 6:3.5609801 7:112.044 15:147.22501 16:165.33299 17:0.44705901 19:0.25510201 20:0.89903098 21:0.15416101 22:0.59502298 # Flowers/Shape3/shape3-072.ppm
1.5394002632893579666627931201717e-05 6:3.29949 7:107.744 15:152.67999 16:169.66701 17:0.47014901 19:0.368056 20:0.77968299 21:0.15110099 22:0.79471302 24:0.60615402 # Flowers/Shape2/shape2-075.ppm
-1.5394002632893579666627931201717e-05 6:3.73913 7:109.81 15:158.01801 16:172.35699 17:0.39393899 19:0.31428599 20:0.96639103 21:0.22868299 22:0.63758302 # Flowers/Shape3/shape3-061.ppm
1.5394002632893579666627931201717e-05 6:3.18681 7:110.095 15:153.356 16:168.875 17:0.35820901 19:0.36842099 20:0.78141302 21:0.160614 22:0.84739602 24:1.25517 # Flowers/Shape2/shape2-095.ppm
-1.5394002632893579666627931201717e-05 6:3.1965799 7:112.677 15:146.49699 16:171.30901 17:0.32954499 19:0.23157901 20:0.91356802 21:0.18249901 22:0.77529597 # Flowers/Shape3/shape3-039.ppm
1.5394002632893579666627931201717e-05 6:3.65517 7:109.937 15:158.983 16:168.96899 17:0.359375 19:0.18367299 20:0.81454903 21:0.12836 22:0.50668103 24:3.28302 # Flowers/Shape2/shape2-092.ppm
-1.5394002632893579666627931201717e-05 6:3.5652201 7:109.703 15:161.19 16:173.754 17:0.39393899 19:0.31428599 20:0.95740998 21:0.23543701 22:0.65774697 # Flowers/Shape3/shape3-021.ppm
1.5394002632893579666627931201717e-05 6:3.3896101 7:109.068 15:138.952 16:162.903 17:0.43925199 19:0.40000001 20:0.78330898 21:0.16484401 22:0.79355198 24:1.4751 # Flowers/Shape2/shape2-049.ppm
-1.5394002632893579666627931201717e-05 6:3.2181799 7:115.665 15:139.23801 16:171.839 17:0.32530099 19:0.25 20:0.90883303 21:0.18055899 22:0.76652902 # Flowers/Shape3/shape3-018.ppm
1.5394002632893579666627931201717e-05 6:3.2198601 7:107.562 15:156.509 16:168.688 17:0.41 19:0.36893201 20:0.690045 21:0.190496 22:0.85630703 24:0.93171799 # Flowers/Shape2/shape2-048.ppm
-1.5394002632893579666627931201717e-05 6:3.7358501 7:111.414 15:156.27901 16:171.714 17:0.432432 19:0.26190501 20:0.97117001 21:0.21546701 22:0.60127002 # Flowers/Shape3/shape3-000.ppm
1.5394002632893579666627931201717e-05 6:3.4237299 7:112.413 15:155.202 16:167.368 17:0.38281199 19:0.204082 20:0.83943897 21:0.14216501 22:0.655563 24:3.2128699 # Flowers/Shape2/shape2-093.ppm
-1.5394002632893579666627931201717e-05 6:3.7142899 7:112.519 15:157.036 16:171.185 17:0.441176 19:0.28947401 20:0.96086103 21:0.222389 22:0.61998099 # Flowers/Shape3/shape3-081.ppm
1.5394002632893579666627931201717e-05 6:3.2381001 7:109.411 15:151.47301 16:167.257 17:0.45384601 19:0.359712 20:0.77538699 21:0.15551201 22:0.81839699 24:0.92647099 # Flowers/Shape2/shape2-055.ppm
-1.5394002632893579666627931201717e-05 6:3.9677401 7:113.633 15:155.752 16:171.582 17:0.45882401 19:0.20388301 20:0.84948701 21:0.138864 22:0.43908501 # Flowers/Shape3/shape3-056.ppm
1.5394002632893579666627931201717e-05 6:3.53933 7:112.597 15:153.104 16:167.105 17:0.42399999 19:0.271429 20:0.828183 21:0.14061201 22:0.65170002 24:3.6730199 # Flowers/Shape2/shape2-073.ppm
-1.5394002632893579666627931201717e-05 6:3.4769199 7:110.571 15:157.855 16:173.7 17:0.444444 19:0.32653099 20:0.96840698 21:0.2068 22:0.672095 # Flowers/Shape3/shape3-090.ppm
1.5394002632893579666627931201717e-05 6:3.2745099 7:108.069 15:155.808 16:167.647 17:0.30769199 19:0.2 20:0.76258999 21:0.196409 22:0.74874401 24:0.30538899 # Flowers/Shape2/shape2-086.ppm
-1.5394002632893579666627931201717e-05 6:3.3333299 7:119.349 15:138.03 16:171.571 17:0.45714301 19:0.29113901 20:0.95660001 21:0.178324 22:0.743617 # Flowers/Shape3/shape3-094.ppm
1.5394002632893579666627931201717e-05 6:3.5326099 7:109.303 15:156.278 16:167.64999 17:0.41538501 19:0.251701 20:0.84005499 21:0.14175899 22:0.65636897 24:1.69846 # Flowers/Shape2/shape2-012.ppm
-1.5394002632893579666627931201717e-05 6:3.47368 7:111.357 15:159.48199 16:173.25999 17:0.484375 19:0.35714301 20:0.96251798 21:0.17949399 22:0.68927199 # Flowers/Shape3/shape3-029.ppm
1.5394002632893579666627931201717e-05 6:3.26316 7:112.34 15:152.97099 16:166.14799 17:0.37681201 19:0.35714301 20:0.68469697 21:0.166071 22:0.83108801 24:1.83871 # Flowers/Shape2/shape2-096.ppm
-1.5394002632893579666627931201717e-05 6:3.5833299 7:114.473 15:159.368 16:172.662 17:0.46938801 19:0.285714 20:0.97045499 21:0.18972901 22:0.613392 # Flowers/Shape3/shape3-030.ppm
1.5394002632893579666627931201717e-05 6:3.2077899 7:108.929 15:148.203 16:166.51401 17:0.36283201 19:0.26229501 20:0.73453403 21:0.165316 22:0.79861599 24:0.93522298 # Flowers/Shape2/shape2-090.ppm
-1.5394002632893579666627931201717e-05 6:3.5051501 7:112.453 15:158.681 16:173.76401 17:0.405797 19:0.24359 20:0.969441 21:0.16977599 22:0.64488602 # Flowers/Shape3/shape3-037.ppm
1.5394002632893579666627931201717e-05 6:3.38922 7:112.168 15:157.69701 16:166.42101 17:0.38016501 19:0.26515201 20:0.83212799 21:0.152624 22:0.70416898 24:3.24558 # Flowers/Shape2/shape2-033.ppm
-1.5394002632893579666627931201717e-05 6:3.9322 7:115.049 15:155.65601 16:172.80901 17:0.439024 19:0.21649501 20:0.810965 21:0.14800601 22:0.47010899 # Flowers/Shape3/shape3-096.ppm
1.5394002632893579666627931201717e-05 6:3.4915299 7:108.465 15:156.601 16:168.02499 17:0.45082 19:0.246479 20:0.83471203 21:0.14885999 22:0.68300402 24:2.86408 # Flowers/Shape2/shape2-053.ppm
-1.5394002632893579666627931201717e-05 6:3.4105301 7:112.895 15:158.21201 16:173.914 17:0.50793701 19:0.33802801 20:0.97101301 21:0.18120299 22:0.701217 # Flowers/Shape3/shape3-069.ppm
1.5394002632893579666627931201717e-05 6:3.6213 7:107.2 15:157.61 16:169.03101 17:0.42016801 19:0.224638 20:0.80964601 21:0.13545699 22:0.53299397 24:4.1421599 # Flowers/Shape2/shape2-032.ppm
-1.5394002632893579666627931201717e-05 6:3.6521699 7:113.164 15:158.479 16:173.88499 17:0.39393899 19:0.277778 20:0.95981598 21:0.236114 22:0.659706 # Flowers/Shape3/shape3-041.ppm
1.5394002632893579666627931201717e-05 6:3.22613 7:108.285 15:153.797 16:166.974 17:0.442029 19:0.36301401 20:0.78401703 21:0.149755 22:0.78667599 24:0.92990702 # Flowers/Shape2/shape2-035.ppm
-1.5394002632893579666627931201717e-05 6:3.4705901 7:114.901 15:152.203 16:173.806 17:0.47826099 19:0.27500001 20:0.96840203 21:0.17072301 22:0.65309399 # Flowers/Shape3/shape3-057.ppm
1.5394002632893579666627931201717e-05 6:3.47826 7:113.915 15:155.765 16:163.66701 17:0.38793099 19:0.28799999 20:0.797629 21:0.149854 22:0.61009598 24:1.725 # Flowers/Shape2/shape2-013.ppm
-1.5394002632893579666627931201717e-05 6:3.6961999 7:112.512 15:162.29201 16:174.14301 17:0.410714 19:0.234375 20:0.98186702 21:0.17389201 22:0.56010801 # Flowers/Shape3/shape3-050.ppm
1.5394002632893579666627931201717e-05 6:3.6024101 7:110.113 15:157.82899 16:165.85201 17:0.48214301 19:0.24811999 20:0.79156297 21:0.14282601 22:0.57784402 24:1.94314 # Flowers/Shape2/shape2-094.ppm
-1.5394002632893579666627931201717e-05 6:3.53125 7:116.105 15:156.821 16:172.64799 17:0.33333299 19:0.20754699 20:0.968656 21:0.204577 22:0.59707099 # Flowers/Shape3/shape3-087.ppm
1.5394002632893579666627931201717e-05 6:3.2597401 7:109.664 15:154.494 16:165.767 17:0.33913001 19:0.222222 20:0.69715399 21:0.168038 22:0.75855201 24:1.22709 # Flowers/Shape2/shape2-031.ppm
-1.5394002632893579666627931201717e-05 6:3.42222 7:114.408 15:153.399 16:174.132 17:0.40625 19:0.25 20:0.95761102 21:0.179361 22:0.68478501 # Flowers/Shape3/shape3-097.ppm
1.5394002632893579666627931201717e-05 6:3.3599999 7:110.958 15:153.194 16:165.14799 17:0.35135099 19:0.17647099 20:0.606695 21:0.217445 22:0.75093901 24:1.19048 # Flowers/Shape2/shape2-019.ppm
-1.5394002632893579666627931201717e-05 6:3.59322 7:113.766 15:158.867 16:173.85699 17:0.340909 19:0.204082 20:0.96908802 21:0.197652 22:0.577124 # Flowers/Shape3/shape3-006.ppm
1.5394002632893579666627931201717e-05 6:3.3599999 7:110.958 15:153.194 16:165.14799 17:0.35135099 19:0.17647099 20:0.606695 21:0.217445 22:0.75093901 24:1.19048 # Flowers/Shape2/shape2-021.ppm
-1.5394002632893579666627931201717e-05 6:2.6990299 7:122.92 15:139.20599 16:171.836 17:0.430556 19:0.183908 20:0.92403698 21:0.216002 22:1.07328 # Flowers/Shape3/shape3-091.ppm
1.5394002632893579666627931201717e-05 6:3.54967 7:110.197 15:155.33299 16:165.444 17:0.466019 19:0.279661 20:0.78595501 21:0.14935701 22:0.60508698 24:2.2537301 # Flowers/Shape2/shape2-074.ppm
-1.5394002632893579666627931201717e-05 6:3.3195901 7:113.524 15:163.24699 16:173.897 17:0.447761 19:0.36619699 20:0.95889097 21:0.191576 22:0.76133698 # Flowers/Shape3/shape3-065.ppm
1.5394002632893579666627931201717e-05 6:3.28736 7:113.452 15:150.306 16:164.207 17:0.42623001 19:0.208333 20:0.71725601 21:0.231444 22:0.794159 24:2.12937 # Flowers/Shape2/shape2-087.ppm
-1.5394002632893579666627931201717e-05 6:3.3734901 7:113.066 15:160.06 16:174.395 17:0.56603801 19:0.40678 20:0.95236999 21:0.19956499 22:0.76775002 # Flowers/Shape3/shape3-049.ppm
1.5394002632893579666627931201717e-05 6:3.30357 7:109.725 15:149.22099 16:166 17:0.41772199 19:0.244444 20:0.64992499 21:0.199683 22:0.76954597 24:1.2108099 # Flowers/Shape2/shape2-023.ppm
-1.5394002632893579666627931201717e-05 6:3.2241399 7:117.529 15:148.49699 16:173.373 17:0.380952 19:0.221053 20:0.90731198 21:0.176587 22:0.75439799 # Flowers/Shape3/shape3-059.ppm
1.5394002632893579666627931201717e-05 6:3.4054101 7:109.056 15:157.28 16:165.033 17:0.405063 19:0.23333301 20:0.77426201 21:0.18238699 22:0.690799 24:0.29365101 # Flowers/Shape2/shape2-046.ppm
-1.5394002632893579666627931201717e-05 6:3.69014 7:113.445 15:159.914 16:174.276 17:0.44898 19:0.24561401 20:0.97000599 21:0.184003 22:0.59329897 # Flowers/Shape3/shape3-009.ppm
1.5394002632893579666627931201717e-05 6:3.3333299 7:110.19 15:150.799 16:165.448 17:0.34482801 19:0.238095 20:0.69833302 21:0.16062699 22:0.72157699 24:1.2 # Flowers/Shape2/shape2-010.ppm
-1.5394002632893579666627931201717e-05 6:3.2781999 7:115.208 15:157.31599 16:173.63 17:0.47777799 19:0.40000001 20:0.959732 21:0.162614 22:0.77249098 # Flowers/Shape3/shape3-064.ppm
1.5394002632893579666627931201717e-05 6:3.19786 7:109.633 15:153.62199 16:165.33299 17:0.41666701 19:0.395522 20:0.781003 21:0.155572 22:0.82215202 24:0.93812698 # Flowers/Shape2/shape2-014.ppm
-1.5394002632893579666627931201717e-05 6:3.32692 7:119.712 15:151.57401 16:172 17:0.52941197 19:0.253012 20:0.96982199 21:0.17406701 22:0.71087402 # Flowers/Shape3/shape3-034.ppm
1.5394002632893579666627931201717e-05 6:3.3664601 7:108.942 15:155.442 16:165.069 17:0.364407 19:0.248062 20:0.69570601 21:0.15757699 22:0.70783502 24:0.89114398 # Flowers/Shape2/shape2-051.ppm
-1.5394002632893579666627931201717e-05 6:3.61905 7:114.788 15:156.01801 16:174.147 17:0.43181801 19:0.235294 20:0.96546203 21:0.205175 22:0.66459 # Flowers/Shape3/shape3-070.ppm
1.5394002632893579666627931201717e-05 6:3.3503201 7:110.486 15:149.907 16:165.2 17:0.41441399 19:0.377193 20:0.68864298 21:0.169655 22:0.77909797 24:1.19392 # Flowers/Shape2/shape2-068.ppm
-1.5394002632893579666627931201717e-05 6:3.40909 7:113.783 15:159.26401 16:174.369 17:0.517241 19:0.35384601 20:0.96374601 21:0.188765 22:0.72559601 # Flowers/Shape3/shape3-089.ppm
1.5394002632893579666627931201717e-05 6:3.55 7:108.399 15:155.328 16:165.11501 17:0.33333299 19:0.142857 20:0.61739397 21:0.17465501 22:0.563366 24:0.56338 # Flowers/Shape2/shape2-039.ppm
-1.5394002632893579666627931201717e-05 6:2.60976 7:121.045 15:149.064 16:171.783 17:0.67346901 19:0.49090901 20:0.92590302 21:0.28428999 22:1.43293 # Flowers/Shape3/shape3-022.ppm
1.5394002632893579666627931201717e-05 6:3.7160499 7:110.266 15:153.88699 16:164.545 17:0.48623899 19:0.236641 20:0.80798101 21:0.137417 22:0.543006 24:2.1528201 # Flowers/Shape2/shape2-052.ppm
-1.5394002632893579666627931201717e-05 6:3.8947401 7:114.488 15:157.769 16:174.25301 17:0.40740699 19:0.175258 20:0.97658598 21:0.13458499 22:0.41946501 # Flowers/Shape3/shape3-075.ppm
1.5394002632893579666627931201717e-05 6:3.2349 7:107.231 15:152.08701 16:166.314 17:0.41904801 19:0.366972 20:0.73566699 21:0.17029899 22:0.816019 24:0.92738599 # Flowers/Shape2/shape2-009.ppm
-1.5394002632893579666627931201717e-05 6:3.7757001 7:114 15:157.103 16:174.69099 17:0.407895 19:0.229885 20:0.97533298 21:0.1406 22:0.489443 # Flowers/Shape3/shape3-053.ppm
1.5394002632893579666627931201717e-05 6:3.2765999 7:108.682 15:154.27499 16:164.758 17:0.46875 19:0.27026999 20:0.76173902 21:0.213302 22:0.81113201 24:0.61039001 # Flowers/Shape2/shape2-005.ppm
-1.5394002632893579666627931201717e-05 6:3.32353 7:117.329 15:149.843 16:173.897 17:0.38775501 19:0.33333299 20:0.95906103 21:0.216236 22:0.78601599 # Flowers/Shape3/shape3-023.ppm
1.5394002632893579666627931201717e-05 6:3.31126 7:109.659 15:152.42101 16:164.515 17:0.438095 19:0.26890799 20:0.73121202 21:0.162324 22:0.77514702 24:0.90600002 # Flowers/Shape2/shape2-050.ppm
-1.5394002632893579666627931201717e-05 6:3.4717 7:114.573 15:159.424 16:174.077 17:0.472222 19:0.32499999 20:0.97077501 21:0.168457 22:0.66772097 # Flowers/Shape3/shape3-025.ppm
1.5394002632893579666627931201717e-05 6:3.6347799 7:105.525 15:164.582 16:165.24001 17:0.47435901 19:0.18556701 20:0.61217302 21:0.18482301 22:0.58805299 24:1.92584 # Flowers/Shape2/shape2-018.ppm
-1.5394002632893579666627931201717e-05 6:3.8550701 7:114.442 15:159.12399 16:174.237 17:0.5 19:0.16949201 20:0.96695799 21:0.17329501 22:0.50393099 # Flowers/Shape3/shape3-047.ppm
1.5394002632893579666627931201717e-05 6:3.37572 7:109.316 15:151.004 16:164.71001 17:0.384 19:0.235714 20:0.69360399 21:0.155304 22:0.700818 24:1.18493 # Flowers/Shape2/shape2-091.ppm
-1.5394002632893579666627931201717e-05 6:3.3421099 7:114.792 15:157.729 16:174.25 17:0.40740699 19:0.28813601 20:0.977593 21:0.202393 22:0.73085999 # Flowers/Shape3/shape3-083.ppm
1.5394002632893579666627931201717e-05 6:3.57377 7:107.889 15:151.23199 16:165.556 17:0.45238101 19:0.22 20:0.62487102 21:0.19089501 22:0.66314 24:1.11927 # Flowers/Shape2/shape2-020.ppm
-1.5394002632893579666627931201717e-05 6:3.47368 7:116.443 15:157.752 16:173.27299 17:0.37681201 19:0.26666701 20:0.96348602 21:0.173511 22:0.65981299 # Flowers/Shape3/shape3-077.ppm
1.5394002632893579666627931201717e-05 6:3.57377 7:107.889 15:151.23199 16:165.556 17:0.45238101 19:0.22 20:0.62487102 21:0.19089501 22:0.66314 24:1.11927 # Flowers/Shape2/shape2-060.ppm
-1.5394002632893579666627931201717e-05 6:3.71963 7:114.247 15:153.899 16:175.59801 17:0.426667 19:0.229885 20:0.976632 21:0.14318199 22:0.50010699 # Flowers/Shape3/shape3-033.ppm
1.5394002632893579666627931201717e-05 6:3.5483899 7:107.563 15:157.312 16:164.52 17:0.29166701 19:0.148148 20:0.61127698 21:0.174713 22:0.56459999 24:0.563636 # Flowers/Shape2/shape2-059.ppm
-1.5394002632893579666627931201717e-05 6:3.5122001 7:115.883 15:156.62199 16:174.09801 17:0.51851898 19:0.366667 20:0.949027 21:0.26657999 22:0.74532503 # Flowers/Shape3/shape3-020.ppm
1.5394002632893579666627931201717e-05 6:3.1860499 7:109.053 15:153.054 16:164.51601 17:0.283582 19:0.21126799 20:0.71143502 21:0.22683699 22:0.79201502 24:2.1970799 # Flowers/Shape2/shape2-047.ppm
-1.5394002632893579666627931201717e-05 6:3.85586 7:114.432 15:165.468 16:173.537 17:0.441558 19:0.206522 20:0.91698402 21:0.14621399 22:0.47217801 # Flowers/Shape3/shape3-076.ppm
1.5394002632893579666627931201717e-05 6:3.3260901 7:109.407 15:150.84801 16:164.452 17:0.41538501 19:0.210526 20:0.73094797 21:0.213208 22:0.73295099 24:1.80392 # Flowers/Shape2/shape2-067.ppm
-1.5394002632893579666627931201717e-05 6:2.8118801 7:123.973 15:140.437 16:171.91701 17:0.50746298 19:0.16091999 20:0.917256 21:0.20983601 22:1.03611 # Flowers/Shape3/shape3-071.ppm
1.5394002632893579666627931201717e-05 6:3.51402 7:106.126 15:153.658 16:165.778 17:0.44594601 19:0.188889 20:0.61604899 21:0.211189 22:0.73272401 24:0.85372299 # Flowers/Shape2/shape2-040.ppm
-1.5394002632893579666627931201717e-05 6:3.4103999 7:115.74 15:155.53999 16:174.63499 17:0.418033 19:0.25362301 20:0.970999 21:0.130922 22:0.60938901 # Flowers/Shape3/shape3-078.ppm
1.5394002632893579666627931201717e-05 6:3.3176501 7:108.274 15:151.27 16:165.185 17:0.41666701 19:0.268657 20:0.69539899 21:0.243319 22:0.85112602 24:2.71277 # Flowers/Shape2/shape2-006.ppm
-1.5394002632893579666627931201717e-05 6:3.45455 7:117.737 15:150.09 16:174.189 17:0.47761199 19:0.2375 20:0.96946597 21:0.167484 22:0.64122403 # Flowers/Shape3/shape3-016.ppm
1.5394002632893579666627931201717e-05 6:3.32867 7:108.474 15:153.937 16:164.03 17:0.401961 19:0.34905699 20:0.72791201 21:0.170948 22:0.81866699 24:0.60083997 # Flowers/Shape2/shape2-030.ppm
-1.5394002632893579666627931201717e-05 6:3.8596499 7:117.491 15:160.72 16:172.66701 17:0.44303799 19:0.2 20:0.842897 21:0.152294 22:0.478728 # Flowers/Shape3/shape3-036.ppm
1.5394002632893579666627931201717e-05 6:3.4465401 7:109.051 15:150.03 16:164.66701 17:0.432432 19:0.32499999 20:0.788809 21:0.154089 22:0.72378498 24:2.0310199 # Flowers/Shape2/shape2-069.ppm
-1.5394002632893579666627931201717e-05 6:3.3076899 7:121.249 15:138.74001 16:174.26199 17:0.38666701 19:0.28395101 20:0.96463001 21:0.17635199 22:0.73774302 # Flowers/Shape3/shape3-074.ppm
1.5394002632893579666627931201717e-05 6:3.51402 7:106.126 15:153.658 16:165.778 17:0.44594601 19:0.188889 20:0.61604899 21:0.211189 22:0.73272401 24:0.85372299 # Flowers/Shape2/shape2-041.ppm
-1.5394002632893579666627931201717e-05 6:3.4705901 7:116.353 15:163.601 16:173.16901 17:0.47826099 19:0.32467499 20:0.97915 21:0.169958 22:0.64960402 # Flowers/Shape3/shape3-008.ppm
1.5394002632893579666627931201717e-05 6:3.3053899 7:109.927 15:150.077 16:163.452 17:0.35772401 19:0.28461501 20:0.69894201 21:0.16028599 22:0.73375201 24:0.30253601 # Flowers/Shape2/shape2-088.ppm
-1.5394002632893579666627931201717e-05 6:3.9439299 7:116.848 15:154.39799 16:174.383 17:0.46575299 19:0.16304301 20:0.98163199 21:0.13080201 22:0.40660799 # Flowers/Shape3/shape3-095.ppm
1.5394002632893579666627931201717e-05 6:3.5478301 7:108.416 15:155.925 16:163.5 17:0.575342 19:0.277778 20:0.77842402 21:0.179047 22:0.68101698 24:0.281863 # Flowers/Shape2/shape2-026.ppm
-1.5394002632893579666627931201717e-05 6:3.9428599 7:116.405 15:159.576 16:173.95399 17:0.52173901 19:0.166667 20:0.97747302 21:0.13034301 22:0.404625 # Flowers/Shape3/shape3-055.ppm
1.5394002632893579666627931201717e-05 6:3.2381001 7:109.564 15:150.856 16:163.83299 17:0.43181801 19:0.3125 20:0.6846 21:0.16733401 22:0.83624899 24:1.54412 # Flowers/Shape2/shape2-076.ppm
-1.5394002632893579666627931201717e-05 6:3.13433 7:118.035 15:157.959 16:173.078 17:0.367347 19:0.34 20:0.96768099 21:0.232246 22:0.83126497 # Flowers/Shape3/shape3-002.ppm
1.5394002632893579666627931201717e-05 6:3.2418301 7:109.625 15:160.013 16:162 17:0.353982 19:0.233871 20:0.69818997 21:0.16696499 22:0.74079198 24:0.925403 # Flowers/Shape2/shape2-071.ppm
-1.5394002632893579666627931201717e-05 6:3.36145 7:115.71 15:159.30499 16:174.707 17:0.40678 19:0.25757599 20:0.96608901 21:0.13567699 22:0.62437201 # Flowers/Shape3/shape3-038.ppm
1.5394002632893579666627931201717e-05 6:3.3605399 7:106.576 15:154.44099 16:165.16 17:0.37383199 19:0.25641 20:0.652821 21:0.17922901 22:0.77848899 24:0.89271301 # Flowers/Shape2/shape2-042.ppm
-1.5394002632893579666627931201717e-05 6:3.2647099 7:117.247 15:154.935 16:174.39101 17:0.38775501 19:0.33333299 20:0.93988597 21:0.226805 22:0.81908202 # Flowers/Shape3/shape3-043.ppm
1.5394002632893579666627931201717e-05 6:3.2888899 7:109.85 15:150.373 16:163.38699 17:0.44 19:0.30434799 20:0.72898299 21:0.156552 22:0.81346101 24:1.21622 # Flowers/Shape2/shape2-015.ppm
-1.5394002632893579666627931201717e-05 6:3.22034 7:118.42 15:157.806 16:173.08501 17:0.42168701 19:0.404762 20:0.90244401 21:0.187667 22:0.83810902 # Flowers/Shape3/shape3-026.ppm
1.5394002632893579666627931201717e-05 6:3.3368399 7:111.622 15:152.14101 16:161.821 17:0.37681201 19:0.31034499 20:0.72968501 21:0.147626 22:0.76561201 24:1.79811 # Flowers/Shape2/shape2-036.ppm
-1.5394002632893579666627931201717e-05 6:2.6486499 7:125.348 15:139.10899 16:171.569 17:0.56338 19:0.168421 20:0.92934698 21:0.21581601 22:1.07742 # Flowers/Shape3/shape3-031.ppm
1.5394002632893579666627931201717e-05 6:3.35922 7:102.967 15:155.382 16:167.289 17:0.39189199 19:0.28749999 20:0.769059 21:0.196863 22:0.74831599 24:0.89306402 # Flowers/Shape2/shape2-066.ppm
-1.5394002632893579666627931201717e-05 6:3.4321001 7:116.272 15:160.34599 16:174.379 17:0.43362799 19:0.265625 20:0.96145803 21:0.136912 22:0.62951201 # Flowers/Shape3/shape3-058.ppm
1.5394002632893579666627931201717e-05 6:3.3662 7:108.488 15:152.32201 16:163.75 17:0.37864101 19:0.29090899 20:0.63531703 21:0.18446501 22:0.80561298 24:1.18828 # Flowers/Shape2/shape2-062.ppm
-1.5394002632893579666627931201717e-05 6:3.1079099 7:117.116 15:160.297 16:173.744 17:0.49462399 19:0.57954502 20:0.95609999 21:0.173502 22:0.93223202 # Flowers/Shape3/shape3-080.ppm
1.5394002632893579666627931201717e-05 6:3.3761499 7:110.375 15:148.63901 16:162.83299 17:0.415584 19:0.26744199 20:0.64098901 21:0.205102 22:0.79169202 24:1.48098 # Flowers/Shape2/shape2-083.ppm
-1.5394002632893579666627931201717e-05 6:3.72 7:117.893 15:154.593 16:174.314 17:0.42857099 19:0.25 20:0.971201 21:0.151531 22:0.52751702 # Flowers/Shape3/shape3-093.ppm
1.5394002632893579666627931201717e-05 6:3.4955001 7:104.906 15:153.491 16:166.07401 17:0.47999999 19:0.29069799 20:0.697065 21:0.19080099 22:0.71417803 24:1.14433 # Flowers/Shape2/shape2-085.ppm
-1.5394002632893579666627931201717e-05 6:3.1752601 7:120.212 15:160.29601 16:171.69 17:0.405797 19:0.25974 20:0.964876 21:0.190321 22:0.77582598 # Flowers/Shape3/shape3-054.ppm
1.5394002632893579666627931201717e-05 6:3.27473 7:109.261 15:151.39101 16:163.161 17:0.410853 19:0.33823499 20:0.72082102 21:0.16082899 22:0.83529502 24:1.8322099 # Flowers/Shape2/shape2-056.ppm
-1.5394002632893579666627931201717e-05 6:3.39048 7:116.315 15:162.929 16:174.31599 17:0.40000001 19:0.296296 20:0.96942198 21:0.17142101 22:0.67713201 # Flowers/Shape3/shape3-085.ppm
1.5394002632893579666627931201717e-05 6:3.5539601 7:106.459 15:152.289 16:164.92 17:0.37623799 19:0.31132099 20:0.65337002 21:0.168052 22:0.69326001 24:1.40688 # Flowers/Shape2/shape2-016.ppm
-1.5394002632893579666627931201717e-05 6:2.8571401 7:121.527 15:156.383 16:171.534 17:0.78431398 19:0.444444 20:0.94906902 21:0.24369401 22:1.22214 # Flowers/Shape3/shape3-082.ppm
1.5394002632893579666627931201717e-05 6:3.5 7:107.371 15:151.05499 16:164.8 17:0.297297 19:0.21518999 20:0.65366298 21:0.202114 22:0.72413403 24:3.7142899 # Flowers/Shape2/shape2-024.ppm
-1.5394002632893579666627931201717e-05 6:3.46154 7:116.535 15:159.767 16:174.864 17:0.52941197 19:0.30000001 20:0.96693498 21:0.173081 22:0.68548602 # Flowers/Shape3/shape3-045.ppm
1.5394002632893579666627931201717e-05 6:3.23913 7:106.646 15:150.63699 16:165.067 17:0.24324299 19:0.24324299 20:0.72619599 21:0.233658 22:0.81784701 24:2.4698 # Flowers/Shape2/shape2-027.ppm
-1.5394002632893579666627931201717e-05 6:3.17241 7:120.687 15:160.73 16:171.397 17:0.380952 19:0.41463399 20:0.90450603 21:0.191927 22:0.85515797 # Flowers/Shape3/shape3-046.ppm
1.5394002632893579666627931201717e-05 6:3.6378 7:108.973 15:148.931 16:163.58299 17:0.38043499 19:0.16513801 20:0.62437099 21:0.167472 22:0.54808098 24:3.2987001 # Flowers/Shape2/shape2-079.ppm
-1.5394002632893579666627931201717e-05 6:3.2824399 7:116.365 15:158.543 16:175.573 17:0.48863599 19:0.423913 20:0.96408802 21:0.16719 22:0.79505301 # Flowers/Shape3/shape3-044.ppm
1.5394002632893579666627931201717e-05 6:3.4518499 7:110.048 15:154.233 16:161 17:0.46739101 19:0.31068 20:0.78661901 21:0.171506 22:0.69750297 24:1.7381999 # Flowers/Shape2/shape2-054.ppm
-1.5394002632893579666627931201717e-05 6:3.1858399 7:119.623 15:159.82001 16:172.614 17:0.43037999 19:0.43037999 20:0.89900798 21:0.19677 22:0.87858099 # Flowers/Shape3/shape3-005.ppm
1.5394002632893579666627931201717e-05 6:3.51316 7:110.592 15:153.39799 16:160.85699 17:0.40740699 19:0.25619799 20:0.78988898 21:0.154814 22:0.63007998 24:2.2771499 # Flowers/Shape2/shape2-034.ppm
-1.5394002632893579666627931201717e-05 6:3.9316199 7:117.245 15:160.532 16:174.43201 17:0.46250001 19:0.17 20:0.98696202 21:0.12591401 22:0.39069501 # Flowers/Shape3/shape3-014.ppm
1.5394002632893579666627931201717e-05 6:3.36765 7:107.637 15:156.61099 16:162.16701 17:0.402062 19:0.23636401 20:0.64065498 21:0.188421 22:0.815368 24:1.18777 # Flowers/Shape2/shape2-022.ppm
-1.5394002632893579666627931201717e-05 6:2.3896101 7:125.092 15:148.39999 16:171.397 17:0.45282999 19:0.50980401 20:0.92794001 21:0.31280801 22:1.57212 # Flowers/Shape3/shape3-001.ppm
1.5394002632893579666627931201717e-05 6:3.42857 7:108.366 15:154.899 16:161.79201 17:0.28735599 19:0.142857 20:0.60424203 21:0.199688 22:0.64488298 24:0.58333302 # Flowers/Shape2/shape2-099.ppm
-1.5394002632893579666627931201717e-05 6:3.14783 7:117.68 15:158.83 16:174.688 17:0.41975299 19:0.4375 20:0.89415801 21:0.20422199 22:0.91300201 # Flowers/Shape3/shape3-066.ppm
1.5394002632893579666627931201717e-05 6:3.5344801 7:103.837 15:163.64799 16:163 17:0.46835399 19:0.27472499 20:0.71675903 21:0.179735 22:0.65791202 24:1.69756 # Flowers/Shape2/shape2-025.ppm
-1.5394002632893579666627931201717e-05 6:3.19626 7:119.017 15:157.355 16:174 17:0.33750001 19:0.320988 20:0.97054398 21:0.18253601 22:0.79024202 # Flowers/Shape3/shape3-048.ppm
1.5394002632893579666627931201717e-05 6:3.6134501 7:104.643 15:150.481 16:164.414 17:0.48750001 19:0.265957 20:0.70170999 21:0.175043 22:0.65323001 24:1.10698 # Flowers/Shape2/shape2-004.ppm
-1.5394002632893579666627931201717e-05 6:3.8811901 7:117.43 15:161.08299 16:174.453 17:0.422535 19:0.202381 20:0.97193801 21:0.14144 22:0.43739 # Flowers/Shape3/shape3-035.ppm
1.5394002632893579666627931201717e-05 6:3.38462 7:104.389 15:150.67 16:164.5 17:0.32653099 19:0.22641499 20:0.650024 21:0.182907 22:0.75787598 24:1.77273 # Flowers/Shape2/shape2-057.ppm
-1.5394002632893579666627931201717e-05 6:3.75758 7:118.907 15:161.229 16:173.286 17:0.43478301 19:0.2 20:0.97832799 21:0.17676499 22:0.51327598 # Flowers/Shape3/shape3-027.ppm
1.5394002632893579666627931201717e-05 6:3.3675201 7:104.238 15:151.257 16:164.18201 17:0.5 19:0.32954499 20:0.70615202 21:0.19791999 22:0.7744 24:1.4847701 # Flowers/Shape2/shape2-002.ppm
-1.5394002632893579666627931201717e-05 6:3.8407099 7:118.629 15:157.435 16:174.633 17:0.50666702 19:0.22826099 20:0.97983801 21:0.133379 22:0.46311399 # Flowers/Shape3/shape3-012.ppm
1.5394002632893579666627931201717e-05 6:3.4307699 7:104.868 15:151.90199 16:163.5 17:0.444444 19:0.28712901 20:0.64171302 21:0.186079 22:0.76493299 24:2.04036 # Flowers/Shape2/shape2-077.ppm
-1.5394002632893579666627931201717e-05 6:2.61905 7:122.132 15:149.55901 16:173.918 17:0.527273 19:0.47368401 20:0.93686301 21:0.27658299 22:1.39202 # Flowers/Shape3/shape3-042.ppm
1.5394002632893579666627931201717e-05 6:3.5151501 7:105.443 15:152.80499 16:162.60699 17:0.466667 19:0.31999999 20:0.65101498 21:0.180049 22:0.74423301 24:1.42241 # Flowers/Shape2/shape2-097.ppm
-1.5394002632893579666627931201717e-05 6:3.1048999 7:117.844 15:161.686 16:174.75301 17:0.47422701 19:0.53763402 20:0.96025401 21:0.17204399 22:0.92264003 # Flowers/Shape3/shape3-040.ppm
1.5394002632893579666627931201717e-05 6:3.3798399 7:108.14 15:150.47099 16:160.478 17:0.35789499 19:0.26470599 20:0.64677399 21:0.18481401 22:0.76419902 24:1.18349 # Flowers/Shape2/shape2-037.ppm
-1.5394002632893579666627931201717e-05 6:2.86076 7:125.884 15:138.005 16:174.328 17:0.75555599 19:0.16176499 20:0.85595399 21:0.25083899 22:1.25416 # Flowers/Shape3/shape3-010.ppm
1.5394002632893579666627931201717e-05 6:3.1194 7:107.313 15:154.77 16:159.739 17:0.32673299 19:0.26415101 20:0.637519 21:0.20483699 22:0.89365101 24:0.96172202 # Flowers/Shape2/shape2-001.ppm
-1.5394002632893579666627931201717e-05 6:3.0780101 7:119.563 15:160.328 16:173.679 17:0.43877599 19:0.58427 20:0.95967299 21:0.174169 22:0.93398201 # Flowers/Shape3/shape3-019.ppm
1.5394002632893579666627931201717e-05 6:3.5999999 7:104.292 15:151.026 16:163.64 17:0.369863 19:0.219512 20:0.64431202 21:0.19212399 22:0.68726999 24:1.94444 # Flowers/Shape2/shape2-044.ppm
-1.5394002632893579666627931201717e-05 6:3.7941201 7:118.942 15:160.254 16:174.257 17:0.51111102 19:0.192982 20:0.97009498 21:0.17587399 22:0.51334399 # Flowers/Shape3/shape3-067.ppm
1.5394002632893579666627931201717e-05 6:3.48276 7:105.427 15:150.92599 16:162.286 17:0.36470601 19:0.195876 20:0.62070799 21:0.194554 22:0.67753202 24:0.861386 # Flowers/Shape2/shape2-061.ppm
-1.5394002632893579666627931201717e-05 6:3.3475201 7:119.861 15:156.784 16:174.54401 17:0.5 19:0.39603999 20:0.97013301 21:0.153905 22:0.735237 # Flowers/Shape3/shape3-003.ppm
1.5394002632893579666627931201717e-05 6:3.48454 7:106 15:150.605 16:162.33299 17:0.469697 19:0.29333299 20:0.65530002 21:0.21368399 22:0.76845098 24:3.7307701 # Flowers/Shape2/shape2-003.ppm
-1.5394002632893579666627931201717e-05 6:3.7281599 7:118.452 15:160.916 16:174.94299 17:0.560606 19:0.240964 20:0.974195 21:0.150389 22:0.52035499 # Flowers/Shape3/shape3-073.ppm
1.5394002632893579666627931201717e-05 6:3.47191 7:106.173 15:148.16901 16:162.071 17:0.412698 19:0.28057599 20:0.70517701 21:0.149969 22:0.68433398 24:0.28802601 # Flowers/Shape2/shape2-007.ppm
-1.5394002632893579666627931201717e-05 6:3.1800001 7:120.836 15:157.276 16:173.86301 17:0.40845099 19:0.35135099 20:0.95994598 21:0.190309 22:0.82974201 # Flowers/Shape3/shape3-068.ppm
1.5394002632893579666627931201717e-05 6:3.32039 7:101.301 15:152.537 16:165.444 17:0.32051301 19:0.17045499 20:0.60265398 21:0.232189 22:0.81089699 24:0.90350902 # Flowers/Shape2/shape2-080.ppm
-1.5394002632893579666627931201717e-05 6:3.3173699 7:119.062 15:159.88 16:174.77699 17:0.43965501 19:0.274809 20:0.98016 21:0.138586 22:0.63821399 # Flowers/Shape3/shape3-017.ppm
1.5394002632893579666627931201717e-05 6:3.44068 7:102.789 15:153.62 16:163.84 17:0.47499999 19:0.29670301 20:0.54977 21:0.220935 22:0.85132802 24:1.4532 # Flowers/Shape2/shape2-038.ppm
-1.5394002632893579666627931201717e-05 6:3.1800001 7:121.187 15:160.89 16:172.563 17:0.40845099 19:0.369863 20:0.96196198 21:0.192587 22:0.83986098 # Flowers/Shape3/shape3-088.ppm
1.5394002632893579666627931201717e-05 6:3.32039 7:101.301 15:152.537 16:165.444 17:0.32051301 19:0.17045499 20:0.60265398 21:0.232189 22:0.81089699 24:0.90350902 # Flowers/Shape2/shape2-081.ppm
-1.5394002632893579666627931201717e-05 6:3.3880601 7:119.525 15:157.258 16:175.349 17:0.44086 19:0.42553201 20:0.96466798 21:0.156058 22:0.74550003 # Flowers/Shape3/shape3-024.ppm
1.5394002632893579666627931201717e-05 6:3.51402 7:106.067 15:147.82899 16:162.043 17:0.48611099 19:0.244186 20:0.66670102 21:0.192871 22:0.690126 24:0.85372299 # Flowers/Shape2/shape2-064.ppm
-1.5394002632893579666627931201717e-05 6:3.06569 7:117.922 15:161.735 16:175.524 17:0.37 19:0.53932601 20:0.95563298 21:0.179682 22:0.962641 # Flowers/Shape3/shape3-060.ppm
1.5394002632893579666627931201717e-05 6:3.4677401 7:104.094 15:159.13 16:160.409 17:0.47619 19:0.31914899 20:0.55901098 21:0.204509 22:0.77801502 24:2.0186 # Flowers/Shape2/shape2-078.ppm
-1.5394002632893579666627931201717e-05 6:3.30233 7:119.758 15:160.339 16:174.2 17:0.482759 19:0.44943801 20:0.96078402 21:0.164556 22:0.78164703 # Flowers/Shape3/shape3-084.ppm
1.5394002632893579666627931201717e-05 6:3.4107101 7:109.863 15:150.993 16:157.045 17:0.365854 19:0.28735599 20:0.65931302 21:0.199072 22:0.76340199 24:1.75916 # Flowers/Shape2/shape2-063.ppm
-1.5394002632893579666627931201717e-05 6:3.2792799 7:121.984 15:153.14999 16:174.32899 17:0.405063 19:0.337349 20:0.96216798 21:0.174556 22:0.758439 # Flowers/Shape3/shape3-007.ppm
1.5394002632893579666627931201717e-05 6:3.3636401 7:108.971 15:140.522 16:160.91299 17:0.41935501 19:0.33333299 20:0.79763103 21:0.15143 22:0.72110701 24:0.89189202 # Flowers/Shape2/shape2-029.ppm
-1.5394002632893579666627931201717e-05 6:2.56881 7:127 15:145.23801 16:172.386 17:0.34567899 19:0.172043 20:0.94796097 21:0.215817 22:1.06871 # Flowers/Shape3/shape3-051.ppm
1.5394002632893579666627931201717e-05 6:3.41096 7:107.69 15:155.66 16:157.091 17:0.403846 19:0.26956499 20:0.63978398 21:0.181435 22:0.78652501 24:1.75904 # Flowers/Shape2/shape2-082.ppm
-1.5394002632893579666627931201717e-05 6:3.9344299 7:117.76 15:167.23399 16:174.145 17:0.48780501 19:0.184466 20:0.94499302 21:0.13054401 22:0.422892 # Flowers/Shape3/shape3-015.ppm
1.5394002632893579666627931201717e-05 6:3.5873001 7:103.27 15:150.89101 16:162.64301 17:0.46511599 19:0.27272701 20:0.703242 21:0.17893299 22:0.70139098 24:1.9513299 # Flowers/Shape2/shape2-043.ppm
-1.5394002632893579666627931201717e-05 6:3.26667 7:121.213 15:157.759 16:174.041 17:0.463415 19:0.30434799 20:0.933267 21:0.24147899 22:0.86823702 # Flowers/Shape3/shape3-063.ppm
1.5394002632893579666627931201717e-05 6:3.51402 7:100.532 15:152.86501 16:164.355 17:0.407895 19:0.320988 20:0.69680703 21:0.19897699 22:0.74190998 24:1.42287 # Flowers/Shape2/shape2-065.ppm
-1.5394002632893579666627931201717e-05 6:3.0537601 7:123.74 15:154.976 16:173.22099 17:0.38806 19:0.38806 20:0.951446 21:0.209564 22:0.91136199 # Flowers/Shape3/shape3-028.ppm
1.5394002632893579666627931201717e-05 6:3.49123 7:100.173 15:151.83 16:165.11501 17:0.42500001 19:0.29545501 20:0.56042302 21:0.218374 22:0.84278297 24:2.0050299 # Flowers/Shape2/shape2-098.ppm
-1.5394002632893579666627931201717e-05 6:3.2096801 7:122.682 15:159.744 16:173.508 17:0.44185999 19:0.37777799 20:0.91185498 21:0.183768 22:0.82157201 # Flowers/Shape3/shape3-086.ppm
1.5394002632893579666627931201717e-05 6:3.5905499 7:102.195 15:151.28999 16:162.742 17:0.42696601 19:0.30927801 20:0.71753299 21:0.171479 22:0.64080501 24:1.94956 # Flowers/Shape2/shape2-045.ppm
-1.5394002632893579666627931201717e-05 6:2.4266701 7:124.62 15:155.854 16:173.269 17:0.59574503 19:0.470588 20:0.92659801 21:0.32455099 22:1.61669 # Flowers/Shape3/shape3-062.ppm
1.5394002632893579666627931201717e-05 6:3.44348 7:104.498 15:152.274 16:158.91299 17:0.47435901 19:0.26373601 20:0.55625403 21:0.22543199 22:0.86282301 24:2.32323 # Flowers/Shape2/shape2-058.ppm
