SVM-light Version V6.02
0 # kernel type
3 # kernel parameter -d 
1 # kernel parameter -g 
1 # kernel parameter -s 
1 # kernel parameter -r 
empty# kernel parameter -u 
24 # highest feature index 
195 # number of training documents 
195 # number of support vectors plus 1 
6.2028948 # threshold b, each following line is a SV (starting with alpha*y)
-1.5611142668942720252356001764404e-05 6:3.575 7:104.184 15:153.927 16:163.56 17:0.355932 19:0.23076899 20:0.58352298 21:0.2314 22:0.76885903 24:2.7972 # Flowers/Shape5/shape5-004.ppm
1.5611142668942720252356001764404e-05 6:3.7358501 7:111.414 15:156.27901 16:171.714 17:0.432432 19:0.26190501 20:0.97117001 21:0.21546701 22:0.60127002 # Flowers/Shape3/shape3-000.ppm
-1.5611142668942720252356001764404e-05 6:3.8181801 7:109.731 15:149.492 16:171.49001 17:0.375 19:0.222222 20:0.70967603 21:0.219073 22:0.66113299 24:2.88095 # Flowers/Shape5/shape5-075.ppm
1.5611142668942720252356001764404e-05 6:3.7164199 7:107.091 15:141.823 16:165.33299 17:0.48888901 19:0.27619001 20:0.895311 21:0.144052 22:0.55890203 # Flowers/Shape3/shape3-011.ppm
-1.5611142668942720252356001764404e-05 6:3.8055601 7:110.228 15:142.94299 16:168.739 17:0.384615 19:0.180328 20:0.67903697 21:0.20830201 22:0.57126898 24:2.8905101 # Flowers/Shape5/shape5-053.ppm
1.5611142668942720252356001764404e-05 6:3.7142899 7:107.665 15:164.347 16:168.675 17:0.47777799 19:0.25471699 20:0.90687901 21:0.139836 22:0.52689898 # Flowers/Shape3/shape3-032.ppm
-1.5611142668942720252356001764404e-05 6:3.4473701 7:103.882 15:162.217 16:153.61099 17:0.46153799 19:0.26666701 20:0.58838397 21:0.253681 22:0.82469398 24:2.6106901 # Flowers/Shape5/shape5-023.ppm
1.5611142668942720252356001764404e-05 6:3.3333299 7:119.349 15:138.03 16:171.571 17:0.45714301 19:0.29113901 20:0.95660001 21:0.178324 22:0.743617 # Flowers/Shape3/shape3-094.ppm
-1.5611142668942720252356001764404e-05 6:3.63077 7:111.655 15:146.56599 16:169.478 17:0.47727299 19:0.203704 20:0.703978 21:0.243375 22:0.74325103 24:2.4788101 # Flowers/Shape5/shape5-014.ppm
1.5611142668942720252356001764404e-05 6:3.6417899 7:106.808 15:145.56599 16:165.806 17:0.50561798 19:0.229358 20:0.897084 21:0.14288101 22:0.55175197 # Flowers/Shape3/shape3-052.ppm
-1.5611142668942720252356001764404e-05 6:3.58025 7:111.507 15:147.155 16:169.696 17:0.372881 19:0.191176 20:0.70900398 21:0.20115601 22:0.612234 24:2.2344799 # Flowers/Shape5/shape5-035.ppm
1.5611142668942720252356001764404e-05 6:3.3396201 7:114.795 15:164.923 16:171.414 17:0.413333 19:0.29268301 20:0.96703303 21:0.170073 22:0.68435401 # Flowers/Shape3/shape3-013.ppm
-1.5611142668942720252356001764404e-05 6:3.71014 7:108.77 15:150.452 16:171.52901 17:0.5 19:0.210526 20:0.698897 21:0.222868 22:0.67448699 24:1.8867199 # Flowers/Shape5/shape5-095.ppm
1.5611142668942720252356001764404e-05 6:3.6666701 7:111.018 15:142.86 16:165.868 17:0.482353 19:0.285714 20:0.89584798 21:0.146844 22:0.565732 # Flowers/Shape3/shape3-092.ppm
-1.5611142668942720252356001764404e-05 6:3.8209 7:112.175 15:144.46899 16:167.76199 17:0.48888901 19:0.196429 20:0.67789102 21:0.22490799 22:0.61650199 24:2.8789101 # Flowers/Shape5/shape5-012.ppm
1.5611142668942720252356001764404e-05 6:3.5609801 7:112.044 15:147.22501 16:165.33299 17:0.44705901 19:0.25510201 20:0.89903098 21:0.15416101 22:0.59502298 # Flowers/Shape3/shape3-072.ppm
-1.5611142668942720252356001764404e-05 6:3.2432401 7:112.434 15:155.55701 16:163.10699 17:0.42307699 19:0.37037 20:0.576814 21:0.46441001 22:1.18777 24:2.15833 # Flowers/Shape5/shape5-080.ppm
1.5611142668942720252356001764404e-05 6:3.1965799 7:112.677 15:146.49699 16:171.30901 17:0.32954499 19:0.23157901 20:0.91356802 21:0.18249901 22:0.77529597 # Flowers/Shape3/shape3-039.ppm
-1.5611142668942720252356001764404e-05 6:3.7611899 7:110.627 15:144.804 16:168.114 17:0.55813998 19:0.240741 20:0.69724602 21:0.230281 22:0.70694399 24:1.86111 # Flowers/Shape5/shape5-055.ppm
1.5611142668942720252356001764404e-05 6:3.73913 7:109.81 15:158.01801 16:172.35699 17:0.39393899 19:0.31428599 20:0.96639103 21:0.22868299 22:0.63758302 # Flowers/Shape3/shape3-061.ppm
-1.5611142668942720252356001764404e-05 6:3.8684199 7:108.495 15:145.688 16:171.644 17:0.40740699 19:0.15151501 20:0.68583697 21:0.204485 22:0.56053102 24:3.1020401 # Flowers/Shape5/shape5-073.ppm
1.5611142668942720252356001764404e-05 6:3.2181799 7:115.665 15:139.23801 16:171.839 17:0.32530099 19:0.25 20:0.90883303 21:0.18055899 22:0.76652902 # Flowers/Shape3/shape3-018.ppm
-1.5611142668942720252356001764404e-05 6:3.91892 7:108.602 15:147.416 16:169.093 17:0.42307699 19:0.174603 20:0.683792 21:0.20248801 22:0.549568 24:2.8069 # Flowers/Shape5/shape5-093.ppm
1.5611142668942720252356001764404e-05 6:3.5652201 7:109.703 15:161.19 16:173.754 17:0.39393899 19:0.31428599 20:0.95740998 21:0.23543701 22:0.65774697 # Flowers/Shape3/shape3-021.ppm
-1.5611142668942720252356001764404e-05 6:3.4210501 7:108.147 15:156.74699 16:166.21201 17:0.40740699 19:0.225806 20:0.673154 21:0.262485 22:0.82436901 24:2.33846 # Flowers/Shape5/shape5-097.ppm
1.5611142668942720252356001764404e-05 6:3.7142899 7:112.519 15:157.036 16:171.185 17:0.441176 19:0.28947401 20:0.96086103 21:0.222389 22:0.61998099 # Flowers/Shape3/shape3-081.ppm
-1.5611142668942720252356001764404e-05 6:3.4186001 7:107.736 15:155.651 16:166.448 17:0.34375 19:0.228571 20:0.66539502 21:0.238804 22:0.74941403 24:3.21769 # Flowers/Shape5/shape5-037.ppm
1.5611142668942720252356001764404e-05 6:3.9677401 7:113.633 15:155.752 16:171.582 17:0.45882401 19:0.20388301 20:0.84948701 21:0.138864 22:0.43908501 # Flowers/Shape3/shape3-056.ppm
-1.5611142668942720252356001764404e-05 6:3.4814799 7:109.368 15:155.38499 16:165.60001 17:0.42105299 19:0.208955 20:0.66574198 21:0.25068301 22:0.78771102 24:4.0212798 # Flowers/Shape5/shape5-016.ppm
1.5611142668942720252356001764404e-05 6:3.4769199 7:110.571 15:157.855 16:173.7 17:0.444444 19:0.32653099 20:0.96840698 21:0.2068 22:0.672095 # Flowers/Shape3/shape3-090.ppm
-1.5611142668942720252356001764404e-05 6:3.54545 7:105.357 15:157.69901 16:165.882 17:0.44262299 19:0.25714299 20:0.66774303 21:0.233863 22:0.73447698 24:1.97436 # Flowers/Shape5/shape5-057.ppm
1.5611142668942720252356001764404e-05 6:2.6990299 7:122.92 15:139.20599 16:171.836 17:0.430556 19:0.183908 20:0.92403698 21:0.216002 22:1.07328 # Flowers/Shape3/shape3-091.ppm
-1.5611142668942720252356001764404e-05 6:3.8550701 7:106.046 15:141.89 16:169.535 17:0.5 19:0.232143 20:0.67858398 21:0.233559 22:0.64322299 24:2.33459 # Flowers/Shape5/shape5-033.ppm
1.5611142668942720252356001764404e-05 6:3.47368 7:111.357 15:159.48199 16:173.25999 17:0.484375 19:0.35714301 20:0.96251798 21:0.17949399 22:0.68927199 # Flowers/Shape3/shape3-029.ppm
-1.5611142668942720252356001764404e-05 6:3.3333299 7:108.884 15:145.40401 16:166.222 17:0.33333299 19:0.297297 20:0.58828503 21:0.39706999 22:1.03721 24:2.0999999 # Flowers/Shape5/shape5-019.ppm
1.5611142668942720252356001764404e-05 6:3.5051501 7:112.453 15:158.681 16:173.76401 17:0.405797 19:0.24359 20:0.969441 21:0.16977599 22:0.64488602 # Flowers/Shape3/shape3-037.ppm
-1.5611142668942720252356001764404e-05 6:3.5999999 7:112.426 15:157.467 16:159.217 17:0.36363599 19:0.171875 20:0.614057 21:0.232444 22:0.70942098 24:3.0555601 # Flowers/Shape5/shape5-088.ppm
1.5611142668942720252356001764404e-05 6:3.4705901 7:114.901 15:152.203 16:173.806 17:0.47826099 19:0.27500001 20:0.96840203 21:0.17072301 22:0.65309399 # Flowers/Shape3/shape3-057.ppm
-1.5611142668942720252356001764404e-05 6:3.3333299 7:108.968 15:153.991 16:163.48399 17:0.327869 19:0.265625 20:0.67176598 21:0.25287899 22:0.795959 24:2.7 # Flowers/Shape5/shape5-077.ppm
1.5611142668942720252356001764404e-05 6:3.9322 7:115.049 15:155.65601 16:172.80901 17:0.439024 19:0.21649501 20:0.810965 21:0.14800601 22:0.47010899 # Flowers/Shape3/shape3-096.ppm
-1.5611142668942720252356001764404e-05 6:3.68571 7:105.617 15:153.38901 16:166.207 17:0.42857099 19:0.186441 20:0.53583401 21:0.26533601 22:0.744699 24:2.1705401 # Flowers/Shape5/shape5-001.ppm
1.5611142668942720252356001764404e-05 6:3.42222 7:114.408 15:153.399 16:174.132 17:0.40625 19:0.25 20:0.95761102 21:0.179361 22:0.68478501 # Flowers/Shape3/shape3-097.ppm
-1.5611142668942720252356001764404e-05 6:3.3494 7:106.944 15:155 16:164.92 17:0.296875 19:0.18571401 20:0.54305899 21:0.244323 22:0.83711702 24:3.5827301 # Flowers/Shape5/shape5-010.ppm
1.5611142668942720252356001764404e-05 6:3.4105301 7:112.895 15:158.21201 16:173.914 17:0.50793701 19:0.33802801 20:0.97101301 21:0.18120299 22:0.701217 # Flowers/Shape3/shape3-069.ppm
-1.5611142668942720252356001764404e-05 6:3.7931001 7:105.379 15:153.937 16:166.267 17:0.52631599 19:0.208333 20:0.63816899 21:0.19983301 22:0.63356 24:3.16364 # Flowers/Shape5/shape5-074.ppm
1.5611142668942720252356001764404e-05 6:3.6521699 7:113.164 15:158.479 16:173.88499 17:0.39393899 19:0.277778 20:0.95981598 21:0.236114 22:0.659706 # Flowers/Shape3/shape3-041.ppm
-1.5611142668942720252356001764404e-05 6:3.90361 7:108.336 15:158.00301 16:163.125 17:0.383333 19:0.18571401 20:0.65247899 21:0.185305 22:0.52465397 24:4.3549399 # Flowers/Shape5/shape5-079.ppm
1.5611142668942720252356001764404e-05 6:3.37255 7:114.091 15:158.80701 16:173.052 17:0.5 19:0.378378 20:0.96189898 21:0.181402 22:0.72412401 # Flowers/Shape3/shape3-004.ppm
-1.5611142668942720252356001764404e-05 6:4.0425501 7:106.171 15:156.08299 16:165.269 17:0.253333 19:0.160494 20:0.66531098 21:0.167022 22:0.47512099 24:4.45263 # Flowers/Shape5/shape5-039.ppm
1.5611142668942720252356001764404e-05 6:3.5833299 7:114.473 15:159.368 16:172.662 17:0.46938801 19:0.285714 20:0.97045499 21:0.18972901 22:0.613392 # Flowers/Shape3/shape3-030.ppm
-1.5611142668942720252356001764404e-05 6:3.6623399 7:103.361 15:157.017 16:166.259 17:0.425926 19:0.241935 20:0.58803201 21:0.23109899 22:0.76859403 24:3.0035501 # Flowers/Shape5/shape5-065.ppm
1.5611142668942720252356001764404e-05 6:3.2241399 7:117.529 15:148.49699 16:173.373 17:0.380952 19:0.221053 20:0.90731198 21:0.176587 22:0.75439799 # Flowers/Shape3/shape3-059.ppm
-1.5611142668942720252356001764404e-05 6:3.7471299 7:108.95 15:150.50301 16:163.258 17:0.42623001 19:0.191781 20:0.6426 21:0.198431 22:0.63192302 24:3.4693301 # Flowers/Shape5/shape5-013.ppm
1.5611142668942720252356001764404e-05 6:3.6961999 7:112.512 15:162.29201 16:174.14301 17:0.410714 19:0.234375 20:0.98186702 21:0.17389201 22:0.56010801 # Flowers/Shape3/shape3-050.ppm
-1.5611142668942720252356001764404e-05 6:3.88889 7:104.912 15:155.485 16:165.769 17:0.45161301 19:0.16883101 20:0.65786201 21:0.182907 22:0.52048498 24:4.3714299 # Flowers/Shape5/shape5-018.ppm
1.5611142668942720252356001764404e-05 6:3.59322 7:113.766 15:158.867 16:173.85699 17:0.340909 19:0.204082 20:0.96908802 21:0.197652 22:0.577124 # Flowers/Shape3/shape3-006.ppm
-1.5611142668942720252356001764404e-05 6:3.66292 7:104.312 15:152.39301 16:166.172 17:0.36923099 19:0.236111 20:0.59100902 21:0.199132 22:0.66505998 24:2.7300601 # Flowers/Shape5/shape5-085.ppm
1.5611142668942720252356001764404e-05 6:3.53125 7:116.105 15:156.821 16:172.64799 17:0.33333299 19:0.20754699 20:0.968656 21:0.204577 22:0.59707099 # Flowers/Shape3/shape3-087.ppm
-1.5611142668942720252356001764404e-05 6:3.3 7:106.659 15:150.414 16:164 17:0.36363599 19:0.17647099 20:0.53813702 21:0.31780899 22:0.89226198 24:1.51515 # Flowers/Shape5/shape5-042.ppm
1.5611142668942720252356001764404e-05 6:3.3734901 7:113.066 15:160.06 16:174.395 17:0.56603801 19:0.40678 20:0.95236999 21:0.19956499 22:0.76775002 # Flowers/Shape3/shape3-049.ppm
-1.5611142668942720252356001764404e-05 6:3.9130399 7:110.146 15:152.74899 16:161.45799 17:0.35294101 19:0.179487 20:0.66444898 21:0.176027 22:0.50155002 24:4.34444 # Flowers/Shape5/shape5-099.ppm
1.5611142668942720252356001764404e-05 6:3.32353 7:117.329 15:149.843 16:173.897 17:0.38775501 19:0.33333299 20:0.95906103 21:0.216236 22:0.78601599 # Flowers/Shape3/shape3-023.ppm
-1.5611142668942720252356001764404e-05 6:3.5692301 7:105.305 15:149.34801 16:165.769 17:0.41304299 19:0.18181799 20:0.539621 21:0.276889 22:0.78255898 24:1.96121 # Flowers/Shape5/shape5-022.ppm
1.5611142668942720252356001764404e-05 6:3.61905 7:114.788 15:156.01801 16:174.147 17:0.43181801 19:0.235294 20:0.96546203 21:0.205175 22:0.66459 # Flowers/Shape3/shape3-070.ppm
-1.5611142668942720252356001764404e-05 6:3.5999999 7:107.263 15:154.151 16:162.375 17:0.42857099 19:0.17647099 20:0.57322901 21:0.27661201 22:0.80936497 24:2.2222199 # Flowers/Shape5/shape5-006.ppm
1.5611142668942720252356001764404e-05 6:3.3076899 7:121.249 15:138.74001 16:174.26199 17:0.38666701 19:0.28395101 20:0.96463001 21:0.17635199 22:0.73774302 # Flowers/Shape3/shape3-074.ppm
-1.5611142668942720252356001764404e-05 6:3.5833299 7:104.192 15:150.638 16:166.16701 17:0.54838699 19:0.26315799 20:0.585208 21:0.36392701 22:0.94598001 24:2.2325599 # Flowers/Shape5/shape5-060.ppm
1.5611142668942720252356001764404e-05 6:3.69014 7:113.445 15:159.914 16:174.276 17:0.44898 19:0.24561401 20:0.97000599 21:0.184003 22:0.59329897 # Flowers/Shape3/shape3-009.ppm
-1.5611142668942720252356001764404e-05 6:3.4461501 7:112.296 15:157.123 16:157.688 17:0.41304299 19:0.27451 20:0.343483 21:0.37662399 22:0.98084903 24:4.9330401 # Flowers/Shape5/shape5-017.ppm
1.5611142668942720252356001764404e-05 6:3.7757001 7:114 15:157.103 16:174.69099 17:0.407895 19:0.229885 20:0.97533298 21:0.1406 22:0.489443 # Flowers/Shape3/shape3-053.ppm
-1.5611142668942720252356001764404e-05 6:3.6631601 7:100.657 15:149.427 16:168.84399 17:0.39705899 19:0.1875 20:0.65198398 21:0.200541 22:0.63667703 24:3.0028701 # Flowers/Shape5/shape5-034.ppm
1.5611142668942720252356001764404e-05 6:3.2781999 7:115.208 15:157.31599 16:173.63 17:0.47777799 19:0.40000001 20:0.959732 21:0.162614 22:0.77249098 # Flowers/Shape3/shape3-064.ppm
-1.5611142668942720252356001764404e-05 6:3.8461499 7:105.421 15:150.668 16:164.586 17:0.421875 19:0.213333 20:0.63691902 21:0.193257 22:0.61872202 24:3.9000001 # Flowers/Shape5/shape5-094.ppm
1.5611142668942720252356001764404e-05 6:3.40909 7:113.783 15:159.26401 16:174.369 17:0.517241 19:0.35384601 20:0.96374601 21:0.188765 22:0.72559601 # Flowers/Shape3/shape3-089.ppm
-1.5611142668942720252356001764404e-05 6:3.5 7:103.87 15:155.09 16:163.54201 17:0.4375 19:0.210526 20:0.58647901 21:0.22163101 22:0.73672497 24:2 # Flowers/Shape5/shape5-045.ppm
1.5611142668942720252356001764404e-05 6:3.71963 7:114.247 15:153.899 16:175.59801 17:0.426667 19:0.229885 20:0.976632 21:0.14318199 22:0.50010699 # Flowers/Shape3/shape3-033.ppm
-1.5611142668942720252356001764404e-05 6:3.6774199 7:105.247 15:152.18201 16:163.58299 17:0.31914899 19:0.169811 20:0.57804698 21:0.25736201 22:0.75993299 24:2.99123 # Flowers/Shape5/shape5-067.ppm
1.5611142668942720252356001764404e-05 6:3.8947401 7:114.488 15:157.769 16:174.25301 17:0.40740699 19:0.175258 20:0.97658598 21:0.13458499 22:0.41946501 # Flowers/Shape3/shape3-075.ppm
-1.5611142668942720252356001764404e-05 6:3.46154 7:103.25 15:154.336 16:164.577 17:0.30000001 19:0.18181799 20:0.56601799 21:0.30867299 22:0.90120697 24:2.5999999 # Flowers/Shape5/shape5-047.ppm
1.5611142668942720252356001764404e-05 6:3.3421099 7:114.792 15:157.729 16:174.25 17:0.40740699 19:0.28813601 20:0.977593 21:0.202393 22:0.73085999 # Flowers/Shape3/shape3-083.ppm
-1.5611142668942720252356001764404e-05 6:3.88764 7:106.747 15:156.448 16:161.05 17:0.36923099 19:0.186667 20:0.66313702 21:0.18708199 22:0.53135902 24:4.1156101 # Flowers/Shape5/shape5-059.ppm
1.5611142668942720252356001764404e-05 6:3.8550701 7:114.442 15:159.12399 16:174.237 17:0.5 19:0.16949201 20:0.96695799 21:0.17329501 22:0.50393099 # Flowers/Shape3/shape3-047.ppm
-1.5611142668942720252356001764404e-05 6:3.5824201 7:107.983 15:160.017 16:158.31799 17:0.40000001 19:0.166667 20:0.55108398 21:0.210264 22:0.70938402 24:3.07055 # Flowers/Shape5/shape5-071.ppm
1.5611142668942720252356001764404e-05 6:3.4717 7:114.573 15:159.424 16:174.077 17:0.472222 19:0.32499999 20:0.97077501 21:0.168457 22:0.66772097 # Flowers/Shape3/shape3-025.ppm
-1.5611142668942720252356001764404e-05 6:3.4877999 7:101.848 15:154.235 16:165.103 17:0.344262 19:0.242424 20:0.58273298 21:0.23333099 22:0.76671702 24:2.29371 # Flowers/Shape5/shape5-025.ppm
1.5611142668942720252356001764404e-05 6:3.3195901 7:113.524 15:163.24699 16:173.897 17:0.447761 19:0.36619699 20:0.95889097 21:0.191576 22:0.76133698 # Flowers/Shape3/shape3-065.ppm
-1.5611142668942720252356001764404e-05 6:3.30233 7:111.734 15:154.84399 16:156.19 17:0.34375 19:0.194444 20:0.589939 21:0.25555801 22:0.84390903 24:2.4225399 # Flowers/Shape5/shape5-043.ppm
1.5611142668942720252356001764404e-05 6:3.32692 7:119.712 15:151.57401 16:172 17:0.52941197 19:0.253012 20:0.96982199 21:0.17406701 22:0.71087402 # Flowers/Shape3/shape3-034.ppm
-1.5611142668942720252356001764404e-05 6:3.5824201 7:105.004 15:155.177 16:162.70799 17:0.444444 19:0.166667 20:0.539406 21:0.216535 22:0.74219197 24:5.0245399 # Flowers/Shape5/shape5-091.ppm
1.5611142668942720252356001764404e-05 6:3.45455 7:117.737 15:150.09 16:174.189 17:0.47761199 19:0.2375 20:0.96946597 21:0.167484 22:0.64122403 # Flowers/Shape3/shape3-016.ppm
-1.5611142668942720252356001764404e-05 6:3.54217 7:106.66 15:148.241 16:162.33299 17:0.33871001 19:0.16901401 20:0.624304 21:0.21259899 22:0.69315797 24:3.6700699 # Flowers/Shape5/shape5-090.ppm
1.5611142668942720252356001764404e-05 6:3.47368 7:116.443 15:157.752 16:173.27299 17:0.37681201 19:0.26666701 20:0.96348602 21:0.173511 22:0.65981299 # Flowers/Shape3/shape3-077.ppm
-1.5611142668942720252356001764404e-05 6:3.62222 7:106.034 15:155.41 16:161 17:0.36363599 19:0.16883101 20:0.64886802 21:0.201336 22:0.61921299 24:4.1410999 # Flowers/Shape5/shape5-054.ppm
1.5611142668942720252356001764404e-05 6:3.5122001 7:115.883 15:156.62199 16:174.09801 17:0.51851898 19:0.366667 20:0.949027 21:0.26657999 22:0.74532503 # Flowers/Shape3/shape3-020.ppm
-1.5611142668942720252356001764404e-05 6:3.48718 7:103.572 15:155.65401 16:162.41701 17:0.36842099 19:0.164179 20:0.53373301 21:0.25667301 22:0.87484801 24:3.1544099 # Flowers/Shape5/shape5-031.ppm
1.5611142668942720252356001764404e-05 6:3.4103999 7:115.74 15:155.53999 16:174.63499 17:0.418033 19:0.25362301 20:0.970999 21:0.130922 22:0.60938901 # Flowers/Shape3/shape3-078.ppm
-1.5611142668942720252356001764404e-05 6:3.5211301 7:107.983 15:148.688 16:161.043 17:0.31481501 19:0.16393401 20:0.57290202 21:0.236011 22:0.68771702 24:4.8280001 # Flowers/Shape5/shape5-026.ppm
1.5611142668942720252356001764404e-05 6:2.60976 7:121.045 15:149.064 16:171.783 17:0.67346901 19:0.49090901 20:0.92590302 21:0.28428999 22:1.43293 # Flowers/Shape3/shape3-022.ppm
-1.5611142668942720252356001764404e-05 6:3.5733299 7:102.176 15:152.271 16:164.56 17:0.44230801 19:0.190476 20:0.61533302 21:0.23123699 22:0.80827397 24:3.3582101 # Flowers/Shape5/shape5-069.ppm
1.5611142668942720252356001764404e-05 6:3.85586 7:114.432 15:165.468 16:173.537 17:0.441558 19:0.206522 20:0.91698402 21:0.14621399 22:0.47217801 # Flowers/Shape3/shape3-076.ppm
-1.5611142668942720252356001764404e-05 6:3.5999999 7:102.203 15:148.935 16:164.72 17:0.45833299 19:0.186441 20:0.547158 21:0.244574 22:0.68794698 24:2.5 # Flowers/Shape5/shape5-062.ppm
1.5611142668942720252356001764404e-05 6:3.9439299 7:116.848 15:154.39799 16:174.383 17:0.46575299 19:0.16304301 20:0.98163199 21:0.13080201 22:0.40660799 # Flowers/Shape3/shape3-095.ppm
-1.5611142668942720252356001764404e-05 6:3.5522399 7:112.421 15:153.599 16:155.39999 17:0.45652199 19:0.240741 20:0.34926999 21:0.350703 22:0.91556501 24:5.3487401 # Flowers/Shape5/shape5-058.ppm
1.5611142668942720252356001764404e-05 6:2.8118801 7:123.973 15:140.437 16:171.91701 17:0.50746298 19:0.16091999 20:0.917256 21:0.20983601 22:1.03611 # Flowers/Shape3/shape3-071.ppm
-1.5611142668942720252356001764404e-05 6:3.4347799 7:102.571 15:149.55299 16:163.66701 17:0.48387101 19:0.24324299 20:0.58836502 21:0.38728601 22:1.00984 24:2.0379701 # Flowers/Shape5/shape5-040.ppm
1.5611142668942720252356001764404e-05 6:3.8596499 7:117.491 15:160.72 16:172.66701 17:0.44303799 19:0.2 20:0.842897 21:0.152294 22:0.478728 # Flowers/Shape3/shape3-036.ppm
-1.5611142668942720252356001764404e-05 6:3.5 7:104.886 15:158.08701 16:160.13 17:0.44827601 19:0.2 20:0.63980502 21:0.218931 22:0.67872202 24:3.7142899 # Flowers/Shape5/shape5-007.ppm
1.5611142668942720252356001764404e-05 6:3.9428599 7:116.405 15:159.576 16:173.95399 17:0.52173901 19:0.166667 20:0.97747302 21:0.13034301 22:0.404625 # Flowers/Shape3/shape3-055.ppm
-1.5611142668942720252356001764404e-05 6:3.3461499 7:108.811 15:151.588 16:157.68201 17:0.30000001 19:0.20930199 20:0.56478298 21:0.331173 22:0.97518098 24:2.6896601 # Flowers/Shape5/shape5-087.ppm
1.5611142668942720252356001764404e-05 6:3.2647099 7:117.247 15:154.935 16:174.39101 17:0.38775501 19:0.33333299 20:0.93988597 21:0.226805 22:0.81908202 # Flowers/Shape3/shape3-043.ppm
-1.5611142668942720252356001764404e-05 6:3.5529399 7:103.055 15:154.192 16:162.5 17:0.41666701 19:0.180556 20:0.54371899 21:0.231621 22:0.78945798 24:3.9403999 # Flowers/Shape5/shape5-051.ppm
1.5611142668942720252356001764404e-05 6:3.36145 7:115.71 15:159.30499 16:174.707 17:0.40678 19:0.25757599 20:0.96608901 21:0.13567699 22:0.62437201 # Flowers/Shape3/shape3-038.ppm
-1.5611142668942720252356001764404e-05 6:3.5185201 7:111.044 15:146.59399 16:157.091 17:0.285714 19:0.148936 20:0.58310997 21:0.26946601 22:0.74047798 24:3.97895 # Flowers/Shape5/shape5-000.ppm
1.5611142668942720252356001764404e-05 6:3.13433 7:118.035 15:157.959 16:173.078 17:0.367347 19:0.34 20:0.96768099 21:0.232246 22:0.83126497 # Flowers/Shape3/shape3-002.ppm
-1.5611142668942720252356001764404e-05 6:3.7910399 7:108.348 15:156.444 16:156.619 17:0.48888901 19:0.196429 20:0.59398198 21:0.239733 22:0.62289798 24:3.16535 # Flowers/Shape5/shape5-024.ppm
1.5611142668942720252356001764404e-05 6:2.6486499 7:125.348 15:139.10899 16:171.569 17:0.56338 19:0.168421 20:0.92934698 21:0.21581601 22:1.07742 # Flowers/Shape3/shape3-031.ppm
-1.5611142668942720252356001764404e-05 6:3.3513501 7:108.354 15:153.155 16:157 17:0.27586201 19:0.23333301 20:0.585118 21:0.26455599 22:0.87711698 24:3.2822599 # Flowers/Shape5/shape5-083.ppm
1.5611142668942720252356001764404e-05 6:3.4705901 7:116.353 15:163.601 16:173.16901 17:0.47826099 19:0.32467499 20:0.97915 21:0.169958 22:0.64960402 # Flowers/Shape3/shape3-008.ppm
-1.5611142668942720252356001764404e-05 6:3.46067 7:103.352 15:153.735 16:161 17:0.390625 19:0.155844 20:0.62697202 21:0.215795 22:0.74683601 24:2.6006501 # Flowers/Shape5/shape5-029.ppm
1.5611142668942720252356001764404e-05 6:3.72 7:117.893 15:154.593 16:174.314 17:0.42857099 19:0.25 20:0.971201 21:0.151531 22:0.52751702 # Flowers/Shape3/shape3-093.ppm
-1.5611142668942720252356001764404e-05 6:3.62712 7:103.8 15:151.808 16:161.34801 17:0.439024 19:0.229167 20:0.59451801 21:0.262445 22:0.688802 24:3.8598101 # Flowers/Shape5/shape5-044.ppm
1.5611142668942720252356001764404e-05 6:3.4321001 7:116.272 15:160.34599 16:174.379 17:0.43362799 19:0.265625 20:0.96145803 21:0.136912 22:0.62951201 # Flowers/Shape3/shape3-058.ppm
-1.5611142668942720252356001764404e-05 6:3.32075 7:109.951 15:146.855 16:157.05299 17:0.20454501 19:0.152174 20:0.57606298 21:0.30366299 22:0.822891 24:3.9147699 # Flowers/Shape5/shape5-081.ppm
1.5611142668942720252356001764404e-05 6:3.22034 7:118.42 15:157.806 16:173.08501 17:0.42168701 19:0.404762 20:0.90244401 21:0.187667 22:0.83810902 # Flowers/Shape3/shape3-026.ppm
-1.5611142668942720252356001764404e-05 6:3.6140399 7:100.262 15:146.714 16:164.793 17:0.5 19:0.1875 20:0.53167599 21:0.30262899 22:0.85413301 24:1.66019 # Flowers/Shape5/shape5-082.ppm
1.5611142668942720252356001764404e-05 6:3.1079099 7:117.116 15:160.297 16:173.744 17:0.49462399 19:0.57954502 20:0.95609999 21:0.173502 22:0.93223202 # Flowers/Shape3/shape3-080.ppm
-1.5611142668942720252356001764404e-05 6:3.6226399 7:108.489 15:153.144 16:156.5 17:0.35897401 19:0.17777801 20:0.58197898 21:0.272163 22:0.73685199 24:3.5885401 # Flowers/Shape5/shape5-020.ppm
1.5611142668942720252356001764404e-05 6:3.46154 7:116.535 15:159.767 16:174.864 17:0.52941197 19:0.30000001 20:0.96693498 21:0.173081 22:0.68548602 # Flowers/Shape3/shape3-045.ppm
-1.5611142668942720252356001764404e-05 6:3.67273 7:102.224 15:154.892 16:161.34801 17:0.447368 19:0.19565199 20:0.59330398 21:0.27884299 22:0.72893298 24:3.2673299 # Flowers/Shape5/shape5-003.ppm
1.5611142668942720252356001764404e-05 6:2.8571401 7:121.527 15:156.383 16:171.534 17:0.78431398 19:0.444444 20:0.94906902 21:0.24369401 22:1.22214 # Flowers/Shape3/shape3-082.ppm
-1.5611142668942720252356001764404e-05 6:3.63415 7:106.56 15:145.63 16:160.13 17:0.366667 19:0.18840601 20:0.62454998 21:0.22031599 22:0.71848297 24:4.1275201 # Flowers/Shape5/shape5-009.ppm
1.5611142668942720252356001764404e-05 6:3.39048 7:116.315 15:162.929 16:174.31599 17:0.40000001 19:0.296296 20:0.96942198 21:0.17142101 22:0.67713201 # Flowers/Shape3/shape3-085.ppm
-1.5611142668942720252356001764404e-05 6:3.24 7:100.955 15:151.692 16:162.45799 17:0.35135099 19:0.282051 20:0.56157303 21:0.342657 22:1.011 24:1.54321 # Flowers/Shape5/shape5-027.ppm
1.5611142668942720252356001764404e-05 6:3.2824399 7:116.365 15:158.543 16:175.573 17:0.48863599 19:0.423913 20:0.96408802 21:0.16719 22:0.79505301 # Flowers/Shape3/shape3-044.ppm
-1.5611142668942720252356001764404e-05 6:3.6896601 7:108.474 15:149.46201 16:157.27299 17:0.34883699 19:0.208333 20:0.56213897 21:0.26298299 22:0.75525099 24:4.0654202 # Flowers/Shape5/shape5-005.ppm
1.5611142668942720252356001764404e-05 6:3.1752601 7:120.212 15:160.29601 16:171.69 17:0.405797 19:0.25974 20:0.964876 21:0.190321 22:0.77582598 # Flowers/Shape3/shape3-054.ppm
-1.5611142668942720252356001764404e-05 6:3.90909 7:104.396 15:149.32201 16:160.478 17:0.466667 19:0.137931 20:0.59253401 21:0.237315 22:0.61861002 24:2.8139501 # Flowers/Shape5/shape5-084.ppm
1.5611142668942720252356001764404e-05 6:3.9316199 7:117.245 15:160.532 16:174.43201 17:0.46250001 19:0.17 20:0.98696202 21:0.12591401 22:0.39069501 # Flowers/Shape3/shape3-014.ppm
-1.5611142668942720252356001764404e-05 6:3.6470599 7:100.111 15:148.78 16:164.5 17:0.51785702 19:0.197183 20:0.62772799 21:0.219778 22:0.72027099 24:3.5645199 # Flowers/Shape5/shape5-070.ppm
1.5611142668942720252356001764404e-05 6:2.3896101 7:125.092 15:148.39999 16:171.397 17:0.45282999 19:0.50980401 20:0.92794001 21:0.31280801 22:1.57212 # Flowers/Shape3/shape3-001.ppm
-1.5611142668942720252356001764404e-05 6:3.68293 7:105.914 15:153.72099 16:157.409 17:0.38983101 19:0.17142899 20:0.61886102 21:0.209406 22:0.72386801 24:3.25828 # Flowers/Shape5/shape5-008.ppm
1.5611142668942720252356001764404e-05 6:3.14783 7:117.68 15:158.83 16:174.688 17:0.41975299 19:0.4375 20:0.89415801 21:0.20422199 22:0.91300201 # Flowers/Shape3/shape3-066.ppm
-1.5611142668942720252356001764404e-05 6:3.5211301 7:109.441 15:159.89999 16:152.66701 17:0.39215699 19:0.26785699 20:0.348418 21:0.343896 22:0.88900697 24:5.112 # Flowers/Shape5/shape5-098.ppm
1.5611142668942720252356001764404e-05 6:3.1858399 7:119.623 15:159.82001 16:172.614 17:0.43037999 19:0.43037999 20:0.89900798 21:0.19677 22:0.87858099 # Flowers/Shape3/shape3-005.ppm
-1.5611142668942720252356001764404e-05 6:3.82353 7:104.562 15:155.35001 16:157.5 17:0.78947401 19:0.23636401 20:0.51180899 21:0.27203801 22:0.807504 24:2.09231 # Flowers/Shape5/shape5-036.ppm
1.5611142668942720252356001764404e-05 6:3.17241 7:120.687 15:160.73 16:171.397 17:0.380952 19:0.41463399 20:0.90450603 21:0.191927 22:0.85515797 # Flowers/Shape3/shape3-046.ppm
-1.5611142668942720252356001764404e-05 6:3.8133299 7:106.052 15:151.48801 16:157.312 17:0.470588 19:0.25 20:0.51130903 21:0.25304699 22:0.75259 24:2.0978999 # Flowers/Shape5/shape5-056.ppm
1.5611142668942720252356001764404e-05 6:3.19626 7:119.017 15:157.355 16:174 17:0.33750001 19:0.320988 20:0.97054398 21:0.18253601 22:0.79024202 # Flowers/Shape3/shape3-048.ppm
-1.5611142668942720252356001764404e-05 6:3.8387101 7:106.227 15:148.211 16:157.31799 17:0.67567599 19:0.21568599 20:0.59534502 21:0.25566301 22:0.69183099 24:1.56303 # Flowers/Shape5/shape5-041.ppm
1.5611142668942720252356001764404e-05 6:3.8811901 7:117.43 15:161.08299 16:174.453 17:0.422535 19:0.202381 20:0.97193801 21:0.14144 22:0.43739 # Flowers/Shape3/shape3-035.ppm
-1.5611142668942720252356001764404e-05 6:3.3793099 7:104.647 15:149.842 16:158.591 17:0.380952 19:0.16 20:0.63287997 21:0.219374 22:0.771438 24:2.9591801 # Flowers/Shape5/shape5-089.ppm
1.5611142668942720252356001764404e-05 6:2.61905 7:122.132 15:149.55901 16:173.918 17:0.527273 19:0.47368401 20:0.93686301 21:0.27658299 22:1.39202 # Flowers/Shape3/shape3-042.ppm
-1.5611142668942720252356001764404e-05 6:3.4166701 7:107.172 15:153.785 16:154.70599 17:0.33333299 19:0.26315799 20:0.55436099 21:0.341443 22:0.94387901 24:2.34146 # Flowers/Shape5/shape5-052.ppm
1.5611142668942720252356001764404e-05 6:3.8407099 7:118.629 15:157.435 16:174.633 17:0.50666702 19:0.22826099 20:0.97983801 21:0.133379 22:0.46311399 # Flowers/Shape3/shape3-012.ppm
-1.5611142668942720252356001764404e-05 6:3.5824201 7:103.115 15:144.74899 16:161.25 17:0.31884101 19:0.166667 20:0.62893701 21:0.20969801 22:0.68509001 24:2.79141 # Flowers/Shape5/shape5-030.ppm
1.5611142668942720252356001764404e-05 6:3.75758 7:118.907 15:161.229 16:173.286 17:0.43478301 19:0.2 20:0.97832799 21:0.17676499 22:0.51327598 # Flowers/Shape3/shape3-027.ppm
-1.5611142668942720252356001764404e-05 6:3.38462 7:109.916 15:154.49001 16:152.533 17:0.32653099 19:0.25 20:0.34773999 21:0.385337 22:1.00552 24:4.4318199 # Flowers/Shape5/shape5-038.ppm
1.5611142668942720252356001764404e-05 6:2.86076 7:125.884 15:138.005 16:174.328 17:0.75555599 19:0.16176499 20:0.85595399 21:0.25083899 22:1.25416 # Flowers/Shape3/shape3-010.ppm
-1.5611142668942720252356001764404e-05 6:3.6716399 7:102.38 15:149.36 16:160.8 17:0.42553201 19:0.175439 20:0.57459003 21:0.243527 22:0.70464802 24:4.3577199 # Flowers/Shape5/shape5-046.ppm
1.5611142668942720252356001764404e-05 6:3.1048999 7:117.844 15:161.686 16:174.75301 17:0.47422701 19:0.53763402 20:0.96025401 21:0.17204399 22:0.92264003 # Flowers/Shape3/shape3-040.ppm
-1.5611142668942720252356001764404e-05 6:3.50649 7:104.492 15:153.912 16:156.364 17:0.375 19:0.203125 20:0.63082498 21:0.223314 22:0.77436101 24:1.42593 # Flowers/Shape5/shape5-049.ppm
1.5611142668942720252356001764404e-05 6:3.7941201 7:118.942 15:160.254 16:174.257 17:0.51111102 19:0.192982 20:0.97009498 21:0.17587399 22:0.51334399 # Flowers/Shape3/shape3-067.ppm
-1.5611142668942720252356001764404e-05 6:3.825 7:106.496 15:149.603 16:156.545 17:0.45454499 19:0.17647099 20:0.62842703 21:0.204827 22:0.63893902 24:4.1830101 # Flowers/Shape5/shape5-028.ppm
1.5611142668942720252356001764404e-05 6:3.0780101 7:119.563 15:160.328 16:173.679 17:0.43877599 19:0.58427 20:0.95967299 21:0.174169 22:0.93398201 # Flowers/Shape3/shape3-019.ppm
-1.5611142668942720252356001764404e-05 6:3.76667 7:101.916 15:150.543 16:160.2 17:0.395349 19:0.22449 20:0.59658098 21:0.25915399 22:0.676907 24:3.71681 # Flowers/Shape5/shape5-064.ppm
1.5611142668942720252356001764404e-05 6:3.3475201 7:119.861 15:156.784 16:174.54401 17:0.5 19:0.39603999 20:0.97013301 21:0.153905 22:0.735237 # Flowers/Shape3/shape3-003.ppm
-1.5611142668942720252356001764404e-05 6:3.2786901 7:107.532 15:159.783 16:152.067 17:0.29787201 19:0.29787201 20:0.33867699 21:0.41643399 22:1.07932 24:4.5749998 # Flowers/Shape5/shape5-078.ppm
1.5611142668942720252356001764404e-05 6:3.1800001 7:120.836 15:157.276 16:173.86301 17:0.40845099 19:0.35135099 20:0.95994598 21:0.190309 22:0.82974201 # Flowers/Shape3/shape3-068.ppm
-1.5611142668942720252356001764404e-05 6:3.64516 7:103.036 15:140.164 16:162 17:0.31914899 19:0.19230799 20:0.56647301 21:0.24381 22:0.70899999 24:4.1150398 # Flowers/Shape5/shape5-066.ppm
1.5611142668942720252356001764404e-05 6:3.7281599 7:118.452 15:160.916 16:174.94299 17:0.560606 19:0.240964 20:0.974195 21:0.150389 22:0.52035499 # Flowers/Shape3/shape3-073.ppm
-1.5611142668942720252356001764404e-05 6:3.3513501 7:100.356 15:148.66 16:160.25 17:0.76190501 19:0.42307699 20:0.56663698 21:0.42717701 22:1.1492701 24:1.79032 # Flowers/Shape5/shape5-061.ppm
1.5611142668942720252356001764404e-05 6:2.56881 7:127 15:145.23801 16:172.386 17:0.34567899 19:0.172043 20:0.94796097 21:0.215817 22:1.06871 # Flowers/Shape3/shape3-051.ppm
-1.5611142668942720252356001764404e-05 6:3.67857 7:101.587 15:146.32401 16:159.55 17:0.555556 19:0.217391 20:0.58612698 21:0.29195601 22:0.79115599 24:1.35922 # Flowers/Shape5/shape5-021.ppm
1.5611142668942720252356001764404e-05 6:3.3173699 7:119.062 15:159.88 16:174.77699 17:0.43965501 19:0.274809 20:0.98016 21:0.138586 22:0.63821399 # Flowers/Shape3/shape3-017.ppm
-1.5611142668942720252356001764404e-05 6:3.5941999 7:103.648 15:145.01801 16:158.364 17:0.38 19:0.18965501 20:0.56958199 21:0.24854299 22:0.72069502 24:4.1733899 # Flowers/Shape5/shape5-086.ppm
1.5611142668942720252356001764404e-05 6:3.2792799 7:121.984 15:153.14999 16:174.32899 17:0.405063 19:0.337349 20:0.96216798 21:0.174556 22:0.758439 # Flowers/Shape3/shape3-007.ppm
-1.5611142668942720252356001764404e-05 6:3.6315801 7:104.159 15:148.084 16:156.095 17:0.51999998 19:0.169231 20:0.61795002 21:0.229554 22:0.71840298 24:2.7536199 # Flowers/Shape5/shape5-048.ppm
1.5611142668942720252356001764404e-05 6:3.1800001 7:121.187 15:160.89 16:172.563 17:0.40845099 19:0.369863 20:0.96196198 21:0.192587 22:0.83986098 # Flowers/Shape3/shape3-088.ppm
-1.5611142668942720252356001764404e-05 6:3.5820899 7:104.26 15:153.5 16:153.842 17:0.39583299 19:0.26415101 20:0.573156 21:0.26728499 22:0.884565 24:2.23333 # Flowers/Shape5/shape5-063.ppm
1.5611142668942720252356001764404e-05 6:3.3880601 7:119.525 15:157.258 16:175.349 17:0.44086 19:0.42553201 20:0.96466798 21:0.156058 22:0.74550003 # Flowers/Shape3/shape3-024.ppm
-1.5611142668942720252356001764404e-05 6:3.7249999 7:103.266 15:147.01601 16:156.81799 17:0.53846198 19:0.15942 20:0.62297702 21:0.213111 22:0.665883 24:3.4899299 # Flowers/Shape5/shape5-068.ppm
1.5611142668942720252356001764404e-05 6:3.30233 7:119.758 15:160.339 16:174.2 17:0.482759 19:0.44943801 20:0.96078402 21:0.164556 22:0.78164703 # Flowers/Shape3/shape3-084.ppm
-1.5611142668942720252356001764404e-05 6:3.5211301 7:106.788 15:153.258 16:150.533 17:0.510638 19:0.22413801 20:0.50480402 21:0.28177199 22:0.837327 24:1.704 # Flowers/Shape5/shape5-076.ppm
1.5611142668942720252356001764404e-05 6:3.06569 7:117.922 15:161.735 16:175.524 17:0.37 19:0.53932601 20:0.95563298 21:0.179682 22:0.962641 # Flowers/Shape3/shape3-060.ppm
-1.5611142668942720252356001764404e-05 6:3.55814 7:104.159 15:142.528 16:156.909 17:0.34375 19:0.16216201 20:0.623366 21:0.202914 22:0.664285 24:3.65359 # Flowers/Shape5/shape5-050.ppm
1.5611142668942720252356001764404e-05 6:3.26667 7:121.213 15:157.759 16:174.041 17:0.463415 19:0.30434799 20:0.933267 21:0.24147899 22:0.86823702 # Flowers/Shape3/shape3-063.ppm
-1.5611142668942720252356001764404e-05 6:3.26087 7:104.269 15:148.851 16:154.118 17:0.31428599 19:0.210526 20:0.56058103 21:0.358998 22:0.97941202 24:3.0666699 # Flowers/Shape5/shape5-032.ppm
1.5611142668942720252356001764404e-05 6:3.9344299 7:117.76 15:167.23399 16:174.145 17:0.48780501 19:0.184466 20:0.94499302 21:0.13054401 22:0.422892 # Flowers/Shape3/shape3-015.ppm
-1.5611142668942720252356001764404e-05 6:3.64516 7:103.463 15:143.896 16:155.211 17:0.51219499 19:0.21568599 20:0.49302399 21:0.307704 22:1.03326 24:1.6460201 # Flowers/Shape5/shape5-002.ppm
1.5611142668942720252356001764404e-05 6:3.0537601 7:123.74 15:154.976 16:173.22099 17:0.38806 19:0.38806 20:0.951446 21:0.209564 22:0.91136199 # Flowers/Shape3/shape3-028.ppm
-1.5611142668942720252356001764404e-05 6:3.7026999 7:109.15 15:154.541 16:145.214 17:0.57446802 19:0.27586201 20:0.50646901 21:0.262954 22:0.78197998 24:1.62044 # Flowers/Shape5/shape5-015.ppm
1.5611142668942720252356001764404e-05 6:3.2096801 7:122.682 15:159.744 16:173.508 17:0.44185999 19:0.37777799 20:0.91185498 21:0.183768 22:0.82157201 # Flowers/Shape3/shape3-086.ppm
-1.5611142668942720252356001764404e-05 6:3.2432401 7:97.216904 15:150.263 16:154 17:0.32142901 19:0.37037 20:0.54798901 21:0.416511 22:1.14183 24:3.7 # Flowers/Shape5/shape5-011.ppm
1.5611142668942720252356001764404e-05 6:2.4266701 7:124.62 15:155.854 16:173.269 17:0.59574503 19:0.470588 20:0.92659801 21:0.32455099 22:1.61669 # Flowers/Shape3/shape3-062.ppm
