SVM-light Version V6.02
0 # kernel type
3 # kernel parameter -d 
1 # kernel parameter -g 
1 # kernel parameter -s 
1 # kernel parameter -r 
empty# kernel parameter -u 
24 # highest feature index 
195 # number of training documents 
13 # number of support vectors plus 1 
0.94981643 # threshold b, each following line is a SV (starting with alpha*y)
1.4933626678944320661374112191311e-05 6:3.6417899 7:106.808 15:145.56599 16:165.806 17:0.50561798 19:0.229358 20:0.897084 21:0.14288101 22:0.55175197 # Flowers/Shape3/shape3-052.ppm
-1.2533816978614652562495912491158e-05 6:3.14815 7:117.586 11:6 15:137.12801 17:0.34999999 19:0.31707299 20:0.42232499 21:0.356729 22:1.05553 24:6.3529401 # Flowers/Shape4/shape4-032.ppm
-5.6362428246937816556094702491464e-06 6:3.9333301 7:109.277 11:6 15:164.979 17:0.40625 19:0.139241 20:0.67252499 21:0.16640501 22:0.38566399 24:8.1355896 # Flowers/Shape4/shape4-033.ppm
1.9204240440253852415528404429246e-05 6:3.5609801 7:112.044 15:147.22501 16:165.33299 17:0.44705901 19:0.25510201 20:0.89903098 21:0.15416101 22:0.59502298 # Flowers/Shape3/shape3-072.ppm
-1.9204240440253852415528404429246e-05 6:3.3928599 7:113.037 11:6 15:140.474 17:0.40000001 19:0.217391 20:0.48317599 21:0.318131 22:0.82749897 24:5.5999999 # Flowers/Shape4/shape4-030.ppm
1.9204240440253852415528404429246e-05 6:3.7164199 7:107.091 15:141.823 16:165.33299 17:0.48888901 19:0.27619001 20:0.895311 21:0.144052 22:0.55890203 # Flowers/Shape3/shape3-011.ppm
-1.9204240440253852415528404429246e-05 6:3.47541 7:112.225 11:7 15:147.131 17:0.418605 19:0.24489801 20:0.48743501 21:0.30682999 22:0.79394102 24:5.1792498 # Flowers/Shape4/shape4-070.ppm
1.9204240440253852415528404429246e-05 6:3.6666701 7:111.018 15:142.86 16:165.868 17:0.482353 19:0.285714 20:0.89584798 21:0.146844 22:0.565732 # Flowers/Shape3/shape3-092.ppm
-3.5906402679373398273421358339874e-06 6:3.4210501 7:117.435 11:7 15:139.325 17:0.46153799 19:0.225806 20:0.344607 21:0.44710001 22:1.3253 24:4.6769199 # Flowers/Shape4/shape4-092.ppm
-3.295046593916172578131451587069e-06 6:4.10638 7:110.284 11:6 15:153.97501 17:0.305556 19:0.146341 20:0.66800398 21:0.15766101 22:0.36492699 24:6.8186498 # Flowers/Shape4/shape4-073.ppm
-5.6480769093643183598185686378201e-06 6:3.25424 7:113.714 11:6 15:148.099 17:0.311111 19:0.28260899 20:0.356516 21:0.392378 22:1.04413 24:5.53125 # Flowers/Shape4/shape4-013.ppm
-3.4340435446718504952645645289522e-06 6:3.2121201 7:107.959 11:11 15:157.241 17:0.5 19:0.43478301 20:0.42458999 21:0.56345999 22:1.3508199 24:2.8018899 # Flowers/Shape4/shape4-061.ppm
