SVM-light Version V6.02
0 # kernel type
3 # kernel parameter -d 
1 # kernel parameter -g 
1 # kernel parameter -s 
1 # kernel parameter -r 
empty# kernel parameter -u 
24 # highest feature index 
194 # number of training documents 
13 # number of support vectors plus 1 
0.97066446 # threshold b, each following line is a SV (starting with alpha*y)
-2.7536784208111522720408004261117e-09 6:3.14815 7:117.586 11:6 15:137.12801 17:0.34999999 19:0.31707299 20:0.42232499 21:0.356729 22:1.05553 24:6.3529401 # Flowers/Shape4/shape4-032.ppm
2.0116700084250518373125624083109e-05 6:3.28 7:108.623 15:159.45599 16:155.211 17:0.38888901 19:0.42857099 20:0.575993 21:0.34990999 22:1.1572599 24:3.04878 # Flowers/Shape1/shape1-003.ppm
-2.0116700084250518373125624083109e-05 6:3.9333301 7:109.277 11:6 15:164.979 17:0.40625 19:0.139241 20:0.67252499 21:0.16640501 22:0.38566399 24:8.1355896 # Flowers/Shape4/shape4-033.ppm
2.0116700084250518373125624083109e-05 6:3.34694 7:106.183 15:155.661 16:153.11099 17:0.40000001 19:0.441176 20:0.56524497 21:0.35819301 22:1.19112 24:2.9877999 # Flowers/Shape1/shape1-024.ppm
-2.0116700084250518373125624083109e-05 6:4.10638 7:110.284 11:6 15:153.97501 17:0.305556 19:0.146341 20:0.66800398 21:0.15766101 22:0.36492699 24:6.8186498 # Flowers/Shape4/shape4-073.ppm
2.0116700084250518373125624083109e-05 6:3.2363601 7:110.089 15:150.40601 16:154.158 17:0.375 19:0.447368 20:0.57317197 21:0.34328699 22:1.15923 24:2.47191 # Flowers/Shape1/shape1-064.ppm
-2.0116700084250518373125624083109e-05 6:3.3928599 7:113.037 11:6 15:140.474 17:0.40000001 19:0.217391 20:0.48317599 21:0.318131 22:0.82749897 24:5.5999999 # Flowers/Shape4/shape4-030.ppm
2.0116700084250518373125624083109e-05 6:3.1698101 7:114.339 15:157.77699 16:155.68401 17:0.32499999 19:0.472222 20:0.57155299 21:0.34956399 22:1.16238 24:2.8392899 # Flowers/Shape1/shape1-044.ppm
-8.8457392977119714272404848998121e-06 6:4.0229902 7:113.236 11:6 15:169.14301 17:0.225352 19:0.12987 20:0.66908199 21:0.164876 22:0.382283 24:7.9542899 # Flowers/Shape4/shape4-012.ppm
1.4236559094512608927152056206844e-06 6:3.3898301 7:104.794 15:145.89101 16:157.562 17:0.37209299 19:0.404762 20:0.583121 21:0.311887 22:1.04597 24:2.95 # Flowers/Shape1/shape1-084.ppm
-8.4210651853022441826190913616301e-06 6:3.1282101 7:118.361 11:4 15:156.386 17:0.39285699 19:0.39285699 20:0.40059301 21:0.52773702 22:1.26042 24:3.5163901 # Flowers/Shape4/shape4-017.ppm
-4.2707978322664100906402850910126e-06 6:3.375 7:116.743 11:5 15:164.278 17:0.361702 19:0.185185 20:0.38539401 21:0.35363799 22:0.92959702 24:4.7407398 # Flowers/Shape4/shape4-075.ppm
