SVM-light Version V6.02
0 # kernel type
3 # kernel parameter -d 
1 # kernel parameter -g 
1 # kernel parameter -s 
1 # kernel parameter -r 
empty# kernel parameter -u 
24 # highest feature index 
194 # number of training documents 
193 # number of support vectors plus 1 
2.6998265 # threshold b, each following line is a SV (starting with alpha*y)
-1.6260736401899284956197935803068e-05 6:3.575 7:104.184 15:153.927 16:163.56 17:0.355932 19:0.23076899 20:0.58352298 21:0.2314 22:0.76885903 24:2.7972 # Flowers/Shape5/shape5-004.ppm
1.6260736401899284956197935803068e-05 6:3.6666701 7:107.402 15:155.845 16:166.605 17:0.40000001 19:0.235294 20:0.84977502 21:0.25397199 22:0.62661999 24:4.90909 # Flowers/Shape1/shape1-000.ppm
-1.6260736401899284956197935803068e-05 6:3.8181801 7:109.731 15:149.492 16:171.49001 17:0.375 19:0.222222 20:0.70967603 21:0.219073 22:0.66113299 24:2.88095 # Flowers/Shape5/shape5-075.ppm
1.6260736401899284956197935803068e-05 6:3.3898301 7:104.794 15:145.89101 16:157.562 17:0.37209299 19:0.404762 20:0.583121 21:0.311887 22:1.04597 24:2.95 # Flowers/Shape1/shape1-084.ppm
-1.6260736401899284956197935803068e-05 6:3.64516 7:103.463 15:143.896 16:155.211 17:0.51219499 19:0.21568599 20:0.49302399 21:0.307704 22:1.03326 24:1.6460201 # Flowers/Shape5/shape5-002.ppm
1.6260736401899284956197935803068e-05 6:4.1728401 7:114.778 15:167.173 16:174.38499 17:0.285714 19:0.157143 20:0.812536 21:0.174567 22:0.445499 24:2.39645 # Flowers/Shape1/shape1-035.ppm
-1.6260736401899284956197935803068e-05 6:3.71014 7:108.77 15:150.452 16:171.52901 17:0.5 19:0.210526 20:0.698897 21:0.222868 22:0.67448699 24:1.8867199 # Flowers/Shape5/shape5-095.ppm
1.6260736401899284956197935803068e-05 6:3.34694 7:106.183 15:155.661 16:153.11099 17:0.40000001 19:0.441176 20:0.56524497 21:0.35819301 22:1.19112 24:2.9877999 # Flowers/Shape1/shape1-024.ppm
-1.6260736401899284956197935803068e-05 6:3.90361 7:108.336 15:158.00301 16:163.125 17:0.383333 19:0.18571401 20:0.65247899 21:0.185305 22:0.52465397 24:4.3549399 # Flowers/Shape5/shape5-079.ppm
1.6260736401899284956197935803068e-05 6:3.8309901 7:106.229 15:139.30701 16:168.688 17:0.44898 19:0.16393401 20:0.64651197 21:0.209958 22:0.594383 24:5.4816198 # Flowers/Shape1/shape1-069.ppm
-1.6260736401899284956197935803068e-05 6:3.8684199 7:108.495 15:145.688 16:171.644 17:0.40740699 19:0.15151501 20:0.68583697 21:0.204485 22:0.56053102 24:3.1020401 # Flowers/Shape5/shape5-073.ppm
1.6260736401899284956197935803068e-05 6:3.28 7:108.623 15:159.45599 16:155.211 17:0.38888901 19:0.42857099 20:0.575993 21:0.34990999 22:1.1572599 24:3.04878 # Flowers/Shape1/shape1-003.ppm
-1.6260736401899284956197935803068e-05 6:3.5211301 7:109.441 15:159.89999 16:152.66701 17:0.39215699 19:0.26785699 20:0.348418 21:0.343896 22:0.88900697 24:5.112 # Flowers/Shape5/shape5-098.ppm
1.6260736401899284956197935803068e-05 6:3.94118 7:100.62 15:144.759 16:167.619 17:0.47826099 19:0.172414 20:0.796983 21:0.28902999 22:0.69507301 24:4.3134298 # Flowers/Shape1/shape1-026.ppm
-1.6260736401899284956197935803068e-05 6:3.8550701 7:106.046 15:141.89 16:169.535 17:0.5 19:0.232143 20:0.67858398 21:0.233559 22:0.64322299 24:2.33459 # Flowers/Shape5/shape5-033.ppm
1.6260736401899284956197935803068e-05 6:3.1698101 7:114.339 15:157.77699 16:155.68401 17:0.32499999 19:0.472222 20:0.57155299 21:0.34956399 22:1.16238 24:2.8392899 # Flowers/Shape1/shape1-044.ppm
-1.6260736401899284956197935803068e-05 6:3.2786901 7:107.532 15:159.783 16:152.067 17:0.29787201 19:0.29787201 20:0.33867699 21:0.41643399 22:1.07932 24:4.5749998 # Flowers/Shape5/shape5-078.ppm
1.6260736401899284956197935803068e-05 6:3.94872 7:104.852 15:142.381 16:166.31599 17:0.444444 19:0.14705899 20:0.79723901 21:0.267104 22:0.64223701 24:4.8116899 # Flowers/Shape1/shape1-046.ppm
-1.6260736401899284956197935803068e-05 6:3.8055601 7:110.228 15:142.94299 16:168.739 17:0.384615 19:0.180328 20:0.67903697 21:0.20830201 22:0.57126898 24:2.8905101 # Flowers/Shape5/shape5-053.ppm
1.6260736401899284956197935803068e-05 6:3.2363601 7:110.089 15:150.40601 16:154.158 17:0.375 19:0.447368 20:0.57317197 21:0.34328699 22:1.15923 24:2.47191 # Flowers/Shape1/shape1-064.ppm
-1.6260736401899284956197935803068e-05 6:3.5211301 7:106.788 15:153.258 16:150.533 17:0.510638 19:0.22413801 20:0.50480402 21:0.28177199 22:0.837327 24:1.704 # Flowers/Shape5/shape5-076.ppm
1.6260736401899284956197935803068e-05 6:3.87692 7:103.615 15:153.47501 16:173.03799 17:0.54761899 19:0.203704 20:0.82283002 21:0.21990301 22:0.62914997 24:2.0634899 # Flowers/Shape1/shape1-074.ppm
-1.6260736401899284956197935803068e-05 6:3.6631601 7:100.657 15:149.427 16:168.84399 17:0.39705899 19:0.1875 20:0.65198398 21:0.200541 22:0.63667703 24:3.0028701 # Flowers/Shape5/shape5-034.ppm
1.6260736401899284956197935803068e-05 6:3.38235 7:105.321 15:151.52699 16:162.33299 17:0.38775501 19:0.33333299 20:0.598382 21:0.29406199 22:1.08628 24:3.5478301 # Flowers/Shape1/shape1-097.ppm
-1.6260736401899284956197935803068e-05 6:3.58025 7:111.507 15:147.155 16:169.696 17:0.372881 19:0.191176 20:0.70900398 21:0.20115601 22:0.612234 24:2.2344799 # Flowers/Shape5/shape5-035.ppm
1.6260736401899284956197935803068e-05 6:3.54286 7:97.292099 15:155.50301 16:163.065 17:0.346154 19:0.25 20:0.759453 21:0.319368 22:0.873088 24:4.23387 # Flowers/Shape1/shape1-006.ppm
-1.6260736401899284956197935803068e-05 6:3.6623399 7:103.361 15:157.017 16:166.259 17:0.425926 19:0.241935 20:0.58803201 21:0.23109899 22:0.76859403 24:3.0035501 # Flowers/Shape5/shape5-065.ppm
1.6260736401899284956197935803068e-05 6:3.9000001 7:110.651 15:143.98199 16:165.33299 17:0.42857099 19:0.15942 20:0.652758 21:0.19502801 22:0.54806697 24:5.1282101 # Flowers/Shape1/shape1-049.ppm
-1.6260736401899284956197935803068e-05 6:3.6470599 7:100.111 15:148.78 16:164.5 17:0.51785702 19:0.197183 20:0.62772799 21:0.219778 22:0.72027099 24:3.5645199 # Flowers/Shape5/shape5-070.ppm
1.6260736401899284956197935803068e-05 6:3.7777801 7:110.647 15:160.78 16:165.10001 17:0.384615 19:0.173913 20:0.72584498 21:0.23681299 22:0.681207 24:5.0294099 # Flowers/Shape1/shape1-063.ppm
-1.6260736401899284956197935803068e-05 6:3.4814799 7:109.368 15:155.38499 16:165.60001 17:0.42105299 19:0.208955 20:0.66574198 21:0.25068301 22:0.78771102 24:4.0212798 # Flowers/Shape5/shape5-016.ppm
1.6260736401899284956197935803068e-05 6:3.5151501 7:105.193 15:145.687 16:164.091 17:0.375 19:0.222222 20:0.67606002 21:0.377783 22:1.08871 24:2.84483 # Flowers/Shape1/shape1-019.ppm
-1.6260736401899284956197935803068e-05 6:3.63077 7:111.655 15:146.56599 16:169.478 17:0.47727299 19:0.203704 20:0.703978 21:0.243375 22:0.74325103 24:2.4788101 # Flowers/Shape5/shape5-014.ppm
1.6260736401899284956197935803068e-05 6:3.4074099 7:102.623 15:148.51801 16:164.577 17:0.45945901 19:0.384615 20:0.51679802 21:0.35307199 22:1.31962 24:2.6413 # Flowers/Shape1/shape1-016.ppm
-1.6260736401899284956197935803068e-05 6:3.5733299 7:102.176 15:152.271 16:164.56 17:0.44230801 19:0.190476 20:0.61533302 21:0.23123699 22:0.80827397 24:3.3582101 # Flowers/Shape5/shape5-069.ppm
1.6260736401899284956197935803068e-05 6:4.1782198 7:114.776 15:156.077 16:171.172 17:0.246914 19:0.134831 20:0.85445601 21:0.135003 22:0.35566199 24:3.82938 # Flowers/Shape1/shape1-011.ppm
-1.6260736401899284956197935803068e-05 6:3.4186001 7:107.736 15:155.651 16:166.448 17:0.34375 19:0.228571 20:0.66539502 21:0.238804 22:0.74941403 24:3.21769 # Flowers/Shape5/shape5-037.ppm
1.6260736401899284956197935803068e-05 6:3.5999999 7:101.359 15:150.88901 16:163.452 17:0.32352901 19:0.216216 20:0.75055701 21:0.28322101 22:0.81442702 24:4.1666698 # Flowers/Shape1/shape1-080.ppm
-1.6260736401899284956197935803068e-05 6:3.88889 7:104.912 15:155.485 16:165.769 17:0.45161301 19:0.16883101 20:0.65786201 21:0.182907 22:0.52048498 24:4.3714299 # Flowers/Shape5/shape5-018.ppm
1.6260736401899284956197935803068e-05 6:3.4054101 7:106.989 15:150.875 16:163.52 17:0.45098001 19:0.32142901 20:0.60284603 21:0.270428 22:1.0045 24:3.5238099 # Flowers/Shape1/shape1-077.ppm
-1.6260736401899284956197935803068e-05 6:3.8209 7:112.175 15:144.46899 16:167.76199 17:0.48888901 19:0.196429 20:0.67789102 21:0.22490799 22:0.61650199 24:2.8789101 # Flowers/Shape5/shape5-012.ppm
1.6260736401899284956197935803068e-05 6:3.95349 7:108.529 15:169.545 16:172.061 17:0.482759 19:0.16216201 20:0.813241 21:0.17224 22:0.435303 24:1.7705899 # Flowers/Shape1/shape1-055.ppm
-1.6260736401899284956197935803068e-05 6:3.54545 7:105.357 15:157.69901 16:165.882 17:0.44262299 19:0.25714299 20:0.66774303 21:0.233863 22:0.73447698 24:1.97436 # Flowers/Shape5/shape5-057.ppm
1.6260736401899284956197935803068e-05 6:4.1463399 7:103.558 15:143.923 16:165.778 17:0.32258099 19:0.17142899 20:0.79954797 21:0.23258799 22:0.554178 24:5.54706 # Flowers/Shape1/shape1-005.ppm
-1.6260736401899284956197935803068e-05 6:4.0425501 7:106.171 15:156.08299 16:165.269 17:0.253333 19:0.160494 20:0.66531098 21:0.167022 22:0.47512099 24:4.45263 # Flowers/Shape5/shape5-039.ppm
1.6260736401899284956197935803068e-05 6:3.3684199 7:103.652 15:148.444 16:166.33299 17:0.46153799 19:0.35714301 20:0.50174099 21:0.34839699 22:1.30527 24:2.375 # Flowers/Shape1/shape1-037.ppm
-1.6260736401899284956197935803068e-05 6:3.6140399 7:100.262 15:146.714 16:164.793 17:0.5 19:0.1875 20:0.53167599 21:0.30262899 22:0.85413301 24:1.66019 # Flowers/Shape5/shape5-082.ppm
1.6260736401899284956197935803068e-05 6:3.625 7:106.024 15:152.23199 16:162.60699 17:0.41176501 19:0.26315799 20:0.710899 21:0.27250099 22:0.77582097 24:4.4137902 # Flowers/Shape1/shape1-062.ppm
-1.6260736401899284956197935803068e-05 6:3.5824201 7:105.004 15:155.177 16:162.70799 17:0.444444 19:0.166667 20:0.539406 21:0.216535 22:0.74219197 24:5.0245399 # Flowers/Shape5/shape5-091.ppm
1.6260736401899284956197935803068e-05 6:3.9166701 7:106.329 15:150.38499 16:165.533 17:0.53191501 19:0.2 20:0.648238 21:0.223819 22:0.62369502 24:3.8297901 # Flowers/Shape1/shape1-008.ppm
-1.6260736401899284956197935803068e-05 6:3.91892 7:108.602 15:147.416 16:169.093 17:0.42307699 19:0.174603 20:0.683792 21:0.20248801 22:0.549568 24:2.8069 # Flowers/Shape5/shape5-093.ppm
1.6260736401899284956197935803068e-05 6:3.375 7:103.088 15:152.08701 16:162.875 17:0.33333299 19:0.26315799 20:0.73932201 21:0.278523 22:0.85599899 24:4.7407398 # Flowers/Shape1/shape1-045.ppm
-1.6260736401899284956197935803068e-05 6:3.5529399 7:103.055 15:154.192 16:162.5 17:0.41666701 19:0.180556 20:0.54371899 21:0.231621 22:0.78945798 24:3.9403999 # Flowers/Shape5/shape5-051.ppm
1.6260736401899284956197935803068e-05 6:3.7377 7:106.617 15:143.714 16:171.04401 17:0.29787201 19:0.173077 20:0.86197102 21:0.19865701 22:0.52351803 24:4.2807002 # Flowers/Shape1/shape1-079.ppm
-1.6260736401899284956197935803068e-05 6:3.7611899 7:110.627 15:144.804 16:168.114 17:0.55813998 19:0.240741 20:0.69724602 21:0.230281 22:0.70694399 24:1.86111 # Flowers/Shape5/shape5-055.ppm
1.6260736401899284956197935803068e-05 6:3.68627 7:105.912 15:164.847 16:164.567 17:0.378378 19:0.186047 20:0.72611398 21:0.255541 22:0.72807002 24:4.3404298 # Flowers/Shape1/shape1-083.ppm
-1.6260736401899284956197935803068e-05 6:3.5 7:104.886 15:158.08701 16:160.13 17:0.44827601 19:0.2 20:0.63980502 21:0.218931 22:0.67872202 24:3.7142899 # Flowers/Shape5/shape5-007.ppm
1.6260736401899284956197935803068e-05 6:3.9473701 7:106.527 15:147.959 16:165.806 17:0.46153799 19:0.15151501 20:0.79316199 21:0.262541 22:0.62615001 24:5.0666699 # Flowers/Shape1/shape1-066.ppm
-1.6260736401899284956197935803068e-05 6:3.7931001 7:105.379 15:153.937 16:166.267 17:0.52631599 19:0.208333 20:0.63816899 21:0.19983301 22:0.63356 24:3.16364 # Flowers/Shape5/shape5-074.ppm
1.6260736401899284956197935803068e-05 6:3.7704899 7:106.349 15:151.65401 16:164.364 17:0.60526299 19:0.22 20:0.64723998 21:0.24745101 22:0.688012 24:4.2434802 # Flowers/Shape1/shape1-029.ppm
-1.6260736401899284956197935803068e-05 6:3.66292 7:104.312 15:152.39301 16:166.172 17:0.36923099 19:0.236111 20:0.59100902 21:0.199132 22:0.66505998 24:2.7300601 # Flowers/Shape5/shape5-085.ppm
1.6260736401899284956197935803068e-05 6:3.8620701 7:106.482 15:156.946 16:163.323 17:0.44999999 19:0.16 20:0.73377699 21:0.22088499 22:0.63746703 24:4.9196401 # Flowers/Shape1/shape1-043.ppm
-1.6260736401899284956197935803068e-05 6:3.3494 7:106.944 15:155 16:164.92 17:0.296875 19:0.18571401 20:0.54305899 21:0.244323 22:0.83711702 24:3.5827301 # Flowers/Shape5/shape5-010.ppm
1.6260736401899284956197935803068e-05 6:3.5 7:101.764 15:148.726 16:165.121 17:0.375 19:0.189189 20:0.750992 21:0.29851499 22:0.85762697 24:4.2857099 # Flowers/Shape1/shape1-060.ppm
-1.6260736401899284956197935803068e-05 6:3.4877999 7:101.848 15:154.235 16:165.103 17:0.344262 19:0.242424 20:0.58273298 21:0.23333099 22:0.76671702 24:2.29371 # Flowers/Shape5/shape5-025.ppm
1.6260736401899284956197935803068e-05 6:3.74545 7:111.52 15:153.771 16:169.375 17:0.392405 19:0.182796 20:0.68277502 21:0.176098 22:0.62200397 24:3.2038801 # Flowers/Shape1/shape1-091.ppm
-1.6260736401899284956197935803068e-05 6:3.8461499 7:105.421 15:150.668 16:164.586 17:0.421875 19:0.213333 20:0.63691902 21:0.193257 22:0.61872202 24:3.9000001 # Flowers/Shape5/shape5-094.ppm
1.6260736401899284956197935803068e-05 6:3.7297299 7:102.921 15:155.041 16:164.733 17:0.54166698 19:0.32142901 20:0.75875002 21:0.32479 22:0.913773 24:3.4855101 # Flowers/Shape1/shape1-078.ppm
-1.6260736401899284956197935803068e-05 6:3.4210501 7:108.147 15:156.74699 16:166.21201 17:0.40740699 19:0.225806 20:0.673154 21:0.262485 22:0.82436901 24:2.33846 # Flowers/Shape5/shape5-097.ppm
1.6260736401899284956197935803068e-05 6:3.625 7:101.845 15:151.655 16:166.17599 17:0.52381003 19:0.23076899 20:0.66090298 21:0.38650799 22:1.1099 24:3.0344801 # Flowers/Shape1/shape1-040.ppm
-1.6260736401899284956197935803068e-05 6:3.5833299 7:104.192 15:150.638 16:166.16701 17:0.54838699 19:0.26315799 20:0.585208 21:0.36392701 22:0.94598001 24:2.2325599 # Flowers/Shape5/shape5-060.ppm
1.6260736401899284956197935803068e-05 6:3.55 7:104.569 15:153.53101 16:165.467 17:0.29032299 19:0.25 20:0.75634599 21:0.30380601 22:0.85900801 24:3.6619699 # Flowers/Shape1/shape1-017.ppm
-1.6260736401899284956197935803068e-05 6:3.46154 7:103.25 15:154.336 16:164.577 17:0.30000001 19:0.18181799 20:0.56601799 21:0.30867299 22:0.90120697 24:2.5999999 # Flowers/Shape5/shape5-047.ppm
1.6260736401899284956197935803068e-05 6:3.8787899 7:104.621 15:154.912 16:164.207 17:0.346939 19:0.157895 20:0.64836001 21:0.221081 22:0.61250198 24:4.6406202 # Flowers/Shape1/shape1-089.ppm
-1.6260736401899284956197935803068e-05 6:3.68571 7:105.617 15:153.38901 16:166.207 17:0.42857099 19:0.186441 20:0.53583401 21:0.26533601 22:0.744699 24:2.1705401 # Flowers/Shape5/shape5-001.ppm
1.6260736401899284956197935803068e-05 6:3.65517 7:107.058 15:154.065 16:171.082 17:0.48717901 19:0.208333 20:0.81382102 21:0.261168 22:0.79762 24:1.36792 # Flowers/Shape1/shape1-096.ppm
-1.6260736401899284956197935803068e-05 6:3.5999999 7:102.203 15:148.935 16:164.72 17:0.45833299 19:0.186441 20:0.547158 21:0.244574 22:0.68794698 24:2.5 # Flowers/Shape5/shape5-062.ppm
1.6260736401899284956197935803068e-05 6:3.6216199 7:101.34 15:153.407 16:165.433 17:0.54166698 19:0.27586201 20:0.75352901 21:0.33006999 22:0.93042201 24:3.58955 # Flowers/Shape1/shape1-038.ppm
-1.6260736401899284956197935803068e-05 6:3.48718 7:103.572 15:155.65401 16:162.41701 17:0.36842099 19:0.164179 20:0.53373301 21:0.25667301 22:0.87484801 24:3.1544099 # Flowers/Shape5/shape5-031.ppm
1.6260736401899284956197935803068e-05 6:3.25581 7:100.742 15:149.24899 16:165.16 17:0.34375 19:0.30303001 20:0.72900498 21:0.30944699 22:0.95195502 24:4.6071401 # Flowers/Shape1/shape1-004.ppm
-1.6260736401899284956197935803068e-05 6:3.5692301 7:105.305 15:149.34801 16:165.769 17:0.41304299 19:0.18181799 20:0.539621 21:0.276889 22:0.78255898 24:1.96121 # Flowers/Shape5/shape5-022.ppm
1.6260736401899284956197935803068e-05 6:3.7735801 7:102.279 15:157.694 16:164.323 17:0.472222 19:0.20454501 20:0.72334898 21:0.25466701 22:0.74513602 24:3.9749999 # Flowers/Shape1/shape1-002.ppm
-1.6260736401899284956197935803068e-05 6:3.67273 7:102.224 15:154.892 16:161.34801 17:0.447368 19:0.19565199 20:0.59330398 21:0.27884299 22:0.72893298 24:3.2673299 # Flowers/Shape5/shape5-003.ppm
1.6260736401899284956197935803068e-05 6:3.3636401 7:104.413 15:154.13499 16:164.65401 17:0.33333299 19:0.25714299 20:0.73659199 21:0.30093801 22:0.91851801 24:4.7567601 # Flowers/Shape1/shape1-085.ppm
-1.6260736401899284956197935803068e-05 6:3.5 7:103.87 15:155.09 16:163.54201 17:0.4375 19:0.210526 20:0.58647901 21:0.22163101 22:0.73672497 24:2 # Flowers/Shape5/shape5-045.ppm
1.6260736401899284956197935803068e-05 6:3.8113201 7:102.691 15:148.87601 16:167.086 17:0.39473701 19:0.152174 20:0.85131001 21:0.214706 22:0.568892 24:4.4604001 # Flowers/Shape1/shape1-039.ppm
-1.6260736401899284956197935803068e-05 6:3.6774199 7:105.247 15:152.18201 16:163.58299 17:0.31914899 19:0.169811 20:0.57804698 21:0.25736201 22:0.75993299 24:2.99123 # Flowers/Shape5/shape5-067.ppm
1.6260736401899284956197935803068e-05 6:3.46667 7:106.324 15:154.82001 16:166.267 17:0.285714 19:0.184211 20:0.768224 21:0.27726099 22:0.75770801 24:4.32692 # Flowers/Shape1/shape1-047.ppm
-1.6260736401899284956197935803068e-05 6:3.3333299 7:108.884 15:145.40401 16:166.222 17:0.33333299 19:0.297297 20:0.58828503 21:0.39706999 22:1.03721 24:2.0999999 # Flowers/Shape5/shape5-019.ppm
1.6260736401899284956197935803068e-05 6:3.6981101 7:103.909 15:154.27299 16:165 17:0.35897401 19:0.26190501 20:0.72901601 21:0.25058401 22:0.70848501 24:4.8673501 # Flowers/Shape1/shape1-001.ppm
-1.6260736401899284956197935803068e-05 6:3.88764 7:106.747 15:156.448 16:161.05 17:0.36923099 19:0.186667 20:0.66313702 21:0.18708199 22:0.53135902 24:4.1156101 # Flowers/Shape5/shape5-059.ppm
1.6260736401899284956197935803068e-05 6:3.90769 7:106.815 15:150.875 16:167.795 17:0.35416701 19:0.18181799 20:0.86722398 21:0.179774 22:0.47500199 24:4.6062999 # Flowers/Shape1/shape1-018.ppm
-1.6260736401899284956197935803068e-05 6:3.4347799 7:102.571 15:149.55299 16:163.66701 17:0.48387101 19:0.24324299 20:0.58836502 21:0.38728601 22:1.00984 24:2.0379701 # Flowers/Shape5/shape5-040.ppm
1.6260736401899284956197935803068e-05 6:3.5849099 7:104.788 15:157.64 16:164.741 17:0.29268301 19:0.232558 20:0.72595203 21:0.25587699 22:0.71752298 24:5.02105 # Flowers/Shape1/shape1-042.ppm
-1.6260736401899284956197935803068e-05 6:3.62222 7:106.034 15:155.41 16:161 17:0.36363599 19:0.16883101 20:0.64886802 21:0.201336 22:0.61921299 24:4.1410999 # Flowers/Shape5/shape5-054.ppm
-1.6260736401899284956197935803068e-05 6:3.3333299 7:108.968 15:153.991 16:163.48399 17:0.327869 19:0.265625 20:0.67176598 21:0.25287899 22:0.795959 24:2.7 # Flowers/Shape5/shape5-077.ppm
-1.6260736401899284956197935803068e-05 6:3.62712 7:103.8 15:151.808 16:161.34801 17:0.439024 19:0.229167 20:0.59451801 21:0.262445 22:0.688802 24:3.8598101 # Flowers/Shape5/shape5-044.ppm
1.6260736401899284956197935803068e-05 6:3.30233 7:101.111 15:152.071 16:165.741 17:0.34375 19:0.30303001 20:0.73207802 21:0.31028301 22:0.95570302 24:4.23944 # Flowers/Shape1/shape1-025.ppm
1.6260736401899284956197935803068e-05 6:3.61905 7:100.245 15:154.267 16:165.633 17:0.40000001 19:0.235294 20:0.754031 21:0.30250299 22:0.85348099 24:3.5921099 # Flowers/Shape1/shape1-058.ppm
1.6260736401899284956197935803068e-05 6:3.52632 7:100.948 15:152.533 16:166.267 17:0.31034499 19:0.225806 20:0.76572698 21:0.31116599 22:0.84956402 24:4.2537298 # Flowers/Shape1/shape1-027.ppm
-1.6260736401899284956197935803068e-05 6:3.24 7:100.955 15:151.692 16:162.45799 17:0.35135099 19:0.282051 20:0.56157303 21:0.342657 22:1.011 24:1.54321 # Flowers/Shape5/shape5-027.ppm
1.6260736401899284956197935803068e-05 6:3.88571 7:105.861 15:152.73599 16:167.211 17:0.45833299 19:0.25 20:0.79212099 21:0.27026999 22:0.66748798 24:4.63235 # Flowers/Shape1/shape1-061.ppm
-1.6260736401899284956197935803068e-05 6:3.6716399 7:102.38 15:149.36 16:160.8 17:0.42553201 19:0.175439 20:0.57459003 21:0.243527 22:0.70464802 24:4.3577199 # Flowers/Shape5/shape5-046.ppm
1.6260736401899284956197935803068e-05 6:3.68627 7:103.409 15:154.786 16:165.963 17:0.41666701 19:0.27500001 20:0.71142101 21:0.271676 22:0.77160501 24:4.3404298 # Flowers/Shape1/shape1-022.ppm
-1.6260736401899284956197935803068e-05 6:3.46067 7:103.352 15:153.735 16:161 17:0.390625 19:0.155844 20:0.62697202 21:0.215795 22:0.74683601 24:2.6006501 # Flowers/Shape5/shape5-029.ppm
1.6260736401899284956197935803068e-05 6:3.70909 7:99.5839 15:155.662 16:163.821 17:0.341463 19:0.25 20:0.71806699 21:0.243054 22:0.68397099 24:4.8529401 # Flowers/Shape1/shape1-082.ppm
-1.6260736401899284956197935803068e-05 6:3.5999999 7:107.263 15:154.151 16:162.375 17:0.42857099 19:0.17647099 20:0.57322901 21:0.27661201 22:0.80936497 24:2.2222199 # Flowers/Shape5/shape5-006.ppm
1.6260736401899284956197935803068e-05 6:4.0454502 7:104.44 15:151.25301 16:166.41701 17:0.222222 19:0.157895 20:0.77400398 21:0.22584 22:0.57224101 24:5.93258 # Flowers/Shape1/shape1-028.ppm
-1.6260736401899284956197935803068e-05 6:3.3 7:106.659 15:150.414 16:164 17:0.36363599 19:0.17647099 20:0.53813702 21:0.31780899 22:0.89226198 24:1.51515 # Flowers/Shape5/shape5-042.ppm
1.6260736401899284956197935803068e-05 6:3.46667 7:104.162 15:156.505 16:165.03999 17:0.285714 19:0.285714 20:0.73004198 21:0.27380201 22:0.837883 24:5.4807701 # Flowers/Shape1/shape1-065.ppm
-1.6260736401899284956197935803068e-05 6:3.76667 7:101.916 15:150.543 16:160.2 17:0.395349 19:0.22449 20:0.59658098 21:0.25915399 22:0.676907 24:3.71681 # Flowers/Shape5/shape5-064.ppm
1.6260736401899284956197935803068e-05 6:4.0377402 7:102.696 15:153.70799 16:165.75 17:0.26190501 19:0.12766001 20:0.78393501 21:0.219015 22:0.55508 24:4.95327 # Flowers/Shape1/shape1-088.ppm
-1.6260736401899284956197935803068e-05 6:3.7471299 7:108.95 15:150.50301 16:163.258 17:0.42623001 19:0.191781 20:0.6426 21:0.198431 22:0.63192302 24:3.4693301 # Flowers/Shape5/shape5-013.ppm
1.6260736401899284956197935803068e-05 6:3.9047599 7:105.098 15:152.44501 16:166.946 17:0.555556 19:0.166667 20:0.77503097 21:0.243579 22:0.61753798 24:5.63415 # Flowers/Shape1/shape1-007.ppm
-1.6260736401899284956197935803068e-05 6:3.2432401 7:112.434 15:155.55701 16:163.10699 17:0.42307699 19:0.37037 20:0.576814 21:0.46441001 22:1.18777 24:2.15833 # Flowers/Shape5/shape5-080.ppm
1.6260736401899284956197935803068e-05 6:3.61905 7:103.745 15:157.517 16:165.39999 17:0.40000001 19:0.2 20:0.77176499 21:0.27875599 22:0.76204997 24:4.4210501 # Flowers/Shape1/shape1-067.ppm
-1.6260736401899284956197935803068e-05 6:3.3513501 7:100.356 15:148.66 16:160.25 17:0.76190501 19:0.42307699 20:0.56663698 21:0.42717701 22:1.1492701 24:1.79032 # Flowers/Shape5/shape5-061.ppm
1.6260736401899284956197935803068e-05 6:3.65432 7:110.056 15:153.69701 16:171.519 17:0.42105299 19:0.208955 20:0.84382099 21:0.184844 22:0.56342101 24:2.4628401 # Flowers/Shape1/shape1-056.ppm
-1.6260736401899284956197935803068e-05 6:3.9130399 7:110.146 15:152.74899 16:161.45799 17:0.35294101 19:0.179487 20:0.66444898 21:0.176027 22:0.50155002 24:4.34444 # Flowers/Shape5/shape5-099.ppm
1.6260736401899284956197935803068e-05 6:3.58974 7:101.861 15:155.422 16:166.08299 17:0.444444 19:0.25806499 20:0.76771897 21:0.31165099 22:0.87569398 24:3.6214299 # Flowers/Shape1/shape1-098.ppm
-1.6260736401899284956197935803068e-05 6:3.5824201 7:107.983 15:160.017 16:158.31799 17:0.40000001 19:0.166667 20:0.55108398 21:0.210264 22:0.70938402 24:3.07055 # Flowers/Shape5/shape5-071.ppm
1.6260736401899284956197935803068e-05 6:3.7083299 7:106.792 15:151.339 16:167.35699 17:0.41176501 19:0.17073201 20:0.88491201 21:0.200349 22:0.49401399 24:7.2809 # Flowers/Shape1/shape1-009.ppm
-1.6260736401899284956197935803068e-05 6:3.54217 7:106.66 15:148.241 16:162.33299 17:0.33871001 19:0.16901401 20:0.624304 21:0.21259899 22:0.69315797 24:3.6700699 # Flowers/Shape5/shape5-090.ppm
1.6260736401899284956197935803068e-05 6:3.9154899 7:108.435 15:157.14799 16:167.881 17:0.41999999 19:0.18333299 20:0.830621 21:0.178526 22:0.47009599 24:4.3417301 # Flowers/Shape1/shape1-053.ppm
-1.6260736401899284956197935803068e-05 6:3.5211301 7:107.983 15:148.688 16:161.043 17:0.31481501 19:0.16393401 20:0.57290202 21:0.236011 22:0.68771702 24:4.8280001 # Flowers/Shape5/shape5-026.ppm
1.6260736401899284956197935803068e-05 6:4.0888901 7:101.05 15:156.16901 16:165.21201 17:0.25 19:0.153846 20:0.79914802 21:0.219348 22:0.54235101 24:4.8913002 # Flowers/Shape1/shape1-081.ppm
-1.6260736401899284956197935803068e-05 6:3.90909 7:104.396 15:149.32201 16:160.478 17:0.466667 19:0.137931 20:0.59253401 21:0.237315 22:0.61861002 24:2.8139501 # Flowers/Shape5/shape5-084.ppm
1.6260736401899284956197935803068e-05 6:3.7959199 7:106.036 15:150.12601 16:168.341 17:0.36111099 19:0.166667 20:0.87310702 21:0.19345 22:0.477642 24:7.1128998 # Flowers/Shape1/shape1-030.ppm
-1.6260736401899284956197935803068e-05 6:3.5824201 7:103.115 15:144.74899 16:161.25 17:0.31884101 19:0.166667 20:0.62893701 21:0.20969801 22:0.68509001 24:2.79141 # Flowers/Shape5/shape5-030.ppm
1.6260736401899284956197935803068e-05 6:4 7:102.38 15:149.89799 16:168.46201 17:0.43333301 19:0.131579 20:0.79436201 21:0.24440999 22:0.58272099 24:4.75 # Flowers/Shape1/shape1-086.ppm
-1.6260736401899284956197935803068e-05 6:3.5999999 7:112.426 15:157.467 16:159.217 17:0.36363599 19:0.171875 20:0.614057 21:0.232444 22:0.70942098 24:3.0555601 # Flowers/Shape5/shape5-088.ppm
1.6260736401899284956197935803068e-05 6:4.0784302 7:105.102 15:150.44099 16:169.026 17:0.342105 19:0.186047 20:0.87498897 21:0.1899 22:0.463626 24:6.1298099 # Flowers/Shape1/shape1-070.ppm
-1.6260736401899284956197935803068e-05 6:3.64516 7:103.036 15:140.164 16:162 17:0.31914899 19:0.19230799 20:0.56647301 21:0.24381 22:0.70899999 24:4.1150398 # Flowers/Shape5/shape5-066.ppm
-1.6260736401899284956197935803068e-05 6:3.82353 7:104.562 15:155.35001 16:157.5 17:0.78947401 19:0.23636401 20:0.51180899 21:0.27203801 22:0.807504 24:2.09231 # Flowers/Shape5/shape5-036.ppm
-1.6260736401899284956197935803068e-05 6:3.67857 7:101.587 15:146.32401 16:159.55 17:0.555556 19:0.217391 20:0.58612698 21:0.29195601 22:0.79115599 24:1.35922 # Flowers/Shape5/shape5-021.ppm
1.6260736401899284956197935803068e-05 6:3.95455 7:101.723 15:154.325 16:166.36099 17:0.41935501 19:0.157895 20:0.77691698 21:0.228108 22:0.57702601 24:6.0689702 # Flowers/Shape1/shape1-068.ppm
1.6260736401899284956197935803068e-05 6:3.80952 7:102.424 15:159.492 16:165.3 17:0.40000001 19:0.2 20:0.76833099 21:0.25846499 22:0.70376801 24:5.25 # Flowers/Shape1/shape1-087.ppm
1.6260736401899284956197935803068e-05 6:3.8487401 7:109.72 15:155.16499 16:171.244 17:0.45122001 19:0.17821801 20:0.75334603 21:0.15637299 22:0.55449498 24:2.5982499 # Flowers/Shape1/shape1-071.ppm
-1.6260736401899284956197935803068e-05 6:3.4461501 7:112.296 15:157.123 16:157.688 17:0.41304299 19:0.27451 20:0.343483 21:0.37662399 22:0.98084903 24:4.9330401 # Flowers/Shape5/shape5-017.ppm
1.6260736401899284956197935803068e-05 6:4 7:102.209 15:153.07201 16:168.45 17:0.482759 19:0.16216201 20:0.80619001 21:0.23850399 22:0.59032601 24:4.5 # Flowers/Shape1/shape1-041.ppm
-1.6260736401899284956197935803068e-05 6:3.4473701 7:103.882 15:162.217 16:153.61099 17:0.46153799 19:0.26666701 20:0.58838397 21:0.253681 22:0.82469398 24:2.6106901 # Flowers/Shape5/shape5-023.ppm
1.6260736401899284956197935803068e-05 6:3.9047599 7:96.237701 15:155.685 16:165.41701 17:0.555556 19:0.166667 20:0.76980501 21:0.269905 22:0.68158001 24:4.6097598 # Flowers/Shape1/shape1-048.ppm
-1.6260736401899284956197935803068e-05 6:3.3793099 7:104.647 15:149.842 16:158.591 17:0.380952 19:0.16 20:0.63287997 21:0.219374 22:0.771438 24:2.9591801 # Flowers/Shape5/shape5-089.ppm
1.6260736401899284956197935803068e-05 6:3.8205099 7:112.303 15:155.008 16:171.267 17:0.47169799 19:0.25806499 20:0.82091099 21:0.187004 22:0.57210398 24:4.71141 # Flowers/Shape1/shape1-076.ppm
-1.6260736401899284956197935803068e-05 6:3.63415 7:106.56 15:145.63 16:160.13 17:0.366667 19:0.18840601 20:0.62454998 21:0.22031599 22:0.71848297 24:4.1275201 # Flowers/Shape5/shape5-009.ppm
1.6260736401899284956197935803068e-05 6:3.8181801 7:107.184 15:152.912 16:171 17:0.45282999 19:0.14925399 20:0.82830101 21:0.18655001 22:0.53349 24:3.1428599 # Flowers/Shape1/shape1-094.ppm
-1.6260736401899284956197935803068e-05 6:3.68293 7:105.914 15:153.72099 16:157.409 17:0.38983101 19:0.17142899 20:0.61886102 21:0.209406 22:0.72386801 24:3.25828 # Flowers/Shape5/shape5-008.ppm
1.6260736401899284956197935803068e-05 6:3.8499999 7:108.61 15:152.25 16:171.431 17:0.45454499 19:0.23076899 20:0.835347 21:0.186638 22:0.56806397 24:4.1558399 # Flowers/Shape1/shape1-036.ppm
-1.6260736401899284956197935803068e-05 6:3.7910399 7:108.348 15:156.444 16:156.619 17:0.48888901 19:0.196429 20:0.59398198 21:0.239733 22:0.62289798 24:3.16535 # Flowers/Shape5/shape5-024.ppm
1.6260736401899284956197935803068e-05 6:4.0851102 7:101.841 15:147.181 16:170.12199 17:0.342857 19:0.175 20:0.87400901 21:0.181897 22:0.45276201 24:7.8333302 # Flowers/Shape1/shape1-050.ppm
-1.6260736401899284956197935803068e-05 6:3.5941999 7:103.648 15:145.01801 16:158.364 17:0.38 19:0.18965501 20:0.56958199 21:0.24854299 22:0.72069502 24:4.1733899 # Flowers/Shape5/shape5-086.ppm
1.6260736401899284956197935803068e-05 6:3.63077 7:108.994 15:155.51199 16:171.702 17:0.444444 19:0.160714 20:0.82716101 21:0.234568 22:0.720581 24:1.65254 # Flowers/Shape1/shape1-015.ppm
-1.6260736401899284956197935803068e-05 6:3.3513501 7:108.354 15:153.155 16:157 17:0.27586201 19:0.23333301 20:0.585118 21:0.26455599 22:0.87711698 24:3.2822599 # Flowers/Shape5/shape5-083.ppm
1.6260736401899284956197935803068e-05 6:4.0289898 7:106.545 15:155.83701 16:170.711 17:0.254545 19:0.18965501 20:0.83573997 21:0.195213 22:0.51495802 24:2.4820099 # Flowers/Shape1/shape1-033.ppm
-1.6260736401899284956197935803068e-05 6:3.8133299 7:106.052 15:151.48801 16:157.312 17:0.470588 19:0.25 20:0.51130903 21:0.25304699 22:0.75259 24:2.0978999 # Flowers/Shape5/shape5-056.ppm
1.6260736401899284956197935803068e-05 6:3.7818201 7:98.254898 15:154.882 16:168.875 17:0.61764699 19:0.19565199 20:0.72749698 21:0.246782 22:0.72113401 24:4.4951901 # Flowers/Shape1/shape1-023.ppm
-1.6260736401899284956197935803068e-05 6:3.50649 7:104.492 15:153.912 16:156.364 17:0.375 19:0.203125 20:0.63082498 21:0.223314 22:0.77436101 24:1.42593 # Flowers/Shape5/shape5-049.ppm
1.6260736401899284956197935803068e-05 6:3.9565201 7:101.779 15:154.717 16:169.436 17:0.48387101 19:0.24324299 20:0.85931098 21:0.220513 22:0.580585 24:5.3076901 # Flowers/Shape1/shape1-099.ppm
-1.6260736401899284956197935803068e-05 6:3.3461499 7:108.811 15:151.588 16:157.68201 17:0.30000001 19:0.20930199 20:0.56478298 21:0.331173 22:0.97518098 24:2.6896601 # Flowers/Shape5/shape5-087.ppm
1.6260736401899284956197935803068e-05 6:4.0227299 7:113.628 15:157.703 16:172.127 17:0.239437 19:0.128205 20:0.84982002 21:0.152945 22:0.40203401 24:3.2316401 # Flowers/Shape1/shape1-072.ppm
-1.6260736401899284956197935803068e-05 6:3.6226399 7:108.489 15:153.144 16:156.5 17:0.35897401 19:0.17777801 20:0.58197898 21:0.272163 22:0.73685199 24:3.5885401 # Flowers/Shape5/shape5-020.ppm
1.6260736401899284956197935803068e-05 6:3.9574499 7:106.086 15:155.91499 16:169.325 17:0.62068999 19:0.175 20:0.881697 21:0.18275601 22:0.446628 24:8.0860205 # Flowers/Shape1/shape1-090.ppm
-1.6260736401899284956197935803068e-05 6:3.6896601 7:108.474 15:149.46201 16:157.27299 17:0.34883699 19:0.208333 20:0.56213897 21:0.26298299 22:0.75525099 24:4.0654202 # Flowers/Shape5/shape5-005.ppm
1.6260736401899284956197935803068e-05 6:3.73913 7:104.492 15:152.284 16:172.7 17:0.68292701 19:0.210526 20:0.82837999 21:0.22393499 22:0.63931799 24:2.1395299 # Flowers/Shape1/shape1-013.ppm
-1.6260736401899284956197935803068e-05 6:3.7249999 7:103.266 15:147.01601 16:156.81799 17:0.53846198 19:0.15942 20:0.62297702 21:0.213111 22:0.665883 24:3.4899299 # Flowers/Shape5/shape5-068.ppm
1.6260736401899284956197935803068e-05 6:3.84848 7:107.814 15:159.188 16:170.875 17:0.404255 19:0.137931 20:0.83048898 21:0.19796 22:0.51558 24:4.4173198 # Flowers/Shape1/shape1-073.ppm
-1.6260736401899284956197935803068e-05 6:3.825 7:106.496 15:149.603 16:156.545 17:0.45454499 19:0.17647099 20:0.62842703 21:0.204827 22:0.63893902 24:4.1830101 # Flowers/Shape5/shape5-028.ppm
1.6260736401899284956197935803068e-05 6:3.86957 7:102.386 15:154.267 16:170.951 17:0.48387101 19:0.179487 20:0.85185701 21:0.228357 22:0.56177998 24:5.16854 # Flowers/Shape1/shape1-020.ppm
-1.6260736401899284956197935803068e-05 6:3.30233 7:111.734 15:154.84399 16:156.19 17:0.34375 19:0.194444 20:0.589939 21:0.25555801 22:0.84390903 24:2.4225399 # Flowers/Shape5/shape5-043.ppm
1.6260736401899284956197935803068e-05 6:3.7260301 7:103.945 15:153.87199 16:171.89799 17:0.48979601 19:0.196721 20:0.821796 21:0.205843 22:0.58735102 24:4.0257401 # Flowers/Shape1/shape1-034.ppm
-1.6260736401899284956197935803068e-05 6:3.8387101 7:106.227 15:148.211 16:157.31799 17:0.67567599 19:0.21568599 20:0.59534502 21:0.25566301 22:0.69183099 24:1.56303 # Flowers/Shape5/shape5-041.ppm
1.6260736401899284956197935803068e-05 6:4.05479 7:110.466 15:156.791 16:172.367 17:0.25862101 19:0.17741901 20:0.83196098 21:0.17634501 22:0.46599001 24:4.4391899 # Flowers/Shape1/shape1-012.ppm
-1.6260736401899284956197935803068e-05 6:3.2432401 7:97.216904 15:150.263 16:154 17:0.32142901 19:0.37037 20:0.54798901 21:0.416511 22:1.14183 24:3.7 # Flowers/Shape5/shape5-011.ppm
1.6260736401899284956197935803068e-05 6:4.1052599 7:111.42 15:156.42599 16:172.883 17:0.25 19:0.130952 20:0.851978 21:0.14547201 22:0.38256299 24:3.6538501 # Flowers/Shape1/shape1-052.ppm
-1.6260736401899284956197935803068e-05 6:3.5522399 7:112.421 15:153.599 16:155.39999 17:0.45652199 19:0.240741 20:0.34926999 21:0.350703 22:0.91556501 24:5.3487401 # Flowers/Shape5/shape5-058.ppm
1.6260736401899284956197935803068e-05 6:3.9473701 7:100.628 15:155.117 16:171.244 17:0.51999998 19:0.225806 20:0.79069 21:0.26247299 22:0.65310597 24:4.5599999 # Flowers/Shape1/shape1-021.ppm
-1.6260736401899284956197935803068e-05 6:3.6315801 7:104.159 15:148.084 16:156.095 17:0.51999998 19:0.169231 20:0.61795002 21:0.229554 22:0.71840298 24:2.7536199 # Flowers/Shape5/shape5-048.ppm
1.6260736401899284956197935803068e-05 6:3.8139501 7:105.864 15:152.181 16:172.75999 17:0.53571397 19:0.194444 20:0.83551002 21:0.179501 22:0.51479298 24:5.2438998 # Flowers/Shape1/shape1-054.ppm
-1.6260736401899284956197935803068e-05 6:3.32075 7:109.951 15:146.855 16:157.05299 17:0.20454501 19:0.152174 20:0.57606298 21:0.30366299 22:0.822891 24:3.9147699 # Flowers/Shape5/shape5-081.ppm
1.6260736401899284956197935803068e-05 6:4.1315799 7:110.059 15:158.147 16:172.32001 17:0.206349 19:0.13432799 20:0.83072299 21:0.175073 22:0.45734701 24:3.6305699 # Flowers/Shape1/shape1-093.ppm
-1.6260736401899284956197935803068e-05 6:3.4166701 7:107.172 15:153.785 16:154.70599 17:0.33333299 19:0.26315799 20:0.55436099 21:0.341443 22:0.94387901 24:2.34146 # Flowers/Shape5/shape5-052.ppm
1.6260736401899284956197935803068e-05 6:3.9200001 7:98.986298 15:154.595 16:171.40401 17:0.470588 19:0.219512 20:0.86148202 21:0.21060701 22:0.55079198 24:5.3571401 # Flowers/Shape1/shape1-059.ppm
-1.6260736401899284956197935803068e-05 6:3.5185201 7:111.044 15:146.59399 16:157.091 17:0.285714 19:0.148936 20:0.58310997 21:0.26946601 22:0.74047798 24:3.97895 # Flowers/Shape5/shape5-000.ppm
1.6260736401899284956197935803068e-05 6:4.2083302 7:113.062 15:155.646 16:174 17:0.23076899 19:0.116279 20:0.85322797 21:0.141366 22:0.37281701 24:4.75248 # Flowers/Shape1/shape1-032.ppm
-1.6260736401899284956197935803068e-05 6:3.5820899 7:104.26 15:153.5 16:153.842 17:0.39583299 19:0.26415101 20:0.573156 21:0.26728499 22:0.884565 24:2.23333 # Flowers/Shape5/shape5-063.ppm
1.6260736401899284956197935803068e-05 6:4.1414099 7:109.804 15:156.44701 16:174.108 17:0.2375 19:0.151163 20:0.81715697 21:0.14665499 22:0.382846 24:2.8975599 # Flowers/Shape1/shape1-014.ppm
-1.6260736401899284956197935803068e-05 6:3.55814 7:104.159 15:142.528 16:156.909 17:0.34375 19:0.16216201 20:0.623366 21:0.202914 22:0.664285 24:3.65359 # Flowers/Shape5/shape5-050.ppm
1.6260736401899284956197935803068e-05 6:4.1276598 7:109.065 15:157.737 16:173.47501 17:0.27026999 19:0.146341 20:0.85408998 21:0.147577 22:0.38719001 24:4.6030898 # Flowers/Shape1/shape1-092.ppm
-1.6260736401899284956197935803068e-05 6:3.26087 7:104.269 15:148.851 16:154.118 17:0.31428599 19:0.210526 20:0.56058103 21:0.358998 22:0.97941202 24:3.0666699 # Flowers/Shape5/shape5-032.ppm
1.6260736401899284956197935803068e-05 6:3.8684199 7:109.188 15:157.683 16:174.522 17:0.43396199 19:0.15151501 20:0.81069601 21:0.19266701 22:0.50383198 24:1.55102 # Flowers/Shape1/shape1-075.ppm
-1.6260736401899284956197935803068e-05 6:3.38462 7:109.916 15:154.49001 16:152.533 17:0.32653099 19:0.25 20:0.34773999 21:0.385337 22:1.00552 24:4.4318199 # Flowers/Shape5/shape5-038.ppm
1.6260736401899284956197935803068e-05 6:4.0215101 7:106.783 15:158.09599 16:174.054 17:0.23999999 19:0.148148 20:0.817321 21:0.159758 22:0.41920099 24:2.48663 # Flowers/Shape1/shape1-095.ppm
