SVM-light Version V6.02
0 # kernel type
3 # kernel parameter -d 
1 # kernel parameter -g 
1 # kernel parameter -s 
1 # kernel parameter -r 
empty# kernel parameter -u 
24 # highest feature index 
197 # number of training documents 
10 # number of support vectors plus 1 
0.94969537 # threshold b, each following line is a SV (starting with alpha*y)
1.9057353462087094276471502252157e-05 6:3.44348 7:104.498 15:152.274 16:158.91299 17:0.47435901 19:0.26373601 20:0.55625403 21:0.22543199 22:0.86282301 24:2.32323 # Flowers/Shape2/shape2-058.ppm
-1.9215151034933852444708257678485e-05 6:4.10638 7:110.284 11:6 15:153.97501 17:0.305556 19:0.146341 20:0.66800398 21:0.15766101 22:0.36492699 24:6.8186498 # Flowers/Shape4/shape4-073.ppm
-2.01653892080859610405965676172e-05 6:3.9333301 7:109.277 11:6 15:164.979 17:0.40625 19:0.139241 20:0.67252499 21:0.16640501 22:0.38566399 24:8.1355896 # Flowers/Shape4/shape4-033.ppm
2.01653892080859610405965676172e-05 6:3.4107101 7:109.863 15:150.993 16:157.045 17:0.365854 19:0.28735599 20:0.65931302 21:0.199072 22:0.76340199 24:1.75916 # Flowers/Shape2/shape2-063.ppm
-2.01653892080859610405965676172e-05 6:3.3928599 7:113.037 11:6 15:140.474 17:0.40000001 19:0.217391 20:0.48317599 21:0.318131 22:0.82749897 24:5.5999999 # Flowers/Shape4/shape4-030.ppm
2.01653892080859610405965676172e-05 6:3.41096 7:107.69 15:155.66 16:157.091 17:0.403846 19:0.26956499 20:0.63978398 21:0.181435 22:0.78652501 24:1.75904 # Flowers/Shape2/shape2-082.ppm
-1.606408926613147464257380647723e-05 6:3.2121201 7:107.959 11:11 15:157.241 17:0.5 19:0.43478301 20:0.42458999 21:0.56345999 22:1.3508199 24:2.8018899 # Flowers/Shape4/shape4-061.ppm
2.01653892080859610405965676172e-05 6:3.41593 7:105.143 15:150.336 16:157.409 17:0.37804899 19:0.22826099 20:0.66597599 21:0.19409101 22:0.69787598 24:0.87823802 # Flowers/Shape2/shape2-084.ppm
-3.9435023691077248416542166964405e-06 6:3.14815 7:117.586 11:6 15:137.12801 17:0.34999999 19:0.31707299 20:0.42232499 21:0.356729 22:1.05553 24:6.3529401 # Flowers/Shape4/shape4-032.ppm
