SVM-light Version V6.02
0 # kernel type
3 # kernel parameter -d 
1 # kernel parameter -g 
1 # kernel parameter -s 
1 # kernel parameter -r 
empty# kernel parameter -u 
24 # highest feature index 
196 # number of training documents 
11 # number of support vectors plus 1 
-0.96220772 # threshold b, each following line is a SV (starting with alpha*y)
-2.052025100162007924665778790807e-05 6:3.2786901 7:107.532 15:159.783 16:152.067 17:0.29787201 19:0.29787201 20:0.33867699 21:0.41643399 22:1.07932 24:4.5749998 # Flowers/Shape5/shape5-078.ppm
2.052025100162007924665778790807e-05 6:3.2121201 7:107.959 11:11 15:157.241 17:0.5 19:0.43478301 20:0.42458999 21:0.56345999 22:1.3508199 24:2.8018899 # Flowers/Shape4/shape4-061.ppm
-2.052025100162007924665778790807e-05 6:3.5 7:102.465 15:155.216 16:139 17:0.29032299 19:0.17647099 20:0.51620299 21:0.25075901 22:0.74310303 24:2.8571401 # Flowers/Shape5/shape5-096.ppm
2.052025100162007924665778790807e-05 6:3.3928599 7:113.037 11:6 15:140.474 17:0.40000001 19:0.217391 20:0.48317599 21:0.318131 22:0.82749897 24:5.5999999 # Flowers/Shape4/shape4-030.ppm
-2.052025100162007924665778790807e-05 6:3.7026999 7:109.15 15:154.541 16:145.214 17:0.57446802 19:0.27586201 20:0.50646901 21:0.262954 22:0.78197998 24:1.62044 # Flowers/Shape5/shape5-015.ppm
2.052025100162007924665778790807e-05 6:3.9333301 7:109.277 11:6 15:164.979 17:0.40625 19:0.139241 20:0.67252499 21:0.16640501 22:0.38566399 24:8.1355896 # Flowers/Shape4/shape4-033.ppm
-2.052025100162007924665778790807e-05 6:3.5211301 7:106.788 15:153.258 16:150.533 17:0.510638 19:0.22413801 20:0.50480402 21:0.28177199 22:0.837327 24:1.704 # Flowers/Shape5/shape5-076.ppm
2.052025100162007924665778790807e-05 6:4.10638 7:110.284 11:6 15:153.97501 17:0.305556 19:0.146341 20:0.66800398 21:0.15766101 22:0.36492699 24:6.8186498 # Flowers/Shape4/shape4-073.ppm
-6.7998176958230178897881965105476e-06 6:3.38462 7:109.916 15:154.49001 16:152.533 17:0.32653099 19:0.25 20:0.34773999 21:0.385337 22:1.00552 24:4.4318199 # Flowers/Shape5/shape5-038.ppm
6.8001615296468115312578106568253e-06 6:4.0229902 7:113.236 11:6 15:169.14301 17:0.225352 19:0.12987 20:0.66908199 21:0.164876 22:0.382283 24:7.9542899 # Flowers/Shape4/shape4-012.ppm
