SVM-light Version V6.02
0 # kernel type
3 # kernel parameter -d 
1 # kernel parameter -g 
1 # kernel parameter -s 
1 # kernel parameter -r 
empty# kernel parameter -u 
24 # highest feature index 
197 # number of training documents 
197 # number of support vectors plus 1 
0.45285783 # threshold b, each following line is a SV (starting with alpha*y)
-1.6346380639172229394095320342828e-05 6:3.575 7:104.184 15:153.927 16:163.56 17:0.355932 19:0.23076899 20:0.58352298 21:0.2314 22:0.76885903 24:2.7972 # Flowers/Shape5/shape5-004.ppm
1.6346380639172229394095320342828e-05 6:3.4862399 7:106.827 15:152.868 16:161.429 17:0.36250001 19:0.19780201 20:0.614838 21:0.20465299 22:0.70170802 24:0.86052603 # Flowers/Shape2/shape2-000.ppm
-1.6346380639172229394095320342828e-05 6:3.7026999 7:109.15 15:154.541 16:145.214 17:0.57446802 19:0.27586201 20:0.50646901 21:0.262954 22:0.78197998 24:1.62044 # Flowers/Shape5/shape5-015.ppm
1.6346380639172229394095320342828e-05 6:3.6213 7:107.2 15:157.61 16:169.03101 17:0.42016801 19:0.224638 20:0.80964601 21:0.13545699 22:0.53299397 24:4.1421599 # Flowers/Shape2/shape2-032.ppm
-1.6346380639172229394095320342828e-05 6:3.71014 7:108.77 15:150.452 16:171.52901 17:0.5 19:0.210526 20:0.698897 21:0.222868 22:0.67448699 24:1.8867199 # Flowers/Shape5/shape5-095.ppm
1.6346380639172229394095320342828e-05 6:3.4107101 7:109.863 15:150.993 16:157.045 17:0.365854 19:0.28735599 20:0.65931302 21:0.199072 22:0.76340199 24:1.75916 # Flowers/Shape2/shape2-063.ppm
-1.6346380639172229394095320342828e-05 6:3.8181801 7:109.731 15:149.492 16:171.49001 17:0.375 19:0.222222 20:0.70967603 21:0.219073 22:0.66113299 24:2.88095 # Flowers/Shape5/shape5-075.ppm
1.6346380639172229394095320342828e-05 6:3.41593 7:105.143 15:150.336 16:157.409 17:0.37804899 19:0.22826099 20:0.66597599 21:0.19409101 22:0.69787598 24:0.87823802 # Flowers/Shape2/shape2-084.ppm
-1.6346380639172229394095320342828e-05 6:3.5 7:102.465 15:155.216 16:139 17:0.29032299 19:0.17647099 20:0.51620299 21:0.25075901 22:0.74310303 24:2.8571401 # Flowers/Shape5/shape5-096.ppm
1.6346380639172229394095320342828e-05 6:3.37255 7:111.766 15:137.13699 16:161.25 17:0.48543701 19:0.342105 20:0.78322899 21:0.16752 22:0.800677 24:1.1860501 # Flowers/Shape2/shape2-008.ppm
-1.6346380639172229394095320342828e-05 6:3.8550701 7:106.046 15:141.89 16:169.535 17:0.5 19:0.232143 20:0.67858398 21:0.233559 22:0.64322299 24:2.33459 # Flowers/Shape5/shape5-033.ppm
1.6346380639172229394095320342828e-05 6:3.5344801 7:103.837 15:163.64799 16:163 17:0.46835399 19:0.27472499 20:0.71675903 21:0.179735 22:0.65791202 24:1.69756 # Flowers/Shape2/shape2-025.ppm
-1.6346380639172229394095320342828e-05 6:3.4210501 7:108.147 15:156.74699 16:166.21201 17:0.40740699 19:0.225806 20:0.673154 21:0.262485 22:0.82436901 24:2.33846 # Flowers/Shape5/shape5-097.ppm
1.6346380639172229394095320342828e-05 6:3.3636401 7:108.971 15:140.522 16:160.91299 17:0.41935501 19:0.33333299 20:0.79763103 21:0.15143 22:0.72110701 24:0.89189202 # Flowers/Shape2/shape2-029.ppm
-1.6346380639172229394095320342828e-05 6:3.8055601 7:110.228 15:142.94299 16:168.739 17:0.384615 19:0.180328 20:0.67903697 21:0.20830201 22:0.57126898 24:2.8905101 # Flowers/Shape5/shape5-053.ppm
1.6346380639172229394095320342828e-05 6:3.18681 7:110.095 15:153.356 16:168.875 17:0.35820901 19:0.36842099 20:0.78141302 21:0.160614 22:0.84739602 24:1.25517 # Flowers/Shape2/shape2-095.ppm
-1.6346380639172229394095320342828e-05 6:3.4473701 7:103.882 15:162.217 16:153.61099 17:0.46153799 19:0.26666701 20:0.58838397 21:0.253681 22:0.82469398 24:2.6106901 # Flowers/Shape5/shape5-023.ppm
1.6346380639172229394095320342828e-05 6:3.28916 7:106.674 15:139.254 16:163.774 17:0.45614001 19:0.267176 20:0.79848999 21:0.15955301 22:0.77013803 24:1.21612 # Flowers/Shape2/shape2-089.ppm
-1.6346380639172229394095320342828e-05 6:3.8684199 7:108.495 15:145.688 16:171.644 17:0.40740699 19:0.15151501 20:0.68583697 21:0.204485 22:0.56053102 24:3.1020401 # Flowers/Shape5/shape5-073.ppm
1.6346380639172229394095320342828e-05 6:3.4677401 7:104.094 15:159.13 16:160.409 17:0.47619 19:0.31914899 20:0.55901098 21:0.204509 22:0.77801502 24:2.0186 # Flowers/Shape2/shape2-078.ppm
-1.6346380639172229394095320342828e-05 6:3.5824201 7:107.983 15:160.017 16:158.31799 17:0.40000001 19:0.166667 20:0.55108398 21:0.210264 22:0.70938402 24:3.07055 # Flowers/Shape5/shape5-071.ppm
1.6346380639172229394095320342828e-05 6:3.3896101 7:109.068 15:138.952 16:162.903 17:0.43925199 19:0.40000001 20:0.78330898 21:0.16484401 22:0.79355198 24:1.4751 # Flowers/Shape2/shape2-049.ppm
-1.6346380639172229394095320342828e-05 6:3.7611899 7:110.627 15:144.804 16:168.114 17:0.55813998 19:0.240741 20:0.69724602 21:0.230281 22:0.70694399 24:1.86111 # Flowers/Shape5/shape5-055.ppm
1.6346380639172229394095320342828e-05 6:3.6347799 7:105.525 15:164.582 16:165.24001 17:0.47435901 19:0.18556701 20:0.61217302 21:0.18482301 22:0.58805299 24:1.92584 # Flowers/Shape2/shape2-018.ppm
-1.6346380639172229394095320342828e-05 6:3.54545 7:105.357 15:157.69901 16:165.882 17:0.44262299 19:0.25714299 20:0.66774303 21:0.233863 22:0.73447698 24:1.97436 # Flowers/Shape5/shape5-057.ppm
1.6346380639172229394095320342828e-05 6:3.6378 7:108.973 15:148.931 16:163.58299 17:0.38043499 19:0.16513801 20:0.62437099 21:0.167472 22:0.54808098 24:3.2987001 # Flowers/Shape2/shape2-079.ppm
-1.6346380639172229394095320342828e-05 6:3.8209 7:112.175 15:144.46899 16:167.76199 17:0.48888901 19:0.196429 20:0.67789102 21:0.22490799 22:0.61650199 24:2.8789101 # Flowers/Shape5/shape5-012.ppm
1.6346380639172229394095320342828e-05 6:3.65517 7:109.937 15:158.983 16:168.96899 17:0.359375 19:0.18367299 20:0.81454903 21:0.12836 22:0.50668103 24:3.28302 # Flowers/Shape2/shape2-092.ppm
-1.6346380639172229394095320342828e-05 6:3.6623399 7:103.361 15:157.017 16:166.259 17:0.425926 19:0.241935 20:0.58803201 21:0.23109899 22:0.76859403 24:3.0035501 # Flowers/Shape5/shape5-065.ppm
1.6346380639172229394095320342828e-05 6:3.51402 7:106.067 15:147.82899 16:162.043 17:0.48611099 19:0.244186 20:0.66670102 21:0.192871 22:0.690126 24:0.85372299 # Flowers/Shape2/shape2-064.ppm
-1.6346380639172229394095320342828e-05 6:3.5211301 7:106.788 15:153.258 16:150.533 17:0.510638 19:0.22413801 20:0.50480402 21:0.28177199 22:0.837327 24:1.704 # Flowers/Shape5/shape5-076.ppm
1.6346380639172229394095320342828e-05 6:3.49123 7:100.173 15:151.83 16:165.11501 17:0.42500001 19:0.29545501 20:0.56042302 21:0.218374 22:0.84278297 24:2.0050299 # Flowers/Shape2/shape2-098.ppm
-1.6346380639172229394095320342828e-05 6:3.6631601 7:100.657 15:149.427 16:168.84399 17:0.39705899 19:0.1875 20:0.65198398 21:0.200541 22:0.63667703 24:3.0028701 # Flowers/Shape5/shape5-034.ppm
1.6346380639172229394095320342828e-05 6:3.41096 7:107.69 15:155.66 16:157.091 17:0.403846 19:0.26956499 20:0.63978398 21:0.181435 22:0.78652501 24:1.75904 # Flowers/Shape2/shape2-082.ppm
-1.6346380639172229394095320342828e-05 6:3.5999999 7:112.426 15:157.467 16:159.217 17:0.36363599 19:0.171875 20:0.614057 21:0.232444 22:0.70942098 24:3.0555601 # Flowers/Shape5/shape5-088.ppm
1.6346380639172229394095320342828e-05 6:3.48454 7:106 15:150.605 16:162.33299 17:0.469697 19:0.29333299 20:0.65530002 21:0.21368399 22:0.76845098 24:3.7307701 # Flowers/Shape2/shape2-003.ppm
-1.6346380639172229394095320342828e-05 6:3.6140399 7:100.262 15:146.714 16:164.793 17:0.5 19:0.1875 20:0.53167599 21:0.30262899 22:0.85413301 24:1.66019 # Flowers/Shape5/shape5-082.ppm
1.6346380639172229394095320342828e-05 6:3.51316 7:110.592 15:153.39799 16:160.85699 17:0.40740699 19:0.25619799 20:0.78988898 21:0.154814 22:0.63007998 24:2.2771499 # Flowers/Shape2/shape2-034.ppm
-1.6346380639172229394095320342828e-05 6:3.2432401 7:112.434 15:155.55701 16:163.10699 17:0.42307699 19:0.37037 20:0.576814 21:0.46441001 22:1.18777 24:2.15833 # Flowers/Shape5/shape5-080.ppm
1.6346380639172229394095320342828e-05 6:3.5905499 7:102.195 15:151.28999 16:162.742 17:0.42696601 19:0.30927801 20:0.71753299 21:0.171479 22:0.64080501 24:1.94956 # Flowers/Shape2/shape2-045.ppm
-1.6346380639172229394095320342828e-05 6:3.50649 7:104.492 15:153.912 16:156.364 17:0.375 19:0.203125 20:0.63082498 21:0.223314 22:0.77436101 24:1.42593 # Flowers/Shape5/shape5-049.ppm
1.6346380639172229394095320342828e-05 6:3.53933 7:112.597 15:153.104 16:167.105 17:0.42399999 19:0.271429 20:0.828183 21:0.14061201 22:0.65170002 24:3.6730199 # Flowers/Shape2/shape2-073.ppm
-1.6346380639172229394095320342828e-05 6:3.58025 7:111.507 15:147.155 16:169.696 17:0.372881 19:0.191176 20:0.70900398 21:0.20115601 22:0.612234 24:2.2344799 # Flowers/Shape5/shape5-035.ppm
1.6346380639172229394095320342828e-05 6:3.44348 7:104.498 15:152.274 16:158.91299 17:0.47435901 19:0.26373601 20:0.55625403 21:0.22543199 22:0.86282301 24:2.32323 # Flowers/Shape2/shape2-058.ppm
-1.6346380639172229394095320342828e-05 6:3.2786901 7:107.532 15:159.783 16:152.067 17:0.29787201 19:0.29787201 20:0.33867699 21:0.41643399 22:1.07932 24:4.5749998 # Flowers/Shape5/shape5-078.ppm
1.6346380639172229394095320342828e-05 6:3.28736 7:113.452 15:150.306 16:164.207 17:0.42623001 19:0.208333 20:0.71725601 21:0.231444 22:0.794159 24:2.12937 # Flowers/Shape2/shape2-087.ppm
-1.6346380639172229394095320342828e-05 6:3.63077 7:111.655 15:146.56599 16:169.478 17:0.47727299 19:0.203704 20:0.703978 21:0.243375 22:0.74325103 24:2.4788101 # Flowers/Shape5/shape5-014.ppm
1.6346380639172229394095320342828e-05 6:3.4761901 7:102.949 15:152.063 16:160.27299 17:0.44827601 19:0.25999999 20:0.56410301 21:0.204092 22:0.78814101 24:2.3013699 # Flowers/Shape2/shape2-017.ppm
-1.6346380639172229394095320342828e-05 6:3.24 7:100.955 15:151.692 16:162.45799 17:0.35135099 19:0.282051 20:0.56157303 21:0.342657 22:1.011 24:1.54321 # Flowers/Shape5/shape5-027.ppm
1.6346380639172229394095320342828e-05 6:3.4237299 7:112.413 15:155.202 16:167.368 17:0.38281199 19:0.204082 20:0.83943897 21:0.14216501 22:0.655563 24:3.2128699 # Flowers/Shape2/shape2-093.ppm
-1.6346380639172229394095320342828e-05 6:3.4186001 7:107.736 15:155.651 16:166.448 17:0.34375 19:0.228571 20:0.66539502 21:0.238804 22:0.74941403 24:3.21769 # Flowers/Shape5/shape5-037.ppm
1.6346380639172229394095320342828e-05 6:3.5873001 7:103.27 15:150.89101 16:162.64301 17:0.46511599 19:0.27272701 20:0.703242 21:0.17893299 22:0.70139098 24:1.9513299 # Flowers/Shape2/shape2-043.ppm
-1.6346380639172229394095320342828e-05 6:3.91892 7:108.602 15:147.416 16:169.093 17:0.42307699 19:0.174603 20:0.683792 21:0.20248801 22:0.549568 24:2.8069 # Flowers/Shape5/shape5-093.ppm
1.6346380639172229394095320342828e-05 6:3.5 7:107.371 15:151.05499 16:164.8 17:0.297297 19:0.21518999 20:0.65366298 21:0.202114 22:0.72413403 24:3.7142899 # Flowers/Shape2/shape2-024.ppm
-1.6346380639172229394095320342828e-05 6:3.30233 7:111.734 15:154.84399 16:156.19 17:0.34375 19:0.194444 20:0.589939 21:0.25555801 22:0.84390903 24:2.4225399 # Flowers/Shape5/shape5-043.ppm
1.6346380639172229394095320342828e-05 6:3.23913 7:106.646 15:150.63699 16:165.067 17:0.24324299 19:0.24324299 20:0.72619599 21:0.233658 22:0.81784701 24:2.4698 # Flowers/Shape2/shape2-027.ppm
-1.6346380639172229394095320342828e-05 6:3.4877999 7:101.848 15:154.235 16:165.103 17:0.344262 19:0.242424 20:0.58273298 21:0.23333099 22:0.76671702 24:2.29371 # Flowers/Shape5/shape5-025.ppm
1.6346380639172229394095320342828e-05 6:3.3368399 7:111.622 15:152.14101 16:161.821 17:0.37681201 19:0.31034499 20:0.72968501 21:0.147626 22:0.76561201 24:1.79811 # Flowers/Shape2/shape2-036.ppm
-1.6346380639172229394095320342828e-05 6:3.3333299 7:108.884 15:145.40401 16:166.222 17:0.33333299 19:0.297297 20:0.58828503 21:0.39706999 22:1.03721 24:2.0999999 # Flowers/Shape5/shape5-019.ppm
1.6346380639172229394095320342828e-05 6:3.51402 7:100.532 15:152.86501 16:164.355 17:0.407895 19:0.320988 20:0.69680703 21:0.19897699 22:0.74190998 24:1.42287 # Flowers/Shape2/shape2-065.ppm
-1.6346380639172229394095320342828e-05 6:3.5 7:103.87 15:155.09 16:163.54201 17:0.4375 19:0.210526 20:0.58647901 21:0.22163101 22:0.73672497 24:2 # Flowers/Shape5/shape5-045.ppm
1.6346380639172229394095320342828e-05 6:3.3761499 7:110.375 15:148.63901 16:162.83299 17:0.415584 19:0.26744199 20:0.64098901 21:0.205102 22:0.79169202 24:1.48098 # Flowers/Shape2/shape2-083.ppm
-1.6346380639172229394095320342828e-05 6:3.3 7:106.659 15:150.414 16:164 17:0.36363599 19:0.17647099 20:0.53813702 21:0.31780899 22:0.89226198 24:1.51515 # Flowers/Shape5/shape5-042.ppm
1.6346380639172229394095320342828e-05 6:3.44068 7:102.789 15:153.62 16:163.84 17:0.47499999 19:0.29670301 20:0.54977 21:0.220935 22:0.85132802 24:1.4532 # Flowers/Shape2/shape2-038.ppm
-1.6346380639172229394095320342828e-05 6:3.68571 7:105.617 15:153.38901 16:166.207 17:0.42857099 19:0.186441 20:0.53583401 21:0.26533601 22:0.744699 24:2.1705401 # Flowers/Shape5/shape5-001.ppm
1.6346380639172229394095320342828e-05 6:3.3176501 7:108.274 15:151.27 16:165.185 17:0.41666701 19:0.268657 20:0.69539899 21:0.243319 22:0.85112602 24:2.71277 # Flowers/Shape2/shape2-006.ppm
-1.6346380639172229394095320342828e-05 6:3.3333299 7:108.968 15:153.991 16:163.48399 17:0.327869 19:0.265625 20:0.67176598 21:0.25287899 22:0.795959 24:2.7 # Flowers/Shape5/shape5-077.ppm
1.6346380639172229394095320342828e-05 6:3.5999999 7:104.292 15:151.026 16:163.64 17:0.369863 19:0.219512 20:0.64431202 21:0.19212399 22:0.68726999 24:1.94444 # Flowers/Shape2/shape2-044.ppm
-1.6346380639172229394095320342828e-05 6:3.67857 7:101.587 15:146.32401 16:159.55 17:0.555556 19:0.217391 20:0.58612698 21:0.29195601 22:0.79115599 24:1.35922 # Flowers/Shape5/shape5-021.ppm
1.6346380639172229394095320342828e-05 6:3.74843 7:111.519 15:159.114 16:168.59399 17:0.51428598 19:0.223077 20:0.80924499 21:0.135712 22:0.53652102 24:3.4681201 # Flowers/Shape2/shape2-072.ppm
-1.6346380639172229394095320342828e-05 6:3.4814799 7:109.368 15:155.38499 16:165.60001 17:0.42105299 19:0.208955 20:0.66574198 21:0.25068301 22:0.78771102 24:4.0212798 # Flowers/Shape5/shape5-016.ppm
1.6346380639172229394095320342828e-05 6:3.47191 7:106.173 15:148.16901 16:162.071 17:0.412698 19:0.28057599 20:0.70517701 21:0.149969 22:0.68433398 24:0.28802601 # Flowers/Shape2/shape2-007.ppm
-1.6346380639172229394095320342828e-05 6:3.7931001 7:105.379 15:153.937 16:166.267 17:0.52631599 19:0.208333 20:0.63816899 21:0.19983301 22:0.63356 24:3.16364 # Flowers/Shape5/shape5-074.ppm
1.6346380639172229394095320342828e-05 6:3.4307699 7:104.868 15:151.90199 16:163.5 17:0.444444 19:0.28712901 20:0.64171302 21:0.186079 22:0.76493299 24:2.04036 # Flowers/Shape2/shape2-077.ppm
-1.6346380639172229394095320342828e-05 6:3.5692301 7:105.305 15:149.34801 16:165.769 17:0.41304299 19:0.18181799 20:0.539621 21:0.276889 22:0.78255898 24:1.96121 # Flowers/Shape5/shape5-022.ppm
1.6346380639172229394095320342828e-05 6:3.38462 7:104.389 15:150.67 16:164.5 17:0.32653099 19:0.22641499 20:0.650024 21:0.182907 22:0.75787598 24:1.77273 # Flowers/Shape2/shape2-057.ppm
-1.6346380639172229394095320342828e-05 6:3.5999999 7:107.263 15:154.151 16:162.375 17:0.42857099 19:0.17647099 20:0.57322901 21:0.27661201 22:0.80936497 24:2.2222199 # Flowers/Shape5/shape5-006.ppm
1.6346380639172229394095320342828e-05 6:3.3675201 7:104.238 15:151.257 16:164.18201 17:0.5 19:0.32954499 20:0.70615202 21:0.19791999 22:0.7744 24:1.4847701 # Flowers/Shape2/shape2-002.ppm
-1.6346380639172229394095320342828e-05 6:3.5833299 7:104.192 15:150.638 16:166.16701 17:0.54838699 19:0.26315799 20:0.585208 21:0.36392701 22:0.94598001 24:2.2325599 # Flowers/Shape5/shape5-060.ppm
1.6346380639172229394095320342828e-05 6:3.38922 7:112.168 15:157.69701 16:166.42101 17:0.38016501 19:0.26515201 20:0.83212799 21:0.152624 22:0.70416898 24:3.24558 # Flowers/Shape2/shape2-033.ppm
-1.6346380639172229394095320342828e-05 6:3.90361 7:108.336 15:158.00301 16:163.125 17:0.383333 19:0.18571401 20:0.65247899 21:0.185305 22:0.52465397 24:4.3549399 # Flowers/Shape5/shape5-079.ppm
1.6346380639172229394095320342828e-05 6:3.32039 7:101.301 15:152.537 16:165.444 17:0.32051301 19:0.17045499 20:0.60265398 21:0.232189 22:0.81089699 24:0.90350902 # Flowers/Shape2/shape2-080.ppm
-1.6346380639172229394095320342828e-05 6:3.66292 7:104.312 15:152.39301 16:166.172 17:0.36923099 19:0.236111 20:0.59100902 21:0.199132 22:0.66505998 24:2.7300601 # Flowers/Shape5/shape5-085.ppm
1.6346380639172229394095320342828e-05 6:3.3798399 7:108.14 15:150.47099 16:160.478 17:0.35789499 19:0.26470599 20:0.64677399 21:0.18481401 22:0.76419902 24:1.18349 # Flowers/Shape2/shape2-037.ppm
-1.6346380639172229394095320342828e-05 6:3.8387101 7:106.227 15:148.211 16:157.31799 17:0.67567599 19:0.21568599 20:0.59534502 21:0.25566301 22:0.69183099 24:1.56303 # Flowers/Shape5/shape5-041.ppm
1.6346380639172229394095320342828e-05 6:3.32039 7:101.301 15:152.537 16:165.444 17:0.32051301 19:0.17045499 20:0.60265398 21:0.232189 22:0.81089699 24:0.90350902 # Flowers/Shape2/shape2-081.ppm
-1.6346380639172229394095320342828e-05 6:3.46154 7:103.25 15:154.336 16:164.577 17:0.30000001 19:0.18181799 20:0.56601799 21:0.30867299 22:0.90120697 24:2.5999999 # Flowers/Shape5/shape5-047.ppm
1.6346380639172229394095320342828e-05 6:3.4518499 7:110.048 15:154.233 16:161 17:0.46739101 19:0.31068 20:0.78661901 21:0.171506 22:0.69750297 24:1.7381999 # Flowers/Shape2/shape2-054.ppm
-1.6346380639172229394095320342828e-05 6:3.3494 7:106.944 15:155 16:164.92 17:0.296875 19:0.18571401 20:0.54305899 21:0.244323 22:0.83711702 24:3.5827301 # Flowers/Shape5/shape5-010.ppm
1.6346380639172229394095320342828e-05 6:3.5151501 7:105.443 15:152.80499 16:162.60699 17:0.466667 19:0.31999999 20:0.65101498 21:0.180049 22:0.74423301 24:1.42241 # Flowers/Shape2/shape2-097.ppm
-1.6346380639172229394095320342828e-05 6:3.3461499 7:108.811 15:151.588 16:157.68201 17:0.30000001 19:0.20930199 20:0.56478298 21:0.331173 22:0.97518098 24:2.6896601 # Flowers/Shape5/shape5-087.ppm
1.6346380639172229394095320342828e-05 6:3.6134501 7:104.643 15:150.481 16:164.414 17:0.48750001 19:0.265957 20:0.70170999 21:0.175043 22:0.65323001 24:1.10698 # Flowers/Shape2/shape2-004.ppm
-1.6346380639172229394095320342828e-05 6:3.4347799 7:102.571 15:149.55299 16:163.66701 17:0.48387101 19:0.24324299 20:0.58836502 21:0.38728601 22:1.00984 24:2.0379701 # Flowers/Shape5/shape5-040.ppm
1.6346380639172229394095320342828e-05 6:3.1194 7:107.313 15:154.77 16:159.739 17:0.32673299 19:0.26415101 20:0.637519 21:0.20483699 22:0.89365101 24:0.96172202 # Flowers/Shape2/shape2-001.ppm
-1.6346380639172229394095320342828e-05 6:3.7471299 7:108.95 15:150.50301 16:163.258 17:0.42623001 19:0.191781 20:0.6426 21:0.198431 22:0.63192302 24:3.4693301 # Flowers/Shape5/shape5-013.ppm
1.6346380639172229394095320342828e-05 6:3.48276 7:105.427 15:150.92599 16:162.286 17:0.36470601 19:0.195876 20:0.62070799 21:0.194554 22:0.67753202 24:0.861386 # Flowers/Shape2/shape2-061.ppm
-1.6346380639172229394095320342828e-05 6:3.82353 7:104.562 15:155.35001 16:157.5 17:0.78947401 19:0.23636401 20:0.51180899 21:0.27203801 22:0.807504 24:2.09231 # Flowers/Shape5/shape5-036.ppm
1.6346380639172229394095320342828e-05 6:3.4465401 7:109.051 15:150.03 16:164.66701 17:0.432432 19:0.32499999 20:0.788809 21:0.154089 22:0.72378498 24:2.0310199 # Flowers/Shape2/shape2-069.ppm
-1.6346380639172229394095320342828e-05 6:3.5999999 7:102.203 15:148.935 16:164.72 17:0.45833299 19:0.186441 20:0.547158 21:0.244574 22:0.68794698 24:2.5 # Flowers/Shape5/shape5-062.ppm
1.6346380639172229394095320342828e-05 6:3.36765 7:107.637 15:156.61099 16:162.16701 17:0.402062 19:0.23636401 20:0.64065498 21:0.188421 22:0.815368 24:1.18777 # Flowers/Shape2/shape2-022.ppm
-1.6346380639172229394095320342828e-05 6:4.0425501 7:106.171 15:156.08299 16:165.269 17:0.253333 19:0.160494 20:0.66531098 21:0.167022 22:0.47512099 24:4.45263 # Flowers/Shape5/shape5-039.ppm
1.6346380639172229394095320342828e-05 6:3.5539601 7:106.459 15:152.289 16:164.92 17:0.37623799 19:0.31132099 20:0.65337002 21:0.168052 22:0.69326001 24:1.40688 # Flowers/Shape2/shape2-016.ppm
-1.6346380639172229394095320342828e-05 6:3.9130399 7:110.146 15:152.74899 16:161.45799 17:0.35294101 19:0.179487 20:0.66444898 21:0.176027 22:0.50155002 24:4.34444 # Flowers/Shape5/shape5-099.ppm
1.6346380639172229394095320342828e-05 6:3.27473 7:109.261 15:151.39101 16:163.161 17:0.410853 19:0.33823499 20:0.72082102 21:0.16082899 22:0.83529502 24:1.8322099 # Flowers/Shape2/shape2-056.ppm
-1.6346380639172229394095320342828e-05 6:3.6774199 7:105.247 15:152.18201 16:163.58299 17:0.31914899 19:0.169811 20:0.57804698 21:0.25736201 22:0.75993299 24:2.99123 # Flowers/Shape5/shape5-067.ppm
1.6346380639172229394095320342828e-05 6:3.1860499 7:109.053 15:153.054 16:164.51601 17:0.283582 19:0.21126799 20:0.71143502 21:0.22683699 22:0.79201502 24:2.1970799 # Flowers/Shape2/shape2-047.ppm
-1.6346380639172229394095320342828e-05 6:3.4461501 7:112.296 15:157.123 16:157.688 17:0.41304299 19:0.27451 20:0.343483 21:0.37662399 22:0.98084903 24:4.9330401 # Flowers/Shape5/shape5-017.ppm
1.6346380639172229394095320342828e-05 6:3.4955001 7:104.906 15:153.491 16:166.07401 17:0.47999999 19:0.29069799 20:0.697065 21:0.19080099 22:0.71417803 24:1.14433 # Flowers/Shape2/shape2-085.ppm
-1.6346380639172229394095320342828e-05 6:3.88889 7:104.912 15:155.485 16:165.769 17:0.45161301 19:0.16883101 20:0.65786201 21:0.182907 22:0.52048498 24:4.3714299 # Flowers/Shape5/shape5-018.ppm
1.6346380639172229394095320342828e-05 6:3.42857 7:108.366 15:154.899 16:161.79201 17:0.28735599 19:0.142857 20:0.60424203 21:0.199688 22:0.64488298 24:0.58333302 # Flowers/Shape2/shape2-099.ppm
-1.6346380639172229394095320342828e-05 6:3.8461499 7:105.421 15:150.668 16:164.586 17:0.421875 19:0.213333 20:0.63691902 21:0.193257 22:0.61872202 24:3.9000001 # Flowers/Shape5/shape5-094.ppm
1.6346380639172229394095320342828e-05 6:3.7160499 7:110.266 15:153.88699 16:164.545 17:0.48623899 19:0.236641 20:0.80798101 21:0.137417 22:0.543006 24:2.1528201 # Flowers/Shape2/shape2-052.ppm
-1.6346380639172229394095320342828e-05 6:3.54217 7:106.66 15:148.241 16:162.33299 17:0.33871001 19:0.16901401 20:0.624304 21:0.21259899 22:0.69315797 24:3.6700699 # Flowers/Shape5/shape5-090.ppm
1.6346380639172229394095320342828e-05 6:3.35922 7:102.967 15:155.382 16:167.289 17:0.39189199 19:0.28749999 20:0.769059 21:0.196863 22:0.74831599 24:0.89306402 # Flowers/Shape2/shape2-066.ppm
-1.6346380639172229394095320342828e-05 6:3.48718 7:103.572 15:155.65401 16:162.41701 17:0.36842099 19:0.164179 20:0.53373301 21:0.25667301 22:0.87484801 24:3.1544099 # Flowers/Shape5/shape5-031.ppm
1.6346380639172229394095320342828e-05 6:3.3260901 7:109.407 15:150.84801 16:164.452 17:0.41538501 19:0.210526 20:0.73094797 21:0.213208 22:0.73295099 24:1.80392 # Flowers/Shape2/shape2-067.ppm
-1.6346380639172229394095320342828e-05 6:3.5733299 7:102.176 15:152.271 16:164.56 17:0.44230801 19:0.190476 20:0.61533302 21:0.23123699 22:0.80827397 24:3.3582101 # Flowers/Shape5/shape5-069.ppm
1.6346380639172229394095320342828e-05 6:3.2381001 7:109.564 15:150.856 16:163.83299 17:0.43181801 19:0.3125 20:0.6846 21:0.16733401 22:0.83624899 24:1.54412 # Flowers/Shape2/shape2-076.ppm
-1.6346380639172229394095320342828e-05 6:3.88764 7:106.747 15:156.448 16:161.05 17:0.36923099 19:0.186667 20:0.66313702 21:0.18708199 22:0.53135902 24:4.1156101 # Flowers/Shape5/shape5-059.ppm
1.6346380639172229394095320342828e-05 6:3.3662 7:108.488 15:152.32201 16:163.75 17:0.37864101 19:0.29090899 20:0.63531703 21:0.18446501 22:0.80561298 24:1.18828 # Flowers/Shape2/shape2-062.ppm
-1.6346380639172229394095320342828e-05 6:3.5185201 7:111.044 15:146.59399 16:157.091 17:0.285714 19:0.148936 20:0.58310997 21:0.26946601 22:0.74047798 24:3.97895 # Flowers/Shape5/shape5-000.ppm
1.6346380639172229394095320342828e-05 6:3.3605399 7:106.576 15:154.44099 16:165.16 17:0.37383199 19:0.25641 20:0.652821 21:0.17922901 22:0.77848899 24:0.89271301 # Flowers/Shape2/shape2-042.ppm
-1.6346380639172229394095320342828e-05 6:3.46067 7:103.352 15:153.735 16:161 17:0.390625 19:0.155844 20:0.62697202 21:0.215795 22:0.74683601 24:2.6006501 # Flowers/Shape5/shape5-029.ppm
1.6346380639172229394095320342828e-05 6:3.2888899 7:109.85 15:150.373 16:163.38699 17:0.44 19:0.30434799 20:0.72898299 21:0.156552 22:0.81346101 24:1.21622 # Flowers/Shape2/shape2-015.ppm
-1.6346380639172229394095320342828e-05 6:3.62222 7:106.034 15:155.41 16:161 17:0.36363599 19:0.16883101 20:0.64886802 21:0.201336 22:0.61921299 24:4.1410999 # Flowers/Shape5/shape5-054.ppm
1.6346380639172229394095320342828e-05 6:3.2418301 7:109.625 15:160.013 16:162 17:0.353982 19:0.233871 20:0.69818997 21:0.16696499 22:0.74079198 24:0.925403 # Flowers/Shape2/shape2-071.ppm
-1.6346380639172229394095320342828e-05 6:3.7910399 7:108.348 15:156.444 16:156.619 17:0.48888901 19:0.196429 20:0.59398198 21:0.239733 22:0.62289798 24:3.16535 # Flowers/Shape5/shape5-024.ppm
1.6346380639172229394095320342828e-05 6:3.51402 7:106.126 15:153.658 16:165.778 17:0.44594601 19:0.188889 20:0.61604899 21:0.211189 22:0.73272401 24:0.85372299 # Flowers/Shape2/shape2-040.ppm
-1.6346380639172229394095320342828e-05 6:3.5824201 7:105.004 15:155.177 16:162.70799 17:0.444444 19:0.166667 20:0.539406 21:0.216535 22:0.74219197 24:5.0245399 # Flowers/Shape5/shape5-091.ppm
1.6346380639172229394095320342828e-05 6:3.51402 7:106.126 15:153.658 16:165.778 17:0.44594601 19:0.188889 20:0.61604899 21:0.211189 22:0.73272401 24:0.85372299 # Flowers/Shape2/shape2-041.ppm
-1.6346380639172229394095320342828e-05 6:3.5211301 7:107.983 15:148.688 16:161.043 17:0.31481501 19:0.16393401 20:0.57290202 21:0.236011 22:0.68771702 24:4.8280001 # Flowers/Shape5/shape5-026.ppm
1.6346380639172229394095320342828e-05 6:3.32867 7:108.474 15:153.937 16:164.03 17:0.401961 19:0.34905699 20:0.72791201 21:0.170948 22:0.81866699 24:0.60083997 # Flowers/Shape2/shape2-030.ppm
-1.6346380639172229394095320342828e-05 6:3.5529399 7:103.055 15:154.192 16:162.5 17:0.41666701 19:0.180556 20:0.54371899 21:0.231621 22:0.78945798 24:3.9403999 # Flowers/Shape5/shape5-051.ppm
1.6346380639172229394095320342828e-05 6:3.37572 7:109.316 15:151.004 16:164.71001 17:0.384 19:0.235714 20:0.69360399 21:0.155304 22:0.700818 24:1.18493 # Flowers/Shape2/shape2-091.ppm
-1.6346380639172229394095320342828e-05 6:3.90909 7:104.396 15:149.32201 16:160.478 17:0.466667 19:0.137931 20:0.59253401 21:0.237315 22:0.61861002 24:2.8139501 # Flowers/Shape5/shape5-084.ppm
1.6346380639172229394095320342828e-05 6:3.57377 7:107.889 15:151.23199 16:165.556 17:0.45238101 19:0.22 20:0.62487102 21:0.19089501 22:0.66314 24:1.11927 # Flowers/Shape2/shape2-020.ppm
-1.6346380639172229394095320342828e-05 6:3.5 7:104.886 15:158.08701 16:160.13 17:0.44827601 19:0.2 20:0.63980502 21:0.218931 22:0.67872202 24:3.7142899 # Flowers/Shape5/shape5-007.ppm
1.6346380639172229394095320342828e-05 6:3.57377 7:107.889 15:151.23199 16:165.556 17:0.45238101 19:0.22 20:0.62487102 21:0.19089501 22:0.66314 24:1.11927 # Flowers/Shape2/shape2-060.ppm
-1.6346380639172229394095320342828e-05 6:3.6470599 7:100.111 15:148.78 16:164.5 17:0.51785702 19:0.197183 20:0.62772799 21:0.219778 22:0.72027099 24:3.5645199 # Flowers/Shape5/shape5-070.ppm
1.6346380639172229394095320342828e-05 6:3.5478301 7:108.416 15:155.925 16:163.5 17:0.575342 19:0.277778 20:0.77842402 21:0.179047 22:0.68101698 24:0.281863 # Flowers/Shape2/shape2-026.ppm
-1.6346380639172229394095320342828e-05 6:3.3513501 7:108.354 15:153.155 16:157 17:0.27586201 19:0.23333301 20:0.585118 21:0.26455599 22:0.87711698 24:3.2822599 # Flowers/Shape5/shape5-083.ppm
1.6346380639172229394095320342828e-05 6:3.5483899 7:107.563 15:157.312 16:164.52 17:0.29166701 19:0.148148 20:0.61127698 21:0.174713 22:0.56459999 24:0.563636 # Flowers/Shape2/shape2-059.ppm
-1.6346380639172229394095320342828e-05 6:3.67273 7:102.224 15:154.892 16:161.34801 17:0.447368 19:0.19565199 20:0.59330398 21:0.27884299 22:0.72893298 24:3.2673299 # Flowers/Shape5/shape5-003.ppm
1.6346380639172229394095320342828e-05 6:3.3053899 7:109.927 15:150.077 16:163.452 17:0.35772401 19:0.28461501 20:0.69894201 21:0.16028599 22:0.73375201 24:0.30253601 # Flowers/Shape2/shape2-088.ppm
-1.6346380639172229394095320342828e-05 6:3.32075 7:109.951 15:146.855 16:157.05299 17:0.20454501 19:0.152174 20:0.57606298 21:0.30366299 22:0.822891 24:3.9147699 # Flowers/Shape5/shape5-081.ppm
1.6346380639172229394095320342828e-05 6:3.2349 7:107.231 15:152.08701 16:166.314 17:0.41904801 19:0.366972 20:0.73566699 21:0.17029899 22:0.816019 24:0.92738599 # Flowers/Shape2/shape2-009.ppm
-1.6346380639172229394095320342828e-05 6:3.62712 7:103.8 15:151.808 16:161.34801 17:0.439024 19:0.229167 20:0.59451801 21:0.262445 22:0.688802 24:3.8598101 # Flowers/Shape5/shape5-044.ppm
1.6346380639172229394095320342828e-05 6:3.31126 7:109.659 15:152.42101 16:164.515 17:0.438095 19:0.26890799 20:0.73121202 21:0.162324 22:0.77514702 24:0.90600002 # Flowers/Shape2/shape2-050.ppm
-1.6346380639172229394095320342828e-05 6:3.63415 7:106.56 15:145.63 16:160.13 17:0.366667 19:0.18840601 20:0.62454998 21:0.22031599 22:0.71848297 24:4.1275201 # Flowers/Shape5/shape5-009.ppm
1.6346380639172229394095320342828e-05 6:3.2765999 7:108.682 15:154.27499 16:164.758 17:0.46875 19:0.27026999 20:0.76173902 21:0.213302 22:0.81113201 24:0.61039001 # Flowers/Shape2/shape2-005.ppm
-1.6346380639172229394095320342828e-05 6:3.8133299 7:106.052 15:151.48801 16:157.312 17:0.470588 19:0.25 20:0.51130903 21:0.25304699 22:0.75259 24:2.0978999 # Flowers/Shape5/shape5-056.ppm
1.6346380639172229394095320342828e-05 6:3.3503201 7:110.486 15:149.907 16:165.2 17:0.41441399 19:0.377193 20:0.68864298 21:0.169655 22:0.77909797 24:1.19392 # Flowers/Shape2/shape2-068.ppm
-1.6346380639172229394095320342828e-05 6:3.5522399 7:112.421 15:153.599 16:155.39999 17:0.45652199 19:0.240741 20:0.34926999 21:0.350703 22:0.91556501 24:5.3487401 # Flowers/Shape5/shape5-058.ppm
1.6346380639172229394095320342828e-05 6:3.30357 7:109.725 15:149.22099 16:166 17:0.41772199 19:0.244444 20:0.64992499 21:0.199683 22:0.76954597 24:1.2108099 # Flowers/Shape2/shape2-023.ppm
-1.6346380639172229394095320342828e-05 6:3.5824201 7:103.115 15:144.74899 16:161.25 17:0.31884101 19:0.166667 20:0.62893701 21:0.20969801 22:0.68509001 24:2.79141 # Flowers/Shape5/shape5-030.ppm
1.6346380639172229394095320342828e-05 6:3.54967 7:110.197 15:155.33299 16:165.444 17:0.466019 19:0.279661 20:0.78595501 21:0.14935701 22:0.60508698 24:2.2537301 # Flowers/Shape2/shape2-074.ppm
-1.6346380639172229394095320342828e-05 6:3.6226399 7:108.489 15:153.144 16:156.5 17:0.35897401 19:0.17777801 20:0.58197898 21:0.272163 22:0.73685199 24:3.5885401 # Flowers/Shape5/shape5-020.ppm
1.6346380639172229394095320342828e-05 6:3.2077899 7:108.929 15:148.203 16:166.51401 17:0.36283201 19:0.26229501 20:0.73453403 21:0.165316 22:0.79861599 24:0.93522298 # Flowers/Shape2/shape2-090.ppm
-1.6346380639172229394095320342828e-05 6:3.68293 7:105.914 15:153.72099 16:157.409 17:0.38983101 19:0.17142899 20:0.61886102 21:0.209406 22:0.72386801 24:3.25828 # Flowers/Shape5/shape5-008.ppm
1.6346380639172229394095320342828e-05 6:3.55 7:108.399 15:155.328 16:165.11501 17:0.33333299 19:0.142857 20:0.61739397 21:0.17465501 22:0.563366 24:0.56338 # Flowers/Shape2/shape2-039.ppm
-1.6346380639172229394095320342828e-05 6:3.3793099 7:104.647 15:149.842 16:158.591 17:0.380952 19:0.16 20:0.63287997 21:0.219374 22:0.771438 24:2.9591801 # Flowers/Shape5/shape5-089.ppm
1.6346380639172229394095320342828e-05 6:3.3664601 7:108.942 15:155.442 16:165.069 17:0.364407 19:0.248062 20:0.69570601 21:0.15757699 22:0.70783502 24:0.89114398 # Flowers/Shape2/shape2-051.ppm
-1.6346380639172229394095320342828e-05 6:3.6896601 7:108.474 15:149.46201 16:157.27299 17:0.34883699 19:0.208333 20:0.56213897 21:0.26298299 22:0.75525099 24:4.0654202 # Flowers/Shape5/shape5-005.ppm
1.6346380639172229394095320342828e-05 6:3.3333299 7:110.19 15:150.799 16:165.448 17:0.34482801 19:0.238095 20:0.69833302 21:0.16062699 22:0.72157699 24:1.2 # Flowers/Shape2/shape2-010.ppm
-1.6346380639172229394095320342828e-05 6:3.3513501 7:100.356 15:148.66 16:160.25 17:0.76190501 19:0.42307699 20:0.56663698 21:0.42717701 22:1.1492701 24:1.79032 # Flowers/Shape5/shape5-061.ppm
1.6346380639172229394095320342828e-05 6:3.19786 7:109.633 15:153.62199 16:165.33299 17:0.41666701 19:0.395522 20:0.781003 21:0.155572 22:0.82215202 24:0.93812698 # Flowers/Shape2/shape2-014.ppm
-1.6346380639172229394095320342828e-05 6:3.6716399 7:102.38 15:149.36 16:160.8 17:0.42553201 19:0.175439 20:0.57459003 21:0.243527 22:0.70464802 24:4.3577199 # Flowers/Shape5/shape5-046.ppm
1.6346380639172229394095320342828e-05 6:3.3599999 7:110.958 15:153.194 16:165.14799 17:0.35135099 19:0.17647099 20:0.606695 21:0.217445 22:0.75093901 24:1.19048 # Flowers/Shape2/shape2-019.ppm
-1.6346380639172229394095320342828e-05 6:3.76667 7:101.916 15:150.543 16:160.2 17:0.395349 19:0.22449 20:0.59658098 21:0.25915399 22:0.676907 24:3.71681 # Flowers/Shape5/shape5-064.ppm
1.6346380639172229394095320342828e-05 6:3.3599999 7:110.958 15:153.194 16:165.14799 17:0.35135099 19:0.17647099 20:0.606695 21:0.217445 22:0.75093901 24:1.19048 # Flowers/Shape2/shape2-021.ppm
-1.6346380639172229394095320342828e-05 6:3.4166701 7:107.172 15:153.785 16:154.70599 17:0.33333299 19:0.26315799 20:0.55436099 21:0.341443 22:0.94387901 24:2.34146 # Flowers/Shape5/shape5-052.ppm
1.6346380639172229394095320342828e-05 6:3.2597401 7:109.664 15:154.494 16:165.767 17:0.33913001 19:0.222222 20:0.69715399 21:0.168038 22:0.75855201 24:1.22709 # Flowers/Shape2/shape2-031.ppm
-1.6346380639172229394095320342828e-05 6:3.64516 7:103.036 15:140.164 16:162 17:0.31914899 19:0.19230799 20:0.56647301 21:0.24381 22:0.70899999 24:4.1150398 # Flowers/Shape5/shape5-066.ppm
1.6346380639172229394095320342828e-05 6:3.4054101 7:109.056 15:157.28 16:165.033 17:0.405063 19:0.23333301 20:0.77426201 21:0.18238699 22:0.690799 24:0.29365101 # Flowers/Shape2/shape2-046.ppm
-1.6346380639172229394095320342828e-05 6:3.5211301 7:109.441 15:159.89999 16:152.66701 17:0.39215699 19:0.26785699 20:0.348418 21:0.343896 22:0.88900697 24:5.112 # Flowers/Shape5/shape5-098.ppm
1.6346380639172229394095320342828e-05 6:3.22613 7:108.285 15:153.797 16:166.974 17:0.442029 19:0.36301401 20:0.78401703 21:0.149755 22:0.78667599 24:0.92990702 # Flowers/Shape2/shape2-035.ppm
-1.6346380639172229394095320342828e-05 6:3.825 7:106.496 15:149.603 16:156.545 17:0.45454499 19:0.17647099 20:0.62842703 21:0.204827 22:0.63893902 24:4.1830101 # Flowers/Shape5/shape5-028.ppm
1.6346380639172229394095320342828e-05 6:3.47826 7:113.915 15:155.765 16:163.66701 17:0.38793099 19:0.28799999 20:0.797629 21:0.149854 22:0.61009598 24:1.725 # Flowers/Shape2/shape2-013.ppm
-1.6346380639172229394095320342828e-05 6:3.38462 7:109.916 15:154.49001 16:152.533 17:0.32653099 19:0.25 20:0.34773999 21:0.385337 22:1.00552 24:4.4318199 # Flowers/Shape5/shape5-038.ppm
1.6346380639172229394095320342828e-05 6:3.2381001 7:109.411 15:151.47301 16:167.257 17:0.45384601 19:0.359712 20:0.77538699 21:0.15551201 22:0.81839699 24:0.92647099 # Flowers/Shape2/shape2-055.ppm
-1.6346380639172229394095320342828e-05 6:3.5941999 7:103.648 15:145.01801 16:158.364 17:0.38 19:0.18965501 20:0.56958199 21:0.24854299 22:0.72069502 24:4.1733899 # Flowers/Shape5/shape5-086.ppm
1.6346380639172229394095320342828e-05 6:3.6024101 7:110.113 15:157.82899 16:165.85201 17:0.48214301 19:0.24811999 20:0.79156297 21:0.14282601 22:0.57784402 24:1.94314 # Flowers/Shape2/shape2-094.ppm
-1.6346380639172229394095320342828e-05 6:3.6315801 7:104.159 15:148.084 16:156.095 17:0.51999998 19:0.169231 20:0.61795002 21:0.229554 22:0.71840298 24:2.7536199 # Flowers/Shape5/shape5-048.ppm
1.6346380639172229394095320342828e-05 6:3.26316 7:112.34 15:152.97099 16:166.14799 17:0.37681201 19:0.35714301 20:0.68469697 21:0.166071 22:0.83108801 24:1.83871 # Flowers/Shape2/shape2-096.ppm
-1.6346380639172229394095320342828e-05 6:3.5820899 7:104.26 15:153.5 16:153.842 17:0.39583299 19:0.26415101 20:0.573156 21:0.26728499 22:0.884565 24:2.23333 # Flowers/Shape5/shape5-063.ppm
1.6346380639172229394095320342828e-05 6:3.4915299 7:108.465 15:156.601 16:168.02499 17:0.45082 19:0.246479 20:0.83471203 21:0.14885999 22:0.68300402 24:2.86408 # Flowers/Shape2/shape2-053.ppm
-1.6346380639172229394095320342828e-05 6:3.7249999 7:103.266 15:147.01601 16:156.81799 17:0.53846198 19:0.15942 20:0.62297702 21:0.213111 22:0.665883 24:3.4899299 # Flowers/Shape5/shape5-068.ppm
1.6346380639172229394095320342828e-05 6:3.2745099 7:108.069 15:155.808 16:167.647 17:0.30769199 19:0.2 20:0.76258999 21:0.196409 22:0.74874401 24:0.30538899 # Flowers/Shape2/shape2-086.ppm
-1.6346380639172229394095320342828e-05 6:3.55814 7:104.159 15:142.528 16:156.909 17:0.34375 19:0.16216201 20:0.623366 21:0.202914 22:0.664285 24:3.65359 # Flowers/Shape5/shape5-050.ppm
1.6346380639172229394095320342828e-05 6:3.5326099 7:109.303 15:156.278 16:167.64999 17:0.41538501 19:0.251701 20:0.84005499 21:0.14175899 22:0.65636897 24:1.69846 # Flowers/Shape2/shape2-012.ppm
-1.6346380639172229394095320342828e-05 6:3.26087 7:104.269 15:148.851 16:154.118 17:0.31428599 19:0.210526 20:0.56058103 21:0.358998 22:0.97941202 24:3.0666699 # Flowers/Shape5/shape5-032.ppm
1.6346380639172229394095320342828e-05 6:3.29949 7:107.744 15:152.67999 16:169.66701 17:0.47014901 19:0.368056 20:0.77968299 21:0.15110099 22:0.79471302 24:0.60615402 # Flowers/Shape2/shape2-075.ppm
-1.6346380639172229394095320342828e-05 6:3.64516 7:103.463 15:143.896 16:155.211 17:0.51219499 19:0.21568599 20:0.49302399 21:0.307704 22:1.03326 24:1.6460201 # Flowers/Shape5/shape5-002.ppm
1.6346380639172229394095320342828e-05 6:3.2198601 7:107.562 15:156.509 16:168.688 17:0.41 19:0.36893201 20:0.690045 21:0.190496 22:0.85630703 24:0.93171799 # Flowers/Shape2/shape2-048.ppm
-1.6346380639172229394095320342828e-05 6:3.2432401 7:97.216904 15:150.263 16:154 17:0.32142901 19:0.37037 20:0.54798901 21:0.416511 22:1.14183 24:3.7 # Flowers/Shape5/shape5-011.ppm
1.6346380639172229394095320342828e-05 6:3.2973001 7:110.118 15:158.75999 16:168.71899 17:0.39622599 19:0.32142901 20:0.73955798 21:0.168954 22:0.80278599 24:0.60655701 # Flowers/Shape2/shape2-070.ppm
