SVM-light Version V6.02
0 # kernel type
3 # kernel parameter -d 
1 # kernel parameter -g 
1 # kernel parameter -s 
1 # kernel parameter -r 
empty# kernel parameter -u 
24 # highest feature index 
195 # number of training documents 
194 # number of support vectors plus 1 
1.3753405 # threshold b, each following line is a SV (starting with alpha*y)
-1.6025421385134274929185060898362e-05 6:3.6134501 7:104.643 15:150.481 16:164.414 17:0.48750001 19:0.265957 20:0.70170999 21:0.175043 22:0.65323001 24:1.10698 # Flowers/Shape2/shape2-004.ppm
1.6025421385134274929185060898362e-05 6:3.6666701 7:107.402 15:155.845 16:166.605 17:0.40000001 19:0.235294 20:0.84977502 21:0.25397199 22:0.62661999 24:4.90909 # Flowers/Shape1/shape1-000.ppm
-1.6025421385134274929185060898362e-05 6:3.54795 7:109.683 15:168.089 16:167.32401 17:0.431373 19:0.237288 20:0.81743997 21:0.150794 22:0.58362198 24:2.2548299 # Flowers/Shape2/shape2-011.ppm
1.6025421385134274929185060898362e-05 6:3.3898301 7:104.794 15:145.89101 16:157.562 17:0.37209299 19:0.404762 20:0.583121 21:0.311887 22:1.04597 24:2.95 # Flowers/Shape1/shape1-084.ppm
-1.6025421385134274929185060898362e-05 6:3.3368399 7:111.622 15:152.14101 16:161.821 17:0.37681201 19:0.31034499 20:0.72968501 21:0.147626 22:0.76561201 24:1.79811 # Flowers/Shape2/shape2-036.ppm
1.6025421385134274929185060898362e-05 6:3.95349 7:108.529 15:169.545 16:172.061 17:0.482759 19:0.16216201 20:0.813241 21:0.17224 22:0.435303 24:1.7705899 # Flowers/Shape1/shape1-055.ppm
-1.6025421385134274929185060898362e-05 6:3.6347799 7:105.525 15:164.582 16:165.24001 17:0.47435901 19:0.18556701 20:0.61217302 21:0.18482301 22:0.58805299 24:1.92584 # Flowers/Shape2/shape2-018.ppm
1.6025421385134274929185060898362e-05 6:3.8309901 7:106.229 15:139.30701 16:168.688 17:0.44898 19:0.16393401 20:0.64651197 21:0.209958 22:0.594383 24:5.4816198 # Flowers/Shape1/shape1-069.ppm
-1.6025421385134274929185060898362e-05 6:3.28916 7:106.674 15:139.254 16:163.774 17:0.45614001 19:0.267176 20:0.79848999 21:0.15955301 22:0.77013803 24:1.21612 # Flowers/Shape2/shape2-089.ppm
1.6025421385134274929185060898362e-05 6:3.1698101 7:114.339 15:157.77699 16:155.68401 17:0.32499999 19:0.472222 20:0.57155299 21:0.34956399 22:1.16238 24:2.8392899 # Flowers/Shape1/shape1-044.ppm
-1.6025421385134274929185060898362e-05 6:3.5344801 7:103.837 15:163.64799 16:163 17:0.46835399 19:0.27472499 20:0.71675903 21:0.179735 22:0.65791202 24:1.69756 # Flowers/Shape2/shape2-025.ppm
1.6025421385134274929185060898362e-05 6:3.94872 7:104.852 15:142.381 16:166.31599 17:0.444444 19:0.14705899 20:0.79723901 21:0.267104 22:0.64223701 24:4.8116899 # Flowers/Shape1/shape1-046.ppm
-1.6025421385134274929185060898362e-05 6:3.3896101 7:109.068 15:138.952 16:162.903 17:0.43925199 19:0.40000001 20:0.78330898 21:0.16484401 22:0.79355198 24:1.4751 # Flowers/Shape2/shape2-049.ppm
1.6025421385134274929185060898362e-05 6:4.1728401 7:114.778 15:167.173 16:174.38499 17:0.285714 19:0.157143 20:0.812536 21:0.174567 22:0.445499 24:2.39645 # Flowers/Shape1/shape1-035.ppm
-1.6025421385134274929185060898362e-05 6:3.74843 7:111.519 15:159.114 16:168.59399 17:0.51428598 19:0.223077 20:0.80924499 21:0.135712 22:0.53652102 24:3.4681201 # Flowers/Shape2/shape2-072.ppm
1.6025421385134274929185060898362e-05 6:3.2363601 7:110.089 15:150.40601 16:154.158 17:0.375 19:0.447368 20:0.57317197 21:0.34328699 22:1.15923 24:2.47191 # Flowers/Shape1/shape1-064.ppm
-1.6025421385134274929185060898362e-05 6:3.38922 7:112.168 15:157.69701 16:166.42101 17:0.38016501 19:0.26515201 20:0.83212799 21:0.152624 22:0.70416898 24:3.24558 # Flowers/Shape2/shape2-033.ppm
1.6025421385134274929185060898362e-05 6:3.94118 7:100.62 15:144.759 16:167.619 17:0.47826099 19:0.172414 20:0.796983 21:0.28902999 22:0.69507301 24:4.3134298 # Flowers/Shape1/shape1-026.ppm
-3.3840973426291220960138161899522e-10 6:3.3636401 7:108.971 15:140.522 16:160.91299 17:0.41935501 19:0.33333299 20:0.79763103 21:0.15143 22:0.72110701 24:0.89189202 # Flowers/Shape2/shape2-029.ppm
1.6025421385134274929185060898362e-05 6:3.8684199 7:109.188 15:157.683 16:174.522 17:0.43396199 19:0.15151501 20:0.81069601 21:0.19266701 22:0.50383198 24:1.55102 # Flowers/Shape1/shape1-075.ppm
-1.6025421385134274929185060898362e-05 6:3.6213 7:107.2 15:157.61 16:169.03101 17:0.42016801 19:0.224638 20:0.80964601 21:0.13545699 22:0.53299397 24:4.1421599 # Flowers/Shape2/shape2-032.ppm
1.6025421385134274929185060898362e-05 6:3.34694 7:106.183 15:155.661 16:153.11099 17:0.40000001 19:0.441176 20:0.56524497 21:0.35819301 22:1.19112 24:2.9877999 # Flowers/Shape1/shape1-024.ppm
-1.6025421385134274929185060898362e-05 6:3.4677401 7:104.094 15:159.13 16:160.409 17:0.47619 19:0.31914899 20:0.55901098 21:0.204509 22:0.77801502 24:2.0186 # Flowers/Shape2/shape2-078.ppm
1.6025421385134274929185060898362e-05 6:3.7377 7:106.617 15:143.714 16:171.04401 17:0.29787201 19:0.173077 20:0.86197102 21:0.19865701 22:0.52351803 24:4.2807002 # Flowers/Shape1/shape1-079.ppm
-1.6025421385134274929185060898362e-05 6:3.5 7:107.371 15:151.05499 16:164.8 17:0.297297 19:0.21518999 20:0.65366298 21:0.202114 22:0.72413403 24:3.7142899 # Flowers/Shape2/shape2-024.ppm
1.6025421385134274929185060898362e-05 6:3.28 7:108.623 15:159.45599 16:155.211 17:0.38888901 19:0.42857099 20:0.575993 21:0.34990999 22:1.1572599 24:3.04878 # Flowers/Shape1/shape1-003.ppm
-1.6025421385134274929185060898362e-05 6:3.65517 7:109.937 15:158.983 16:168.96899 17:0.359375 19:0.18367299 20:0.81454903 21:0.12836 22:0.50668103 24:3.28302 # Flowers/Shape2/shape2-092.ppm
1.6025421385134274929185060898362e-05 6:3.65517 7:107.058 15:154.065 16:171.082 17:0.48717901 19:0.208333 20:0.81382102 21:0.261168 22:0.79762 24:1.36792 # Flowers/Shape1/shape1-096.ppm
-1.6025421385134274929185060898362e-05 6:3.48454 7:106 15:150.605 16:162.33299 17:0.469697 19:0.29333299 20:0.65530002 21:0.21368399 22:0.76845098 24:3.7307701 # Flowers/Shape2/shape2-003.ppm
1.6025421385134274929185060898362e-05 6:3.63077 7:108.994 15:155.51199 16:171.702 17:0.444444 19:0.160714 20:0.82716101 21:0.234568 22:0.720581 24:1.65254 # Flowers/Shape1/shape1-015.ppm
-1.6025421385134274929185060898362e-05 6:3.4915299 7:108.465 15:156.601 16:168.02499 17:0.45082 19:0.246479 20:0.83471203 21:0.14885999 22:0.68300402 24:2.86408 # Flowers/Shape2/shape2-053.ppm
1.6025421385134274929185060898362e-05 6:3.5151501 7:105.193 15:145.687 16:164.091 17:0.375 19:0.222222 20:0.67606002 21:0.377783 22:1.08871 24:2.84483 # Flowers/Shape1/shape1-019.ppm
-1.6025421385134274929185060898362e-05 6:3.49123 7:100.173 15:151.83 16:165.11501 17:0.42500001 19:0.29545501 20:0.56042302 21:0.218374 22:0.84278297 24:2.0050299 # Flowers/Shape2/shape2-098.ppm
1.6025421385134274929185060898362e-05 6:3.68627 7:105.912 15:164.847 16:164.567 17:0.378378 19:0.186047 20:0.72611398 21:0.255541 22:0.72807002 24:4.3404298 # Flowers/Shape1/shape1-083.ppm
-1.6025421385134274929185060898362e-05 6:3.4237299 7:112.413 15:155.202 16:167.368 17:0.38281199 19:0.204082 20:0.83943897 21:0.14216501 22:0.655563 24:3.2128699 # Flowers/Shape2/shape2-093.ppm
1.6025421385134274929185060898362e-05 6:3.4074099 7:102.623 15:148.51801 16:164.577 17:0.45945901 19:0.384615 20:0.51679802 21:0.35307199 22:1.31962 24:2.6413 # Flowers/Shape1/shape1-016.ppm
-1.6025421385134274929185060898362e-05 6:3.51402 7:100.532 15:152.86501 16:164.355 17:0.407895 19:0.320988 20:0.69680703 21:0.19897699 22:0.74190998 24:1.42287 # Flowers/Shape2/shape2-065.ppm
1.6025421385134274929185060898362e-05 6:4.0227299 7:113.628 15:157.703 16:172.127 17:0.239437 19:0.128205 20:0.84982002 21:0.152945 22:0.40203401 24:3.2316401 # Flowers/Shape1/shape1-072.ppm
-1.6025421385134274929185060898362e-05 6:3.53933 7:112.597 15:153.104 16:167.105 17:0.42399999 19:0.271429 20:0.828183 21:0.14061201 22:0.65170002 24:3.6730199 # Flowers/Shape2/shape2-073.ppm
1.6025421385134274929185060898362e-05 6:3.54286 7:97.292099 15:155.50301 16:163.065 17:0.346154 19:0.25 20:0.759453 21:0.319368 22:0.873088 24:4.23387 # Flowers/Shape1/shape1-006.ppm
-1.6025421385134274929185060898362e-05 6:3.35922 7:102.967 15:155.382 16:167.289 17:0.39189199 19:0.28749999 20:0.769059 21:0.196863 22:0.74831599 24:0.89306402 # Flowers/Shape2/shape2-066.ppm
1.6025421385134274929185060898362e-05 6:3.9000001 7:110.651 15:143.98199 16:165.33299 17:0.42857099 19:0.15942 20:0.652758 21:0.19502801 22:0.54806697 24:5.1282101 # Flowers/Shape1/shape1-049.ppm
-1.6025421385134274929185060898362e-05 6:3.6378 7:108.973 15:148.931 16:163.58299 17:0.38043499 19:0.16513801 20:0.62437099 21:0.167472 22:0.54808098 24:3.2987001 # Flowers/Shape2/shape2-079.ppm
1.6025421385134274929185060898362e-05 6:3.7777801 7:110.647 15:160.78 16:165.10001 17:0.384615 19:0.173913 20:0.72584498 21:0.23681299 22:0.681207 24:5.0294099 # Flowers/Shape1/shape1-063.ppm
-1.6025421385134274929185060898362e-05 6:3.6024101 7:110.113 15:157.82899 16:165.85201 17:0.48214301 19:0.24811999 20:0.79156297 21:0.14282601 22:0.57784402 24:1.94314 # Flowers/Shape2/shape2-094.ppm
1.6025421385134274929185060898362e-05 6:3.3684199 7:103.652 15:148.444 16:166.33299 17:0.46153799 19:0.35714301 20:0.50174099 21:0.34839699 22:1.30527 24:2.375 # Flowers/Shape1/shape1-037.ppm
-1.6025421385134274929185060898362e-05 6:3.5905499 7:102.195 15:151.28999 16:162.742 17:0.42696601 19:0.30927801 20:0.71753299 21:0.171479 22:0.64080501 24:1.94956 # Flowers/Shape2/shape2-045.ppm
1.6025421385134274929185060898362e-05 6:4.1782198 7:114.776 15:156.077 16:171.172 17:0.246914 19:0.134831 20:0.85445601 21:0.135003 22:0.35566199 24:3.82938 # Flowers/Shape1/shape1-011.ppm
-1.6025421385134274929185060898362e-05 6:3.18681 7:110.095 15:153.356 16:168.875 17:0.35820901 19:0.36842099 20:0.78141302 21:0.160614 22:0.84739602 24:1.25517 # Flowers/Shape2/shape2-095.ppm
1.6025421385134274929185060898362e-05 6:3.38235 7:105.321 15:151.52699 16:162.33299 17:0.38775501 19:0.33333299 20:0.598382 21:0.29406199 22:1.08628 24:3.5478301 # Flowers/Shape1/shape1-097.ppm
-1.6025421385134274929185060898362e-05 6:3.3176501 7:108.274 15:151.27 16:165.185 17:0.41666701 19:0.268657 20:0.69539899 21:0.243319 22:0.85112602 24:2.71277 # Flowers/Shape2/shape2-006.ppm
1.6025421385134274929185060898362e-05 6:3.4054101 7:106.989 15:150.875 16:163.52 17:0.45098001 19:0.32142901 20:0.60284603 21:0.270428 22:1.0045 24:3.5238099 # Flowers/Shape1/shape1-077.ppm
-1.6025421385134274929185060898362e-05 6:3.23913 7:106.646 15:150.63699 16:165.067 17:0.24324299 19:0.24324299 20:0.72619599 21:0.233658 22:0.81784701 24:2.4698 # Flowers/Shape2/shape2-027.ppm
1.6025421385134274929185060898362e-05 6:3.7297299 7:102.921 15:155.041 16:164.733 17:0.54166698 19:0.32142901 20:0.75875002 21:0.32479 22:0.913773 24:3.4855101 # Flowers/Shape1/shape1-078.ppm
-1.6025421385134274929185060898362e-05 6:3.5326099 7:109.303 15:156.278 16:167.64999 17:0.41538501 19:0.251701 20:0.84005499 21:0.14175899 22:0.65636897 24:1.69846 # Flowers/Shape2/shape2-012.ppm
1.6025421385134274929185060898362e-05 6:3.65432 7:110.056 15:153.69701 16:171.519 17:0.42105299 19:0.208955 20:0.84382099 21:0.184844 22:0.56342101 24:2.4628401 # Flowers/Shape1/shape1-056.ppm
-1.6025421385134274929185060898362e-05 6:3.2198601 7:107.562 15:156.509 16:168.688 17:0.41 19:0.36893201 20:0.690045 21:0.190496 22:0.85630703 24:0.93171799 # Flowers/Shape2/shape2-048.ppm
1.6025421385134274929185060898362e-05 6:3.625 7:106.024 15:152.23199 16:162.60699 17:0.41176501 19:0.26315799 20:0.710899 21:0.27250099 22:0.77582097 24:4.4137902 # Flowers/Shape1/shape1-062.ppm
-1.6025421385134274929185060898362e-05 6:3.5873001 7:103.27 15:150.89101 16:162.64301 17:0.46511599 19:0.27272701 20:0.703242 21:0.17893299 22:0.70139098 24:1.9513299 # Flowers/Shape2/shape2-043.ppm
1.6025421385134274929185060898362e-05 6:3.8487401 7:109.72 15:155.16499 16:171.244 17:0.45122001 19:0.17821801 20:0.75334603 21:0.15637299 22:0.55449498 24:2.5982499 # Flowers/Shape1/shape1-071.ppm
-1.6025421385134274929185060898362e-05 6:3.54967 7:110.197 15:155.33299 16:165.444 17:0.466019 19:0.279661 20:0.78595501 21:0.14935701 22:0.60508698 24:2.2537301 # Flowers/Shape2/shape2-074.ppm
1.6025421385134274929185060898362e-05 6:3.5999999 7:101.359 15:150.88901 16:163.452 17:0.32352901 19:0.216216 20:0.75055701 21:0.28322101 22:0.81442702 24:4.1666698 # Flowers/Shape1/shape1-080.ppm
-1.6025421385134274929185060898362e-05 6:3.38462 7:104.389 15:150.67 16:164.5 17:0.32653099 19:0.22641499 20:0.650024 21:0.182907 22:0.75787598 24:1.77273 # Flowers/Shape2/shape2-057.ppm
1.6025421385134274929185060898362e-05 6:3.74545 7:111.52 15:153.771 16:169.375 17:0.392405 19:0.182796 20:0.68277502 21:0.176098 22:0.62200397 24:3.2038801 # Flowers/Shape1/shape1-091.ppm
-1.6025421385134274929185060898362e-05 6:3.29949 7:107.744 15:152.67999 16:169.66701 17:0.47014901 19:0.368056 20:0.77968299 21:0.15110099 22:0.79471302 24:0.60615402 # Flowers/Shape2/shape2-075.ppm
1.6025421385134274929185060898362e-05 6:3.7735801 7:102.279 15:157.694 16:164.323 17:0.472222 19:0.20454501 20:0.72334898 21:0.25466701 22:0.74513602 24:3.9749999 # Flowers/Shape1/shape1-002.ppm
-1.6025421385134274929185060898362e-05 6:3.4307699 7:104.868 15:151.90199 16:163.5 17:0.444444 19:0.28712901 20:0.64171302 21:0.186079 22:0.76493299 24:2.04036 # Flowers/Shape2/shape2-077.ppm
1.6025421385134274929185060898362e-05 6:3.9166701 7:106.329 15:150.38499 16:165.533 17:0.53191501 19:0.2 20:0.648238 21:0.223819 22:0.62369502 24:3.8297901 # Flowers/Shape1/shape1-008.ppm
-1.6025421385134274929185060898362e-05 6:3.1860499 7:109.053 15:153.054 16:164.51601 17:0.283582 19:0.21126799 20:0.71143502 21:0.22683699 22:0.79201502 24:2.1970799 # Flowers/Shape2/shape2-047.ppm
1.6025421385134274929185060898362e-05 6:3.625 7:101.845 15:151.655 16:166.17599 17:0.52381003 19:0.23076899 20:0.66090298 21:0.38650799 22:1.1099 24:3.0344801 # Flowers/Shape1/shape1-040.ppm
-1.6025421385134274929185060898362e-05 6:3.32039 7:101.301 15:152.537 16:165.444 17:0.32051301 19:0.17045499 20:0.60265398 21:0.232189 22:0.81089699 24:0.90350902 # Flowers/Shape2/shape2-081.ppm
1.6025421385134274929185060898362e-05 6:3.7704899 7:106.349 15:151.65401 16:164.364 17:0.60526299 19:0.22 20:0.64723998 21:0.24745101 22:0.688012 24:4.2434802 # Flowers/Shape1/shape1-029.ppm
-1.6025421385134274929185060898362e-05 6:3.5999999 7:104.292 15:151.026 16:163.64 17:0.369863 19:0.219512 20:0.64431202 21:0.19212399 22:0.68726999 24:1.94444 # Flowers/Shape2/shape2-044.ppm
1.6025421385134274929185060898362e-05 6:3.55 7:104.569 15:153.53101 16:165.467 17:0.29032299 19:0.25 20:0.75634599 21:0.30380601 22:0.85900801 24:3.6619699 # Flowers/Shape1/shape1-017.ppm
-1.6025421385134274929185060898362e-05 6:3.4955001 7:104.906 15:153.491 16:166.07401 17:0.47999999 19:0.29069799 20:0.697065 21:0.19080099 22:0.71417803 24:1.14433 # Flowers/Shape2/shape2-085.ppm
1.6025421385134274929185060898362e-05 6:3.375 7:103.088 15:152.08701 16:162.875 17:0.33333299 19:0.26315799 20:0.73932201 21:0.278523 22:0.85599899 24:4.7407398 # Flowers/Shape1/shape1-045.ppm
-1.6025421385134274929185060898362e-05 6:3.32039 7:101.301 15:152.537 16:165.444 17:0.32051301 19:0.17045499 20:0.60265398 21:0.232189 22:0.81089699 24:0.90350902 # Flowers/Shape2/shape2-080.ppm
1.6025421385134274929185060898362e-05 6:4.0289898 7:106.545 15:155.83701 16:170.711 17:0.254545 19:0.18965501 20:0.83573997 21:0.195213 22:0.51495802 24:2.4820099 # Flowers/Shape1/shape1-033.ppm
-1.6025421385134274929185060898362e-05 6:3.2973001 7:110.118 15:158.75999 16:168.71899 17:0.39622599 19:0.32142901 20:0.73955798 21:0.168954 22:0.80278599 24:0.60655701 # Flowers/Shape2/shape2-070.ppm
1.6025421385134274929185060898362e-05 6:3.6216199 7:101.34 15:153.407 16:165.433 17:0.54166698 19:0.27586201 20:0.75352901 21:0.33006999 22:0.93042201 24:3.58955 # Flowers/Shape1/shape1-038.ppm
-1.6025421385134274929185060898362e-05 6:3.44068 7:102.789 15:153.62 16:163.84 17:0.47499999 19:0.29670301 20:0.54977 21:0.220935 22:0.85132802 24:1.4532 # Flowers/Shape2/shape2-038.ppm
1.6025421385134274929185060898362e-05 6:3.8620701 7:106.482 15:156.946 16:163.323 17:0.44999999 19:0.16 20:0.73377699 21:0.22088499 22:0.63746703 24:4.9196401 # Flowers/Shape1/shape1-043.ppm
-1.6025421385134274929185060898362e-05 6:3.4761901 7:102.949 15:152.063 16:160.27299 17:0.44827601 19:0.25999999 20:0.56410301 21:0.204092 22:0.78814101 24:2.3013699 # Flowers/Shape2/shape2-017.ppm
1.6025421385134274929185060898362e-05 6:3.73913 7:104.492 15:152.284 16:172.7 17:0.68292701 19:0.210526 20:0.82837999 21:0.22393499 22:0.63931799 24:2.1395299 # Flowers/Shape1/shape1-013.ppm
-1.6025421385134274929185060898362e-05 6:3.26316 7:112.34 15:152.97099 16:166.14799 17:0.37681201 19:0.35714301 20:0.68469697 21:0.166071 22:0.83108801 24:1.83871 # Flowers/Shape2/shape2-096.ppm
1.6025421385134274929185060898362e-05 6:3.61905 7:100.245 15:154.267 16:165.633 17:0.40000001 19:0.235294 20:0.754031 21:0.30250299 22:0.85348099 24:3.5921099 # Flowers/Shape1/shape1-058.ppm
-1.6025421385134274929185060898362e-05 6:3.3675201 7:104.238 15:151.257 16:164.18201 17:0.5 19:0.32954499 20:0.70615202 21:0.19791999 22:0.7744 24:1.4847701 # Flowers/Shape2/shape2-002.ppm
1.6025421385134274929185060898362e-05 6:3.46667 7:106.324 15:154.82001 16:166.267 17:0.285714 19:0.184211 20:0.768224 21:0.27726099 22:0.75770801 24:4.32692 # Flowers/Shape1/shape1-047.ppm
-1.6025421385134274929185060898362e-05 6:3.22613 7:108.285 15:153.797 16:166.974 17:0.442029 19:0.36301401 20:0.78401703 21:0.149755 22:0.78667599 24:0.92990702 # Flowers/Shape2/shape2-035.ppm
1.6025421385134274929185060898362e-05 6:3.9473701 7:106.527 15:147.959 16:165.806 17:0.46153799 19:0.15151501 20:0.79316199 21:0.262541 22:0.62615001 24:5.0666699 # Flowers/Shape1/shape1-066.ppm
-1.6025421385134274929185060898362e-05 6:3.5539601 7:106.459 15:152.289 16:164.92 17:0.37623799 19:0.31132099 20:0.65337002 21:0.168052 22:0.69326001 24:1.40688 # Flowers/Shape2/shape2-016.ppm
1.6025421385134274929185060898362e-05 6:3.8787899 7:104.621 15:154.912 16:164.207 17:0.346939 19:0.157895 20:0.64836001 21:0.221081 22:0.61250198 24:4.6406202 # Flowers/Shape1/shape1-089.ppm
-1.6025421385134274929185060898362e-05 6:3.51402 7:106.126 15:153.658 16:165.778 17:0.44594601 19:0.188889 20:0.61604899 21:0.211189 22:0.73272401 24:0.85372299 # Flowers/Shape2/shape2-041.ppm
1.6025421385134274929185060898362e-05 6:3.8181801 7:107.184 15:152.912 16:171 17:0.45282999 19:0.14925399 20:0.82830101 21:0.18655001 22:0.53349 24:3.1428599 # Flowers/Shape1/shape1-094.ppm
-1.6025421385134274929185060898362e-05 6:3.51402 7:106.126 15:153.658 16:165.778 17:0.44594601 19:0.188889 20:0.61604899 21:0.211189 22:0.73272401 24:0.85372299 # Flowers/Shape2/shape2-040.ppm
1.6025421385134274929185060898362e-05 6:3.3636401 7:104.413 15:154.13499 16:164.65401 17:0.33333299 19:0.25714299 20:0.73659199 21:0.30093801 22:0.91851801 24:4.7567601 # Flowers/Shape1/shape1-085.ppm
-1.6025421385134274929185060898362e-05 6:3.2349 7:107.231 15:152.08701 16:166.314 17:0.41904801 19:0.366972 20:0.73566699 21:0.17029899 22:0.816019 24:0.92738599 # Flowers/Shape2/shape2-009.ppm
1.6025421385134274929185060898362e-05 6:3.9154899 7:108.435 15:157.14799 16:167.881 17:0.41999999 19:0.18333299 20:0.830621 21:0.178526 22:0.47009599 24:4.3417301 # Flowers/Shape1/shape1-053.ppm
-1.6025421385134274929185060898362e-05 6:3.2745099 7:108.069 15:155.808 16:167.647 17:0.30769199 19:0.2 20:0.76258999 21:0.196409 22:0.74874401 24:0.30538899 # Flowers/Shape2/shape2-086.ppm
1.6025421385134274929185060898362e-05 6:3.5 7:101.764 15:148.726 16:165.121 17:0.375 19:0.189189 20:0.750992 21:0.29851499 22:0.85762697 24:4.2857099 # Flowers/Shape1/shape1-060.ppm
-1.6025421385134274929185060898362e-05 6:3.4465401 7:109.051 15:150.03 16:164.66701 17:0.432432 19:0.32499999 20:0.788809 21:0.154089 22:0.72378498 24:2.0310199 # Flowers/Shape2/shape2-069.ppm
1.6025421385134274929185060898362e-05 6:4.1052599 7:111.42 15:156.42599 16:172.883 17:0.25 19:0.130952 20:0.851978 21:0.14547201 22:0.38256299 24:3.6538501 # Flowers/Shape1/shape1-052.ppm
-1.6025421385134274929185060898362e-05 6:3.3605399 7:106.576 15:154.44099 16:165.16 17:0.37383199 19:0.25641 20:0.652821 21:0.17922901 22:0.77848899 24:0.89271301 # Flowers/Shape2/shape2-042.ppm
1.6025421385134274929185060898362e-05 6:3.90769 7:106.815 15:150.875 16:167.795 17:0.35416701 19:0.18181799 20:0.86722398 21:0.179774 22:0.47500199 24:4.6062999 # Flowers/Shape1/shape1-018.ppm
-1.6025421385134274929185060898362e-05 6:3.7160499 7:110.266 15:153.88699 16:164.545 17:0.48623899 19:0.236641 20:0.80798101 21:0.137417 22:0.543006 24:2.1528201 # Flowers/Shape2/shape2-052.ppm
1.6025421385134274929185060898362e-05 6:3.58974 7:101.861 15:155.422 16:166.08299 17:0.444444 19:0.25806499 20:0.76771897 21:0.31165099 22:0.87569398 24:3.6214299 # Flowers/Shape1/shape1-098.ppm
-1.6025421385134274929185060898362e-05 6:3.2381001 7:109.411 15:151.47301 16:167.257 17:0.45384601 19:0.359712 20:0.77538699 21:0.15551201 22:0.81839699 24:0.92647099 # Flowers/Shape2/shape2-055.ppm
1.6025421385134274929185060898362e-05 6:3.8205099 7:112.303 15:155.008 16:171.267 17:0.47169799 19:0.25806499 20:0.82091099 21:0.187004 22:0.57210398 24:4.71141 # Flowers/Shape1/shape1-076.ppm
-1.6025421385134274929185060898362e-05 6:3.57377 7:107.889 15:151.23199 16:165.556 17:0.45238101 19:0.22 20:0.62487102 21:0.19089501 22:0.66314 24:1.11927 # Flowers/Shape2/shape2-060.ppm
1.6025421385134274929185060898362e-05 6:3.6981101 7:103.909 15:154.27299 16:165 17:0.35897401 19:0.26190501 20:0.72901601 21:0.25058401 22:0.70848501 24:4.8673501 # Flowers/Shape1/shape1-001.ppm
-1.6025421385134274929185060898362e-05 6:3.2597401 7:109.664 15:154.494 16:165.767 17:0.33913001 19:0.222222 20:0.69715399 21:0.168038 22:0.75855201 24:1.22709 # Flowers/Shape2/shape2-031.ppm
1.6025421385134274929185060898362e-05 6:4.1463399 7:103.558 15:143.923 16:165.778 17:0.32258099 19:0.17142899 20:0.79954797 21:0.23258799 22:0.554178 24:5.54706 # Flowers/Shape1/shape1-005.ppm
-1.6025421385134274929185060898362e-05 6:3.57377 7:107.889 15:151.23199 16:165.556 17:0.45238101 19:0.22 20:0.62487102 21:0.19089501 22:0.66314 24:1.11927 # Flowers/Shape2/shape2-020.ppm
1.6025421385134274929185060898362e-05 6:3.5849099 7:104.788 15:157.64 16:164.741 17:0.29268301 19:0.232558 20:0.72595203 21:0.25587699 22:0.71752298 24:5.02105 # Flowers/Shape1/shape1-042.ppm
-1.6025421385134274929185060898362e-05 6:3.5151501 7:105.443 15:152.80499 16:162.60699 17:0.466667 19:0.31999999 20:0.65101498 21:0.180049 22:0.74423301 24:1.42241 # Flowers/Shape2/shape2-097.ppm
1.6025421385134274929185060898362e-05 6:4.1414099 7:109.804 15:156.44701 16:174.108 17:0.2375 19:0.151163 20:0.81715697 21:0.14665499 22:0.382846 24:2.8975599 # Flowers/Shape1/shape1-014.ppm
-1.6025421385134274929185060898362e-05 6:3.5483899 7:107.563 15:157.312 16:164.52 17:0.29166701 19:0.148148 20:0.61127698 21:0.174713 22:0.56459999 24:0.563636 # Flowers/Shape2/shape2-059.ppm
1.6025421385134274929185060898362e-05 6:3.88571 7:105.861 15:152.73599 16:167.211 17:0.45833299 19:0.25 20:0.79212099 21:0.27026999 22:0.66748798 24:4.63235 # Flowers/Shape1/shape1-061.ppm
-1.6025421385134274929185060898362e-05 6:3.2077899 7:108.929 15:148.203 16:166.51401 17:0.36283201 19:0.26229501 20:0.73453403 21:0.165316 22:0.79861599 24:0.93522298 # Flowers/Shape2/shape2-090.ppm
1.6025421385134274929185060898362e-05 6:3.61905 7:103.745 15:157.517 16:165.39999 17:0.40000001 19:0.2 20:0.77176499 21:0.27875599 22:0.76204997 24:4.4210501 # Flowers/Shape1/shape1-067.ppm
-1.6025421385134274929185060898362e-05 6:3.3664601 7:108.942 15:155.442 16:165.069 17:0.364407 19:0.248062 20:0.69570601 21:0.15757699 22:0.70783502 24:0.89114398 # Flowers/Shape2/shape2-051.ppm
1.6025421385134274929185060898362e-05 6:3.25581 7:100.742 15:149.24899 16:165.16 17:0.34375 19:0.30303001 20:0.72900498 21:0.30944699 22:0.95195502 24:4.6071401 # Flowers/Shape1/shape1-004.ppm
-1.6025421385134274929185060898362e-05 6:3.44348 7:104.498 15:152.274 16:158.91299 17:0.47435901 19:0.26373601 20:0.55625403 21:0.22543199 22:0.86282301 24:2.32323 # Flowers/Shape2/shape2-058.ppm
1.6025421385134274929185060898362e-05 6:4.1315799 7:110.059 15:158.147 16:172.32001 17:0.206349 19:0.13432799 20:0.83072299 21:0.175073 22:0.45734701 24:3.6305699 # Flowers/Shape1/shape1-093.ppm
-1.6025421385134274929185060898362e-05 6:3.55 7:108.399 15:155.328 16:165.11501 17:0.33333299 19:0.142857 20:0.61739397 21:0.17465501 22:0.563366 24:0.56338 # Flowers/Shape2/shape2-039.ppm
1.6025421385134274929185060898362e-05 6:3.68627 7:103.409 15:154.786 16:165.963 17:0.41666701 19:0.27500001 20:0.71142101 21:0.271676 22:0.77160501 24:4.3404298 # Flowers/Shape1/shape1-022.ppm
-1.6025421385134274929185060898362e-05 6:3.3260901 7:109.407 15:150.84801 16:164.452 17:0.41538501 19:0.210526 20:0.73094797 21:0.213208 22:0.73295099 24:1.80392 # Flowers/Shape2/shape2-067.ppm
1.6025421385134274929185060898362e-05 6:3.8113201 7:102.691 15:148.87601 16:167.086 17:0.39473701 19:0.152174 20:0.85131001 21:0.214706 22:0.568892 24:4.4604001 # Flowers/Shape1/shape1-039.ppm
-1.6025421385134274929185060898362e-05 6:3.30357 7:109.725 15:149.22099 16:166 17:0.41772199 19:0.244444 20:0.64992499 21:0.199683 22:0.76954597 24:1.2108099 # Flowers/Shape2/shape2-023.ppm
1.6025421385134274929185060898362e-05 6:3.8499999 7:108.61 15:152.25 16:171.431 17:0.45454499 19:0.23076899 20:0.835347 21:0.186638 22:0.56806397 24:4.1558399 # Flowers/Shape1/shape1-036.ppm
-1.6025421385134274929185060898362e-05 6:3.19786 7:109.633 15:153.62199 16:165.33299 17:0.41666701 19:0.395522 20:0.781003 21:0.155572 22:0.82215202 24:0.93812698 # Flowers/Shape2/shape2-014.ppm
1.6025421385134274929185060898362e-05 6:3.30233 7:101.111 15:152.071 16:165.741 17:0.34375 19:0.30303001 20:0.73207802 21:0.31028301 22:0.95570302 24:4.23944 # Flowers/Shape1/shape1-025.ppm
-1.6025421385134274929185060898362e-05 6:3.48276 7:105.427 15:150.92599 16:162.286 17:0.36470601 19:0.195876 20:0.62070799 21:0.194554 22:0.67753202 24:0.861386 # Flowers/Shape2/shape2-061.ppm
1.6025421385134274929185060898362e-05 6:3.46667 7:104.162 15:156.505 16:165.03999 17:0.285714 19:0.285714 20:0.73004198 21:0.27380201 22:0.837883 24:5.4807701 # Flowers/Shape1/shape1-065.ppm
-1.6025421385134274929185060898362e-05 6:3.4054101 7:109.056 15:157.28 16:165.033 17:0.405063 19:0.23333301 20:0.77426201 21:0.18238699 22:0.690799 24:0.29365101 # Flowers/Shape2/shape2-046.ppm
1.6025421385134274929185060898362e-05 6:4.2083302 7:113.062 15:155.646 16:174 17:0.23076899 19:0.116279 20:0.85322797 21:0.141366 22:0.37281701 24:4.75248 # Flowers/Shape1/shape1-032.ppm
-1.6025421385134274929185060898362e-05 6:3.2765999 7:108.682 15:154.27499 16:164.758 17:0.46875 19:0.27026999 20:0.76173902 21:0.213302 22:0.81113201 24:0.61039001 # Flowers/Shape2/shape2-005.ppm
1.6025421385134274929185060898362e-05 6:4.0377402 7:102.696 15:153.70799 16:165.75 17:0.26190501 19:0.12766001 20:0.78393501 21:0.219015 22:0.55508 24:4.95327 # Flowers/Shape1/shape1-088.ppm
-1.6025421385134274929185060898362e-05 6:3.3333299 7:110.19 15:150.799 16:165.448 17:0.34482801 19:0.238095 20:0.69833302 21:0.16062699 22:0.72157699 24:1.2 # Flowers/Shape2/shape2-010.ppm
1.6025421385134274929185060898362e-05 6:3.9047599 7:105.098 15:152.44501 16:166.946 17:0.555556 19:0.166667 20:0.77503097 21:0.243579 22:0.61753798 24:5.63415 # Flowers/Shape1/shape1-007.ppm
-1.6025421385134274929185060898362e-05 6:3.36765 7:107.637 15:156.61099 16:162.16701 17:0.402062 19:0.23636401 20:0.64065498 21:0.188421 22:0.815368 24:1.18777 # Flowers/Shape2/shape2-022.ppm
1.6025421385134274929185060898362e-05 6:4.05479 7:110.466 15:156.791 16:172.367 17:0.25862101 19:0.17741901 20:0.83196098 21:0.17634501 22:0.46599001 24:4.4391899 # Flowers/Shape1/shape1-012.ppm
-1.6025421385134274929185060898362e-05 6:3.37572 7:109.316 15:151.004 16:164.71001 17:0.384 19:0.235714 20:0.69360399 21:0.155304 22:0.700818 24:1.18493 # Flowers/Shape2/shape2-091.ppm
1.6025421385134274929185060898362e-05 6:3.52632 7:100.948 15:152.533 16:166.267 17:0.31034499 19:0.225806 20:0.76572698 21:0.31116599 22:0.84956402 24:4.2537298 # Flowers/Shape1/shape1-027.ppm
-1.6025421385134274929185060898362e-05 6:3.3662 7:108.488 15:152.32201 16:163.75 17:0.37864101 19:0.29090899 20:0.63531703 21:0.18446501 22:0.80561298 24:1.18828 # Flowers/Shape2/shape2-062.ppm
1.6025421385134274929185060898362e-05 6:4.0454502 7:104.44 15:151.25301 16:166.41701 17:0.222222 19:0.157895 20:0.77400398 21:0.22584 22:0.57224101 24:5.93258 # Flowers/Shape1/shape1-028.ppm
-1.6025421385134274929185060898362e-05 6:3.32867 7:108.474 15:153.937 16:164.03 17:0.401961 19:0.34905699 20:0.72791201 21:0.170948 22:0.81866699 24:0.60083997 # Flowers/Shape2/shape2-030.ppm
1.6025421385134274929185060898362e-05 6:3.70909 7:99.5839 15:155.662 16:163.821 17:0.341463 19:0.25 20:0.71806699 21:0.243054 22:0.68397099 24:4.8529401 # Flowers/Shape1/shape1-082.ppm
-1.6025421385134274929185060898362e-05 6:3.27473 7:109.261 15:151.39101 16:163.161 17:0.410853 19:0.33823499 20:0.72082102 21:0.16082899 22:0.83529502 24:1.8322099 # Flowers/Shape2/shape2-056.ppm
1.6025421385134274929185060898362e-05 6:3.84848 7:107.814 15:159.188 16:170.875 17:0.404255 19:0.137931 20:0.83048898 21:0.19796 22:0.51558 24:4.4173198 # Flowers/Shape1/shape1-073.ppm
-1.6025421385134274929185060898362e-05 6:3.3599999 7:110.958 15:153.194 16:165.14799 17:0.35135099 19:0.17647099 20:0.606695 21:0.217445 22:0.75093901 24:1.19048 # Flowers/Shape2/shape2-021.ppm
1.6025421385134274929185060898362e-05 6:3.7083299 7:106.792 15:151.339 16:167.35699 17:0.41176501 19:0.17073201 20:0.88491201 21:0.200349 22:0.49401399 24:7.2809 # Flowers/Shape1/shape1-009.ppm
-1.6025421385134274929185060898362e-05 6:3.3599999 7:110.958 15:153.194 16:165.14799 17:0.35135099 19:0.17647099 20:0.606695 21:0.217445 22:0.75093901 24:1.19048 # Flowers/Shape2/shape2-019.ppm
1.6025421385134274929185060898362e-05 6:4.0888901 7:101.05 15:156.16901 16:165.21201 17:0.25 19:0.153846 20:0.79914802 21:0.219348 22:0.54235101 24:4.8913002 # Flowers/Shape1/shape1-081.ppm
-1.6025421385134274929185060898362e-05 6:3.5478301 7:108.416 15:155.925 16:163.5 17:0.575342 19:0.277778 20:0.77842402 21:0.179047 22:0.68101698 24:0.281863 # Flowers/Shape2/shape2-026.ppm
1.6025421385134274929185060898362e-05 6:4 7:102.38 15:149.89799 16:168.46201 17:0.43333301 19:0.131579 20:0.79436201 21:0.24440999 22:0.58272099 24:4.75 # Flowers/Shape1/shape1-086.ppm
-1.6025421385134274929185060898362e-05 6:3.2381001 7:109.564 15:150.856 16:163.83299 17:0.43181801 19:0.3125 20:0.6846 21:0.16733401 22:0.83624899 24:1.54412 # Flowers/Shape2/shape2-076.ppm
1.6025421385134274929185060898362e-05 6:3.80952 7:102.424 15:159.492 16:165.3 17:0.40000001 19:0.2 20:0.76833099 21:0.25846499 22:0.70376801 24:5.25 # Flowers/Shape1/shape1-087.ppm
-1.6025421385134274929185060898362e-05 6:3.31126 7:109.659 15:152.42101 16:164.515 17:0.438095 19:0.26890799 20:0.73121202 21:0.162324 22:0.77514702 24:0.90600002 # Flowers/Shape2/shape2-050.ppm
1.6025421385134274929185060898362e-05 6:3.7959199 7:106.036 15:150.12601 16:168.341 17:0.36111099 19:0.166667 20:0.87310702 21:0.19345 22:0.477642 24:7.1128998 # Flowers/Shape1/shape1-030.ppm
-1.6025421385134274929185060898362e-05 6:3.51402 7:106.067 15:147.82899 16:162.043 17:0.48611099 19:0.244186 20:0.66670102 21:0.192871 22:0.690126 24:0.85372299 # Flowers/Shape2/shape2-064.ppm
1.6025421385134274929185060898362e-05 6:4.0215101 7:106.783 15:158.09599 16:174.054 17:0.23999999 19:0.148148 20:0.817321 21:0.159758 22:0.41920099 24:2.48663 # Flowers/Shape1/shape1-095.ppm
-1.6025421385134274929185060898362e-05 6:3.2418301 7:109.625 15:160.013 16:162 17:0.353982 19:0.233871 20:0.69818997 21:0.16696499 22:0.74079198 24:0.925403 # Flowers/Shape2/shape2-071.ppm
1.6025421385134274929185060898362e-05 6:4.0784302 7:105.102 15:150.44099 16:169.026 17:0.342105 19:0.186047 20:0.87498897 21:0.1899 22:0.463626 24:6.1298099 # Flowers/Shape1/shape1-070.ppm
-1.6025421385134274929185060898362e-05 6:3.3503201 7:110.486 15:149.907 16:165.2 17:0.41441399 19:0.377193 20:0.68864298 21:0.169655 22:0.77909797 24:1.19392 # Flowers/Shape2/shape2-068.ppm
1.6025421385134274929185060898362e-05 6:4 7:102.209 15:153.07201 16:168.45 17:0.482759 19:0.16216201 20:0.80619001 21:0.23850399 22:0.59032601 24:4.5 # Flowers/Shape1/shape1-041.ppm
-1.6025421385134274929185060898362e-05 6:3.4862399 7:106.827 15:152.868 16:161.429 17:0.36250001 19:0.19780201 20:0.614838 21:0.20465299 22:0.70170802 24:0.86052603 # Flowers/Shape2/shape2-000.ppm
1.6025421385134274929185060898362e-05 6:4.1276598 7:109.065 15:157.737 16:173.47501 17:0.27026999 19:0.146341 20:0.85408998 21:0.147577 22:0.38719001 24:4.6030898 # Flowers/Shape1/shape1-092.ppm
-1.6025421385134274929185060898362e-05 6:3.47191 7:106.173 15:148.16901 16:162.071 17:0.412698 19:0.28057599 20:0.70517701 21:0.149969 22:0.68433398 24:0.28802601 # Flowers/Shape2/shape2-007.ppm
1.6025421385134274929185060898362e-05 6:3.87692 7:103.615 15:153.47501 16:173.03799 17:0.54761899 19:0.203704 20:0.82283002 21:0.21990301 22:0.62914997 24:2.0634899 # Flowers/Shape1/shape1-074.ppm
-1.6025421385134274929185060898362e-05 6:3.42857 7:108.366 15:154.899 16:161.79201 17:0.28735599 19:0.142857 20:0.60424203 21:0.199688 22:0.64488298 24:0.58333302 # Flowers/Shape2/shape2-099.ppm
1.6025421385134274929185060898362e-05 6:3.95455 7:101.723 15:154.325 16:166.36099 17:0.41935501 19:0.157895 20:0.77691698 21:0.228108 22:0.57702601 24:6.0689702 # Flowers/Shape1/shape1-068.ppm
-1.6025421385134274929185060898362e-05 6:3.2888899 7:109.85 15:150.373 16:163.38699 17:0.44 19:0.30434799 20:0.72898299 21:0.156552 22:0.81346101 24:1.21622 # Flowers/Shape2/shape2-015.ppm
1.6025421385134274929185060898362e-05 6:3.7260301 7:103.945 15:153.87199 16:171.89799 17:0.48979601 19:0.196721 20:0.821796 21:0.205843 22:0.58735102 24:4.0257401 # Flowers/Shape1/shape1-034.ppm
-1.6025421385134274929185060898362e-05 6:3.1194 7:107.313 15:154.77 16:159.739 17:0.32673299 19:0.26415101 20:0.637519 21:0.20483699 22:0.89365101 24:0.96172202 # Flowers/Shape2/shape2-001.ppm
-1.6025421385134274929185060898362e-05 6:3.4518499 7:110.048 15:154.233 16:161 17:0.46739101 19:0.31068 20:0.78661901 21:0.171506 22:0.69750297 24:1.7381999 # Flowers/Shape2/shape2-054.ppm
-1.6025421385134274929185060898362e-05 6:3.47826 7:113.915 15:155.765 16:163.66701 17:0.38793099 19:0.28799999 20:0.797629 21:0.149854 22:0.61009598 24:1.725 # Flowers/Shape2/shape2-013.ppm
1.6025421385134274929185060898362e-05 6:3.8139501 7:105.864 15:152.181 16:172.75999 17:0.53571397 19:0.194444 20:0.83551002 21:0.179501 22:0.51479298 24:5.2438998 # Flowers/Shape1/shape1-054.ppm
1.6025421385134274929185060898362e-05 6:3.9047599 7:96.237701 15:155.685 16:165.41701 17:0.555556 19:0.166667 20:0.76980501 21:0.269905 22:0.68158001 24:4.6097598 # Flowers/Shape1/shape1-048.ppm
1.6025421385134274929185060898362e-05 6:3.9574499 7:106.086 15:155.91499 16:169.325 17:0.62068999 19:0.175 20:0.881697 21:0.18275601 22:0.446628 24:8.0860205 # Flowers/Shape1/shape1-090.ppm
-1.6025421385134274929185060898362e-05 6:3.3053899 7:109.927 15:150.077 16:163.452 17:0.35772401 19:0.28461501 20:0.69894201 21:0.16028599 22:0.73375201 24:0.30253601 # Flowers/Shape2/shape2-088.ppm
1.6025421385134274929185060898362e-05 6:3.9565201 7:101.779 15:154.717 16:169.436 17:0.48387101 19:0.24324299 20:0.85931098 21:0.220513 22:0.580585 24:5.3076901 # Flowers/Shape1/shape1-099.ppm
-1.6025421385134274929185060898362e-05 6:3.3761499 7:110.375 15:148.63901 16:162.83299 17:0.415584 19:0.26744199 20:0.64098901 21:0.205102 22:0.79169202 24:1.48098 # Flowers/Shape2/shape2-083.ppm
1.6025421385134274929185060898362e-05 6:3.86957 7:102.386 15:154.267 16:170.951 17:0.48387101 19:0.179487 20:0.85185701 21:0.228357 22:0.56177998 24:5.16854 # Flowers/Shape1/shape1-020.ppm
-1.6025421385134274929185060898362e-05 6:3.51316 7:110.592 15:153.39799 16:160.85699 17:0.40740699 19:0.25619799 20:0.78988898 21:0.154814 22:0.63007998 24:2.2771499 # Flowers/Shape2/shape2-034.ppm
-1.6025421385134274929185060898362e-05 6:3.28736 7:113.452 15:150.306 16:164.207 17:0.42623001 19:0.208333 20:0.71725601 21:0.231444 22:0.794159 24:2.12937 # Flowers/Shape2/shape2-087.ppm
-1.6025421385134274929185060898362e-05 6:3.3798399 7:108.14 15:150.47099 16:160.478 17:0.35789499 19:0.26470599 20:0.64677399 21:0.18481401 22:0.76419902 24:1.18349 # Flowers/Shape2/shape2-037.ppm
1.6025421385134274929185060898362e-05 6:4.0851102 7:101.841 15:147.181 16:170.12199 17:0.342857 19:0.175 20:0.87400901 21:0.181897 22:0.45276201 24:7.8333302 # Flowers/Shape1/shape1-050.ppm
1.6025421385134274929185060898362e-05 6:3.7818201 7:98.254898 15:154.882 16:168.875 17:0.61764699 19:0.19565199 20:0.72749698 21:0.246782 22:0.72113401 24:4.4951901 # Flowers/Shape1/shape1-023.ppm
1.6025421385134274929185060898362e-05 6:3.9473701 7:100.628 15:155.117 16:171.244 17:0.51999998 19:0.225806 20:0.79069 21:0.26247299 22:0.65310597 24:4.5599999 # Flowers/Shape1/shape1-021.ppm
-1.6025421385134274929185060898362e-05 6:3.41593 7:105.143 15:150.336 16:157.409 17:0.37804899 19:0.22826099 20:0.66597599 21:0.19409101 22:0.69787598 24:0.87823802 # Flowers/Shape2/shape2-084.ppm
1.6025421385134274929185060898362e-05 6:3.9200001 7:98.986298 15:154.595 16:171.40401 17:0.470588 19:0.219512 20:0.86148202 21:0.21060701 22:0.55079198 24:5.3571401 # Flowers/Shape1/shape1-059.ppm
-1.6025082975399361495671968214083e-05 6:3.41096 7:107.69 15:155.66 16:157.091 17:0.403846 19:0.26956499 20:0.63978398 21:0.181435 22:0.78652501 24:1.75904 # Flowers/Shape2/shape2-082.ppm
