SVM-light Version V6.02
0 # kernel type
3 # kernel parameter -d 
1 # kernel parameter -g 
1 # kernel parameter -s 
1 # kernel parameter -r 
empty# kernel parameter -u 
11 # highest feature index 
39 # number of training documents 
37 # number of support vectors plus 1 
-0.82086389 # threshold b, each following line is a SV (starting with alpha*y)
-0.34004833622232966128251518966863 1:0.29345599 2:0.23351499 3:0.25124201 4:0.47225201 5:0.28836301 6:0.87756699 7:0.81219798 8:0.308119 9:0.5625 10:0.224599 11:0.40000001 # shape1-000
-0.34004833622232966128251518966863 1:0.30492201 2:0.29881299 3:0.30430099 4:0.52800202 5:0.32676399 6:0.88509297 7:0.78578502 8:0.19047999 9:0.5625 10:0.28342199 11:0.273684 # shape1-001
-0.34004833622232966128251518966863 1:0.39744601 2:0.43515399 3:0.399744 4:0.59661901 5:0.36331001 6:0.903157 7:0.773458 8:0.151968 9:0.46875 10:0.28342199 11:0.326316 # shape1-002
-0.34004833622232966128251518966863 1:0.264651 2:0.34988701 3:0.33427799 4:0.549299 5:0.24344701 6:0.78502399 7:0.82143199 8:0.0625 9:0.3125 10:0.26738 11:0.2 # shape1-003
-0.34004833622232966128251518966863 1:0.25474501 2:0.27208599 3:0.25422999 4:0.47025099 5:0.23566499 6:0.77923501 7:0.76183701 8:0.183155 9:0.46875 10:0.229947 11:0.26315799 # shape1-004
0.34004833622232966128251518966863 1:0.157269 2:0.30093199 3:0.274057 4:0.52768999 5:0.13303401 6:0.72626197 7:0.91246802 8:0.095680103 9:0.28125 10:0.15508001 11:0.0842105 # shape4-000
0.34004833622232966128251518966863 1:0.129985 2:0.340698 3:0.234394 4:0.494353 5:0.142626 6:0.73130602 7:0.91697299 8:0.080598198 9:0.40625 10:0.192513 11:0.073684201 # shape4-001
0.34004833622232966128251518966863 1:0.186878 2:0.368736 3:0.34632099 4:0.55902702 5:0.176404 6:0.70131201 7:0.90017998 8:0.13904101 9:0.4375 10:0.229947 11:0.0947368 # shape4-010
0.34004833622232966128251518966863 1:0.151126 2:0.32622501 3:0.21279199 4:0.54520601 5:0.16263799 6:0.75789899 7:0.93490601 8:0.123689 9:0.40625 10:0.192513 11:0.0842105 # shape4-003
0.34004833622232966128251518966863 1:0.18318699 2:0.47659099 3:0.43814799 4:0.63129997 5:0.17354099 6:0.65700197 7:1 8:0.090509199 9:0.34375 10:0.27272701 11:0.0842105 # shape4-004
-0.34004833622232966128251518966863 1:0.359981 2:0.58877301 3:0.53120601 4:0.69638801 5:0.35097 6:0.87242001 7:0.78241497 8:0.064636603 9:0.1875 10:0.33155099 11:0.2 # shape5-002
0.34004833622232966128251518966863 1:0.91966099 2:1 3:1 4:1 5:0.94058001 6:0.96284801 7:0.85631597 8:1 9:1 10:0.46524099 11:0.063157901 # shape4-012
-0.048881808371901799836756197237264 1:0.72967303 2:0.78444999 3:0.83269602 4:0.86475599 5:0.65469199 6:0.74658698 7:0.81152999 8:0.0112216 9:0.09375 10:0.71657801 11:0.24210501 # shape2-001
0.048881808371901792897862293330036 1:0.096665397 2:0.19652 3:0.180252 4:0.398963 5:0.085584097 6:0.63184798 7:0.88367498 8:0.090509199 9:0.3125 10:0.13369 11:0.0947368 # shape4-006
-0.34004833622232966128251518966863 1:0.341398 2:0.45331201 3:0.425953 4:0.62739402 5:0.361067 6:0.84210998 7:0.839742 8:0.151968 9:0.4375 10:0.28876999 11:0.23157901 # shape5-000
0.34004833622232966128251518966863 1:0.39923599 2:0.77515 3:0.743285 4:0.85315102 5:0.399959 6:0.80653101 7:0.90489 8:0.34192801 9:0.53125 10:0.390374 11:0.063157901 # shape4-014
-0.34004833622232966128251518966863 1:0.41963801 2:0.56809598 3:0.514575 4:0.68887901 5:0.38312 6:0.87901801 7:0.77304602 8:0.19047999 9:0.375 10:0.29411799 11:0.24210501 # shape5-003
0.34004833622232966128251518966863 1:0.23944101 2:0.34957299 3:0.34570101 4:0.55950898 5:0.24118599 6:0.77651399 7:0.88785201 8:0.148682 9:0.5625 10:0.240642 11:0.126316 # shape4-005
-0.34004833622232966128251518966863 1:0.57751602 2:0.59161001 3:0.64117301 4:0.75260502 5:0.54619402 6:0.83397698 7:0.801597 8:0.16204 9:0.40625 10:0.51871699 11:0.25263199 # shape2-003
0.34004833622232966128251518966863 1:0.38780299 2:0.81480199 3:0.79137599 4:0.89114898 5:0.35220599 6:0.77885801 7:0.85993499 8:0.303433 9:0.5625 10:0.31550801 11:0.063157901 # shape4-013
-0.34004833622232966128251518966863 1:0.53959101 2:0.765571 3:0.67275703 4:0.79221398 5:0.530922 6:0.85562801 7:0.78786802 8:0.090509199 9:0.3125 10:0.427807 11:0.26315799 # shape5-004
0.34004833622232966128251518966863 1:0.186937 2:0.40781599 3:0.35918599 4:0.56943899 5:0.173759 6:0.68679202 7:0.88856298 8:0.090509199 9:0.375 10:0.24598899 11:0.105263 # shape4-007
-0.34004833622232966128251518966863 1:0.236003 2:0.17794 3:0.18503299 4:0.389483 5:0.193092 6:0.57192099 7:0.94597399 8:0.00403979 9:0.0625 10:0.41176501 11:0.61052603 # shape3-001
0.34004833622232966128251518966863 1:0.35903001 2:0.603082 3:0.53916901 4:0.72072399 5:0.32984099 6:0.78244603 7:0.887474 8:0.322393 9:0.5625 10:0.27807501 11:0.073684201 # shape4-009
-0.34004833622232966128251518966863 1:0.438483 2:0.58429199 3:0.59535199 4:0.75217098 5:0.43961599 6:0.88212597 7:0.79870099 8:0.0504345 9:0.25 10:0.37433201 11:0.30526301 # shape5-001
0.34004833622232966128251518966863 1:0.17443401 2:0.38019699 3:0.33913499 4:0.578448 5:0.165371 6:0.706613 7:0.91678298 8:0.080598198 9:0.34375 10:0.224599 11:0.105263 # shape4-018
-0.34004833622232966128251518966863 1:0.308164 2:0.231231 3:0.230854 4:0.43953201 5:0.31634501 6:0.89412498 7:0.842538 8:0.071261898 9:0.25 10:0.28342199 11:0.663158 # shape3-000
0.34004833622232966128251518966863 1:0.25500101 2:0.43659499 3:0.43700999 4:0.62774098 5:0.25389299 6:0.76963103 7:0.869591 8:0.201738 9:0.53125 10:0.27272701 11:0.0947368 # shape4-011
-0.34004833622232966128251518966863 1:0.63413501 2:0.800614 3:0.75036401 4:0.83402199 5:0.631993 6:0.83438402 7:0.80784798 8:0.0140764 9:0.09375 10:0.58288801 11:0.29473701 # shape2-000
0.34004833622232966128251518966863 1:0.177541 2:0.37141901 3:0.31432599 4:0.58555597 5:0.17365 6:0.75220001 7:0.89042902 8:0.148682 9:0.4375 10:0.18716601 11:0.157895 # shape4-016
-0.34004833622232966128251518966863 1:0.33174399 2:0.241541 3:0.249414 4:0.45089799 5:0.30107999 6:0.75015903 7:0.892609 8:0.0086900303 9:0.0625 10:0.358289 11:0.81052601 # shape3-002
0.34004833622232966128251518966863 1:0.20283 2:0.440162 3:0.37035301 4:0.58438802 5:0.180795 6:0.695216 7:0.90681499 8:0.126688 9:0.375 10:0.224599 11:0.0947368 # shape4-015
-0.34004833622232966128251518966863 1:0.59722102 2:0.66183603 3:0.61530203 4:0.736148 5:0.57680303 6:0.80597103 7:0.788275 8:0.0316719 9:0.15625 10:0.62566799 11:0.347368 # shape2-002
0.34004833622232966128251518966863 1:0.20359699 2:0.54670697 3:0.36976001 4:0.62513101 5:0.183698 6:0.748694 7:0.895078 8:0.11491 9:0.34375 10:0.208556 11:0.042105298 # shape4-017
-0.34004833622232966128251518966863 1:0.60942698 2:0.63907099 3:0.63185197 4:0.75798202 5:0.67153102 6:0.864829 7:0.791336 8:0.027309 9:0.125 10:0.63636398 11:0.30526301 # shape2-004
0.34004833622232966128251518966863 1:0.16096 2:0.29355001 3:0.30109701 4:0.52794802 5:0.185454 6:0.77240402 7:0.87521398 8:0.123689 9:0.53125 10:0.235294 11:0.0947368 # shape4-008
