SVM-light Version V6.02
0 # kernel type
3 # kernel parameter -d 
1 # kernel parameter -g 
1 # kernel parameter -s 
1 # kernel parameter -r 
empty# kernel parameter -u 
24 # highest feature index 
200 # number of training documents 
175 # number of support vectors plus 1 
-1.7372105 # threshold b, each following line is a SV (starting with alpha*y)
-2.7813743570007271744780827792229e-12 1:302617 2:571769 3:431257 4:2472.8301 5:14127 6:3.6134501 7:104.643 8:4778.3599 9:4 10:119 11:29 12:403 13:9228.1797 14:2543 15:150.481 16:164.414 17:0.48750001 18:15.7917 19:0.265957 20:0.70170999 21:0.175043 22:0.65323001 23:1.87902 24:1.10698 # Flowers/Shape2/shape2-004.ppm
-2.7813743570007271744780827792229e-12 1:339982 2:668035 3:520352 4:2655.77 5:15803.3 6:3.5539601 7:106.459 8:6082.1201 9:5 10:139 11:25 12:461 13:10955.8 14:2445.9199 15:152.289 16:164.92 17:0.37623799 18:15.4643 19:0.31132099 20:0.65337002 21:0.168052 22:0.69326001 23:2.48664 24:1.40688 # Flowers/Shape2/shape2-016.ppm
-2.7813743570007271744780827792229e-12 1:48000.199 2:175824 3:123027 4:1301.58 5:1800.4301 6:2.6400001 7:116.854 8:15836.8 9:10 10:25 11:9 12:193 13:4182.1201 14:1920.01 15:143.565 16:130.556 17:0.66666698 18:9.1578903 19:0.31578901 20:0.39015999 21:0.72292298 22:2.32284 23:8.2482796 24:3.7878799 # Flowers/Shape4/shape4-006.ppm
2.7813743570007271744780827792229e-12 1:461052 2:991935 3:612006 4:2951.54 5:18875 6:3.8487401 7:109.72 8:14102.6 9:10 10:119 11:45 12:443 13:10466.1 14:3874.3899 15:155.16499 16:171.244 17:0.45122001 18:23.611099 19:0.17821801 20:0.75334603 21:0.15637299 22:0.55449498 23:3.6399601 24:2.5982499 # Flowers/Shape1/shape1-071.ppm
-2.7813743570007271744780827792229e-12 1:218396 2:520492 3:404720 4:2450.51 5:8850.1504 6:3.5692301 7:105.305 8:17203.4 9:7 10:65 11:26 12:287 13:6925.7598 14:3359.9299 15:149.34801 16:165.769 17:0.41304299 18:14.1053 19:0.18181799 20:0.539621 21:0.276889 22:0.78255898 23:5.1201501 24:1.96121 # Flowers/Shape5/shape5-022.ppm
2.7813743570007271744780827792229e-12 1:138058 2:249216 3:178886 4:1569.38 5:5629.9399 6:3.61905 7:103.745 8:31415.9 9:16 10:42 11:30 12:176 13:4290.2998 14:3287.1001 15:157.517 16:165.39999 17:0.40000001 18:28.3333 19:0.2 20:0.77176499 21:0.27875599 22:0.76204997 23:9.5573301 24:4.4210501 # Flowers/Shape1/shape1-067.ppm
-2.7813743570007271744780827792229e-12 1:114979 2:157212 3:124180 4:1260.54 5:4434 6:2.60976 7:121.045 8:907.91998 9:3 10:82 11:60 12:281 13:6353.6001 14:1402.1801 15:149.064 16:171.783 17:0.67346901 18:11.7727 19:0.49090901 20:0.92590302 21:0.28428999 22:1.43293 23:0.64750397 24:1.1495301 # Flowers/Shape3/shape3-022.ppm
2.7813743570007271744780827792229e-12 1:418487 2:995883 3:612920 4:2955.9199 5:16785.699 6:3.74545 7:111.52 8:33979.5 9:12 10:110 11:40 12:437 13:10440.8 14:3804.4199 15:153.771 16:169.375 17:0.392405 18:15.8077 19:0.182796 20:0.68277502 21:0.176098 22:0.62200397 23:8.9315701 24:3.2038801 # Flowers/Shape1/shape1-091.ppm
-2.7813743570007271744780827792229e-12 1:178752 2:526768 3:362564 4:2271.8899 5:7383.3501 6:3.64516 7:103.463 8:11309.7 9:6 10:62 11:19 12:347 13:7628.9502 14:2883.1001 15:143.896 16:155.211 17:0.51219499 18:12.88 19:0.21568599 20:0.49302399 21:0.307704 22:1.03326 23:3.92276 24:1.6460201 # Flowers/Shape5/shape5-002.ppm
-2.7813743570007271744780827792229e-12 1:456668 2:894688 3:682528 4:3262.3899 5:19787 6:4.0229902 7:113.236 8:174974 9:32 10:87 11:6 12:245 13:7564.2202 14:5249.0498 15:169.14301 16:107.833 17:0.225352 18:80.666702 19:0.12987 20:0.66908199 21:0.164876 22:0.382283 23:33.3344 24:7.9542899 # Flowers/Shape4/shape4-012.ppm
-2.7813743570007271744780827792229e-12 1:117190 2:159201 3:126290 4:1270.65 5:4062.0701 6:2.3896101 7:125.092 8:706.85797 9:2 10:77 11:58 12:285 13:6386.0698 14:1521.95 15:148.39999 16:171.397 17:0.45282999 18:14.8333 19:0.50980401 20:0.92794001 21:0.31280801 22:1.57212 23:0.464443 24:0.83695698 # Flowers/Shape3/shape3-001.ppm
2.7813743570007271744780827792229e-12 1:450360 2:1027850 3:551020 4:3020.8899 5:18909.199 6:4.0215101 7:106.783 8:32047.4 9:10 10:93 11:74 12:333 13:7926.7598 14:4842.5801 15:158.09599 16:174.054 17:0.23999999 18:19.8125 19:0.148148 20:0.817321 21:0.159758 22:0.41920099 23:6.6178298 24:2.48663 # Flowers/Shape1/shape1-095.ppm
-2.7813743570007271744780827792229e-12 1:496561 2:785955 3:607458 4:2876.2 5:19073.699 6:3.54795 7:109.683 8:24884.6 9:8 10:146 11:34 12:361 13:11131.8 14:3401.1001 15:168.089 16:167.32401 17:0.431373 18:59.166698 19:0.237288 20:0.81743997 21:0.150794 22:0.58362198 23:7.3166199 24:2.2548299 # Flowers/Shape2/shape2-011.ppm
2.7813743570007271744780827792229e-12 1:190386 2:287830 3:223638 4:1736.3199 5:8086.9302 6:3.8113201 7:102.691 8:40115 9:17 10:53 11:35 12:210 13:4600.5898 14:3592.1799 15:148.87601 16:167.086 17:0.39473701 18:18.0909 19:0.152174 20:0.85131001 21:0.214706 22:0.568892 23:11.1673 24:4.4604001 # Flowers/Shape1/shape1-039.ppm
-2.7813743570007271744780827792229e-12 1:75043.297 2:291870 3:145236 4:1778.6801 5:3421.4099 6:3.1666701 7:123.628 8:21642.4 9:13 10:36 11:8 12:151 13:3774.98 14:2084.54 15:163.146 16:134.875 17:0.33333299 18:36.75 19:0.285714 20:0.51669699 21:0.519867 22:1.10334 23:10.3824 24:4.1052599 # Flowers/Shape4/shape4-003.ppm
2.7813743570007271744780827792229e-12 1:451654 2:739784 3:552714 4:3023.74 5:20618 6:4.1414099 7:109.804 8:32685.1 9:12 10:99 11:74 12:340 13:7893.52 14:4562.1602 15:156.44701 16:174.108 17:0.2375 18:21.6667 19:0.151163 20:0.81715697 21:0.14665499 22:0.382846 23:7.1643901 24:2.8975599 # Flowers/Shape1/shape1-014.ppm
-2.7813743570007271744780827792229e-12 1:217733 2:522759 3:406344 4:2453.8799 5:9248.2002 6:3.68571 7:105.617 8:8824.7305 9:8 10:70 11:29 12:285 13:6887.1201 14:3110.47 15:153.38901 16:166.207 17:0.42857099 18:15.7647 19:0.186441 20:0.53583401 21:0.26533601 22:0.744699 23:2.8371 24:2.1705401 # Flowers/Shape5/shape5-001.ppm
2.7813743570007271744780827792229e-12 1:194985 2:288904 3:224838 4:1741.11 5:9684.9805 6:3.90769 7:106.815 8:34636.102 9:18 10:65 11:44 12:200 13:4600.3799 14:2999.77 15:150.875 16:167.795 17:0.35416701 18:17.181801 19:0.18181799 20:0.86722398 21:0.179774 22:0.47500199 23:11.5462 24:4.6062999 # Flowers/Shape1/shape1-018.ppm
2.7813743570007271744780827792229e-12 1:447436 2:735000 3:550666 4:3019.3899 5:17296.4 6:4.1728401 7:114.778 8:33329.199 9:10 10:81 11:65 12:260 13:7705.5298 14:5523.9102 15:167.173 16:174.38499 17:0.285714 18:36.142899 19:0.157143 20:0.812536 21:0.174567 22:0.445499 23:6.0336199 24:2.39645 # Flowers/Shape1/shape1-035.ppm
-2.7813743570007271744780827792229e-12 1:73685.797 2:291078 3:146193 4:1778.62 5:2561.46 6:2.8965499 7:125.164 8:21124.1 9:8 10:29 11:6 12:155 13:3772.97 14:2540.8899 15:161.297 16:119.333 17:0.61111099 18:24.8333 19:0.380952 20:0.504031 21:0.69437599 22:1.47298 23:8.3136501 24:2.7618999 # Flowers/Shape4/shape4-024.ppm
-2.7813743570007271744780827792229e-12 1:496061 2:713456 3:590510 4:2862.29 5:20191.199 6:3.5326099 7:109.303 8:9160.8799 9:6 10:184 11:40 12:551 13:13252.9 14:2695.98 15:156.278 16:167.64999 17:0.41538501 18:18 19:0.251701 20:0.84005499 21:0.14175899 22:0.65636897 23:3.39798 24:1.69846 # Flowers/Shape2/shape2-012.ppm
2.7813743570007271744780827792229e-12 1:210225 2:326808 3:271607 4:1929.0601 5:8541.7002 6:4.0454502 7:104.44 8:77437.102 9:24 10:44 11:36 12:217 13:4887.9102 14:4777.8398 15:151.25301 16:166.41701 17:0.222222 18:30 19:0.157895 20:0.77400398 21:0.22584 22:0.57224101 23:16.2076 24:5.93258 # Flowers/Shape1/shape1-028.ppm
-2.7813743570007271744780827792229e-12 1:101098 2:489132 3:252372 4:2039.42 5:3864.46 6:3.1282101 7:118.361 8:20106.199 9:11 10:39 11:4 12:197 13:4870.8398 14:2592.27 15:156.386 16:90 17:0.39285699 18:18.700001 19:0.39285699 20:0.40059301 21:0.52773702 22:1.26042 23:7.7562199 24:3.5163901 # Flowers/Shape4/shape4-017.ppm
2.7813743570007271744780827792229e-12 1:446173 2:736725 3:548636 4:3015.0901 5:17505.199 6:3.95349 7:108.529 8:33329.199 9:7 10:86 11:66 12:253 13:7620.0601 14:5188.0601 15:169.545 16:172.061 17:0.482759 18:49.599998 19:0.16216201 20:0.813241 21:0.17224 22:0.435303 23:6.4242101 24:1.7705899 # Flowers/Shape1/shape1-055.ppm
-2.7813743570007271744780827792229e-12 1:285665 2:529230 3:437022 4:2454.52 5:12144.2 6:3.5 7:107.371 8:34636.102 9:13 10:96 11:25 12:382 13:8794.0596 14:2975.6799 15:151.05499 16:164.8 17:0.297297 18:16.3636 19:0.21518999 20:0.65366298 21:0.202114 22:0.72413403 23:11.6397 24:3.7142899 # Flowers/Shape2/shape2-024.ppm
2.7813743570007271744780827792229e-12 1:137237 2:249216 3:178617 4:1569.49 5:6072.3599 6:3.80952 7:102.424 8:32685.1 9:20 10:42 11:30 12:177 13:4273.5298 14:3267.55 15:159.492 16:165.3 17:0.40000001 18:28.5 19:0.2 20:0.76833099 21:0.25846499 22:0.70376801 23:10.003 24:5.25 # Flowers/Shape1/shape1-087.ppm
-2.7813743570007271744780827792229e-12 1:153022 2:206880 3:157564 4:1433.92 5:6654.96 6:3.7358501 7:111.414 8:12469 9:8 10:53 11:63 12:172 13:4001.4299 14:2887.21 15:156.27901 16:171.714 17:0.432432 18:20.5 19:0.26190501 20:0.97117001 21:0.21546701 22:0.60127002 23:4.3186998 24:2.1414101 # Flowers/Shape3/shape3-000.ppm
2.7813743570007271744780827792229e-12 1:445523 2:1027180 3:549556 4:3021.0901 5:15680.4 6:3.8684199 7:109.188 8:33329.199 9:6 10:76 11:69 12:338 13:7900.27 14:5862.1499 15:157.683 16:174.522 17:0.43396199 18:23.1429 19:0.15151501 20:0.81069601 21:0.19266701 22:0.50383198 23:5.6854801 24:1.55102 # Flowers/Shape1/shape1-075.ppm
-2.7813743570007271744780827792229e-12 1:213768 2:627072 3:422076 4:2471.3401 5:9398.3604 6:3.7026999 7:109.15 8:6647.6099 9:6 10:74 11:14 12:314 13:7349.3301 14:2888.76 15:154.541 16:145.214 17:0.57446802 18:18.625 19:0.27586201 20:0.50646901 21:0.262954 22:0.78197998 23:2.3011999 24:1.62044 # Flowers/Shape5/shape5-015.ppm
2.7813743570007271744780827792229e-12 1:126497 2:243432 3:173520 4:1534.14 5:4957.6802 6:3.25581 7:100.742 8:32047.4 9:15 10:43 11:25 12:205 13:4719.4902 14:2941.78 15:149.24899 16:165.16 17:0.34375 18:11.8125 19:0.30303001 20:0.72900498 21:0.30944699 22:0.95195502 23:10.8939 24:4.6071401 # Flowers/Shape1/shape1-004.ppm
-2.7813743570007271744780827792229e-12 1:64545.602 2:304818 3:159980 4:1612.77 5:3000.4199 6:3.0555601 7:121.257 8:14102.6 9:13 10:36 11:7 12:169 13:3925.8799 14:1792.9301 15:149.24899 16:121 17:0.384615 18:11.0714 19:0.33333299 20:0.40345901 21:0.53751701 22:1.30845 23:7.8656702 24:4.25455 # Flowers/Shape4/shape4-001.ppm
2.7813743570007271744780827792229e-12 1:155886 2:385392 3:310690 4:2063.26 5:5922.1699 6:3.3684199 7:103.652 8:11689.9 9:8 10:57 11:27 12:342 13:7730.02 14:2734.8401 15:148.444 16:166.33299 17:0.46153799 18:18 19:0.35714301 20:0.50174099 21:0.34839699 22:1.30527 23:4.2744198 24:2.375 # Flowers/Shape1/shape1-037.ppm
-2.7813743570007271744780827792229e-12 1:452510 2:646410 3:478850 4:2536.02 5:19426.5 6:3.9344299 7:117.76 8:53092.898 9:17 10:122 11:69 12:291 13:8215.3096 14:3709.1001 15:167.23399 16:174.145 17:0.48780501 18:35.375 19:0.184466 20:0.94499302 21:0.13054401 22:0.422892 23:14.3142 24:4.3208299 # Flowers/Shape3/shape3-015.ppm
2.7813743570007271744780827792229e-12 1:130804 2:314514 3:228856 4:1795.02 5:5135.0298 6:3.1698101 7:114.339 8:9852.0303 9:9 10:53 11:19 12:247 13:5968.8701 14:2467.99 15:157.77699 16:155.68401 17:0.32499999 18:26.444401 19:0.472222 20:0.57155299 21:0.34956399 22:1.16238 23:3.99192 24:2.8392899 # Flowers/Shape1/shape1-044.ppm
-2.7813743570007271744780827792229e-12 1:149468 2:207311 3:157496 4:1434.29 5:5380.3501 6:3.5122001 7:115.883 8:11689.9 9:5 10:41 11:61 12:172 13:4010.1101 14:3645.5701 15:156.62199 16:174.09801 17:0.51851898 18:27.6667 19:0.366667 20:0.949027 21:0.26657999 22:0.74532503 23:3.2065899 24:1.42361 # Flowers/Shape3/shape3-020.ppm
2.7813743570007271744780827792229e-12 1:464180 2:856278 3:546210 4:2842.73 5:18586.6 6:4.0227299 7:113.628 8:30171.9 9:13 10:88 11:55 12:293 13:7472.4502 14:5274.77 15:157.703 16:172.127 17:0.239437 18:19.9286 19:0.128205 20:0.84982002 21:0.152945 22:0.40203401 23:5.7200298 24:3.2316401 # Flowers/Shape1/shape1-072.ppm
-2.7813743570007271744780827792229e-12 1:422496 2:701043 3:540966 4:2712.3799 5:17434.9 6:3.19786 7:109.633 8:1520.53 9:3 10:187 11:36 12:614 13:14334.1 14:2259.3401 15:153.62199 16:165.33299 17:0.41666701 18:16.5429 19:0.395522 20:0.781003 21:0.155572 22:0.82215202 23:0.67299902 24:0.93812698 # Flowers/Shape2/shape2-014.ppm
1.9699267296792472259256198533796e-12 1:137273 2:240620 3:178689 4:1568.64 5:5657.6401 6:3.46667 7:106.324 8:32047.4 9:15 10:45 11:30 12:183 13:4286.8398 14:3050.52 15:154.82001 16:166.267 17:0.285714 18:17.299999 19:0.184211 20:0.768224 21:0.27726099 22:0.75770801 23:10.5056 24:4.32692 # Flowers/Shape1/shape1-047.ppm
-2.7813743570007271744780827792229e-12 1:63147.5 2:307848 3:162258 4:1619.22 5:2530.73 6:3.0666699 7:119.016 8:9160.8799 9:8 10:30 11:9 12:164 13:3887.6599 14:2104.9199 15:151.76801 16:132.778 17:0.5 18:10.7143 19:0.42857099 20:0.38917899 21:0.63982099 22:1.53618 23:4.3521399 24:2.6087 # Flowers/Shape4/shape4-022.ppm
2.7813743570007271744780827792229e-12 1:465851 2:730635 3:545202 4:2840.0601 5:21037 6:4.1782198 7:114.776 8:33979.5 9:16 10:101 11:58 12:298 13:7482.0698 14:4612.3901 15:156.077 16:171.172 17:0.246914 18:28.799999 19:0.134831 20:0.85445601 21:0.135003 22:0.35566199 23:7.3670001 24:3.82938 # Flowers/Shape1/shape1-011.ppm
-2.7813743570007271744780827792229e-12 1:360381 2:698301 3:547806 4:2768.3301 5:15135.2 6:3.88889 7:104.912 8:45996.102 9:17 10:90 11:26 12:324 13:7877.6299 14:4004.23 15:155.485 16:165.769 17:0.45161301 18:23.9231 19:0.16883101 20:0.65786201 21:0.182907 22:0.52048498 23:11.4869 24:4.3714299 # Flowers/Shape5/shape5-018.ppm
2.7813743570007271744780827792229e-12 1:128006 2:243972 3:174852 4:1539.4301 5:4961.3799 6:3.30233 7:101.111 8:32047.4 9:14 10:43 11:27 12:198 13:4741.6099 14:2976.8799 15:152.071 16:165.741 17:0.34375 18:23.75 19:0.30303001 20:0.73207802 21:0.31028301 22:0.95570302 23:10.7654 24:4.23944 # Flowers/Shape1/shape1-025.ppm
-2.7813743570007271744780827792229e-12 1:150764 2:207311 3:157470 4:1434.1 5:6091.2002 6:3.5652201 7:109.703 8:10568.3 9:4 10:46 11:61 12:168 13:4006.47 14:3277.47 15:161.19 16:173.754 17:0.39393899 18:32.599998 19:0.31428599 20:0.95740998 21:0.23543701 22:0.65774697 23:3.22453 24:1.12195 # Flowers/Shape3/shape3-021.ppm
2.7813743570007271744780827792229e-12 1:465018 2:730635 3:545810 4:2841.29 5:19531.5 6:4.1052599 7:111.42 8:36643.5 9:15 10:95 11:60 12:298 13:7472.0298 14:4894.9302 15:156.42599 16:172.883 17:0.25 18:20.2857 19:0.130952 20:0.851978 21:0.14547201 22:0.38256299 23:7.4860301 24:3.6538501 # Flowers/Shape1/shape1-052.ppm
-2.7813743570007271744780827792229e-12 1:459975 2:590720 3:466051 4:2488 5:19759.5 6:3.9316199 7:117.245 8:71631.5 9:21 10:117 11:95 12:312 13:7719.9502 14:3931.4099 15:160.532 16:174.43201 17:0.46250001 18:21.2857 19:0.17 20:0.98696202 21:0.12591401 22:0.39069501 23:18.220301 24:5.3413 # Flowers/Shape3/shape3-014.ppm
2.7813743570007271744780827792229e-12 1:129771 2:244961 3:175526 4:1541.15 5:5533.27 6:3.375 7:103.088 8:32047.4 9:16 10:48 11:24 12:196 13:4736.48 14:2703.55 15:152.08701 16:162.875 17:0.33333299 18:12.0667 19:0.26315799 20:0.73932201 21:0.278523 22:0.85599899 23:11.8538 24:4.7407398 # Flowers/Shape1/shape1-045.ppm
-2.7813743570007271744780827792229e-12 1:81089.398 2:403866 3:210982 4:1877.75 5:3461.98 6:3.1666701 7:121.833 8:21124.1 9:13 10:36 11:6 12:187 13:4480.77 14:2252.48 15:154.52901 16:113.5 17:0.384615 18:16 19:0.33333299 20:0.38434201 21:0.54239202 22:1.2942801 23:9.3781204 24:4.1052599 # Flowers/Shape4/shape4-023.ppm
2.7813743570007271744780827792229e-12 1:160245 2:386100 3:310072 4:2063.8501 5:5845.4199 6:3.4074099 7:102.623 8:11309.7 9:9 10:54 11:26 12:336 13:7713.71 14:2967.5 15:148.51801 16:164.577 17:0.45945901 18:12.44 19:0.384615 20:0.51679802 21:0.35307199 22:1.31962 23:3.8112099 24:2.6413 # Flowers/Shape1/shape1-016.ppm
-2.7813743570007271744780827792229e-12 1:312839 2:706875 3:486833 4:2606.47 5:13135.4 6:3.7471299 7:108.95 8:31415.9 9:13 10:87 11:31 12:344 13:8300.5801 14:3595.8501 15:150.50301 16:163.258 17:0.42623001 18:19.2353 19:0.191781 20:0.6426 21:0.198431 22:0.63192302 23:8.7367296 24:3.4693301 # Flowers/Shape5/shape5-013.ppm
2.7813743570007271744780827792229e-12 1:130741 2:314766 3:229248 4:1796.67 5:5336.75 6:3.39623 7:104.78 8:10568.3 9:9 10:53 11:19 12:246 13:6006.1802 14:2466.8101 15:156.83299 16:155 17:0.51428598 18:21.3636 19:0.472222 20:0.57030302 21:0.33666 22:1.12544 23:4.2842002 24:2.6500001 # Flowers/Shape1/shape1-103.ppm
-2.7813743570007271744780827792229e-12 1:161658 2:215175 3:168559 4:1464.48 5:6772.6001 6:3.32353 7:117.329 8:1661.9 9:2 10:68 11:68 12:236 13:5323.3701 14:2377.3301 15:149.843 16:173.897 17:0.38775501 18:25.2222 19:0.33333299 20:0.95906103 21:0.216236 22:0.78601599 23:0.699063 24:0.60176998 # Flowers/Shape3/shape3-023.ppm
2.7813743570007271744780827792229e-12 1:465724 2:852546 3:545288 4:2840.0801 5:19244.801 6:4.1276598 7:109.065 8:56410.398 9:19 10:94 11:59 12:293 13:7451.3999 14:4954.5098 15:157.737 16:173.47501 17:0.27026999 18:23.4167 19:0.146341 20:0.85408998 21:0.147577 22:0.38719001 23:11.3857 24:4.6030898 # Flowers/Shape1/shape1-092.ppm
2.7813743570007271744780827792229e-12 1:193238 2:287832 3:224309 4:1740.11 5:8262.3496 6:3.9200001 7:98.986298 8:56410.398 9:21 10:50 11:47 12:195 13:4550.8398 14:3864.76 15:154.595 16:171.40401 17:0.470588 18:23.375 19:0.219512 20:0.86148202 21:0.21060701 22:0.55079198 23:14.5961 24:5.3571401 # Flowers/Shape1/shape1-059.ppm
2.7813743570007271744780827792229e-12 1:135542 2:241605 3:178473 4:1568.61 5:4911.6001 6:3.54286 7:97.292099 8:32685.1 9:15 10:35 11:31 12:183 13:4288.2598 14:3872.6299 15:155.50301 16:163.065 17:0.346154 18:17.299999 19:0.25 20:0.759453 21:0.319368 22:0.873088 23:8.4400396 24:4.23387 # Flowers/Shape1/shape1-006.ppm
-2.7813743570007271744780827792229e-12 1:164731 2:216104 3:170232 4:1471.01 5:6333.8301 6:3.13433 7:118.035 8:1520.53 9:2 10:67 11:77 12:221 13:5265.0898 14:2458.6699 15:157.959 16:173.078 17:0.367347 18:17.4167 19:0.34 20:0.96768099 21:0.232246 22:0.83126497 23:0.61843699 24:0.63809502 # Flowers/Shape3/shape3-002.ppm
2.7813743570007271744780827792229e-12 1:468917 2:737300 3:549580 4:2850.6399 5:20164.9 6:4.2083302 7:113.062 8:58964.602 9:20 10:96 11:61 12:302 13:7517.8301 14:4884.5498 15:155.646 16:174 17:0.23076899 18:22.230801 19:0.116279 20:0.85322797 21:0.141366 22:0.37281701 23:12.0717 24:4.75248 # Flowers/Shape1/shape1-032.ppm
-2.7813743570007271744780827792229e-12 1:426953 2:646050 3:535278 4:2772.48 5:18501.199 6:3.47826 7:113.915 8:9160.8799 9:6 10:161 11:27 12:480 13:11287.5 14:2651.8899 15:155.765 16:163.66701 17:0.38793099 18:23 19:0.28799999 20:0.797629 21:0.149854 22:0.61009598 23:3.4544799 24:1.725 # Flowers/Shape2/shape2-013.ppm
2.7813743570007271744780827792229e-12 1:137003 2:242136 3:178919 4:1569.92 5:5045.27 6:3.52632 7:100.948 8:32685.1 9:15 10:38 11:30 12:182 13:4286.2798 14:3605.3501 15:152.533 16:166.267 17:0.31034499 18:15.5455 19:0.225806 20:0.76572698 21:0.31116599 22:0.84956402 23:9.0657396 24:4.2537298 # Flowers/Shape1/shape1-027.ppm
-2.7813743570007271744780827792229e-12 1:116256 2:356153 3:197618 4:1891.15 5:4762.7598 6:3.3333299 7:108.884 8:10935.9 9:7 10:48 11:27 12:223 13:4939.98 14:2422 15:145.40401 16:166.222 17:0.33333299 18:13.8667 19:0.297297 20:0.58828503 21:0.39706999 22:1.03721 23:4.5152302 24:2.0999999 # Flowers/Shape5/shape5-019.ppm
2.7813743570007271744780827792229e-12 1:264694 2:537192 3:408958 4:2407.22 5:9728.04 6:3.7704899 7:106.349 8:43743.5 9:16 10:61 11:33 12:263 13:6693.0098 14:4339.25 15:151.65401 16:164.364 17:0.60526299 18:20.9167 19:0.22 20:0.64723998 21:0.24745101 22:0.688012 23:10.0809 24:4.2434802 # Flowers/Shape1/shape1-029.ppm
-2.7813743570007271744780827792229e-12 1:455640 2:581994 3:464864 4:2477.76 5:17878.801 6:3.3173699 7:119.062 8:530.92902 9:1 10:167 11:94 12:458 13:11410.5 14:2728.3899 15:159.88 16:174.77699 17:0.43965501 18:29.5333 19:0.274809 20:0.98016 21:0.138586 22:0.63821399 23:0.19459499 24:0.30144399 # Flowers/Shape3/shape3-017.ppm
2.7813743570007271744780827792229e-12 1:131415 2:313040 3:228154 4:1792.03 5:5121.3999 6:3.28 7:108.623 8:10935.9 9:10 10:50 11:19 12:241 13:5926.79 14:2628.3 15:159.45599 16:155.211 17:0.38888901 18:29.125 19:0.42857099 20:0.575993 21:0.34990999 22:1.1572599 23:4.16081 24:3.04878 # Flowers/Shape1/shape1-003.ppm
-2.7813743570007271744780827792229e-12 1:78093.398 2:269240 3:187052 4:1721.53 5:2798.6399 6:3.0344801 7:120.661 8:16741.5 9:9 10:29 11:8 12:172 13:4171.9199 14:2692.8799 15:159.75 16:134.875 17:0.44999999 18:33.400002 19:0.44999999 20:0.41749701 21:0.61513197 22:1.4907 23:6.21698 24:2.96591 # Flowers/Shape4/shape4-000.ppm
2.7813743570007271744780827792229e-12 1:264712 2:535896 3:408356 4:2404.3601 5:10742.4 6:3.9166701 7:106.329 8:48305.102 9:15 10:72 11:30 12:257 13:6699.98 14:3676.55 15:150.38499 16:165.533 17:0.53191501 18:31.125 19:0.2 20:0.648238 21:0.223819 22:0.62369502 23:13.1387 24:3.8297901 # Flowers/Shape1/shape1-008.ppm
-2.7813743570007271744780827792229e-12 1:267940 2:684947 3:459176 4:2584.51 5:11169 6:3.575 7:104.184 8:15836.8 9:10 10:80 11:25 12:344 13:8587.3799 14:3349.24 15:153.927 16:163.56 17:0.355932 18:17.105301 19:0.23076899 20:0.58352298 21:0.2314 22:0.76885903 23:4.7284598 24:2.7972 # Flowers/Shape5/shape5-004.ppm
2.7813743570007271744780827792229e-12 1:148305 2:256265 3:196682 4:1655.58 5:5472.9302 6:3.61905 7:100.245 8:22167.1 9:13 10:42 11:30 12:191 13:4671.04 14:3531.0601 15:154.267 16:165.633 17:0.40000001 18:20.2222 19:0.235294 20:0.754031 21:0.30250299 22:0.85348099 23:6.27773 24:3.5921099 # Flowers/Shape1/shape1-058.ppm
-2.7813743570007271744780827792229e-12 1:79249.203 2:265029 3:185342 4:1713.24 5:3349.52 6:3.3513501 7:121.149 8:13684.8 9:10 10:37 11:9 12:169 13:4133.0898 14:2141.8701 15:161.57401 16:127.444 17:0.68181801 18:55.333302 19:0.37037 20:0.42758301 21:0.51148802 22:1.23394 23:6.3891702 24:2.98387 # Flowers/Shape4/shape4-021.ppm
2.7813743570007271744780827792229e-12 1:264029 2:629532 3:408390 4:2405.0701 5:11455 6:3.8309901 7:106.229 8:57255.5 9:21 10:71 11:32 12:322 13:6808.6499 14:3718.71 15:139.30701 16:168.688 17:0.44898 18:10.9259 19:0.16393401 20:0.64651197 21:0.209958 22:0.594383 23:15.3966 24:5.4816198 # Flowers/Shape1/shape1-069.ppm
-2.7813743570007271744780827792229e-12 1:361641 2:458664 3:369082 4:2163.9299 5:16223.9 6:3.8407099 7:118.629 8:36643.5 9:19 10:113 11:79 12:308 13:7513.5298 14:3200.3601 15:157.435 16:174.633 17:0.50666702 18:21 19:0.22826099 20:0.97983801 21:0.133379 22:0.46311399 23:11.4498 24:4.947 # Flowers/Shape3/shape3-012.ppm
2.7813743570007271744780827792229e-12 1:129191 2:315120 3:228557 4:1796.39 5:5015.1299 6:3.34694 7:106.183 8:20106.199 9:10 10:49 11:18 12:245 13:5973.6099 14:2636.54 15:155.661 16:153.11099 17:0.40000001 18:16.5 19:0.441176 20:0.56524497 21:0.35819301 22:1.19112 23:7.6259599 24:2.9877999 # Flowers/Shape1/shape1-024.ppm
-2.7813743570007271744780827792229e-12 1:79752.797 2:403312 3:210614 4:1876.24 5:3254.72 6:3.1428599 7:119.853 8:18145.801 9:13 10:35 11:5 12:197 13:4536.23 14:2278.6499 15:150.274 16:95 17:0.296296 18:13.0714 19:0.40000001 20:0.378667 21:0.57646799 22:1.3937401 23:7.9634099 24:4.1363602 # Flowers/Shape4/shape4-002.ppm
2.7813743570007271744780827792229e-12 1:265894 2:535716 3:407338 4:2403.6599 5:12324.7 6:3.9000001 7:110.651 8:58106.898 9:20 10:80 11:30 12:326 13:6754.7798 14:3323.6699 15:143.98199 16:165.33299 17:0.42857099 18:18.1765 19:0.15942 20:0.652758 21:0.19502801 22:0.54806697 23:17.4828 24:5.1282101 # Flowers/Shape1/shape1-049.ppm
-1.9699267296791987583116030744143e-12 1:198245 2:693517 3:507314 4:2783.3101 5:8413.9297 6:3.3698599 7:119.659 8:59828.5 9:17 10:73 11:6 12:343 13:7385.0298 14:2715.6799 15:155.73199 16:103.5 17:0.403846 18:27.5833 19:0.216667 20:0.39077401 21:0.330798 22:0.87771398 23:22.030701 24:5.0447202 # Flowers/Shape4/shape4-014.ppm
2.7813743570007271744780827792229e-12 1:148337 2:256800 3:196856 4:1656.85 5:5019.6899 6:3.6216199 7:101.34 8:22167.1 9:13 10:37 11:30 12:194 13:4670.4302 14:4009.1001 15:153.407 16:165.433 17:0.54166698 18:23.25 19:0.27586201 20:0.75352901 21:0.33006999 22:0.93042201 23:5.5291901 24:3.58955 # Flowers/Shape1/shape1-038.ppm
-2.7813743570007271744780827792229e-12 1:79249.203 2:265029 3:185342 4:1713.24 5:3349.52 6:3.3513501 7:121.149 8:13684.8 9:10 10:37 11:9 12:169 13:4133.0898 14:2141.8701 15:161.57401 16:127.444 17:0.68181801 18:55.333302 19:0.37037 20:0.42758301 21:0.51148802 22:1.23394 23:6.3891702 24:2.98387 # Flowers/Shape4/shape4-019.ppm
2.7813743570007271744780827792229e-12 1:264723 2:631120 3:408296 4:2405.49 5:10880.6 6:3.8787899 7:104.621 8:58964.602 9:18 10:66 11:29 12:251 13:6664.3799 14:4010.95 15:154.912 16:164.207 17:0.346939 18:19.9167 19:0.157895 20:0.64836001 21:0.221081 22:0.61250198 23:14.7009 24:4.6406202 # Flowers/Shape1/shape1-089.ppm
-2.7813743570007271744780827792229e-12 1:228915 2:303408 3:236216 4:1734.4301 5:8775.1396 6:3.59322 7:113.766 8:43743.5 9:13 10:59 11:84 12:203 13:5064.3398 14:3879.9099 15:158.867 16:173.85699 17:0.340909 18:12.5333 19:0.204082 20:0.96908802 21:0.197652 22:0.577124 23:11.2744 24:3.6179199 # Flowers/Shape3/shape3-006.ppm
2.7813743570007271744780827792229e-12 1:133202 2:342171 3:228430 4:1792.05 5:5745.8301 6:3.3898301 7:104.794 8:8494.8701 9:10 10:59 11:16 12:275 13:6009.9702 14:2257.6699 15:145.89101 16:157.562 17:0.37209299 18:14.2778 19:0.404762 20:0.583121 21:0.311887 22:1.04597 23:3.7626801 24:2.95 # Flowers/Shape1/shape1-084.ppm
-2.7813743570007271744780827792229e-12 1:237463 2:539968 3:350296 4:2317.3899 5:10303.7 6:3.8209 7:112.175 8:23235.199 9:11 10:67 11:42 12:292 13:6352.27 14:3544.22 15:144.46899 16:167.76199 17:0.48888901 18:10.68 19:0.196429 20:0.67789102 21:0.22490799 22:0.61650199 23:6.5558 24:2.8789101 # Flowers/Shape5/shape5-012.ppm
2.7813743570007271744780827792229e-12 1:131504 2:345897 3:229432 4:1797.33 5:5235.6499 6:3.2363601 7:110.089 8:10207 9:8 10:55 11:19 12:271 13:6069.3101 14:2390.98 15:150.40601 16:154.158 17:0.375 18:14.0556 19:0.447368 20:0.57317197 21:0.34328699 22:1.15923 23:4.26898 24:2.47191 # Flowers/Shape1/shape1-064.ppm
-2.7813743570007271744780827792229e-12 1:77892.5 2:265558 3:185406 4:1713.67 5:2757.5901 6:3 7:123.55 8:13273.2 9:8 10:30 11:7 12:167 13:4126.3999 14:2596.4199 15:163.024 16:111.857 17:0.66666698 18:40.75 19:0.36363599 20:0.42011899 21:0.62143803 22:1.49638 23:5.1121302 24:2.6666701 # Flowers/Shape4/shape4-020.ppm
2.7813743570007271744780827792229e-12 1:287152 2:523416 3:346676 4:2264.02 5:12136.3 6:3.8181801 7:107.184 8:14102.6 9:12 10:77 11:49 12:283 13:6474.6001 14:3729.24 15:152.912 16:171 17:0.45282999 18:27.299999 19:0.14925399 20:0.82830101 21:0.18655001 22:0.53349 23:3.78163 24:3.1428599 # Flowers/Shape1/shape1-094.ppm
-2.7813743570007271744780827792229e-12 1:395239 2:644122 3:504627 4:2620.26 5:15641.5 6:3.37255 7:111.766 8:2123.72 9:4 10:153 11:28 12:569 13:12523.8 14:2583.26 15:137.13699 16:161.25 17:0.48543701 18:8.1774197 19:0.342105 20:0.78322899 21:0.16752 22:0.800677 23:0.82210702 24:1.1860501 # Flowers/Shape2/shape2-008.ppm
2.7813743570007271744780827792229e-12 1:148902 2:257335 3:196871 4:1657.04 5:5454.2798 6:3.55 7:104.569 8:22167.1 9:13 10:40 11:30 12:194 13:4685.2598 14:3722.5601 15:153.53101 16:165.467 17:0.29032299 18:15.1667 19:0.25 20:0.75634599 21:0.30380601 22:0.85900801 23:5.9547901 24:3.6619699 # Flowers/Shape1/shape1-017.ppm
-2.7813743570007271744780827792229e-12 1:79926.398 2:262636 3:205508 4:1722.37 5:3901.4099 6:3.2272699 7:115.735 8:21642.4 9:17 10:44 11:9 12:215 13:5072.9902 14:1816.51 15:152.995 16:132.66701 17:0.466667 18:15.5385 19:0.33333299 20:0.38892201 21:0.441475 22:1.3003 23:11.9143 24:5.2676101 # Flowers/Shape4/shape4-008.ppm
2.7813743570007271744780827792229e-12 1:286026 2:525352 3:347612 4:2268.5 5:10315.9 6:3.87692 7:103.615 8:18626.5 9:8 10:65 11:52 12:282 13:6490.2598 14:4400.3901 15:153.47501 16:173.03799 17:0.54761899 18:15.5882 19:0.203704 20:0.82283002 21:0.21990301 22:0.62914997 23:4.2329202 24:2.0634899 # Flowers/Shape1/shape1-074.ppm
-2.7813743570007271744780827792229e-12 1:213126 2:275307 3:219716 4:1674.71 5:9101.5596 6:3.69014 7:113.445 8:13684.8 9:8 10:71 11:76 12:210 13:5399.9399 14:3001.78 15:159.914 16:174.276 17:0.44898 18:34 19:0.24561401 20:0.97000599 21:0.184003 22:0.59329897 23:4.5588899 24:2.1679399 # Flowers/Shape3/shape3-009.ppm
2.7813743570007271744780827792229e-12 1:185305 2:455060 3:309677 4:2062.55 5:7013.98 6:3.38235 7:105.321 8:12076.3 9:12 10:68 11:24 12:332 13:7619.1299 14:2725.0801 15:151.52699 16:162.33299 17:0.38775501 18:12.28 19:0.33333299 20:0.598382 21:0.29406199 22:1.08628 23:4.43154 24:3.5478301 # Flowers/Shape1/shape1-097.ppm
-2.7813743570007271744780827792229e-12 1:295521 2:664216 3:454700 4:2515.8401 5:12599.2 6:3.30357 7:109.725 8:5541.77 9:4 10:112 11:27 12:407 13:9695.6504 14:2638.5801 15:149.22099 16:166 17:0.41772199 18:13.0345 19:0.244444 20:0.64992499 21:0.199683 22:0.76954597 23:2.1002901 24:1.2108099 # Flowers/Shape2/shape2-023.ppm
2.7813743570007271744780827792229e-12 1:147957 2:265727 3:207974 4:1722.62 5:6340.7202 6:3.68627 7:103.409 8:28952.9 9:16 10:51 11:27 12:206 13:4892.5298 14:2901.1299 15:154.786 16:165.963 17:0.41666701 18:17.727301 19:0.27500001 20:0.71142101 21:0.271676 22:0.77160501 23:9.9798899 24:4.3404298 # Flowers/Shape1/shape1-022.ppm
-2.7813743570007271744780827792229e-12 1:177035 2:261040 3:206828 4:1618.28 5:6451.46 6:2.86076 7:125.884 8:15836.8 9:6 10:79 11:64 12:404 13:8091.1602 14:2240.95 15:138.005 16:174.328 17:0.75555599 18:6.9215698 19:0.16176499 20:0.85595399 21:0.25083899 22:1.25416 23:7.0669999 24:2.0973499 # Flowers/Shape3/shape3-010.ppm
2.7813743570007271744780827792229e-12 1:289718 2:559770 3:348754 4:2279.9099 5:13022.6 6:4.1315799 7:110.059 8:28952.9 9:15 10:76 11:50 12:245 13:5955.8599 14:3812.0801 15:158.147 16:172.32001 17:0.206349 18:23.5 19:0.13432799 20:0.83072299 21:0.175073 22:0.45734701 23:7.5950398 24:3.6305699 # Flowers/Shape1/shape1-093.ppm
-2.7813743570007271744780827792229e-12 1:228188 2:518752 3:342758 4:2373.9099 5:9469.7598 6:3.4814799 7:109.368 8:28352.9 9:14 10:81 11:30 12:317 13:7459.4302 14:2817.1399 15:155.38499 16:165.60001 17:0.42105299 18:20.133301 19:0.208955 20:0.66574198 21:0.25068301 22:0.78771102 23:10.0644 24:4.0212798 # Flowers/Shape5/shape5-016.ppm
2.7813743570007271744780827792229e-12 1:187053 2:455806 3:310283 4:2064.73 5:7635.0498 6:3.4054101 7:106.989 8:11689.9 9:12 10:74 11:25 12:335 13:7669.3799 14:2527.74 15:150.875 16:163.52 17:0.45098001 18:18.7059 19:0.32142901 20:0.60284603 21:0.270428 22:1.0045 23:4.62463 24:3.5238099 # Flowers/Shape1/shape1-077.ppm
-2.7813743570007271744780827792229e-12 1:112018 2:307615 3:204417 4:1737.55 5:4171.6699 6:3.2432401 7:97.216904 8:18145.801 9:12 10:37 11:17 12:198 13:4763.3301 14:3027.52 15:150.263 16:154 17:0.32142901 18:10.6471 19:0.37037 20:0.54798901 21:0.416511 22:1.14183 23:5.9936299 24:3.7 # Flowers/Shape5/shape5-011.ppm
2.7813743570007271744780827792229e-12 1:291338 2:487816 3:348600 4:2275.8799 5:11658.4 6:4.0289898 7:106.545 8:21642.4 9:10 10:69 11:45 12:246 13:6003.6099 14:4222.2998 15:155.83701 16:170.711 17:0.254545 18:17.9231 19:0.18965501 20:0.83573997 21:0.195213 22:0.51495802 23:5.1257501 24:2.4820099 # Flowers/Shape1/shape1-033.ppm
2.7813743570007271744780827792229e-12 1:192935 2:332346 3:224522 4:1740.13 5:7891.27 6:3.9565201 7:101.779 8:57255.5 9:21 10:46 11:39 12:191 13:4581.5498 14:4194.23 15:154.717 16:169.436 17:0.48387101 18:18.1 19:0.24324299 20:0.85931098 21:0.220513 22:0.580585 23:13.651 24:5.3076901 # Flowers/Shape1/shape1-099.ppm
2.7813743570007271744780827792229e-12 1:138155 2:266700 3:209040 4:1694.71 5:4384.6602 6:3.625 7:101.845 8:33329.199 9:11 10:32 11:34 12:206 13:4866.5298 14:4317.3599 15:151.655 16:166.17599 17:0.52381003 18:14.8462 19:0.23076899 20:0.66090298 21:0.38650799 22:1.1099 23:7.71981 24:3.0344801 # Flowers/Shape1/shape1-040.ppm
-2.7813743570007271744780827792229e-12 1:88160.102 2:332304 3:214536 4:1910.3101 5:3653.0701 6:3.1428599 7:117.747 8:26015.5 9:14 10:35 11:15 12:198 13:4761.1899 14:2518.8601 15:155.72701 16:151.33299 17:0.40000001 18:23.75 19:0.346154 20:0.41093299 21:0.52293402 22:1.30334 23:10.3283 24:4.4545498 # Flowers/Shape4/shape4-016.ppm
2.7813743570007271744780827792229e-12 1:284435 2:493751 3:343364 4:2260.77 5:10095.7 6:3.73913 7:104.492 8:17671.5 9:8 10:69 11:50 12:271 13:6454.3398 14:4122.25 15:152.284 16:172.7 17:0.68292701 18:15.9375 19:0.210526 20:0.82837999 21:0.22393499 22:0.63931799 23:4.28685 24:2.1395299 # Flowers/Shape1/shape1-013.ppm
-2.7813743570007271744780827792229e-12 1:246097 2:311581 3:251338 4:1793.29 5:10551.4 6:3.4705901 7:116.353 8:2463.01 9:4 10:102 11:77 12:273 13:6854.21 14:2412.72 15:163.601 16:173.16901 17:0.47826099 18:53.599998 19:0.32467499 20:0.97915 21:0.169958 22:0.64960402 23:1.02084 24:1.15254 # Flowers/Shape3/shape3-008.ppm
2.7813743570007271744780827792229e-12 1:197356 2:389327 3:272836 4:1946.41 5:7642.9502 6:3.7735801 7:102.279 8:26590.4 9:15 10:53 11:31 12:235 13:5695.04 14:3723.7 15:157.694 16:164.323 17:0.472222 18:17.0769 19:0.20454501 20:0.72334898 21:0.25466701 22:0.74513602 23:7.1408701 24:3.9749999 # Flowers/Shape1/shape1-002.ppm
-2.7813743570007271744780827792229e-12 1:240935 2:318600 3:250408 4:1781.13 5:10203.8 6:3.2792799 7:121.984 8:2290.22 9:3 10:111 11:76 12:339 13:7738.9502 14:2170.5801 15:153.14999 16:174.32899 17:0.405063 18:20.1875 19:0.337349 20:0.96216798 21:0.174556 22:0.758439 23:1.05512 24:0.91483498 # Flowers/Shape3/shape3-007.ppm
2.7813743570007271744780827792229e-12 1:199061 2:387434 3:272323 4:1945.09 5:8677.2598 6:3.9000001 7:107.776 8:26590.4 9:14 10:60 11:27 12:240 13:5649.4399 14:3317.6799 15:154.892 16:164.07401 17:0.5 18:14 19:0.25 20:0.73097301 21:0.22416 22:0.65106201 23:8.0147696 24:3.58974 # Flowers/Shape1/shape1-102.ppm
-2.7813743570007271744780827792229e-12 1:266785 2:355908 3:277352 4:1893.54 5:10438.4 6:3.37255 7:114.091 8:6361.73 9:5 10:102 11:77 12:305 13:7558.6699 14:2615.54 15:158.80701 16:173.052 17:0.5 18:24.4167 19:0.378378 20:0.96189898 21:0.181402 22:0.72412401 23:2.4322801 24:1.48256 # Flowers/Shape3/shape3-004.ppm
2.7813743570007271744780827792229e-12 1:239593 2:378012 3:291862 4:2035.95 5:10887.2 6:3.8205099 7:112.303 8:27759.1 9:18 10:78 11:45 12:263 13:6228.6099 14:3071.71 15:155.008 16:171.267 17:0.47169799 18:25.299999 19:0.25806499 20:0.82091099 21:0.187004 22:0.57210398 23:9.0370302 24:4.71141 # Flowers/Shape1/shape1-076.ppm
-2.7813743570007271744780827792229e-12 1:178280 2:539570 3:367998 4:2351.29 5:6938.8599 6:3.2692299 7:117.356 8:56410.398 9:18 10:52 11:7 12:285 13:6067.3799 14:3428.46 15:147.502 16:118.857 17:0.33333299 18:13.25 19:0.238095 20:0.48445901 21:0.33885801 22:0.87440699 23:16.4536 24:5.5058799 # Flowers/Shape4/shape4-009.ppm
2.7813743570007271744780827792229e-12 1:150793 2:265278 3:209006 4:1725.08 5:6500.3901 6:3.5599999 7:97.695297 8:30171.9 9:16 10:50 11:29 12:206 13:4864.54 14:3015.8601 15:155.60699 16:164.207 17:0.282051 18:16.1667 19:0.219512 20:0.72147799 21:0.26538101 22:0.74834597 23:10.0044 24:4.49438 # Flowers/Shape1/shape1-101.ppm
-2.7813743570007271744780827792229e-12 1:118897 2:312759 3:235951 4:1825.34 5:5073.8301 6:3.2444401 7:117.406 8:26015.5 9:18 10:45 11:12 12:221 13:5341.0801 14:2642.1499 15:162.28999 16:143.75 17:0.36363599 18:35.833302 19:0.32352901 20:0.503905 21:0.35975501 22:1.05267 23:9.8463497 24:5.5479498 # Flowers/Shape4/shape4-005.ppm
2.7813743570007271744780827792229e-12 1:288908 2:488684 3:347822 4:2275.0901 5:12743.8 6:3.9154899 7:108.435 8:40828.102 9:17 10:71 11:42 12:250 13:5990.7998 14:4069.1299 15:157.14799 16:167.881 17:0.41999999 18:21.727301 19:0.18333299 20:0.830621 21:0.178526 22:0.47009599 23:10.0336 24:4.3417301 # Flowers/Shape1/shape1-053.ppm
-2.7813743570007271744780827792229e-12 1:251498 2:330625 3:260072 4:1822.9301 5:10718.5 6:3.3396201 7:114.795 8:2123.72 9:4 10:106 11:58 12:221 13:7335.2598 14:2372.6201 15:164.923 16:171.414 17:0.413333 18:43.200001 19:0.29268301 20:0.96703303 21:0.170073 22:0.68435401 23:0.89509201 24:1.19774 # Flowers/Shape3/shape3-013.ppm
2.7813743570007271744780827792229e-12 1:198664 2:382277 3:273598 4:1948.59 5:7625.3501 6:3.68627 7:105.912 8:32685.1 9:16 10:51 11:30 12:190 13:5551.7798 14:3895.3701 15:164.847 16:164.567 17:0.378378 18:30.6667 19:0.186047 20:0.72611398 21:0.255541 22:0.72807002 23:8.39077 24:4.3404298 # Flowers/Shape1/shape1-083.ppm
-2.7813743570007271744780827792229e-12 1:275417 2:363975 3:284092 4:1898.45 5:11335.1 6:3.45455 7:117.737 8:2463.01 9:4 10:99 11:74 12:310 13:7268.3501 14:2781.99 15:150.09 16:174.189 17:0.47761199 18:17.2353 19:0.2375 20:0.96946597 21:0.167484 22:0.64122403 23:0.88534099 24:1.15789 # Flowers/Shape3/shape3-016.ppm
2.7813743570007271744780827792229e-12 1:141290 2:266682 3:208990 4:1695.4 5:4487.75 6:3.5151501 7:105.193 8:33329.199 9:10 10:33 11:33 12:201 13:4885.8599 14:4281.5098 15:145.687 16:164.091 17:0.375 18:10.8235 19:0.222222 20:0.67606002 21:0.377783 22:1.08871 23:7.78444 24:2.84483 # Flowers/Shape1/shape1-019.ppm
-2.7813743570007271744780827792229e-12 1:92796.203 2:329904 3:236374 4:1823.77 5:3711.02 6:2.9302299 7:119.036 8:24328.5 9:14 10:43 11:9 12:235 13:5622.1099 14:2158.05 15:151.07201 16:128.33299 17:0.65384603 18:10.75 19:0.387097 20:0.392582 21:0.49144599 22:1.51498 23:11.2734 24:4.7777801 # Flowers/Shape4/shape4-010.ppm
2.7813743570007271744780827792229e-12 1:247102 2:444310 3:292838 4:2038.36 5:11027.4 6:3.65432 7:110.056 8:16286 9:9 10:81 11:54 12:254 13:6213.0898 14:3050.6499 15:153.69701 16:171.519 17:0.42105299 18:13.9412 19:0.208955 20:0.84382099 21:0.184844 22:0.56342101 23:5.3385501 24:2.4628401 # Flowers/Shape1/shape1-056.ppm
-2.7813743570007271744780827792229e-12 1:283377 2:377500 3:295284 4:1930.49 5:11084 6:3.0780101 7:119.563 8:1963.5 9:2 10:141 11:84 12:424 13:10352.3 14:2009.76 15:160.328 16:173.679 17:0.43877599 18:34.333302 19:0.58427 20:0.95967299 21:0.174169 22:0.93398201 23:0.976978 24:0.64977002 # Flowers/Shape3/shape3-019.ppm
2.7813743570007271744780827792229e-12 1:149927 2:262728 3:206524 4:1714.76 5:6701.5 6:3.5849099 7:104.788 8:32685.1 9:18 10:53 11:27 12:200 13:4808.48 14:2828.8101 15:157.64 16:164.741 17:0.29268301 18:39 19:0.232558 20:0.72595203 21:0.25587699 22:0.71752298 23:11.5544 24:5.02105 # Flowers/Shape1/shape1-042.ppm
-2.7813743570007271744780827792229e-12 1:86617.102 2:340158 3:231469 4:1887.12 5:3478.9099 6:2.9523799 7:121.232 8:14102.6 9:11 10:42 11:10 12:233 13:5460.2798 14:2062.3101 15:158.584 16:134.7 17:0.555556 18:24.888901 19:0.3125 20:0.37420601 21:0.54244602 22:1.56954 23:6.8382502 24:3.7258101 # Flowers/Shape4/shape4-018.ppm
2.7813743570007271744780827792229e-12 1:289819 2:488684 3:348356 4:2274.99 5:12900.8 6:4.05479 7:110.466 8:58106.898 9:18 10:73 11:49 12:244 13:6011.6499 14:3970.1201 15:156.791 16:172.367 17:0.25862101 18:16.4286 19:0.17741901 20:0.83196098 21:0.17634501 22:0.46599001 23:14.6361 24:4.4391899 # Flowers/Shape1/shape1-012.ppm
-2.7813743570007271744780827792229e-12 1:370827 2:525280 3:414188 4:2349.3601 5:16309.1 6:3.7164199 7:107.091 8:5808.7998 9:6 10:134 11:36 12:436 13:9115.21 14:2767.3601 15:141.823 16:165.33299 17:0.48888901 18:16.440001 19:0.27619001 20:0.895311 21:0.144052 22:0.55890203 23:2.09904 24:1.61446 # Flowers/Shape3/shape3-011.ppm
2.7813743570007271744780827792229e-12 1:156340 2:264132 3:208178 4:1693.03 5:5671.4902 6:3.5 7:101.764 8:30790.699 9:15 10:44 11:33 12:208 13:4864.02 14:3553.1799 15:148.726 16:165.121 17:0.375 18:15 19:0.189189 20:0.750992 21:0.29851499 22:0.85762697 23:8.6656904 24:4.2857099 # Flowers/Shape1/shape1-060.ppm
-2.7813743570007271744780827792229e-12 1:92825.703 2:364868 3:245155 4:1857.73 5:3655.3701 6:2.86957 7:117.5 8:15836.8 9:12 10:46 11:10 12:255 13:5827.8701 14:2017.95 15:154.075 16:138.89999 17:0.58620697 18:18.6154 19:0.4375 20:0.37864101 21:0.50822002 22:1.59433 23:7.84795 24:4.1818199 # Flowers/Shape4/shape4-007.ppm
2.7813743570007271744780827792229e-12 1:291244 2:561358 3:350690 4:2281.98 5:11527.5 6:3.84848 7:107.814 8:66966.203 9:17 10:66 11:48 12:245 13:5943.3599 14:4412.79 15:159.188 16:170.875 17:0.404255 18:34 19:0.137931 20:0.83048898 21:0.19796 22:0.51558 23:15.1755 24:4.4173198 # Flowers/Shape1/shape1-073.ppm
-2.7813743570007271744780827792229e-12 1:309152 2:396896 3:318670 4:2008.13 5:13047.9 6:3.3475201 7:119.861 8:3631.6799 9:4 10:141 11:79 12:394 13:9593.2695 14:2192.5701 15:156.784 16:174.54401 17:0.5 18:27.1429 19:0.39603999 20:0.97013301 21:0.153905 22:0.735237 23:1.65636 24:1.1949199 # Flowers/Shape3/shape3-003.ppm
2.7813743570007271744780827792229e-12 1:200843 2:389958 3:273710 4:1948.63 5:8821.8896 6:3.8620701 7:106.482 8:30790.699 9:19 10:58 11:31 12:239 13:5623.6602 14:3462.8 15:156.946 16:163.323 17:0.44999999 18:16.0714 19:0.16 20:0.73377699 21:0.22088499 22:0.63746703 23:8.89186 24:4.9196401 # Flowers/Shape1/shape1-043.ppm
-2.7813743570007271744780827792229e-12 1:259705 2:369135 3:288880 4:1991.73 5:10122.2 6:3.1858399 7:119.623 8:5281.02 9:4 10:113 11:57 12:350 13:8893.1299 14:2298.27 15:159.82001 16:172.614 17:0.43037999 18:25.9231 19:0.43037999 20:0.89900798 21:0.19677 22:0.87858099 23:2.2978201 24:1.25556 # Flowers/Shape3/shape3-005.ppm
2.7813743570007271744780827792229e-12 1:199778 2:390600 3:274610 4:1951.1899 5:7906.52 6:3.7818201 7:98.254898 8:33329.199 9:17 10:55 11:32 12:237 13:5701.6499 14:3632.3301 15:154.882 16:168.875 17:0.61764699 18:13.8125 19:0.19565199 20:0.72749698 21:0.246782 22:0.72113401 23:9.1756897 24:4.4951901 # Flowers/Shape1/shape1-023.ppm
-2.7813743570007271744780827792229e-12 1:100718 2:393808 3:252776 4:1906.5 5:3803.3799 6:2.9047599 7:119.914 8:22167.1 9:12 10:42 11:9 12:263 13:5984.7002 14:2398.04 15:153.696 16:128 17:0.615385 18:15.4375 19:0.354839 20:0.39844501 21:0.501266 22:1.5735199 23:9.2438297 24:4.1311498 # Flowers/Shape4/shape4-015.ppm
2.7813743570007271744780827792229e-12 1:245464 2:445095 3:293847 4:2039.99 5:10930.2 6:3.8499999 7:108.61 8:27171.6 9:16 10:80 11:51 12:264 13:6209.0601 14:3068.3 15:152.25 16:171.431 17:0.45454499 18:17.8571 19:0.23076899 20:0.835347 21:0.186638 22:0.56806397 23:8.8555899 24:4.1558399 # Flowers/Shape1/shape1-036.ppm
-2.7813743570007271744780827792229e-12 1:306997 2:396896 3:318241 4:2007.2 5:12861.9 6:3.3880601 7:119.525 8:4071.5 9:6 10:134 11:83 12:392 13:9588.5303 14:2291.02 15:157.258 16:175.349 17:0.44086 18:19.631599 19:0.42553201 20:0.96466798 21:0.156058 22:0.74550003 23:1.77716 24:1.7709301 # Flowers/Shape3/shape3-024.ppm
2.7813743570007271744780827792229e-12 1:151412 2:267344 3:207694 4:1722.55 5:6874.1401 6:3.6981101 7:103.909 8:33329.199 9:18 10:53 11:26 12:209 13:4870.2202 14:2856.8401 15:154.27299 16:165 17:0.35897401 18:18 19:0.26190501 20:0.72901601 21:0.25058401 22:0.70848501 23:11.6665 24:4.8673501 # Flowers/Shape1/shape1-001.ppm
-2.7813743570007271744780827792229e-12 1:169525 2:405573 3:290725 4:2046.8 5:7595.7798 6:3.5185201 7:111.044 8:26590.4 9:14 10:54 11:22 12:239 13:5624.5098 14:3139.3401 15:146.59399 16:157.091 17:0.285714 18:13.9375 19:0.148936 20:0.58310997 21:0.26946601 22:0.74047798 23:8.4700603 24:3.97895 # Flowers/Shape5/shape5-000.ppm
2.7813743570007271744780827792229e-12 1:281959 2:493751 3:343101 4:2258.7 5:10973 6:3.7260301 7:103.945 8:60698.699 9:15 10:73 11:49 12:258 13:6444.98 14:3862.45 15:153.87199 16:171.89799 17:0.48979601 18:22.4545 19:0.196721 20:0.821796 21:0.205843 22:0.58735102 23:15.7151 24:4.0257401 # Flowers/Shape1/shape1-034.ppm
-2.7813743570007271744780827792229e-12 1:168412 2:406134 3:289378 4:2043.48 5:7508.2798 6:3.6226399 7:108.489 8:24884.6 9:13 10:53 11:22 12:194 13:5532.4902 14:3177.5901 15:153.144 16:156.5 17:0.35897401 18:16.6364 19:0.17777801 20:0.58197898 21:0.272163 22:0.73685199 23:7.8312702 24:3.5885401 # Flowers/Shape5/shape5-020.ppm
2.7813743570007271744780827792229e-12 1:197287 2:380474 3:271804 4:1942.89 5:8204.3203 6:3.7777801 7:110.647 8:35298.898 9:19 10:54 11:30 12:200 13:5588.8398 14:3653.47 15:160.78 16:165.10001 17:0.384615 18:21.2222 19:0.173913 20:0.72584498 21:0.23681299 22:0.681207 23:9.6617603 24:5.0294099 # Flowers/Shape1/shape1-063.ppm
-2.7813743570007271744780827792229e-12 1:267170 2:370040 3:293970 4:1972.73 5:10925.7 6:3.2181799 7:115.665 8:706.85797 9:2 10:110 11:62 12:383 13:8374.8301 14:2428.8201 15:139.23801 16:171.839 17:0.32530099 18:9.9428596 19:0.25 20:0.90883303 21:0.18055899 22:0.76652902 23:0.29102999 24:0.62146902 # Flowers/Shape3/shape3-018.ppm
2.7813743570007271744780827792229e-12 1:149196 2:283550 3:196634 4:1657.34 5:5102.8101 6:3.7297299 7:102.921 8:21642.4 9:13 10:37 11:30 12:196 13:4662.8101 14:4032.3201 15:155.041 16:164.733 17:0.54166698 18:20.7778 19:0.32142901 20:0.75875002 21:0.32479 22:0.913773 23:5.36724 24:3.4855101 # Flowers/Shape1/shape1-078.ppm
-2.7813743570007271744780827792229e-12 1:159381 2:412794 3:278041 4:2002.1899 5:7238.25 6:3.5999999 7:107.263 8:13273.2 9:8 10:60 11:24 12:245 13:5858.3901 14:2656.3501 15:154.151 16:162.375 17:0.42857099 18:16.5 19:0.17647099 20:0.57322901 21:0.27661201 22:0.80936497 23:4.9967899 24:2.2222199 # Flowers/Shape5/shape5-006.ppm
2.7813743570007271744780827792229e-12 1:286853 2:494064 3:343327 4:2260.55 5:12593.6 6:3.8139501 7:105.864 8:60698.699 9:20 10:86 11:50 12:270 13:6483.0898 14:3335.5 15:152.181 16:172.75999 17:0.53571397 18:17 19:0.194444 20:0.83551002 21:0.179501 22:0.51479298 23:18.1978 24:5.2438998 # Flowers/Shape1/shape1-054.ppm
-2.7813743570007271744780827792229e-12 1:196182 2:497718 3:348992 4:2195.0801 5:8346.8604 6:3.6896601 7:108.474 8:43005.301 9:15 10:58 11:22 12:260 13:6303.9702 14:3382.4399 15:149.46201 16:157.27299 17:0.34883699 18:16.3333 19:0.208333 20:0.56213897 21:0.26298299 22:0.75525099 23:12.7143 24:4.0654202 # Flowers/Shape5/shape5-005.ppm
2.7813743570007271744780827792229e-12 1:150682 2:283023 3:196272 4:1656.76 5:5316.0698 6:3.58974 7:101.861 8:23235.199 9:13 10:39 11:36 12:192 13:4655.2598 14:3863.6299 15:155.422 16:166.08299 17:0.444444 18:20.3333 19:0.25806499 20:0.76771897 21:0.31165099 22:0.87569398 23:6.0138202 24:3.6214299 # Flowers/Shape1/shape1-098.ppm
-2.7813743570007271744780827792229e-12 1:126623 2:390616 3:298272 4:2047.9399 5:5341.1401 6:3.2156899 7:114.991 8:35298.898 9:17 10:51 11:9 12:292 13:6093.2402 14:2482.8101 15:138.185 16:130.88901 17:0.41666701 18:7.5882401 19:0.342105 20:0.424523 21:0.38342699 22:1.14081 23:14.2173 24:5.2865901 # Flowers/Shape4/shape4-011.ppm
2.7813743570007271744780827792229e-12 1:238912 2:440914 3:288834 4:2027.28 5:8642.5898 6:3.63077 7:108.994 8:53912.898 9:6 10:65 11:47 12:246 13:6227.6899 14:3675.5701 15:155.51199 16:171.702 17:0.444444 18:17.9231 19:0.160714 20:0.82716101 21:0.234568 22:0.720581 23:14.6679 24:1.65254 # Flowers/Shape1/shape1-015.ppm
-2.7813743570007271744780827792229e-12 1:169568 2:404271 3:289302 4:2043.59 5:6999.6401 6:3.67857 7:101.587 8:9160.8799 9:5 10:56 11:20 12:238 13:5537.7998 14:3028 15:146.32401 16:159.55 17:0.555556 18:13 19:0.217391 20:0.58612698 21:0.29195601 22:0.79115599 23:3.0253899 24:1.35922 # Flowers/Shape5/shape5-021.ppm
2.7813743570007271744780827792229e-12 1:237613 2:378740 3:291972 4:2035.54 5:7793.98 6:3.65517 7:107.058 8:54739.102 9:5 10:58 11:49 12:263 13:6216.6401 14:4096.7798 15:154.065 16:171.082 17:0.48717901 18:19.230801 19:0.208333 20:0.81382102 21:0.261168 22:0.79762 23:13.3615 24:1.36792 # Flowers/Shape1/shape1-096.ppm
-2.7813743570007271744780827792229e-12 1:223592 2:470470 3:321530 4:2140.8601 5:8798.5703 6:3.3176501 7:108.274 8:12076.3 9:9 10:85 11:27 12:311 13:7488.6899 14:2630.49 15:151.27 16:165.185 17:0.41666701 18:21.2143 19:0.268657 20:0.69539899 21:0.243319 22:0.85112602 23:4.5908799 24:2.71277 # Flowers/Shape2/shape2-006.ppm
2.7813743570007271744780827792229e-12 1:215062 2:433202 3:270736 4:1964.71 5:8038.6001 6:4 7:102.38 8:53092.898 9:19 10:43 11:39 12:215 13:4684.2598 14:5001.4399 15:149.89799 16:168.46201 17:0.43333301 18:15.5385 19:0.131579 20:0.79436201 21:0.24440999 22:0.58272099 23:10.6155 24:4.75 # Flowers/Shape1/shape1-086.ppm
-2.7813743570007271744780827792229e-12 1:241320 2:480000 3:342795 4:2238.0601 5:9195.96 6:3.63077 7:111.655 8:16741.5 9:9 10:65 11:46 12:304 13:6834.9102 14:3712.6201 15:146.56599 16:169.478 17:0.47727299 18:20.7143 19:0.203704 20:0.703978 21:0.243375 22:0.74325103 23:4.5093598 24:2.4788101 # Flowers/Shape5/shape5-014.ppm
2.7813743570007271744780827792229e-12 1:216943 2:332800 3:272118 4:1966.58 5:7362.6099 6:3.94872 7:104.852 8:54739.102 9:19 10:39 11:38 12:231 13:4728.54 14:5562.6299 15:142.381 16:166.31599 17:0.444444 18:18.25 19:0.14705899 20:0.79723901 21:0.267104 22:0.64223701 23:9.8405104 24:4.8116899 # Flowers/Shape1/shape1-046.ppm
-2.7813743570007271744780827792229e-12 1:208376 2:508269 3:351212 4:2247.3899 5:8059.7002 6:3.67273 7:102.224 8:33329.199 9:12 10:55 11:23 12:241 13:5874.98 14:3788.6499 15:154.892 16:161.34801 17:0.447368 18:25.7778 19:0.19565199 20:0.59330398 21:0.27884299 22:0.72893298 23:8.7971096 24:3.2673299 # Flowers/Shape5/shape5-003.ppm
2.7813743570007271744780827792229e-12 1:214888 2:436437 3:270925 4:1965.83 5:7487.71 6:3.9473701 7:106.527 8:64242.398 9:20 10:38 11:36 12:219 13:4688.4302 14:5654.9302 15:147.959 16:165.806 17:0.46153799 18:11.8824 19:0.15151501 20:0.79316199 21:0.262541 22:0.62615001 23:11.3604 24:5.0666699 # Flowers/Shape1/shape1-066.ppm
-2.7813743570007271744780827792229e-12 1:90963.297 2:426400 3:299048 4:2059.55 5:3650.78 6:2.7451 7:132.23599 8:15836.8 9:11 10:51 11:8 12:271 13:6616.1401 14:1783.59 15:150.756 16:134.875 17:0.59375 18:10.7826 19:0.30769199 20:0.304176 21:0.56413901 22:1.81225 23:8.8791304 24:4.0071402 # Flowers/Shape4/shape4-004.ppm
2.7813743570007271744780827792229e-12 1:212952 2:420090 3:271645 4:1931.61 5:8819.5596 6:4.0377402 7:102.696 8:67886.703 9:20 10:53 11:36 12:209 13:4895.5601 14:4017.96 15:153.70799 16:165.75 17:0.26190501 18:19.9 19:0.12766001 20:0.78393501 21:0.219015 22:0.55508 23:16.8958 24:4.95327 # Flowers/Shape1/shape1-088.ppm
-2.7813743570007271744780827792229e-12 1:207984 2:506160 3:350153 4:2245.26 5:9365.6602 6:3.7910399 7:108.348 8:23778.699 9:12 10:67 11:21 12:241 13:5833.8501 14:3104.25 15:156.444 16:156.619 17:0.48888901 18:47.200001 19:0.196429 20:0.59398198 21:0.239733 22:0.62289798 23:7.6600599 24:3.16535 # Flowers/Shape5/shape5-024.ppm
2.7813743570007271744780827792229e-12 1:210724 2:418836 3:271231 4:1928.91 5:8456.1299 6:3.95455 7:101.723 8:75476.797 9:24 10:44 11:36 12:209 13:4879.4102 14:4789.1802 15:154.325 16:166.36099 17:0.41935501 18:22.2222 19:0.157895 20:0.77691698 21:0.228108 22:0.57702601 23:15.7598 24:6.0689702 # Flowers/Shape1/shape1-068.ppm
-2.7813743570007271744780827792229e-12 1:304009 2:504654 3:399098 4:2327.8301 5:10913.3 6:3.2765999 7:108.682 8:3848.45 9:2 10:94 11:33 12:371 13:8852.1396 14:3234.1299 15:154.27499 16:164.758 17:0.46875 18:18.5263 19:0.27026999 20:0.76173902 21:0.213302 22:0.81113201 23:1.18995 24:0.61039001 # Flowers/Shape2/shape2-005.ppm
2.7813743570007271744780827792229e-12 1:216485 2:331911 3:271630 4:1967.21 5:6806.2402 6:3.94118 7:100.62 8:54739.102 9:17 10:34 11:42 12:224 13:4730.8301 14:6367.2002 15:144.759 16:167.619 17:0.47826099 18:17.6667 19:0.172414 20:0.796983 21:0.28902999 22:0.69507301 23:8.5970402 24:4.3134298 # Flowers/Shape1/shape1-026.ppm
-2.7813743570007271744780827792229e-12 1:213389 2:527571 3:362670 4:2274.1499 5:8964.5996 6:3.4473701 7:103.882 8:13684.8 9:9 10:76 11:18 12:244 13:7393.0498 14:2807.75 15:162.217 16:153.61099 17:0.46153799 18:26.111099 19:0.26666701 20:0.58838397 21:0.253681 22:0.82469398 23:4.87393 24:2.6106901 # Flowers/Shape5/shape5-023.ppm
2.7813743570007271744780827792229e-12 1:216547 2:332800 3:270836 4:1966.26 5:8453.8398 6:4.1463399 7:103.558 8:62458 9:23 10:41 11:36 12:220 13:4684.9302 14:5281.6299 15:143.923 16:165.778 17:0.32258099 18:17.3333 19:0.17142899 20:0.79954797 21:0.23258799 22:0.554178 23:11.8255 24:5.54706 # Flowers/Shape1/shape1-005.ppm
-2.7813743570007271744780827792229e-12 1:253081 2:533065 3:395560 4:2365.5601 5:10805.1 6:3.5 7:104.886 8:23235.199 9:13 10:84 11:23 12:242 13:7333.6299 14:3012.8701 15:158.08701 16:160.13 17:0.44827601 18:29.25 19:0.2 20:0.63980502 21:0.218931 22:0.67872202 23:7.7119799 24:3.7142899 # Flowers/Shape5/shape5-007.ppm
2.7813743570007271744780827792229e-12 1:208922 2:326350 3:271396 4:1929.4301 5:7148.5601 6:3.9047599 7:96.237701 8:69746.5 9:18 10:42 11:36 12:216 13:4872.3198 14:4974.3198 15:155.685 16:165.41701 17:0.555556 18:35 19:0.166667 20:0.76980501 21:0.269905 22:0.68158001 23:14.0213 24:4.6097598 # Flowers/Shape1/shape1-048.ppm
-2.7813743570007271744780827792229e-12 1:240959 2:527175 3:389360 4:2302.3401 5:10994.6 6:3.68293 7:105.914 8:16741.5 9:12 10:82 11:22 12:337 13:7958.6499 14:2938.53 15:153.72099 16:157.409 17:0.38983101 18:29.6364 19:0.17142899 20:0.61886102 21:0.209406 22:0.72386801 23:5.6972499 24:3.25828 # Flowers/Shape5/shape5-008.ppm
2.7813743570007271744780827792229e-12 1:147099 2:327025 3:206920 4:1718.98 5:6308.1499 6:3.625 7:106.024 8:30790.699 9:16 10:48 11:28 12:211 13:4893.9902 14:3064.5601 15:152.23199 16:162.60699 17:0.41176501 18:16.5833 19:0.26315799 20:0.710899 21:0.27250099 22:0.77582097 23:10.0474 24:4.4137902 # Flowers/Shape1/shape1-062.ppm
-2.7813743570007271744780827792229e-12 1:286772 2:529306 3:437619 4:2455.29 5:11490.3 6:3.48454 7:106 8:28352.9 9:13 10:97 11:24 12:385 13:8829.7305 14:2956.4099 15:150.605 16:162.33299 17:0.469697 18:12.75 19:0.29333299 20:0.65530002 21:0.21368399 22:0.76845098 23:9.5903101 24:3.7307701 # Flowers/Shape2/shape2-003.ppm
2.7813743570007271744780827792229e-12 1:148886 2:326510 3:207343 4:1719.12 5:7072.98 6:3.70909 7:99.5839 8:30171.9 9:18 10:55 11:28 12:204 13:4837.71 14:2707.02 15:155.662 16:163.821 17:0.341463 18:21.6667 19:0.25 20:0.71806699 21:0.243054 22:0.68397099 23:11.1458 24:4.8529401 # Flowers/Shape1/shape1-082.ppm
-2.7813743570007271744780827792229e-12 1:274312 2:563220 3:439215 4:2488.71 5:11296.1 6:3.63415 7:106.56 8:27759.1 9:15 10:82 11:23 12:338 13:8116.0298 14:3345.26 15:145.63 16:160.13 17:0.366667 18:13.6957 19:0.18840601 20:0.62454998 21:0.22031599 22:0.71848297 23:8.2980404 24:4.1275201 # Flowers/Shape5/shape5-009.ppm
2.7813743570007271744780827792229e-12 1:156058 2:313560 3:207923 4:1690.6801 5:5969.46 6:3.5999999 7:101.359 8:33329.199 9:15 10:45 11:31 12:208 13:4861.6899 14:3467.96 15:150.88901 16:163.452 17:0.32352901 18:15 19:0.216216 20:0.75055701 21:0.28322101 22:0.81442702 23:9.6106005 24:4.1666698 # Flowers/Shape1/shape1-080.ppm
-2.7813743570007271744780827792229e-12 1:296556 2:592137 3:419961 4:2401.6001 5:12134.2 6:3.3675201 7:104.238 8:5541.77 9:5 10:117 11:33 12:401 13:9396.7305 14:2534.6699 15:151.257 16:164.18201 17:0.5 18:15.04 19:0.32954499 20:0.70615202 21:0.19791999 22:0.7744 23:2.1863899 24:1.4847701 # Flowers/Shape2/shape2-002.ppm
2.7813743570007271744780827792229e-12 1:193423 2:331194 3:224396 4:1738.66 5:8752.0898 6:3.7377 7:106.617 8:40115 9:16 10:61 11:45 12:203 13:4581.8799 14:3170.8701 15:143.714 16:171.04401 17:0.29787201 18:9.1499996 19:0.173077 20:0.86197102 21:0.19865701 22:0.52351803 23:12.6511 24:4.2807002 # Flowers/Shape1/shape1-079.ppm
-2.7813743570007271744780827792229e-12 1:372766 2:627328 3:506705 4:2598.49 5:15258.4 6:3.2349 7:107.231 8:804.24799 9:3 10:149 11:35 12:528 13:12451.2 14:2501.79 15:152.08701 16:166.314 17:0.41904801 18:15 19:0.366972 20:0.73566699 21:0.17029899 22:0.816019 23:0.32146901 24:0.92738599 # Flowers/Shape2/shape2-009.ppm
2.7813743570007271744780827792229e-12 1:210223 2:325280 3:271244 4:1928.64 5:7917.8999 6:3.9047599 7:105.098 8:76453.797 9:22 10:42 11:37 12:218 13:4889.6099 14:5005.2998 15:152.44501 16:166.946 17:0.555556 18:26.25 19:0.166667 20:0.77503097 21:0.243579 22:0.61753798 23:15.2746 24:5.63415 # Flowers/Shape1/shape1-007.ppm
-2.7813743570007271744780827792229e-12 1:262149 2:551688 3:482727 4:2581.04 5:10564.1 6:3.3494 7:106.944 8:29559.199 9:12 10:83 11:25 12:359 13:8843.3496 14:3158.4299 15:155 16:164.92 17:0.296875 18:28.9167 19:0.18571401 20:0.54305899 21:0.244323 22:0.83711702 23:9.3588495 24:3.5827301 # Flowers/Shape5/shape5-010.ppm
2.7813743570007271744780827792229e-12 1:198121 2:321750 3:226426 4:1730.58 5:9113.1299 6:4.0784302 7:105.102 8:77437.102 9:25 10:51 11:39 12:177 13:4225.0801 14:3884.72 15:150.44099 16:169.026 17:0.342105 18:28.5 19:0.186047 20:0.87498897 21:0.1899 22:0.463626 23:19.9338 24:6.1298099 # Flowers/Shape1/shape1-070.ppm
