SVM-light Version V6.02
0 # kernel type
3 # kernel parameter -d 
1 # kernel parameter -g 
1 # kernel parameter -s 
1 # kernel parameter -r 
empty# kernel parameter -u 
4 # highest feature index 
19 # number of training documents 
13 # number of support vectors plus 1 
-2.4117253 # threshold b, each following line is a SV (starting with alpha*y)
-5.5241905541517556336676711968382e-12 1:302617 2:431257 3:14127 4:3.6134501 # shape2-004
5.5241905541517556336676711968382e-12 1:201055 2:227203 3:8645.5303 4:3.7083299 # shape1-009
-5.5241905541517556336676711968382e-12 1:223592 2:321530 3:8798.5703 4:3.3176501 # shape2-006
5.5241905541517556336676711968382e-12 1:264712 2:408356 3:10742.4 4:3.9166701 # shape1-008
-5.5241905541517556336676711968382e-12 1:304009 2:399098 3:10913.3 4:3.2765999 # shape2-005
5.5241905541517556336676711968382e-12 1:216547 2:270836 3:8453.8398 4:4.1463399 # shape1-005
-5.5241905541517556336676711968382e-12 1:296556 2:419961 3:12134.2 4:3.3675201 # shape2-002
5.5241905541517556336676711968382e-12 1:210223 2:271244 3:7917.8999 4:3.9047599 # shape1-007
-5.5241905541517556336676711968382e-12 1:286772 2:437619 3:11490.3 4:3.48454 # shape2-003
5.5241905541517556336676711968382e-12 1:197356 2:272836 3:7642.9502 4:3.7735801 # shape1-002
-5.5241905541517556336676711968382e-12 1:314886 2:512145 3:13295.2 4:3.4862399 # shape2-000
5.5241905541517556336676711968382e-12 1:131415 2:228154 3:5121.3999 4:3.28 # shape1-003
