SVM-light Version V6.02
0 # kernel type
3 # kernel parameter -d 
1 # kernel parameter -g 
1 # kernel parameter -s 
1 # kernel parameter -r 
empty# kernel parameter -u 
4 # highest feature index 
36 # number of training documents 
23 # number of support vectors plus 1 
-2.5516711 # threshold b, each following line is a SV (starting with alpha*y)
-4.1921182260144977411546131110922e-12 1:302617 2:431257 3:14127 4:3.6134501 # shape2-004
4.1921182260144977411546131110922e-12 1:197356 2:272836 3:7642.9502 4:3.7735801 # shape1-002
-4.1921182260144977411546131110922e-12 1:223592 2:321530 3:8798.5703 4:3.3176501 # shape2-006
4.1921182260144977411546131110922e-12 1:465851 2:545202 3:21037 4:4.1782198 # shape1-011
-4.1921182260144977411546131110922e-12 1:426953 2:535278 3:18501.199 4:3.47826 # shape2-013
4.1921182260144977411546131110922e-12 1:160245 2:310072 3:5845.4199 4:3.4074099 # shape1-016
-4.1921182260144977411546131110922e-12 1:304009 2:399098 3:10913.3 4:3.2765999 # shape2-005
4.1921182260144977411546131110922e-12 1:451654 2:552714 3:20618 4:4.1414099 # shape1-014
-4.1921182260144977411546131110922e-12 1:296556 2:419961 3:12134.2 4:3.3675201 # shape2-002
4.1921182260144977411546131110922e-12 1:264712 2:408356 3:10742.4 4:3.9166701 # shape1-008
-4.1921182260144977411546131110922e-12 1:286772 2:437619 3:11490.3 4:3.48454 # shape2-003
4.1921182260144977411546131110922e-12 1:289819 2:348356 3:12900.8 4:4.05479 # shape1-012
-4.1921182260144977411546131110922e-12 1:314886 2:512145 3:13295.2 4:3.4862399 # shape2-000
4.1921182260144977411546131110922e-12 1:284435 2:343364 3:10095.7 4:3.73913 # shape1-013
-4.1921182260144977411546131110922e-12 1:372766 2:506705 3:15258.4 4:3.2349 # shape2-009
4.1921182260144977411546131110922e-12 1:238912 2:288834 3:8642.5898 4:3.63077 # shape1-015
-4.1921182260144977411546131110922e-12 1:339982 2:520352 3:15803.3 4:3.5539601 # shape2-016
4.1921182260144977411546131110922e-12 1:216547 2:270836 3:8453.8398 4:4.1463399 # shape1-005
-4.1921182260144977411546131110922e-12 1:395239 2:504627 3:15641.5 4:3.37255 # shape2-008
4.1921182260144977411546131110922e-12 1:210223 2:271244 3:7917.8999 4:3.9047599 # shape1-007
-1.9361624984819684097267013650468e-12 1:362327 2:568338 3:13772.8 4:3.1194 # shape2-001
1.9361624984820201085149859292764e-12 1:201055 2:227203 3:8645.5303 4:3.7083299 # shape1-009
