SVM-light Version V6.02
0 # kernel type
3 # kernel parameter -d 
1 # kernel parameter -g 
1 # kernel parameter -s 
1 # kernel parameter -r 
empty# kernel parameter -u 
24 # highest feature index 
194 # number of training documents 
180 # number of support vectors plus 1 
-0.31711947 # threshold b, each following line is a SV (starting with alpha*y)
-3.2456798552441476454061725576506e-12 1:266785 2:355908 3:277352 4:1893.54 5:10438.4 6:3.37255 7:114.091 8:6361.73 9:5 10:102 11:77 12:305 13:7558.6699 14:2615.54 15:158.80701 16:173.052 17:0.5 18:24.4167 19:0.378378 20:0.96189898 21:0.181402 22:0.72412401 23:2.4322801 24:1.48256 # Flowers/Shape3/shape3-004.ppm
3.2456798552441476454061725576506e-12 1:145719 2:208923 3:171480 4:1540.67 5:6066.2998 6:3.6666701 7:107.402 8:53912.898 9:18 10:42 11:38 12:161 13:3801.27 14:3469.5 15:155.845 16:166.605 17:0.40000001 18:31.200001 19:0.235294 20:0.84977502 21:0.25397199 22:0.62661999 23:15.5391 24:4.90909 # Flowers/Shape1/shape1-000.ppm
-3.2456798552441476454061725576506e-12 1:114979 2:157212 3:124180 4:1260.54 5:4434 6:2.60976 7:121.045 8:907.91998 9:3 10:82 11:60 12:281 13:6353.6001 14:1402.1801 15:149.064 16:171.783 17:0.67346901 18:11.7727 19:0.49090901 20:0.92590302 21:0.28428999 22:1.43293 23:0.64750397 24:1.1495301 # Flowers/Shape3/shape3-022.ppm
9.219548823267023050354832012486e-13 1:461052 2:991935 3:612006 4:2951.54 5:18875 6:3.8487401 7:109.72 8:14102.6 9:10 10:119 11:45 12:443 13:10466.1 14:3874.3899 15:155.16499 16:171.244 17:0.45122001 18:23.611099 19:0.17821801 20:0.75334603 21:0.15637299 22:0.55449498 23:3.6399601 24:2.5982499 # Flowers/Shape1/shape1-071.ppm
-3.2456798552441476454061725576506e-12 1:450415 2:783156 3:555406 4:2812.54 5:19002.801 6:3.9322 7:115.049 8:32047.4 9:14 10:118 11:47 12:349 13:8933.4102 14:3817.0701 15:155.65601 16:172.80901 17:0.439024 18:15.619 19:0.21649501 20:0.810965 21:0.14800601 22:0.47010899 23:8.3957996 24:3.5603399 # Flowers/Shape3/shape3-096.ppm
3.2456798552441476454061725576506e-12 1:134968 2:209466 3:170697 4:1538.84 5:5862.8599 6:3.9473701 7:100.628 8:52279.199 9:18 10:38 11:41 12:171 13:3829.0701 14:3551.8 15:155.117 16:171.244 17:0.51999998 18:23.4286 19:0.225806 20:0.79069 21:0.26247299 22:0.65310597 23:14.7191 24:4.5599999 # Flowers/Shape1/shape1-021.ppm
-3.2456798552441476454061725576506e-12 1:447126 2:756175 3:530464 4:2761.1001 5:18130.1 6:3.8596499 7:117.491 8:34636.102 9:12 10:114 11:54 12:346 13:8679.3799 14:3922.1599 15:160.72 16:172.66701 17:0.44303799 18:22.0667 19:0.2 20:0.842897 21:0.152294 22:0.478728 23:8.8308601 24:3.1090901 # Flowers/Shape3/shape3-036.ppm
3.2456798552441476454061725576506e-12 1:146385 2:209952 3:171842 4:1540.86 5:6747.5698 6:3.86957 7:102.386 8:53912.898 9:20 10:46 11:41 12:161 13:3790.6499 14:3182.28 15:154.267 16:170.951 17:0.48387101 18:31.200001 19:0.179487 20:0.85185701 21:0.228357 22:0.56177998 23:16.941601 24:5.16854 # Flowers/Shape1/shape1-020.ppm
-3.2456798552441476454061725576506e-12 1:116872 2:157609 3:124748 4:1263.6 5:4568.6201 6:2.61905 7:122.132 8:706.85797 9:2 10:84 11:61 12:290 13:6359.5898 14:1391.33 15:149.55901 16:173.918 17:0.527273 18:12.1818 19:0.47368401 20:0.93686301 21:0.27658299 22:1.39202 23:0.50804502 24:0.76363599 # Flowers/Shape3/shape3-042.ppm
3.2456798552441476454061725576506e-12 1:264694 2:537192 3:408958 4:2407.22 5:9728.04 6:3.7704899 7:106.349 8:43743.5 9:16 10:61 11:33 12:263 13:6693.0098 14:4339.25 15:151.65401 16:164.364 17:0.60526299 18:20.9167 19:0.22 20:0.64723998 21:0.24745101 22:0.688012 23:10.0809 24:4.2434802 # Flowers/Shape1/shape1-029.ppm
-3.2456798552441476454061725576506e-12 1:451327 2:755430 3:531294 4:2760.9199 5:19882.1 6:3.9677401 7:113.633 8:35298.898 9:16 10:124 11:55 12:347 13:8729.9297 14:3639.73 15:155.752 16:171.582 17:0.45882401 18:18.2778 19:0.20388301 20:0.84948701 21:0.138864 22:0.43908501 23:9.6982203 24:4.0325198 # Flowers/Shape3/shape3-056.ppm
3.2456798552441476454061725576506e-12 1:138253 2:209088 3:171489 4:1540.04 5:6457.1001 6:4 7:102.209 8:53912.898 9:18 10:43 11:40 12:167 13:3811.79 14:3215.1799 15:153.07201 16:168.45 17:0.482759 18:15.7 19:0.16216201 20:0.80619001 21:0.23850399 22:0.59032601 23:16.7682 24:4.5 # Flowers/Shape1/shape1-041.ppm
-3.2456798552441476454061725576506e-12 1:117190 2:159201 3:126290 4:1270.65 5:4062.0701 6:2.3896101 7:125.092 8:706.85797 9:2 10:77 11:58 12:285 13:6386.0698 14:1521.95 15:148.39999 16:171.397 17:0.45282999 18:14.8333 19:0.50980401 20:0.92794001 21:0.31280801 22:1.57212 23:0.464443 24:0.83695698 # Flowers/Shape3/shape3-001.ppm
3.2456798552441476454061725576506e-12 1:287152 2:523416 3:346676 4:2264.02 5:12136.3 6:3.8181801 7:107.184 8:14102.6 9:12 10:77 11:49 12:283 13:6474.6001 14:3729.24 15:152.912 16:171 17:0.45282999 18:27.299999 19:0.14925399 20:0.82830101 21:0.18655001 22:0.53349 23:3.78163 24:3.1428599 # Flowers/Shape1/shape1-094.ppm
-3.2456798552441476454061725576506e-12 1:458309 2:655234 3:466885 4:2490.45 5:19039.801 6:3.9439299 7:116.848 8:107521 9:23 10:107 11:81 12:322 13:7741.7598 14:4283.2598 15:154.39799 16:174.383 17:0.46575299 18:17.9412 19:0.16304301 20:0.98163199 21:0.13080201 22:0.40660799 23:25.1026 24:5.8317499 # Flowers/Shape3/shape3-095.ppm
3.2456798552441476454061725576506e-12 1:128624 2:227493 3:174621 4:1539.05 5:5114.1802 6:3.3636401 7:104.413 8:32685.1 9:16 10:44 11:26 12:200 13:4697.4702 14:2923.28 15:154.13499 16:164.65401 17:0.33333299 18:19 19:0.25714299 20:0.73659199 21:0.30093801 22:0.91851801 23:11.181 24:4.7567601 # Flowers/Shape1/shape1-085.ppm
-3.2456798552441476454061725576506e-12 1:116998 2:170771 3:126266 4:1271.3101 5:3917.1399 6:2.4266701 7:124.62 8:615.75201 9:3 10:75 11:67 12:267 13:6332.8301 14:1559.97 15:155.854 16:173.269 17:0.59574503 18:12.35 19:0.470588 20:0.92659801 21:0.32455099 22:1.61669 23:0.39471999 24:1.2362601 # Flowers/Shape3/shape3-062.ppm
3.2456798552441476454061725576506e-12 1:465851 2:730635 3:545202 4:2840.0601 5:21037 6:4.1782198 7:114.776 8:33979.5 9:16 10:101 11:58 12:298 13:7482.0698 14:4612.3901 15:156.077 16:171.172 17:0.246914 18:28.799999 19:0.134831 20:0.85445601 21:0.135003 22:0.35566199 23:7.3670001 24:3.82938 # Flowers/Shape1/shape1-011.ppm
-3.2456798552441476454061725576506e-12 1:455428 2:655234 3:466346 4:2489.1101 5:18494.801 6:3.8947401 7:114.488 8:90792 9:18 10:114 11:87 12:320 13:7757.8999 14:3994.98 15:157.769 16:174.25301 17:0.40740699 18:16.7778 19:0.175258 20:0.97658598 21:0.13458499 22:0.41946501 23:22.7265 24:4.6216202 # Flowers/Shape3/shape3-075.ppm
3.2456798552441476454061725576506e-12 1:128023 2:228435 3:175364 4:1541.4 5:5629.6201 6:3.46667 7:104.162 8:32047.4 9:19 10:45 11:25 12:196 13:4716.96 14:2844.95 15:156.505 16:165.03999 17:0.285714 18:23.5 19:0.285714 20:0.73004198 21:0.27380201 22:0.837883 23:11.2647 24:5.4807701 # Flowers/Shape1/shape1-065.ppm
-3.2456798552441476454061725576506e-12 1:370432 2:593514 3:413499 4:2346.6799 5:15980.7 6:3.6666701 7:111.018 8:6082.1201 9:9 10:126 11:38 12:421 13:9040.79 14:2939.9399 15:142.86 16:165.868 17:0.482353 18:10.3784 19:0.285714 20:0.89584798 21:0.146844 22:0.565732 23:2.06879 24:2.45455 # Flowers/Shape3/shape3-092.ppm
3.2456798552441476454061725576506e-12 1:194985 2:288904 3:224838 4:1741.11 5:9684.9805 6:3.90769 7:106.815 8:34636.102 9:18 10:65 11:44 12:200 13:4600.3799 14:2999.77 15:150.875 16:167.795 17:0.35416701 18:17.181801 19:0.18181799 20:0.86722398 21:0.179774 22:0.47500199 23:11.5462 24:4.6062999 # Flowers/Shape1/shape1-018.ppm
-3.2456798552441476454061725576506e-12 1:117846 2:168296 3:124170 4:1261.25 5:5175.5601 6:2.8571401 7:121.527 8:615.75201 9:2 10:91 11:58 12:266 13:6325.25 14:1295.01 15:156.383 16:171.534 17:0.78431398 18:14.6471 19:0.444444 20:0.94906902 21:0.24369401 22:1.22214 23:0.475481 24:0.69999999 # Flowers/Shape3/shape3-082.ppm
3.2456798552441476454061725576506e-12 1:468917 2:737300 3:549580 4:2850.6399 5:20164.9 6:4.2083302 7:113.062 8:58964.602 9:20 10:96 11:61 12:302 13:7517.8301 14:4884.5498 15:155.646 16:174 17:0.23076899 18:22.230801 19:0.116279 20:0.85322797 21:0.141366 22:0.37281701 23:12.0717 24:4.75248 # Flowers/Shape1/shape1-032.ppm
-3.2456798552441476454061725576506e-12 1:452510 2:646410 3:478850 4:2536.02 5:19426.5 6:3.9344299 7:117.76 8:53092.898 9:17 10:122 11:69 12:291 13:8215.3096 14:3709.1001 15:167.23399 16:174.145 17:0.48780501 18:35.375 19:0.184466 20:0.94499302 21:0.13054401 22:0.422892 23:14.3142 24:4.3208299 # Flowers/Shape3/shape3-015.ppm
3.2456798552441476454061725576506e-12 1:137273 2:240620 3:178689 4:1568.64 5:5657.6401 6:3.46667 7:106.324 8:32047.4 9:15 10:45 11:30 12:183 13:4286.8398 14:3050.52 15:154.82001 16:166.267 17:0.285714 18:17.299999 19:0.184211 20:0.768224 21:0.27726099 22:0.75770801 23:10.5056 24:4.32692 # Flowers/Shape1/shape1-047.ppm
3.2456798552441476454061725576506e-12 1:465018 2:730635 3:545810 4:2841.29 5:19531.5 6:4.1052599 7:111.42 8:36643.5 9:15 10:95 11:60 12:298 13:7472.0298 14:4894.9302 15:156.42599 16:172.883 17:0.25 18:20.2857 19:0.130952 20:0.851978 21:0.14547201 22:0.38256299 23:7.4860301 24:3.6538501 # Flowers/Shape1/shape1-052.ppm
-3.2456798552441476454061725576506e-12 1:151265 2:215604 3:157427 4:1434.8 5:6451.7598 6:3.7142899 7:112.519 8:11689.9 9:4 10:49 11:54 12:168 13:3999.97 14:3087.05 15:157.036 16:171.185 17:0.441176 18:17.6667 19:0.28947401 20:0.96086103 21:0.222389 22:0.61998099 23:3.7867401 24:1.07692 # Flowers/Shape3/shape3-081.ppm
-3.2456798552441476454061725576506e-12 1:446918 2:643914 3:487378 4:2559.1499 5:17502.801 6:3.85586 7:114.432 8:35298.898 9:12 10:111 11:67 12:282 13:8264.4199 14:4026.29 15:165.468 16:173.537 17:0.441558 18:46 19:0.206522 20:0.91698402 21:0.14621399 22:0.47217801 23:8.7671204 24:3.11215 # Flowers/Shape3/shape3-076.ppm
3.2456798552441476454061725576506e-12 1:135542 2:241605 3:178473 4:1568.61 5:4911.6001 6:3.54286 7:97.292099 8:32685.1 9:15 10:35 11:31 12:183 13:4288.2598 14:3872.6299 15:155.50301 16:163.065 17:0.346154 18:17.299999 19:0.25 20:0.759453 21:0.319368 22:0.873088 23:8.4400396 24:4.23387 # Flowers/Shape1/shape1-006.ppm
-3.2456798552441476454061725576506e-12 1:260533 2:428203 3:291372 4:1996.5699 5:9776.4697 6:3.14783 7:117.68 8:3631.6799 9:5 10:115 11:64 12:353 13:8925.9297 14:2265.5 15:158.83 16:174.688 17:0.41975299 18:22.5333 19:0.4375 20:0.89415801 21:0.20422199 22:0.91300201 23:1.60304 24:1.5884 # Flowers/Shape3/shape3-066.ppm
3.2456798552441476454061725576506e-12 1:190386 2:287830 3:223638 4:1736.3199 5:8086.9302 6:3.8113201 7:102.691 8:40115 9:17 10:53 11:35 12:210 13:4600.5898 14:3592.1799 15:148.87601 16:167.086 17:0.39473701 18:18.0909 19:0.152174 20:0.85131001 21:0.214706 22:0.568892 23:11.1673 24:4.4604001 # Flowers/Shape1/shape1-039.ppm
-3.2456798552441476454061725576506e-12 1:152255 2:217012 3:157550 4:1435.25 5:6276.1802 6:3.73913 7:109.81 8:12076.3 9:5 10:46 11:56 12:166 13:4001.5801 14:3309.8999 15:158.01801 16:172.35699 17:0.39393899 18:22.7143 19:0.31428599 20:0.96639103 21:0.22868299 22:0.63758302 23:3.64853 24:1.3372101 # Flowers/Shape3/shape3-061.ppm
3.2456798552441476454061725576506e-12 1:451654 2:739784 3:552714 4:3023.74 5:20618 6:4.1414099 7:109.804 8:32685.1 9:12 10:99 11:74 12:340 13:7893.52 14:4562.1602 15:156.44701 16:174.108 17:0.2375 18:21.6667 19:0.151163 20:0.81715697 21:0.14665499 22:0.382846 23:7.1643901 24:2.8975599 # Flowers/Shape1/shape1-014.ppm
-3.2456798552441476454061725576506e-12 1:276050 2:365184 3:285057 4:1901.8101 5:11139.7 6:3.4705901 7:114.901 8:1385.4399 9:3 10:102 11:72 12:305 13:7275.2798 14:2706.3701 15:152.203 16:173.806 17:0.47826099 18:29.5 19:0.27500001 20:0.96840203 21:0.17072301 22:0.65309399 23:0.51191902 24:0.864407 # Flowers/Shape3/shape3-057.ppm
3.2456798552441476454061725576506e-12 1:137003 2:242136 3:178919 4:1569.92 5:5045.27 6:3.52632 7:100.948 8:32685.1 9:15 10:38 11:30 12:182 13:4286.2798 14:3605.3501 15:152.533 16:166.267 17:0.31034499 18:15.5455 19:0.225806 20:0.76572698 21:0.31116599 22:0.84956402 23:9.0657396 24:4.2537298 # Flowers/Shape1/shape1-027.ppm
-3.2456798552441476454061725576506e-12 1:177035 2:261040 3:206828 4:1618.28 5:6451.46 6:2.86076 7:125.884 8:15836.8 9:6 10:79 11:64 12:404 13:8091.1602 14:2240.95 15:138.005 16:174.328 17:0.75555599 18:6.9215698 19:0.16176499 20:0.85595399 21:0.25083899 22:1.25416 23:7.0669999 24:2.0973499 # Flowers/Shape3/shape3-010.ppm
3.2456798552441476454061725576506e-12 1:447436 2:735000 3:550666 4:3019.3899 5:17296.4 6:4.1728401 7:114.778 8:33329.199 9:10 10:81 11:65 12:260 13:7705.5298 14:5523.9102 15:167.173 16:174.38499 17:0.285714 18:36.142899 19:0.157143 20:0.812536 21:0.174567 22:0.445499 23:6.0336199 24:2.39645 # Flowers/Shape1/shape1-035.ppm
-3.2456798552441476454061725576506e-12 1:456000 2:589440 3:466509 4:2488.8999 5:19095 6:3.9428599 7:116.405 8:104062 9:25 10:105 11:87 12:316 13:7726.3101 14:4342.8599 15:159.576 16:173.95399 17:0.52173901 18:23.307699 19:0.166667 20:0.97747302 21:0.13034301 22:0.404625 23:23.9617 24:6.34058 # Flowers/Shape3/shape3-055.ppm
3.2456798552441476454061725576506e-12 1:126497 2:243432 3:173520 4:1534.14 5:4957.6802 6:3.25581 7:100.742 8:32047.4 9:15 10:43 11:25 12:205 13:4719.4902 14:2941.78 15:149.24899 16:165.16 17:0.34375 18:11.8125 19:0.30303001 20:0.72900498 21:0.30944699 22:0.95195502 23:10.8939 24:4.6071401 # Flowers/Shape1/shape1-004.ppm
-3.2456798552441476454061725576506e-12 1:372948 2:595030 3:414834 4:2351.5 5:15253.5 6:3.5609801 7:112.044 8:6082.1201 9:5 10:123 11:30 12:417 13:9076.21 14:3032.1001 15:147.22501 16:165.33299 17:0.44705901 18:14.4444 19:0.25510201 20:0.89903098 21:0.15416101 22:0.59502298 23:2.0059099 24:1.40411 # Flowers/Shape3/shape3-072.ppm
3.2456798552441476454061725576506e-12 1:193238 2:287832 3:224309 4:1740.11 5:8262.3496 6:3.9200001 7:98.986298 8:56410.398 9:21 10:50 11:47 12:195 13:4550.8398 14:3864.76 15:154.595 16:171.40401 17:0.470588 18:23.375 19:0.219512 20:0.86148202 21:0.21060701 22:0.55079198 23:14.5961 24:5.3571401 # Flowers/Shape1/shape1-059.ppm
-3.2456798552441476454061725576506e-12 1:149468 2:207311 3:157496 4:1434.29 5:5380.3501 6:3.5122001 7:115.883 8:11689.9 9:5 10:41 11:61 12:172 13:4010.1101 14:3645.5701 15:156.62199 16:174.09801 17:0.51851898 18:27.6667 19:0.366667 20:0.949027 21:0.26657999 22:0.74532503 23:3.2065899 24:1.42361 # Flowers/Shape3/shape3-020.ppm
3.2456798552441476454061725576506e-12 1:446173 2:736725 3:548636 4:3015.0901 5:17505.199 6:3.95349 7:108.529 8:33329.199 9:7 10:86 11:66 12:253 13:7620.0601 14:5188.0601 15:169.545 16:172.061 17:0.482759 18:49.599998 19:0.16216201 20:0.813241 21:0.17224 22:0.435303 23:6.4242101 24:1.7705899 # Flowers/Shape1/shape1-055.ppm
-3.2456798552441476454061725576506e-12 1:453436 2:591360 3:466527 4:2489.8201 5:17603.4 6:3.8811901 7:117.43 8:84496.297 9:20 10:101 11:86 12:314 13:7699.5498 14:4489.46 15:161.08299 16:174.453 17:0.422535 18:23.153799 19:0.202381 20:0.97193801 21:0.14144 22:0.43739 23:18.820999 24:5.15306 # Flowers/Shape3/shape3-035.ppm
3.2456798552441476454061725576506e-12 1:138058 2:249216 3:178886 4:1569.38 5:5629.9399 6:3.61905 7:103.745 8:31415.9 9:16 10:42 11:30 12:176 13:4290.2998 14:3287.1001 15:157.517 16:165.39999 17:0.40000001 18:28.3333 19:0.2 20:0.77176499 21:0.27875599 22:0.76204997 23:9.5573301 24:4.4210501 # Flowers/Shape1/shape1-067.ppm
-3.2456798552441476454061725576506e-12 1:150764 2:207311 3:157470 4:1434.1 5:6091.2002 6:3.5652201 7:109.703 8:10568.3 9:4 10:46 11:61 12:168 13:4006.47 14:3277.47 15:161.19 16:173.754 17:0.39393899 18:32.599998 19:0.31428599 20:0.95740998 21:0.23543701 22:0.65774697 23:3.22453 24:1.12195 # Flowers/Shape3/shape3-021.ppm
3.2456798552441476454061725576506e-12 1:464180 2:856278 3:546210 4:2842.73 5:18586.6 6:4.0227299 7:113.628 8:30171.9 9:13 10:88 11:55 12:293 13:7472.4502 14:5274.77 15:157.703 16:172.127 17:0.239437 18:19.9286 19:0.128205 20:0.84982002 21:0.152945 22:0.40203401 23:5.7200298 24:3.2316401 # Flowers/Shape1/shape1-072.ppm
-3.2456798552441476454061725576506e-12 1:283377 2:377500 3:295284 4:1930.49 5:11084 6:3.0780101 7:119.563 8:1963.5 9:2 10:141 11:84 12:424 13:10352.3 14:2009.76 15:160.328 16:173.679 17:0.43877599 18:34.333302 19:0.58427 20:0.95967299 21:0.174169 22:0.93398201 23:0.976978 24:0.64977002 # Flowers/Shape3/shape3-019.ppm
3.2456798552441476454061725576506e-12 1:128006 2:243972 3:174852 4:1539.4301 5:4961.3799 6:3.30233 7:101.111 8:32047.4 9:14 10:43 11:27 12:198 13:4741.6099 14:2976.8799 15:152.071 16:165.741 17:0.34375 18:23.75 19:0.30303001 20:0.73207802 21:0.31028301 22:0.95570302 23:10.7654 24:4.23944 # Flowers/Shape1/shape1-025.ppm
-3.2456798552441476454061725576506e-12 1:262838 2:427336 3:288246 4:1989.33 5:10825.2 6:3.2096801 7:122.682 8:5026.5498 9:4 10:124 11:59 12:356 13:8893.7002 14:2119.6599 15:159.744 16:173.508 17:0.44185999 18:26.3846 19:0.37777799 20:0.91185498 21:0.183768 22:0.82157201 23:2.3713901 24:1.24623 # Flowers/Shape3/shape3-086.ppm
3.2456798552441476454061725576506e-12 1:201055 2:290759 3:227203 4:1732.12 5:8645.5303 6:3.7083299 7:106.792 8:96211.297 9:27 10:48 11:42 12:186 13:4271.02 14:4188.6401 15:151.339 16:167.35699 17:0.41176501 18:14.5 19:0.17073201 20:0.88491201 21:0.200349 22:0.49401399 23:22.969601 24:7.2809 # Flowers/Shape1/shape1-009.ppm
-3.2456798552441476454061725576506e-12 1:152346 2:207840 3:158724 4:1438.29 5:6091.52 6:3.6521699 7:113.164 8:14102.6 9:10 10:46 11:61 12:169 13:4018.6101 14:3311.8601 15:158.479 16:173.88499 17:0.39393899 18:83.5 19:0.277778 20:0.95981598 21:0.236114 22:0.659706 23:4.2582102 24:2.7381001 # Flowers/Shape3/shape3-041.ppm
3.2456798552441476454061725576506e-12 1:239593 2:378012 3:291862 4:2035.95 5:10887.2 6:3.8205099 7:112.303 8:27759.1 9:18 10:78 11:45 12:263 13:6228.6099 14:3071.71 15:155.008 16:171.267 17:0.47169799 18:25.299999 19:0.25806499 20:0.82091099 21:0.187004 22:0.57210398 23:9.0370302 24:4.71141 # Flowers/Shape1/shape1-076.ppm
-3.2456798552441476454061725576506e-12 1:370827 2:525280 3:414188 4:2349.3601 5:16309.1 6:3.7164199 7:107.091 8:5808.7998 9:6 10:134 11:36 12:436 13:9115.21 14:2767.3601 15:141.823 16:165.33299 17:0.48888901 18:16.440001 19:0.27619001 20:0.895311 21:0.144052 22:0.55890203 23:2.09904 24:1.61446 # Flowers/Shape3/shape3-011.ppm
3.2456798552441476454061725576506e-12 1:148305 2:256265 3:196682 4:1655.58 5:5472.9302 6:3.61905 7:100.245 8:22167.1 9:13 10:42 11:30 12:191 13:4671.04 14:3531.0601 15:154.267 16:165.633 17:0.40000001 18:20.2222 19:0.235294 20:0.754031 21:0.30250299 22:0.85348099 23:6.27773 24:3.5921099 # Flowers/Shape1/shape1-058.ppm
-3.2456798552441476454061725576506e-12 1:153022 2:206880 3:157564 4:1433.92 5:6654.96 6:3.7358501 7:111.414 8:12469 9:8 10:53 11:63 12:172 13:4001.4299 14:2887.21 15:156.27901 16:171.714 17:0.432432 18:20.5 19:0.26190501 20:0.97117001 21:0.21546701 22:0.60127002 23:4.3186998 24:2.1414101 # Flowers/Shape3/shape3-000.ppm
3.2456798552441476454061725576506e-12 1:465724 2:852546 3:545288 4:2840.0801 5:19244.801 6:4.1276598 7:109.065 8:56410.398 9:19 10:94 11:59 12:293 13:7451.3999 14:4954.5098 15:157.737 16:173.47501 17:0.27026999 18:23.4167 19:0.146341 20:0.85408998 21:0.147577 22:0.38719001 23:11.3857 24:4.6030898 # Flowers/Shape1/shape1-092.ppm
-3.2456798552441476454061725576506e-12 1:252253 2:329472 3:260102 4:1822.62 5:10470.8 6:3.32692 7:119.712 8:2463.01 9:4 10:104 11:66 12:291 13:7443.4199 14:2425.51 15:151.57401 16:172 17:0.52941197 18:17.1875 19:0.253012 20:0.96982199 21:0.17406701 22:0.71087402 23:1.01546 24:1.20231 # Flowers/Shape3/shape3-034.ppm
3.2456798552441476454061725576506e-12 1:216485 2:331911 3:271630 4:1967.21 5:6806.2402 6:3.94118 7:100.62 8:54739.102 9:17 10:34 11:42 12:224 13:4730.8301 14:6367.2002 15:144.759 16:167.619 17:0.47826099 18:17.6667 19:0.172414 20:0.796983 21:0.28902999 22:0.69507301 23:8.5970402 24:4.3134298 # Flowers/Shape1/shape1-026.ppm
-3.2456798552441476454061725576506e-12 1:264487 2:412661 3:293636 4:1971.3 5:10084.4 6:3.12621 7:119.577 8:804.24799 9:1 10:103 11:66 12:396 13:8386.1396 14:2567.8301 15:143.591 16:171.742 17:0.41095901 18:12.6552 19:0.256098 20:0.90073103 21:0.195481 22:0.831599 23:0.31320101 24:0.31987599 # Flowers/Shape3/shape3-099.ppm
3.2456798552441476454061725576506e-12 1:216943 2:332800 3:272118 4:1966.58 5:7362.6099 6:3.94872 7:104.852 8:54739.102 9:19 10:39 11:38 12:231 13:4728.54 14:5562.6299 15:142.381 16:166.31599 17:0.444444 18:18.25 19:0.14705899 20:0.79723901 21:0.267104 22:0.64223701 23:9.8405104 24:4.8116899 # Flowers/Shape1/shape1-046.ppm
-3.2456798552441476454061725576506e-12 1:372519 2:525165 3:415255 4:2351.3601 5:16456.801 6:3.6417899 7:106.808 8:6361.73 9:5 10:134 11:36 12:442 13:9080.04 14:2779.99 15:145.56599 16:165.806 17:0.50561798 18:17.4167 19:0.229358 20:0.897084 21:0.14288101 22:0.55175197 23:2.2883999 24:1.37295 # Flowers/Shape3/shape3-052.ppm
3.2456798552441476454061725576506e-12 1:216547 2:332800 3:270836 4:1966.26 5:8453.8398 6:4.1463399 7:103.558 8:62458 9:23 10:41 11:36 12:220 13:4684.9302 14:5281.6299 15:143.923 16:165.778 17:0.32258099 18:17.3333 19:0.17142899 20:0.79954797 21:0.23258799 22:0.554178 23:11.8255 24:5.54706 # Flowers/Shape1/shape1-005.ppm
-3.2456798552441476454061725576506e-12 1:157790 2:222159 3:169072 4:1466.34 5:6072.3301 6:3.26667 7:121.213 8:1661.9 9:1 10:60 11:74 12:216 13:5272.2202 14:2629.8301 15:157.759 16:174.041 17:0.463415 18:26 19:0.30434799 20:0.933267 21:0.24147899 22:0.86823702 23:0.63194299 24:0.306122 # Flowers/Shape3/shape3-063.ppm
3.2456798552441476454061725576506e-12 1:291338 2:487816 3:348600 4:2275.8799 5:11658.4 6:4.0289898 7:106.545 8:21642.4 9:10 10:69 11:45 12:246 13:6003.6099 14:4222.2998 15:155.83701 16:170.711 17:0.254545 18:17.9231 19:0.18965501 20:0.83573997 21:0.195213 22:0.51495802 23:5.1257501 24:2.4820099 # Flowers/Shape1/shape1-033.ppm
-3.2456798552441476454061725576506e-12 1:361152 2:489424 3:370718 4:2168.23 5:14417.5 6:3.7281599 7:118.452 8:38013.301 9:12 10:103 11:88 12:298 13:7502.2002 14:3506.3301 15:160.916 16:174.94299 17:0.560606 18:20.2857 19:0.240964 20:0.974195 21:0.150389 22:0.52035499 23:10.8413 24:3.21875 # Flowers/Shape3/shape3-073.ppm
3.2456798552441476454061725576506e-12 1:237613 2:378740 3:291972 4:2035.54 5:7793.98 6:3.65517 7:107.058 8:54739.102 9:5 10:58 11:49 12:263 13:6216.6401 14:4096.7798 15:154.065 16:171.082 17:0.48717901 18:19.230801 19:0.208333 20:0.81382102 21:0.261168 22:0.79762 23:13.3615 24:1.36792 # Flowers/Shape1/shape1-096.ppm
-3.2456798552441476454061725576506e-12 1:189522 2:270351 3:206618 4:1617.45 5:7708.1602 6:2.8118801 7:123.973 8:16741.5 9:9 10:101 11:60 12:394 13:7986.5298 14:1876.46 15:140.437 16:171.91701 17:0.50746298 18:8.6097603 19:0.16091999 20:0.917256 21:0.20983601 22:1.03611 23:8.9218998 24:3.2007 # Flowers/Shape3/shape3-071.ppm
3.2456798552441476454061725576506e-12 1:284435 2:493751 3:343364 4:2260.77 5:10095.7 6:3.73913 7:104.492 8:17671.5 9:8 10:69 11:50 12:271 13:6454.3398 14:4122.25 15:152.284 16:172.7 17:0.68292701 18:15.9375 19:0.210526 20:0.82837999 21:0.22393499 22:0.63931799 23:4.28685 24:2.1395299 # Flowers/Shape1/shape1-013.ppm
-1.11506330162495610859900861055e-12 1:309152 2:396896 3:318670 4:2008.13 5:13047.9 6:3.3475201 7:119.861 8:3631.6799 9:4 10:141 11:79 12:394 13:9593.2695 14:2192.5701 15:156.784 16:174.54401 17:0.5 18:27.1429 19:0.39603999 20:0.97013301 21:0.153905 22:0.735237 23:1.65636 24:1.1949199 # Flowers/Shape3/shape3-003.ppm
3.2456798552441476454061725576506e-12 1:247102 2:444310 3:292838 4:2038.36 5:11027.4 6:3.65432 7:110.056 8:16286 9:9 10:81 11:54 12:254 13:6213.0898 14:3050.6499 15:153.69701 16:171.519 17:0.42105299 18:13.9412 19:0.208955 20:0.84382099 21:0.184844 22:0.56342101 23:5.3385501 24:2.4628401 # Flowers/Shape1/shape1-056.ppm
-3.2456798552441476454061725576506e-12 1:227235 2:308000 3:234588 4:1728.9 5:8451.0996 6:3.53125 7:116.105 8:38013.301 9:15 10:64 11:71 12:207 13:5045.8999 14:3550.55 15:156.821 16:172.64799 17:0.33333299 18:28.5714 19:0.20754699 20:0.968656 21:0.204577 22:0.59707099 23:10.7063 24:4.2477899 # Flowers/Shape3/shape3-087.ppm
3.2456798552441476454061725576506e-12 1:288908 2:488684 3:347822 4:2275.0901 5:12743.8 6:3.9154899 7:108.435 8:40828.102 9:17 10:71 11:42 12:250 13:5990.7998 14:4069.1299 15:157.14799 16:167.881 17:0.41999999 18:21.727301 19:0.18333299 20:0.830621 21:0.178526 22:0.47009599 23:10.0336 24:4.3417301 # Flowers/Shape1/shape1-053.ppm
-3.2456798552441476454061725576506e-12 1:359409 2:487976 3:370067 4:2166.8201 5:14299.5 6:3.72 7:117.893 8:27171.6 9:10 10:100 11:86 12:324 13:7543.2202 14:3594.0901 15:154.593 16:174.314 17:0.42857099 18:20.6 19:0.25 20:0.971201 21:0.151531 22:0.52751702 23:7.5600801 24:2.68817 # Flowers/Shape3/shape3-093.ppm
3.2456798552441476454061725576506e-12 1:245464 2:445095 3:293847 4:2039.99 5:10930.2 6:3.8499999 7:108.61 8:27171.6 9:16 10:80 11:51 12:264 13:6209.0601 14:3068.3 15:152.25 16:171.431 17:0.45454499 18:17.8571 19:0.23076899 20:0.835347 21:0.186638 22:0.56806397 23:8.8555899 24:4.1558399 # Flowers/Shape1/shape1-036.ppm
-3.2456798552441476454061725576506e-12 1:259705 2:369135 3:288880 4:1991.73 5:10122.2 6:3.1858399 7:119.623 8:5281.02 9:4 10:113 11:57 12:350 13:8893.1299 14:2298.27 15:159.82001 16:172.614 17:0.43037999 18:25.9231 19:0.43037999 20:0.89900798 21:0.19677 22:0.87858099 23:2.2978201 24:1.25556 # Flowers/Shape3/shape3-005.ppm
3.2456798552441476454061725576506e-12 1:289819 2:488684 3:348356 4:2274.99 5:12900.8 6:4.05479 7:110.466 8:58106.898 9:18 10:73 11:49 12:244 13:6011.6499 14:3970.1201 15:156.791 16:172.367 17:0.25862101 18:16.4286 19:0.17741901 20:0.83196098 21:0.17634501 22:0.46599001 23:14.6361 24:4.4391899 # Flowers/Shape1/shape1-012.ppm
-3.2456798552441476454061725576506e-12 1:270194 2:357110 3:278328 4:1896.96 5:11260.8 6:3.4717 7:114.573 8:7853.98 9:8 10:106 11:78 12:302 13:7519.0698 14:2549 15:159.424 16:174.077 17:0.472222 18:24.1667 19:0.32499999 20:0.97077501 21:0.168457 22:0.66772097 23:3.0811999 24:2.3043499 # Flowers/Shape3/shape3-025.ppm
3.2456798552441476454061725576506e-12 1:286853 2:494064 3:343327 4:2260.55 5:12593.6 6:3.8139501 7:105.864 8:60698.699 9:20 10:86 11:50 12:270 13:6483.0898 14:3335.5 15:152.181 16:172.75999 17:0.53571397 18:17 19:0.194444 20:0.83551002 21:0.179501 22:0.51479298 23:18.1978 24:5.2438998 # Flowers/Shape1/shape1-054.ppm
-3.2456798552441476454061725576506e-12 1:191341 2:272420 3:207070 4:1619.98 5:7499.8398 6:2.6990299 7:122.92 8:15836.8 9:10 10:103 11:55 12:383 13:8049.4102 14:1857.6801 15:139.20599 16:171.836 17:0.430556 18:7.3260899 19:0.183908 20:0.92403698 21:0.216002 22:1.07328 23:8.5250397 24:3.70504 # Flowers/Shape3/shape3-091.ppm
3.2456798552441476454061725576506e-12 1:281959 2:493751 3:343101 4:2258.7 5:10973 6:3.7260301 7:103.945 8:60698.699 9:15 10:73 11:49 12:258 13:6444.98 14:3862.45 15:153.87199 16:171.89799 17:0.48979601 18:22.4545 19:0.196721 20:0.821796 21:0.205843 22:0.58735102 23:15.7151 24:4.0257401 # Flowers/Shape1/shape1-034.ppm
-3.2456798552441476454061725576506e-12 1:158829 2:215650 3:168988 4:1466.54 5:6466.1099 6:3.2647099 7:117.247 8:1661.9 9:2 10:68 11:69 12:231 13:5296.27 14:2335.72 15:154.935 16:174.39101 17:0.38775501 18:22.1 19:0.33333299 20:0.93988597 21:0.226805 22:0.81908202 23:0.71151602 24:0.61261302 # Flowers/Shape3/shape3-043.ppm
3.2456798552441476454061725576506e-12 1:286026 2:525352 3:347612 4:2268.5 5:10315.9 6:3.87692 7:103.615 8:18626.5 9:8 10:65 11:52 12:282 13:6490.2598 14:4400.3901 15:153.47501 16:173.03799 17:0.54761899 18:15.5882 19:0.203704 20:0.82283002 21:0.21990301 22:0.62914997 23:4.2329202 24:2.0634899 # Flowers/Shape1/shape1-074.ppm
-3.2456798552441476454061725576506e-12 1:242099 2:312170 3:251526 4:1793.66 5:9992.8799 6:3.47368 7:111.357 8:2827.4299 9:4 10:95 11:77 12:280 13:6887.8101 14:2548.4099 15:159.48199 16:173.25999 17:0.484375 18:24.4545 19:0.35714301 20:0.96251798 21:0.17949399 22:0.68927199 23:1.10949 24:1.15152 # Flowers/Shape3/shape3-029.ppm
3.2456798552441476454061725576506e-12 1:289718 2:559770 3:348754 4:2279.9099 5:13022.6 6:4.1315799 7:110.059 8:28952.9 9:15 10:76 11:50 12:245 13:5955.8599 14:3812.0801 15:158.147 16:172.32001 17:0.206349 18:23.5 19:0.13432799 20:0.83072299 21:0.175073 22:0.45734701 23:7.5950398 24:3.6305699 # Flowers/Shape1/shape1-093.ppm
-3.2456798552441476454061725576506e-12 1:228915 2:303408 3:236216 4:1734.4301 5:8775.1396 6:3.59322 7:113.766 8:43743.5 9:13 10:59 11:84 12:203 13:5064.3398 14:3879.9099 15:158.867 16:173.85699 17:0.340909 18:12.5333 19:0.204082 20:0.96908802 21:0.197652 22:0.577124 23:11.2744 24:3.6179199 # Flowers/Shape3/shape3-006.ppm
3.2456798552441476454061725576506e-12 1:148902 2:257335 3:196871 4:1657.04 5:5454.2798 6:3.55 7:104.569 8:22167.1 9:13 10:40 11:30 12:194 13:4685.2598 14:3722.5601 15:153.53101 16:165.467 17:0.29032299 18:15.1667 19:0.25 20:0.75634599 21:0.30380601 22:0.85900801 23:5.9547901 24:3.6619699 # Flowers/Shape1/shape1-017.ppm
-3.2456798552441476454061725576506e-12 1:227319 2:308000 3:234326 4:1728.1899 5:9826.3096 6:3.7941201 7:118.942 8:32685.1 9:15 10:68 11:74 12:205 13:5044.2798 14:3342.9199 15:160.254 16:174.257 17:0.51111102 18:24.625 19:0.192982 20:0.97009498 21:0.17587399 22:0.51334399 23:9.77742 24:3.95349 # Flowers/Shape3/shape3-067.ppm
3.2456798552441476454061725576506e-12 1:148337 2:256800 3:196856 4:1656.85 5:5019.6899 6:3.6216199 7:101.34 8:22167.1 9:13 10:37 11:30 12:194 13:4670.4302 14:4009.1001 15:153.407 16:165.433 17:0.54166698 18:23.25 19:0.27586201 20:0.75352901 21:0.33006999 22:0.93042201 23:5.5291901 24:3.58955 # Flowers/Shape1/shape1-038.ppm
-3.2456798552441476454061725576506e-12 1:192115 2:261542 3:206720 4:1617.8199 5:7496.2798 6:2.6486499 7:125.348 8:16286 9:6 10:111 11:58 12:396 13:8076.6401 14:1730.76 15:139.10899 16:171.569 17:0.56338 18:7.0816302 19:0.168421 20:0.92934698 21:0.21581601 22:1.07742 23:9.4097404 24:2.26531 # Flowers/Shape3/shape3-031.ppm
3.2456798552441476454061725576506e-12 1:156340 2:264132 3:208178 4:1693.03 5:5671.4902 6:3.5 7:101.764 8:30790.699 9:15 10:44 11:33 12:208 13:4864.02 14:3553.1799 15:148.726 16:165.121 17:0.375 18:15 19:0.189189 20:0.750992 21:0.29851499 22:0.85762697 23:8.6656904 24:4.2857099 # Flowers/Shape1/shape1-060.ppm
-3.2456798552441476454061725576506e-12 1:210266 2:291040 3:217126 4:1665.6801 5:8054.5498 6:3.4769199 7:110.571 8:13684.8 9:6 10:65 11:70 12:214 13:5413.4302 14:3234.8601 15:157.855 16:173.7 17:0.444444 18:22.7778 19:0.32653099 20:0.96840698 21:0.2068 22:0.672095 23:4.2304101 24:1.72566 # Flowers/Shape3/shape3-090.ppm
3.2456798552441476454061725576506e-12 1:208922 2:326350 3:271396 4:1929.4301 5:7148.5601 6:3.9047599 7:96.237701 8:69746.5 9:18 10:42 11:36 12:216 13:4872.3198 14:4974.3198 15:155.685 16:165.41701 17:0.555556 18:35 19:0.166667 20:0.76980501 21:0.269905 22:0.68158001 23:14.0213 24:4.6097598 # Flowers/Shape1/shape1-048.ppm
-3.2456798552441476454061725576506e-12 1:227725 2:303408 3:235506 4:1732.55 5:9997.6797 6:3.8550701 7:114.442 8:35968.102 9:16 10:69 11:76 12:209 13:5038.1401 14:3300.3601 15:159.12399 16:174.237 17:0.5 18:18 19:0.16949201 20:0.96695799 21:0.17329501 22:0.50393099 23:10.8982 24:4.1503801 # Flowers/Shape3/shape3-047.ppm
3.2456798552441476454061725576506e-12 1:197717 2:290700 3:226219 4:1727.62 5:9497.7695 6:4.0851102 7:101.841 8:91863.297 9:32 10:47 11:41 12:193 13:4300.2202 14:4206.75 15:147.181 16:170.12199 17:0.342857 18:15.0833 19:0.175 20:0.87400901 21:0.181897 22:0.45276201 23:21.837099 24:7.8333302 # Flowers/Shape1/shape1-050.ppm
-3.2456798552441476454061725576506e-12 1:211264 2:292656 3:218822 4:1671.85 5:8148.4102 6:3.61905 7:114.788 8:11309.7 9:5 10:63 11:68 12:219 13:5415.3501 14:3353.3999 15:156.01801 16:174.147 17:0.43181801 18:14.6429 19:0.235294 20:0.96546203 21:0.205175 22:0.66459 23:3.3726201 24:1.38158 # Flowers/Shape3/shape3-070.ppm
3.2456798552441476454061725576506e-12 1:198303 2:291328 3:227124 4:1732.11 5:8953.79 6:3.7959199 7:106.036 8:92940.898 9:27 10:49 11:44 12:190 13:4276.71 14:4047 15:150.12601 16:168.341 17:0.36111099 18:22.75 19:0.166667 20:0.87310702 21:0.19345 22:0.477642 23:22.965401 24:7.1128998 # Flowers/Shape1/shape1-030.ppm
-3.2456798552441476454061725576506e-12 1:232051 2:304513 3:237192 4:1738.09 5:9832.7695 6:3.75758 7:118.907 8:36643.5 9:15 10:66 11:77 12:201 13:5046.9302 14:3515.9299 15:161.229 16:173.286 17:0.43478301 18:19.1 19:0.2 20:0.97832799 21:0.17676499 22:0.51327598 23:10.4221 24:3.99194 # Flowers/Shape3/shape3-027.ppm
-3.2456798552441476454061725576506e-12 1:196001 2:262044 3:206761 4:1618.6899 5:7500.2598 6:2.56881 7:127 8:15836.8 9:8 10:109 11:57 12:382 13:8015.6201 14:1798.1801 15:145.23801 16:172.386 17:0.34567899 18:11.3226 19:0.172043 20:0.94796097 21:0.215817 22:1.06871 23:8.8071203 24:3.11429 # Flowers/Shape3/shape3-051.ppm
-3.2456798552441476454061725576506e-12 1:163260 2:219780 3:167002 4:1457.53 5:7201.4902 6:3.3421099 7:114.792 8:1809.5601 9:3 10:76 11:68 12:214 13:5263.29 14:2148.1599 15:157.729 16:174.25 17:0.40740699 18:25.75 19:0.28813601 20:0.977593 21:0.202393 22:0.73085999 23:0.84237701 24:0.89763802 # Flowers/Shape3/shape3-083.ppm
3.2456798552441476454061725576506e-12 1:149927 2:262728 3:206524 4:1714.76 5:6701.5 6:3.5849099 7:104.788 8:32685.1 9:18 10:53 11:27 12:200 13:4808.48 14:2828.8101 15:157.64 16:164.741 17:0.29268301 18:39 19:0.232558 20:0.72595203 21:0.25587699 22:0.71752298 23:11.5544 24:5.02105 # Flowers/Shape1/shape1-042.ppm
3.2456798552441476454061725576506e-12 1:193423 2:331194 3:224396 4:1738.66 5:8752.0898 6:3.7377 7:106.617 8:40115 9:16 10:61 11:45 12:203 13:4581.8799 14:3170.8701 15:143.714 16:171.04401 17:0.29787201 18:9.1499996 19:0.173077 20:0.86197102 21:0.19865701 22:0.52351803 23:12.6511 24:4.2807002 # Flowers/Shape1/shape1-079.ppm
3.2456798552441476454061725576506e-12 1:151412 2:267344 3:207694 4:1722.55 5:6874.1401 6:3.6981101 7:103.909 8:33329.199 9:18 10:53 11:26 12:209 13:4870.2202 14:2856.8401 15:154.27299 16:165 17:0.35897401 18:18 19:0.26190501 20:0.72901601 21:0.25058401 22:0.70848501 23:11.6665 24:4.8673501 # Flowers/Shape1/shape1-001.ppm
-3.2456798552441476454061725576506e-12 1:239842 2:340695 3:248864 4:1784.92 5:9455.8203 6:3.40909 7:113.783 8:2827.4299 9:4 10:88 11:65 12:277 13:6861.1099 14:2725.48 15:159.26401 16:174.369 17:0.517241 18:20.307699 19:0.35384601 20:0.96374601 21:0.188765 22:0.72559601 23:1.03741 24:1.1733299 # Flowers/Shape3/shape3-089.ppm
-3.2456798552441476454061725576506e-12 1:161658 2:215175 3:168559 4:1464.48 5:6772.6001 6:3.32353 7:117.329 8:1661.9 9:2 10:68 11:68 12:236 13:5323.3701 14:2377.3301 15:149.843 16:173.897 17:0.38775501 18:25.2222 19:0.33333299 20:0.95906103 21:0.216236 22:0.78601599 23:0.699063 24:0.60176998 # Flowers/Shape3/shape3-023.ppm
-3.2456798552441476454061725576506e-12 1:261796 2:370938 3:289435 4:1992.3 5:10380.5 6:3.17241 7:120.687 8:5281.02 9:2 10:116 11:63 12:344 13:8876.9404 14:2256.8601 15:160.73 16:171.397 17:0.380952 18:33.400002 19:0.41463399 20:0.90450603 21:0.191927 22:0.85515797 23:2.3399899 24:0.63043499 # Flowers/Shape3/shape3-046.ppm
3.2456798552441476454061725576506e-12 1:147957 2:265727 3:207974 4:1722.62 5:6340.7202 6:3.68627 7:103.409 8:28952.9 9:16 10:51 11:27 12:206 13:4892.5298 14:2901.1299 15:154.786 16:165.963 17:0.41666701 18:17.727301 19:0.27500001 20:0.71142101 21:0.271676 22:0.77160501 23:9.9798899 24:4.3404298 # Flowers/Shape1/shape1-022.ppm
3.2456798552441476454061725576506e-12 1:137237 2:249216 3:178617 4:1569.49 5:6072.3599 6:3.80952 7:102.424 8:32685.1 9:20 10:42 11:30 12:177 13:4273.5298 14:3267.55 15:159.492 16:165.3 17:0.40000001 18:28.5 19:0.2 20:0.76833099 21:0.25846499 22:0.70376801 23:10.003 24:5.25 # Flowers/Shape1/shape1-087.ppm
3.2456798552441476454061725576506e-12 1:210223 2:325280 3:271244 4:1928.64 5:7917.8999 6:3.9047599 7:105.098 8:76453.797 9:22 10:42 11:37 12:218 13:4889.6099 14:5005.2998 15:152.44501 16:166.946 17:0.555556 18:26.25 19:0.166667 20:0.77503097 21:0.243579 22:0.61753798 23:15.2746 24:5.63415 # Flowers/Shape1/shape1-007.ppm
-3.2456798552441476454061725576506e-12 1:164731 2:216104 3:170232 4:1471.01 5:6333.8301 6:3.13433 7:118.035 8:1520.53 9:2 10:67 11:77 12:221 13:5265.0898 14:2458.6699 15:157.959 16:173.078 17:0.367347 18:17.4167 19:0.34 20:0.96768099 21:0.232246 22:0.83126497 23:0.61843699 24:0.63809502 # Flowers/Shape3/shape3-002.ppm
-3.2456798552441476454061725576506e-12 1:213126 2:275307 3:219716 4:1674.71 5:9101.5596 6:3.69014 7:113.445 8:13684.8 9:8 10:71 11:76 12:210 13:5399.9399 14:3001.78 15:159.914 16:174.276 17:0.44898 18:34 19:0.24561401 20:0.97000599 21:0.184003 22:0.59329897 23:4.5588899 24:2.1679399 # Flowers/Shape3/shape3-009.ppm
-3.2456798552441476454061725576506e-12 1:241631 2:341260 3:248844 4:1784.87 5:9850.0898 6:3.4105301 7:112.895 8:2463.01 9:4 10:95 11:70 12:278 13:6907.0498 14:2543.48 15:158.21201 16:173.914 17:0.50793701 18:22.1667 19:0.33802801 20:0.97101301 21:0.18120299 22:0.701217 23:0.96836102 24:1.17284 # Flowers/Shape3/shape3-069.ppm
3.2456798552441476454061725576506e-12 1:210225 2:326808 3:271607 4:1929.0601 5:8541.7002 6:4.0454502 7:104.44 8:77437.102 9:24 10:44 11:36 12:217 13:4887.9102 14:4777.8398 15:151.25301 16:166.41701 17:0.222222 18:30 19:0.157895 20:0.77400398 21:0.22584 22:0.57224101 23:16.2076 24:5.93258 # Flowers/Shape1/shape1-028.ppm
3.2456798552441476454061725576506e-12 1:150682 2:283023 3:196272 4:1656.76 5:5316.0698 6:3.58974 7:101.861 8:23235.199 9:13 10:39 11:36 12:192 13:4655.2598 14:3863.6299 15:155.422 16:166.08299 17:0.444444 18:20.3333 19:0.25806499 20:0.76771897 21:0.31165099 22:0.87569398 23:6.0138202 24:3.6214299 # Flowers/Shape1/shape1-098.ppm
3.2456798552441476454061725576506e-12 1:149196 2:283550 3:196634 4:1657.34 5:5102.8101 6:3.7297299 7:102.921 8:21642.4 9:13 10:37 11:30 12:196 13:4662.8101 14:4032.3201 15:155.041 16:164.733 17:0.54166698 18:20.7778 19:0.32142901 20:0.75875002 21:0.32479 22:0.913773 23:5.36724 24:3.4855101 # Flowers/Shape1/shape1-078.ppm
-3.2456798552441476454061725576506e-12 1:212256 2:275307 3:218718 4:1671.51 5:8810.0098 6:3.5833299 7:114.473 8:8824.7305 9:6 10:72 11:71 12:212 13:5403.9902 14:2948 15:159.368 16:172.662 17:0.46938801 18:25.5 19:0.285714 20:0.97045499 21:0.18972901 22:0.613392 23:2.9934599 24:1.67442 # Flowers/Shape3/shape3-030.ppm
3.2456798552441476454061725576506e-12 1:192935 2:332346 3:224522 4:1740.13 5:7891.27 6:3.9565201 7:101.779 8:57255.5 9:21 10:46 11:39 12:191 13:4581.5498 14:4194.23 15:154.717 16:169.436 17:0.48387101 18:18.1 19:0.24324299 20:0.85931098 21:0.220513 22:0.580585 23:13.651 24:5.3076901 # Flowers/Shape1/shape1-099.ppm
-3.2456798552441476454061725576506e-12 1:261375 2:370352 3:289630 4:1994.38 5:10627.2 6:3.22034 7:118.42 8:5026.5498 9:7 10:118 11:59 12:355 13:8906.79 14:2215.04 15:157.806 16:173.08501 17:0.42168701 18:15.1364 19:0.404762 20:0.90244401 21:0.187667 22:0.83810902 23:2.26928 24:2.1736801 # Flowers/Shape3/shape3-026.ppm
3.2456798552441476454061725576506e-12 1:129771 2:244961 3:175526 4:1541.15 5:5533.27 6:3.375 7:103.088 8:32047.4 9:16 10:48 11:24 12:196 13:4736.48 14:2703.55 15:152.08701 16:162.875 17:0.33333299 18:12.0667 19:0.26315799 20:0.73932201 21:0.278523 22:0.85599899 23:11.8538 24:4.7407398 # Flowers/Shape1/shape1-045.ppm
-3.2456798552441476454061725576506e-12 1:215265 2:275380 3:219241 4:1673.54 5:9624.0098 6:3.6961999 7:112.512 8:7853.98 9:8 10:79 11:70 12:212 13:5390.48 14:2724.8799 15:162.29201 16:174.14301 17:0.410714 18:29.2857 19:0.234375 20:0.98186702 21:0.17389201 22:0.56010801 23:2.8823199 24:2.1643801 # Flowers/Shape3/shape3-050.ppm
3.2456798552441476454061725576506e-12 1:238912 2:440914 3:288834 4:2027.28 5:8642.5898 6:3.63077 7:108.994 8:53912.898 9:6 10:65 11:47 12:246 13:6227.6899 14:3675.5701 15:155.51199 16:171.702 17:0.444444 18:17.9231 19:0.160714 20:0.82716101 21:0.234568 22:0.720581 23:14.6679 24:1.65254 # Flowers/Shape1/shape1-015.ppm
-3.2456798552441476454061725576506e-12 1:239947 2:325260 3:249434 4:1777.36 5:9228.9102 6:3.1800001 7:121.187 8:3019.0701 9:4 10:100 11:71 12:309 13:7751 14:2399.47 15:160.89 16:172.563 17:0.40845099 18:50.5 19:0.369863 20:0.96196198 21:0.192587 22:0.83986098 23:1.25823 24:1.2578599 # Flowers/Shape3/shape3-088.ppm
3.2456798552441476454061725576506e-12 1:198121 2:321750 3:226426 4:1730.58 5:9113.1299 6:4.0784302 7:105.102 8:77437.102 9:25 10:51 11:39 12:177 13:4225.0801 14:3884.72 15:150.44099 16:169.026 17:0.342105 18:28.5 19:0.186047 20:0.87498897 21:0.1899 22:0.463626 23:19.9338 24:6.1298099 # Flowers/Shape1/shape1-070.ppm
-3.2456798552441476454061725576506e-12 1:249858 2:345344 3:261194 4:1827.33 5:10247.3 6:3.3333299 7:119.349 8:1963.5 9:4 10:102 11:63 12:371 13:7620.04 14:2449.5801 15:138.03 16:171.571 17:0.45714301 18:9.6000004 19:0.29113901 20:0.95660001 21:0.178324 22:0.743617 23:0.80156302 24:1.2 # Flowers/Shape3/shape3-094.ppm
3.2456798552441476454061725576506e-12 1:141290 2:266682 3:208990 4:1695.4 5:4487.75 6:3.5151501 7:105.193 8:33329.199 9:10 10:33 11:33 12:201 13:4885.8599 14:4281.5098 15:145.687 16:164.091 17:0.375 18:10.8235 19:0.222222 20:0.67606002 21:0.377783 22:1.08871 23:7.78444 24:2.84483 # Flowers/Shape1/shape1-019.ppm
-3.2456798552441476454061725576506e-12 1:241647 2:326959 3:251730 4:1785.72 5:9383.2598 6:3.1800001 7:120.836 8:2827.4299 9:4 10:100 11:80 12:319 13:7785.6899 14:2416.47 15:157.276 16:173.86301 17:0.40845099 18:21.7857 19:0.35135099 20:0.95994598 21:0.190309 22:0.82974201 23:1.1700701 24:1.2578599 # Flowers/Shape3/shape3-068.ppm
3.2456798552441476454061725576506e-12 1:198664 2:382277 3:273598 4:1948.59 5:7625.3501 6:3.68627 7:105.912 8:32685.1 9:16 10:51 11:30 12:190 13:5551.7798 14:3895.3701 15:164.847 16:164.567 17:0.378378 18:30.6667 19:0.186047 20:0.72611398 21:0.255541 22:0.72807002 23:8.39077 24:4.3404298 # Flowers/Shape1/shape1-083.ppm
-3.2456798552441476454061725576506e-12 1:237480 2:316932 3:249598 4:1777.98 5:8484.1699 6:3.0537601 7:123.74 8:2642.0801 9:3 10:93 11:77 12:330 13:7732.1401 14:2553.54 15:154.976 16:173.22099 17:0.38806 18:16.368401 19:0.38806 20:0.951446 21:0.209564 22:0.91136199 23:1.03467 24:0.98239398 # Flowers/Shape3/shape3-028.ppm
3.2456798552441476454061725576506e-12 1:200843 2:389958 3:273710 4:1948.63 5:8821.8896 6:3.8620701 7:106.482 8:30790.699 9:19 10:58 11:31 12:239 13:5623.6602 14:3462.8 15:156.946 16:163.323 17:0.44999999 18:16.0714 19:0.16 20:0.73377699 21:0.22088499 22:0.63746703 23:8.89186 24:4.9196401 # Flowers/Shape1/shape1-043.ppm
-3.2456798552441476454061725576506e-12 1:265785 2:368433 3:277180 4:1893.48 5:9883.6797 6:3.3195901 7:113.524 8:6939.7798 9:6 10:97 11:78 12:296 13:7524.7998 14:2740.05 15:163.24699 16:173.897 17:0.447761 18:48.333302 19:0.36619699 20:0.95889097 21:0.191576 22:0.76133698 23:2.5327201 24:1.8074501 # Flowers/Shape3/shape3-065.ppm
3.2456798552441476454061725576506e-12 1:197356 2:389327 3:272836 4:1946.41 5:7642.9502 6:3.7735801 7:102.279 8:26590.4 9:15 10:53 11:31 12:235 13:5695.04 14:3723.7 15:157.694 16:164.323 17:0.472222 18:17.0769 19:0.20454501 20:0.72334898 21:0.25466701 22:0.74513602 23:7.1408701 24:3.9749999 # Flowers/Shape1/shape1-002.ppm
-3.2456798552441476454061725576506e-12 1:251565 2:343562 3:260790 4:1825.59 5:10352 6:3.3076899 7:121.249 8:1385.4399 9:3 10:104 11:65 12:369 13:7637.1001 14:2418.8999 15:138.74001 16:174.26199 17:0.38666701 18:11.3 19:0.28395101 20:0.96463001 21:0.17635199 22:0.73774302 23:0.57275802 24:0.906977 # Flowers/Shape3/shape3-074.ppm
3.2456798552441476454061725576506e-12 1:197287 2:380474 3:271804 4:1942.89 5:8204.3203 6:3.7777801 7:110.647 8:35298.898 9:19 10:54 11:30 12:200 13:5588.8398 14:3653.47 15:160.78 16:165.10001 17:0.384615 18:21.2222 19:0.173913 20:0.72584498 21:0.23681299 22:0.681207 23:9.6617603 24:5.0294099 # Flowers/Shape1/shape1-063.ppm
-3.2456798552441476454061725576506e-12 1:270242 2:370260 3:278766 4:1898.17 5:11073.1 6:3.39048 7:116.315 8:9852.0303 9:9 10:105 11:76 12:294 13:7497.98 14:2573.74 15:162.929 16:174.31599 17:0.40000001 18:48 19:0.296296 20:0.96942198 21:0.17142101 22:0.67713201 23:3.8279099 24:2.65449 # Flowers/Shape3/shape3-085.ppm
-3.2456798552441476454061725576506e-12 1:240935 2:318600 3:250408 4:1781.13 5:10203.8 6:3.2792799 7:121.984 8:2290.22 9:3 10:111 11:76 12:339 13:7738.9502 14:2170.5801 15:153.14999 16:174.32899 17:0.405063 18:20.1875 19:0.337349 20:0.96216798 21:0.174556 22:0.758439 23:1.05512 24:0.91483498 # Flowers/Shape3/shape3-007.ppm
-3.2456798552441476454061725576506e-12 1:239158 2:311052 3:251118 4:1792.5601 5:8982.3096 6:3.3734901 7:113.066 8:2827.4299 9:4 10:83 11:76 12:282 13:6896.1602 14:2881.4199 15:160.06 16:174.395 17:0.56603801 18:22.5 19:0.40678 20:0.95236999 21:0.19956499 22:0.76775002 23:0.981264 24:1.18571 # Flowers/Shape3/shape3-049.ppm
3.2456798552441476454061725576506e-12 1:199778 2:390600 3:274610 4:1951.1899 5:7906.52 6:3.7818201 7:98.254898 8:33329.199 9:17 10:55 11:32 12:237 13:5701.6499 14:3632.3301 15:154.882 16:168.875 17:0.61764699 18:13.8125 19:0.19565199 20:0.72749698 21:0.246782 22:0.72113401 23:9.1756897 24:4.4951901 # Flowers/Shape1/shape1-023.ppm
3.2456798552441476454061725576506e-12 1:138155 2:266700 3:209040 4:1694.71 5:4384.6602 6:3.625 7:101.845 8:33329.199 9:11 10:32 11:34 12:206 13:4866.5298 14:4317.3599 15:151.655 16:166.17599 17:0.52381003 18:14.8462 19:0.23076899 20:0.66090298 21:0.38650799 22:1.1099 23:7.71981 24:3.0344801 # Flowers/Shape1/shape1-040.ppm
3.2456798552441476454061725576506e-12 1:200357 2:322812 3:227240 4:1732.67 5:9480.79 6:3.9574499 7:106.086 8:96211.297 9:32 10:47 11:40 12:176 13:4234.3799 14:4262.9102 15:155.91499 16:169.325 17:0.62068999 18:24.1429 19:0.175 20:0.881697 21:0.18275601 22:0.446628 23:22.569401 24:8.0860205 # Flowers/Shape1/shape1-090.ppm
-3.2456798552441476454061725576506e-12 1:242695 2:316882 3:250061 4:1779.88 5:9750.8301 6:3.19626 7:119.017 8:2290.22 9:3 10:107 11:72 12:321 13:7705.5098 14:2268.1799 15:157.355 16:174 17:0.33750001 18:20.4 19:0.320988 20:0.97054398 21:0.18253601 22:0.79024202 23:1.00972 24:0.93859601 # Flowers/Shape3/shape3-048.ppm
3.2456798552441476454061725576506e-12 1:291244 2:561358 3:350690 4:2281.98 5:11527.5 6:3.84848 7:107.814 8:66966.203 9:17 10:66 11:48 12:245 13:5943.3599 14:4412.79 15:159.188 16:170.875 17:0.404255 18:34 19:0.137931 20:0.83048898 21:0.19796 22:0.51558 23:15.1755 24:4.4173198 # Flowers/Shape1/shape1-073.ppm
-3.2456798552441476454061725576506e-12 1:267170 2:370040 3:293970 4:1972.73 5:10925.7 6:3.2181799 7:115.665 8:706.85797 9:2 10:110 11:62 12:383 13:8374.8301 14:2428.8201 15:139.23801 16:171.839 17:0.32530099 18:9.9428596 19:0.25 20:0.90883303 21:0.18055899 22:0.76652902 23:0.29102999 24:0.62146902 # Flowers/Shape3/shape3-018.ppm
3.2456798552441476454061725576506e-12 1:156058 2:313560 3:207923 4:1690.6801 5:5969.46 6:3.5999999 7:101.359 8:33329.199 9:15 10:45 11:31 12:208 13:4861.6899 14:3467.96 15:150.88901 16:163.452 17:0.32352901 18:15 19:0.216216 20:0.75055701 21:0.28322101 22:0.81442702 23:9.6106005 24:4.1666698 # Flowers/Shape1/shape1-080.ppm
-3.2456798552441476454061725576506e-12 1:266818 2:368126 3:294076 4:1972.61 5:11170.7 6:3.2241399 7:117.529 8:452.38901 9:1 10:116 11:59 12:382 13:8427.1797 14:2300.1599 15:148.49699 16:173.373 17:0.380952 18:19.105301 19:0.221053 20:0.90731198 21:0.176587 22:0.75439799 23:0.196678 24:0.31016001 # Flowers/Shape3/shape3-059.ppm
3.2456798552441476454061725576506e-12 1:131415 2:313040 3:228154 4:1792.03 5:5121.3999 6:3.28 7:108.623 8:10935.9 9:10 10:50 11:19 12:241 13:5926.79 14:2628.3 15:159.45599 16:155.211 17:0.38888901 18:29.125 19:0.42857099 20:0.575993 21:0.34990999 22:1.1572599 23:4.16081 24:3.04878 # Flowers/Shape1/shape1-003.ppm
-3.2456798552441476454061725576506e-12 1:268305 2:368126 3:293690 4:1971.62 5:10803.5 6:3.1965799 7:112.677 8:452.38901 9:2 10:117 11:55 12:386 13:8375.9004 14:2293.21 15:146.49699 16:171.30901 17:0.32954499 18:12.3103 19:0.23157901 20:0.91356802 21:0.18249901 22:0.77529597 23:0.197274 24:0.62566799 # Flowers/Shape3/shape3-039.ppm
3.2456798552441476454061725576506e-12 1:136210 2:265216 3:170444 4:1537.45 5:7009.21 6:4.0888901 7:101.05 8:53912.898 9:20 10:45 11:33 12:154 13:3801.45 14:3026.8999 15:156.16901 16:165.21201 17:0.25 18:21 19:0.153846 20:0.79914802 21:0.219348 22:0.54235101 23:17.8113 24:4.8913002 # Flowers/Shape1/shape1-081.ppm
-3.2456798552441476454061725576506e-12 1:251498 2:330625 3:260072 4:1822.9301 5:10718.5 6:3.3396201 7:114.795 8:2123.72 9:4 10:106 11:58 12:221 13:7335.2598 14:2372.6201 15:164.923 16:171.414 17:0.413333 18:43.200001 19:0.29268301 20:0.96703303 21:0.170073 22:0.68435401 23:0.89509201 24:1.19774 # Flowers/Shape3/shape3-013.ppm
3.2456798552441476454061725576506e-12 1:130804 2:314514 3:228856 4:1795.02 5:5135.0298 6:3.1698101 7:114.339 8:9852.0303 9:9 10:53 11:19 12:247 13:5968.8701 14:2467.99 15:157.77699 16:155.68401 17:0.32499999 18:26.444401 19:0.472222 20:0.57155299 21:0.34956399 22:1.16238 23:3.99192 24:2.8392899 # Flowers/Shape1/shape1-044.ppm
-3.2456798552441476454061725576506e-12 1:251227 2:330000 3:260372 4:1824.6801 5:9587.3604 6:3.1752601 7:120.212 8:2123.72 9:4 10:97 11:58 12:257 13:7438.1201 14:2589.97 15:160.29601 16:171.69 17:0.405797 18:24.700001 19:0.25974 20:0.964876 21:0.190321 22:0.77582598 23:0.81997699 24:1.25974 # Flowers/Shape3/shape3-054.ppm
3.2456798552441476454061725576506e-12 1:135057 2:266256 3:170500 4:1539.23 5:5695.1401 6:3.88571 7:105.861 8:54739.102 9:18 10:35 11:38 12:163 13:3801.4299 14:3858.76 15:152.73599 16:167.211 17:0.45833299 18:22.2857 19:0.25 20:0.79212099 21:0.27026999 22:0.66748798 23:14.1857 24:4.63235 # Flowers/Shape1/shape1-061.ppm
-3.2456798552441476454061725576506e-12 1:303762 2:420552 3:316160 4:2001.25 5:12161.5 6:3.30233 7:119.758 8:3848.45 9:6 10:129 11:75 12:389 13:9506.0195 14:2354.74 15:160.339 16:174.2 17:0.482759 18:31.4167 19:0.44943801 20:0.96078402 21:0.164556 22:0.78164703 23:1.63434 24:1.8169 # Flowers/Shape3/shape3-084.ppm
3.2456798552441476454061725576506e-12 1:148886 2:326510 3:207343 4:1719.12 5:7072.98 6:3.70909 7:99.5839 8:30171.9 9:18 10:55 11:28 12:204 13:4837.71 14:2707.02 15:155.662 16:163.821 17:0.341463 18:21.6667 19:0.25 20:0.71806699 21:0.243054 22:0.68397099 23:11.1458 24:4.8529401 # Flowers/Shape1/shape1-082.ppm
-3.2456798552441476454061725576506e-12 1:270194 2:357643 3:279434 4:1900.17 5:10978.5 6:3.46154 7:116.535 8:9160.8799 9:7 10:104 11:81 12:301 13:7525.6099 14:2598.02 15:159.767 16:174.864 17:0.52941197 18:36.625 19:0.30000001 20:0.96693498 21:0.173081 22:0.68548602 23:3.5260999 24:2.0222199 # Flowers/Shape3/shape3-045.ppm
3.2456798552441476454061725576506e-12 1:147099 2:327025 3:206920 4:1718.98 5:6308.1499 6:3.625 7:106.024 8:30790.699 9:16 10:48 11:28 12:211 13:4893.9902 14:3064.5601 15:152.23199 16:162.60699 17:0.41176501 18:16.5833 19:0.26315799 20:0.710899 21:0.27250099 22:0.77582097 23:10.0474 24:4.4137902 # Flowers/Shape1/shape1-062.ppm
-3.2456798552441476454061725576506e-12 1:280681 2:383161 3:293568 4:1924.85 5:11094.1 6:3.1079099 7:117.116 8:1661.9 9:2 10:139 11:78 12:418 13:10342.3 14:2019.29 15:160.297 16:173.744 17:0.49462399 18:28.8571 19:0.57954502 20:0.95609999 21:0.173502 22:0.93223202 23:0.82301497 24:0.64351898 # Flowers/Shape3/shape3-080.ppm
3.2456798552441476454061725576506e-12 1:129191 2:315120 3:228557 4:1796.39 5:5015.1299 6:3.34694 7:106.183 8:20106.199 9:10 10:49 11:18 12:245 13:5973.6099 14:2636.54 15:155.661 16:153.11099 17:0.40000001 18:16.5 19:0.441176 20:0.56524497 21:0.35819301 22:1.19112 23:7.6259599 24:2.9877999 # Flowers/Shape1/shape1-024.ppm
-3.2456798552441476454061725576506e-12 1:272495 2:369600 3:284558 4:1900.05 5:10593.4 6:3.42222 7:114.408 8:1385.4399 9:2 10:90 11:76 12:313 13:7254.23 14:3027.73 15:153.399 16:174.132 17:0.40625 18:25.0833 19:0.25 20:0.95761102 21:0.179361 22:0.68478501 23:0.45758501 24:0.58441597 # Flowers/Shape3/shape3-097.ppm
3.2456798552441476454061725576506e-12 1:215062 2:433202 3:270736 4:1964.71 5:8038.6001 6:4 7:102.38 8:53092.898 9:19 10:43 11:39 12:215 13:4684.2598 14:5001.4399 15:149.89799 16:168.46201 17:0.43333301 18:15.5385 19:0.131579 20:0.79436201 21:0.24440999 22:0.58272099 23:10.6155 24:4.75 # Flowers/Shape1/shape1-086.ppm
3.2456798552441476454061725576506e-12 1:160245 2:386100 3:310072 4:2063.8501 5:5845.4199 6:3.4074099 7:102.623 8:11309.7 9:9 10:54 11:26 12:336 13:7713.71 14:2967.5 15:148.51801 16:164.577 17:0.45945901 18:12.44 19:0.384615 20:0.51679802 21:0.35307199 22:1.31962 23:3.8112099 24:2.6413 # Flowers/Shape1/shape1-016.ppm
-3.2456798552441476454061725576506e-12 1:246097 2:311581 3:251338 4:1793.29 5:10551.4 6:3.4705901 7:116.353 8:2463.01 9:4 10:102 11:77 12:273 13:6854.21 14:2412.72 15:163.601 16:173.16901 17:0.47826099 18:53.599998 19:0.32467499 20:0.97915 21:0.169958 22:0.64960402 23:1.02084 24:1.15254 # Flowers/Shape3/shape3-008.ppm
3.2456798552441476454061725576506e-12 1:212952 2:420090 3:271645 4:1931.61 5:8819.5596 6:4.0377402 7:102.696 8:67886.703 9:20 10:53 11:36 12:209 13:4895.5601 14:4017.96 15:153.70799 16:165.75 17:0.26190501 18:19.9 19:0.12766001 20:0.78393501 21:0.219015 22:0.55508 23:16.8958 24:4.95327 # Flowers/Shape1/shape1-088.ppm
-3.2456798552441476454061725576506e-12 1:274547 2:370242 3:284952 4:1901.46 5:10958.7 6:3.47368 7:116.443 8:2642.0801 9:3 10:95 11:77 12:294 13:7230.71 14:2889.97 15:157.752 16:173.27299 17:0.37681201 18:23.5 19:0.26666701 20:0.96348602 21:0.173511 22:0.65981299 23:0.91422498 24:0.86363602 # Flowers/Shape3/shape3-077.ppm
-3.2456798552441476454061725576506e-12 1:275417 2:363975 3:284092 4:1898.45 5:11335.1 6:3.45455 7:117.737 8:2463.01 9:4 10:99 11:74 12:310 13:7268.3501 14:2781.99 15:150.09 16:174.189 17:0.47761199 18:17.2353 19:0.2375 20:0.96946597 21:0.167484 22:0.64122403 23:0.88534099 24:1.15789 # Flowers/Shape3/shape3-016.ppm
3.2456798552441476454061725576506e-12 1:133202 2:342171 3:228430 4:1792.05 5:5745.8301 6:3.3898301 7:104.794 8:8494.8701 9:10 10:59 11:16 12:275 13:6009.9702 14:2257.6699 15:145.89101 16:157.562 17:0.37209299 18:14.2778 19:0.404762 20:0.583121 21:0.311887 22:1.04597 23:3.7626801 24:2.95 # Flowers/Shape1/shape1-084.ppm
-3.2456798552441476454061725576506e-12 1:280752 2:376250 3:293787 4:1926 5:10719 6:3.06569 7:117.922 8:1809.5601 9:3 10:137 11:82 12:426 13:10318.5 14:2049.29 15:161.735 16:175.524 17:0.37 18:37.727299 19:0.53932601 20:0.95563298 21:0.179682 22:0.962641 23:0.883017 24:0.978571 # Flowers/Shape3/shape3-060.ppm
3.2456798552441476454061725576506e-12 1:264712 2:535896 3:408356 4:2404.3601 5:10742.4 6:3.9166701 7:106.329 8:48305.102 9:15 10:72 11:30 12:257 13:6699.98 14:3676.55 15:150.38499 16:165.533 17:0.53191501 18:31.125 19:0.2 20:0.648238 21:0.223819 22:0.62369502 23:13.1387 24:3.8297901 # Flowers/Shape1/shape1-008.ppm
3.2456798552441476454061725576506e-12 1:265894 2:535716 3:407338 4:2403.6599 5:12324.7 6:3.9000001 7:110.651 8:58106.898 9:20 10:80 11:30 12:326 13:6754.7798 14:3323.6699 15:143.98199 16:165.33299 17:0.42857099 18:18.1765 19:0.15942 20:0.652758 21:0.19502801 22:0.54806697 23:17.4828 24:5.1282101 # Flowers/Shape1/shape1-049.ppm
-3.2456798552441476454061725576506e-12 1:305073 2:421200 3:317874 4:2006.22 5:12337.3 6:3.2781999 7:115.208 8:3631.6799 9:4 10:133 11:73 12:396 13:9530.46 14:2293.78 15:157.31599 16:173.63 17:0.47777799 18:38.599998 19:0.40000001 20:0.959732 21:0.162614 22:0.77249098 23:1.58327 24:1.22018 # Flowers/Shape3/shape3-064.ppm
-3.2456798552441476454061725576506e-12 1:276508 2:365241 3:285224 4:1902.85 5:11208 6:3.5051501 7:112.453 8:2642.0801 9:4 10:97 11:72 12:295 13:7227.8799 14:2850.6001 15:158.681 16:173.76401 17:0.405797 18:48.166698 19:0.24359 20:0.969441 21:0.16977599 22:0.64488602 23:0.92685199 24:1.14118 # Flowers/Shape3/shape3-037.ppm
3.2456798552441476454061725576506e-12 1:214888 2:436437 3:270925 4:1965.83 5:7487.71 6:3.9473701 7:106.527 8:64242.398 9:20 10:38 11:36 12:219 13:4688.4302 14:5654.9302 15:147.959 16:165.806 17:0.46153799 18:11.8824 19:0.15151501 20:0.79316199 21:0.262541 22:0.62615001 23:11.3604 24:5.0666699 # Flowers/Shape1/shape1-066.ppm
-3.2456798552441476454061725576506e-12 1:282324 2:376226 3:294010 4:1926.45 5:11197.4 6:3.1048999 7:117.844 8:1809.5601 9:2 10:143 11:81 12:420 13:10331.2 14:1974.29 15:161.686 16:174.75301 17:0.47422701 18:45.666698 19:0.53763402 20:0.96025401 21:0.17204399 22:0.92264003 23:0.91655999 24:0.644144 # Flowers/Shape3/shape3-040.ppm
3.2456798552441476454061725576506e-12 1:131504 2:345897 3:229432 4:1797.33 5:5235.6499 6:3.2363601 7:110.089 8:10207 9:8 10:55 11:19 12:271 13:6069.3101 14:2390.98 15:150.40601 16:154.158 17:0.375 18:14.0556 19:0.447368 20:0.57317197 21:0.34328699 22:1.15923 23:4.26898 24:2.47191 # Flowers/Shape1/shape1-064.ppm
3.2456798552441476454061725576506e-12 1:155886 2:385392 3:310690 4:2063.26 5:5922.1699 6:3.3684199 7:103.652 8:11689.9 9:8 10:57 11:27 12:342 13:7730.02 14:2734.8401 15:148.444 16:166.33299 17:0.46153799 18:18 19:0.35714301 20:0.50174099 21:0.34839699 22:1.30527 23:4.2744198 24:2.375 # Flowers/Shape1/shape1-037.ppm
-3.2456798552441476454061725576506e-12 1:306422 2:397524 3:317836 4:2006.38 5:12000.6 6:3.2824399 7:116.365 8:3421.1899 9:5 10:131 11:82 12:392 13:9541.1299 14:2339.1001 15:158.543 16:175.573 17:0.48863599 18:20.7778 19:0.423913 20:0.96408802 21:0.16719 22:0.79505301 23:1.46261 24:1.52326 # Flowers/Shape3/shape3-044.ppm
3.2456798552441476454061725576506e-12 1:210724 2:418836 3:271231 4:1928.91 5:8456.1299 6:3.95455 7:101.723 8:75476.797 9:24 10:44 11:36 12:209 13:4879.4102 14:4789.1802 15:154.325 16:166.36099 17:0.41935501 18:22.2222 19:0.157895 20:0.77691698 21:0.228108 22:0.57702601 23:15.7598 24:6.0689702 # Flowers/Shape1/shape1-068.ppm
-3.2456798552441476454061725576506e-12 1:306997 2:396896 3:318241 4:2007.2 5:12861.9 6:3.3880601 7:119.525 8:4071.5 9:6 10:134 11:83 12:392 13:9588.5303 14:2291.02 15:157.258 16:175.349 17:0.44086 18:19.631599 19:0.42553201 20:0.96466798 21:0.156058 22:0.74550003 23:1.77716 24:1.7709301 # Flowers/Shape3/shape3-024.ppm
1.9310841929825218797639151666924e-13 1:187053 2:455806 3:310283 4:2064.73 5:7635.0498 6:3.4054101 7:106.989 8:11689.9 9:12 10:74 11:25 12:335 13:7669.3799 14:2527.74 15:150.875 16:163.52 17:0.45098001 18:18.7059 19:0.32142901 20:0.60284603 21:0.270428 22:1.0045 23:4.62463 24:3.5238099 # Flowers/Shape1/shape1-077.ppm
